1.308384895324707031e+00
3.168923556804656982e-01
5.304224491119384766e-01 1.769728660583496094e-01 7.406974583864212036e-02
5.517820641398429871e-02 -3.849248215556144714e-02 -1.414347440004348755e-01
1.156307309865951538e-01 6.040398776531219482e-02 -1.022096350789070129e-01
-9.189173579216003418e-02 -4.723824094980955124e-03 1.691851392388343811e-02
-1.214782223105430603e-01 -3.516064956784248352e-02 -9.313700348138809204e-02
1.302350312471389771e-01 7.117811590433120728e-02 3.467869460582733154e-01
-5.451627373695373535e-01 -4.468502104282379150e-02 -5.374563336372375488e-01
-1.504150331020355225e-01 7.705082744359970093e-02 6.224198639392852783e-02
-6.034739688038825989e-02 -5.375016480684280396e-03 -3.476196825504302979e-01
1.781419366598129272e-01 8.436011523008346558e-02 2.287825793027877808e-01
-9.150122851133346558e-02 -2.955847606062889099e-02 -1.005788818001747131e-01
4.452874884009361267e-02 -1.856360025703907013e-02 1.702011004090309143e-02
-5.960215628147125244e-02 -1.231608353555202484e-02 -6.818347424268722534e-02
1.971535831689834595e-01 3.720732405781745911e-02 1.608139872550964355e-01
-2.300852835178375244e-01 -3.530252724885940552e-03 -1.937068402767181396e-01
-8.562599867582321167e-02 4.017046466469764709e-02 -1.040757298469543457e-01
-1.631283909082412720e-01 8.650207892060279846e-03 -1.360340118408203125e-01
3.443427085876464844e-01 1.278546005487442017e-01 3.625758886337280273e-01
1.339811831712722778e-01 1.516297552734613419e-02 5.804777517914772034e-02
-4.124201834201812744e-02 -3.817363083362579346e-02 -3.128913417458534241e-02
-2.918464243412017822e-01 -1.673315279185771942e-02 -2.918749861419200897e-02
-4.062088206410408020e-02 8.602370321750640869e-02 1.204911917448043823e-01
-8.057416975498199463e-02 -6.810608506202697754e-02 -1.167326644062995911e-01
3.018609881401062012e-01 1.679739952087402344e-01 3.654548227787017822e-01
2.564980983734130859e-01 7.421087473630905151e-02 3.775291144847869873e-01
-1.030700132250785828e-01 1.616695374250411987e-01 4.383044540882110596e-01
-3.257258236408233643e-02 -4.300115630030632019e-02 -4.340454936027526855e-02
-1.238845288753509521e-01 -5.955804511904716492e-02 -3.047847449779510498e-01
5.566634535789489746e-01 8.946545422077178955e-02 5.386755466461181641e-01
1.620142310857772827e-01 1.312382221221923828e-01 1.919392347335815430e-01
4.545804560184478760e-01 7.272408157587051392e-02 2.587574720382690430e-01
-4.757279530167579651e-03 7.364215701818466187e-02 2.848010361194610596e-01
-1.488566491752862930e-02 1.496589481830596924e-01 1.827259212732315063e-01
1.195067632943391800e-02 1.913545094430446625e-02 1.084273532032966614e-01
-1.240132562816143036e-02 4.107109270989894867e-03 1.030554324388504028e-01
5.899136513471603394e-02 -3.207548335194587708e-02 1.588212139904499054e-02
1.604720801115036011e-01 3.784070536494255066e-02 1.397588998079299927e-01
-9.770148433744907379e-03 8.581187576055526733e-02 -5.051189288496971130e-02
3.415624797344207764e-01 -1.876162439584732056e-01 2.591756880283355713e-01
3.836558759212493896e-02 -5.503606051206588745e-02 -2.463617920875549316e-02
-2.713292837142944336e-03 -6.341026723384857178e-02 1.631814092397689819e-01
-6.183731928467750549e-02 5.534189566969871521e-02 2.024014294147491455e-02
1.186883151531219482e-01 4.592697322368621826e-02 1.350922137498855591e-01
-4.280584678053855896e-02 -9.775134734809398651e-03 -6.147547625005245209e-03
3.797230497002601624e-02 2.175017260015010834e-02 1.937550865113735199e-02
-7.899432629346847534e-02 3.939923644065856934e-02 -3.870886936783790588e-02
1.062950342893600464e-01 -1.362851262092590332e-02 1.226201802492141724e-01
2.498411573469638824e-02 -5.650516599416732788e-02 9.024553000926971436e-02
1.041056141257286072e-01 -1.716590300202369690e-02 9.395316988229751587e-02
-3.226098045706748962e-02 2.593579515814781189e-02 -1.798932254314422607e-01
-3.969877958297729492e-03 5.429214984178543091e-02 4.271556809544563293e-02
9.410363435745239258e-02 -9.674786590039730072e-03 -1.689046248793601990e-02
2.317119240760803223e-01 -1.387265976518392563e-03 1.147527024149894714e-01
8.737518638372421265e-02 2.608037553727626801e-02 -4.116339236497879028e-02
7.761154323816299438e-02 3.099387139081954956e-02 5.674500763416290283e-02
-1.521469503641128540e-01 -1.655744126765057445e-04 -2.234385721385478973e-02
4.759290814399719238e-02 2.357400059700012207e-01 6.331249326467514038e-02
2.459951043128967285e-01 4.968746751546859741e-02 -3.228671103715896606e-02
1.127998344600200653e-02 1.149056013673543930e-02 6.179008260369300842e-02
1.024485826492309570e-01 -4.591054469347000122e-02 9.194697439670562744e-02
1.059161722660064697e-01 3.852659165859222412e-01 8.994052559137344360e-02
-3.995078057050704956e-02 3.208115324378013611e-02 -1.130070015788078308e-01
-5.219724029302597046e-02 1.135234907269477844e-01 -1.475797849707305431e-03
1.060838177800178528e-01 2.135507948696613312e-02 3.881553933024406433e-02