2.093905210494995117e-01
1.423213928937911987e-01
-1.683098822832107544e-02
1.191407367587089539e-01
1.219239979982376099e-01
2.521022558212280273e-01
3.101966977119445801e-01
3.760178387165069580e-01
-2.890243567526340485e-02
2.345611341297626495e-02
-8.763042092323303223e-02
1.498537361621856689e-01
3.315012156963348389e-02
1.617948263883590698e-01
1.261654347181320190e-01
2.082343995571136475e-01
2.460967451333999634e-01
7.279268652200698853e-02
1.815659999847412109e-01
8.654522895812988281e-02
-4.809843376278877258e-02
2.356577217578887939e-01
5.344802737236022949e-01
1.374643482267856598e-02
1.555141508579254150e-01
1.830905377864837646e-01
1.722665131092071533e-01
1.078806072473526001e-01
3.240924477577209473e-01
2.855006158351898193e-01
2.689010500907897949e-01
1.772620379924774170e-01
2.628917340189218521e-03 7.050421833992004395e-02 -4.190714657306671143e-02
-3.641960024833679199e-02 4.215664044022560120e-02 3.718880936503410339e-02
2.169534750282764435e-02 -2.292253449559211731e-02 -4.589399322867393494e-02
-3.326287865638732910e-02 5.548749119043350220e-02 -9.295209497213363647e-02
1.494177337735891342e-02 -1.336628774879500270e-04 7.562600076198577881e-02
-1.375847682356834412e-02 -1.804824545979499817e-02 -1.732063107192516327e-02
-9.211376309394836426e-03 6.507811695337295532e-02 2.751970663666725159e-02
-5.160030350089073181e-02 -4.439967218786478043e-03 -1.743568666279315948e-02
-5.703409388661384583e-02 5.557020381093025208e-02 4.426296427845954895e-02
3.928644116967916489e-03 5.955629516392946243e-03 -5.180558934807777405e-02
-1.091299299150705338e-02 1.401166990399360657e-02 1.605871692299842834e-02
-4.522937536239624023e-02 -2.218097448348999023e-02 3.841425478458404541e-02
-1.753683239221572876e-01 6.542009115219116211e-02 -3.101074323058128357e-02
-1.088588498532772064e-02 -2.410973608493804932e-02 6.785191595554351807e-02
-1.083917245268821716e-01 -2.299445495009422302e-02 -7.751954346895217896e-02
2.950209379196166992e-02 -4.400609433650970459e-02 -1.295466125011444092e-01
-6.084560230374336243e-02 9.090437740087509155e-02 1.117134932428598404e-02
-3.834813088178634644e-02 1.618224196135997772e-02 1.303920801728963852e-02
2.408683486282825470e-02 -6.445186212658882141e-03 -2.074247151613235474e-01
2.574032545089721680e-02 -5.478514730930328369e-02 3.763553220778703690e-03
-1.091897301375865936e-02 -7.090100646018981934e-02 -1.128069385886192322e-01
-3.002968132495880127e-01 4.469440504908561707e-02 -3.227074071764945984e-02
-3.173004090785980225e-02 -1.745356023311614990e-01 -1.145238876342773438e-01
5.243872758001089096e-03 -1.094173640012741089e-02 -9.160030633211135864e-02
6.885877251625061035e-02 -4.344150424003601074e-02 2.664015069603919983e-02
-6.492874026298522949e-02 1.646992750465869904e-02 -4.340030625462532043e-02
-5.500054731965065002e-02 2.270374679937958717e-03 6.718079745769500732e-02
-7.293288409709930420e-02 -1.637344993650913239e-02 -9.848127514123916626e-02
5.473638419061899185e-03 -1.681596413254737854e-02 -5.511177703738212585e-03
-2.058611437678337097e-02 -6.148707494139671326e-02 -6.052019447088241577e-02
1.665916666388511658e-02 4.580034688115119934e-02 -6.854183226823806763e-02
-7.396699488162994385e-02 5.037569627165794373e-02 9.142139554023742676e-02
-1.912248730659484863e-01 5.200203508138656616e-02 -2.382035180926322937e-02
-2.180896885693073273e-02 2.935720793902873993e-02 3.031123057007789612e-02
4.376779124140739441e-02 -1.791235990822315216e-02 -7.363909482955932617e-02
1.939466223120689392e-02 4.429826512932777405e-03 -1.046847850084304810e-01
-1.081279367208480835e-01 7.919548079371452332e-03 -1.499360054731369019e-01
2.033473365008831024e-02 -5.369250103831291199e-02 7.024440448731184006e-03
-4.731266945600509644e-02 -4.771267250180244446e-02 4.577042907476425171e-02
5.498067475855350494e-03 1.449821703135967255e-02 -3.278711065649986267e-02
2.893021143972873688e-02 -1.468405571358744055e-05 -7.054226100444793701e-02
5.993101373314857483e-02 -3.119361959397792816e-02 -2.157871425151824951e-02
2.373714232817292213e-03 9.120045229792594910e-03 -2.263464592397212982e-02
4.947704821825027466e-02 6.640886515378952026e-02 -2.071847394108772278e-02
-3.560662269592285156e-02 2.520501799881458282e-02 -4.534936696290969849e-02
-4.646140336990356445e-02 -4.422955214977264404e-02 -3.312344476580619812e-02
-6.339354813098907471e-02 4.041025042533874512e-02 9.838835895061492920e-02
6.863871961832046509e-02 -2.284779585897922516e-02 -6.526924669742584229e-02
-1.801913790404796600e-02 3.692121803760528564e-02 -9.210970252752304077e-02
1.407700590789318085e-03 9.519285522401332855e-03 -2.392887603491544724e-03
-7.918200455605983734e-03 -3.956642746925354004e-02 -8.808397501707077026e-02
-8.192656934261322021e-02 -1.221195328980684280e-03 4.264315590262413025e-02
1.119601074606180191e-02 -4.210014361888170242e-03 -3.109632618725299835e-02
2.113833837211132050e-02 -8.394988626241683960e-02 -5.667046830058097839e-02
-1.396185606718063354e-01 4.408006556332111359e-03 -2.002684166654944420e-03
9.734480828046798706e-02 -4.570279642939567566e-02 -4.660748317837715149e-02
6.008235365152359009e-02 -1.047903969883918762e-01 -4.351509362459182739e-02
-9.597461670637130737e-02 2.907264977693557739e-03 3.552952781319618225e-02
6.335988640785217285e-02 1.666463911533355713e-03 -4.127765819430351257e-02
1.009582281112670898e-01 -3.623435273766517639e-02 -6.003098096698522568e-03
3.166156634688377380e-02 -2.717899531126022339e-02 -1.300692465156316757e-02
4.306051880121231079e-03 -6.501679122447967529e-02 2.100074850022792816e-02
-5.644538253545761108e-02 -2.611306309700012207e-02 1.719029503874480724e-03
-1.951651275157928467e-02 -6.997426971793174744e-03 -1.928593032062053680e-02
2.952676638960838318e-02 9.036574512720108032e-03 1.462876237928867340e-02
-3.373881056904792786e-02 -4.104173183441162109e-02 -1.052218140102922916e-03
9.239343926310539246e-03 1.332383323460817337e-02 2.127402462065219879e-02
-7.523645763285458088e-04 2.053590305149555206e-02 7.655855268239974976e-02
-8.217160403728485107e-02 -2.364989928901195526e-02 -7.512887008488178253e-03
3.637698665261268616e-02 -2.002736739814281464e-02 -7.820515893399715424e-03
-3.053830750286579132e-02 1.459015067666769028e-02 -1.710494048893451691e-02
1.440876163542270660e-02 -1.296796556562185287e-02 -3.375091776251792908e-02
-4.383786767721176147e-02 1.691859401762485504e-02 4.658770281821489334e-03
-1.170843690633773804e-01 -6.045266240835189819e-02 7.715977728366851807e-02
-6.545813381671905518e-02 1.171618700027465820e-02 -3.273209556937217712e-02
-7.760470360517501831e-02 7.340402156114578247e-02 -3.430102253332734108e-03
-5.447080358862876892e-02 1.595464348793029785e-02 7.286243885755538940e-02
-2.750567719340324402e-02 -4.060437530279159546e-02 -3.254026919603347778e-02
1.692635193467140198e-02 1.632411964237689972e-02 3.973474353551864624e-02
-6.212610006332397461e-02 8.520910516381263733e-03 -4.742584004998207092e-02
-7.473418116569519043e-02 2.043419517576694489e-03 2.640120312571525574e-02
8.215840905904769897e-03 2.294501103460788727e-02 2.203573286533355713e-02
1.515880413353443146e-02 -4.795138165354728699e-02 -6.139874458312988281e-02
9.167814254760742188e-02 -4.070840775966644287e-03 -2.369808778166770935e-02
-2.252765744924545288e-02 4.423972219228744507e-02 1.118194833397865295e-01
-2.426180802285671234e-02 -1.229832619428634644e-01 -6.087490823119878769e-03
-3.934383392333984375e-02 -8.864730596542358398e-02 -4.820476472377777100e-02
3.410341218113899231e-02 -8.367458730936050415e-02 3.375491872429847717e-02
6.271176505833864212e-03 3.321981802582740784e-02 -6.363543868064880371e-02
-1.889908686280250549e-02 -2.321727387607097626e-02 3.285052254796028137e-02
-1.003841031342744827e-02 6.822323054075241089e-02 -8.542412891983985901e-03
9.838528931140899658e-02 3.025192208588123322e-02 2.161358855664730072e-02
-2.465158142149448395e-02 -6.457614246755838394e-03 -1.175658870488405228e-02
-7.755398005247116089e-02 -6.207150593400001526e-02 -1.013143509626388550e-01
5.788701772689819336e-02 2.052185684442520142e-02 4.883614368736743927e-03
1.894723251461982727e-02 -9.037222713232040405e-03 2.445363067090511322e-02
5.608867481350898743e-02 -3.300487995147705078e-02 -5.256593599915504456e-02
2.139183320105075836e-02 3.981808573007583618e-02 -2.812346443533897400e-02
-9.377086162567138672e-02 -8.932754397392272949e-02 -3.469452634453773499e-02
-1.914145201444625854e-01 -3.217255696654319763e-02 -2.715933881700038910e-02
-4.856911022216081619e-03 -4.771971725858747959e-04 -6.625176221132278442e-02
-3.320032730698585510e-02 -1.918319799005985260e-02 -2.541983872652053833e-02
1.324902847409248352e-02 1.066644472302868962e-04 -4.660279303789138794e-02
6.206547841429710388e-03 -1.492097973823547363e-02 3.692107647657394409e-02
2.183865569531917572e-02 -5.051399022340774536e-02 -2.804170735180377960e-02
-1.341932415962219238e-01 3.429720178246498108e-02 -2.969189919531345367e-02
-2.703953906893730164e-02 5.220636352896690369e-02 4.980850964784622192e-02
-4.368335008621215820e-02 -2.007896266877651215e-02 -5.055546760559082031e-02
3.151497617363929749e-02 -6.313941627740859985e-02 -5.249045044183731079e-02
1.792593672871589661e-02 6.748164445161819458e-02 4.193317890167236328e-02
-1.547471620142459869e-02 1.292177289724349976e-02 5.632990226149559021e-02
1.021770611405372620e-01 -2.528825215995311737e-02 1.880036108195781708e-02
7.220599800348281860e-02 -4.094628989696502686e-02 2.202549390494823456e-02
-2.272212877869606018e-02 3.592849709093570709e-03 5.102457851171493530e-02
1.754833012819290161e-02 -9.344980935566127300e-04 -4.203008487820625305e-02
-1.059257984161376953e-02 -1.718467101454734802e-02 -3.627343976404517889e-04
-2.966044005006551743e-03 -1.190002337098121643e-01 -9.903194010257720947e-02
-1.953245140612125397e-02 -3.429965674877166748e-02 -6.566834449768066406e-02
3.833034262061119080e-02 4.441044293344020844e-03 -1.683548986911773682e-01
3.979340940713882446e-02 5.547740310430526733e-02 3.656857833266258240e-02
4.686005413532257080e-03 -1.100997533649206161e-02 -4.931457224301993847e-04
-1.634825393557548523e-02 -3.621734678745269775e-02 -6.434651091694831848e-03
9.057616814970970154e-03 -6.027023121714591980e-02 -2.982433699071407318e-02
-4.805261269211769104e-02 -5.589856952428817749e-02 1.327996887266635895e-02
-9.105458855628967285e-03 -4.704268649220466614e-03 2.829681849107146263e-03
3.664915263652801514e-02 3.087417036294937134e-02 1.486653927713632584e-02
2.601570263504981995e-02 -9.715285897254943848e-02 -2.655133791267871857e-02
-6.573769729584455490e-03 6.909086834639310837e-03 -6.080092862248420715e-03
-2.504860796034336090e-02 -9.462606906890869141e-02 -6.132656708359718323e-02
3.850477514788508415e-03 -2.245128899812698364e-02 1.953954994678497314e-02
4.061745107173919678e-02 -4.902670159935951233e-02 -1.141840964555740356e-01
2.041124738752841949e-02 2.447496913373470306e-02 -1.912267319858074188e-02
-3.012427769135683775e-04 1.403239965438842773e-01 -3.728925809264183044e-02
-5.984945688396692276e-03 -1.717980392277240753e-02 1.350091397762298584e-02
5.393103696405887604e-03 -6.065103691071271896e-03 1.345498487353324890e-02
-1.157307811081409454e-02 -1.575978659093379974e-02 -2.837349660694599152e-03
5.199997499585151672e-02 7.349897921085357666e-02 -9.250009432435035706e-03
1.150247976183891296e-01 -7.169036567211151123e-02 -6.522392481565475464e-02
-3.930288925766944885e-02 9.406279772520065308e-02 3.937088698148727417e-02
-2.093132957816123962e-02 4.990956187248229980e-02 -3.771381452679634094e-02
-1.162932813167572021e-01 5.567872151732444763e-02 -3.107481263577938080e-02
6.238891184329986572e-02 -6.124907173216342926e-03 -5.382701754570007324e-02
2.384921722114086151e-02 -2.201861701905727386e-02 1.477683521807193756e-02
-6.059617176651954651e-02 -1.109844893217086792e-01 -4.874147102236747742e-02
7.331754267215728760e-02 -1.552360877394676208e-02 -1.586413197219371796e-02
3.020636551082134247e-02 7.828644476830959320e-03 -6.195856840349733829e-04
1.114202756434679031e-02 -5.056622251868247986e-02 -2.642721228767186403e-04
-2.815406024456024170e-02 -1.386949717998504639e-01 -2.493227645754814148e-02
-2.171840332448482513e-02 4.601394012570381165e-02 -9.169365279376506805e-03
-1.306575238704681396e-01 1.037936285138130188e-01 5.891786515712738037e-02
4.266482219099998474e-02 -3.541896864771842957e-02 -1.203744113445281982e-01
-9.542901068925857544e-02 5.171041935682296753e-02 -1.813390851020812988e-01
-6.282798200845718384e-02 -4.752240143716335297e-03 1.286700274795293808e-02
-3.584662824869155884e-02 3.386335074901580811e-02 -2.432219451293349266e-03
-1.295618712902069092e-01 -1.278265714645385742e-01 -5.650826264172792435e-03
9.965601563453674316e-02 -3.290113434195518494e-02 -6.568242609500885010e-02
-2.795266686007380486e-03 9.096466004848480225e-03 -9.075357811525464058e-04
-7.371239829808473587e-03 -6.546884775161743164e-02 -1.076476126909255981e-01
1.403527557849884033e-01 -1.958118379116058350e-02 -9.019601345062255859e-02
-1.553646288812160492e-02 1.928329281508922577e-02 2.029119618237018585e-02
-5.092260241508483887e-02 1.028593163937330246e-02 -3.582747653126716614e-02
6.667065620422363281e-02 -2.234363928437232971e-02 2.577115595340728760e-02
-2.710246853530406952e-02 -2.996559441089630127e-02 -1.165504604578018188e-01
-8.286675065755844116e-02 -1.350425779819488525e-01 -1.650157570838928223e-02
9.818703681230545044e-02 5.632335320115089417e-02 6.508144736289978027e-02
-2.507877536118030548e-03 -2.168743126094341278e-02 -5.878156051039695740e-03
3.885748982429504395e-02 1.652948744595050812e-02 -2.313588187098503113e-02
-1.635299297049641609e-03 -2.688621170818805695e-03 2.952628582715988159e-02
4.131053015589714050e-02 5.479387938976287842e-02 -3.818752616643905640e-02
-1.236755624413490295e-01 -7.939797639846801758e-02 1.335967183113098145e-01
-5.149373039603233337e-02 -6.423856317996978760e-02 3.907684981822967529e-02
-3.969139233231544495e-02 4.230115935206413269e-02 -6.742986384779214859e-03
1.895184256136417389e-02 2.022563945502042770e-03 -2.227722480893135071e-02
-1.772067695856094360e-02 3.037632070481777191e-02 5.037943646311759949e-02
-1.500985957682132721e-02 -4.367655888199806213e-02 -2.221550419926643372e-02
3.262374922633171082e-02 -2.091817557811737061e-02 -1.551733762025833130e-01
-5.481806118041276932e-03 -1.215884461998939514e-03 -2.053553909063339233e-01
2.756390534341335297e-02 -8.945178240537643433e-03 1.796912774443626404e-02
6.168770603835582733e-03 -1.960353739559650421e-02 2.171511016786098480e-02
-1.250180974602699280e-02 -1.546352058649063110e-01 -1.982637345790863037e-01
-6.807459890842437744e-02 -4.699315503239631653e-02 -1.279724091291427612e-01
1.135791372507810593e-02 -1.413470506668090820e-01 5.485728755593299866e-02
2.402837574481964111e-02 1.619726233184337616e-02 -5.118949338793754578e-02
6.778878718614578247e-02 -5.995694175362586975e-02 7.865238189697265625e-02
-3.946802020072937012e-02 -6.518942117691040039e-02 -3.803216153755784035e-03
2.383477427065372467e-02 4.317090660333633423e-02 -1.628221943974494934e-02
-1.265510469675064087e-01 7.222169078886508942e-03 -1.103848293423652649e-01
-8.443494141101837158e-02 -4.079620167613029480e-02 -9.661178290843963623e-02
1.726000569760799408e-03 -8.287816308438777924e-04 1.043930969899520278e-04
-7.976748794317245483e-02 -1.443644054234027863e-03 6.194140762090682983e-02
-1.075861528515815735e-01 5.633260123431682587e-03 -6.524386350065469742e-03
6.528669502586126328e-03 -2.775479480624198914e-02 1.804718002676963806e-02
-4.903490841388702393e-02 -6.599865853786468506e-02 -1.282913237810134888e-01
4.706110805273056030e-02 2.593023516237735748e-02 8.550916612148284912e-02
-9.564922191202640533e-03 4.646872356534004211e-02 -3.337900713086128235e-02
-1.071236357092857361e-01 -9.486976265907287598e-02 -1.740021407604217529e-01
-6.640095263719558716e-02 -1.186460815370082855e-02 1.171318590641021729e-01
-5.997267737984657288e-02 1.045006979256868362e-02 -1.306796912103891373e-02
4.267468675971031189e-02 3.967192955315113068e-03 7.342735677957534790e-02
7.296773139387369156e-03 8.214915171265602112e-03 1.555211003869771957e-02
-1.127862334251403809e-01 -2.380607463419437408e-02 5.140008870512247086e-03
1.841358281672000885e-02 -4.088504984974861145e-02 -4.484065994620323181e-02
-1.777674257755279541e-02 2.927845809608697891e-03 -4.315938055515289307e-02
-1.691535711288452148e-01 -9.750153124332427979e-02 2.164620673283934593e-03
-1.918703764677047729e-01 -9.787757694721221924e-02 1.558334678411483765e-01
-3.112254897132515907e-03 -1.284784357994794846e-02 2.684208191931247711e-02
-2.684980398043990135e-03 5.377571284770965576e-02 4.849078878760337830e-02
-3.519836813211441040e-02 -1.139713004231452942e-01 2.637059078551828861e-04
-1.041998714208602905e-02 -1.889976672828197479e-02 8.121728152036666870e-02
1.371161919087171555e-02 7.174841593950986862e-03 1.256484258919954300e-02
6.474820524454116821e-02 -3.265140578150749207e-02 -4.278824478387832642e-02
6.775795947760343552e-03 -2.820229157805442810e-03 7.299453765153884888e-02
5.245623644441366196e-03 -7.246304303407669067e-02 7.912246510386466980e-03
-7.248286902904510498e-02 2.663529664278030396e-02 7.229308784008026123e-02
1.068068221211433411e-01 2.309137582778930664e-02 -1.123528182506561279e-01
-1.724618673324584961e-01 4.722111672163009644e-02 -7.749643921852111816e-02
1.199306361377239227e-02 -3.300230577588081360e-02 -2.704076468944549561e-02
-1.305807530879974365e-01 -4.514979943633079529e-02 5.586196854710578918e-02
-4.205761104822158813e-02 3.006405383348464966e-02 -1.022170409560203552e-01
-1.508592814207077026e-01 2.679857984185218811e-02 -1.450601266697049141e-03
-1.981661655008792877e-02 -7.148278877139091492e-03 -1.701918430626392365e-02
-6.777358055114746094e-02 -3.474959731101989746e-02 -2.219607681035995483e-02
-3.529546782374382019e-02 4.639053717255592346e-03 5.498903617262840271e-02
3.845234587788581848e-02 -3.088572993874549866e-02 -3.895932808518409729e-02
-3.452346101403236389e-02 -1.926072686910629272e-02 -8.883166313171386719e-02
-5.912292283028364182e-03 2.049024589359760284e-02 8.524533361196517944e-03
-8.889160305261611938e-02 1.582868397235870361e-02 5.640224367380142212e-02
-1.321138814091682434e-02 5.390865355730056763e-02 -3.811531886458396912e-02
-4.620128124952316284e-02 -8.812022209167480469e-02 -9.126950055360794067e-02
5.134200211614370346e-03 -1.858937670476734638e-03 1.044191047549247742e-02
4.967734217643737793e-03 7.211510837078094482e-02 3.434941917657852173e-02
2.640934847295284271e-02 2.240760624408721924e-02 1.800588518381118774e-02
-9.775795042514801025e-03 3.988718986511230469e-02 1.337635517120361328e-02
-7.303366810083389282e-02 4.980221763253211975e-02 -2.026618830859661102e-02
-7.959648966789245605e-02 -3.474314138293266296e-02 -2.115662582218647003e-02
8.913901634514331818e-03 -2.109066024422645569e-02 1.140002757310867310e-01
-3.337486833333969116e-02 4.391393810510635376e-02 4.692650586366653442e-02
-1.230230778455734253e-01 -2.175413072109222412e-02 -2.334812097251415253e-02
1.303465384989976883e-02 1.006013806909322739e-02 -1.950885984115302563e-03
-2.385531067848205566e-01 -1.081077083945274353e-01 -1.246487274765968323e-01
-1.534003615379333496e-01 -9.880627691745758057e-02 5.249398946762084961e-02
-3.103580325841903687e-02 -2.389935590326786041e-02 -3.449614346027374268e-02
4.333696141839027405e-02 -3.870165348052978516e-02 -1.561592705547809601e-02
-7.159963250160217285e-02 1.894298754632472992e-02 7.568531483411788940e-02
-9.849892929196357727e-03 -1.714218966662883759e-02 9.733217209577560425e-02
3.683837130665779114e-02 -4.831474646925926208e-02 -1.854255609214305878e-02
-1.552052199840545654e-01 -4.176960885524749756e-02 3.670280054211616516e-02
-1.995662599802017212e-02 -1.193013787269592285e-01 -2.635824382305145264e-01
3.268627449870109558e-03 4.234384279698133469e-03 1.250141486525535583e-02
7.934845238924026489e-02 -2.538672275841236115e-02 -1.003623157739639282e-01
-1.826909035444259644e-01 -3.132531046867370605e-02 -2.757521905004978180e-02
-1.141246110200881958e-01 1.792899891734123230e-02 -7.710196822881698608e-02
-4.406993463635444641e-02 1.161918160505592823e-03 2.449396066367626190e-02
-1.092362776398658752e-01 -2.763845771551132202e-02 -2.075522020459175110e-02
7.287491858005523682e-02 -4.584008455276489258e-02 -2.711009234189987183e-02
7.339747995138168335e-02 2.117130160331726074e-02 4.700984805822372437e-03
-2.673535048961639404e-02 -4.406013526022434235e-03 -1.859568059444427490e-02
2.312644198536872864e-02 4.696773365139961243e-03 1.984882168471813202e-02
-4.157545790076255798e-02 -3.415415436029434204e-02 4.903182853013277054e-03
1.312053948640823364e-02 -2.171359397470951080e-02 -3.195811808109283447e-02
7.877090945839881897e-03 -1.507717464119195938e-02 -1.985053718090057373e-02
1.619819737970829010e-02 -2.144565619528293610e-02 -2.578378468751907349e-02
-1.446414366364479065e-02 2.148219943046569824e-02 -1.289496012032032013e-02
-2.238166751340031624e-03 2.575473673641681671e-02 -2.332114614546298981e-02
-2.802741900086402893e-02 1.170250400900840759e-02 -1.356163620948791504e-02
3.747616661712527275e-03 -2.483155950903892517e-02 -2.102585509419441223e-02
-4.335891921073198318e-03 -1.076073021977208555e-04 2.305467147380113602e-03
-3.566391067579388618e-03 -2.492807433009147644e-02 -3.418567404150962830e-02
1.439202856272459030e-02 7.641845848411321640e-03 -5.197491962462663651e-03
-3.628420084714889526e-02 -1.901075057685375214e-02 -1.901136711239814758e-02
-2.565440908074378967e-02 -1.054301206022500992e-02 -2.402721717953681946e-02
-3.622281551361083984e-02 -1.624851115047931671e-02 -4.659494385123252869e-03
4.123647231608629227e-03 -3.579414682462811470e-03 -4.280822817236185074e-03
2.107181027531623840e-02 -1.495947781950235367e-02 -2.575012855231761932e-02
2.097900398075580597e-02 1.721992157399654388e-02 -3.199109435081481934e-02
-9.749544784426689148e-03 -2.742897532880306244e-02 -5.467248335480690002e-02
-1.482464652508497238e-02 -2.239321358501911163e-02 -4.557204246520996094e-02
-3.135458007454872131e-02 3.068960085511207581e-02 -8.783924393355846405e-03
-1.506497850641608238e-03 -3.334754332900047302e-02 -7.009484618902206421e-02
-5.117834545671939850e-03 -2.177719585597515106e-02 -1.520302146673202515e-02
-1.059364221873693168e-04 1.800418458878993988e-02 -4.455389454960823059e-03
7.436731830239295959e-03 1.162231527268886566e-02 1.102876663208007812e-02
2.776498731691390276e-04 -4.177099466323852539e-02 3.427387913689017296e-03
5.830130539834499359e-03 -1.687516085803508759e-02 -2.652179636061191559e-02
-1.033996138721704483e-02 -9.694240987300872803e-03 -3.116904059424996376e-03
2.477806061506271362e-03 -7.881373167037963867e-04 4.176606424152851105e-03
-5.389825254678726196e-02 -2.819393016397953033e-02 -3.680151328444480896e-02
2.342577278614044189e-02 1.270612049847841263e-02 2.736749500036239624e-02
1.835332810878753662e-02 -1.497177220880985260e-02 -2.769056521356105804e-02
-1.363498345017433167e-02 -2.675823308527469635e-02 -1.028025429695844650e-02
2.278860099613666534e-02 -1.376299560070037842e-02 1.342490594834089279e-02
9.042524546384811401e-02 4.289361834526062012e-02 3.540604189038276672e-02
-1.326510868966579437e-02 1.960223913192749023e-02 1.015934813767671585e-02
-5.761136766523122787e-03 1.790813519619405270e-03 -3.313231095671653748e-02
-5.077749490737915039e-02 7.103073876351118088e-03 -2.943031722679734230e-04
-1.979047246277332306e-02 -4.153104964643716812e-03 1.851513981819152832e-02
2.647360228002071381e-02 -3.580569056794047356e-03 1.267514377832412720e-02
-1.860503107309341431e-02 -1.512479875236749649e-02 3.293326869606971741e-02
9.938288480043411255e-03 -3.418081253767013550e-02 -1.939774304628372192e-02
2.537120692431926727e-02 1.630914025008678436e-02 5.003871396183967590e-02
1.580418832600116730e-02 3.717445954680442810e-02 6.369522213935852051e-02
-4.649894312024116516e-02 -8.284004032611846924e-02 -3.476697206497192383e-02
3.194061666727066040e-02 6.616523489356040955e-03 2.898596972227096558e-02
-3.768844902515411377e-02 -3.826828673481941223e-02 -1.571545749902725220e-02
-6.830392032861709595e-02 -2.192058600485324860e-02 2.445943467319011688e-02
1.082999352365732193e-02 1.986649446189403534e-02 -9.464195929467678070e-03
4.400749504566192627e-02 6.153589114546775818e-02 3.208636865019798279e-02
-2.430214313790202141e-03 -1.357513479888439178e-02 5.976255238056182861e-02
4.392483085393905640e-02 8.190657943487167358e-02 1.499507427215576172e-01
7.995018362998962402e-02 8.777677267789840698e-02 7.459148764610290527e-02
-6.913828104734420776e-02 -5.060556530952453613e-02 2.147217094898223877e-02
-1.013562157750129700e-01 -7.575321197509765625e-02 2.060074172914028168e-02
2.041530795395374298e-02 6.045129895210266113e-02 4.463846981525421143e-02
8.585895993746817112e-04 -3.277318924665451050e-02 2.027616463601589203e-02
-5.075742676854133606e-02 1.265913154929876328e-02 1.950746029615402222e-02
8.635099977254867554e-03 4.071865975856781006e-02 4.104455560445785522e-02
-6.054182071238756180e-03 1.774949021637439728e-02 4.513090942054986954e-03
-1.616989821195602417e-02 -3.252039477229118347e-02 -7.157090120017528534e-03
-2.100520767271518707e-03 -1.994853839278221130e-02 -2.797100320458412170e-02
4.443254321813583374e-03 2.693148143589496613e-02 -6.351699586957693100e-03
-4.308572784066200256e-02 -1.084515475668013096e-03 1.500980928540229797e-02
-7.939369417726993561e-03 -1.561815757304430008e-02 -7.300434168428182602e-03
-3.490634635090827942e-02 -1.344062760472297668e-02 -7.511777430772781372e-02
1.405786070972681046e-02 -8.861174434423446655e-02 -6.811379641294479370e-02
6.094884127378463745e-02 5.849372223019599915e-02 3.141048923134803772e-02
5.470168311148881912e-03 -2.229486033320426941e-02 1.887033879756927490e-02
-4.735079035162925720e-02 7.797359139658510685e-04 -1.211309060454368591e-02
-2.003123750910162926e-03 -2.913726493716239929e-02 -6.357904057949781418e-03
-3.333012014627456665e-02 -6.195703055709600449e-03 -8.866229094564914703e-03
-1.720365323126316071e-02 -2.585317939519882202e-02 6.050141155719757080e-02
-3.058098629117012024e-02 4.296302050352096558e-02 1.342642307281494141e-02
-2.984381839632987976e-02 -1.818731613457202911e-02 -1.238581538200378418e-02
-6.111545488238334656e-02 -5.958361178636550903e-02 -3.214937075972557068e-02
7.765152305364608765e-02 1.660252362489700317e-02 7.499781437218189240e-03
-3.047803789377212524e-02 -3.329043462872505188e-02 -1.070401724427938461e-02
-6.702713668346405029e-02 -7.360024005174636841e-02 -5.055940896272659302e-02
-5.077863484621047974e-02 -1.145109813660383224e-02 -4.947685450315475464e-02
-3.049473045393824577e-03 -1.625097123906016350e-03 -3.915254026651382446e-02
4.099404904991388321e-04 8.413366042077541351e-03 -1.862169615924358368e-02
-1.433004997670650482e-02 2.370982430875301361e-02 -1.964017003774642944e-02
-4.782204329967498779e-02 -6.473707407712936401e-02 -4.862743243575096130e-02
-1.964101195335388184e-02 -3.477534651756286621e-02 -2.015734463930130005e-02
-8.134929090738296509e-02 -4.832116421312093735e-03 -2.552537992596626282e-02
-2.020153682678937912e-03 3.115993924438953400e-02 8.136863261461257935e-02
-9.763673879206180573e-03 2.002592384815216064e-02 -4.502119496464729309e-03
2.237798646092414856e-02 -1.109406817704439163e-02 1.826634444296360016e-02
-1.523340959101915359e-02 1.489420607686042786e-02 2.453088946640491486e-02
2.721069008111953735e-02 -3.179303929209709167e-02 -4.735338501632213593e-03
-1.804861612617969513e-02 -2.486117929220199585e-02 -8.280396461486816406e-03
-2.414031699299812317e-02 1.837042719125747681e-02 8.311706036329269409e-02
2.804580889642238617e-02 -6.477800011634826660e-02 -4.292963072657585144e-02
-2.125469967722892761e-02 1.149909943342208862e-02 -2.740962617099285126e-02
6.484892964363098145e-02 -3.355639800429344177e-02 -4.887612536549568176e-03
1.753904856741428375e-02 1.749196648597717285e-02 -1.373456604778766632e-02
-6.905051320791244507e-02 2.375320345163345337e-02 2.095892280340194702e-02
9.379058331251144409e-02 -1.026876866817474365e-01 1.056679058820009232e-02
2.071129903197288513e-02 -1.646752469241619110e-02 -2.658690698444843292e-02
-1.641762070357799530e-02 -4.336746037006378174e-02 -2.900500223040580750e-02
-2.742981724441051483e-02 -2.630222588777542114e-02 -1.038760244846343994e-01
-1.198429428040981293e-02 4.351579770445823669e-02 -3.915615007281303406e-02
2.441335283219814301e-02 -5.739624425768852234e-02 5.766751617193222046e-02
-8.673251606523990631e-03 -6.499014049768447876e-02 -1.916982606053352356e-02
4.959373176097869873e-02 -9.599252045154571533e-02 -3.762974962592124939e-02
8.590869605541229248e-02 2.477361261844635010e-02 -6.211899220943450928e-02
-1.831113127991557121e-03 1.817009225487709045e-02 -8.719437755644321442e-03
-4.754097759723663330e-02 1.431664684787392616e-03 4.257595911622047424e-02
3.742516785860061646e-02 -5.241786688566207886e-02 -5.381367355585098267e-02
-8.013006299734115601e-02 1.681045256555080414e-02 4.873375222086906433e-02
-6.176245957612991333e-02 4.893601872026920319e-03 1.342334449291229248e-01
-9.977160021662712097e-03 4.777641501277685165e-03 -1.626155525445938110e-02
-6.096147745847702026e-02 -4.629365727305412292e-02 -4.393334686756134033e-02
-6.204140186309814453e-02 1.173049863427877426e-02 -1.850599795579910278e-01
3.513339208438992500e-03 -1.939032822847366333e-01 -1.451121363788843155e-02
-5.012904480099678040e-02 -4.279260709881782532e-02 -1.259032189846038818e-01
-1.015413459390401840e-02 -5.502455681562423706e-02 4.835331812500953674e-02
-5.356379784643650055e-03 7.543024420738220215e-02 1.277128010988235474e-01
-3.505127131938934326e-02 -3.377856774022802711e-05 -6.866602692753076553e-03
7.285394705832004547e-03 9.545454382896423340e-02 3.999255131930112839e-03
-1.041969209909439087e-01 -9.315560013055801392e-02 -4.037830978631973267e-02
-7.529034465551376343e-02 1.908242120407521725e-03 4.351759329438209534e-02
2.022874169051647186e-02 1.520654279738664627e-02 1.828307099640369415e-02
2.127119526267051697e-02 -7.719983346760272980e-03 9.392196685075759888e-02
-5.487908050417900085e-02 -3.128428012132644653e-02 -1.619759649038314819e-01
1.713790930807590485e-02 8.473697118461132050e-03 4.557336494326591492e-02
-2.484773471951484680e-02 -1.473379973322153091e-02 -2.711777924560010433e-04
-2.972722286358475685e-03 1.838055811822414398e-02 3.054171055555343628e-02
1.940420130267739296e-03 -1.249402482062578201e-02 -1.556074526160955429e-02
-2.178242616355419159e-02 -4.659024626016616821e-02 1.821314217522740364e-04
1.849270425736904144e-02 2.245574072003364563e-02 -7.097406312823295593e-03
8.416067808866500854e-03 -2.760683745145797729e-02 1.538030616939067841e-02
9.845217689871788025e-03 3.000504896044731140e-02 2.041614241898059845e-02
3.005304001271724701e-02 -2.759666554629802704e-02 -1.293603423982858658e-02
2.560248132795095444e-03 2.694897353649139404e-02 -4.911128897219896317e-03
-3.987780213356018066e-02 -6.593688577413558960e-02 -3.047551028430461884e-02
-2.064654836431145668e-03 1.809868961572647095e-02 -1.878749579191207886e-02
-3.057670779526233673e-03 1.325672864913940430e-02 1.501502841711044312e-02
-6.114277523010969162e-03 2.757453359663486481e-03 -3.723184391856193542e-02
-3.922130167484283447e-02 1.156162936240434647e-02 5.976960062980651855e-03
-3.124801814556121826e-02 -2.466613054275512695e-02 6.086289882659912109e-03
-1.093903090804815292e-02 6.731038447469472885e-03 1.136921811848878860e-02
-1.400032633682712913e-04 -6.950792390853166580e-03 2.543184906244277954e-03
1.824233494699001312e-02 -9.739980101585388184e-03 -3.112791478633880615e-02
-6.165214814245700836e-03 6.828270852565765381e-03 -4.079776629805564880e-02
9.151828475296497345e-03 -3.524499759078025818e-02 -1.502405107021331787e-02
-3.475757315754890442e-02 -3.029283322393894196e-02 -4.257194697856903076e-02
-3.313617408275604248e-02 -8.545764721930027008e-03 -2.633086591958999634e-02
-3.286041319370269775e-02 -6.384727358818054199e-02 -5.327806994318962097e-02
-1.000026147812604904e-02 -4.498039931058883667e-02 -1.562154386192560196e-02
-7.008692715317010880e-03 -2.035275846719741821e-02 1.113122887909412384e-02
1.867817156016826630e-02 -2.248585782945156097e-02 1.019174419343471527e-02
3.661645576357841492e-03 2.348110638558864594e-02 -2.458592317998409271e-02
-2.676016092300415039e-02 8.989484049379825592e-03 -8.563368581235408783e-03
-2.557284571230411530e-02 1.880716904997825623e-02 2.512674406170845032e-02
5.958934314548969269e-03 -3.382488340139389038e-02 -2.625316753983497620e-02
-3.410629183053970337e-02 -4.356324672698974609e-02 -2.514121867716312408e-02
-1.679359562695026398e-02 1.307538896799087524e-02 -7.395843975245952606e-03
7.715535908937454224e-02 -1.114693656563758850e-01 4.057344049215316772e-02
-7.820881903171539307e-02 -4.154808074235916138e-02 4.361522570252418518e-02
-3.106579557061195374e-02 1.381384283304214478e-01 -1.551178544759750366e-01
-4.200700670480728149e-02 -7.145241647958755493e-02 4.549346864223480225e-02
-2.691000327467918396e-02 -7.717768102884292603e-02 -1.011588424444198608e-02
-6.389666348695755005e-02 3.239439055323600769e-02 -7.513050734996795654e-02
-6.750016473233699799e-03 -6.946114450693130493e-02 -8.572303503751754761e-02
-3.808791190385818481e-02 3.518553450703620911e-02 5.409061163663864136e-02
9.537210315465927124e-02 -5.519500747323036194e-02 -4.253947734832763672e-02
8.366283774375915527e-02 -8.112970739603042603e-02 -2.088678628206253052e-02
-2.369939722120761871e-02 -1.984753273427486420e-02 6.780623644590377808e-02
-7.076379656791687012e-02 5.959007143974304199e-02 3.235429758206009865e-03
-1.339173316955566406e-01 1.382111907005310059e-01 -1.384115368127822876e-01
-7.806546986103057861e-02 -2.552199922502040863e-02 8.074973709881305695e-03
3.909850865602493286e-02 -2.810097299516201019e-02 -2.443356253206729889e-02
-4.977513849735260010e-02 -1.330784708261489868e-02 5.283906590193510056e-03
-3.344498947262763977e-02 -3.470577299594879150e-02 -3.255259618163108826e-02
7.870402187108993530e-03 -2.781445905566215515e-02 -5.914886482059955597e-03
1.039360389113426208e-01 -2.651893794536590576e-01 1.082174554467201233e-01
-6.873851642012596130e-03 -2.559405751526355743e-02 7.437672466039657593e-02
-1.595193520188331604e-02 -1.600571721792221069e-02 2.993734925985336304e-02
-1.716884523630142212e-01 1.620071083307266235e-01 -6.516677141189575195e-02
-6.312000751495361328e-02 -3.545852378010749817e-02 -1.570993103086948395e-02
-1.212356537580490112e-01 3.081766329705715179e-02 -3.703170269727706909e-02
8.959093131124973297e-03 4.128897190093994141e-02 1.285170577466487885e-02
-4.477391391992568970e-02 1.022175028920173645e-01 -6.803289055824279785e-02
-1.265502274036407471e-01 -1.582216620445251465e-01 -1.062574237585067749e-01
-1.179500445723533630e-01 -5.656325072050094604e-02 -8.084060996770858765e-02
-2.707877382636070251e-02 6.715061608701944351e-03 5.442060902714729309e-02
-3.107248991727828979e-02 3.974778577685356140e-02 -2.348617464303970337e-01
3.595994412899017334e-02 3.303389996290206909e-02 -1.870743371546268463e-02
-7.995287887752056122e-03 4.246570542454719543e-02 5.245316028594970703e-02
-3.222513571381568909e-02 -3.901715576648712158e-02 -1.475737057626247406e-02
-5.895890295505523682e-03 -1.641713641583919525e-02 -1.502504851669073105e-02
-5.516215786337852478e-02 -6.445936858654022217e-02 -3.025872074067592621e-02
-1.437453925609588623e-01 -3.753330931067466736e-02 -7.856575399637222290e-02
-1.811140030622482300e-02 2.039190847426652908e-03 2.963646547868847847e-03
5.505189299583435059e-02 1.556439977139234543e-02 2.241670340299606323e-02
2.099107578396797180e-02 6.282562017440795898e-02 5.517249926924705505e-02
3.070323728024959564e-03 -2.001667767763137817e-02 1.211229478940367699e-03
-2.432315051555633545e-02 3.891110420227050781e-02 3.595506772398948669e-02
-1.150335669517517090e-01 -1.542171537876129150e-01 -1.875099986791610718e-01
-4.697179538197815418e-04 -6.470761727541685104e-03 -4.554527997970581055e-02
1.620728289708495140e-04 5.340941622853279114e-02 2.671491354703903198e-02
-2.301635034382343292e-02 -4.124661907553672791e-02 -1.611246541142463684e-02
-1.322358939796686172e-02 -2.070591226220130920e-02 3.321421565487980843e-03
-3.617476299405097961e-02 -1.300979685038328171e-02 -5.183248221874237061e-02
9.750570170581340790e-03 8.386415988206863403e-02 2.136601880192756653e-02
-1.786171086132526398e-02 -5.285396054387092590e-02 -3.770687431097030640e-02
9.832337498664855957e-03 -1.087666209787130356e-02 -3.203577548265457153e-02
2.188014797866344452e-02 -1.074256002902984619e-02 -2.800051495432853699e-02
4.006715491414070129e-02 2.734872279688715935e-03 9.326822124421596527e-03
-1.026084274053573608e-01 -6.698993593454360962e-02 -5.350230261683464050e-02
-5.596562102437019348e-02 -4.978313297033309937e-02 -1.106363628059625626e-02
-4.424782842397689819e-02 -1.471521258354187012e-01 -1.529365926980972290e-01
-5.159856379032135010e-02 -6.096624210476875305e-02 -1.008364558219909668e-01
-2.133746072649955750e-02 -2.173080854117870331e-02 -5.579199269413948059e-02
3.969943150877952576e-02 4.192574322223663330e-02 3.234933316707611084e-02
1.411388977430760860e-03 -3.583138808608055115e-02 -1.258946955204010010e-02
-6.420880556106567383e-02 -2.548515796661376953e-02 -3.590716049075126648e-02
-1.862172968685626984e-02 1.446483423933386803e-03 -2.045444212853908539e-02
-1.294607017189264297e-02 -2.398646902292966843e-03 -5.548512935638427734e-02
-9.979905188083648682e-02 -5.252399668097496033e-02 -4.097006097435951233e-02
1.610999554395675659e-02 2.840330637991428375e-02 1.971455663442611694e-02
1.073304377496242523e-02 7.612308952957391739e-03 -1.914249919354915619e-02
2.930966019630432129e-02 -2.031268924474716187e-02 -8.125133812427520752e-02
-9.490264579653739929e-03 3.393968567252159119e-02 -2.368572726845741272e-02
5.256977677345275879e-02 -7.911018282175064087e-02 -4.413990676403045654e-02
-5.652897059917449951e-02 -4.286862537264823914e-02 1.521166507154703140e-02
2.770639210939407349e-02 1.818080991506576538e-02 4.494633525609970093e-02
-4.107663780450820923e-02 -3.831560909748077393e-02 -8.303651213645935059e-02
-4.868260025978088379e-02 -4.643880948424339294e-02 1.120378542691469193e-02
2.871693484485149384e-02 8.067332953214645386e-02 9.878756478428840637e-03
2.311118505895137787e-02 -6.260292232036590576e-02 -1.430417001247406006e-01
-1.363981049507856369e-02 -1.771055907011032104e-02 -8.032134175300598145e-02
-1.818793639540672302e-02 -8.401152491569519043e-02 -4.830654710531234741e-02
7.574473507702350616e-03 -1.190525945276021957e-02 -2.962193079292774200e-02
3.300104290246963501e-02 4.804652556777000427e-02 2.290955185890197754e-02
1.835755445063114166e-02 -4.076342098414897919e-03 2.595622278749942780e-02
6.710070371627807617e-02 -1.462691575288772583e-01 -3.573974967002868652e-02
3.878230694681406021e-03 3.049026476219296455e-03 -8.224228024482727051e-02
1.672013849020004272e-02 8.463122881948947906e-03 2.673550741747021675e-03
-1.041012406349182129e-01 -1.240679994225502014e-03 4.846777021884918213e-02
-7.906263321638107300e-02 -1.562211383134126663e-02 -6.878009997308254242e-03
1.090033911168575287e-02 -8.114601671695709229e-02 -9.370295703411102295e-02
1.478798035532236099e-02 2.731448598206043243e-02 -4.593321681022644043e-02
-8.843795210123062134e-02 -3.892055898904800415e-02 -1.345309615135192871e-01
-1.263519525527954102e-01 -1.135749742388725281e-01 -9.609381854534149170e-02
-6.025075539946556091e-02 -2.506974525749683380e-02 -6.290885061025619507e-02
-5.517087876796722412e-02 -2.984195016324520111e-02 -5.749108642339706421e-02
-1.570206135511398315e-01 -9.272475540637969971e-02 -4.399308934807777405e-02
6.381111592054367065e-02 -9.981407225131988525e-02 -9.698098525404930115e-03
-1.564549840986728668e-02 1.317779719829559326e-02 3.053926117718219757e-02
-2.925685234367847443e-02 -6.863147020339965820e-02 -9.343919903039932251e-02
2.286258526146411896e-02 4.559567198157310486e-02 -3.130776435136795044e-02
-2.871571481227874756e-02 5.812093615531921387e-03 5.262860655784606934e-02
-3.169827163219451904e-02 6.091839447617530823e-02 -4.163676127791404724e-02
5.265526846051216125e-02 2.761879935860633850e-02 -2.244918048381805420e-02
-3.526113182306289673e-02 9.193224459886550903e-02 7.353004068136215210e-03
-1.855977326631546021e-01 4.639723524451255798e-02 -5.607163161039352417e-02
-6.626560539007186890e-02 -7.625798881053924561e-02 -1.257704943418502808e-01
1.097406633198261261e-02 2.145470865070819855e-02 -5.604780092835426331e-02
-1.347553730010986328e-02 7.976653287187218666e-04 4.355505853891372681e-02
-9.708837606012821198e-03 4.956433922052383423e-02 -1.197077892720699310e-02
-9.453884325921535492e-03 -8.531567454338073730e-02 5.458620563149452209e-02
5.880504846572875977e-02 -4.785795137286186218e-02 -2.994257025420665741e-02
-1.961736567318439484e-02 1.107266917824745178e-02 -6.564378738403320312e-02
-3.605389222502708435e-02 -5.385774001479148865e-02 -2.819829806685447693e-02
-1.067549083381891251e-02 8.928925963118672371e-04 -2.949385158717632294e-02
2.497516572475433350e-02 -6.617677956819534302e-02 -8.073519915342330933e-02
2.047665603458881378e-02 4.109621420502662659e-02 -2.977649122476577759e-02
4.010971635580062866e-02 1.084116771817207336e-01 9.555508196353912354e-02
-3.268654271960258484e-02 -1.301719099283218384e-01 9.334725886583328247e-02
3.733373433351516724e-02 1.624430343508720398e-02 -2.125058695673942566e-02
-1.041952054947614670e-02 -5.839007347822189331e-02 -2.406734786927700043e-02
-6.356207281351089478e-02 -9.617531299591064453e-02 8.218943327665328979e-02
-9.254133701324462891e-02 3.501689061522483826e-02 6.211553700268268585e-03
-1.728131920099258423e-01 -7.031759619712829590e-02 -6.718993186950683594e-02
-4.937577061355113983e-03 -3.995002061128616333e-02 -6.474632769823074341e-02
2.177259698510169983e-02 6.185573711991310120e-02 -1.372656375169754028e-01
-6.447637081146240234e-02 -1.336465589702129364e-02 -6.077135726809501648e-02
-5.518569797277450562e-02 -1.013998389244079590e-01 -4.774907231330871582e-02
-1.587799936532974243e-01 -1.014738976955413818e-01 1.701383851468563080e-02
-2.138731628656387329e-02 -5.912205204367637634e-02 -1.562145352363586426e-02
4.108318593353033066e-03 -2.523145824670791626e-02 2.703480795025825500e-02
-3.556999191641807556e-02 -7.216068916022777557e-03 -4.512316361069679260e-02
-1.964651979506015778e-02 3.455635532736778259e-02 3.917984664440155029e-03
-3.710060566663742065e-02 -2.873709425330162048e-02 -4.379703849554061890e-02
5.911789461970329285e-02 -2.600531792268157005e-03 6.907717138528823853e-02
2.760776504874229431e-02 -1.802213117480278015e-02 -3.486155718564987183e-02
-4.609313327819108963e-03 -2.365281432867050171e-02 5.696490034461021423e-02
-4.485059063881635666e-03 -2.531189844012260437e-02 5.473124608397483826e-02
-1.054038220900110900e-04 -7.324179261922836304e-02 -1.388043314218521118e-01
-1.232824288308620453e-02 4.654206335544586182e-02 1.514799147844314575e-02
-6.038320134393870831e-04 1.625379361212253571e-02 1.548621710389852524e-02
-1.597100682556629181e-02 3.231609240174293518e-02 -9.399485774338245392e-03
2.486264146864414215e-02 -3.223945572972297668e-02 -2.076395042240619659e-02
-6.030035391449928284e-02 -9.247271344065666199e-03 7.246474921703338623e-02
-4.074050858616828918e-02 -5.359450355172157288e-02 -4.845425952225923538e-03
-1.568185910582542419e-02 -5.221229046583175659e-02 -5.336992815136909485e-02
-2.683979272842407227e-02 -2.359632216393947601e-02 2.101146243512630463e-02
-5.129021592438220978e-03 2.233732677996158600e-02 2.719776704907417297e-02
4.172052443027496338e-02 -4.771850258111953735e-02 -2.830745093524456024e-02
4.739901050925254822e-02 3.362568467855453491e-02 -1.221901085227727890e-02
1.923933066427707672e-02 -5.890932679176330566e-02 1.343302056193351746e-02
1.533131767064332962e-02 8.550409693270921707e-04 2.131052687764167786e-02
-8.388181217014789581e-03 -1.627939054742455482e-04 -4.943788517266511917e-03
5.214023985899984837e-06 2.197296172380447388e-02 -1.895593293011188507e-02
-9.022336453199386597e-03 -9.526631236076354980e-02 -2.224680408835411072e-02
-3.883340582251548767e-02 3.402347210794687271e-03 -2.594263292849063873e-02
-8.161834627389907837e-02 2.949267998337745667e-02 8.728086203336715698e-02
-2.962923422455787659e-02 -3.807389410212635994e-03 2.916023880243301392e-02
7.533442974090576172e-02 -2.883658930659294128e-02 -4.049968719482421875e-02
-2.837467938661575317e-03 9.655859321355819702e-03 -6.503219250589609146e-03
-1.102569699287414551e-01 6.617789156734943390e-03 6.172600761055946350e-02
-5.271692574024200439e-02 -5.538598820567131042e-02 -2.903361432254314423e-02
-2.018059417605400085e-02 -4.781200364232063293e-02 -9.591899812221527100e-03
-8.905651420354843140e-02 -9.533058851957321167e-02 -9.309812635183334351e-02
-1.063430234789848328e-01 5.442632362246513367e-02 -7.548084110021591187e-02
5.658343061804771423e-02 -7.633828092366456985e-03 6.906321644783020020e-02
7.096361834555864334e-03 3.441914916038513184e-02 -1.994013041257858276e-02
-6.812945008277893066e-02 -1.030888874083757401e-02 5.851145833730697632e-02
-3.198735788464546204e-02 -4.604325443506240845e-02 -5.647453293204307556e-02
2.677315846085548401e-03 -5.962691083550453186e-02 -9.210970252752304077e-02
8.795048296451568604e-02 -6.365849822759628296e-02 -9.962896257638931274e-02
-2.224287390708923340e-02 4.868054762482643127e-03 1.303064916282892227e-02
1.036910340189933777e-03 2.158418484032154083e-02 4.922907426953315735e-02
1.230758056044578552e-02 -1.612841710448265076e-02 1.922664232552051544e-02
7.449290156364440918e-02 -3.452253341674804688e-02 -6.205704063177108765e-02
3.804000839591026306e-02 -4.640768095850944519e-02 -9.438516199588775635e-02
1.764126680791378021e-02 -4.368253052234649658e-03 -1.799150556325912476e-02
5.096166953444480896e-02 -4.985570535063743591e-02 -3.633453324437141418e-02
2.626231312751770020e-02 -4.370802082121372223e-03 -9.312487393617630005e-02
4.453230276703834534e-02 9.990576654672622681e-03 -1.693201437592506409e-02
-6.799272447824478149e-02 3.590455651283264160e-02 -6.785465776920318604e-02
-3.531587496399879456e-02 -9.089013189077377319e-02 -6.673176307231187820e-03
-2.032506279647350311e-03 5.123937129974365234e-02 -1.325549185276031494e-01
6.032140925526618958e-02 6.576962303370237350e-03 -1.098507083952426910e-02
8.309359662234783173e-03 -8.365475386381149292e-02 -5.655830726027488708e-02
6.267271935939788818e-02 -2.670724131166934967e-02 -8.995668590068817139e-02
1.222978457808494568e-01 -8.809481561183929443e-02 -1.799585521221160889e-01
-5.040463060140609741e-02 4.425894096493721008e-02 -2.759859664365649223e-03
-4.364955052733421326e-02 1.275448128581047058e-02 -1.074634715914726257e-01
-6.484459340572357178e-02 2.810110803693532944e-03 -1.442893892526626587e-01
-9.671723097562789917e-02 -4.116775840520858765e-02 1.367916353046894073e-02
-1.167508289217948914e-01 -2.323836088180541992e-03 -8.514471352100372314e-02
-1.084049865603446960e-01 -6.798440217971801758e-02 -6.480771303176879883e-02
2.169962786138057709e-02 -8.996348828077316284e-02 -7.927095144987106323e-02
-1.446070242673158646e-02 -6.771808490157127380e-03 3.538054600358009338e-02
-8.343609049916267395e-03 -7.945218682289123535e-02 -1.146743819117546082e-01
4.419302195310592651e-02 3.405544534325599670e-02 -4.078613221645355225e-02
-1.707582734525203705e-02 -1.487496588379144669e-02 4.977500438690185547e-02
1.277846656739711761e-02 4.180980101227760315e-02 2.714877389371395111e-02
1.756185106933116913e-02 2.972571877762675285e-03 -2.812846563756465912e-02
4.203812777996063232e-02 1.681589335203170776e-02 -4.948525875806808472e-02
6.974880117923021317e-03 -3.893472999334335327e-02 -8.834598958492279053e-02
-4.757420346140861511e-02 -7.069649547338485718e-02 -9.310207515954971313e-02
1.344648376107215881e-02 1.226546708494424820e-02 -9.952456457540392876e-04
2.337973751127719879e-02 6.947101559489965439e-03 3.907385841012001038e-02
1.742959022521972656e-02 5.131210200488567352e-03 -2.131846174597740173e-02
-3.628116473555564880e-02 3.966310992836952209e-03 -3.285253047943115234e-02
4.702018201351165771e-02 5.008707568049430847e-02 -7.017585914582014084e-03
-5.420010909438133240e-02 2.841330599039793015e-03 -6.077672541141510010e-02
1.320883817970752716e-02 -3.597451373934745789e-02 1.550683099776506424e-02
1.624413020908832550e-02 -2.970565855503082275e-02 -5.083264037966728210e-02
8.817398548126220703e-02 -9.128142148256301880e-03 -3.458118438720703125e-02
-6.041767448186874390e-02 3.401149762794375420e-03 -2.412980422377586365e-02
8.899763971567153931e-02 4.312943667173385620e-03 -5.429688841104507446e-02
-2.228926494717597961e-02 -5.952263996005058289e-02 -9.318351000547409058e-02
2.423959411680698395e-02 1.344548258930444717e-02 -1.010689046233892441e-02
2.456777356564998627e-02 -4.479125142097473145e-03 7.780320476740598679e-03
-2.495513670146465302e-02 -1.128606777638196945e-02 9.734706953167915344e-03
-9.942914359271526337e-03 -1.402061805129051208e-02 8.189572021365165710e-03
2.711781859397888184e-02 4.707404226064682007e-02 2.808138914406299591e-02
6.571341305971145630e-02 5.214851722121238708e-02 -5.720754340291023254e-02
3.870565071702003479e-02 -2.056195400655269623e-02 -8.037712424993515015e-02
3.719906881451606750e-02 4.749308153986930847e-02 -6.236408371478319168e-03
-3.842377290129661560e-02 -2.699911035597324371e-02 2.437277138233184814e-02
1.345290336757898331e-02 -2.856564521789550781e-02 -2.911981567740440369e-02
5.141628161072731018e-02 -3.564960137009620667e-02 -3.472305834293365479e-03
-3.202068852260708809e-03 -2.899012528359889984e-02 1.318537443876266479e-02
4.752786457538604736e-02 3.938985615968704224e-02 -4.284204449504613876e-03
5.194597318768501282e-02 -2.839608676731586456e-02 -4.971751570701599121e-02
9.514214470982551575e-03 7.973575033247470856e-03 9.491345845162868500e-04
-3.592542558908462524e-02 7.646700367331504822e-03 -1.397524401545524597e-02
-6.465069204568862915e-02 7.168669719249010086e-03 -4.733119904994964600e-02
-7.531920820474624634e-02 -2.156740054488182068e-02 2.928994409739971161e-02
-1.512644886970520020e-01 -1.000598371028900146e-01 -1.185435131192207336e-01
4.697739705443382263e-02 -5.900018382817506790e-03 6.040378939360380173e-03
-2.823749370872974396e-02 -1.212266087532043457e-02 8.629664778709411621e-03
-3.029219247400760651e-02 -2.985067665576934814e-02 3.564479947090148926e-02
-4.231166094541549683e-02 -2.963850274682044983e-02 7.856751792132854462e-03
-3.421024978160858154e-02 -7.084756344556808472e-02 -4.563548043370246887e-02
4.459429997950792313e-03 3.007768653333187103e-02 4.574665054678916931e-02
-3.964568302035331726e-02 -6.618577986955642700e-02 3.401723131537437439e-02
-1.501270756125450134e-02 -2.136231027543544769e-02 -2.653319854289293289e-03
-1.024644300341606140e-01 -5.970715731382369995e-02 -3.316465765237808228e-03
4.715246707201004028e-02 1.134923379868268967e-02 1.869494654238224030e-02
-4.832797497510910034e-02 -3.602349385619163513e-02 6.399507634341716766e-03
-4.873923026025295258e-03 5.075073987245559692e-02 1.092841755598783493e-02
-1.072659622877836227e-02 -3.881300613284111023e-02 6.542321294546127319e-02
3.124866634607315063e-02 8.266014978289604187e-03 -1.572052016854286194e-02
7.182110846042633057e-02 7.471194118261337280e-02 -6.228040903806686401e-02
-9.328911080956459045e-03 1.423621550202369690e-02 3.602753952145576477e-02
-3.228840604424476624e-02 -7.245322316884994507e-02 -9.225340187549591064e-02
-8.878798037767410278e-02 4.094808921217918396e-02 7.251421362161636353e-02
3.813739866018295288e-03 3.614678233861923218e-02 4.264046996831893921e-02
-1.329799648374319077e-02 4.511840268969535828e-02 5.562778934836387634e-02
-8.812949806451797485e-02 3.428443893790245056e-02 2.175158634781837463e-02
1.725694723427295685e-02 3.567228093743324280e-03 -5.030588945373892784e-04
-5.634089931845664978e-02 -5.489673092961311340e-02 1.542990747839212418e-02
-1.175728663802146912e-01 -5.544430390000343323e-02 -2.237926051020622253e-02
-2.681146748363971710e-02 -2.575340680778026581e-02 1.720000617206096649e-02
-4.087601974606513977e-02 9.058496914803981781e-03 4.943262040615081787e-02
-5.153467133641242981e-02 -2.228425815701484680e-02 7.546836137771606445e-02
6.009939312934875488e-02 2.205749228596687317e-02 -2.373954840004444122e-02
-1.326424442231655121e-02 4.757946589961647987e-04 1.142861973494291306e-02
-1.104147522710263729e-03 -2.264534123241901398e-02 -1.327620167285203934e-02
-3.862352669239044189e-02 -6.512262043543159962e-04 -9.833253920078277588e-03
8.508520200848579407e-03 2.175003476440906525e-02 4.276886209845542908e-02
4.423573985695838928e-02 3.749629110097885132e-02 4.415979981422424316e-02
-1.736078225076198578e-02 2.495446801185607910e-02 -1.702686771750450134e-02
1.117181405425071716e-02 -1.551878172904253006e-02 2.219887915998697281e-03
-3.658718615770339966e-02 -3.157528489828109741e-02 3.170533105731010437e-03
-6.885156035423278809e-03 -2.818635664880275726e-02 1.919138990342617035e-02
-1.745338737964630127e-02 -1.306723617017269135e-02 1.191416010260581970e-02
-3.885031491518020630e-02 -3.175394609570503235e-02 -1.276638265699148178e-02
-3.991614282131195068e-02 -3.226809576153755188e-02 6.978373858146369457e-04
-4.144948907196521759e-04 -1.668784953653812408e-02 -2.653068304061889648e-02
3.875287249684333801e-03 -4.424637183547019958e-02 2.117949072271585464e-03
9.783555753529071808e-03 -1.522169727832078934e-02 1.314786821603775024e-02
-6.738230586051940918e-03 5.923054646700620651e-03 2.061686851084232330e-02
-1.418988918885588646e-03 -9.983395226299762726e-03 9.294960647821426392e-03
-1.968357712030410767e-02 -1.292404532432556152e-02 -1.122641470283269882e-02
1.796378195285797119e-02 7.191338576376438141e-03 1.265833433717489243e-02
-7.164238486438989639e-04 -1.606659404933452606e-02 -1.776492595672607422e-02
-7.008224725723266602e-03 -1.819959282875061035e-02 1.914010196924209595e-02
-6.531709432601928711e-02 -6.103743240237236023e-02 -3.993503376841545105e-02
4.974083229899406433e-02 5.694996193051338196e-02 6.486895680427551270e-02
1.974961021915078163e-03 4.204177763313055038e-03 1.693383231759071350e-02
-3.334300965070724487e-02 7.664980366826057434e-03 -3.594881156459450722e-03
-1.478618849068880081e-02 -1.238740794360637665e-02 6.900035077705979347e-04
-2.237023226916790009e-02 1.927687041461467743e-02 -8.432299830019474030e-03
6.190124899148941040e-02 3.274206817150115967e-02 2.850550599396228790e-02
2.243429049849510193e-02 -1.924958080053329468e-02 -2.342831157147884369e-02
-2.537204883992671967e-02 -4.237594548612833023e-03 1.634107157588005066e-02
1.824597455561161041e-02 1.722319796681404114e-02 1.672037318348884583e-02
-1.854467764496803284e-02 -3.100839257240295410e-02 -1.512061245739459991e-02
2.545290859416127205e-03 -2.206682600080966949e-02 9.549285285174846649e-03
4.862065427005290985e-03 6.448343396186828613e-02 -1.622492074966430664e-02
-2.647302113473415375e-02 -4.974643141031265259e-02 -5.700619518756866455e-02
-8.205830305814743042e-02 6.231504306197166443e-02 -1.742394082248210907e-02
4.216041415929794312e-02 -2.813911810517311096e-02 5.968643724918365479e-02
3.142060013487935066e-03 -2.143615111708641052e-02 -2.746170200407505035e-02
-2.081537060439586639e-02 2.007703110575675964e-02 4.658700525760650635e-02
1.310123968869447708e-02 3.121284581720829010e-02 -4.819882288575172424e-02
-6.245012208819389343e-02 1.612494699656963348e-02 1.186866387724876404e-01
-2.108602039515972137e-02 9.032897651195526123e-03 6.135901436209678650e-02
3.401464968919754028e-02 4.513393342494964600e-02 -6.738334894180297852e-02
1.089034453034400940e-01 -7.047560065984725952e-03 2.329517714679241180e-02
-5.834340583533048630e-03 -6.845714058727025986e-03 3.498403588309884071e-03
-1.228154599666595459e-01 -1.738933324813842773e-01 -6.935499608516693115e-02
-2.054002322256565094e-02 1.011573597788810730e-01 -1.028819847851991653e-02
-9.530994296073913574e-02 -1.957442015409469604e-01 -1.583978533744812012e-01
-7.374223321676254272e-02 5.587463453412055969e-02 9.405631572008132935e-02
-1.575763337314128876e-02 -1.486941240727901459e-02 -2.008842863142490387e-02
1.590898260474205017e-02 -7.622133940458297729e-02 7.960986346006393433e-02
-3.517445176839828491e-02 -2.579525671899318695e-02 -1.209451034665107727e-01
4.880232363939285278e-02 -9.498006105422973633e-02 -1.053159236907958984e-01
-6.527456641197204590e-02 -3.433834295719861984e-03 8.785416185855865479e-02
1.306061726063489914e-02 -3.438757359981536865e-02 8.197433501482009888e-02
-5.886730551719665527e-02 -5.870134010910987854e-02 3.276643902063369751e-02
-4.153276234865188599e-02 -1.619349792599678040e-02 -8.984100073575973511e-03
4.469152539968490601e-02 6.327556818723678589e-02 -5.131101980805397034e-02
-1.533296257257461548e-01 -1.141918525099754333e-01 9.301331639289855957e-02
-6.771885603666305542e-02 -3.991426527500152588e-02 8.992163348011672497e-04
2.088826522231101990e-02 7.737498264759778976e-03 2.946151420474052429e-02
2.422446012496948242e-02 -7.100610435009002686e-02 5.299571901559829712e-03
-1.700574606657028198e-01 -7.790614664554595947e-02 1.096126660704612732e-01
-6.117673218250274658e-02 -6.028541550040245056e-02 9.611122310161590576e-03
2.973490208387374878e-02 -2.725386805832386017e-02 -3.051403351128101349e-02
-7.536427117884159088e-03 -1.706446707248687744e-02 -5.087917670607566833e-02
-6.173374596983194351e-03 -3.774551674723625183e-02 -2.826917730271816254e-02
3.395109623670578003e-02 1.406806148588657379e-02 -9.606707096099853516e-02
-2.745616436004638672e-02 -4.008476063609123230e-02 -5.680827796459197998e-02
-3.196746110916137695e-02 -4.454555455595254898e-03 -8.993688970804214478e-03
-2.582610584795475006e-02 2.262952364981174469e-02 2.749432343989610672e-03
1.668856292963027954e-02 -3.286473825573921204e-02 -2.819511853158473969e-02
4.054311290383338928e-02 2.688974887132644653e-02 -5.313496664166450500e-02
-1.399403959512710571e-01 3.033228591084480286e-02 7.018219679594039917e-02
-1.399661693722009659e-02 2.001662366092205048e-02 2.291879057884216309e-02
8.819823153316974640e-03 4.333021864295005798e-02 4.192159511148929596e-03
5.910581350326538086e-02 3.918855916708707809e-03 -5.816699564456939697e-02
1.037692651152610779e-02 -8.466517925262451172e-02 -1.955376006662845612e-02
1.044962480664253235e-01 2.598429471254348755e-02 -6.047974806278944016e-03
4.157362878322601318e-02 1.242041680961847305e-02 3.706879913806915283e-02
1.659997180104255676e-02 -2.593645639717578888e-02 -4.969089850783348083e-02
1.173413544893264771e-02 5.645659193396568298e-02 -7.500263862311840057e-03
1.668452634476125240e-03 -7.635020650923252106e-03 -6.592860072851181030e-02
-7.546493411064147949e-02 -3.932540491223335266e-02 -1.175239682197570801e-01
-6.199211627244949341e-02 4.286481998860836029e-03 -9.041681885719299316e-02
-1.804332807660102844e-02 -1.653128117322921753e-02 3.413005545735359192e-02
-5.793339014053344727e-02 3.861990943551063538e-02 -8.774246089160442352e-03
9.502515941858291626e-02 -1.717629842460155487e-02 1.324503719806671143e-01
5.431568622589111328e-02 3.989972546696662903e-02 -2.220463939011096954e-02
-2.245778776705265045e-02 -1.027581933885812759e-02 4.179653245955705643e-03
1.024523004889488220e-02 -2.916600741446018219e-02 -1.301689893007278442e-01
5.818664282560348511e-02 -4.408311843872070312e-02 2.872548811137676239e-02
8.934478973969817162e-04 -1.451408397406339645e-02 2.135320194065570831e-02
-8.000940084457397461e-02 -6.589494179934263229e-03 4.896093159914016724e-02
-1.435929164290428162e-02 -5.160510912537574768e-02 -7.004468888044357300e-02
4.321311414241790771e-02 6.488352082669734955e-03 6.324192136526107788e-02
1.582816988229751587e-02 3.550988622009754181e-03 3.118781931698322296e-02
-8.964480948634445667e-04 -2.373212948441505432e-02 -1.558006508275866508e-03
7.350290566682815552e-02 8.987937122583389282e-03 3.864654898643493652e-02
3.231528028845787048e-02 -4.759503155946731567e-02 -3.771230950951576233e-02
1.043962985277175903e-01 6.149020045995712280e-03 -5.163877084851264954e-02
-5.086099356412887573e-02 6.431554909795522690e-03 1.163177192211151123e-02
-3.892044350504875183e-02 -3.142780810594558716e-02 -3.574589639902114868e-02
4.253176599740982056e-02 2.672223187983036041e-02 1.662494428455829620e-02
1.442585885524749756e-02 2.683499641716480255e-02 3.930218517780303955e-02
9.910066425800323486e-02 1.985907368361949921e-02 -1.292088776826858521e-01
-3.940246999263763428e-02 7.652102969586849213e-03 7.170134037733078003e-02
-2.438599430024623871e-02 -4.531063139438629150e-02 9.765957482159137726e-03
-6.117340549826622009e-02 -1.067649573087692261e-02 1.587501174071803689e-06
2.572013810276985168e-02 3.309453651309013367e-02 2.803539158776402473e-03
-3.504949063062667847e-02 8.747590705752372742e-03 1.488230656832456589e-02
8.469204476568847895e-05 -4.754923284053802490e-02 -1.004537418484687805e-01
-2.151519060134887695e-02 -3.164572268724441528e-02 -3.713765740394592285e-02
3.462928906083106995e-02 -5.934095941483974457e-03 -1.214799284934997559e-02
-1.061215158551931381e-02 -7.713274657726287842e-02 1.539544761180877686e-02
7.476072758436203003e-02 2.635828219354152679e-02 -1.632255129516124725e-02
-7.573851943016052246e-02 -7.917134091258049011e-03 1.180930435657501221e-02
-2.153756096959114075e-02 -1.964727416634559631e-02 -5.133873596787452698e-02
9.926973283290863037e-02 4.094238206744194031e-02 -7.409508526325225830e-02
-2.197449654340744019e-02 -4.703504964709281921e-02 -1.279518604278564453e-01
-1.571226492524147034e-02 1.258627232164144516e-02 -7.844633422791957855e-03
-1.926306076347827911e-02 7.041625678539276123e-03 -3.495867922902107239e-02
6.313209235668182373e-02 3.680865094065666199e-02 -4.733538627624511719e-02
-1.978555694222450256e-02 -2.470782957971096039e-02 -8.566457778215408325e-02
-6.058108992874622345e-03 -2.349799871444702148e-02 2.982796356081962585e-02
-3.440480679273605347e-02 -1.005358528345823288e-02 -2.508265897631645203e-02
1.268837153911590576e-01 1.822974905371665955e-02 -5.486657097935676575e-02
6.015112623572349548e-03 -3.394843544811010361e-03 -5.563841760158538818e-02
6.146715581417083740e-02 2.394418045878410339e-02 6.453919410705566406e-02
-2.985308878123760223e-02 -4.163066297769546509e-02 7.004172075539827347e-04
-5.065200105309486389e-02 4.440923780202865601e-02 -1.082608848810195923e-02
-1.733739674091339111e-01 -9.646481275558471680e-02 -8.887124806642532349e-02
1.110931038856506348e-01 -9.168812073767185211e-03 -1.510554105043411255e-01
-3.692563623189926147e-02 -3.278560563921928406e-02 1.965895295143127441e-03
-6.171244010329246521e-02 -8.391477167606353760e-02 -6.670533865690231323e-02
-4.025242477655410767e-02 -7.869175635278224945e-03 2.212940156459808350e-02
-3.424999117851257324e-02 -7.610357552766799927e-02 -8.768764138221740723e-02
7.978105545043945312e-02 9.264364838600158691e-03 -5.988731607794761658e-02
3.541082888841629028e-02 -5.719149485230445862e-02 -1.049854420125484467e-02
-3.938262537121772766e-02 -4.977218061685562134e-02 -7.169867865741252899e-03
-7.090548425912857056e-02 3.014149703085422516e-02 -4.471245035529136658e-02
-3.046828322112560272e-03 -4.960647597908973694e-02 -4.902479425072669983e-02
2.232665941119194031e-02 -2.014307118952274323e-02 -9.616759419441223145e-02
-1.260321773588657379e-02 -5.527510866522789001e-02 3.567246720194816589e-02
7.272326201200485229e-02 -3.897440060973167419e-02 -5.800402909517288208e-02
2.431263215839862823e-02 -2.753368206322193146e-02 -2.184627577662467957e-02
9.098338335752487183e-02 -9.095508605241775513e-03 -9.177454747259616852e-03
-2.942615188658237457e-03 -3.987378254532814026e-02 6.125533208250999451e-02
-9.435427188873291016e-02 -8.880915120244026184e-03 -5.926560610532760620e-02
-4.868082702159881592e-02 2.699737437069416046e-03 -2.900294028222560883e-02
9.566621482372283936e-02 5.157145485281944275e-02 -2.740743383765220642e-02
3.085687384009361267e-02 -4.870744422078132629e-02 -6.320146471261978149e-02
2.363887429237365723e-02 5.069714039564132690e-02 -2.513821609318256378e-02
1.205104738473892212e-01 -4.052767902612686157e-02 -6.183481216430664062e-02
-9.783165156841278076e-02 8.243635296821594238e-03 -3.237234894186258316e-03
-1.316098123788833618e-01 -4.448910430073738098e-02 -1.380785182118415833e-02
-5.002776533365249634e-02 -1.638288050889968872e-02 -9.609599597752094269e-03
9.368823841214179993e-03 2.207333035767078400e-02 -3.845176100730895996e-02
5.564507562667131424e-03 -4.855791851878166199e-02 2.552861813455820084e-03
-6.598516367375850677e-03 -7.828203961253166199e-03 -1.487510837614536285e-02
-6.565502844750881195e-03 1.459719426929950714e-02 -1.079312153160572052e-02
7.096379995346069336e-02 -2.503917925059795380e-02 1.744331233203411102e-02
-1.593783870339393616e-02 -6.447508186101913452e-02 -6.325596570968627930e-02
-1.284397691488265991e-01 -8.335375040769577026e-02 -8.113142848014831543e-02
-1.398625608999282122e-04 -1.765390112996101379e-02 -6.366372853517532349e-02
3.463894501328468323e-02 4.417475312948226929e-03 -5.807320121675729752e-03
6.378094851970672607e-02 4.201666638255119324e-02 4.652720317244529724e-02
1.027302537113428116e-02 -2.930782921612262726e-02 -1.715690828859806061e-02
-5.003965273499488831e-02 -2.164870314300060272e-02 -3.544143866747617722e-03
-1.585698723793029785e-01 -2.197083681821823120e-01 -1.268022805452346802e-01
-5.580689385533332825e-02 -1.683983253315091133e-03 -1.685694046318531036e-02
3.217902779579162598e-02 5.842757876962423325e-03 2.560911513864994049e-02
-2.347531495615839958e-03 3.893668204545974731e-02 3.631808981299400330e-02
1.657792367041110992e-02 -4.162976518273353577e-02 4.006220959126949310e-03
-1.392320916056632996e-02 2.433247165754437447e-03 -2.738074399530887604e-03
5.450213328003883362e-02 3.613833710551261902e-02 -3.294822201132774353e-02
-1.199932247400283813e-01 -6.001784652471542358e-02 -3.068208694458007812e-02
1.467106398195028305e-02 -6.284192786552011967e-04 8.125959895551204681e-03
8.266882039606571198e-03 -1.659571006894111633e-02 -3.149307146668434143e-02
1.996274478733539581e-02 -3.670469857752323151e-03 1.017657481133937836e-02
1.168617978692054749e-02 -8.576134219765663147e-03 -1.703917980194091797e-02
-4.819349944591522217e-02 -2.424673363566398621e-02 -1.943485252559185028e-02
-5.036465451121330261e-02 -6.442337483167648315e-02 -7.865089178085327148e-02
-4.971474409103393555e-02 -3.049428015947341919e-02 -8.192018419504165649e-02
1.070046611130237579e-02 -3.514894843101501465e-02 -7.025278359651565552e-02
1.771117560565471649e-02 5.303150787949562073e-02 2.224354818463325500e-02
-1.904704794287681580e-02 -3.561700880527496338e-02 -2.302364446222782135e-02
4.429154843091964722e-02 4.030081257224082947e-02 2.307479456067085266e-02
-7.598518859595060349e-03 2.920029871165752411e-02 2.529804361984133720e-03
-9.689982049167156219e-03 -5.018831044435501099e-02 -5.697128176689147949e-02
-3.536959737539291382e-02 -8.462533354759216309e-03 -8.503779768943786621e-02
-2.109070681035518646e-02 1.701932772994041443e-02 2.859245240688323975e-02
-3.982126340270042419e-02 -9.835043549537658691e-02 -3.605535998940467834e-02
4.281311295926570892e-03 2.473349124193191528e-02 1.920237205922603607e-02
-2.947303839027881622e-02 2.061720378696918488e-02 5.674134939908981323e-02
3.553635999560356140e-02 -4.479771479964256287e-02 -3.974905237555503845e-02
5.506518483161926270e-02 2.186843939125537872e-02 -1.030282601714134216e-01
2.034610370174050331e-03 1.775229722261428833e-02 -1.933522522449493408e-02
4.028644040226936340e-02 5.793064832687377930e-02 -7.288510096259415150e-04
-2.857411466538906097e-02 2.052066288888454437e-02 4.145358130335807800e-02
8.433502912521362305e-02 -3.279931098222732544e-02 8.689204603433609009e-02
-4.410715028643608093e-02 -8.945610374212265015e-02 6.050862371921539307e-02
1.888747676275670528e-03 3.281529620289802551e-02 -2.141624316573143005e-02
1.268443018198013306e-01 5.860623344779014587e-02 -3.182005509734153748e-02
1.259026862680912018e-02 -3.339912369847297668e-02 4.059685766696929932e-02
-4.857540503144264221e-02 -9.096217155456542969e-02 -1.025574430823326111e-01
-1.142410412430763245e-01 -7.043914496898651123e-02 -7.119613885879516602e-02
4.629265144467353821e-02 -3.889654576778411865e-02 -8.704301714897155762e-02
-2.478890819475054741e-03 -3.665805235505104065e-02 1.403920948505401611e-01
-3.151163458824157715e-03 1.341993547976016998e-02 2.769462531432509422e-03
-4.544189141597598791e-04 -2.437821676721796393e-04 -1.286348979920148849e-02
-1.842958778142929077e-01 1.345834042876958847e-02 -7.210669666528701782e-02
-3.917713183909654617e-03 -1.473025605082511902e-02 1.122973486781120300e-02
-6.308056414127349854e-02 -1.351743042469024658e-01 3.394099697470664978e-02
-1.901069581508636475e-01 2.599814347922801971e-02 1.009538955986499786e-02
1.407834291458129883e-01 5.879298970103263855e-02 -4.006200283765792847e-02
-5.991121754050254822e-03 3.981689736247062683e-02 -2.486112294718623161e-03
2.748367376625537872e-02 -4.380384832620620728e-02 1.120612677186727524e-02
-5.450665950775146484e-02 -2.084019929170608521e-01 -9.389472007751464844e-02
-4.448072984814643860e-02 5.159594118595123291e-02 -3.123064525425434113e-03
2.588994987308979034e-02 1.578412577509880066e-02 2.830261923372745514e-02
1.417565718293190002e-02 -3.888639435172080994e-02 -3.559516742825508118e-02
1.393159478902816772e-02 -8.438885957002639771e-02 -2.290251478552818298e-02
3.323087096214294434e-02 -6.907079368829727173e-02 -1.217899471521377563e-01
-3.202894702553749084e-02 -7.381999492645263672e-02 4.407380521297454834e-02
4.735538735985755920e-03 -2.168826386332511902e-02 1.597013510763645172e-02
3.504705429077148438e-02 4.476488754153251648e-02 2.153395907953381538e-03
2.927943132817745209e-02 -1.563794538378715515e-02 -4.593732580542564392e-02
-1.449454575777053833e-01 -9.085498005151748657e-02 -5.376115441322326660e-02
-8.805304765701293945e-03 -3.108000382781028748e-02 -3.035019896924495697e-02
-9.053718298673629761e-03 1.131272912025451660e-01 1.014002263545989990e-01
-6.861102301627397537e-03 -7.840786129236221313e-03 -3.070312179625034332e-02
5.611900612711906433e-02 1.318507175892591476e-02 -5.753816664218902588e-02
-7.436783611774444580e-02 1.711555570363998413e-02 -3.081267327070236206e-02
-2.275850623846054077e-02 8.659183047711849213e-03 -3.317258879542350769e-02
-9.415768831968307495e-02 -5.741848796606063843e-02 -1.690382808446884155e-01
9.015335142612457275e-02 6.518007256090641022e-03 -9.120830148458480835e-02
-2.814369834959506989e-02 -4.079802334308624268e-02 6.378579884767532349e-02
-6.412633508443832397e-02 -4.894284904003143311e-02 -6.891374289989471436e-02
2.499889582395553589e-02 1.987741887569427490e-02 -1.172774657607078552e-01
-4.574891552329063416e-02 -8.334405720233917236e-02 -1.225884482264518738e-01
-3.200442530214786530e-03 -3.917309641838073730e-02 2.271272940561175346e-03
-1.244558617472648621e-01 -7.835112512111663818e-03 -1.468846574425697327e-02
-1.975125670433044434e-01 -5.503781139850616455e-02 -4.813012853264808655e-02
1.363847404718399048e-02 -2.719522826373577118e-02 -1.870652288198471069e-01
1.059289183467626572e-02 -1.161757633090019226e-01 -1.233092918992042542e-01
-1.191163435578346252e-01 -2.776019275188446045e-02 -8.042763173580169678e-02
3.095477074384689331e-02 9.520900249481201172e-02 2.875094674527645111e-02
-2.057046256959438324e-02 -8.665765821933746338e-02 -5.183018371462821960e-02
-1.660940647125244141e-01 3.652732819318771362e-02 3.505802154541015625e-02
-5.904007703065872192e-02 -3.135069832205772400e-02 -1.830278895795345306e-02
-8.114786818623542786e-03 3.942022472620010376e-02 -1.833874545991420746e-02
-1.722431741654872894e-02 8.145525120198726654e-03 -1.328716333955526352e-02
2.160272747278213501e-02 1.703517325222492218e-02 -1.025953441858291626e-01
6.231153383851051331e-03 -1.561716105788946152e-02 4.687749221920967102e-02
1.605092547833919525e-02 1.741235330700874329e-02 3.755584731698036194e-02
-1.248177420347929001e-02 1.958852261304855347e-02 1.845607161521911621e-02
-7.125957310199737549e-02 3.561348468065261841e-02 4.156732559204101562e-02
5.975915864109992981e-02 -1.068281084299087524e-01 5.359173193573951721e-02
1.724190823733806610e-02 1.236577238887548447e-02 7.457068655639886856e-03
1.181984618306159973e-01 3.233330696821212769e-02 -2.616766840219497681e-03
-1.019497588276863098e-02 7.853236747905611992e-04 3.608310222625732422e-02
7.802229374647140503e-02 8.305116742849349976e-02 2.016313001513481140e-02
5.328791961073875427e-02 -1.832865964388474822e-04 3.632518649101257324e-02
6.618433445692062378e-02 1.331972982734441757e-02 -1.500437408685684204e-01
3.974750288762152195e-04 5.305139720439910889e-02 -9.137482196092605591e-02
7.172733545303344727e-02 5.069404840469360352e-02 -2.131139673292636871e-02
4.636248946189880371e-02 6.234218180179595947e-02 -6.967583298683166504e-02
1.064979359507560730e-01 -8.284133672714233398e-02 -1.503746397793292999e-02
1.039587333798408508e-01 5.159690976142883301e-02 -1.174202933907508850e-02
-8.105933666229248047e-02 -2.393885515630245209e-02 -6.634459644556045532e-02
2.145635895431041718e-02 -7.659882307052612305e-02 -7.759653776884078979e-02
1.675491221249103546e-02 -2.774620428681373596e-02 -9.468161314725875854e-02
-3.050928004086017609e-02 1.605352573096752167e-02 -1.424476876854896545e-02
-5.090275779366493225e-02 6.299515254795551300e-03 -6.674829125404357910e-02
-1.838794909417629242e-02 1.668648980557918549e-02 -5.533012747764587402e-02
4.814380407333374023e-02 -3.586885705590248108e-02 -6.009391695261001587e-02
5.258880183100700378e-02 -7.703523337841033936e-02 -2.922363206744194031e-02
-1.850914582610130310e-02 -9.704441577196121216e-02 1.144241094589233398e-01
-1.031251158565282822e-02 4.418305307626724243e-02 -1.109135746955871582e-01
4.389349371194839478e-02 1.768963038921356201e-02 3.770298510789871216e-02
-1.062962934374809265e-01 -2.303551137447357178e-02 -3.483336046338081360e-02
-4.318519681692123413e-02 -9.826893359422683716e-02 -7.847614586353302002e-02
1.200234517455101013e-01 2.714689821004867554e-03 1.271481439471244812e-02
-1.489621121436357498e-02 4.239812120795249939e-02 -1.385584473609924316e-02
1.682840101420879364e-02 -3.796205669641494751e-02 -6.628287956118583679e-04
9.580042958259582520e-02 7.711123209446668625e-03 -5.138243362307548523e-02
-7.915289700031280518e-02 -7.462512701749801636e-02 -2.609846368432044983e-02
-2.570498734712600708e-02 -9.461387991905212402e-03 1.754186488687992096e-02
-2.799423038959503174e-02 1.931944745592772961e-03 2.183449827134609222e-02
-6.510283052921295166e-02 3.604139760136604309e-02 -1.034074127674102783e-01
-7.345245033502578735e-02 -9.594273567199707031e-02 -1.490064896643161774e-04
-1.965898089110851288e-02 -5.056945979595184326e-02 -1.320323944091796875e-01
3.771325573325157166e-02 -2.421874180436134338e-02 -9.168373420834541321e-03
-8.648386597633361816e-02 -2.830779645591974258e-03 -2.081332961097359657e-03
-8.967512845993041992e-02 1.644752919673919678e-02 -2.197898924350738525e-02
-1.151809352450072765e-03 1.617153733968734741e-02 -1.159476563334465027e-01
-1.669129431247711182e-01 2.632482536137104034e-02 5.807124078273773193e-02
-2.007809877395629883e-01 8.172333240509033203e-03 -1.230210661888122559e-01
-6.651642918586730957e-02 2.249772287905216217e-02 -1.458736043423414230e-02
-1.724050752818584442e-02 4.353862628340721130e-02 1.442273892462253571e-02
1.477970392443239689e-03 -4.162530880421400070e-03 3.310677129775285721e-03
-1.852256245911121368e-02 -5.769154056906700134e-02 -8.262348175048828125e-02
4.382256418466567993e-02 -1.338534355163574219e-01 -1.243807282298803329e-02
-3.153086826205253601e-02 -6.734995637089014053e-03 -2.649576961994171143e-01
1.076022908091545105e-02 2.369349077343940735e-02 2.658165618777275085e-02
-1.726404763758182526e-02 -1.494476199150085449e-02 -1.448758691549301147e-02
-3.491158038377761841e-02 7.041077315807342529e-02 -1.670010834932327271e-01
-1.656126379966735840e-01 3.574149310588836670e-02 -6.249580532312393188e-02
-9.717225283384323120e-02 -1.754543185234069824e-01 -2.540567889809608459e-02
-4.311277344822883606e-02 6.290505826473236084e-02 -1.050677001476287842e-01
-7.762604206800460815e-02 3.546160086989402771e-02 6.691483408212661743e-02
-4.262530431151390076e-02 -6.701165437698364258e-02 2.744044549763202667e-02
5.621410533785820007e-02 -4.956404864788055420e-02 -2.299463152885437012e-01
5.304513499140739441e-03 -1.222787648439407349e-01 -1.328815072774887085e-01
-1.482660919427871704e-01 1.512780785560607910e-02 1.444109249860048294e-02
1.050318777561187744e-02 -1.686695963144302368e-02 -1.387875154614448547e-02
-2.115101553499698639e-02 7.041459437459707260e-03 -1.003054785542190075e-03
-1.567120254039764404e-01 -2.269969508051872253e-02 -2.012416953220963478e-03
-6.371757388114929199e-02 -2.172258496284484863e-02 4.331852495670318604e-02
4.323483631014823914e-02 -1.967991702258586884e-02 -6.208366248756647110e-03
1.018711831420660019e-02 -4.309588298201560974e-02 -2.959333546459674835e-02
-5.616394057869911194e-02 -3.442608518525958061e-03 3.735488280653953552e-03
-1.080757081508636475e-01 -4.758977144956588745e-02 -4.332656785845756531e-02
-2.552975714206695557e-02 2.702917158603668213e-02 -3.643236681818962097e-02
-3.323999419808387756e-02 -6.123526021838188171e-03 1.869641803205013275e-02
3.572400286793708801e-02 9.137391299009323120e-02 4.322131723165512085e-02
-1.796395145356655121e-02 1.683392934501171112e-02 2.835623733699321747e-02
-9.275425225496292114e-03 -1.094904728233814240e-02 3.814541967585682869e-03
-1.288588196039199829e-01 -8.898877352476119995e-02 -1.916595967486500740e-03
-3.953279182314872742e-02 2.042472129687666893e-03 1.934303715825080872e-02
-5.045612901449203491e-02 -2.799034118652343750e-02 2.610091120004653931e-02
-6.776805967092514038e-02 -1.598758064210414886e-02 8.830360323190689087e-02
4.161706939339637756e-02 4.869857802987098694e-02 -4.494817182421684265e-02
-5.891845747828483582e-02 -1.347385067492723465e-02 -8.529717475175857544e-02
-2.696138061583042145e-02 -7.340461760759353638e-02 -5.431956797838211060e-02
-3.765957430005073547e-02 8.646207861602306366e-03 1.183275356888771057e-01
-1.841177605092525482e-02 1.626932434737682343e-02 -2.275373972952365875e-02
-3.146162629127502441e-02 -3.696293570101261139e-03 1.615332998335361481e-02
-6.378368288278579712e-02 3.422971814870834351e-02 -5.651877447962760925e-02
-4.305364191532135010e-02 1.122825965285301208e-02 1.377124786376953125e-01
-1.832410693168640137e-02 -8.007133752107620239e-02 -1.073027998208999634e-01
4.973511770367622375e-02 1.281094923615455627e-02 4.119450226426124573e-02
-5.721264332532882690e-02 -3.408220782876014709e-02 5.133559927344322205e-02
2.136974409222602844e-02 -1.017323881387710571e-02 -7.790219038724899292e-02
-9.321431815624237061e-02 -2.569073438644409180e-02 -8.826740831136703491e-02
-6.928052008152008057e-02 -8.466092497110366821e-02 -7.128006219863891602e-02
5.893923714756965637e-02 2.052093856036663055e-02 -2.732816152274608612e-02
3.593983128666877747e-02 -2.472329139709472656e-02 -2.987376041710376740e-02
-4.656690359115600586e-02 -5.028202384710311890e-02 -5.079919099807739258e-02
-1.424401253461837769e-01 -1.482991315424442291e-02 -3.134030383080244064e-03
-5.240162834525108337e-02 -2.809066884219646454e-02 -4.387672524899244308e-03