4.696119111031293869e-03
3.915319591760635376e-02
-1.279347669333219528e-02
3.047369793057441711e-02
1.558626163750886917e-02
3.853318630717694759e-04
1.754315048456192017e-01
7.111918646842241287e-03
1.898050494492053986e-02
-8.854273706674575806e-03
3.241797536611557007e-02
2.545790746808052063e-03
-2.253679558634757996e-03
1.840405762195587158e-01
7.740303128957748413e-02
1.975766569375991821e-02
1.077477186918258667e-01
2.024253457784652710e-01
2.443266799673438072e-03
3.666871786117553711e-02
1.940899938344955444e-01
-6.751866079866886139e-03
1.002906169742345810e-02
2.163817174732685089e-03
5.502961575984954834e-02
1.814843341708183289e-02
2.654613740742206573e-02
-1.900606602430343628e-02
-1.097268797457218170e-02
8.745708316564559937e-02
3.350374102592468262e-02
2.456958591938018799e-02
-1.021740026772022247e-02 -1.000681892037391663e-02 8.894387632608413696e-03 -2.547035180032253265e-02
6.182828545570373535e-02 5.163037031888961792e-02 5.204926803708076477e-02 4.851377755403518677e-02
2.463734894990921021e-02 3.339754790067672729e-02 -9.133497253060340881e-03 6.642823107540607452e-03
-9.829831309616565704e-03 -1.706140302121639252e-02 3.430030308663845062e-03 8.655187673866748810e-03
1.310891471803188324e-03 3.763336455449461937e-03 9.455323219299316406e-03 5.220852792263031006e-03
8.938072249293327332e-03 1.557099167257547379e-03 2.496581990271806717e-03 -2.329433523118495941e-02
4.959808196872472763e-03 1.273285318166017532e-02 2.087010629475116730e-02 -9.513574652373790741e-03
1.192837394773960114e-02 2.206504344940185547e-02 -9.482317604124546051e-03 2.927080728113651276e-02
1.098955050110816956e-02 1.675357110798358917e-02 1.948467083275318146e-02 -7.281416095793247223e-03
-1.711124926805496216e-02 2.332668378949165344e-02 -1.187422964721918106e-02 -2.597393840551376343e-02
-1.994155533611774445e-02 2.674374356865882874e-02 1.775477640330791473e-02 2.774069085717201233e-02
-3.376795351505279541e-02 -2.555164042860269547e-03 -2.987635135650634766e-02 1.608542166650295258e-02
-1.540404185652732849e-02 -1.075082551687955856e-02 1.320536248385906219e-02 8.975084871053695679e-03
2.813935466110706329e-02 1.054440066218376160e-02 -1.898786239326000214e-02 9.101768955588340759e-04
2.648458257317543030e-02 2.782957255840301514e-02 -4.549772478640079498e-03 4.903669469058513641e-04
1.060732360929250717e-02 1.040935702621936798e-02 1.989808864891529083e-02 2.806943096220493317e-02
-1.373463030904531479e-02 2.036147750914096832e-02 3.034415468573570251e-02 3.109395271167159081e-03
-1.504094246774911880e-02 2.023447304964065552e-02 -3.300037467852234840e-03 -7.616178598254919052e-03
-9.783564135432243347e-03 1.558006624691188335e-03 8.966060355305671692e-03 -1.266291271895170212e-02
1.430329051800072193e-03 -1.031656283885240555e-02 1.469252537935972214e-02 -1.736277900636196136e-02
1.576366089284420013e-02 3.127992153167724609e-02 -1.057011727243661880e-02 1.734205521643161774e-02
-5.988747347146272659e-03 2.074093557894229889e-02 -2.418023906648159027e-02 1.403208822011947632e-02
1.730909384787082672e-02 -7.532681338489055634e-03 2.171503379940986633e-02 1.670202240347862244e-02
2.397821051999926567e-03 2.216146886348724365e-02 -2.556581050157546997e-03 4.912894801236689091e-04
7.633250672370195389e-03 1.674146763980388641e-02 2.823571301996707916e-02 3.785999119281768799e-02
1.505032461136579514e-02 2.009598724544048309e-02 -7.671777158975601196e-03 2.039631828665733337e-03
-4.268646705895662308e-03 -9.212666191160678864e-03 9.916245937347412109e-03 2.246927906526252627e-04
-2.890368364751338959e-02 -7.948948070406913757e-03 7.487895782105624676e-04 -2.059285528957843781e-02
1.064561191014945507e-03 9.277399629354476929e-03 9.174414910376071930e-03 -2.951910428237169981e-04
5.695424228906631470e-02 2.310761017724871635e-03 4.382162913680076599e-02 4.017584025859832764e-03
4.255853220820426941e-02 9.895174764096736908e-03 -1.038880087435245514e-02 2.124046348035335541e-02
-2.768086269497871399e-03 2.031839219853281975e-03 -1.566513557918369770e-03 1.462419703602790833e-02
4.512057421379722655e-05 1.676518656313419342e-02 9.373089997097849846e-04 -1.385273877531290054e-02
5.436811223626136780e-02 3.603513538837432861e-02 3.929580748081207275e-02 4.628093913197517395e-02
3.896252810955047607e-02 2.217553742229938507e-02 1.321837957948446274e-02 2.901531383395195007e-02
2.703210711479187012e-02 2.673756796866655350e-03 -1.571628032252192497e-03 -1.306308805942535400e-02
-1.103573665022850037e-02 6.193070672452449799e-03 -4.315004218369722366e-03 2.721875905990600586e-02
-9.069307707250118256e-03 6.128974258899688721e-03 -2.197069302201271057e-02 -1.497902162373065948e-02
6.899295374751091003e-03 2.753204107284545898e-02 -2.417559921741485596e-02 2.746774815022945404e-02
3.218198195099830627e-02 1.422383170574903488e-02 -8.053769357502460480e-03 -3.726123832166194916e-03
-1.447528041899204254e-02 1.395461056381464005e-02 -1.067455578595399857e-02 1.698113046586513519e-02
2.368157356977462769e-02 -1.525618229061365128e-02 -7.587878033518791199e-03 -1.611482910811901093e-02
-1.697603985667228699e-02 -8.771731518208980560e-04 1.837877556681632996e-03 1.547779049724340439e-02
1.074016559869050980e-02 -2.534526959061622620e-02 2.050681598484516144e-02 6.092057563364505768e-03
-1.728821173310279846e-02 -6.324080750346183777e-03 1.713903620839118958e-02 -1.538180839270353317e-02
1.183949317783117294e-02 1.490267645567655563e-02 2.464998327195644379e-02 2.984024770557880402e-02
1.333053503185510635e-02 -1.829611882567405701e-02 -1.099743228405714035e-02 -1.033710502088069916e-02
3.196229785680770874e-02 2.005825378000736237e-02 3.836949914693832397e-02 1.118203159421682358e-02
8.652782416902482510e-04 6.963993888348340988e-03 -3.503192914649844170e-03 -2.499465132132172585e-03
-2.033569850027561188e-02 -1.158620230853557587e-02 -1.266985293477773666e-02 1.864740997552871704e-02
-1.779409125447273254e-02 2.620233409106731415e-02 -1.143994275480508804e-02 1.020583076751790941e-04
6.735917646437883377e-03 -3.975755535066127777e-03 -1.249389164149761200e-02 -1.662037149071693420e-02
1.110628433525562286e-02 -1.177440304309129715e-02 -1.330181304365396500e-02 2.174373512389138341e-04
-3.098127199336886406e-04 -1.209827372804284096e-03 -1.211346685886383057e-02 1.922725699841976166e-02
-2.665813080966472626e-02 2.143523842096328735e-02 6.479238625615835190e-03 -1.238444354385137558e-02
8.783235680311918259e-04 -1.047257892787456512e-02 -6.099123507738113403e-03 -1.421095710247755051e-02
-1.111006364226341248e-02 1.798117160797119141e-02 1.474145706743001938e-02 1.394626498222351074e-02
-6.756905931979417801e-03 2.190491557121276855e-02 5.414036568254232407e-03 1.883190311491489410e-02
7.289869245141744614e-03 6.387933157384395599e-03 2.718619629740715027e-02 5.572542548179626465e-03
-2.399318292737007141e-02 -2.761352434754371643e-02 -2.217000909149646759e-02 -1.801289618015289307e-02
-5.730317905545234680e-03 3.860439464915543795e-04 1.126274745911359787e-02 -1.334282103925943375e-02
2.027882449328899384e-02 1.251121144741773605e-02 2.001238055527210236e-02 4.410750418901443481e-02
8.424923755228519440e-03 -7.594606722705066204e-05 9.855042211711406708e-03 4.005888942629098892e-03
2.609193511307239532e-02 -1.073144841939210892e-02 1.527317427098751068e-02 -8.679540827870368958e-03
6.275288178585469723e-04 -8.031997829675674438e-03 -1.032027322798967361e-02 -7.522736676037311554e-03
-1.169954799115657806e-02 2.586386399343609810e-04 -1.229063048958778381e-02 2.589959837496280670e-02
-7.099934853613376617e-03 -7.549538277089595795e-03 9.038322023116052151e-04 1.152234524488449097e-02
2.248159609735012054e-03 -9.864573366940021515e-03 8.329133503139019012e-03 -2.113162539899349213e-02
-4.129866603761911392e-03 1.886614225804805756e-02 1.624200865626335144e-02 -2.850224496796727180e-03
4.843248054385185242e-03 -1.224983856081962585e-02 -3.080941969528794289e-03 2.045580558478832245e-02
1.175890769809484482e-02 -1.547121722251176834e-02 -6.660500075668096542e-03 1.710377819836139679e-02
2.467918395996093750e-02 -1.294925902038812637e-02 -5.435113795101642609e-03 1.296529639512300491e-02
1.191783975809812546e-02 8.091313764452934265e-03 -2.428734488785266876e-02 -9.330232627689838409e-03
-1.960062235593795776e-02 -1.023486629128456116e-02 2.339081838726997375e-02 -1.850502565503120422e-02
-1.892380649223923683e-03 -3.421545727178454399e-03 -1.053115818649530411e-02 -7.567132357507944107e-03
2.125345170497894287e-03 8.018299005925655365e-03 -1.905845850706100464e-02 -1.503385417163372040e-02
2.212160266935825348e-02 2.031276375055313110e-02 -2.153783850371837616e-02 2.207218855619430542e-02
-5.347237456589937210e-03 1.873738504946231842e-02 -2.611713670194149017e-02 -1.759712211787700653e-02
-8.529783226549625397e-03 3.377861576154828072e-03 2.636838145554065704e-02 1.904652640223503113e-02
-2.455320954322814941e-02 -1.100789662450551987e-02 -2.036577835679054260e-02 -2.364742942154407501e-02
1.661493070423603058e-02 1.950937509536743164e-02 6.226451369002461433e-04 8.915446698665618896e-03
2.342443726956844330e-02 1.960992440581321716e-02 7.928962819278240204e-03 -1.583576016128063202e-02
1.425201911479234695e-02 -1.230108831077814102e-02 2.281180210411548615e-02 8.644407615065574646e-03
-2.580729313194751740e-02 2.413493394851684570e-02 1.925932802259922028e-02 -2.026685513556003571e-02
7.698740810155868530e-03 -3.540067700669169426e-03 -1.578163541853427887e-02 3.710031043738126755e-03
-2.019434934481978416e-03 -6.399115547537803650e-03 -3.337804460898041725e-03 -7.825198583304882050e-03
-1.422193646430969238e-02 1.627724803984165192e-02 6.949552800506353378e-03 -5.635985638946294785e-03
-1.999466493725776672e-02 -1.984009146690368652e-02 -1.440035831183195114e-02 1.434914395213127136e-02
-2.724216552451252937e-03 -8.513904176652431488e-03 -2.290634252130985260e-02 -7.982729934155941010e-03
1.011489797383546829e-02 8.802479133009910583e-03 2.440796233713626862e-02 2.580565586686134338e-02
-4.397222306579351425e-03 -2.453904226422309875e-02 -1.438705995678901672e-02 -9.324160404503345490e-03
1.479973644018173218e-02 -2.567479014396667480e-02 6.384031381458044052e-03 -1.366297435015439987e-02
-1.094564562663435936e-03 1.221624668687582016e-02 2.653028257191181183e-02 -2.395260520279407501e-02
1.895621046423912048e-02 -8.820980787277221680e-03 -7.581558078527450562e-03 -2.621622942388057709e-02
2.086429484188556671e-02 2.350323833525180817e-02 3.933599684387445450e-03 -4.828584380447864532e-03
1.847623614594340324e-03 -7.141984067857265472e-03 -1.270913705229759216e-02 1.178283244371414185e-02
-2.613875642418861389e-02 -1.659557223320007324e-02 2.979166340082883835e-03 -2.675295062363147736e-02
7.891333848237991333e-02 5.752658471465110779e-02 5.056670680642127991e-02 7.555737346410751343e-02
5.464414134621620178e-02 1.309387013316154480e-02 3.414405137300491333e-02 1.906097494065761566e-02
1.209207717329263687e-02 1.597266457974910736e-02 -5.851189605891704559e-03 -3.284794511273503304e-03
5.475554242730140686e-02 4.952194169163703918e-02 -1.563677797093987465e-04 2.680327370762825012e-02
1.045870874077081680e-02 -1.465758308768272400e-02 -4.989642184227705002e-03 -3.642348572611808777e-03
3.447500616312026978e-02 3.794810920953750610e-02 1.195999421179294586e-02 3.405747702345252037e-03
-1.609286479651927948e-02 1.507872994989156723e-02 4.070422798395156860e-02 3.732610866427421570e-02
4.809850454330444336e-02 2.904554829001426697e-02 1.976071670651435852e-02 -4.484829551074653864e-04
-1.049957145005464554e-02 2.530967816710472107e-02 1.322430185973644257e-02 2.381712570786476135e-02
2.014606259763240814e-02 8.558121509850025177e-03 -1.552731543779373169e-02 4.542350303381681442e-03
6.419177516363561153e-04 1.468909205868840218e-03 5.547971464693546295e-03 -1.542931050062179565e-02
8.584443479776382446e-03 -2.339208871126174927e-02 -2.045304514467716217e-02 -1.608264073729515076e-02
4.581220075488090515e-02 1.380099565722048283e-03 3.675294294953346252e-02 4.318957217037677765e-03
2.428255230188369751e-02 -1.249231863766908646e-02 2.747805044054985046e-02 7.392384111881256104e-03
1.137494109570980072e-02 1.215416099876165390e-02 4.708107560873031616e-02 1.750656776130199432e-02
2.055099979043006897e-02 3.770136460661888123e-02 3.412707895040512085e-02 2.705147117376327515e-02
-2.217556908726692200e-02 2.806191332638263702e-03 3.084166906774044037e-02 3.482883796095848083e-02
-1.208519563078880310e-02 -5.169330164790153503e-03 -1.305514574050903320e-02 2.108774334192276001e-02
3.261073492467403412e-03 4.208214581012725830e-03 -9.645879268646240234e-03 -3.298273310065269470e-02
-1.234273705631494522e-02 1.483315601944923401e-02 3.989659622311592102e-02 8.917176164686679840e-03
-7.093798834830522537e-03 -1.360018178820610046e-02 -1.599846594035625458e-02 -1.333440933376550674e-02
8.161040022969245911e-03 -1.060196571052074432e-02 -3.453993238508701324e-03 -5.327309481799602509e-03
-5.376738845370709896e-04 -9.212094359099864960e-03 3.080668672919273376e-02 3.885735059157013893e-03
1.630681450478732586e-03 4.040374979376792908e-02 4.086643457412719727e-02 4.470959305763244629e-02
-1.831570756621658802e-03 2.014683559536933899e-02 -2.135234698653221130e-02 2.210887707769870758e-02
3.685631603002548218e-02 1.019962877035140991e-02 4.043308645486831665e-02 1.184017211198806763e-02
-3.900140896439552307e-02 -3.679002635180950165e-03 -3.252340108156204224e-02 -2.745328238233923912e-04
2.300686016678810120e-02 -1.849351078271865845e-02 -2.029833197593688965e-02 -1.182465348392724991e-02
5.390049889683723450e-02 5.929446592926979065e-02 6.266953051090240479e-02 7.967752963304519653e-02
2.542505599558353424e-02 5.567697063088417053e-02 3.512283042073249817e-02 4.440520331263542175e-02
1.296989619731903076e-02 3.061600774526596069e-02 -2.699587959796190262e-03 1.363451406359672546e-02
-7.396418601274490356e-03 -5.021924152970314026e-03 4.534334293566644192e-04 1.560330949723720551e-02
3.131149336695671082e-02 1.279828604310750961e-02 3.643802599981427193e-03 3.659873083233833313e-02
-1.367143634706735611e-02 -1.059597730636596680e-02 -1.448093913495540619e-02 -1.080981642007827759e-02
-1.039886288344860077e-02 -1.403154525905847549e-02 -4.140422679483890533e-03 -7.835966534912586212e-03
-1.497453427873551846e-03 2.272358536720275879e-02 1.850266754627227783e-02 1.529156789183616638e-02
-1.051415503025054932e-02 1.057715737260878086e-03 1.710608042776584625e-02 1.982881873846054077e-02
1.511361543089151382e-02 1.845677755773067474e-02 1.882744953036308289e-02 -5.177751649171113968e-03
-2.336038835346698761e-02 -1.201072242110967636e-02 -5.958815570920705795e-03 -5.307235405780375004e-04
1.896431110799312592e-02 -1.133045298047363758e-04 1.137293502688407898e-02 -1.499570813030004501e-02
9.733661077916622162e-03 1.314216852188110352e-02 -1.558471354655921459e-03 -2.206851541996002197e-02
-9.870101697742938995e-03 -1.662199757993221283e-02 -2.137106284499168396e-02 1.806222274899482727e-02
-1.728821732103824615e-02 -1.018494833260774612e-02 -2.091225609183311462e-02 -5.854911170899868011e-03
-7.209311239421367645e-03 1.373139210045337677e-02 2.210510708391666412e-02 -5.617027636617422104e-03
-2.121699415147304535e-02 -1.238639000803232193e-02 1.417033094912767410e-02 1.357251405715942383e-02
3.148631379008293152e-02 2.996842376887798309e-02 -1.419196743518114090e-02 2.997549995779991150e-02
6.162601057440042496e-03 2.996667660772800446e-02 -3.046268131583929062e-03 -1.327650621533393860e-03
3.150718659162521362e-02 3.123287111520767212e-02 -1.050200778990983963e-02 1.081582438200712204e-02
1.002023555338382721e-02 8.120372891426086426e-03 -1.469944603741168976e-02 3.291048342362046242e-03
-2.340622805058956146e-02 4.861364141106605530e-03 1.982985064387321472e-02 -3.123387694358825684e-03
-1.998900622129440308e-02 2.764795534312725067e-02 -1.376609969884157181e-02 -1.704402966424822807e-03
1.331017701886594296e-03 -2.410642337054014206e-03 -8.562595583498477936e-03 -4.432104527950286865e-03
-1.549616642296314240e-02 -2.021294273436069489e-02 2.285705693066120148e-02 1.840518973767757416e-02
-2.446290291845798492e-02 -1.974951883312314749e-04 -1.294616144150495529e-03 -2.220402937382459641e-03
2.719716913998126984e-02 6.632299628108739853e-03 -1.049792207777500153e-02 2.658629976212978363e-02
2.824784442782402039e-02 -2.346214372664690018e-03 8.483965881168842316e-03 1.087252050638198853e-02
1.077233720570802689e-02 2.549479715526103973e-02 -2.075794711709022522e-02 1.953770639374852180e-03
-5.866677965968847275e-03 -1.271596923470497131e-02 1.354737207293510437e-02 2.962126024067401886e-02
-4.308131057769060135e-03 1.653840765357017517e-02 -9.683634154498577118e-03 1.140590757131576538e-03
-1.910072402097284794e-03 2.831811783835291862e-03 6.374770309776067734e-03 2.840329334139823914e-02
8.936709724366664886e-03 1.980827562510967255e-02 1.199074671603739262e-03 3.386079519987106323e-02
7.452808786183595657e-03 1.155047677457332611e-02 -1.492904382757842541e-03 -1.703466102480888367e-02
-4.896323662251234055e-04 6.112965289503335953e-03 7.760660257190465927e-03 -7.483759894967079163e-03
-1.000251527875661850e-02 -2.536075562238693237e-02 1.652087271213531494e-02 -7.620404008775949478e-03
-2.039928920567035675e-02 -1.757902838289737701e-02 1.060940604656934738e-02 -1.551402732729911804e-02
4.052683361805975437e-04 5.144732538610696793e-03 -8.319922722876071930e-03 1.775411510607227683e-04
-2.412520535290241241e-02 1.677761902101337910e-03 2.368801832199096680e-02 -2.479391917586326599e-02
-1.874152012169361115e-02 1.679139770567417145e-02 -2.834711922332644463e-04 -1.189461909234523773e-02
-2.291199937462806702e-02 8.723236620426177979e-03 -2.326679788529872894e-02 -1.273697242140769958e-03
3.730298718437552452e-03 -4.249481484293937683e-03 2.231199666857719421e-02 -1.543991453945636749e-02
8.239408954977989197e-03 4.208280297461897135e-04 -1.585935056209564209e-02 8.677736623212695122e-04
-2.207688055932521820e-02 -2.671740390360355377e-02 5.788033362478017807e-03 -3.786917077377438545e-03
2.444822713732719421e-02 -2.363594248890876770e-02 -2.294158004224300385e-02 1.417558640241622925e-02
-2.278555929660797119e-02 3.057564841583371162e-03 -2.454814501106739044e-03 4.581124056130647659e-03
1.575501449406147003e-02 1.209563296288251877e-02 -1.189778000116348267e-02 -2.687604911625385284e-02
-1.487452723085880280e-02 -1.225562300533056259e-02 -1.637563854455947876e-02 1.592464372515678406e-02
2.418604493141174316e-02 -2.264967747032642365e-02 -7.629307452589273453e-03 1.243828982114791870e-02
2.751041902229189873e-03 -9.127327241003513336e-03 2.391411922872066498e-02 1.824338920414447784e-02
1.070517674088478088e-02 -1.460474357008934021e-02 -1.744547300040721893e-02 -2.101155184209346771e-02
-6.675747223198413849e-03 -1.947747729718685150e-02 -7.711203303188085556e-03 -1.335318107157945633e-02
-2.266524732112884521e-02 -1.139191444963216782e-02 -6.834268569946289062e-04 2.411114424467086792e-02
1.369733642786741257e-02 -2.502559125423431396e-02 -1.461018994450569153e-02 -4.844457376748323441e-03
2.376269735395908356e-02 6.739811971783638000e-03 4.978743963874876499e-04 -7.377768866717815399e-03
4.935599397867918015e-03 -7.370791281573474407e-04 -2.379491552710533142e-02 1.628153398633003235e-02
-2.065422944724559784e-02 1.145710516721010208e-02 3.268522210419178009e-03 -1.930256374180316925e-02
2.578145591542124748e-03 -5.514267366379499435e-03 -1.479805260896682739e-02 -1.868320070207118988e-02
2.278766594827175140e-02 1.236854121088981628e-02 -2.571557462215423584e-02 -6.587139796465635300e-03
-1.466512400656938553e-02 2.542920410633087158e-02 1.993733458220958710e-02 1.442217174917459488e-02
1.081648748368024826e-02 8.622596040368080139e-03 -2.059873566031455994e-02 3.530156332999467850e-03
-5.752957426011562347e-03 -1.073783636093139648e-02 4.769240505993366241e-03 2.223658142611384392e-03
-2.313075773417949677e-02 1.722677610814571381e-02 -1.596797816455364227e-02 -5.851597525179386139e-03
1.642871089279651642e-02 -1.743049547076225281e-02 2.598346211016178131e-02 1.052586827427148819e-02
4.115651361644268036e-03 -1.710858754813671112e-02 -5.908580031245946884e-03 -2.213049866259098053e-02
-1.722533255815505981e-02 -2.579357847571372986e-02 -2.159512974321842194e-02 1.749313995242118835e-02
-2.140470035374164581e-02 5.028772167861461639e-03 9.310967288911342621e-04 -3.824076149612665176e-03
2.021461278200149536e-01 1.474206298589706421e-01 1.259723752737045288e-01 1.454660296440124512e-01
-1.671133339405059814e-01 -1.208674907684326172e-01 -1.667262911796569824e-01 -1.801818311214447021e-01
-7.459972053766250610e-02 -3.928658738732337952e-02 -6.005582958459854126e-02 -8.253932744264602661e-02
-1.097633782774209976e-02 -4.248455166816711426e-02 -1.944271102547645569e-02 -5.684816092252731323e-02
-8.330425620079040527e-02 -5.137923359870910645e-02 -7.775629311800003052e-02 -4.522232711315155029e-02
1.104710157960653305e-02 5.591596662998199463e-02 4.403899237513542175e-02 1.736807264387607574e-02
-6.502113491296768188e-02 -7.852089405059814453e-02 -6.406096369028091431e-02 -5.276665836572647095e-02
2.423745244741439819e-01 2.335777580738067627e-01 1.969592422246932983e-01 2.576341032981872559e-01
-6.162976473569869995e-02 -5.681088566780090332e-02 -4.247502982616424561e-02 -3.702934458851814270e-02
7.875739037990570068e-02 6.321051716804504395e-02 1.112609356641769409e-01 1.035927981138229370e-01
1.499841958284378052e-01 1.171584352850914001e-01 1.140600815415382385e-01 1.134731099009513855e-01
1.132111065089702606e-02 4.808862879872322083e-02 3.330163285136222839e-02 1.778628863394260406e-02
8.460714668035507202e-02 6.920852512121200562e-02 8.209240436553955078e-02 3.875644877552986145e-02
-4.810407012701034546e-02 -2.052792161703109741e-02 -4.429628700017929077e-02 -2.131477929651737213e-02
-7.286783307790756226e-02 -4.175364971160888672e-02 -4.464263841509819031e-02 -6.890677660703659058e-02
-9.002595394849777222e-02 -6.258209049701690674e-02 -1.029333174228668213e-01 -7.200186699628829956e-02
-1.017861440777778625e-01 -1.048229262232780457e-01 -8.878342062234878540e-02 -7.385116815567016602e-02
1.710770428180694580e-01 1.701972484588623047e-01 1.130584776401519775e-01 1.524976044893264771e-01
-1.104771438986063004e-02 -3.127766400575637817e-02 -2.577757835388183594e-02 -3.806007280945777893e-02
1.294609308242797852e-01 1.018293499946594238e-01 1.251936703920364380e-01 8.836304396390914917e-02
9.605505317449569702e-02 8.308196067810058594e-02 9.927202016115188599e-02 6.529232859611511230e-02
1.554268896579742432e-01 1.282464116811752319e-01 1.360197365283966064e-01 1.346399933099746704e-01
5.271095409989356995e-02 2.115089260041713715e-02 4.882115870714187622e-02 6.657736748456954956e-02
1.214200705289840698e-01 1.018479242920875549e-01 7.525612413883209229e-02 8.606052398681640625e-02
-9.829298406839370728e-02 -1.173562705516815186e-01 -6.704584509134292603e-02 -8.375851064920425415e-02
1.404168782755732536e-03 -2.106468193233013153e-02 -3.585644438862800598e-02 -3.362217918038368225e-02
-4.194395616650581360e-02 -2.672706358134746552e-02 -7.331785559654235840e-02 -7.730174809694290161e-02
1.483874674886465073e-02 7.689021993428468704e-03 3.043228294700384140e-03 1.680280268192291260e-02
-1.482622418552637100e-02 -1.016011741012334824e-02 -7.825828157365322113e-03 2.383041195571422577e-02
-9.497599303722381592e-02 -7.192691415548324585e-02 -7.957060635089874268e-02 -1.138344407081604004e-01
-7.460588961839675903e-02 -7.939754426479339600e-02 -8.030509948730468750e-02 -8.868864923715591431e-02
-9.444642812013626099e-02 -4.550828412175178528e-02 -5.454180762171745300e-02 -5.186913162469863892e-02
-1.691370084881782532e-02 1.731212809681892395e-02 2.706740424036979675e-02 3.318293252959847450e-03
4.536595568060874939e-02 6.111844256520271301e-02 4.675706848502159119e-02 3.951890766620635986e-02
4.341233987361192703e-03 2.410157816484570503e-03 -5.466536618769168854e-03 3.293001651763916016e-02
1.537508144974708557e-02 7.977779023349285126e-03 6.137530319392681122e-03 2.969259861856698990e-03
3.064754977822303772e-02 3.894951939582824707e-02 3.987957537174224854e-02 1.555543486028909683e-02
-1.209792960435152054e-02 3.083085268735885620e-02 -6.571148987859487534e-03 -2.045480720698833466e-02
-1.386416330933570862e-02 1.465111505240201950e-02 1.639699563384056091e-02 -6.518909707665443420e-03
4.466400668025016785e-02 1.025353930890560150e-02 4.668171983212232590e-03 1.461553014814853668e-02
2.854650653898715973e-02 7.521522231400012970e-03 3.362098336219787598e-02 1.345878746360540390e-02
2.737121097743511200e-02 -1.225082203745841980e-03 2.820675633847713470e-02 -1.383143756538629532e-02
1.453587971627712250e-02 7.024723454378545284e-04 2.558439970016479492e-02 1.240066904574632645e-02
1.153008732944726944e-02 -1.451439876109361649e-02 1.934934966266155243e-02 1.201475411653518677e-02
-1.711156778037548065e-02 -1.819062605500221252e-02 3.676612686831504107e-04 9.828092530369758606e-03
3.749094903469085693e-02 1.958646252751350403e-02 1.539852004498243332e-02 2.541742473840713501e-02
2.279917895793914795e-02 -1.214459259063005447e-02 -1.781495101749897003e-02 1.831831410527229309e-02
1.292973756790161133e-02 7.452355697751045227e-03 2.607340551912784576e-02 6.805912591516971588e-03
2.050788328051567078e-02 7.321885786950588226e-04 2.174940891563892365e-02 -7.513957680203020573e-04
-1.939601078629493713e-02 -1.973989605903625488e-02 1.142450887709856033e-02 -1.096786931157112122e-02
-1.112281996756792068e-02 2.274157665669918060e-02 -8.363028056919574738e-03 -1.713946089148521423e-02
-2.160877175629138947e-02 7.943326607346534729e-03 1.294096373021602631e-02 1.095949299633502960e-02
1.376857701689004898e-02 1.926070638000965118e-02 3.581008315086364746e-02 2.179663255810737610e-02
9.895339608192443848e-03 -1.001361757516860962e-02 -6.877611391246318817e-03 1.848298311233520508e-02
1.209962740540504456e-02 -2.762490138411521912e-02 -2.068072557449340820e-02 2.175391279160976410e-02
2.428041398525238037e-02 1.113125868141651154e-02 -2.793782856315374374e-03 -7.196908351033926010e-03
1.834063045680522919e-02 2.646891400218009949e-02 2.700630761682987213e-02 2.939744293689727783e-02
5.821177735924720764e-03 -4.161815624684095383e-03 -1.623044162988662720e-02 1.384880207479000092e-02
8.839894086122512817e-03 1.576347090303897858e-02 2.480141818523406982e-02 -2.238203596789389849e-04
-1.289899460971355438e-02 -1.054044067859649658e-02 -2.787009067833423615e-02 -3.247247263789176941e-02
-1.162112969905138016e-02 6.791868247091770172e-03 2.392141893506050110e-02 1.111459452658891678e-02
1.422750204801559448e-02 5.148872733116149902e-02 3.824574872851371765e-02 2.801203168928623199e-02
4.919683188199996948e-02 4.093531519174575806e-02 2.234467305243015289e-02 4.450977221131324768e-02
1.174516230821609497e-02 2.327122539281845093e-02 1.672989316284656525e-02 1.361458469182252884e-02
-1.304260455071926117e-02 9.903747588396072388e-03 -2.176566049456596375e-02 4.637448117136955261e-03
5.372340977191925049e-02 4.672569036483764648e-02 7.046352326869964600e-02 7.509559392929077148e-02
4.652421921491622925e-02 4.337330535054206848e-02 3.623387590050697327e-02 2.219063229858875275e-03
4.056272655725479126e-02 9.232378564774990082e-03 -1.795811811462044716e-03 1.166992541402578354e-02
1.862893626093864441e-02 -2.324811182916164398e-03 3.626909852027893066e-02 2.261803112924098969e-02
9.637290611863136292e-03 -5.348364822566509247e-03 3.106010146439075470e-02 1.522135920822620392e-02
1.195993158034980297e-03 -1.251437515020370483e-02 3.729848563671112061e-02 3.214677795767784119e-02
1.620276831090450287e-02 -3.471017116680741310e-03 2.970926649868488312e-02 -1.128385029733181000e-02
1.457136590033769608e-02 7.310254033654928207e-03 -6.806457880884408951e-03 3.083192557096481323e-02
8.313803933560848236e-03 -1.416755747050046921e-02 -1.705409027636051178e-02 -1.776773668825626373e-02
2.185399178415536880e-03 1.049903593957424164e-02 1.162773277610540390e-02 7.016869727522134781e-03
-3.748658671975135803e-02 -8.512266911566257477e-03 1.063134148716926575e-02 6.933051161468029022e-03
2.704010112211108208e-03 1.296015549451112747e-02 7.203690707683563232e-03 -2.492154948413372040e-02
8.339900523424148560e-03 8.674444630742073059e-03 2.143187262117862701e-02 -4.252462647855281830e-03
1.103740744292736053e-02 1.790091954171657562e-02 2.078045532107353210e-02 2.784488350152969360e-02
4.726551473140716553e-02 4.155975207686424255e-02 3.529302403330802917e-02 3.928627446293830872e-02
4.628849029541015625e-02 1.412003766745328903e-02 2.818446606397628784e-02 -4.320770967751741409e-03
1.125264354050159454e-02 -1.522769872099161148e-02 -8.035948500037193298e-03 -2.293263003230094910e-02
1.790188997983932495e-02 -8.109998307190835476e-04 6.228771992027759552e-03 1.412439998239278793e-02
1.194118242710828781e-02 -2.247995696961879730e-02 2.168936654925346375e-02 -1.182616036385297775e-02
1.855777949094772339e-02 2.144651114940643311e-02 2.469796687364578247e-02 1.605711691081523895e-02
-2.046925202012062073e-02 -2.115928940474987030e-02 5.673083011060953140e-03 2.137268334627151489e-02
-1.971999555826187134e-02 -1.144184451550245285e-02 -2.114213071763515472e-02 -2.626378647983074188e-02
2.288055978715419769e-02 -1.208952348679304123e-02 1.444037631154060364e-02 -2.069025114178657532e-02
3.464775905013084412e-02 2.332780510187149048e-02 1.307618618011474609e-02 4.035450518131256104e-02
-1.351790782064199448e-02 8.717430755496025085e-03 -4.795109853148460388e-03 5.849778186529874802e-03
-1.838965923525393009e-03 9.503864683210849762e-03 3.892942517995834351e-02 4.005550220608711243e-02
-3.793558105826377869e-02 -9.480292908847332001e-03 1.282555703073740005e-02 1.448524463921785355e-02
-1.605200953781604767e-02 2.156784757971763611e-02 7.258096244186162949e-03 1.818835735321044922e-03
3.598901256918907166e-02 5.946565046906471252e-02 6.314922869205474854e-02 5.217292159795761108e-02
2.035137265920639038e-02 -9.651364525780081749e-04 5.089091137051582336e-02 5.081027001142501831e-02
9.838500060141086578e-03 -2.151985187083482742e-03 2.877143584191799164e-02 3.773042932152748108e-02
-9.141801856458187103e-03 -1.340235956013202667e-02 -1.291647786274552345e-03 4.685873631387948990e-03
-1.947800256311893463e-02 -1.215959526598453522e-02 3.847506130114197731e-03 -8.789909072220325470e-03
-1.683762669563293457e-02 -2.028468064963817596e-03 -2.263598144054412842e-02 1.187362708151340485e-02
1.093312725424766541e-02 -8.781566284596920013e-03 7.953072898089885712e-03 3.867717168759554625e-04
-1.855726540088653564e-02 -3.142587607726454735e-03 4.913229495286941528e-03 -2.574488334357738495e-02
1.944119110703468323e-02 -4.918094724416732788e-03 4.828595090657472610e-03 -2.254984527826309204e-02
9.195518679916858673e-03 2.377267181873321533e-02 1.285381335765123367e-02 -4.333263728767633438e-03
2.402016147971153259e-02 -2.916942758020013571e-04 4.959288984537124634e-03 -2.737337164580821991e-02
-8.648298535263165832e-05 1.515000499784946442e-02 6.566492374986410141e-04 -2.715710178017616272e-02
-2.569713443517684937e-02 5.316505208611488342e-03 -3.727084258571267128e-03 -1.446244772523641586e-02
-1.573762297630310059e-02 -2.166126854717731476e-03 1.185228023678064346e-02 1.773760654032230377e-02
-3.106778487563133240e-03 5.583412712439894676e-04 -8.643617038615047932e-04 1.736679486930370331e-02
-2.694232389330863953e-02 1.529612578451633453e-02 -2.237390168011188507e-02 1.235677301883697510e-02
6.898520048707723618e-03 2.483771182596683502e-02 2.595100924372673035e-02 1.218646485358476639e-02
-3.787019522860646248e-03 -2.261646278202533722e-02 -2.622268861159682274e-03 -2.145669423043727875e-02
-1.598796574398875237e-03 4.490552470088005066e-03 -2.127465605735778809e-02 -2.461707033216953278e-02
-1.280551427043974400e-03 1.618720823898911476e-03 2.687788754701614380e-02 1.595961675047874451e-02
2.481662482023239136e-02 -4.638656042516231537e-03 8.101162500679492950e-03 -5.119278095662593842e-03
-1.775369234383106232e-02 1.259464916074648499e-04 -2.701704949140548706e-02 -4.454094450920820236e-04
1.316902507096529007e-02 3.339878981932997704e-03 1.269333530217409134e-02 2.570264972746372223e-02
1.818894594907760620e-02 -2.156542055308818817e-02 -7.433685939759016037e-03 1.020383555442094803e-02
1.117077562958002090e-02 -2.068511210381984711e-02 2.262481488287448883e-02 -2.610860764980316162e-02
3.407943062484264374e-03 4.051023162901401520e-03 7.980293594300746918e-03 1.076609827578067780e-02
-3.132328565698117018e-04 1.239297445863485336e-02 -1.841055229306221008e-02 -1.482770498842000961e-02
-1.698989793658256531e-02 2.473670989274978638e-02 4.997335374355316162e-03 1.900297403335571289e-02
-1.785317808389663696e-02 -2.353218384087085724e-02 -2.621524501591920853e-03 -1.127438526600599289e-02
9.269292466342449188e-03 -1.130701694637537003e-02 -1.744463294744491577e-02 -8.916305378079414368e-03
8.033750578761100769e-03 1.298822462558746338e-02 -2.086289040744304657e-02 1.819419860839843750e-02
2.287331596016883850e-02 -2.416107989847660065e-02 2.531569218263030052e-03 6.283831316977739334e-03
1.651789061725139618e-02 2.716894634068012238e-02 5.924628349021077156e-04 2.773036621510982513e-02
2.405742416158318520e-03 1.277838554233312607e-02 -7.599999196827411652e-03 -1.022429391741752625e-02
2.992531470954418182e-02 8.577025495469570160e-03 2.135566435754299164e-02 2.322752401232719421e-02
-1.689881086349487305e-02 -3.904763376340270042e-03 5.331794265657663345e-03 -4.309402406215667725e-02
1.480079144239425659e-01 1.168770119547843933e-01 1.327416896820068359e-01 1.546364128589630127e-01
5.427226424217224121e-02 2.587843127548694611e-02 6.453023105859756470e-02 4.869172722101211548e-02
4.949333518743515015e-02 1.773281395435333252e-02 3.799632936716079712e-02 6.256566941738128662e-02
4.873208329081535339e-02 5.766837298870086670e-02 4.351082444190979004e-02 5.219431594014167786e-02
1.408128417097032070e-03 2.865788713097572327e-02 1.295642834156751633e-02 2.062307111918926239e-02
4.087239131331443787e-02 5.745420977473258972e-02 2.537359856069087982e-02 6.308955699205398560e-02
-1.746336184442043304e-02 1.673248596489429474e-02 -6.899510975927114487e-03 1.588551700115203857e-02
4.588651657104492188e-02 1.713880896568298340e-02 4.224200546741485596e-02 4.989297688007354736e-02
1.363641582429409027e-02 4.737968265544623137e-04 -1.351639628410339355e-02 -9.363193064928054810e-03
-1.246369443833827972e-02 3.941341862082481384e-02 -7.637443952262401581e-03 -9.311714209616184235e-03
-5.501167103648185730e-02 -3.892729803919792175e-02 -1.908089034259319305e-02 -6.281191948801279068e-03
-4.681019484996795654e-02 1.628535613417625427e-02 -3.085192665457725525e-02 -4.227073863148689270e-02
5.060765519738197327e-02 2.283104136586189270e-02 3.956662863492965698e-02 6.117487698793411255e-02
4.356170073151588440e-02 2.675033546984195709e-02 4.945818334817886353e-02 5.995206907391548157e-02
6.870915740728378296e-02 2.434604614973068237e-02 6.358116120100021362e-02 3.863102570176124573e-02
5.465646833181381226e-02 8.010659366846084595e-02 7.535985112190246582e-02 5.888019502162933350e-02
-1.347269862890243530e-02 3.530245646834373474e-02 3.098791837692260742e-02 2.579468674957752228e-02
-1.304273400455713272e-02 1.641004346311092377e-02 -7.600750308483839035e-03 1.515796594321727753e-02
-3.092996217310428619e-02 -4.248492186889052391e-04 8.206322789192199707e-03 -3.899895772337913513e-02
3.439313918352127075e-02 -3.198853693902492523e-03 -9.913954418152570724e-04 1.935496577061712742e-03
-2.574503794312477112e-02 -3.036273829638957977e-02 -2.730993926525115967e-02 -1.800599321722984314e-02
-1.854011230170726776e-02 -1.434301398694515228e-02 2.853432670235633850e-03 4.668665118515491486e-03
-1.581338793039321899e-02 1.694415323436260223e-02 3.164897114038467407e-02 -4.194214008748531342e-03
8.340407162904739380e-02 4.873366653919219971e-02 8.435934782028198242e-02 4.132932052016258240e-02
-6.491219624876976013e-03 -5.796478944830596447e-04 6.337556988000869751e-03 2.112330123782157898e-02
7.259583473205566406e-02 6.388186663389205933e-02 6.918089836835861206e-02 5.751023814082145691e-02
-2.252789214253425598e-03 -1.845244877040386200e-02 -1.269835513085126877e-02 -4.301079362630844116e-02
1.505859289318323135e-02 1.790135540068149567e-02 2.947398833930492401e-02 -2.848977455869317055e-03
1.545113623142242432e-01 1.303876191377639771e-01 1.304619908332824707e-01 1.439783871173858643e-01
7.121600210666656494e-02 5.605125054717063904e-02 3.523200750350952148e-02 4.687020927667617798e-02
4.311886057257652283e-02 4.280367121100425720e-02 6.985796988010406494e-02 3.522370755672454834e-02
-8.037819527089595795e-03 -1.143445074558258057e-02 9.931206703186035156e-03 7.170557975769042969e-03
4.233521968126296997e-02 8.035375736653804779e-03 2.122472971677780151e-02 4.409222304821014404e-02
1.937557384371757507e-02 -1.747040078043937683e-02 -1.389989722520112991e-02 -7.389939390122890472e-03
3.194392845034599304e-02 2.033639326691627502e-02 5.321492906659841537e-03 1.177461910992860794e-02
6.391454022377729416e-03 2.575359493494033813e-02 -1.449843402951955795e-02 5.813011433929204941e-03
-1.213517691940069199e-02 -1.425719540566205978e-02 -9.429619647562503815e-03 6.809659767895936966e-03
6.639121565967798233e-03 -1.062970887869596481e-02 -1.985332742333412170e-02 2.137596905231475830e-02
8.556175162084400654e-04 -1.438308227807283401e-02 3.594137728214263916e-03 -9.938493371009826660e-03
2.296476997435092926e-02 -4.644258879125118256e-03 -1.794026605784893036e-02 3.556655952706933022e-03
2.008773200213909149e-02 2.436447888612747192e-02 5.226405337452888489e-03 1.950757019221782684e-02
-1.575050130486488342e-02 2.498082071542739868e-02 -2.807631157338619232e-02 -5.298946052789688110e-03
1.648737490177154541e-02 1.857113279402256012e-02 -8.428648114204406738e-03 -1.518017984926700592e-02
1.301997900009155273e-02 -2.925063855946063995e-02 -2.624560520052909851e-02 1.014651916921138763e-02
-1.510251034051179886e-02 2.378928661346435547e-02 6.758683361113071442e-03 2.395261637866497040e-02
-3.980368375778198242e-03 -1.550376601517200470e-02 2.281484007835388184e-02 1.688783802092075348e-02
-1.079056295566260815e-03 8.917002938687801361e-03 2.979158610105514526e-02 2.437145821750164032e-02
9.899694472551345825e-03 2.099315635859966278e-02 -2.323903143405914307e-03 -1.406075898557901382e-02
-1.548136118799448013e-02 -1.105306297540664673e-02 -1.378331915475428104e-03 2.030684379860758781e-03
1.430644746869802475e-02 -1.894983695819973946e-03 -1.659537293016910553e-02 2.428884431719779968e-02
-1.654602587223052979e-02 -7.305323611944913864e-03 1.772453635931015015e-02 -2.907152287662029266e-02
2.274805307388305664e-02 1.860779151320457458e-02 7.472655270248651505e-03 1.307157333940267563e-02
-1.877177134156227112e-02 1.686565950512886047e-02 3.573666326701641083e-03 1.330651529133319855e-02
3.623333992436528206e-03 -2.475840801707818173e-06 1.371857710182666779e-02 1.402067672461271286e-02
8.031984791159629822e-03 2.216212637722492218e-02 -7.069251034408807755e-03 2.066156826913356781e-02
2.798102609813213348e-02 1.792038092389702797e-03 2.437181957066059113e-02 -7.514066528528928757e-03
1.525925181340426207e-04 1.992001943290233612e-02 2.151306159794330597e-02 1.682984270155429840e-02
4.497002344578504562e-03 7.427955046296119690e-03 -9.523282758891582489e-03 -6.411213427782058716e-03
-3.049881383776664734e-02 -3.146076202392578125e-02 -1.381408795714378357e-02 -9.549163281917572021e-03
3.828377462923526764e-03 -2.189583890140056610e-02 9.195433929562568665e-03 -3.920421004295349121e-03
3.457718342542648315e-02 2.469882555305957794e-02 2.688995189964771271e-02 2.649622038006782532e-03
1.398954074829816818e-02 1.840025000274181366e-02 -1.112695038318634033e-02 3.248653933405876160e-02
-5.876081995666027069e-03 3.327155485749244690e-02 3.364245221018791199e-02 1.654095947742462158e-02
-6.858367007225751877e-03 -1.526232901960611343e-02 5.564399994909763336e-03 -2.103833481669425964e-02
-5.198365543037652969e-03 -2.455298975110054016e-02 -2.154743857681751251e-02 3.913954831659793854e-03
-3.314959118142724037e-03 -1.625332050025463104e-02 -1.431910973042249680e-02 -1.109246537089347839e-02
-2.581587806344032288e-02 -4.989420529454946518e-03 -1.885698363184928894e-02 8.701598271727561951e-03
-2.715031057596206665e-02 -8.873422630131244659e-03 -2.171268127858638763e-02 8.832620456814765930e-03
-1.216124277561903000e-02 -2.074073441326618195e-02 -2.412291057407855988e-02 1.070847036316990852e-03
1.686774380505084991e-02 -1.651481911540031433e-02 -1.989672146737575531e-02 -6.283268798142671585e-03
1.972545869648456573e-02 -4.516470289672724903e-05 -5.670657847076654434e-03 1.495757978409528732e-02
7.605986669659614563e-03 1.248949766159057617e-02 6.164981052279472351e-03 2.435917221009731293e-02
5.424767732620239258e-03 -2.686836058273911476e-03 -1.408596150577068329e-02 -1.490059494972229004e-02
-1.074029039591550827e-02 -6.460806820541620255e-03 2.545360103249549866e-02 1.981131732463836670e-02
6.742896512150764465e-04 -1.241131499409675598e-02 -1.300221774727106094e-03 -1.509591005742549896e-02
2.237854339182376862e-02 -8.848885074257850647e-03 7.171518635004758835e-03 2.714472648221999407e-04
1.703908294439315796e-02 -4.169371444731950760e-03 -1.454408373683691025e-02 1.633282750844955444e-03
-3.140765242278575897e-03 -9.275020100176334381e-03 -2.003845945000648499e-02 -1.974369026720523834e-02
2.044313400983810425e-02 4.308701027184724808e-03 -2.042976580560207367e-02 -1.128823310136795044e-02
-1.644068770110607147e-02 2.635568752884864807e-02 -6.869644392281770706e-03 -2.006855979561805725e-02
-2.639022469520568848e-02 -9.951069951057434082e-03 -2.032868564128875732e-02 -2.358668111264705658e-02
-2.567682228982448578e-02 -5.745887756347656250e-05 -2.502053789794445038e-02 1.360215526074171066e-02
1.849070773459970951e-03 2.484887093305587769e-02 -2.431637980043888092e-02 -1.456460263580083847e-02
-9.278618563257623464e-06 1.898402464576065540e-03 1.202789973467588425e-02 9.975028224289417267e-03
1.702030003070831299e-02 -1.547148264944553375e-02 3.147152718156576157e-03 -2.568093501031398773e-02
-1.578549295663833618e-02 -1.196944247931241989e-02 5.290075670927762985e-03 -3.582528792321681976e-03
-2.547426521778106689e-02 2.212348394095897675e-02 -1.733486726880073547e-02 -2.195652388036251068e-02
-9.294576942920684814e-03 2.097239904105663300e-02 -1.957016438245773315e-02 6.930370349436998367e-03
-2.633927576243877411e-02 1.424034591764211655e-02 -2.001091092824935913e-02 -3.109561745077371597e-03
-2.057393826544284821e-02 -1.781895570456981659e-02 -2.063433080911636353e-02 -1.160628255456686020e-02
4.737363196909427643e-04 -2.531024441123008728e-02 -1.074939500540494919e-02 -1.356536336243152618e-02
-2.574290335178375244e-02 -4.552323836833238602e-03 6.857858970761299133e-03 2.212549373507499695e-02
-2.218609862029552460e-02 2.083006128668785095e-02 -5.879884120076894760e-04 1.017886120826005936e-02
-1.859278976917266846e-02 -2.181241102516651154e-02 1.995014399290084839e-02 -1.368693355470895767e-02
-2.637010626494884491e-02 1.647942513227462769e-02 2.539661712944507599e-02 -3.276089439168572426e-03
1.519180536270141602e-01 1.217787265777587891e-01 1.292828470468521118e-01 1.558942794799804688e-01
-9.315924346446990967e-02 -1.165626496076583862e-01 -8.806744217872619629e-02 -1.163454204797744751e-01
-4.070245474576950073e-02 -5.125361308455467224e-02 -6.678367406129837036e-02 -8.394740521907806396e-02
-2.257733047008514404e-02 -3.538357093930244446e-02 -1.063943095505237579e-02 -1.544759888201951981e-02
-3.367972001433372498e-02 -1.643527671694755554e-02 -2.225547283887863159e-02 -1.882366649806499481e-02
4.679476469755172729e-02 5.273268371820449829e-02 1.806446537375450134e-02 3.291154652833938599e-02
-6.352254003286361694e-02 -4.930790141224861145e-02 -2.987018972635269165e-02 -3.168081119656562805e-02
2.379097193479537964e-01 2.581444978713989258e-01 2.210842370986938477e-01 2.671247720718383789e-01
-3.652511164546012878e-02 -5.870755761861801147e-03 1.029932592064142227e-02 -3.542910143733024597e-02
8.377619832754135132e-02 7.015309482812881470e-02 9.781569242477416992e-02 1.055565401911735535e-01
1.284821331501007080e-01 1.085294932126998901e-01 1.052514538168907166e-01 1.172267496585845947e-01
3.548868745565414429e-02 5.158433690667152405e-02 2.327566221356391907e-02 4.034741595387458801e-02
8.492718636989593506e-02 4.360947385430335999e-02 5.435648187994956970e-02 8.329148590564727783e-02
-1.827748306095600128e-02 -3.587377443909645081e-02 -1.301601529121398926e-02 -3.735505044460296631e-02
-6.360588967800140381e-02 -4.873180389404296875e-02 -2.139117196202278137e-02 -5.212511494755744934e-02
-2.023387514054775238e-02 -5.545024760067462921e-03 -5.024227872490882874e-02 -1.287549361586570740e-02
-1.020763590931892395e-01 -8.554109930992126465e-02 -1.099539399147033691e-01 -8.083172142505645752e-02
1.534519940614700317e-01 1.027449220418930054e-01 1.289489865303039551e-01 1.024285852909088135e-01
-1.637889072299003601e-03 -3.565578081179410219e-04 -3.552231937646865845e-02 -3.845360595732927322e-03
1.169477030634880066e-01 1.173039972782135010e-01 1.050120964646339417e-01 8.916453272104263306e-02
1.151112765073776245e-01 9.587194770574569702e-02 8.053582906723022461e-02 8.485409617424011230e-02
1.502999961376190186e-01 8.818292617797851562e-02 1.205187588930130005e-01 1.028086692094802856e-01
3.193467855453491211e-02 4.041886329650878906e-02 3.287140280008316040e-02 1.351004652678966522e-02
1.115818247199058533e-01 1.055929362773895264e-01 6.037073209881782532e-02 8.159817755222320557e-02
-1.159987449645996094e-01 -7.055568695068359375e-02 -1.035805121064186096e-01 -5.814742296934127808e-02
-2.900265157222747803e-02 -3.705826029181480408e-02 -3.146861679852008820e-03 9.231381118297576904e-04
-3.235436975955963135e-02 -2.555076777935028076e-02 -4.376905784010887146e-02 -3.759409859776496887e-02
1.950162835419178009e-02 4.213909432291984558e-02 3.095735795795917511e-03 -7.108208228601142764e-05
1.831181161105632782e-02 -1.234784163534641266e-02 -2.403652667999267578e-02 -5.908054765313863754e-03
-6.999715417623519897e-02 -1.078093126416206360e-01 -1.258943080902099609e-01 -1.373402029275894165e-01
-4.877032712101936340e-02 -9.093906730413436890e-03 -4.403083398938179016e-02 -3.019502945244312286e-02
-8.043498545885086060e-02 -7.634826749563217163e-02 -6.150675565004348755e-02 -8.042169362306594849e-02
6.807318329811096191e-02 6.399085372686386108e-02 5.631985142827033997e-02 7.070101797580718994e-02
-9.633180685341358185e-03 5.436359904706478119e-03 2.286406047642230988e-02 -5.059441085904836655e-03
-9.589984081685543060e-03 -9.380066767334938049e-03 4.534017294645309448e-03 -1.667095161974430084e-02
-3.166392818093299866e-02 -1.312075927853584290e-02 1.400475110858678818e-02 -5.226106848567724228e-03
3.437055647373199463e-02 1.603417098522186279e-02 5.492208059877157211e-03 3.147491067647933960e-02
1.037993095815181732e-02 1.847359351813793182e-02 2.645565569400787354e-02 3.245240822434425354e-02
-1.211454253643751144e-02 -1.670582219958305359e-02 -3.348537534475326538e-02 -1.476033404469490051e-02
9.678789228200912476e-02 6.690844893455505371e-02 6.883994489908218384e-02 6.902946531772613525e-02
8.129435591399669647e-03 5.522413994185626507e-04 1.304772496223449707e-02 9.762364206835627556e-04
3.560302034020423889e-02 4.012218862771987915e-02 2.261157520115375519e-02 5.390295758843421936e-02
1.611188240349292755e-02 2.990940213203430176e-02 2.987580373883247375e-02 3.767174482345581055e-02
1.029395149089396000e-03 -1.089213881641626358e-02 1.146008726209402084e-02 -2.592365723103284836e-03
3.380141034722328186e-02 2.859831973910331726e-02 -1.761505147442221642e-03 1.541200093924999237e-02
2.435031719505786896e-02 -1.449863519519567490e-02 -8.207323960959911346e-03 8.623486384749412537e-03
-2.381175942718982697e-02 -4.007331654429435730e-02 -4.122830182313919067e-02 -3.051207587122917175e-02
3.034892678260803223e-02 1.108979061245918274e-02 -1.327819470316171646e-02 4.170423373579978943e-03
-4.060268029570579529e-02 -2.067014947533607483e-02 -5.549828335642814636e-02 -2.271221391856670380e-02
6.219521164894104004e-02 3.765641525387763977e-02 5.784564092755317688e-02 2.309555374085903168e-02
1.709862425923347473e-02 1.157681643962860107e-02 -2.162522077560424805e-02 -2.012746967375278473e-02
5.686360225081443787e-02 4.622054845094680786e-02 1.630928553640842438e-02 4.331813007593154907e-02
2.655902877449989319e-02 7.000190671533346176e-03 5.401820316910743713e-02 4.444875940680503845e-02
4.905106872320175171e-02 5.076050385832786560e-02 1.696082949638366699e-02 6.573562324047088623e-02
1.216571964323520660e-02 4.164796695113182068e-02 1.550599467009305954e-02 3.781659528613090515e-02
5.472820252180099487e-02 2.304565533995628357e-02 4.406430572271347046e-02 3.343123570084571838e-02
-6.597305182367563248e-03 -3.699488565325737000e-02 -8.316549472510814667e-03 -1.048834063112735748e-02
-2.636655792593955994e-02 -1.109412591904401779e-02 -2.450559288263320923e-02 1.480783708393573761e-02
-1.634927280247211456e-02 -1.636061631143093109e-02 -1.883054338395595551e-02 -7.385689765214920044e-03
3.194483742117881775e-02 -1.398723572492599487e-02 -1.512938831001520157e-02 2.338399924337863922e-02
-2.603909699246287346e-03 -5.438404623419046402e-03 -2.502215467393398285e-02 -2.294548414647579193e-02
-1.666959375143051147e-02 -3.610693663358688354e-02 -1.761768944561481476e-02 -3.742930665612220764e-02
-3.576630959287285805e-03 1.483242586255073547e-02 3.084238804876804352e-02 2.577914483845233917e-02
-5.127781257033348083e-02 -4.149881750345230103e-02 -1.463174936361610889e-03 -3.823902085423469543e-02
-2.198001742362976074e-02 -3.913364838808774948e-03 2.389122918248176575e-02 -2.090507559478282928e-02
8.659834414720535278e-02 3.941403329372406006e-02 6.703577190637588501e-02 4.996520653367042542e-02
2.358830533921718597e-02 2.939183637499809265e-02 1.450272742658853531e-02 7.358629722148180008e-03
2.188121667131781578e-03 -9.619303047657012939e-03 1.566922850906848907e-02 -9.644175879657268524e-03
4.243240505456924438e-02 1.315245591104030609e-02 4.172106459736824036e-02 -2.873823512345552444e-03
-1.033529732376337051e-02 -1.005141157656908035e-02 -1.837460696697235107e-02 8.665523491799831390e-03
8.427283726632595062e-03 1.088524516671895981e-02 -5.579771008342504501e-03 -5.942434538155794144e-03
1.055509503930807114e-02 3.368807584047317505e-02 3.339616209268569946e-02 8.355775848031044006e-03
4.481517150998115540e-02 1.940739527344703674e-02 1.645420305430889130e-02 4.291140288114547729e-02
-1.232672855257987976e-02 -1.411357056349515915e-02 -1.648302748799324036e-02 -1.544386614114046097e-02
-1.168282423168420792e-02 -9.239413775503635406e-03 -1.256895437836647034e-02 -1.134944614022970200e-02
1.444189622998237610e-02 -2.962326165288686752e-03 -1.422194065526127815e-03 -1.468061003834009171e-02
1.846438646316528320e-02 1.049534417688846588e-03 -1.702130027115345001e-02 -2.348105236887931824e-02
1.400378346443176270e-02 2.961140312254428864e-02 9.221281856298446655e-03 -5.531673785299062729e-03
4.808487836271524429e-03 2.017825841903686523e-02 2.484725415706634521e-02 -1.361653394997119904e-02
2.226206287741661072e-02 3.705792501568794250e-02 3.488714993000030518e-02 4.046009853482246399e-03
3.632941469550132751e-02 1.569903083145618439e-02 3.487009182572364807e-02 1.129650603979825974e-02
3.150295233353972435e-04 -1.465373300015926361e-02 -4.955503623932600021e-03 5.335805006325244904e-03
-2.443804405629634857e-02 -2.271278016269207001e-02 1.337351161055266857e-03 -2.027381211519241333e-02
1.197806559503078461e-03 1.322680525481700897e-02 -1.696753501892089844e-02 6.485236808657646179e-03
2.229082025587558746e-02 1.940501481294631958e-02 3.189757466316223145e-02 -1.287051243707537651e-03
-3.472798271104693413e-03 1.029256824404001236e-02 -2.152338624000549316e-02 -2.284967899322509766e-02
1.664565131068229675e-02 1.983477920293807983e-02 -2.790773287415504456e-02 1.816316694021224976e-02
8.493631146848201752e-03 -1.213327609002590179e-02 1.177741214632987976e-02 -1.715458463877439499e-03
4.099945724010467529e-02 1.402824930846691132e-02 -7.382704410701990128e-03 1.750696077942848206e-02
2.489545755088329315e-02 1.708784513175487518e-02 -2.475847862660884857e-02 1.846821978688240051e-02
3.759114816784858704e-02 1.571846753358840942e-02 1.089137047529220581e-02 1.928651332855224609e-02
-2.585369162261486053e-02 1.968686236068606377e-03 9.453176520764827728e-03 2.897466998547315598e-03
-9.478721767663955688e-03 -4.166789352893829346e-03 1.464641094207763672e-02 -1.797109097242355347e-02
6.319350004196166992e-02 5.118844285607337952e-02 4.374540969729423523e-02 2.079555392265319824e-02
8.134370669722557068e-03 2.404976822435855865e-02 3.850557282567024231e-02 1.187507528811693192e-02
3.732869401574134827e-02 4.488662816584110260e-03 8.994497358798980713e-03 3.558706119656562805e-02
2.172229066491127014e-02 8.706869557499885559e-03 5.275518074631690979e-02 -1.241147052496671677e-02
2.758793830871582031e-01 2.602723240852355957e-01 2.536838054656982422e-01 2.770490944385528564e-01
9.997219592332839966e-02 8.427891880273818970e-02 6.348596513271331787e-02 7.878723740577697754e-02
4.180232062935829163e-02 6.329369544982910156e-02 5.182402580976486206e-02 7.582622766494750977e-02
1.323791742324829102e-01 7.938241958618164062e-02 9.774934500455856323e-02 1.309780478477478027e-01
1.064490713179111481e-02 -8.743057958781719208e-03 2.473066095262765884e-03 -4.709954839199781418e-03
-2.641224302351474762e-02 -1.586043462157249451e-02 -2.112441463395953178e-03 -1.748962886631488800e-02
7.976684719324111938e-02 8.153210580348968506e-02 8.195547014474868774e-02 9.272877126932144165e-02
8.632006496191024780e-02 7.623389363288879395e-02 8.815336972475051880e-02 1.097477525472640991e-01
-1.014185324311256409e-02 -3.975481260567903519e-03 1.704537123441696167e-02 -2.147930208593606949e-03
2.592017874121665955e-02 5.760302394628524780e-02 2.696773037314414978e-02 -1.277608703821897507e-02
-3.756594285368919373e-02 -2.231501601636409760e-02 -2.188986539840698242e-02 -1.050197705626487732e-02
-5.452492460608482361e-02 5.183760658837854862e-04 -2.962394058704376221e-02 -4.001885280013084412e-02
8.261937648057937622e-02 8.499180525541305542e-02 4.323442280292510986e-02 8.485719561576843262e-02
-2.365177311003208160e-02 -3.897373564541339874e-03 -1.136866491287946701e-02 -1.043461635708808899e-02
1.421837061643600464e-01 1.318465918302536011e-01 1.281507760286331177e-01 1.515641212463378906e-01
1.696867868304252625e-02 1.518884859979152679e-02 1.016655191779136658e-02 3.183064283803105354e-03
-6.078555434942245483e-02 -2.778938505798578262e-03 -1.665181480348110199e-02 -3.938693925738334656e-02
1.865228638052940369e-02 6.868638098239898682e-03 -7.191524840891361237e-03 3.178294748067855835e-02
2.396630309522151947e-02 8.356422185897827148e-03 1.859768759459257126e-03 -1.209861598908901215e-02
-7.000923156738281250e-03 -2.299639163538813591e-04 4.985835868865251541e-03 2.442175708711147308e-02
-2.898064814507961273e-02 -1.149379182606935501e-02 -9.525571018457412720e-03 -1.859493739902973175e-02
-2.278931625187397003e-02 -2.622157335281372070e-02 -2.694902569055557251e-02 4.918863065540790558e-03
2.477708831429481506e-02 2.682879567146301270e-03 1.916056312620639801e-02 2.507769130170345306e-02
3.470705822110176086e-02 3.000253811478614807e-02 2.878490462899208069e-02 4.246901348233222961e-02
4.829871002584695816e-03 6.752704735845327377e-03 -1.445506606251001358e-02 1.303032506257295609e-02
3.798696771264076233e-02 7.242085784673690796e-02 2.632400766015052795e-02 2.835204638540744781e-02
-1.836328022181987762e-02 -3.586697950959205627e-02 -6.006507202982902527e-02 -6.229237839579582214e-02
1.250719651579856873e-03 2.119879983365535736e-02 5.292837973684072495e-03 -5.919924937188625336e-03
1.913565099239349365e-01 2.001344561576843262e-01 1.800228804349899292e-01 1.625050455331802368e-01
1.533440947532653809e-01 1.416521221399307251e-01 1.196456104516983032e-01 1.516432613134384155e-01
-1.230000797659158707e-02 -1.169387158006429672e-02 -9.724055416882038116e-03 5.692875944077968597e-03
1.488030105829238892e-01 1.399568021297454834e-01 1.271547973155975342e-01 1.351416260004043579e-01
-1.971139013767242432e-02 -3.727080672979354858e-02 -2.967054722830653191e-03 -2.696614898741245270e-02
-5.682818219065666199e-02 -3.539051488041877747e-02 -2.171698212623596191e-02 -5.725677311420440674e-02
-9.400879032909870148e-03 5.774301011115312576e-03 -1.353971008211374283e-02 -1.402023900300264359e-02
1.876366324722766876e-02 3.082565963268280029e-02 -6.181623321026563644e-03 4.010435659438371658e-03
5.391677096486091614e-02 2.809760719537734985e-02 4.900820180773735046e-02 1.452223490923643112e-02
-3.387022018432617188e-02 -3.529330343008041382e-02 -1.775960065424442291e-02 -6.227866560220718384e-02
1.921004056930541992e-01 1.937940418720245361e-01 2.217728346586227417e-01 1.972906738519668579e-01
2.064342424273490906e-02 3.732761600986123085e-03 3.214920312166213989e-02 1.067302096635103226e-02
7.741671055555343628e-02 8.145478367805480957e-02 7.602243870496749878e-02 5.268438532948493958e-02
1.040079444646835327e-01 1.010516509413719177e-01 9.753394871950149536e-02 9.246178716421127319e-02
2.516065537929534912e-02 3.992095123976469040e-03 7.204147055745124817e-03 1.614077575504779816e-02
4.231218993663787842e-02 6.825603544712066650e-02 4.035273194313049316e-02 6.111452728509902954e-02
6.444876547902822495e-03 3.191988915205001831e-02 2.269968762993812561e-02 -2.041569678112864494e-03
-5.865726992487907410e-02 -4.382750391960144043e-02 -6.611066311597824097e-02 -4.417548328638076782e-02
1.577590405941009521e-02 -1.937418431043624878e-02 2.680919319391250610e-02 1.917743310332298279e-02
-9.481066465377807617e-02 -8.314107358455657959e-02 -9.072241187095642090e-02 -7.913216203451156616e-02
1.398195177316665649e-01 1.199837103486061096e-01 6.486655771732330322e-02 7.811984419822692871e-02
-1.605846732854843140e-02 -2.788030914962291718e-02 -3.340523317456245422e-02 -2.033818513154983521e-02
7.663903385400772095e-02 9.461167454719543457e-02 8.754034340381622314e-02 1.036921814084053040e-01
7.989200949668884277e-02 6.427153944969177246e-02 8.610322326421737671e-02 9.109564125537872314e-02
1.325888633728027344e-01 1.090978011488914490e-01 9.659187495708465576e-02 1.244333907961845398e-01
1.326165534555912018e-02 5.513571575284004211e-02 3.619887679815292358e-02 3.385335206985473633e-02
7.767274975776672363e-02 5.152885988354682922e-02 7.365805655717849731e-02 6.678628176450729370e-02
-9.549555927515029907e-02 -6.086619943380355835e-02 -8.435241878032684326e-02 -9.490956366062164307e-02
1.180911995470523834e-02 2.415644470602273941e-03 1.543089654296636581e-02 -2.167041413486003876e-02
-4.164042416960000992e-03 -2.499582804739475250e-02 -1.926928944885730743e-02 -5.316681042313575745e-02
4.165668040513992310e-03 -6.038107909262180328e-03 4.305149987339973450e-02 2.064817585051059723e-02
1.262456364929676056e-02 4.782792180776596069e-03 3.937597386538982391e-03 1.491854526102542877e-02
-7.381962239742279053e-02 -7.367652654647827148e-02 -6.473144888877868652e-02 -9.807885438203811646e-02
9.244359098374843597e-03 1.087553799152374268e-02 2.652203291654586792e-02 2.636402286589145660e-02
-4.293161258101463318e-02 -5.975487455725669861e-02 -8.111217617988586426e-02 -3.867051377892494202e-02
-2.352641336619853973e-02 2.990981191396713257e-02 1.701103174127638340e-03 2.097078226506710052e-02
2.452250570058822632e-02 4.620124399662017822e-02 2.479909546673297882e-02 2.122873812913894653e-02
-1.552155334502458572e-02 2.040247246623039246e-02 -1.860653795301914215e-02 8.396845310926437378e-03
7.986949756741523743e-03 -1.657982729375362396e-02 5.198525730520486832e-03 -1.888606324791908264e-02
1.273979246616363525e-02 -1.022801175713539124e-02 1.299947407096624374e-02 1.493981480598449707e-02
2.421431802213191986e-02 2.797611430287361145e-02 -1.562578603625297546e-02 5.206199828535318375e-03
-1.308014150708913803e-02 -2.757658483460545540e-03 2.063794992864131927e-02 -2.895540557801723480e-02
1.422034949064254761e-02 5.212395917624235153e-03 1.365600898861885071e-02 2.668231911957263947e-02
-7.264288607984781265e-03 -3.195701632648706436e-03 1.256622932851314545e-02 -9.175629355013370514e-03
-1.289408560842275620e-02 -1.059117633849382401e-02 1.155914459377527237e-02 -2.427225699648261070e-04
-1.528300717473030090e-02 2.700830064713954926e-02 1.569608226418495178e-02 3.651047125458717346e-03
-1.508643850684165955e-02 8.520267903804779053e-03 -1.229917630553245544e-02 2.289618551731109619e-02
1.701411604881286621e-02 4.819227382540702820e-03 -2.807721868157386780e-02 -1.814580708742141724e-02
8.673132397234439850e-03 2.851233445107936859e-02 -3.946795128285884857e-03 -1.291035208851099014e-02
2.197720296680927277e-02 -2.514261379837989807e-02 9.088478051126003265e-03 -5.411902093328535557e-04
1.287556439638137817e-02 2.868896722793579102e-02 6.018701009452342987e-03 3.478942811489105225e-02
-1.965860091149806976e-02 1.203770749270915985e-02 -3.033468872308731079e-02 6.799270398914813995e-03
-6.207130500115454197e-04 7.145904004573822021e-03 1.927387528121471405e-02 -1.732313260436058044e-02
-5.507457070052623749e-03 -2.085965499281883240e-02 8.934402139857411385e-04 -5.693037994205951691e-03
2.565194107592105865e-02 -7.356368470937013626e-03 2.186564542353153229e-02 1.135027129203081131e-02
1.357442606240510941e-02 -4.318740218877792358e-03 2.096716314554214478e-02 2.688947319984436035e-02
-9.060064912773668766e-04 -2.257521497085690498e-03 -1.185724232345819473e-02 -6.551343016326427460e-03
1.552519388496875763e-02 -6.145568098872900009e-03 2.680608537048101425e-03 1.562399696558713913e-02
1.831006258726119995e-02 7.005347404628992081e-03 2.239466831088066101e-02 3.257654979825019836e-02
-1.258865185081958771e-02 -8.537511341273784637e-03 1.179880090057849884e-02 2.257495746016502380e-02
-9.118050336837768555e-03 -1.045855414122343063e-02 -4.875736776739358902e-03 -1.269011944532394409e-02
2.378394454717636108e-02 1.560835866257548332e-03 -1.854204013943672180e-02 5.741413915529847145e-04
1.090018823742866516e-02 4.814587067812681198e-03 4.629733040928840637e-03 7.574062328785657883e-03
2.431779913604259491e-02 -1.629948057234287262e-02 -1.923217624425888062e-02 4.331904929131269455e-03
2.344632893800735474e-02 7.852642796933650970e-03 7.515685632824897766e-03 2.355122566223144531e-02
-1.902916003018617630e-03 -1.187176723033189774e-02 3.031161054968833923e-02 3.562908247113227844e-02
8.530370891094207764e-03 5.482268054038286209e-03 1.740896701812744141e-02 -1.868677698075771332e-02
-6.552160717546939850e-03 2.564709819853305817e-02 -3.863876452669501305e-03 -5.467112176120281219e-03
1.107696741819381714e-01 8.212054520845413208e-02 9.239975363016128540e-02 9.388701617717742920e-02
5.810492485761642456e-02 1.502000447362661362e-02 2.829012461006641388e-02 5.400699004530906677e-02
1.926883705891668797e-03 1.215949840843677521e-02 1.612827181816101074e-02 2.875754795968532562e-02
5.158495157957077026e-02 1.470257248729467392e-02 1.625662855803966522e-02 1.147602126002311707e-02
1.172941457480192184e-02 -7.849348476156592369e-04 2.660798281431198120e-02 -8.891143836081027985e-03
-1.191128417849540710e-02 5.644122604280710220e-03 2.951513975858688354e-02 1.478955708444118500e-02
4.482491407543420792e-03 4.267787095159292221e-03 1.958448439836502075e-02 1.061127521097660065e-02
2.692154981195926666e-02 4.190660640597343445e-02 2.952061966061592102e-02 3.581482917070388794e-02
-1.984082721173763275e-02 6.134191062301397324e-03 -2.531461883336305618e-03 2.266006078571081161e-03
-1.316302362829446793e-02 6.800887640565633774e-03 -6.972403265535831451e-03 -1.372395176440477371e-02
-2.293620072305202484e-02 -2.161310613155364990e-02 -2.890997193753719330e-02 -9.929191321134567261e-03
-1.637596264481544495e-02 -2.933928556740283966e-02 -1.370686851441860199e-02 -6.019915919750928879e-03
3.351010382175445557e-02 4.608034342527389526e-02 1.272405870258808136e-02 8.187158033251762390e-03
-6.194849964231252670e-03 1.972056366503238678e-02 1.985496655106544495e-02 1.424673292785882950e-02
6.632908433675765991e-02 1.121973991394042969e-02 4.638781771063804626e-02 3.115044720470905304e-02
3.637672960758209229e-02 3.335699811577796936e-02 4.268031194806098938e-02 3.929549828171730042e-02
3.948058001697063446e-03 2.393035776913166046e-02 3.704210370779037476e-02 -8.179485797882080078e-03
1.443145330995321274e-03 1.013657823204994202e-02 1.338483951985836029e-02 2.544259093701839447e-02
-2.667035907506942749e-02 -2.074005454778671265e-02 -9.719746187329292297e-03 -7.209622766822576523e-03
3.632307052612304688e-02 3.084451146423816681e-02 2.955548465251922607e-02 9.358723647892475128e-03
2.514508552849292755e-03 -2.262993529438972473e-02 2.338789030909538269e-02 -1.515226904302835464e-02
-2.085497416555881500e-02 -2.941233292222023010e-02 1.458019297569990158e-02 1.180434506386518478e-02
1.818872429430484772e-02 1.673997752368450165e-02 -7.260835263878107071e-03 -5.247303750365972519e-03
4.117222502827644348e-03 1.220202888362109661e-03 -5.544848274439573288e-03 2.317898347973823547e-02
6.167649989947676659e-04 1.433469541370868683e-02 1.385768689215183258e-02 9.394577704370021820e-03
3.039598278701305389e-02 3.922356665134429932e-02 2.948038466274738312e-02 -6.573272403329610825e-03
5.216730060055851936e-04 -2.686199918389320374e-02 -2.912240661680698395e-02 -2.653273567557334900e-02
-6.802925840020179749e-03 1.496991422027349472e-02 7.461958564817905426e-03 -1.222991850227117538e-02
5.645537376403808594e-02 6.781777739524841309e-02 6.807345151901245117e-02 8.321826905012130737e-02
5.964513495564460754e-02 3.100322186946868896e-02 3.422595933079719543e-02 3.012844361364841461e-02
3.614741563796997070e-02 2.801701799035072327e-02 2.977750264108181000e-02 1.405266020447015762e-02
1.499984562397003174e-01 1.514393091201782227e-01 1.374897509813308716e-01 1.595173329114913940e-01
-1.771170347929000854e-01 -1.365244835615158081e-01 -1.614514291286468506e-01 -1.980421841144561768e-01
-4.203930869698524475e-02 -6.348715722560882568e-02 -3.143391013145446777e-02 -6.901758909225463867e-02
3.071269718930125237e-03 -2.470063604414463043e-02 -1.728017628192901611e-02 -3.365035355091094971e-02
-7.922688871622085571e-02 -5.470259860157966614e-02 -4.349829256534576416e-02 -7.068510353565216064e-02
1.487871073186397552e-02 5.238377675414085388e-02 2.167229168117046356e-02 5.237082391977310181e-02
-6.697284430265426636e-02 -2.527705952525138855e-02 -2.289111912250518799e-02 -1.954364962875843048e-02
2.174864858388900757e-01 1.733227819204330444e-01 2.261468172073364258e-01 2.324845343828201294e-01
-7.938192039728164673e-02 -7.763357460498809814e-02 -6.856822222471237183e-02 -6.333380937576293945e-02
8.604750782251358032e-02 6.054531410336494446e-02 6.224974617362022400e-02 7.005982100963592529e-02
9.553615748882293701e-02 1.186250075697898865e-01 1.075634509325027466e-01 7.888356596231460571e-02
1.811060309410095215e-02 2.981001138687133789e-02 5.221477895975112915e-02 3.609399497509002686e-02
6.317679584026336670e-02 5.507172271609306335e-02 6.643351912498474121e-02 4.806010052561759949e-02
-3.866822645068168640e-02 -7.447753846645355225e-02 -6.547821313142776489e-02 -7.615643739700317383e-02
-7.617998868227005005e-02 -5.581475421786308289e-02 -5.064840614795684814e-02 -4.410839825868606567e-02
-1.091428622603416443e-01 -9.797773510217666626e-02 -1.132493838667869568e-01 -1.133479252457618713e-01
-1.033096984028816223e-01 -1.007017567753791809e-01 -7.803872972726821899e-02 -1.055862456560134888e-01
1.754886507987976074e-01 1.534557938575744629e-01 1.202031299471855164e-01 1.025489345192909241e-01
4.601176828145980835e-03 1.556835602968931198e-02 -5.662091542035341263e-03 -2.165840193629264832e-02
1.191456392407417297e-01 1.039436608552932739e-01 8.579074591398239136e-02 1.024015918374061584e-01
9.877845644950866699e-02 5.535903945565223694e-02 8.220008760690689087e-02 6.115207448601722717e-02
1.401045024394989014e-01 1.214668899774551392e-01 8.846475929021835327e-02 9.209732711315155029e-02
3.501491621136665344e-02 5.574910715222358704e-02 4.105887189507484436e-02 7.130277901887893677e-02
1.300326585769653320e-01 8.301357179880142212e-02 1.037812307476997375e-01 5.736375972628593445e-02
-8.401732146739959717e-02 -9.546041488647460938e-02 -5.658012628555297852e-02 -8.722493052482604980e-02
-1.691653952002525330e-02 -1.817427203059196472e-02 -2.309939300175756216e-04 -9.339250624179840088e-03
-2.820235304534435272e-02 -2.779482491314411163e-02 -3.822480514645576477e-02 -1.930468715727329254e-02
2.181475237011909485e-02 3.945472650229930878e-03 4.442498460412025452e-02 1.163603644818067551e-02
-5.727226845920085907e-03 1.809672452509403229e-02 -4.858843982219696045e-03 2.568880654871463776e-02
-6.894010584801435471e-03 -6.490304321050643921e-02 -4.616776853799819946e-02 -6.900157034397125244e-02
-9.286088496446609497e-02 -1.055238619446754456e-01 -7.289591431617736816e-02 -1.010687127709388733e-01
-6.388557702302932739e-02 -6.893536448478698730e-02 -8.915939927101135254e-02 -4.145021364092826843e-02
-2.139190956950187683e-02 -9.724161587655544281e-03 -3.468048991635441780e-03 9.683274663984775543e-03
-1.786427688784897327e-03 -4.770684521645307541e-03 1.256067119538784027e-02 -1.987696811556816101e-02
8.807176724076271057e-03 -9.773874655365943909e-03 2.229906246066093445e-02 2.341181412339210510e-02
-2.736353874206542969e-02 -3.667071694508194923e-03 -1.797856390476226807e-02 1.243493426591157913e-02
-2.532316930592060089e-02 2.440221980214118958e-02 -2.752677164971828461e-02 -1.811064034700393677e-02
-6.600742228329181671e-03 -1.692590862512588501e-02 1.126267295330762863e-02 7.244518958032131195e-03
-2.075950615108013153e-03 1.020583882927894592e-02 1.638222602196037769e-03 -2.194058895111083984e-02
-1.611946849152445793e-03 -2.226128429174423218e-02 -1.889947429299354553e-02 -1.336431363597512245e-03
-2.678933553397655487e-02 -2.643235586583614349e-02 2.456861175596714020e-02 -8.975141681730747223e-03
3.202671941835433245e-04 -1.603031903505325317e-02 4.992466885596513748e-03 -1.153348293155431747e-02
-2.452369965612888336e-02 -2.579901367425918579e-02 2.299561351537704468e-02 1.502498053014278412e-02
-1.969197578728199005e-02 2.342268824577331543e-02 -9.372904896736145020e-03 1.985393278300762177e-02
-2.437595836818218231e-02 6.993862334638834000e-03 -1.991046033799648285e-02 2.330083772540092468e-02
4.310675431042909622e-04 -2.115303184837102890e-03 -8.280945010483264923e-03 2.261391840875148773e-02
1.160058565437793732e-02 6.489198654890060425e-03 1.113905012607574463e-02 -2.621410787105560303e-02
-2.321394719183444977e-02 9.932880289852619171e-03 -2.141401171684265137e-02 -2.074684388935565948e-02
-1.252722227945923805e-03 -1.922779344022274017e-02 -8.631712757050991058e-03 -1.033821422606706619e-02
-2.362292632460594177e-02 -1.089786458760499954e-02 -2.127308584749698639e-02 -3.141614608466625214e-03
1.127956435084342957e-03 -1.725596375763416290e-02 1.999806612730026245e-02 3.334495122544467449e-04
-1.065238844603300095e-02 2.335776947438716888e-02 1.003492980089504272e-05 1.441720314323902130e-02
2.629488892853260040e-02 8.784193545579910278e-03 -2.419399656355381012e-02 -5.678910762071609497e-03
2.341602742671966553e-02 -1.034286990761756897e-02 2.003332041203975677e-02 -1.603202708065509796e-02
-1.411935314536094666e-03 -1.830724813044071198e-02 -1.016905531287193298e-02 -2.328381501138210297e-02
-1.979399658739566803e-02 -2.180207287892699242e-03 -4.660394974052906036e-03 -3.223258536309003830e-03
1.866276375949382782e-02 -1.764817349612712860e-02 -6.337753031402826309e-03 -8.997874334454536438e-03
-3.656120970845222473e-03 3.898138646036386490e-03 6.314237136393785477e-03 -1.322410721331834793e-02
1.374147925525903702e-02 -1.784630678594112396e-02 -5.726820323616266251e-03 9.032057598233222961e-03
-2.464239113032817841e-02 -2.281993627548217773e-02 8.155097020789980888e-04 2.065643668174743652e-02
-1.790789514780044556e-02 -2.249638177454471588e-02 1.639711298048496246e-02 1.061144564300775528e-02
1.916972361505031586e-02 8.486161008477210999e-03 2.127132937312126160e-02 1.886264793574810028e-02
2.562006376683712006e-02 -7.591124624013900757e-03 1.420337054878473282e-02 1.663884706795215607e-02
3.113860031589865685e-03 -1.684623397886753082e-02 2.959829755127429962e-03 -8.505302481353282928e-03
-2.432954683899879456e-02 -2.081052865833044052e-03 -1.697228103876113892e-02 1.868054270744323730e-02
-2.261267788708209991e-02 -2.030826173722743988e-02 1.774550974369049072e-02 -1.917458372190594673e-03
2.446457929909229279e-02 -2.076671458780765533e-02 8.572167716920375824e-03 1.348904334008693695e-02
-2.228442206978797913e-02 -1.040989765897393227e-03 2.478359267115592957e-02 -1.339142769575119019e-02
-6.303917150944471359e-03 1.993194781243801117e-02 -4.450123757123947144e-03 -1.412854250520467758e-02
-3.221419174224138260e-03 -2.419733675196766853e-03 2.057007700204849243e-02 2.922119572758674622e-03
1.812439970672130585e-02 2.260237187147140503e-02 2.056849654763936996e-03 1.787433587014675140e-02
1.066245976835489273e-02 -2.263362333178520203e-02 -5.744642578065395355e-03 2.035253215581178665e-03
-2.781085856258869171e-02 5.330886691808700562e-03 -1.638282462954521179e-02 1.689435914158821106e-02
9.285916574299335480e-03 -2.075328724458813667e-03 2.258690772578120232e-03 -2.253133617341518402e-02
-2.986301551572978497e-04 2.162361145019531250e-02 -1.587155461311340332e-02 -6.019943859428167343e-03
-9.407404810190200806e-03 -2.508580917492508888e-03 1.149909943342208862e-02 1.198814250528812408e-02
-1.545859850011765957e-03 -1.419540494680404663e-02 -9.973634034395217896e-03 2.514508552849292755e-02
-8.752037771046161652e-03 1.221814658492803574e-02 -1.852799579501152039e-02 -1.109917182475328445e-02
2.753886021673679352e-02 -4.796315915882587433e-03 1.792257837951183319e-02 -3.235137322917580605e-03
2.554387040436267853e-02 3.663481678813695908e-03 2.257921965792775154e-03 2.210673131048679352e-02
2.566439844667911530e-02 3.205175325274467468e-02 -1.217183191329240799e-02 -9.252491407096385956e-03
-1.723838783800601959e-02 -1.225765142589807510e-02 2.551062405109405518e-02 2.468911744654178619e-02
4.330668132752180099e-03 1.839710026979446411e-02 1.165936794131994247e-02 1.495857257395982742e-03
-2.188738435506820679e-02 1.408824976533651352e-02 2.129774838977027684e-05 1.552210655063390732e-02
1.673010736703872681e-02 -1.799542829394340515e-02 -5.846920423209667206e-03 4.423414822667837143e-03
-9.674085304141044617e-03 -4.706997890025377274e-03 1.181927393190562725e-03 -4.614071454852819443e-03
-2.568810805678367615e-02 2.200556732714176178e-02 -1.711595803499221802e-02 -2.315535210072994232e-03
-2.319104038178920746e-03 -2.464264445006847382e-02 1.709935255348682404e-03 -2.534656412899494171e-02
1.871520280838012695e-02 9.298508055508136749e-03 1.983474008738994598e-03 1.481162011623382568e-02
-2.000003494322299957e-02 1.836920343339443207e-02 -1.664858125150203705e-02 -1.012507174164056778e-02
-3.467896603979170322e-04 -1.577174104750156403e-02 -1.525141950696706772e-02 -5.422366783022880554e-03
1.515383366495370865e-03 1.845749560743570328e-03 1.522440277040004730e-02 2.630290575325489044e-02
1.817797124385833740e-02 7.396863307803869247e-03 2.540123648941516876e-02 1.116557978093624115e-02
1.649049483239650726e-02 -1.102989539504051208e-02 -2.452505752444267273e-02 -2.305910736322402954e-02
-2.571243559941649437e-03 -1.004409510642290115e-02 2.234294824302196503e-02 2.120834961533546448e-02
-1.126930234022438526e-03 -1.770821027457714081e-02 -1.812114939093589783e-02 8.100425824522972107e-03
-2.182264998555183411e-02 -1.782328449189662933e-02 2.538205822929739952e-03 1.902719086501747370e-04
-7.347010076045989990e-03 6.646164692938327789e-03 -2.116666547954082489e-02 -3.790066810324788094e-03
-8.679894730448722839e-03 6.821827962994575500e-03 -9.405363351106643677e-03 -5.498566664755344391e-03
-3.266373882070183754e-03 -2.529221028089523315e-02 4.445324186235666275e-03 -2.190974727272987366e-02
-1.616879552602767944e-02 -6.975730881094932556e-03 -7.433243095874786377e-03 1.363709103316068649e-02
5.199532955884933472e-03 5.882104858756065369e-03 2.026573941111564636e-02 1.192232244648039341e-03
-1.483388338238000870e-02 -2.446422353386878967e-02 -2.655944973230361938e-02 -1.778471097350120544e-02
-9.866411797702312469e-03 8.452977053821086884e-03 1.950056292116641998e-02 2.275578863918781281e-02
-1.701746881008148193e-02 1.995084062218666077e-02 1.400856301188468933e-02 -1.400079298764467239e-02
-8.188155479729175568e-03 -9.417349472641944885e-03 -1.774657145142555237e-02 -3.440447908360511065e-04
1.711484603583812714e-02 -1.166375819593667984e-03 2.134701423346996307e-02 -1.926559396088123322e-02
-1.715571247041225433e-02 1.898101344704627991e-02 -7.906557992100715637e-03 1.449950691312551498e-02
9.631725959479808807e-03 4.213891923427581787e-03 -2.215749816969037056e-03 -7.017715834081172943e-03
1.483645103871822357e-02 1.817647367715835571e-02 2.432642504572868347e-02 -1.161920931190252304e-02
-4.914915189146995544e-05 -2.354428917169570923e-02 -1.502931676805019379e-02 -1.683180034160614014e-02
2.744669839739799500e-02 1.272414997220039368e-02 -2.433620393276214600e-02 -1.128010079264640808e-02
2.002170681953430176e-02 -4.706743638962507248e-03 1.489267032593488693e-02 1.196797937154769897e-02
1.671349443495273590e-02 -8.346444927155971527e-03 -2.628676965832710266e-02 8.662356063723564148e-03
-9.729530662298202515e-03 2.696322649717330933e-02 9.324385784566402435e-03 -7.333173882216215134e-03
-2.629670128226280212e-02 -3.822613973170518875e-03 -1.871397905051708221e-02 2.001166157424449921e-02
7.127378601580858231e-03 -5.243278574198484421e-03 -6.638380698859691620e-03 1.988814212381839752e-02
6.872892845422029495e-03 -1.359455753117799759e-02 -1.768972165882587433e-02 9.762026369571685791e-03
-2.535000257194042206e-02 -1.372030843049287796e-02 -2.046201191842556000e-02 -1.145477779209613800e-02
1.517022307962179184e-02 1.600503735244274139e-02 -2.644486911594867706e-02 -1.543439179658889771e-02
2.669727988541126251e-02 -7.694893516600131989e-03 2.627529203891754150e-02 7.238750549731776118e-05
-2.443754114210605621e-02 -1.206735521554946899e-02 2.899617422372102737e-03 -2.058570459485054016e-02
1.838426105678081512e-02 -1.965270750224590302e-02 2.109941467642784119e-02 1.048324629664421082e-02
-8.498467504978179932e-03 2.153694070875644684e-02 -5.019370932132005692e-03 -2.439417876303195953e-02
1.068874169141054153e-02 7.225987035781145096e-03 -2.671897225081920624e-02 2.045879885554313660e-02
-2.311058342456817627e-02 1.279839873313903809e-02 -2.266618050634860992e-02 -1.079232711344957352e-02
2.065547183156013489e-02 1.646790839731693268e-02 1.784537173807621002e-02 -1.392672117799520493e-02
-1.392636634409427643e-02 -4.424502607434988022e-03 1.456773281097412109e-02 -1.668638549745082855e-02
-2.377932518720626831e-02 4.818831570446491241e-03 3.603602573275566101e-02 -2.095248177647590637e-02
1.486525088548660278e-01 1.279456019401550293e-01 1.011899635195732117e-01 1.008658260107040405e-01
6.261207163333892822e-02 6.551338732242584229e-02 1.412541791796684265e-02 5.195719376206398010e-02
2.487151697278022766e-02 5.396511405706405640e-02 4.514079168438911438e-02 1.179518084973096848e-02
5.612548068165779114e-02 3.605011850595474243e-02 2.143138088285923004e-02 3.476036339998245239e-02
4.185002297163009644e-03 2.623858489096164703e-02 -2.360882703214883804e-03 3.181478753685951233e-02
3.420076891779899597e-02 4.364601802080869675e-03 3.224576264619827271e-02 6.853493396192789078e-03
2.481442876160144806e-02 1.194569468498229980e-02 4.455465823411941528e-02 9.560566395521163940e-03
5.488553643226623535e-02 3.479190915822982788e-02 5.643513053655624390e-02 4.557858407497406006e-02
9.037687443196773529e-03 2.110570203512907028e-03 1.688780263066291809e-02 2.961717173457145691e-02
-1.829290646128356457e-03 4.419897124171257019e-02 3.525625541806221008e-02 7.798266597092151642e-03
-2.530243061482906342e-02 -1.446513272821903229e-02 -2.178858779370784760e-02 -2.431385964155197144e-02
-4.722521116491407156e-04 -1.858515292406082153e-02 1.600741781294345856e-02 -4.170392826199531555e-02
3.852742910385131836e-02 1.086507365107536316e-02 5.474069342017173767e-02 8.954787626862525940e-03
4.346743598580360413e-02 4.173187166452407837e-02 4.013675451278686523e-02 2.769625978544354439e-03
8.387687057256698608e-02 3.823119774460792542e-02 5.373081937432289124e-02 7.894699275493621826e-02
2.977059967815876007e-02 2.177136205136775970e-02 2.007064968347549438e-02 3.070566058158874512e-02
-2.643727883696556091e-02 -5.275736562907695770e-03 -6.763682235032320023e-03 -2.244824776425957680e-03
-1.634876802563667297e-02 9.293619543313980103e-03 -2.468868158757686615e-03 4.369002301245927811e-03
-1.882918737828731537e-02 3.491765586659312248e-03 -8.387759327888488770e-03 -7.220400962978601456e-03
4.866513609886169434e-02 2.929528616368770599e-02 1.021833065897226334e-02 8.965422399342060089e-03
-3.602806106209754944e-02 -4.267228301614522934e-03 -3.335638670250773430e-03 1.264694146811962128e-02
-2.665411680936813354e-02 -1.630026474595069885e-02 4.535601008683443069e-03 -2.596590295433998108e-02
4.534265957772731781e-03 1.712328009307384491e-02 -6.641254760324954987e-03 -5.494156852364540100e-03
1.647678203880786896e-02 2.207782864570617676e-02 3.823204711079597473e-02 3.299680352210998535e-02
2.589990757405757904e-02 -1.266984641551971436e-02 1.110328454524278641e-02 1.951966062188148499e-02
3.489964082837104797e-02 9.032925590872764587e-03 3.491966798901557922e-02 1.028269249945878983e-02
-2.959617413580417633e-02 -1.739851431921124458e-03 -2.900494448840618134e-02 -4.654459480661898851e-04
-1.761368941515684128e-03 7.601772435009479523e-03 4.002628847956657410e-03 -5.248116329312324524e-03
8.845980465412139893e-02 8.415323495864868164e-02 7.796653360128402710e-02 1.075584366917610168e-01
7.360196858644485474e-02 5.967226251959800720e-02 2.772164344787597656e-02 8.225041627883911133e-02
1.719068549573421478e-02 3.901956230401992798e-02 2.842941880226135254e-02 4.286387190222740173e-02
3.138602524995803833e-02 -1.406296039931476116e-03 -6.152921821922063828e-03 9.465572424232959747e-03
-3.406631201505661011e-02 -1.849000900983810425e-02 2.227923646569252014e-02 2.386607043445110321e-02
7.063571363687515259e-03 -2.960436604917049408e-02 1.162390597164630890e-02 -2.144571393728256226e-02
-1.307999156415462494e-02 -2.233508130302652717e-04 4.705328959971666336e-03 -6.588592659682035446e-03
3.418049542233347893e-03 -2.368732355535030365e-02 1.584210991859436035e-02 7.347257924266159534e-04
8.709608577191829681e-03 -1.631688512861728668e-02 -2.771167783066630363e-03 1.515490375459194183e-02
-2.808104455471038818e-02 5.100890994071960449e-03 -2.515700086951255798e-02 -2.410490252077579498e-02
1.704605296254158020e-02 2.300686575472354889e-02 2.584607154130935669e-02 4.584652837365865707e-03
1.700429990887641907e-02 -5.226043518632650375e-03 2.024104073643684387e-02 5.496438592672348022e-03
1.568095944821834564e-02 -1.422533672302961349e-02 1.020861882716417313e-02 -1.010106224566698074e-02
2.239369601011276245e-02 9.930413216352462769e-03 -1.334265060722827911e-02 9.416193701326847076e-03
-2.012182213366031647e-02 2.914684265851974487e-02 2.064578048884868622e-02 1.752487570047378540e-02
1.631075143814086914e-02 7.681929972022771835e-03 -1.991967484354972839e-02 1.111475564539432526e-02
5.894756875932216644e-03 2.450632676482200623e-02 -1.064861286431550980e-02 -4.583707079291343689e-03
5.177593324333429337e-03 -7.054514717310667038e-04 9.844018146395683289e-03 1.164078712463378906e-02
-6.771884392946958542e-03 -2.319154329597949982e-02 -2.302349545061588287e-02 1.714192330837249756e-02
1.584695465862751007e-02 -1.641003787517547607e-02 -1.602607965469360352e-02 8.009246550500392914e-03
-1.166856661438941956e-02 -3.982373047620058060e-03 1.783066242933273315e-02 2.993802726268768311e-02
-2.262313850224018097e-02 1.201647892594337463e-02 2.226432971656322479e-02 6.983268540352582932e-03
6.505870260298252106e-03 1.374359335750341415e-02 1.468449179083108902e-02 -2.218692563474178314e-02
2.058111317455768585e-02 2.844345942139625549e-02 2.565859630703926086e-02 7.336962036788463593e-03
5.266771186143159866e-03 1.379441190510988235e-02 -1.236272603273391724e-02 -5.066618323326110840e-03
-4.772181622684001923e-03 4.669730260502547026e-04 7.908513769507408142e-03 9.759701788425445557e-03
-7.213925477117300034e-03 1.550327707082033157e-02 -1.776649802923202515e-02 6.876085419207811356e-03
2.264203317463397980e-02 9.205504320561885834e-03 -2.135633677244186401e-02 3.999459091573953629e-03
2.574615739285945892e-02 -4.014922305941581726e-03 -5.207508220337331295e-04 -7.806601468473672867e-03
-8.118161931633949280e-03 1.118530426174402237e-02 -1.097659301012754440e-02 -2.635019272565841675e-02
-5.561595782637596130e-03 -8.968153968453407288e-03 -2.326172590255737305e-02 1.703006401658058167e-02
2.588625811040401459e-02 1.980326883494853973e-02 2.417474053800106049e-02 -1.410034578293561935e-02
-2.787200547754764557e-02 3.145474474877119064e-03 -1.258999481797218323e-02 -9.049477055668830872e-03
1.987113803625106812e-02 -1.252928003668785095e-02 3.030033409595489502e-02 -4.067225847393274307e-03
-2.743674814701080322e-02 -2.654640935361385345e-02 -2.642960660159587860e-02 -1.131142862141132355e-02
2.186381816864013672e-02 2.098146826028823853e-02 3.414120897650718689e-02 2.204445749521255493e-02
7.626755977980792522e-04 -2.938557183369994164e-03 5.423327093012630939e-04 -1.502949278801679611e-02
-1.298796385526657104e-02 -1.990285702049732208e-02 -3.160562738776206970e-02 -1.687656342983245850e-02
-7.445821538567543030e-03 -1.978840213268995285e-03 -6.338355131447315216e-03 -2.107510529458522797e-02
8.524527773261070251e-03 -5.068477708846330643e-03 -1.487314235419034958e-02 -2.073578909039497375e-02
-1.449010148644447327e-02 1.858337782323360443e-02 2.089028060436248779e-02 -1.227006781846284866e-02
-2.109385468065738678e-02 1.820659451186656952e-02 2.166601084172725677e-02 -2.472745813429355621e-02
3.603991121053695679e-02 3.030932135879993439e-02 2.152574248611927032e-02 9.648762643337249756e-03
-6.574236322194337845e-03 -2.400742098689079285e-02 1.110640633851289749e-02 1.569388993084430695e-02
-1.234180387109518051e-02 2.261941507458686829e-02 4.726654849946498871e-03 -9.547047084197402000e-04
3.023997507989406586e-02 3.815476968884468079e-02 3.208634257316589355e-02 3.072801232337951660e-02
-3.879714058712124825e-03 1.594616100192070007e-02 -9.730025194585323334e-03 -5.466295406222343445e-03
-5.512815900146961212e-03 1.197663415223360062e-02 -3.149816999211907387e-03 8.823832497000694275e-03
-2.549851126968860626e-02 1.487466599792242050e-02 -9.067350067198276520e-03 -2.551118284463882446e-02
-2.409259788691997528e-02 -2.651044540107250214e-02 1.109934411942958832e-02 -1.672142744064331055e-02
-1.206162571907043457e-02 1.625450700521469116e-02 -2.103798650205135345e-02 -1.503872219473123550e-02
-1.257737539708614349e-02 -2.225736342370510101e-02 -1.170109864324331284e-02 1.173891685903072357e-02
1.942943036556243896e-02 2.050697989761829376e-02 3.482722863554954529e-02 3.134885570034384727e-03
-4.800133407115936279e-03 -1.412100158631801605e-02 1.061811484396457672e-02 2.112361602485179901e-02
1.841099467128515244e-03 -3.422045614570379257e-03 3.137923404574394226e-02 7.884488441050052643e-03
4.693339578807353973e-03 -1.003009825944900513e-02 1.830315589904785156e-02 1.929283142089843750e-02
1.332989614456892014e-02 1.742198131978511810e-02 -1.532322447746992111e-02 -1.160046271979808807e-02
6.835299078375101089e-03 4.285881761461496353e-03 5.207611247897148132e-03 -1.115182507783174515e-02
1.483610924333333969e-02 3.301741927862167358e-02 2.109297364950180054e-02 3.219099715352058411e-02
-2.943140827119350433e-02 5.295240320265293121e-03 3.858001437038183212e-03 -2.908686362206935883e-02
-1.667284639552235603e-03 -1.910452730953693390e-02 7.970343343913555145e-03 -1.133249606937170029e-02
-3.015344776213169098e-02 -2.860905230045318604e-02 -9.003705345094203949e-03 7.032884284853935242e-03
2.725401520729064941e-02 -2.803240437060594559e-03 1.728540752083063126e-03 2.284752763807773590e-02
2.293710364028811455e-03 1.147951465100049973e-02 1.660501770675182343e-02 -6.654843688011169434e-03
-2.590654231607913971e-02 -1.076466403901576996e-02 1.600527088157832623e-03 4.600224085152149200e-03
-2.023413591086864471e-02 -1.687093824148178101e-02 -1.560316793620586395e-02 -1.611173339188098907e-02
-2.377875708043575287e-02 -4.454482346773147583e-03 -2.903824113309383392e-02 -2.728240191936492920e-02
8.747621439397335052e-03 2.481399662792682648e-02 -1.083316653966903687e-02 -1.546587701886892319e-02
2.142282389104366302e-02 2.270917408168315887e-02 2.000971883535385132e-02 -2.497683651745319366e-02
-9.625697508454322815e-03 -9.341283701360225677e-03 6.587989162653684616e-03 -6.400218699127435684e-03
2.610975876450538635e-02 -1.465367060154676437e-02 2.358025126159191132e-02 -1.953610405325889587e-02
-2.023581415414810181e-02 -5.584607366472482681e-03 2.295293286442756653e-02 -2.557711489498615265e-02
-1.340848975814878941e-03 -2.314197830855846405e-02 -8.354905061423778534e-03 4.314329707995057106e-04
3.688879078254103661e-03 -3.117814427241683006e-03 -8.252107538282871246e-03 1.198616996407508850e-02
-8.593216538429260254e-03 -1.931812800467014313e-02 2.447987161576747894e-02 1.587467454373836517e-02
-1.809622626751661301e-03 -7.490261457860469818e-03 -8.623399771749973297e-03 7.808312773704528809e-03
-9.838589467108249664e-03 1.395518984645605087e-02 1.645974814891815186e-02 -8.977961726486682892e-03
-1.881347410380840302e-02 -2.302194945514202118e-02 -2.276829816401004791e-02 2.425218932330608368e-02
1.556314341723918915e-02 -8.271850645542144775e-03 -1.902911998331546783e-02 -8.204773999750614166e-03
1.278489641845226288e-02 -1.449547416996210814e-04 -3.401555819436907768e-03 -2.434484288096427917e-02
-1.740084215998649597e-02 -2.624124288558959961e-02 1.134949456900358200e-02 7.851494476199150085e-03
-8.795351721346378326e-03 2.896612975746393204e-03 -1.783068478107452393e-02 -1.299316901713609695e-02
-1.195035316050052643e-02 2.388752624392509460e-02 -1.577617786824703217e-02 1.948120258748531342e-02
1.232582330703735352e-02 1.320817694067955017e-02 1.451916247606277466e-02 2.036522701382637024e-02
-2.029327116906642914e-02 1.155232079327106476e-02 -5.168530697119422257e-05 -1.263221725821495056e-02
1.889773271977901459e-02 2.067994885146617889e-02 2.362473122775554657e-02 -2.068573236465454102e-02
1.502983178943395615e-02 -2.104797400534152985e-02 -2.454958297312259674e-02 -2.458547241985797882e-02
1.209719479084014893e-02 -8.350247517228126526e-03 1.310274563729763031e-02 5.451045930385589600e-03
-1.270854193717241287e-02 8.117360994219779968e-03 -4.686622414737939835e-03 -2.419859357178211212e-02
8.809628896415233612e-03 6.680166698060929775e-04 -1.006134625640697777e-04 2.674009185284376144e-03
1.956324651837348938e-02 -4.769957158714532852e-03 5.677712615579366684e-03 9.189070202410221100e-03
9.692234918475151062e-03 -1.965815946459770203e-02 -2.071791514754295349e-02 1.787501946091651917e-02
-2.324011176824569702e-02 -1.472533680498600006e-02 3.860251978039741516e-03 -1.443481352180242538e-02
9.856225922703742981e-03 -1.611811295151710510e-02 -5.376677028834819794e-03 5.323522724211215973e-03
1.569977728649973869e-03 -1.772992499172687531e-02 -3.557139309123158455e-03 -1.371195912361145020e-02
1.222203671932220459e-02 -2.367654815316200256e-03 -1.740717515349388123e-02 2.589508332312107086e-02
1.583707635290920734e-03 1.552121993154287338e-02 8.292222395539283752e-03 3.948531113564968109e-03
-1.872865669429302216e-02 -1.370634231716394424e-02 -6.903429049998521805e-03 -4.873423371464014053e-03
-1.348429650533944368e-04 -2.717887423932552338e-02 -2.268968336284160614e-02 2.049670001724734902e-04
-9.826645255088806152e-03 2.728772722184658051e-02 4.457056522369384766e-03 2.684395760297775269e-02
-8.465050719678401947e-03 -1.285449322313070297e-02 1.693328469991683960e-02 1.708675548434257507e-02
-3.228446934372186661e-03 4.524953197687864304e-03 1.146273501217365265e-02 1.535075996071100235e-02
-6.382538471370935440e-03 -2.274668775498867035e-02 1.774294860661029816e-02 -1.454684883356094360e-02
-1.595426350831985474e-02 2.741677500307559967e-02 1.762218587100505829e-02 1.267145667225122452e-02
-2.034531161189079285e-02 3.602045355364680290e-03 1.662356033921241760e-02 -8.352999575436115265e-03
-6.624041590839624405e-03 -2.037628926336765289e-02 9.211719036102294922e-03 -1.672426983714103699e-02
-1.282174722291529179e-03 3.201186284422874451e-02 4.511420428752899170e-02 3.751112148165702820e-02
5.157237872481346130e-03 1.546735130250453949e-02 2.140423282980918884e-02 2.804555930197238922e-02
-1.930649578571319580e-02 2.191889472305774689e-02 7.547254208475351334e-03 3.906673286110162735e-03
2.151544950902462006e-02 1.068369112908840179e-02 -1.086805108934640884e-02 1.928684674203395844e-02
-1.275349990464746952e-03 -3.688807133585214615e-03 1.349444501101970673e-04 -5.645367316901683807e-03
1.298764604143798351e-03 1.358466129750013351e-02 2.684618532657623291e-02 2.250330522656440735e-02
2.777463989332318306e-03 -2.261307276785373688e-02 1.587820425629615784e-02 1.214198488742113113e-02
1.989969424903392792e-02 3.064785385504364967e-03 -1.029018685221672058e-02 -2.492014877498149872e-02
-2.011393941938877106e-02 -1.578334346413612366e-02 1.614042557775974274e-02 7.007977925240993500e-03
3.111627884209156036e-03 -1.399819739162921906e-02 1.594412140548229218e-02 -5.045839119702577591e-03
1.505224592983722687e-02 2.192776277661323547e-02 9.955598972737789154e-03 -1.928521692752838135e-02
-2.421868592500686646e-02 -5.081210983917117119e-04 1.918991655111312866e-02 9.711564518511295319e-03
2.822050265967845917e-02 1.667653582990169525e-02 1.563670672476291656e-02 1.370012853294610977e-02
-5.472941789776086807e-03 -5.881830118596553802e-03 1.227838639169931412e-02 2.252527140080928802e-02
-6.754719652235507965e-03 -1.285358052700757980e-02 2.203330397605895996e-02 -1.516301371157169342e-02
-2.224684692919254303e-02 1.606977917253971100e-02 1.650647725909948349e-03 -1.525741629302501678e-02
1.186632458120584488e-02 2.360327728092670441e-02 4.940830171108245850e-03 1.209636777639389038e-02
-1.743590645492076874e-02 1.028774492442607880e-02 1.903330348432064056e-02 1.885278522968292236e-02
4.234319552779197693e-03 -1.080444641411304474e-02 -1.033037807792425156e-02 2.082232944667339325e-02
2.091591991484165192e-02 1.995703950524330139e-02 1.319877803325653076e-02 2.293580956757068634e-02
-1.009853556752204895e-02 1.625958085060119629e-02 1.143947243690490723e-02 5.788805894553661346e-03
1.195764169096946716e-02 1.125150453299283981e-02 6.303875707089900970e-03 1.790252141654491425e-02
-1.926213502883911133e-02 -1.493128482252359390e-02 5.744880065321922302e-03 -2.372919768095016479e-02
-6.210877560079097748e-03 2.184353768825531006e-02 2.034208038821816444e-03 7.669309852644801140e-04
-1.688381657004356384e-02 -6.807229481637477875e-03 -4.695513285696506500e-03 5.263194441795349121e-03
6.874945014715194702e-02 5.722455680370330811e-02 7.419183850288391113e-02 7.909868657588958740e-02
2.327879704535007477e-02 3.140548989176750183e-02 -9.571403264999389648e-03 2.511217317078262568e-04
-1.830301620066165924e-02 -2.584125846624374390e-02 -2.206712029874324799e-02 9.702427312731742859e-03
-2.714849077165126801e-02 1.269467268139123917e-02 -1.318992301821708679e-02 -2.271026186645030975e-02
5.811307928524911404e-04 1.707347482442855835e-02 -6.244638003408908844e-03 1.085841096937656403e-02
2.351782098412513733e-02 1.309339981526136398e-02 1.111027784645557404e-02 -1.159598585218191147e-02
-2.827881090342998505e-02 -1.934541948139667511e-02 -1.162772253155708313e-02 -4.285628721117973328e-02
8.687245845794677734e-02 9.910864382982254028e-02 1.172967627644538879e-01 1.065249815583229065e-01
2.965667843818664551e-02 -1.320320460945367813e-02 3.130834549665451050e-03 -3.981660585850477219e-03
1.510534249246120453e-02 3.001112118363380432e-02 3.387237340211868286e-02 1.269740704447031021e-02
5.218924209475517273e-02 1.508418470621109009e-02 4.467792063951492310e-02 3.480537608265876770e-02
-7.680797949433326721e-03 -7.040028925985097885e-03 -1.649683341383934021e-02 1.349281240254640579e-02
1.519944146275520325e-02 7.479900028556585312e-03 4.281854629516601562e-02 1.699395850300788879e-02
6.764941383153200150e-03 3.315000236034393311e-02 1.897442340850830078e-02 2.932382747530937195e-02
-1.785809174180030823e-02 -4.841308668255805969e-02 -2.235911600291728973e-02 -1.423924695700407028e-03
3.405113145709037781e-02 1.709076762199401855e-02 1.357495691627264023e-02 2.476637624204158783e-02
-3.597296401858329773e-02 -4.691616073250770569e-02 -5.140086635947227478e-02 -1.915548369288444519e-02
6.286934018135070801e-02 1.724046096205711365e-02 1.373289432376623154e-02 5.674125626683235168e-02
-1.427172403782606125e-02 -1.851727813482284546e-02 -1.189589593559503555e-02 -4.142849240452051163e-03
6.062497850507497787e-03 1.153199840337038040e-02 1.797602511942386627e-02 6.491833925247192383e-02
1.861324720084667206e-02 2.283695340156555176e-02 3.164510056376457214e-02 2.890000864863395691e-02
3.252657130360603333e-02 6.512510776519775391e-02 6.197213381528854370e-02 2.732391469180583954e-02
-1.456762547604739666e-04 4.189516603946685791e-02 2.751113288104534149e-02 2.652535960078239441e-02
2.200559526681900024e-02 3.345641493797302246e-02 4.784004017710685730e-02 2.369062416255474091e-02
-2.705913223326206207e-02 -1.587862707674503326e-02 -3.261777013540267944e-02 -3.048319742083549500e-02
-3.160866722464561462e-02 -9.239895269274711609e-03 -1.258574076928198338e-03 2.260345034301280975e-02
3.039052942767739296e-03 -3.365753963589668274e-02 -3.708285093307495117e-02 -2.657340466976165771e-02
-8.139436133205890656e-03 2.894151024520397186e-02 -2.144177258014678955e-02 1.622206345200538635e-02
2.462464198470115662e-02 1.698111928999423981e-02 -2.205609902739524841e-02 -1.580052077770233154e-02
-4.094218090176582336e-02 -2.399496268481016159e-03 -1.524620689451694489e-02 -4.554280545562505722e-03
-8.950158022344112396e-03 2.528914436697959900e-02 -2.602645196020603180e-03 2.952923998236656189e-02
-1.731102541089057922e-02 -8.938071317970752716e-03 -5.018896237015724182e-02 -1.119607780128717422e-02
-3.206760063767433167e-02 6.546149030327796936e-03 -9.509389288723468781e-03 -1.572936587035655975e-02
1.837709099054336548e-01 1.442768424749374390e-01 1.058331206440925598e-01 1.661484092473983765e-01
6.772867590188980103e-02 5.749714747071266174e-02 4.593585059046745300e-02 7.496399432420730591e-02
1.727253012359142303e-02 1.292174030095338821e-02 3.105906583368778229e-02 3.077112697064876556e-02
8.223257958889007568e-02 4.274179786443710327e-02 6.188955157995223999e-02 7.182008028030395508e-02
-1.290403772145509720e-02 2.096864767372608185e-02 2.140795625746250153e-02 1.214282494038343430e-02
3.149265050888061523e-02 4.715115576982498169e-02 5.263756588101387024e-02 5.562194436788558960e-02
2.227598987519741058e-02 5.047363229095935822e-03 1.573778805322945118e-03 -1.030766288749873638e-04
4.093144461512565613e-02 5.174157023429870605e-02 5.429952591657638550e-02 2.669692784547805786e-02
-1.965080946683883667e-02 -2.068020962178707123e-02 2.658002311363816261e-03 -2.145747467875480652e-02
-7.734330836683511734e-03 2.878414653241634369e-02 3.458647755905985832e-03 2.644595317542552948e-02
-2.603779360651969910e-02 -3.406770899891853333e-02 -2.816473320126533508e-02 -2.728737145662307739e-02
-6.011676508933305740e-03 -2.120112441480159760e-02 4.956883378326892853e-03 -2.831525169312953949e-02
4.174917936325073242e-02 3.053777664899826050e-02 3.820307925343513489e-02 3.007042407989501953e-02
