3.192064166069030762e-02
-3.575817868113517761e-02
4.479260742664337158e-02
-9.222210943698883057e-02
1.425769925117492676e-01
-1.053343787789344788e-01
8.459554053843021393e-03
-1.730703860521316528e-01
2.567684650421142578e-02
9.479928016662597656e-02
4.277241230010986328e-02
-3.782172221690416336e-03
5.384999886155128479e-02
-1.110832989215850830e-01
-3.669521957635879517e-02
-3.013227833434939384e-03
1.809242554008960724e-02
1.767362952232360840e-01
-4.932584241032600403e-03
-2.578633092343807220e-02
3.726271679624915123e-03
-5.263262242078781128e-02
-6.215995550155639648e-02
7.137852255254983902e-03
-1.818123506382107735e-03
-1.363248191773891449e-02
1.382805258035659790e-01
1.122164446860551834e-02
1.536322236061096191e-01
1.097632385790348053e-02
4.331535845994949341e-02
1.309838443994522095e-01
4.132285341620445251e-02 1.282186061143875122e-02 -3.901309147477149963e-02
-2.659244462847709656e-02 -3.624271601438522339e-02 -6.399432197213172913e-03
-1.524824500083923340e-01 -2.432162128388881683e-02 1.661412604153156281e-02
3.229326009750366211e-02 6.592892855405807495e-02 6.851992756128311157e-02
-3.024654462933540344e-02 1.517131458967924118e-02 3.101335093379020691e-02
-3.567778691649436951e-02 2.631885185837745667e-02 5.038085952401161194e-02
6.519826501607894897e-02 -2.426641806960105896e-02 -1.072374135255813599e-01
-9.578438848257064819e-02 -7.959747314453125000e-02 3.942596260458230972e-03
9.102199971675872803e-02 -4.717015475034713745e-02 -7.262453436851501465e-02
-3.769995272159576416e-02 -1.110831573605537415e-01 3.235783800482749939e-02
-5.065830424427986145e-03 9.478780440986156464e-03 -2.955910935997962952e-02
-6.664475798606872559e-02 -4.730951786041259766e-02 -6.779269874095916748e-02
5.898801982402801514e-02 5.674217641353607178e-02 -4.440778866410255432e-02
-4.432972148060798645e-02 -5.197951197624206543e-02 -1.112059340812265873e-03
-2.115736017003655434e-03 -2.251015976071357727e-02 -9.697039425373077393e-02
6.036849226802587509e-03 -1.576759852468967438e-02 1.569077931344509125e-02
4.224984347820281982e-02 4.127886891365051270e-02 2.761331200599670410e-02
-1.468785945326089859e-02 -4.733080416917800903e-02 -5.376686155796051025e-02
-4.414129629731178284e-02 -2.945630252361297607e-02 2.055813744664192200e-02
9.874455630779266357e-02 4.695511981844902039e-02 3.299989178776741028e-02
1.024963259696960449e-01 2.734151482582092285e-02 -7.177561521530151367e-02
-2.943329326808452606e-02 -7.093788683414459229e-02 -3.150151669979095459e-02
-1.294281450100243092e-03 1.092096976935863495e-02 -8.127232431434094906e-04
1.390278041362762451e-01 4.897602647542953491e-02 -8.433944731950759888e-02
1.351872272789478302e-02 -7.608857005834579468e-02 -1.307060010731220245e-03
1.118744462728500366e-01 2.619259804487228394e-02 1.697758883237838745e-01
1.108485683798789978e-01 9.745423682034015656e-03 2.487478777766227722e-02
-1.363496333360671997e-01 -2.295797877013683319e-02 -4.081458225846290588e-02
-1.510732024908065796e-01 -2.518688701093196869e-02 3.188275266438722610e-03
1.750769652426242828e-02 -2.828564960509538651e-03 -9.552860632538795471e-03
-4.329069703817367554e-02 1.784812100231647491e-02 -6.462891586124897003e-03
2.684636786580085754e-02 -1.515989843755960464e-02 8.079248666763305664e-02
-1.780692674219608307e-02 -3.893013671040534973e-02 8.419826626777648926e-03
-4.646670073270797729e-02 -4.701476544141769409e-03 -2.931765094399452209e-02
6.633455399423837662e-03 -2.113749831914901733e-02 -3.218267858028411865e-02
3.332403302192687988e-02 3.263242542743682861e-02 7.614763453602790833e-03
-3.249981999397277832e-02 -2.366687171161174774e-02 -2.101524360477924347e-02
-1.358939427882432938e-02 -3.517793864011764526e-02 -6.497992202639579773e-03
-4.356609284877777100e-02 -6.482797861099243164e-02 -2.840980887413024902e-02
2.950856275856494904e-02 -1.556895766407251358e-02 1.673658937215805054e-02
-2.259963750839233398e-02 -1.268972642719745636e-02 -3.062966425204649568e-05
-4.906468465924263000e-02 -4.648384451866149902e-02 -2.717577107250690460e-02
-5.899779032915830612e-03 4.158307332545518875e-03 -1.961224153637886047e-02
-1.500797830522060394e-02 -2.771402522921562195e-02 -4.748099297285079956e-02
-6.098416633903980255e-03 -2.776058204472064972e-02 -1.811354979872703552e-02
3.343314304947853088e-02 2.089008502662181854e-02 -6.167026236653327942e-03
2.634345181286334991e-02 -8.873194456100463867e-03 -1.500007230788469315e-02
-2.314802631735801697e-02 -2.281296998262405396e-02 1.325641479343175888e-02
2.941778115928173065e-02 -8.130011148750782013e-03 -9.892448782920837402e-03
2.329035848379135132e-02 2.334637753665447235e-02 2.093468792736530304e-02
-3.147776052355766296e-02 9.685877710580825806e-03 -1.578411646187305450e-02
-3.391931205987930298e-02 -2.626952156424522400e-02 -2.801418304443359375e-02
-2.139928936958312988e-02 -2.331622689962387085e-02 1.913283765316009521e-02
-1.460388768464326859e-03 2.006213553249835968e-02 1.911217719316482544e-02
-3.370760381221771240e-02 -7.104256656020879745e-03 -1.612293161451816559e-02
-3.996133059263229370e-02 -3.653084486722946167e-02 1.155948080122470856e-02
1.237235683947801590e-02 9.948948398232460022e-03 -2.361136674880981445e-02
1.300191879272460938e-02 1.561990194022655487e-02 -2.927234163507819176e-04
4.566845949739217758e-03 -3.263156116008758545e-02 -9.715444408357143402e-03
-1.917682029306888580e-02 -3.756683319807052612e-02 -4.737431928515434265e-02
1.980235800147056580e-02 2.298389375209808350e-02 1.643272116780281067e-02
2.229601331055164337e-02 -1.149984169751405716e-02 1.870876364409923553e-02
-8.587266318500041962e-03 4.622345790266990662e-03 -3.564934805035591125e-02
1.583980862051248550e-03 -1.884755305945873260e-02 -2.051283791661262512e-02
-1.975128985941410065e-02 -3.005742467939853668e-02 -2.911614626646041870e-02
-9.058718569576740265e-03 -3.194605559110641479e-02 -8.235686272382736206e-02
-1.557959467172622681e-01 -1.839439868927001953e-01 -6.429109722375869751e-02
-2.112809382379055023e-02 9.673462808132171631e-02 4.624274373054504395e-02
5.881715193390846252e-02 -1.899710595607757568e-01 -1.672667711973190308e-01
6.630154699087142944e-02 -6.362625956535339355e-02 -1.492847651243209839e-01
-3.345766663551330566e-02 -7.796940952539443970e-02 -5.237783491611480713e-02
5.544784478843212128e-03 1.032162085175514221e-01 6.473897397518157959e-02
-7.554663810878992081e-03 -4.581259563565254211e-02 6.972405128180980682e-03
-9.869918972253799438e-02 -6.019560992717742920e-02 6.117159128189086914e-02
4.038451984524726868e-02 1.033930946141481400e-02 -1.920874603092670441e-02
5.571759119629859924e-02 -3.432512283325195312e-02 7.423560600727796555e-03
-6.513435393571853638e-03 3.665412589907646179e-02 7.702047377824783325e-02
1.509273797273635864e-02 5.674945563077926636e-02 5.682245269417762756e-02
-1.074418351054191589e-01 -4.731201007962226868e-02 -1.407603770494461060e-01
3.723080083727836609e-02 -7.058351486921310425e-02 -8.850671350955963135e-02
7.101535797119140625e-02 3.476868197321891785e-02 2.913528680801391602e-02
7.610604166984558105e-02 4.510559886693954468e-02 6.398160755634307861e-02
-1.896765455603599548e-02 -1.502450555562973022e-01 -1.132268086075782776e-01
-3.075075522065162659e-02 -1.333685312420129776e-02 7.846034131944179535e-03
-2.871294319629669189e-02 -7.375467568635940552e-02 1.427511684596538544e-03
8.950085937976837158e-02 1.235844120383262634e-01 3.282210323959589005e-03
-9.110657125711441040e-02 5.862206965684890747e-02 1.063508614897727966e-01
-6.257069110870361328e-02 -2.810840494930744171e-02 1.294663101434707642e-01
9.949646890163421631e-02 -7.829541340470314026e-03 -8.360274136066436768e-02
3.783011052291840315e-04 -4.269281402230262756e-02 1.229177862405776978e-01
-1.033928096294403076e-01 -8.506242930889129639e-02 -7.250866293907165527e-02
-6.390065699815750122e-02 -8.413208276033401489e-02 -7.120385020971298218e-02
2.710570581257343292e-02 -3.771825879812240601e-02 4.610755294561386108e-02
1.530071347951889038e-01 4.119452089071273804e-02 4.498254880309104919e-02
3.464693203568458557e-02 -3.260504081845283508e-02 3.485099598765373230e-02
-9.879444539546966553e-02 -5.403991043567657471e-02 -2.587715350091457367e-02
-2.230792492628097534e-02 -1.311581116169691086e-03 2.623380161821842194e-03
-4.532897844910621643e-03 -5.936445668339729309e-03 -3.575142472982406616e-02
-8.527331054210662842e-03 3.214289201423525810e-03 -3.316025063395500183e-02
-1.141761522740125656e-02 -2.353031886741518974e-03 9.143231436610221863e-03
4.232332110404968262e-03 -1.742553524672985077e-02 2.476424211636185646e-03
-9.782718494534492493e-03 9.756267070770263672e-03 -2.695028297603130341e-02
2.144959522411227226e-03 -3.210758045315742493e-02 -3.337596729397773743e-02
1.260236371308565140e-03 1.305931340903043747e-02 2.474897075444459915e-03
-1.168526634573936462e-01 -1.119625940918922424e-01 -3.816164284944534302e-02
-2.864045323804020882e-03 -2.015475183725357056e-02 -2.809398248791694641e-02
4.062852356582880020e-03 -7.814453914761543274e-03 -1.805994659662246704e-02
-3.724753111600875854e-02 2.163500525057315826e-02 -1.799434982240200043e-02
-1.088037621229887009e-02 -1.494045834988355637e-02 -1.196100655943155289e-02
-2.449209615588188171e-02 1.094956044107675552e-02 -1.347958855330944061e-02
6.324757356196641922e-03 2.755050733685493469e-02 -4.509986564517021179e-02
5.291901528835296631e-03 -1.308062579482793808e-02 1.130065531469881535e-03
-1.033342722803354263e-02 -3.510490804910659790e-02 9.412136278115212917e-04
1.818092726171016693e-02 2.893536724150180817e-02 -2.127421647310256958e-02
-1.537240296602249146e-02 1.373145729303359985e-02 2.820139378309249878e-02
-2.439875341951847076e-02 -3.320723026990890503e-02 3.592190565541386604e-03
-3.919259831309318542e-02 2.251950651407241821e-02 3.186972439289093018e-02
-1.557504758238792419e-02 1.284071151167154312e-02 -1.122684404253959656e-02
6.310611218214035034e-02 6.517514586448669434e-02 1.012899428606033325e-01
7.383358664810657501e-03 -1.282587647438049316e-02 -1.210808567702770233e-02
1.019223686307668686e-02 -8.072013966739177704e-03 1.293248310685157776e-02
-6.967649608850479126e-02 -4.910557344555854797e-02 -2.089143544435501099e-02
2.679747529327869415e-02 4.412604495882987976e-02 1.693626306951045990e-02
-2.347625792026519775e-03 -2.034160494804382324e-02 -3.396414220333099365e-02
4.274133592844009399e-02 -2.110264450311660767e-02 -3.249111399054527283e-02
-9.826145134866237640e-03 5.286407656967639923e-03 1.605752296745777130e-02
-2.559685520827770233e-02 -3.138034371659159660e-03 5.177966784685850143e-03
-1.811510138213634491e-02 -4.088961984962224960e-03 -1.005053799599409103e-02
-2.028801012784242630e-03 -5.578920617699623108e-02 9.322436898946762085e-02
-3.209883347153663635e-02 3.068557125516235828e-04 -4.072171077132225037e-02
-7.979732751846313477e-02 -5.825902521610260010e-02 1.398246269673109055e-02
-8.238210529088973999e-02 -1.192040815949440002e-01 -1.577224433422088623e-01
-6.994722783565521240e-02 -2.191952615976333618e-02 8.236122876405715942e-02
2.882658690214157104e-02 2.300821617245674133e-02 -4.549590125679969788e-02
1.353928726166486740e-02 -3.470816090703010559e-02 -3.799316287040710449e-02
-1.048787590116262436e-02 -4.169043526053428650e-02 -1.286856234073638916e-01
5.714065954089164734e-02 1.249582134187221527e-02 2.539298683404922485e-02
1.214781031012535095e-01 -2.840848453342914581e-02 -8.198021352291107178e-02
1.025228872895240784e-01 7.408549636602401733e-02 4.391978308558464050e-02
1.710694469511508942e-02 -6.978528201580047607e-02 -5.323723889887332916e-04
-2.695338241755962372e-02 -3.609751537442207336e-02 -1.195238679647445679e-01
-8.519554883241653442e-02 -1.083468571305274963e-01 -1.121698692440986633e-01
-1.490063872188329697e-02 5.448431149125099182e-02 4.537615552544593811e-02
1.581172458827495575e-02 9.091314859688282013e-03 -1.375427469611167908e-02
-7.034224271774291992e-02 -8.320745080709457397e-02 -8.445269614458084106e-02
-9.541465342044830322e-02 -2.015416696667671204e-02 -1.760383099317550659e-01
-4.847741872072219849e-02 -2.184481918811798096e-02 -7.618485391139984131e-02
5.154557526111602783e-02 6.541959196329116821e-02 1.019833832979202271e-01
6.886598467826843262e-02 7.751969993114471436e-02 1.020658612251281738e-01
-5.693442001938819885e-02 -1.511956565082073212e-02 -6.742098182439804077e-02
6.366925686597824097e-02 5.036777257919311523e-02 9.847699105739593506e-02
3.947737067937850952e-02 -5.086878687143325806e-02 2.985657006502151489e-02
-3.402501344680786133e-02 3.868087753653526306e-02 4.463449493050575256e-02
-6.027705501765012741e-03 4.139152541756629944e-02 1.050793901085853577e-01
7.857406884431838989e-02 -4.386191722005605698e-04 -8.039456605911254883e-02
5.394650250673294067e-02 -8.408683352172374725e-03 7.152517139911651611e-02
1.623777300119400024e-02 9.844877570867538452e-02 -5.379248782992362976e-02
-4.525908082723617554e-02 -6.276974920183420181e-03 -6.316580623388290405e-02
4.184128344058990479e-02 4.587263986468315125e-02 -1.910066057462245226e-04
8.974750339984893799e-02 1.511396933346986771e-02 1.446018815040588379e-01
-6.968207657337188721e-02 -1.412368565797805786e-02 3.953754156827926636e-02
-1.341035868972539902e-02 -1.762938871979713440e-02 9.529169648885726929e-03
8.944816142320632935e-02 6.130336970090866089e-02 6.148589029908180237e-02
-5.154447257518768311e-02 2.081998996436595917e-02 -7.206036150455474854e-02
-2.430805005133152008e-02 -1.020046994090080261e-01 -7.029093056917190552e-02
6.208914145827293396e-02 -1.595697365701198578e-03 -1.989468932151794434e-02
-4.198960214853286743e-02 4.209519922733306885e-02 1.777035742998123169e-02
8.499483764171600342e-02 -2.891194075345993042e-02 3.350408514961600304e-04
-2.640843018889427185e-02 -4.996485542505979538e-03 -6.258384138345718384e-02
1.237571462988853455e-01 1.160721778869628906e-01 3.573719039559364319e-02
5.646129697561264038e-02 4.118572175502777100e-02 -1.940087298862636089e-03
-5.621269717812538147e-02 2.919996902346611023e-02 6.861873716115951538e-02
1.858655177056789398e-02 -7.727026194334030151e-02 -6.394254975020885468e-03
3.736632689833641052e-02 1.477711740881204605e-02 -7.219297438859939575e-02
-5.000647157430648804e-02 -3.049058653414249420e-02 -1.688274554908275604e-03
-1.225516870617866516e-01 -8.652092516422271729e-02 -8.655297011137008667e-02
8.393985033035278320e-02 1.605600304901599884e-02 1.316771376878023148e-02
-1.635460406541824341e-01 2.823879383504390717e-02 9.254468232393264771e-02
-7.944581657648086548e-02 1.038483716547489166e-02 6.378576904535293579e-02
3.360772505402565002e-02 -1.039203535765409470e-02 8.162390440702438354e-04
1.515983603894710541e-02 2.523868530988693237e-02 1.070887520909309387e-01
2.060598880052566528e-02 -1.749351993203163147e-02 -4.585324600338935852e-02
-2.688862383365631104e-02 -2.477033413015305996e-04 -1.648517511785030365e-02
-3.541332855820655823e-02 5.662938952445983887e-02 1.031392216682434082e-01
-5.005464330315589905e-02 8.145932853221893311e-02 1.103030443191528320e-01
-7.979309558868408203e-02 -1.017002388834953308e-01 -3.620452061295509338e-02
3.469470143318176270e-02 3.180827945470809937e-02 9.048555977642536163e-03
2.801330015063285828e-02 -6.160759553313255310e-02 -3.100081719458103180e-02
2.358717285096645355e-02 4.085092246532440186e-02 1.030952334403991699e-01
-2.612703107297420502e-02 -2.327424474060535431e-03 -4.889608547091484070e-02
4.145541694015264511e-03 8.001026697456836700e-03 1.426798477768898010e-02
-8.071561343967914581e-03 3.415232151746749878e-02 1.502150148153305054e-01
-1.917542703449726105e-02 -1.411504764109849930e-02 -4.163111001253128052e-02
1.423095613718032837e-01 1.601961255073547363e-02 -6.618294119834899902e-02
5.253292247653007507e-02 -7.024640589952468872e-02 1.784368976950645447e-02
-2.251725411042571068e-03 -1.979073509573936462e-02 -1.944283209741115570e-02
3.763164207339286804e-02 -4.223179444670677185e-02 9.617619216442108154e-02
-1.039423197507858276e-01 7.496956735849380493e-02 1.019330229610204697e-02
-2.103164494037628174e-01 1.899558864533901215e-02 3.352508693933486938e-02
-9.301015175879001617e-03 3.074319846928119659e-02 -5.091178417205810547e-02
-7.508592307567596436e-02 -6.804367899894714355e-02 1.618980243802070618e-02
-1.205615624785423279e-01 -1.318741738796234131e-01 -5.758610367774963379e-02
5.347901023924350739e-03 1.162616629153490067e-02 2.559025958180427551e-02
-8.413189649581909180e-02 -7.905434072017669678e-02 1.228336170315742493e-01
-7.937007397413253784e-02 -1.063539981842041016e-01 -8.008682727813720703e-02
-6.181186065077781677e-02 -6.262327730655670166e-02 -9.720679372549057007e-02
5.305209383368492126e-02 2.530439011752605438e-02 6.493177264928817749e-03
-3.812692314386367798e-02 -6.034347414970397949e-02 7.882096618413925171e-02
7.074400782585144043e-02 6.580694764852523804e-02 -4.744995385408401489e-02
-4.958391189575195312e-02 -6.636293977499008179e-02 1.048744469881057739e-02
-8.762900717556476593e-03 3.970677033066749573e-03 -4.717633128166198730e-02
-9.087860584259033203e-03 6.743105500936508179e-02 1.157246753573417664e-01
4.040933772921562195e-02 9.184963256120681763e-02 2.974193170666694641e-02
4.667493049055337906e-03 -1.180990785360336304e-01 -1.064890846610069275e-01
-1.914962530136108398e-01 -5.823678523302078247e-02 3.035211190581321716e-02
-1.073820739984512329e-01 7.326731830835342407e-02 8.740063756704330444e-02
-6.913831084966659546e-02 6.235270947217941284e-02 1.204118430614471436e-01
-5.465512350201606750e-02 3.395173326134681702e-02 -1.017382070422172546e-01
-6.381589174270629883e-02 3.936540335416793823e-03 9.993665665388107300e-02
-9.211998432874679565e-02 -2.477728202939033508e-02 6.594768911600112915e-02
-4.518103227019309998e-02 3.123891539871692657e-02 -3.450034931302070618e-02
2.928399853408336639e-02 3.861358389258384705e-02 3.756679594516754150e-02
-9.315428882837295532e-02 2.520528063178062439e-02 5.762651190161705017e-02
1.313897781074047089e-03 4.431901127099990845e-02 1.519858390092849731e-01
-1.214981544762849808e-02 5.507309688255190849e-04 -8.219311013817787170e-03
1.918121986091136932e-02 -2.493081428110599518e-02 -1.664653792977333069e-02
2.365134097635746002e-02 -1.360809151083230972e-02 2.398164197802543640e-02
1.687061390839517117e-03 -1.751261949539184570e-02 1.880968804471194744e-03
-4.801185801625251770e-03 3.159414604306221008e-02 -9.277040138840675354e-03
2.647241577506065369e-02 -2.851233445107936859e-02 -1.843458600342273712e-02
-2.243362553417682648e-02 1.231808494776487350e-02 4.893212020397186279e-02
-2.695050463080406189e-02 1.336540933698415756e-02 2.288909070193767548e-02
5.748318508267402649e-02 1.419619005173444748e-02 3.505592048168182373e-02
-3.891146928071975708e-02 -2.868222817778587341e-02 5.059664137661457062e-03
-3.012244030833244324e-02 -1.633397676050662994e-02 -2.114125527441501617e-02
-8.295653387904167175e-03 2.077813819050788879e-02 2.941327402368187904e-03
-2.804317884147167206e-02 -3.421072289347648621e-02 1.181680522859096527e-02
1.154176332056522369e-02 -1.614141836762428284e-02 -1.501469966024160385e-02
-1.510137785226106644e-02 3.513136506080627441e-02 -1.800664514303207397e-02
4.039888456463813782e-02 -1.459664758294820786e-02 -1.197133120149374008e-02
6.469511985778808594e-02 5.704889819025993347e-02 2.189972251653671265e-02
3.997091948986053467e-02 2.188089303672313690e-02 -2.472467022016644478e-04
4.629110917448997498e-02 -6.721933004882885143e-06 -6.947088055312633514e-03
3.507766639813780785e-03 1.650542579591274261e-02 5.219313781708478928e-03
2.426495961844921112e-02 2.393557131290435791e-02 -4.845493473112583160e-03
8.556503802537918091e-03 3.717068210244178772e-02 5.126155167818069458e-02
-9.725749492645263672e-03 -1.996854320168495178e-02 -1.083482429385185242e-02
1.637147367000579834e-02 -1.450136955827474594e-02 3.820814890787005424e-03
-2.189745195209980011e-03 6.557079032063484192e-03 1.119205378927290440e-03
2.374190837144851685e-03 1.241110730916261673e-02 2.540928311645984650e-02
-1.003614347428083420e-02 -2.419091528281569481e-03 -9.998999536037445068e-03
-2.585459500551223755e-02 -3.187141939997673035e-02 -5.511663481593132019e-02
3.969871252775192261e-02 8.451677858829498291e-02 2.661292068660259247e-02
2.644278295338153839e-02 1.405172049999237061e-02 -6.603751797229051590e-03
1.487214490771293640e-02 -3.711983328685164452e-03 5.662553757429122925e-02
-9.682204574346542358e-03 -2.011664211750030518e-02 7.327628554776310921e-04
-3.857542574405670166e-02 -8.099398761987686157e-02 7.952970266342163086e-02
3.706978633999824524e-02 -1.358812153339385986e-01 -2.442879825830459595e-01
2.104281634092330933e-02 -2.459998987615108490e-02 1.392309218645095825e-01
5.431313067674636841e-02 3.931906446814537048e-02 9.002599865198135376e-02
-2.073281910270452499e-03 -3.281036764383316040e-02 -1.346222758293151855e-01
1.011311933398246765e-01 1.971339108422398567e-03 7.391162961721420288e-02
2.503352612257003784e-02 1.286949124187231064e-02 -5.510097742080688477e-02
-1.008454486727714539e-01 -2.112233638763427734e-01 -4.594139754772186279e-02
-8.222752809524536133e-02 -1.112175956368446350e-01 -1.065172180533409119e-01
6.409782171249389648e-02 -1.677045226097106934e-02 -1.958204954862594604e-01
-7.510774582624435425e-02 -1.204715073108673096e-01 -8.765445649623870850e-02
8.158845454454421997e-02 2.134264213964343071e-03 -5.177154392004013062e-02
2.394710630178451538e-01 7.793806493282318115e-02 -2.111238986253738403e-02
4.841728881001472473e-02 5.424178019165992737e-02 4.066547378897666931e-02
-4.168005660176277161e-02 -1.957220025360584259e-03 -1.421723812818527222e-01
1.168596893548965454e-01 -1.858340390026569366e-02 -1.036957427859306335e-01
7.006082218140363693e-03 1.626322045922279358e-02 -1.526377722620964050e-02
6.666246056556701660e-02 1.260203681886196136e-02 -1.054218560457229614e-01
-4.752005264163017273e-02 -7.515960186719894409e-02 -3.198879957199096680e-02
-4.277342930436134338e-02 -8.118826895952224731e-02 -6.659352779388427734e-02
-7.002489268779754639e-02 -2.036214768886566162e-01 -1.325471848249435425e-01
-1.271211206912994385e-01 1.577352918684482574e-02 6.287908554077148438e-02
-1.793321669101715088e-01 -7.483248412609100342e-02 1.100135617889463902e-03
3.852235153317451477e-02 -1.364386528730392456e-01 -1.159168705344200134e-01
1.652698814868927002e-01 1.138259693980216980e-01 -1.517444849014282227e-01
1.313446760177612305e-01 7.146193087100982666e-02 1.071808114647865295e-01
-9.636720269918441772e-02 -2.871083561331033707e-03 -5.581832677125930786e-02
-1.714855283498764038e-01 -5.920688435435295105e-02 -1.134112663567066193e-02
8.300980180501937866e-02 1.133732348680496216e-01 -5.444468557834625244e-02
1.224807798862457275e-01 -2.562313154339790344e-02 7.936166226863861084e-02
1.203102171421051025e-01 -1.448118686676025391e-02 3.434096649289131165e-02
2.383900992572307587e-02 -3.076305799186229706e-02 1.393359806388616562e-02
3.580794110894203186e-02 1.039918884634971619e-02 -2.890973910689353943e-02
-1.703234761953353882e-02 -1.331348717212677002e-02 4.564563930034637451e-02
-8.945530280470848083e-03 -6.999696791172027588e-02 -3.655197471380233765e-02
8.974075317382812500e-03 4.351822286844253540e-02 3.056448698043823242e-02
-2.468286268413066864e-02 -5.475436151027679443e-02 6.397766061127185822e-03
-1.586554013192653656e-02 2.346159890294075012e-02 2.478029392659664154e-02
-2.492787316441535950e-03 -2.232141979038715363e-02 9.564022533595561981e-03
-4.287904128432273865e-03 2.516807988286018372e-03 -5.335237458348274231e-02
-1.128559466451406479e-02 -1.981678605079650879e-02 -1.169712282717227936e-02
-4.651069641113281250e-02 6.152804940938949585e-02 3.224185481667518616e-02
8.355402387678623199e-03 7.950960658490657806e-03 4.656791687011718750e-02
4.245328251272439957e-03 -1.139368209987878799e-02 -1.803833758458495140e-03
-4.247706010937690735e-02 -2.628359943628311157e-02 2.916840277612209320e-02
1.452433876693248749e-03 -1.379582751542329788e-02 1.697099767625331879e-02
-4.052177816629409790e-02 -1.596982032060623169e-02 -7.010288536548614502e-03
-1.052808389067649841e-02 1.350908074527978897e-02 -3.042274154722690582e-02
1.007987558841705322e-02 -1.099931262433528900e-02 -9.248372167348861694e-03
-1.029411181807518005e-01 -2.356459572911262512e-02 8.996531367301940918e-02
-9.641164913773536682e-03 -2.041075937449932098e-02 7.230824790894985199e-03
2.218025177717208862e-02 1.551405247300863266e-02 -5.417229258455336094e-04
7.721637189388275146e-02 -1.453066244721412659e-02 -4.128190688788890839e-03
-2.847704663872718811e-02 -4.099891521036624908e-03 2.962379157543182373e-02
6.779585499316453934e-03 1.705526746809482574e-02 4.570016753859817982e-04
2.844711393117904663e-02 -3.194820135831832886e-02 -4.061172157526016235e-02
-3.130377270281314850e-03 -9.000794030725955963e-03 7.515567541122436523e-02
2.949533611536026001e-02 -1.320514362305402756e-02 -2.711076661944389343e-02
4.527703858911991119e-03 2.557980827987194061e-02 -6.645152345299720764e-03
6.878173444420099258e-03 -3.764852881431579590e-02 -2.022830396890640259e-02
-3.554044663906097412e-02 4.037082660943269730e-03 5.976156145334243774e-02
-6.070159003138542175e-02 -2.669530175626277924e-02 1.141834352165460587e-02
-4.216433444526046515e-04 2.936090715229511261e-02 7.259284146130084991e-03
4.050389677286148071e-02 6.889050360769033432e-03 -3.792005777359008789e-02
-2.478907071053981781e-02 -6.047624349594116211e-02 -3.001324087381362915e-02
6.211557611823081970e-02 3.398567065596580505e-02 1.482038106769323349e-02
4.353586118668317795e-03 6.086858455091714859e-03 2.114282734692096710e-02
9.087293292395770550e-04 -1.778819947503507137e-03 9.665305726230144501e-03
7.217853516340255737e-02 1.698042266070842743e-02 -3.411533311009407043e-02
-3.598488867282867432e-02 -3.157741203904151917e-02 1.045484840869903564e-02
3.796388953924179077e-02 1.574271125718951225e-03 -7.735618948936462402e-02
-2.522268099710345268e-03 6.453754752874374390e-02 1.387230306863784790e-02
8.410128764808177948e-03 3.567837644368410110e-03 -3.493468463420867920e-02
-2.451883070170879364e-02 1.964053837582468987e-03 -1.978695206344127655e-02
-2.652565576136112213e-02 2.139748074114322662e-02 3.982236608862876892e-03
-5.193623714148998260e-03 1.935728825628757477e-02 -3.087147511541843414e-02
-5.384117830544710159e-03 1.964177377521991730e-02 3.648184612393379211e-02
1.776515692472457886e-02 5.645994096994400024e-02 5.560521036386489868e-03
2.279772050678730011e-02 -2.432193793356418610e-02 1.928797177970409393e-02
-4.359463229775428772e-02 -5.551590397953987122e-02 -3.753136098384857178e-02
2.163501270115375519e-02 6.990147382020950317e-02 1.891030557453632355e-02
-4.944731015712022781e-03 9.914252907037734985e-03 -6.111222505569458008e-02
2.417830377817153931e-02 -2.560916589573025703e-03 -1.568692363798618317e-02
-2.395354025065898895e-02 -7.450302690267562866e-02 -3.050406090915203094e-02
-8.404385298490524292e-02 -3.909661620855331421e-02 -2.655563876032829285e-02
-3.169777616858482361e-02 -1.112925565394107252e-05 -7.562319282442331314e-03
-9.989986428990960121e-04 2.035860903561115265e-02 -1.829096674919128418e-02
-9.804430417716503143e-03 2.122821053490042686e-03 9.167801588773727417e-03
1.289243251085281372e-02 -6.185955181717872620e-02 -5.830923095345497131e-02
-2.460812404751777649e-02 2.807122468948364258e-02 1.057135593146085739e-02
1.890839776024222374e-03 -1.815499924123287201e-02 -1.459823921322822571e-02
2.360239624977111816e-02 -1.509487046860158443e-03 2.517801709473133087e-02
3.283644840121269226e-02 2.230429463088512421e-02 1.863021031022071838e-02
-1.086231973022222519e-02 -1.001494657248258591e-02 6.112074479460716248e-04
-3.578877821564674377e-02 -1.381327584385871887e-02 -1.736631430685520172e-02
9.539827704429626465e-02 4.851621575653553009e-03 -1.974976062774658203e-02
7.428544014692306519e-02 -3.630523756146430969e-02 -1.386578679084777832e-01
-1.121257916092872620e-01 -8.961366862058639526e-02 -2.014400213956832886e-01
-5.963332578539848328e-02 -1.767286472022533417e-02 3.250774741172790527e-02
2.071531116962432861e-01 9.793076664209365845e-02 8.594725281000137329e-02
-2.606434226036071777e-01 -1.639891266822814941e-01 -2.892051935195922852e-01
-1.242445185780525208e-01 -9.021371603012084961e-02 -1.985006779432296753e-01
6.549345701932907104e-02 -7.883796840906143188e-02 -2.616900801658630371e-01
-1.018960103392601013e-01 -6.431002169847488403e-02 -1.238623335957527161e-01
-2.961464226245880127e-03 1.324248164892196655e-01 -9.664936363697052002e-02
9.569125249981880188e-03 3.686922416090965271e-02 -1.701377034187316895e-01
-2.452963963150978088e-02 -4.343815892934799194e-02 -7.365893572568893433e-02
-3.458976000547409058e-02 -7.184085249900817871e-02 -1.461898535490036011e-01
2.541011013090610504e-02 8.695342391729354858e-02 6.404419243335723877e-02
1.332572251558303833e-01 1.152343750000000000e-01 6.205691769719123840e-02
-2.634117379784584045e-02 -1.653367653489112854e-02 -6.291471421718597412e-02
-8.647358044981956482e-03 -6.661640480160713196e-03 2.772790379822254181e-02
-3.485850617289543152e-02 -6.879788637161254883e-02 -3.533520177006721497e-02
-5.655883252620697021e-02 -4.227252677083015442e-02 1.772388368844985962e-01
-2.441034168004989624e-01 -2.165583223104476929e-01 -1.291922181844711304e-01
-1.341987848281860352e-01 -8.101179450750350952e-02 2.724467311054468155e-03
-3.404446691274642944e-02 -1.784190908074378967e-02 3.982692956924438477e-02
-6.198334321379661560e-02 -4.935713950544595718e-03 4.292286187410354614e-02
-2.103259414434432983e-01 -1.505079716444015503e-01 4.332930780947208405e-03
6.883019208908081055e-02 -8.997788280248641968e-02 1.840499974787235260e-02
2.714215777814388275e-02 -2.671906538307666779e-02 -2.872789092361927032e-02
1.127998605370521545e-01 1.042193993926048279e-01 -3.986615315079689026e-02
-1.215355023741722107e-01 -6.461077183485031128e-02 -1.169412434101104736e-01
-8.557292073965072632e-02 -1.684923917055130005e-01 -9.607024490833282471e-02
-1.860522665083408356e-02 4.866774007678031921e-02 1.194769367575645447e-01
3.769430518150329590e-01 1.273041814565658569e-01 1.642808467149734497e-01
1.008792445063591003e-01 5.426837876439094543e-02 -5.233689676970243454e-03
1.391236633062362671e-01 4.873288422822952271e-02 -2.953438460826873779e-02
-7.140080560930073261e-04 -3.007347323000431061e-02 -8.174241334199905396e-02
-1.481778826564550400e-02 -2.010327763855457306e-02 -1.519505772739648819e-02
2.233174815773963928e-02 4.197426512837409973e-02 2.228062599897384644e-02
2.511226385831832886e-02 3.789578005671501160e-02 3.706139698624610901e-02
2.944716438651084900e-02 1.285596098750829697e-02 3.385783359408378601e-02
-3.775402158498764038e-02 1.601820252835750580e-02 4.306411370635032654e-03
-5.575668183155357838e-04 -1.092389225959777832e-02 -1.363526731729507446e-01
6.583794206380844116e-02 3.162477910518646240e-02 5.683350190520286560e-02
3.731087967753410339e-02 2.300922945141792297e-02 -1.103087235242128372e-02
-3.266910836100578308e-02 3.854516521096229553e-02 8.248581551015377045e-03
-6.482905894517898560e-02 -2.382606826722621918e-02 -6.334713846445083618e-02
9.754084981977939606e-03 3.120374307036399841e-02 2.734787762165069580e-02
3.915866464376449585e-02 5.916754528880119324e-02 3.816616907715797424e-02
6.854987144470214844e-02 5.281028524041175842e-02 4.313281178474426270e-02
-4.198725894093513489e-02 -2.910564839839935303e-02 3.799996525049209595e-02
1.026335824280977249e-02 -1.471766922622919083e-02 7.136806380003690720e-04
3.969739750027656555e-02 -1.226426940411329269e-02 2.105447463691234589e-03
3.253683913499116898e-03 -4.055059049278497696e-03 -5.191856250166893005e-02
4.233268089592456818e-03 4.736702516674995422e-02 -2.330680005252361298e-02
-4.683878645300865173e-02 -4.009417816996574402e-02 -3.003083355724811554e-02
-7.256902009248733521e-02 -5.975419655442237854e-02 -7.358184456825256348e-02
-4.555492103099822998e-02 9.240079671144485474e-03 9.220851585268974304e-03
-5.863226950168609619e-02 -5.341131240129470825e-02 -5.698800086975097656e-02
8.549127727746963501e-03 7.159259403124451637e-04 -4.299495369195938110e-02
1.883490942418575287e-03 -5.403584241867065430e-02 -1.267896499484777451e-02
-3.706359863281250000e-02 -1.775261014699935913e-02 -1.587705500423908234e-02
-3.527804277837276459e-03 -5.524228513240814209e-02 -1.548949629068374634e-02
-2.027832437306642532e-03 -1.684617437422275543e-02 1.988931559026241302e-02
2.967924810945987701e-02 1.878900825977325439e-02 2.185686863958835602e-02
-5.693844519555568695e-03 1.413761824369430542e-02 2.663220465183258057e-02
-4.825279116630554199e-02 1.267297286540269852e-02 -4.513239115476608276e-02
2.310123667120933533e-02 1.675290870480239391e-03 1.219429261982440948e-02
-3.359692916274070740e-02 -4.241788387298583984e-02 1.429581316187977791e-03
4.570934548974037170e-02 2.090053865686058998e-03 -6.295211613178253174e-03
-2.376223169267177582e-02 3.988468274474143982e-02 3.207612782716751099e-02
-1.599202677607536316e-02 1.501147169619798660e-02 1.484441198408603668e-02
-2.021702565252780914e-02 -7.186181377619504929e-03 -5.426469817757606506e-02
3.906291909515857697e-03 7.155694812536239624e-02 1.105089262127876282e-01
-2.258643880486488342e-02 2.090689539909362793e-02 -6.543702911585569382e-03
2.623470872640609741e-02 9.389738552272319794e-03 -7.454303093254566193e-03
3.245375351980328560e-03 -3.309701755642890930e-02 -3.483016043901443481e-02
-4.140476509928703308e-02 -4.886204749345779419e-02 -8.005666732788085938e-02
-2.384923025965690613e-02 -5.980161484330892563e-03 7.123561110347509384e-03
-5.519784986972808838e-02 -2.903199009597301483e-02 3.992888145148754120e-03
1.252224482595920563e-02 7.243899162858724594e-03 2.601986564695835114e-02
1.870696991682052612e-02 1.451630669180303812e-04 7.330203894525766373e-03
1.762811280786991119e-02 3.125507384538650513e-02 5.238390993326902390e-03
1.089211367070674896e-02 -4.555817227810621262e-03 -9.606758132576942444e-03
1.904613710939884186e-02 -2.255056612193584442e-02 -2.277911081910133362e-02
-1.880610734224319458e-02 -1.167578436434268951e-02 -2.516283467411994934e-02
2.782353898510336876e-03 -5.487941671162843704e-03 4.259270429611206055e-02
-1.931083016097545624e-02 1.758635044097900391e-02 -8.960177190601825714e-03
-3.572091832756996155e-02 -3.243699297308921814e-02 -8.199637755751609802e-03
2.221442013978958130e-02 7.928206468932330608e-05 -2.407335676252841949e-02
-1.909021846950054169e-02 -2.131290547549724579e-02 7.328560110181570053e-03
-1.656279526650905609e-02 1.808188855648040771e-03 -1.303508877754211426e-03
1.012757327407598495e-02 1.553437020629644394e-02 -8.392637595534324646e-03
-1.605624705553054810e-02 4.177548456937074661e-03 5.460218992084264755e-03
3.789229784160852432e-03 -1.885820552706718445e-02 -2.056089974939823151e-02
-1.831361837685108185e-02 -1.805736497044563293e-02 -1.530161686241626740e-02
-5.860409885644912720e-02 -5.459531396627426147e-02 2.459334768354892731e-02
1.924961805343627930e-02 -2.749788947403430939e-02 2.565604075789451599e-02
-2.057037502527236938e-02 -7.931309752166271210e-03 -2.285073883831501007e-02
2.080968581140041351e-02 3.297711908817291260e-02 2.821192704141139984e-02
-3.529607132077217102e-02 -3.864840045571327209e-02 2.490533748641610146e-03
-6.593539845198392868e-03 -8.545771986246109009e-02 -4.156921058893203735e-02
-8.808662183582782745e-03 2.059628069400787354e-02 1.025228854268789291e-02
2.030059695243835449e-02 2.728009410202503204e-02 1.671442203223705292e-02
-2.853637095540761948e-03 -6.606923043727874756e-02 -5.829835683107376099e-02
7.233182433992624283e-03 3.981079906225204468e-02 -2.960130013525485992e-02
6.420727074146270752e-02 3.830714523792266846e-02 -4.995961487293243408e-02
1.716206967830657959e-02 -1.130171120166778564e-02 8.996470272541046143e-02
-1.003570854663848877e-01 -4.071855545043945312e-02 -8.022029697895050049e-02
-2.386439405381679535e-02 3.330154716968536377e-02 1.200591959059238434e-02
-1.717162877321243286e-02 -2.877933904528617859e-02 -8.319579996168613434e-03
7.333532720804214478e-02 9.743480384349822998e-02 7.799644768238067627e-02
4.544550925493240356e-02 9.087995626032352448e-03 4.168139770627021790e-03
-2.432934707030653954e-03 3.048480674624443054e-02 8.040580898523330688e-02
-7.550849020481109619e-02 -5.719798058271408081e-02 -6.014101207256317139e-02
-4.091697558760643005e-02 7.794037810526788235e-04 -3.208728879690170288e-02
-4.321458283811807632e-03 4.791258275508880615e-02 2.911073155701160431e-02
2.475879155099391937e-02 2.438576705753803253e-02 -9.325436502695083618e-02
-7.178998552262783051e-03 -6.498975306749343872e-02 -1.792466267943382263e-02
-1.293811481446027756e-03 -1.552881672978401184e-02 -9.326983988285064697e-02
-8.853069692850112915e-02 -7.488682121038436890e-02 -5.760375410318374634e-02
2.651394531130790710e-02 9.298030287027359009e-03 6.617775559425354004e-02
7.512611895799636841e-02 7.161681354045867920e-02 5.205832421779632568e-03
8.188274502754211426e-02 8.415648713707923889e-03 3.948469646275043488e-03
2.168237604200839996e-02 3.255956619977951050e-02 -8.159744553267955780e-03
2.609504759311676025e-02 3.603926673531532288e-02 1.187350749969482422e-01
6.178398802876472473e-02 5.076549015939235687e-03 9.484834037721157074e-03
5.787373334169387817e-02 -4.416349902749061584e-02 -1.254733186215162277e-02
6.876183301210403442e-02 1.987990923225879669e-02 -1.886663213372230530e-02
3.204168286174535751e-03 -3.661054372787475586e-02 -9.116503410041332245e-03
4.872186854481697083e-02 5.202706903219223022e-02 6.129463762044906616e-02
-3.629940329119563103e-03 -4.587792605161666870e-02 -4.547816514968872070e-02
2.337976358830928802e-02 3.112529637292027473e-03 6.362250423990190029e-04
-2.056744694709777832e-02 -4.889938235282897949e-02 -7.469880394637584686e-03
-5.976659432053565979e-02 5.186046473681926727e-03 1.589366607367992401e-02
-2.194493636488914490e-02 -5.687737371772527695e-03 8.920105756260454655e-05
-1.749072782695293427e-02 1.165813393890857697e-02 2.202619984745979309e-02
3.697081282734870911e-02 2.126362733542919159e-02 3.279615566134452820e-02
-1.894335821270942688e-02 -7.230621576309204102e-02 -2.526219002902507782e-02
-3.005137853324413300e-02 -9.617177769541740417e-03 -2.239670418202877045e-02
1.619447395205497742e-02 -3.183849155902862549e-02 -2.000868692994117737e-02
-7.512106094509363174e-03 -1.816792041063308716e-02 1.422853674739599228e-02
4.458623938262462616e-03 -1.410776894772425294e-04 4.207351244986057281e-03
-7.021252065896987915e-02 -2.287301979959011078e-02 -6.460746750235557556e-03
-3.554729744791984558e-02 8.073947392404079437e-03 -7.351827807724475861e-03
-5.429920856840908527e-04 3.755067661404609680e-02 1.014273613691329956e-02
-2.988140285015106201e-02 -2.372757904231548309e-02 -3.690094500780105591e-02
-1.053631901741027832e-01 -6.727832555770874023e-02 -5.041304975748062134e-02
-6.566897779703140259e-02 -5.596129968762397766e-02 -5.856342613697052002e-02
-1.266856677830219269e-02 -2.820591442286968231e-03 3.720397129654884338e-02
-3.328756988048553467e-02 -4.201259464025497437e-02 -5.465391278266906738e-02
-1.382953580468893051e-02 -3.280637785792350769e-02 -3.886761376634240150e-03
4.108912311494350433e-03 -2.673534490168094635e-02 -2.912606485188007355e-02
2.262854203581809998e-02 -7.270048372447490692e-03 -2.826731279492378235e-02
-1.393836364150047302e-02 -2.579656988382339478e-02 1.100399810820817947e-02
1.962035521864891052e-02 2.641233801841735840e-02 8.994764357339590788e-05
5.961145740002393723e-03 3.751352429389953613e-02 6.323064863681793213e-02
-2.538959681987762451e-02 -2.599117346107959747e-03 -4.670598730444908142e-02
1.059980019927024841e-01 6.773537397384643555e-02 7.074972242116928101e-02
-4.758244007825851440e-02 -7.468457520008087158e-02 -9.231002628803253174e-02
-6.995390355587005615e-02 -6.717590242624282837e-02 -5.184284597635269165e-02
1.935191638767719269e-02 -1.337927300482988358e-02 8.096556179225444794e-03
2.111015096306800842e-02 -2.744706720113754272e-02 -1.487103942781686783e-02
-8.716519922018051147e-03 -2.365639805793762207e-02 2.759708091616630554e-02
3.354225773364305496e-03 -4.544923081994056702e-03 -4.125411063432693481e-02
3.755056113004684448e-02 4.167957231402397156e-02 -1.299168542027473450e-02
1.250858698040246964e-02 -1.786831952631473541e-02 7.712460355833172798e-04
1.034909300506114960e-02 -2.598693221807479858e-02 -1.793943345546722412e-02
1.425145287066698074e-02 -7.974797859787940979e-03 -2.272039651870727539e-02
-2.453280240297317505e-02 1.882472448050975800e-02 4.590803012251853943e-02
-7.340889424085617065e-02 1.161482185125350952e-02 9.166538715362548828e-03
8.541421964764595032e-03 -2.638587728142738342e-03 -5.638849735260009766e-02
4.048863798379898071e-02 1.631671003997325897e-02 -3.267294913530349731e-02
-6.557387765496969223e-03 -4.462460521608591080e-03 -4.200174286961555481e-02
2.602650411427021027e-02 -7.996259257197380066e-03 -3.079978376626968384e-02
-2.042265795171260834e-02 -3.946540877223014832e-02 -2.758415788412094116e-02
3.845073655247688293e-02 -2.458548732101917267e-02 9.678586386144161224e-03
2.993946522474288940e-02 3.025654889643192291e-02 1.691031036898493767e-03
2.783473022282123566e-02 2.569197304546833038e-02 -8.966078981757164001e-03
6.058683618903160095e-03 -1.023483648896217346e-02 5.666776094585657120e-03
-1.711626723408699036e-02 -3.047551773488521576e-02 1.010830746963620186e-03
1.315455883741378784e-02 -1.548465713858604431e-02 1.601369865238666534e-02
-3.342699259519577026e-02 -4.145270958542823792e-02 -1.361968182027339935e-02
-2.848673798143863678e-02 -2.776872739195823669e-02 -4.015747457742691040e-02
2.401499776169657707e-03 1.786670833826065063e-02 7.159067317843437195e-03
3.020167909562587738e-02 -1.089337747544050217e-02 -2.065648511052131653e-02
-7.947319187223911285e-03 -2.019874192774295807e-02 1.561004016548395157e-02
3.995988517999649048e-02 4.560149274766445160e-03 -3.086510114371776581e-02
-2.121899276971817017e-02 9.213506244122982025e-03 1.493058260530233383e-02
3.241760656237602234e-02 -1.064608618617057800e-02 1.446904242038726807e-02
7.935049012303352356e-03 3.716691210865974426e-02 4.723609983921051025e-02
-2.750439010560512543e-02 -8.424194529652595520e-03 -5.943728983402252197e-02
-4.052421078085899353e-02 1.500801532529294491e-03 1.120582781732082367e-02
-1.981328986585140228e-02 3.337018936872482300e-02 -2.003259025514125824e-02
-1.730721257627010345e-02 -2.506573498249053955e-02 -1.381276547908782959e-02
-2.525739558041095734e-02 3.007159801200032234e-03 -1.334752980619668961e-02
-3.013553842902183533e-02 9.816535748541355133e-03 1.238288171589374542e-02
-1.740864217281341553e-01 -9.382897056639194489e-03 5.762570351362228394e-02
-7.136271148920059204e-02 -2.189865894615650177e-02 -5.954070761799812317e-02
2.668440155684947968e-02 3.226201981306076050e-02 -3.810030641034245491e-03
-1.012223660945892334e-01 5.518135055899620056e-02 9.579090774059295654e-02
3.942537307739257812e-02 2.652783133089542389e-02 3.775655850768089294e-02
6.615079194307327271e-02 -1.215412840247154236e-02 6.913122534751892090e-02
9.819712489843368530e-03 -7.337316405028104782e-03 -1.461168378591537476e-02
-4.431921988725662231e-03 -2.103292010724544525e-02 8.892380446195602417e-02
-2.720008976757526398e-02 1.332785282284021378e-02 1.265574842691421509e-01
-2.880010008811950684e-02 -2.857765927910804749e-02 3.569759801030158997e-02
-4.353136289864778519e-03 -3.011378645896911621e-02 -6.140865385532379150e-03
-6.444317102432250977e-02 -3.099186718463897705e-02 2.338203229010105133e-02
-2.138806134462356567e-02 -1.149213127791881561e-02 -4.380052536725997925e-02
-3.165765106678009033e-02 2.047491446137428284e-02 1.982885599136352539e-02
-3.447528183460235596e-02 -4.079929739236831665e-02 2.155237272381782532e-02
7.420214265584945679e-02 1.081741601228713989e-02 -8.271504193544387817e-02
-5.431235954165458679e-02 1.177717465907335281e-02 1.412395089864730835e-01
-7.798304315656423569e-03 8.452838286757469177e-03 3.958035260438919067e-02
8.805786259472370148e-03 -4.451455082744359970e-03 1.928134635090827942e-02
4.293740913271903992e-02 4.190665483474731445e-02 2.242910489439964294e-02
-9.806256741285324097e-02 -6.482495367527008057e-02 -4.814526066184043884e-02
1.605106703937053680e-02 2.171012759208679199e-02 -9.221269283443689346e-04
1.177892088890075684e-02 -1.565143279731273651e-02 -1.765701733529567719e-02
-2.604467049241065979e-02 2.874328196048736572e-02 1.609273701906204224e-01
2.966669760644435883e-02 -4.297316074371337891e-02 -6.731553375720977783e-02
-5.089147016406059265e-02 -5.802027508616447449e-02 -4.009292274713516235e-02
7.507240772247314453e-02 8.807911071926355362e-04 -1.972781866788864136e-02
2.015819773077964783e-02 1.377979014068841934e-02 -1.471277326345443726e-02
-1.138670835644006729e-03 -3.185505047440528870e-02 -1.167231500148773193e-01
-4.648564010858535767e-02 -5.393658764660358429e-03 -4.717636480927467346e-02
-7.176443934440612793e-02 -1.745584420859813690e-02 4.519394412636756897e-02
-1.014225184917449951e-01 -1.688383147120475769e-02 6.736577488481998444e-03
-5.516387894749641418e-02 -5.868861824274063110e-02 1.183627918362617493e-02
-6.935770064592361450e-02 3.121631778776645660e-02 -3.186250478029251099e-02
1.305307913571596146e-02 -5.839914083480834961e-04 5.513529852032661438e-02
-1.494686454534530640e-01 2.385975979268550873e-02 5.507187172770500183e-02
2.320586703717708588e-02 -3.357130289077758789e-02 3.062460757791996002e-02
9.863819926977157593e-03 -1.449836418032646179e-02 4.949603602290153503e-02
-4.577310010790824890e-02 -3.312809020280838013e-02 -1.070870384573936462e-01
3.565130755305290222e-02 6.419368088245391846e-02 -5.579969659447669983e-02
1.015287563204765320e-01 -5.486597493290901184e-02 -6.749661266803741455e-02
-6.771389860659837723e-03 -9.906373918056488037e-03 -3.043605759739875793e-02
1.259082704782485962e-01 3.845328465104103088e-02 -2.781846188008785248e-02
4.636166244745254517e-02 1.161968708038330078e-01 -1.473525911569595337e-01
6.715005636215209961e-02 1.143407374620437622e-01 1.125946342945098877e-01
-3.315264359116554260e-02 3.094955906271934509e-02 4.094350710511207581e-02
2.555217593908309937e-03 -4.098604246973991394e-02 -3.953459858894348145e-02
1.160891577601432800e-01 6.669951975345611572e-02 -5.129014700651168823e-02
1.289559751749038696e-01 -7.558977603912353516e-02 -3.567074239253997803e-02
4.167669638991355896e-02 2.432488091289997101e-02 1.158802118152379990e-02
-3.047832287847995758e-02 -6.549382209777832031e-02 1.998495310544967651e-02
-4.741669818758964539e-02 -7.938127964735031128e-02 -2.535951137542724609e-02
-5.508675426244735718e-02 -2.175348438322544098e-02 -9.600884467363357544e-02
-2.999005280435085297e-02 1.248766668140888214e-02 3.651268035173416138e-02
-7.755730301141738892e-02 -8.389560133218765259e-02 -7.018902152776718140e-02
1.734084188938140869e-01 -2.004096284508705139e-02 7.268265634775161743e-02
-9.955330938100814819e-02 -2.340673282742500305e-02 1.299648731946945190e-01
-2.425289480015635490e-03 -9.501205384731292725e-02 -3.099370002746582031e-02
6.016549840569496155e-02 -2.704380312934517860e-04 1.683451118879020214e-03
1.341365128755569458e-01 -3.757481649518013000e-02 -1.387462615966796875e-01
5.674891918897628784e-02 3.863988071680068970e-02 5.113783851265907288e-02
-3.689330443739891052e-02 -1.529798656702041626e-01 -4.165742546319961548e-02
-1.538201719522476196e-01 7.708657532930374146e-02 1.557369600050151348e-03
7.123572286218404770e-03 -3.173493896611034870e-04 -8.487906306982040405e-03
-6.143759004771709442e-03 -1.324748806655406952e-02 -2.159293927252292633e-02
5.129820667207241058e-03 9.035497787408530712e-04 6.631982978433370590e-03
4.063566029071807861e-02 2.845176029950380325e-03 1.429776102304458618e-02
-5.439968779683113098e-03 -2.960907481610774994e-02 2.035431377589702606e-02
-3.946985583752393723e-03 1.054205186665058136e-02 -1.667532324790954590e-02
-4.876749217510223389e-02 -8.641785010695457458e-03 -1.193756982684135437e-02
1.006451155990362167e-02 -2.123817987740039825e-02 -2.575224079191684723e-02
-9.365249425172805786e-03 -6.484192330390214920e-03 -9.048774954862892628e-04
1.038601342588663101e-02 -3.978462889790534973e-02 -4.168788902461528778e-03
-1.350574567914009094e-02 1.538133015856146812e-03 -9.507381473667919636e-04
-2.849222533404827118e-02 -7.450451375916600227e-04 8.390185423195362091e-03
2.083428576588630676e-02 -2.810880541801452637e-02 7.520390208810567856e-04
2.360259369015693665e-02 9.586727246642112732e-03 1.115250401198863983e-02
-2.277384884655475616e-02 1.965125091373920441e-02 -2.737436071038246155e-02
-2.776881679892539978e-02 2.576564252376556396e-02 -1.087831519544124603e-02
-3.346784040331840515e-03 2.383453026413917542e-02 -8.399025537073612213e-03
-6.786386482417583466e-03 1.370496209710836411e-02 -2.734806388616561890e-02
7.780896034091711044e-03 -4.225713666528463364e-03 -2.141851186752319336e-02
-3.497159853577613831e-02 1.591653004288673401e-02 7.471499498933553696e-03
8.667800575494766235e-03 -6.062667234800755978e-04 1.468799356371164322e-02
-6.647725123912096024e-03 -3.200494451448321342e-03 1.664170436561107635e-02
-3.716294094920158386e-02 -3.869170555844902992e-03 -3.757315129041671753e-02
4.041630309075117111e-03 2.795059466734528542e-03 -2.166628092527389526e-02
1.185993943363428116e-02 -3.718884196132421494e-03 -1.104894466698169708e-02
1.171572040766477585e-02 4.893905483186244965e-03 -7.918156683444976807e-03
1.381599530577659607e-02 -3.175587207078933716e-02 -3.852120600640773773e-03
-3.964123129844665527e-02 5.772709380835294724e-03 -2.363365702331066132e-02
2.810915233567357063e-03 -2.011974342167377472e-02 1.759748533368110657e-02
-2.462063170969486237e-02 3.038299456238746643e-02 6.428118795156478882e-03
1.739232800900936127e-02 6.580111104995012283e-03 -7.999796420335769653e-03
-6.460120901465415955e-03 -2.521701715886592865e-02 -6.163104902952909470e-03
-3.665007278323173523e-02 8.091801777482032776e-03 -1.813792157918214798e-03
-1.083306130021810532e-02 -2.691878937184810638e-02 -2.336012013256549835e-02
-1.407252973876893520e-03 -1.278970949351787567e-02 -1.105892565101385117e-02
3.139578923583030701e-02 2.909226156771183014e-02 3.418057411909103394e-02
-2.406198903918266296e-02 -3.554600523784756660e-03 9.566755965352058411e-03
-4.441944882273674011e-02 -2.504526823759078979e-02 -3.791505843400955200e-02
-2.380339242517948151e-02 -5.907814204692840576e-02 -5.458502098917961121e-02
-1.376954838633537292e-03 -1.887612976133823395e-02 1.661425083875656128e-02
-8.429117151536047459e-04 -4.196926951408386230e-02 -1.544301677495241165e-02
-2.150371298193931580e-02 -5.033397674560546875e-02 -5.331575497984886169e-02
-6.911134347319602966e-03 2.004804462194442749e-02 7.536934223026037216e-03
-3.596009314060211182e-02 -1.527122780680656433e-02 -6.343539804220199585e-03
-1.472770515829324722e-02 -1.410915236920118332e-02 2.025419846177101135e-02
4.676737263798713684e-02 2.919683046638965607e-02 1.980878598988056183e-02
-1.151973661035299301e-02 -4.570238757878541946e-03 1.685795560479164124e-02
-1.110677979886531830e-02 -3.506591171026229858e-02 -1.256442628800868988e-02
2.305829711258411407e-02 8.925116620957851410e-03 7.572993170469999313e-03
2.002382837235927582e-02 2.932182699441909790e-02 5.546282511204481125e-03
-1.942622475326061249e-02 -2.413689345121383667e-02 -4.302754066884517670e-03
2.505254000425338745e-02 -2.246771007776260376e-02 -3.372230008244514465e-02
2.166674239560961723e-03 1.603349484503269196e-02 1.567881926894187927e-02
-6.510547827929258347e-03 1.816887781023979187e-02 4.099532961845397949e-02
1.819387637078762054e-02 9.167926385998725891e-03 -3.765096142888069153e-02
-3.617980331182479858e-02 4.526978358626365662e-03 -4.465867206454277039e-02
1.116682589054107666e-02 -1.421405468136072159e-03 -3.286431357264518738e-02
1.740442030131816864e-02 1.642429153434932232e-03 1.571234315633773804e-02
-8.248043246567249298e-03 -2.811926603317260742e-02 -5.189588665962219238e-02
-3.263322263956069946e-02 -5.976030975580215454e-02 -5.448965355753898621e-02
3.627824410796165466e-02 4.812195524573326111e-02 3.100552968680858612e-02
2.382385358214378357e-02 1.217706967145204544e-02 -1.400453504174947739e-02
-3.261921927332878113e-02 1.595105789601802826e-02 2.700209617614746094e-02
-3.140259906649589539e-02 8.699952624738216400e-03 1.840386190451681614e-03
8.774371817708015442e-03 1.742038503289222717e-02 2.999289194121956825e-03
-1.768386550247669220e-02 7.136298227123916149e-04 -5.995994433760643005e-03
-1.720844535157084465e-03 -1.519623212516307831e-02 2.044634334743022919e-02
2.102227695286273956e-02 5.662091542035341263e-03 3.696317225694656372e-02
-1.911728084087371826e-02 5.665293429046869278e-03 -3.379444777965545654e-02
2.710824646055698395e-02 -1.704963971860706806e-03 -2.216398343443870544e-02
-3.414232283830642700e-02 -2.397244051098823547e-02 -6.205953285098075867e-02
-2.162096463143825531e-02 3.642427967861294746e-03 -4.878314211964607239e-03
-2.889538928866386414e-02 -2.959538809955120087e-02 1.751388423144817352e-02
-3.649121150374412537e-02 -1.774324662983417511e-02 -4.224457219243049622e-02
-7.247663568705320358e-03 -1.117790490388870239e-02 -3.065280616283416748e-02
-3.024547547101974487e-02 -2.277125045657157898e-02 -1.872864924371242523e-02
-1.785695180296897888e-02 -3.374080732464790344e-02 1.346427574753761292e-02
2.856470644474029541e-03 2.339182049036026001e-02 3.382812812924385071e-02
3.359548747539520264e-02 -8.870224468410015106e-03 -1.883543841540813446e-02
7.191333174705505371e-02 3.549103438854217529e-02 1.672998256981372833e-02
1.805428788065910339e-02 2.454450586810708046e-03 4.092014580965042114e-02
-1.719619520008563995e-02 -6.693419069051742554e-03 1.999271474778652191e-02
-4.873856529593467712e-02 -3.455407917499542236e-02 1.016777381300926208e-02
1.483694557100534439e-02 2.497260645031929016e-02 -2.434192039072513580e-02
1.610917225480079651e-02 4.056568071246147156e-02 9.343086741864681244e-03
1.786890439689159393e-02 3.138602897524833679e-02 1.433341577649116516e-02
-1.027488708496093750e-02 -1.209770794957876205e-02 2.961058402433991432e-03
-2.515878528356552124e-02 -2.821872942149639130e-02 -3.497259691357612610e-02
-6.570701370947062969e-04 -2.316538244485855103e-02 -1.182940509170293808e-02
-3.968309983611106873e-02 -1.169407041743397713e-03 -1.831474527716636658e-02
-1.090751681476831436e-02 1.790895685553550720e-02 -9.026768617331981659e-03
-3.741945326328277588e-02 -1.899424567818641663e-02 -2.319846488535404205e-02
-7.323252502828836441e-03 5.775346420705318451e-03 -2.623084373772144318e-02
8.017978630959987640e-03 1.847049221396446228e-02 1.470824982970952988e-02
2.324133738875389099e-02 -4.788446705788373947e-03 -3.601652802899479866e-03
-3.530788421630859375e-02 -9.813330136239528656e-03 -1.914014481008052826e-02
-1.666593551635742188e-02 -1.725046895444393158e-02 -1.956990920007228851e-02
3.763537481427192688e-02 7.741386070847511292e-03 6.326000671833753586e-03
2.445580251514911652e-02 -3.592784330248832703e-02 -2.979360334575176239e-02
-2.484473399817943573e-02 -1.751574128866195679e-02 -2.789246849715709686e-02
1.964646764099597931e-02 8.215150446631014347e-04 2.100670151412487030e-02
-1.175124756991863251e-02 3.080015303567051888e-03 1.920804008841514587e-02
1.805330626666545868e-02 -1.610141992568969727e-02 3.021983243525028229e-02
-1.809871196746826172e-02 -2.721849596127867699e-03 -2.794974483549594879e-02
2.687552012503147125e-02 -1.039587240666151047e-02 -2.406087890267372131e-02
2.316557243466377258e-02 -2.321126312017440796e-02 1.556656882166862488e-02
1.324282493442296982e-02 3.310377150774002075e-02 2.569475024938583374e-02
-1.683958992362022400e-02 2.165759354829788208e-02 -2.938699163496494293e-02
8.208554238080978394e-03 -1.854932494461536407e-02 -2.803927473723888397e-02
-2.493896149098873138e-02 -3.157430561259388924e-03 -8.129738271236419678e-03
-5.813025869429111481e-03 1.670020516030490398e-03 -2.303078211843967438e-02
-1.041308324784040451e-02 5.639777984470129013e-03 -1.176519319415092468e-02
-6.122434977442026138e-03 -7.962190546095371246e-03 3.344127535820007324e-02
-2.218461409211158752e-02 -2.196580916643142700e-02 3.837954998016357422e-02
2.288388833403587341e-02 9.977249428629875183e-03 -8.565831929445266724e-03
-6.089110858738422394e-03 2.790528908371925354e-02 -6.607341114431619644e-03
-2.126608230173587799e-02 -7.972578518092632294e-03 -2.391352131962776184e-02
-6.991034839302301407e-03 1.192861585877835751e-03 -3.454639762639999390e-02
-2.196150086820125580e-02 -1.897250302135944366e-02 8.104778826236724854e-03
5.468034651130437851e-03 -6.120095029473304749e-03 -6.993005517870187759e-03
2.638525143265724182e-02 -2.930992469191551208e-02 -2.019619336351752281e-03
9.950801730155944824e-03 3.039684146642684937e-02 -1.957499980926513672e-02
4.402014985680580139e-02 4.282996989786624908e-03 -8.047978393733501434e-03
1.687859371304512024e-02 5.807374138385057449e-03 -1.452249474823474884e-02
-3.437791764736175537e-02 -2.771679311990737915e-02 -1.422308292239904404e-02
-1.660899026319384575e-03 -3.075727634131908417e-02 -1.484664622694253922e-02
-8.706163614988327026e-03 -3.463841509073972702e-03 -8.841083385050296783e-03
-1.654570922255516052e-02 -6.199209019541740417e-03 1.393977552652359009e-02
-8.372974395751953125e-02 -1.779292710125446320e-02 -2.094257436692714691e-02
8.916715160012245178e-03 -7.847838848829269409e-02 -1.596439480781555176e-01
6.873676180839538574e-02 8.228163421154022217e-02 7.458454370498657227e-02
2.125183679163455963e-02 -2.984919119626283646e-04 6.366165727376937866e-02
-1.377398818731307983e-01 -1.328430622816085815e-01 -2.101543359458446503e-02
1.650559902191162109e-01 -9.936411865055561066e-03 -2.461214736104011536e-02
-1.315894275903701782e-01 -4.554875940084457397e-02 1.136196684092283249e-02
6.408957391977310181e-02 5.918013304471969604e-02 -4.072594270110130310e-02
-1.836989633738994598e-02 6.264185905456542969e-02 8.084104210138320923e-02
-8.900394290685653687e-02 -3.866713494062423706e-02 6.761015951633453369e-02
-7.029353082180023193e-02 -4.787096753716468811e-02 -4.577854275703430176e-02
-5.606666579842567444e-02 -5.729894712567329407e-02 -4.750210791826248169e-02
6.823784112930297852e-02 4.527980461716651917e-02 -7.688686996698379517e-02
5.467669665813446045e-02 4.019996523857116699e-02 4.144179983995854855e-04
7.690754532814025879e-02 -7.269646157510578632e-04 -1.166566535830497742e-01
1.334134489297866821e-02 5.455014109611511230e-02 -3.251140937209129333e-02
-1.745027117431163788e-02 -4.613550379872322083e-02 -6.141532585024833679e-02
1.193640660494565964e-02 8.235593885183334351e-02 8.520464599132537842e-02
-1.504237055778503418e-01 -1.016713604331016541e-01 6.117194518446922302e-02
4.540676623582839966e-02 5.181010812520980835e-02 3.395850211381912231e-02
4.098628088831901550e-02 -1.663034409284591675e-02 1.552481111139059067e-02
4.073026031255722046e-02 1.953624561429023743e-02 -3.485519066452980042e-02
-2.955797128379344940e-02 -4.031229019165039062e-02 3.299503773450851440e-02
-3.994491696357727051e-02 -3.815138339996337891e-02 4.138705506920814514e-02
1.023411452770233154e-01 2.551485039293766022e-02 9.028467349708080292e-03
5.009233206510543823e-02 1.389129087328910828e-02 5.237127840518951416e-02
-4.437340795993804932e-02 -7.616110891103744507e-02 -1.261526066809892654e-02
2.576695196330547333e-02 -1.072083637118339539e-01 -4.104578867554664612e-02
-2.655608020722866058e-02 1.785196177661418915e-02 1.014056652784347534e-01
-1.353484578430652618e-02 -1.610355637967586517e-02 -1.211143285036087036e-02
-7.646802812814712524e-02 -6.103893741965293884e-03 -8.354491740465164185e-02
-6.271095573902130127e-02 -1.398037374019622803e-02 -2.835269086062908173e-02
1.279239654541015625e-01 9.118345379829406738e-02 6.783311069011688232e-02
-6.444915384054183960e-02 9.692231193184852600e-03 -2.649373002350330353e-02
-8.069579303264617920e-02 -2.427261881530284882e-02 -1.561755686998367310e-02
-6.453288951888680458e-04 -2.842136658728122711e-02 1.225150097161531448e-02
-4.625856131315231323e-02 -4.277807660400867462e-03 -3.452749224379658699e-03
2.276349440217018127e-02 4.703408479690551758e-02 2.194806467741727829e-03
-5.878580268472433090e-03 -2.748019620776176453e-02 6.730868667364120483e-02
5.241606011986732483e-02 -8.316460996866226196e-03 -9.434439986944198608e-02
1.338364277034997940e-02 9.095203131437301636e-03 -1.666856370866298676e-02
8.135644346475601196e-02 -1.001500990241765976e-02 -5.394778400659561157e-02
-2.119672298431396484e-02 1.099794535548426211e-04 3.531901538372039795e-02
-4.727122560143470764e-02 9.493201971054077148e-03 5.876301229000091553e-02
4.090172052383422852e-02 9.015458635985851288e-03 3.672473132610321045e-02
-8.104280568659305573e-03 5.878275260329246521e-02 8.967927843332290649e-02
-2.768879197537899017e-02 3.052869625389575958e-02 7.001242041587829590e-02
-8.065789937973022461e-02 -6.496065296232700348e-03 1.217852998524904251e-02
-8.501787669956684113e-03 -3.742378577589988708e-02 6.395935267210006714e-02
-6.754295527935028076e-02 -1.148466393351554871e-02 1.915939152240753174e-02
-3.466306626796722412e-02 7.471553515642881393e-03 -2.061856910586357117e-02
-4.924073070287704468e-02 -2.275662310421466827e-02 -6.855800002813339233e-02
2.754378318786621094e-02 5.794125143438577652e-03 2.320502419024705887e-03
-2.872531116008758545e-02 -5.999404564499855042e-02 -2.960666269063949585e-02
1.949910633265972137e-02 -3.168621659278869629e-02 -6.528750061988830566e-02
5.790102109313011169e-02 4.763248562812805176e-02 1.234647035598754883e-01
2.176925912499427795e-02 1.943256356753408909e-03 -4.919620975852012634e-02
-3.460077941417694092e-02 2.006756840273737907e-03 -9.755977429449558258e-03
-6.427190266549587250e-03 -1.431245938874781132e-03 2.746565453708171844e-02
-1.315317004919052124e-01 -6.815145909786224365e-02 -2.779182512313127518e-03
4.573215264827013016e-03 1.394529826939105988e-02 -1.019611582159996033e-02
-7.171285152435302734e-02 -3.352719917893409729e-02 -5.702459719032049179e-03
-1.172796934843063354e-01 -9.005787968635559082e-02 -6.688572466373443604e-02
4.093158524483442307e-03 1.308060716837644577e-02 -5.928155500441789627e-03
6.868242286145687103e-03 -2.746590413153171539e-02 -3.247871622443199158e-02
7.189515233039855957e-02 4.057363048195838928e-02 -2.505626343190670013e-02
-6.905672606080770493e-03 -7.575097680091857910e-02 -3.457576036453247070e-03
-3.598063439130783081e-02 1.392386481165885925e-02 -2.926964312791824341e-03
9.772991761565208435e-04 -2.227855846285820007e-02 -4.888158664107322693e-02
3.388834744691848755e-02 5.819802172482013702e-03 -5.909139662981033325e-02
-1.230841353535652161e-01 -4.748131707310676575e-02 -4.475258290767669678e-03
2.336889132857322693e-02 -5.003381986171007156e-03 3.141644643619656563e-03
2.635642886161804199e-03 -3.177077695727348328e-02 -1.673230342566967010e-02
-4.626993462443351746e-02 -2.079218998551368713e-02 -9.305811487138271332e-03
3.859024867415428162e-02 6.125189736485481262e-02 1.532907038927078247e-02
1.797662489116191864e-02 3.051768988370895386e-02 -1.350951660424470901e-02
4.661243781447410583e-02 -1.375477574765682220e-02 -1.218303199857473373e-02
-1.492117438465356827e-02 -2.978304959833621979e-02 -1.538658887147903442e-02
-1.990457810461521149e-02 -2.877064421772956848e-02 -8.636415004730224609e-02
1.725297421216964722e-02 -7.964587770402431488e-03 -5.494815483689308167e-02
-1.539543271064758301e-02 -1.987015828490257263e-02 1.845718733966350555e-02
-2.992335148155689240e-02 2.885960787534713745e-02 1.988892629742622375e-02
-9.305065870285034180e-02 -5.812070891261100769e-02 -1.734516955912113190e-02
-6.810632534325122833e-03 1.317394152283668518e-02 -5.061474815011024475e-02
-1.607272960245609283e-02 -3.869569161906838417e-03 7.072507403790950775e-03
-5.675406754016876221e-02 -1.804874744266271591e-03 4.408990591764450073e-02
2.498959191143512726e-02 1.836518570780754089e-02 7.380824536085128784e-02
7.944593206048011780e-03 -4.128632694482803345e-02 2.658479847013950348e-02
4.811774566769599915e-02 8.593413047492504120e-03 -8.906117081642150879e-02
-5.246479064226150513e-02 -5.649874731898307800e-02 -6.319109816104173660e-03
7.161607593297958374e-02 4.756227135658264160e-02 -6.396973505616188049e-03
-4.292048979550600052e-03 6.475874781608581543e-02 7.538439333438873291e-02
2.512715943157672882e-02 -5.294696614146232605e-02 4.821948334574699402e-02
4.808304831385612488e-02 -3.099704161286354065e-02 -4.874991718679666519e-03
9.679105877876281738e-02 -3.729461226612329483e-03 -1.654858514666557312e-02
1.709561236202716827e-02 -1.627002283930778503e-02 1.115573570132255554e-02
1.741650514304637909e-02 -1.777624711394309998e-02 -7.156834006309509277e-02
-7.307484000921249390e-02 1.933859777636826038e-03 -2.854127064347267151e-02
-2.828330174088478088e-02 3.341415524482727051e-02 -2.108101174235343933e-02
4.891566559672355652e-02 5.571217089891433716e-02 8.049815893173217773e-02
-9.059249609708786011e-02 8.958191610872745514e-03 6.263125687837600708e-03
2.351023629307746887e-02 1.071165315806865692e-02 -1.877935603260993958e-02
3.284699097275733948e-02 -1.253885868936777115e-02 -2.333847619593143463e-02
2.691615605726838112e-03 -2.651899866759777069e-02 -3.468120843172073364e-02
1.022222638130187988e-02 9.219189174473285675e-03 -4.724068858195096254e-04
-4.604578018188476562e-02 -3.088122420012950897e-02 1.472004037350416183e-02
1.398788765072822571e-02 -4.298151470720767975e-03 -3.157105296850204468e-02
4.341417178511619568e-02 1.038237288594245911e-02 -1.521776523441076279e-02
-4.191243555396795273e-03 -1.371945161372423172e-02 1.861487398855388165e-03
4.191324114799499512e-02 7.737522479146718979e-03 6.538823992013931274e-02
-1.746562682092189789e-02 1.644247025251388550e-02 -3.915364854037761688e-03
8.150430396199226379e-03 -6.693743169307708740e-02 -8.022906631231307983e-02
3.459376841783523560e-02 2.653609029948711395e-02 1.071110740303993225e-02
-7.390522211790084839e-02 -3.592157363891601562e-02 1.371570583432912827e-02
4.981699865311384201e-03 3.185090422630310059e-02 7.870030589401721954e-03
-1.932060159742832184e-02 -1.697179675102233887e-02 -2.746358700096607208e-02
-2.772450074553489685e-02 -3.572992980480194092e-02 -1.043674629181623459e-02
-5.870744958519935608e-02 -2.465104311704635620e-02 -9.819647297263145447e-03
-4.450754448771476746e-02 -3.867434337735176086e-02 5.380920600146055222e-03
-1.461168983951210976e-03 -2.587215788662433624e-02 -4.634417593479156494e-02
2.904784306883811951e-02 3.171211853623390198e-02 7.597748190164566040e-02
7.394573092460632324e-02 7.289179414510726929e-02 6.798979360610246658e-03
-2.958800271153450012e-02 -1.109291706234216690e-02 -2.008479833602905273e-02
5.296916514635086060e-02 3.827030956745147705e-02 -3.060882724821567535e-02
6.278099119663238525e-02 2.133179828524589539e-02 2.026166953146457672e-02
7.020864635705947876e-02 3.760255500674247742e-02 -1.065683178603649139e-02
-3.636305686086416245e-03 -1.050014607608318329e-02 -4.972443357110023499e-02
9.153886348940432072e-04 1.981753483414649963e-02 -2.783071063458919525e-02
9.419909864664077759e-02 1.561454683542251587e-02 1.212916746735572815e-01
1.319973617792129517e-01 -3.593385592103004456e-02 -1.265667527914047241e-01
1.075165160000324249e-02 2.051292918622493744e-02 2.239906042814254761e-02
-7.090863585472106934e-02 1.879762485623359680e-02 -1.630670949816703796e-02
1.314967870712280273e-01 -6.281191110610961914e-02 -1.140908151865005493e-01
-9.199628978967666626e-02 5.801371857523918152e-02 -1.185652837157249451e-01
2.501446940004825592e-02 9.590560942888259888e-02 -3.958242014050483704e-02
-4.286552593111991882e-02 -1.891363039612770081e-02 -1.180103936349041760e-04
1.393093913793563843e-01 4.408825188875198364e-02 -1.832609623670578003e-01
-5.413652397692203522e-03 1.031603366136550903e-01 -2.107570469379425049e-01
3.400297462940216064e-02 1.756291650235652924e-02 4.300278797745704651e-02
1.386793404817581177e-01 9.867005050182342529e-02 5.646753683686256409e-02
-1.163220331072807312e-01 4.694706201553344727e-02 -1.276420988142490387e-02
-1.256958302110433578e-02 2.971648355014622211e-04 1.093570701777935028e-02
3.937388956546783447e-02 -3.542574867606163025e-02 2.952161431312561035e-02
-4.137489944696426392e-02 -3.224571049213409424e-02 1.027670875191688538e-01
7.132756710052490234e-02 9.821321815252304077e-03 -1.170891970396041870e-01
-1.248510256409645081e-01 -9.043362736701965332e-02 -1.048527136445045471e-01
-1.326604094356298447e-02 9.160827100276947021e-02 -3.671295568346977234e-02
-1.275449898093938828e-02 -3.934758901596069336e-02 5.089031532406806946e-02
-7.646334823220968246e-03 5.328541621565818787e-02 3.000434115529060364e-02
-7.409862428903579712e-02 -5.857933312654495239e-02 1.178133534267544746e-03
9.271121025085449219e-02 1.078737676143646240e-01 -1.008511185646057129e-01
-3.862610086798667908e-02 -5.990286543965339661e-02 7.085611578077077866e-03
-3.648639842867851257e-02 -2.311485446989536285e-02 5.481180921196937561e-02
-1.007474809885025024e-01 3.475897759199142456e-02 1.498412787914276123e-01
2.585776522755622864e-02 -5.524534732103347778e-02 -5.574410036206245422e-02
8.233437687158584595e-02 1.337900990620255470e-03 -2.128989696502685547e-01
-1.983370184898376465e-01 -9.425821900367736816e-02 -1.540382206439971924e-01
-3.216228634119033813e-02 5.844097211956977844e-02 1.273719966411590576e-01
-4.134760238230228424e-03 5.157295241951942444e-02 6.637116521596908569e-02
3.543520346283912659e-03 -3.151691053062677383e-03 8.269478380680084229e-02
8.204917609691619873e-02 -4.914851393550634384e-03 -3.134317696094512939e-02
-8.839696645736694336e-02 -5.716490000486373901e-02 -2.137784659862518311e-02
6.946403533220291138e-03 -1.961516216397285461e-02 -2.226164937019348145e-02
5.296054482460021973e-02 1.588865183293819427e-02 1.869815774261951447e-02
1.836979412473738194e-03 -1.904064556583762169e-03 3.164835274219512939e-02
-3.850172087550163269e-02 1.586256921291351318e-02 3.012088686227798462e-02
8.033107966184616089e-02 -4.553170874714851379e-02 -2.058506011962890625e-02
1.153440959751605988e-02 2.501795813441276550e-02 2.500816946849226952e-03
4.252614080905914307e-02 -6.554405204951763153e-03 -3.459323197603225708e-02
1.619051583111286163e-02 2.077905274927616119e-02 -7.532163057476282120e-03
5.639192089438438416e-02 1.070028287358582020e-03 -1.895901560783386230e-02
4.339843243360519409e-02 2.944951876997947693e-02 1.926831528544425964e-02
-2.050374448299407959e-02 2.198225632309913635e-02 2.380927652120590210e-02
-1.108186133205890656e-02 -3.432095982134342194e-03 4.154308512806892395e-02
-1.296871453523635864e-01 -4.950205236673355103e-02 -2.280730288475751877e-03
6.556636095046997070e-02 4.691511392593383789e-02 2.291214838624000549e-02
-1.009269990026950836e-02 -1.560627110302448273e-02 5.023879930377006531e-04
-4.054985940456390381e-02 -2.451020665466785431e-02 7.029175758361816406e-02
-2.917418815195560455e-02 -2.359052188694477081e-02 1.847614184953272343e-03
2.770706452429294586e-02 5.679062101989984512e-03 2.557775238528847694e-03
2.277836762368679047e-02 -2.180931903421878815e-02 1.798256859183311462e-02
-1.187999695539474487e-01 -4.123052209615707397e-02 -4.017915111035108566e-03
-2.891327254474163055e-02 -3.941407799720764160e-02 -7.991140009835362434e-04
4.172595217823982239e-02 -2.973794564604759216e-02 -8.988053351640701294e-02
-2.772960625588893890e-02 -2.275899238884449005e-02 4.053332284092903137e-02
4.871099442243576050e-02 1.871566101908683777e-02 -3.398945787921547890e-03
-1.384054124355316162e-02 -4.894706420600414276e-03 4.891703370958566666e-03
4.054319113492965698e-02 -4.546044021844863892e-02 -2.401066385209560394e-02
-4.132886230945587158e-02 3.325031697750091553e-02 4.318003728985786438e-02
-5.223547294735908508e-02 -7.450566627085208893e-03 -4.634631332010030746e-03
-4.883103817701339722e-02 -4.785479232668876648e-02 -3.338753804564476013e-02
8.946616202592849731e-02 1.543249469250440598e-02 -2.102017030119895935e-02
-1.868405751883983612e-02 -1.969017460942268372e-02 -1.565544400364160538e-03
-3.992529213428497314e-02 -2.496721781790256500e-02 5.195123143494129181e-03
-3.781488910317420959e-02 1.022570487111806870e-02 7.441666722297668457e-02
-2.746032783761620522e-03 1.208285335451364517e-02 1.637316425330936909e-03
-2.725710161030292511e-02 -4.668466001749038696e-02 -1.270066499710083008e-01
-8.984443545341491699e-02 -5.941171199083328247e-02 -4.124965146183967590e-02
-7.649674266576766968e-02 -1.022801920771598816e-01 -1.020301729440689087e-01
-1.261386182159185410e-02 -2.792751044034957886e-02 8.442369848489761353e-02
1.454022377729415894e-01 5.020554736256599426e-02 -5.818520672619342804e-03
-4.127445444464683533e-02 -2.401206642389297485e-02 -4.071596264839172363e-02
2.375714667141437531e-02 6.929960101842880249e-02 -9.966642595827579498e-03
-1.207212135195732117e-01 -5.218677595257759094e-02 -4.390392079949378967e-02
8.172817528247833252e-02 -1.058787223882973194e-03 -3.129949793219566345e-02
1.332907658070325851e-02 4.152635857462882996e-02 3.877550736069679260e-02
6.378842145204544067e-02 5.122272763401269913e-03 5.982306972146034241e-02
-1.610511839389801025e-01 -8.402993530035018921e-02 -1.929821912199258804e-03
-6.845806539058685303e-02 -7.536014914512634277e-02 5.419987719506025314e-03
-2.578627504408359528e-02 3.176761046051979065e-02 -1.358374487608671188e-02
-1.532114744186401367e-01 -8.424215763807296753e-02 -2.325920201838016510e-02
2.920368686318397522e-02 6.574905011802911758e-03 -2.646172046661376953e-02
-1.544778943061828613e-01 -3.026634454727172852e-02 1.077163219451904297e-02
1.287144273519515991e-01 2.807022631168365479e-02 7.942148298025131226e-02
7.973998039960861206e-02 2.026572450995445251e-02 1.477749794721603394e-01
-5.539496243000030518e-02 -7.366228103637695312e-02 -2.120497636497020721e-02
-7.757101207971572876e-02 -1.883689500391483307e-02 -2.852597832679748535e-02
-1.085499394685029984e-02 6.292045116424560547e-02 1.074863225221633911e-01
-8.377913385629653931e-02 -1.059268265962600708e-01 -1.770094484090805054e-01
-1.305801123380661011e-01 -4.423170909285545349e-02 4.392942413687705994e-03
-6.999568641185760498e-02 -1.738271676003932953e-02 3.937540948390960693e-02
1.190080028027296066e-02 -8.392080664634704590e-03 -7.854813709855079651e-03
1.067322790622711182e-01 6.890589743852615356e-02 4.300076514482498169e-02
-1.037749201059341431e-01 -2.019581012427806854e-02 8.530850708484649658e-02
9.347825497388839722e-02 -3.219750151038169861e-02 -5.803927779197692871e-02
-4.510155320167541504e-02 -4.968443885445594788e-02 -9.425838477909564972e-03
-4.031741619110107422e-02 -3.447957709431648254e-02 -6.665904074907302856e-02
-3.581442311406135559e-02 -5.582502111792564392e-02 -5.679883062839508057e-03
-1.772528141736984253e-02 5.686663556843996048e-03 -2.281381003558635712e-02
4.757244139909744263e-02 7.799647748470306396e-03 5.448718741536140442e-02
7.782880216836929321e-03 2.209942601621150970e-02 7.265895605087280273e-02
-6.680662184953689575e-02 1.206826698035001755e-02 2.201616019010543823e-02
-6.723879277706146240e-02 -3.508108481764793396e-02 1.642592996358871460e-02
3.217595815658569336e-02 1.831973157823085785e-02 1.726087369024753571e-02
1.341745723038911819e-02 6.730020046234130859e-02 3.642393276095390320e-02
2.943219989538192749e-02 -1.958171464502811432e-02 -9.279053658246994019e-03
-9.095418453216552734e-02 -8.918331563472747803e-02 -8.319290727376937866e-02
-3.963276371359825134e-02 -8.414979092776775360e-03 2.615641988813877106e-02
-9.620307385921478271e-02 -2.276968583464622498e-02 1.257198676466941833e-02
-2.982351370155811310e-02 2.248086221516132355e-02 4.151358082890510559e-02
-1.081879287958145142e-01 -9.205590188503265381e-02 -1.209136918187141418e-01
-7.594041526317596436e-03 7.263140380382537842e-02 5.120372399687767029e-02
-6.725932657718658447e-02 1.099412981420755386e-02 8.399573562201112509e-05
8.524768054485321045e-02 6.976701319217681885e-02 4.683309048414230347e-02
4.244900867342948914e-02 1.089818589389324188e-02 2.682822197675704956e-02
-2.991647645831108093e-02 -1.360513269901275635e-02 -8.898294530808925629e-03
6.739428639411926270e-02 1.273547857999801636e-01 4.553012922406196594e-02
-1.250800397247076035e-02 -5.917100608348846436e-02 1.524604484438896179e-02
6.481271982192993164e-02 6.408444046974182129e-02 3.144381940364837646e-02
-1.388095319271087646e-02 -5.929804872721433640e-03 -1.563759148120880127e-02
3.509985283017158508e-02 -3.751849383115768433e-02 -4.576343297958374023e-02
2.362871542572975159e-02 4.403942264616489410e-03 2.000584453344345093e-02
-4.483269155025482178e-02 -2.009110152721405029e-02 4.959490150213241577e-03
-1.580341905355453491e-02 1.145138498395681381e-02 1.041925605386495590e-02
5.891774967312812805e-02 3.955954685807228088e-02 3.827431425452232361e-02
-6.412214785814285278e-02 -5.491862073540687561e-02 1.125407405197620392e-02
3.406423330307006836e-02 -4.880252853035926819e-02 -8.765216916799545288e-03
-4.370123520493507385e-02 1.958422362804412842e-02 4.588419105857610703e-03
-2.388723753392696381e-02 -5.304342135787010193e-02 -3.484796360135078430e-02
-1.402618456631898880e-02 -2.117052301764488220e-02 -7.422927767038345337e-02
1.508844736963510513e-02 1.009227940812706947e-03 3.172292932868003845e-02
-2.847957424819469452e-02 -2.857504785060882568e-02 -3.120037354528903961e-02
3.529234230518341064e-02 -2.653276547789573669e-02 -2.735870424658060074e-03
1.365792099386453629e-02 -8.752455003559589386e-03 -1.812240481376647949e-02
9.086857736110687256e-02 6.143672764301300049e-02 3.114677034318447113e-02
5.998819693922996521e-02 -7.752188015729188919e-03 3.452890319749712944e-03
7.946175336837768555e-02 2.209108881652355194e-02 7.646239362657070160e-03
9.022971615195274353e-03 -1.217193063348531723e-02 -8.005810901522636414e-03
-2.233112789690494537e-02 -9.729088284075260162e-03 2.082268241792917252e-03
-1.998966373503208160e-02 -5.990205332636833191e-03 -3.315888345241546631e-02
-3.424803167581558228e-02 2.203355776146054268e-03 3.349358960986137390e-02
-3.047848679125308990e-02 -1.892328448593616486e-02 -1.082329731434583664e-02
-4.189172014594078064e-02 2.435181476175785065e-02 -1.579094491899013519e-02
-1.572220586240291595e-02 1.312475744634866714e-02 6.855309475213289261e-03
-5.016383901238441467e-02 1.882371492683887482e-02 -1.503775082528591156e-02
3.575925156474113464e-02 3.156969323754310608e-02 1.418126095086336136e-02
1.166755054146051407e-02 2.199428528547286987e-02 4.137734696269035339e-02
-1.347657442092895508e-01 -3.560454770922660828e-02 -4.709002748131752014e-02
-3.992854058742523193e-02 1.415074802935123444e-03 4.178091138601303101e-02
8.022965490818023682e-02 -1.054010353982448578e-02 1.298645511269569397e-03
-1.539491862058639526e-02 1.153659634292125702e-02 2.015888132154941559e-02
3.955034911632537842e-02 5.409266799688339233e-03 -2.073563227895647287e-04
2.321378141641616821e-02 2.798989042639732361e-02 3.614166378974914551e-02
7.392928004264831543e-02 1.299479790031909943e-02 -3.398106619715690613e-02
-4.409027472138404846e-02 4.123683646321296692e-02 1.357929594814777374e-02
-2.552785165607929230e-02 -5.466880649328231812e-02 -6.069831550121307373e-02
-2.591839991509914398e-02 -4.193758650217205286e-04 -6.691847927868366241e-03
1.235853433609008789e-01 8.817608468234539032e-03 5.206497013568878174e-02