4.730071127414703369e-02
3.145796433091163635e-02
-3.176765888929367065e-02
1.532091386616230011e-02
1.433119326829910278e-01
-1.993698626756668091e-02
1.884349808096885681e-02
-7.407754659652709961e-03
1.434173528105020523e-02
1.534004211425781250e-01
3.854589536786079407e-02
-2.669643796980381012e-02
4.365269839763641357e-02
3.902811184525489807e-02
-2.232757583260536194e-02
-2.376805990934371948e-02
3.298462554812431335e-02
6.807761639356613159e-02
5.248461663722991943e-02
-5.174171924591064453e-02
-9.013240225613117218e-03
9.868308156728744507e-02
9.031443856656551361e-03
1.218469999730587006e-02
2.007547952234745026e-02
5.749963968992233276e-02
5.226670578122138977e-02
5.164475180208683014e-03
-5.074622109532356262e-02
8.083964884281158447e-02
1.388453238178044558e-04
-1.022157538682222366e-02
6.282473355531692505e-02 3.026630543172359467e-02 1.396933663636445999e-02
-4.243058338761329651e-02 1.278738491237163544e-02 1.048798207193613052e-02
-1.027395725250244141e-01 -7.646737992763519287e-02 -2.381058596074581146e-02
-1.621029339730739594e-03 -3.975903987884521484e-02 -2.855468355119228363e-02
6.622170656919479370e-02 -4.037535563111305237e-02 -7.807989418506622314e-02
4.401806369423866272e-02 5.091070383787155151e-02 5.232555046677589417e-02
-5.440650135278701782e-02 -9.022720158100128174e-03 3.020722977817058563e-02
5.741343367844820023e-03 1.648069173097610474e-02 2.532789483666419983e-03
-8.880874514579772949e-02 -5.948824435472488403e-02 4.081988881807774305e-04
-1.997116580605506897e-02 -5.379077512770891190e-03 -1.768153905868530273e-02
-7.863639853894710541e-03 -2.583962492644786835e-02 -1.226986106485128403e-02
-1.565407365560531616e-01 -1.296747773885726929e-01 -8.741773664951324463e-02
-1.108171790838241577e-02 5.917668715119361877e-02 6.668459624052047729e-02
3.240764513611793518e-02 1.532823219895362854e-02 4.360867664217948914e-02
-6.106115505099296570e-02 -6.963358726352453232e-03 -1.676201238296926022e-03
7.251756638288497925e-02 1.552368514239788055e-02 4.504603520035743713e-02
-2.412048727273941040e-02 -2.789640054106712341e-02 -3.219053894281387329e-02
-1.260714232921600342e-02 2.370234392583370209e-02 -3.208691778127104044e-04
-5.400798842310905457e-02 -2.011933922767639160e-02 2.283921837806701660e-02
-2.538560889661312103e-02 2.074559405446052551e-02 -2.427031286060810089e-02
-8.593508973717689514e-03 -1.003373973071575165e-02 -4.820147901773452759e-02
-1.720805838704109192e-02 -1.963944640010595322e-03 -6.220315117388963699e-03
-5.008858162909746170e-03 2.326956763863563538e-02 -3.369692713022232056e-02
5.673962179571390152e-03 2.999794296920299530e-02 1.030433736741542816e-02
1.850870624184608459e-02 8.388792164623737335e-03 -2.264044992625713348e-02
-1.140578067861497402e-03 -5.225433781743049622e-02 -1.692730933427810669e-02
-9.090450406074523926e-02 -2.716670744121074677e-02 4.043315351009368896e-02
2.417339570820331573e-02 2.478268742561340332e-02 -5.259979516267776489e-02
5.728972330689430237e-02 -2.205068804323673248e-02 -4.528893530368804932e-02
-3.676102310419082642e-02 -2.790413796901702881e-02 -3.600380197167396545e-02
6.054032221436500549e-02 -2.318269573152065277e-02 1.952948980033397675e-02
9.429136663675308228e-02 1.402998715639114380e-02 -1.059569651260972023e-03
-1.361025776714086533e-02 -3.297020867466926575e-02 -4.145742952823638916e-02
-1.952000707387924194e-02 2.066575177013874054e-02 -2.328366227447986603e-02
4.169102013111114502e-02 1.702974177896976471e-02 -1.185149978846311569e-02
-2.027272805571556091e-02 -5.169122596271336079e-05 2.254494465887546539e-02
1.090103853493928909e-02 2.576977200806140900e-02 -1.285668835043907166e-02
-1.193472184240818024e-02 -9.203615598380565643e-03 -2.188693359494209290e-02
-2.265081368386745453e-02 -2.342388965189456940e-02 3.509646654129028320e-02
1.237407140433788300e-02 8.874353952705860138e-03 -1.869498193264007568e-02
-2.757359668612480164e-02 -3.925687074661254883e-02 -4.471782222390174866e-02
-2.571455575525760651e-02 1.248258724808692932e-02 2.877243980765342712e-02
3.342399001121520996e-02 4.862078279256820679e-02 1.325701270252466202e-02
5.169989913702011108e-02 3.181751444935798645e-02 -6.179118994623422623e-03
7.540748268365859985e-02 4.504653811454772949e-02 3.583464771509170532e-02
-1.877589523792266846e-02 -1.073878910392522812e-02 2.302017249166965485e-02
2.856239676475524902e-02 1.514189131557941437e-02 -2.896259073168039322e-03
-1.779864891432225704e-03 -2.420485205948352814e-02 1.337071135640144348e-02
-2.479858323931694031e-02 -1.604422181844711304e-02 -6.472641136497259140e-03
3.012781962752342224e-02 1.512012351304292679e-02 2.725721709430217743e-02
2.753375284373760223e-02 1.266895607113838196e-02 -2.472526393830776215e-02
2.436949498951435089e-02 2.360371127724647522e-02 -2.547527290880680084e-02
2.130207791924476624e-02 -2.320443466305732727e-02 -7.378460722975432873e-04
-2.741135284304618835e-02 -2.875704132020473480e-02 1.436345861293375492e-03
-7.203987333923578262e-03 1.243301387876272202e-02 4.727993626147508621e-03
1.309596002101898193e-02 -4.555010527838021517e-04 -2.529684267938137054e-02
1.149755623191595078e-02 2.381307445466518402e-02 -7.259100675582885742e-03
2.524168789386749268e-02 2.072160597890615463e-03 -9.393033105880022049e-04
-1.559365261346101761e-02 1.066584233194589615e-02 -8.467579260468482971e-03
-4.022974148392677307e-02 -3.834737092256546021e-02 -3.137299790978431702e-02
4.037822782993316650e-02 -1.545578241348266602e-02 -3.018020652234554291e-02
6.649734079837799072e-02 1.537235919386148453e-02 4.439301788806915283e-03
-6.309628486633300781e-02 -1.342017389833927155e-02 2.889219112694263458e-02
-3.695848584175109863e-02 -3.419967368245124817e-02 1.352203637361526489e-02
1.047409977763891220e-02 1.368150021880865097e-02 -2.157771401107311249e-02
1.714587584137916565e-02 -2.064973115921020508e-02 3.647549822926521301e-02
-2.304455451667308807e-02 -2.189930342137813568e-02 -1.760190352797508240e-02
2.244327589869499207e-02 2.284782193601131439e-02 -1.507383189164102077e-03
-2.150760218501091003e-02 -2.476166235283017159e-03 -2.697212062776088715e-02
-1.688652858138084412e-02 -2.143351733684539795e-02 4.662425722926855087e-03
2.229668758809566498e-02 -1.055573462508618832e-03 -9.264169260859489441e-03
2.906917594373226166e-02 -5.171156022697687149e-03 5.679524503648281097e-03
2.558394521474838257e-02 2.859927155077457428e-02 -1.090215402655303478e-03
-1.622814871370792389e-02 -2.199815399944782257e-02 1.691810437478125095e-03
5.133504047989845276e-03 3.806977998465299606e-03 1.091800257563591003e-02
1.717474870383739471e-02 7.795989047735929489e-03 1.639420352876186371e-02
6.921317428350448608e-03 9.269737638533115387e-04 -2.160813659429550171e-02
9.080162271857261658e-03 -2.352408692240715027e-02 2.655639126896858215e-02
2.448065765202045441e-02 -1.305440440773963928e-02 9.169744327664375305e-03
1.936192251741886139e-02 2.861144021153450012e-02 -5.282328464090824127e-03
6.627219729125499725e-03 -9.944178164005279541e-03 -1.517381332814693451e-02
-2.038727328181266785e-02 -3.016479313373565674e-02 -1.871676184237003326e-02
-2.409485168755054474e-02 -7.227243855595588684e-03 1.293848617933690548e-04
-6.498988950625061989e-04 1.575913093984127045e-02 1.052339933812618256e-02
2.279684692621231079e-02 4.107407480478286743e-02 2.529872581362724304e-02
-1.549755129963159561e-02 -6.806156132370233536e-03 2.366594783961772919e-02
3.388778772205114365e-03 -1.737376116216182709e-02 -3.255244344472885132e-03
2.376446872949600220e-02 1.550779026001691818e-02 -1.756280660629272461e-02
-1.933186687529087067e-02 8.986871689558029175e-03 -7.275927811861038208e-03
-1.091580372303724289e-02 -3.050816431641578674e-02 1.943302457220852375e-03
-1.808046735823154449e-02 1.124825328588485718e-02 2.545596472918987274e-02
4.391607828438282013e-03 1.838067732751369476e-02 -2.671005018055438995e-02
-2.388906106352806091e-02 -2.891184017062187195e-02 2.052126917988061905e-03
1.381619274616241455e-02 -2.902264334261417389e-02 2.936381660401821136e-02
-1.313777454197406769e-02 -7.858303375542163849e-03 -2.410049363970756531e-02
-1.325295213609933853e-02 6.962350104004144669e-03 -6.396293640136718750e-03
-1.426847651600837708e-02 2.109463792294263840e-03 -3.580225259065628052e-02
1.382912974804639816e-02 1.167736109346151352e-02 -2.982453443109989166e-02
-1.632685214281082153e-02 -9.210585849359631538e-04 2.689572796225547791e-02
3.217177093029022217e-02 -2.048951759934425354e-02 2.937784604728221893e-02
3.596688061952590942e-02 1.100072637200355530e-02 -2.152952365577220917e-02
-2.117849141359329224e-02 -1.421913690865039825e-02 -2.001818642020225525e-02
-3.129407390952110291e-02 3.128452599048614502e-02 1.061234716325998306e-02
-5.321935191750526428e-02 -5.728266388177871704e-02 -3.751733107492327690e-03
-4.596984013915061951e-02 -3.309063613414764404e-02 8.499080315232276917e-03
8.836135268211364746e-03 1.540826074779033661e-02 3.521167440339922905e-03
1.585627906024456024e-02 7.478381972759962082e-03 7.591533474624156952e-03
1.542354747653007507e-02 -1.407106034457683563e-02 2.007454074919223785e-02
1.359295099973678589e-02 1.889329962432384491e-02 3.586205467581748962e-02
2.380947023630142212e-02 3.029111400246620178e-02 2.225868776440620422e-02
-6.803581956773996353e-03 1.287486776709556580e-02 -6.611060816794633865e-03
-3.206255286931991577e-02 -2.103750221431255341e-02 -5.060979165136814117e-03
1.797191053628921509e-02 -1.677271351218223572e-02 1.227597426623106003e-02
6.169566512107849121e-02 1.598661206662654877e-02 7.911777496337890625e-02
-9.989198297262191772e-03 -2.935957349836826324e-02 2.047189511358737946e-02
-2.758368849754333496e-02 -6.779822055250406265e-03 -2.119143679738044739e-02
-1.553183048963546753e-02 2.907249843701720238e-03 -2.898546122014522552e-02
-2.770329080522060394e-02 3.875504946336150169e-03 -3.004163317382335663e-02
-1.043778611347079277e-03 2.538327127695083618e-02 -2.524860017001628876e-02
2.684096992015838623e-02 -4.270968586206436157e-02 -2.289192937314510345e-02
2.165927551686763763e-02 1.955993846058845520e-02 5.990445148199796677e-03
2.817636821419000626e-03 -1.791206374764442444e-02 1.756442710757255554e-02
1.190778426826000214e-02 4.866800829768180847e-02 -2.317372150719165802e-02
6.969843991100788116e-03 -4.266532137989997864e-03 1.919733919203281403e-02
7.646790146827697754e-02 4.720275476574897766e-02 1.611463166773319244e-02
-8.632638491690158844e-03 3.361632674932479858e-02 5.682611465454101562e-02
-7.124014198780059814e-03 -5.454881582409143448e-03 -2.705939300358295441e-02
8.111059665679931641e-02 9.023741818964481354e-03 3.472285345196723938e-02
-8.136513084173202515e-02 -4.811021685600280762e-02 -3.425162285566329956e-02
5.452194251120090485e-03 1.684229075908660889e-02 2.339312061667442322e-02
3.172684088349342346e-02 6.141932681202888489e-02 6.615123897790908813e-02
3.937077522277832031e-02 5.974926427006721497e-02 3.590222448110580444e-02
4.144500568509101868e-02 -2.796771191060543060e-02 -5.580407753586769104e-02
-4.823881760239601135e-02 -6.992305815219879150e-02 -8.501846343278884888e-02
3.094938769936561584e-02 1.757629774510860443e-02 3.562877699732780457e-02
-5.263300240039825439e-02 -3.886482119560241699e-02 -4.688417539000511169e-02
2.554891165345907211e-03 6.675435230135917664e-03 1.569201610982418060e-02
-6.289851665496826172e-02 6.403221283107995987e-03 1.377581711858510971e-02
-2.868813276290893555e-02 4.544427618384361267e-02 6.164585798978805542e-02
1.921732425689697266e-01 2.101439982652664185e-01 2.441980242729187012e-01
1.017609424889087677e-02 4.890703409910202026e-02 1.156209409236907959e-01
-4.446969553828239441e-02 -3.815111145377159119e-02 -7.289371639490127563e-02
-6.942330859601497650e-03 3.578631952404975891e-02 5.573734268546104431e-02
-5.759707093238830566e-02 -6.509159505367279053e-02 -7.813812792301177979e-02
5.272706039249897003e-03 -1.131139975041151047e-02 -1.483124494552612305e-02
-3.516522422432899475e-02 -2.447545155882835388e-02 -1.395512223243713379e-01
4.658367112278938293e-02 2.018220536410808563e-02 6.537602841854095459e-02
-1.694536884315311909e-03 2.344390936195850372e-02 3.016128391027450562e-02
4.084218665957450867e-02 3.120685741305351257e-02 1.409055106341838837e-02
4.263264685869216919e-02 -7.633713074028491974e-03 4.741178452968597412e-02
-1.441457681357860565e-02 4.382776841521263123e-02 1.364620286040008068e-03
-3.114421106874942780e-02 -1.658681407570838928e-02 -5.127470567822456360e-02
3.217552602291107178e-02 1.493865717202425003e-02 1.972505822777748108e-02
4.059782624244689941e-02 -6.934340111911296844e-03 4.573478549718856812e-02
2.309655956923961639e-02 -1.645738258957862854e-02 5.955459922552108765e-02
2.459825575351715088e-02 -1.384754944592714310e-02 -3.816019371151924133e-02
3.671457991003990173e-02 4.292736575007438660e-02 -4.138754215091466904e-03
-1.555909775197505951e-02 1.235274784266948700e-02 3.910381346940994263e-02
3.609111160039901733e-02 -2.582934498786926270e-02 -4.584901034832000732e-02
5.573519691824913025e-02 -3.640012815594673157e-02 -9.937344491481781006e-02
1.488763745874166489e-02 -8.306179195642471313e-03 2.950247004628181458e-02
5.446423310786485672e-03 3.894045716151595116e-03 1.777609251439571381e-02
2.282427251338958740e-02 1.127678807824850082e-02 3.142956178635358810e-03
-1.442578621208667755e-02 -1.500854082405567169e-02 6.371603347361087799e-03
-2.545725181698799133e-02 -3.618527576327323914e-02 -2.184269763529300690e-02
2.100179158151149750e-02 2.137909270823001862e-02 -1.420701108872890472e-02
-2.222460322082042694e-02 -2.271328354254364967e-03 -1.935463771224021912e-02
9.941219352185726166e-03 -1.289441715925931931e-02 9.406800381839275360e-03
1.219450403004884720e-02 2.014954946935176849e-02 -4.660950973629951477e-03
-5.749630276113748550e-03 -4.516093526035547256e-03 -2.484522759914398193e-02
7.887160405516624451e-03 -2.891481108963489532e-02 -1.880267634987831116e-02
2.519480511546134949e-02 5.193930584937334061e-03 8.362815715372562408e-03
7.421582937240600586e-03 -4.110113251954317093e-03 -2.202867344021797180e-02
2.198384702205657959e-02 1.001484878361225128e-02 2.146995440125465393e-02
-2.069129794836044312e-02 -1.037760265171527863e-02 5.988802760839462280e-03
-2.076223492622375488e-02 -7.663168478757143021e-03 1.881553046405315399e-02
6.095331162214279175e-03 -2.984340116381645203e-02 -2.591807581484317780e-02
-3.049627318978309631e-02 -1.038337219506502151e-02 -2.345165610313415527e-02
1.358018815517425537e-02 -7.040875498205423355e-03 -2.201834926381707191e-03
3.995880484580993652e-03 1.902395300567150116e-02 -2.877615764737129211e-02
2.358358586207032204e-03 -6.745134014636278152e-03 2.290882542729377747e-02
2.950062602758407593e-02 -1.242362055927515030e-02 1.110516209155321121e-02
-1.922351494431495667e-02 4.956472199410200119e-03 2.533289045095443726e-02
6.462122313678264618e-03 -2.340203523635864258e-02 -1.124141272157430649e-02
1.783782802522182465e-02 -2.838701568543910980e-02 -1.958884671330451965e-02
1.439047418534755707e-02 -1.430545933544635773e-02 1.163258682936429977e-02
-1.297063380479812622e-02 1.717572659254074097e-02 4.459804855287075043e-03
1.801914349198341370e-02 1.211780961602926254e-02 -6.870721932500600815e-03
1.456536818295717239e-02 -2.255975827574729919e-02 -1.781737245619297028e-02
1.549894455820322037e-02 -2.519775182008743286e-03 -8.017280139029026031e-03
-1.167697086930274963e-02 -2.241861447691917419e-02 -3.043138980865478516e-02
-9.343268349766731262e-03 1.018865685909986496e-02 2.094120159745216370e-02
-4.067600518465042114e-02 2.885754685848951340e-03 -4.237422347068786621e-02
-2.615646272897720337e-02 -1.370969600975513458e-02 -1.862508244812488556e-02
-1.784119382500648499e-02 -3.277768567204475403e-02 -2.697410993278026581e-02
-1.558396592736244202e-02 -1.474250806495547295e-03 1.194331701844930649e-02
-4.099941626191139221e-02 5.975033156573772430e-03 9.341035038232803345e-03
5.009076371788978577e-02 5.469964444637298584e-02 2.890132553875446320e-02
3.614023153204470873e-04 -1.357456296682357788e-02 6.259724032133817673e-03
5.724268034100532532e-03 -3.505300497636198997e-03 2.679592929780483246e-02
-1.655693352222442627e-02 2.312817983329296112e-02 -1.057471428066492081e-02
2.389400964602828026e-03 3.805787861347198486e-02 3.117134049534797668e-02
5.551944021135568619e-03 -9.203555993735790253e-03 3.503879299387335777e-03
-2.212993055582046509e-02 1.599653065204620361e-02 3.898454830050468445e-02
2.444661594927310944e-02 2.534696832299232483e-03 5.215526744723320007e-02
-4.014020413160324097e-02 -8.496116846799850464e-03 -1.894590631127357483e-02
-6.202329415827989578e-03 -3.297163546085357666e-02 2.713845670223236084e-02
-2.897227182984352112e-02 1.106515992432832718e-03 -1.615154929459095001e-02
3.296477347612380981e-02 3.212352842092514038e-02 2.230451442301273346e-02
5.688989069312810898e-03 3.234565630555152893e-02 1.651462540030479431e-02
-7.200019899755716324e-03 3.014328517019748688e-02 2.679294534027576447e-02
5.029059946537017822e-03 -9.164123795926570892e-03 4.525449592620134354e-03
9.605724364519119263e-03 -2.853601053357124329e-02 -6.410843692719936371e-03
1.280858181416988373e-02 -1.323093380779027939e-02 3.775607096031308174e-03
-1.217278651893138885e-02 3.723734291270375252e-03 -2.561695687472820282e-02
-8.363626897335052490e-03 4.228573292493820190e-03 1.566674001514911652e-02
-3.060224466025829315e-03 5.431625526398420334e-03 1.116048172116279602e-02
-2.725826390087604523e-02 -1.765080168843269348e-02 4.913234617561101913e-03
-3.775184229016304016e-02 1.677172631025314331e-02 -7.481827633455395699e-04
-2.543034404516220093e-02 3.831525146961212158e-02 1.932833401951938868e-04
8.606928400695323944e-03 -3.096924163401126862e-03 2.610420063138008118e-02
-2.991362288594245911e-02 -3.402896225452423096e-02 -3.222748637199401855e-02
2.228994667530059814e-02 -1.776298135519027710e-02 4.690800327807664871e-03
3.457842022180557251e-02 1.459627784788608551e-02 -1.103298459202051163e-02
-1.890622638165950775e-02 1.281437277793884277e-02 1.402632053941488266e-02
-3.226540982723236084e-03 2.340385131537914276e-02 -2.582356100901961327e-04
-3.504433203488588333e-03 -1.125058811157941818e-02 1.522340625524520874e-02
-2.289431635290384293e-03 -2.439325908198952675e-03 3.259979654103517532e-03
-1.829168759286403656e-02 -2.281141467392444611e-02 -9.276820346713066101e-03
-2.140190824866294861e-02 2.948003076016902924e-02 -2.610428258776664734e-02
2.942579612135887146e-02 3.247914090752601624e-02 -1.610185950994491577e-02
4.511031322181224823e-03 -5.515401251614093781e-03 2.485819160938262939e-02
-7.740810513496398926e-03 2.098309434950351715e-02 2.620843984186649323e-02
2.171097509562969208e-02 -2.006527967751026154e-02 -2.296981029212474823e-02
1.017452497035264969e-02 -1.653703860938549042e-02 -1.212363224476575851e-02
7.697829511016607285e-03 1.935667172074317932e-02 2.061174996197223663e-02
-2.159546501934528351e-02 -3.035656735301017761e-02 5.550032015889883041e-03
-2.484040148556232452e-02 -1.318702194839715958e-02 -2.369168912991881371e-03
-6.636359612457454205e-04 -9.255808778107166290e-03 2.673260308802127838e-02
-2.178161591291427612e-02 -2.208885969594120979e-03 -6.896599661558866501e-03
6.874979007989168167e-03 5.293843802064657211e-03 3.111065365374088287e-02
-1.048560533672571182e-02 8.259952068328857422e-03 -2.204369939863681793e-02
4.866738803684711456e-03 2.350790612399578094e-02 1.729879295453429222e-03
-7.895430549979209900e-03 -1.720019057393074036e-02 1.173773873597383499e-02
-7.869769819080829620e-03 -8.042145520448684692e-03 3.795574419200420380e-03
3.191330656409263611e-02 -1.673098094761371613e-02 2.335624955594539642e-02
-2.186322771012783051e-02 -1.624834723770618439e-03 2.483006380498409271e-02
-8.486226201057434082e-03 2.240665443241596222e-02 -1.500084158033132553e-02
-2.621908672153949738e-02 -4.564453382045030594e-03 2.873343788087368011e-02
-1.417048089206218719e-02 -3.666726406663656235e-03 -1.743077486753463745e-02
-2.245462872087955475e-02 2.067964710295200348e-02 1.488640345633029938e-02
-3.328076098114252090e-03 3.028405085206031799e-02 -3.019256144762039185e-02
-1.830023340880870819e-02 -2.811364457011222839e-02 1.952749304473400116e-02
3.050966002047061920e-02 1.683399081230163574e-02 -5.027241422794759274e-04
-2.560484781861305237e-02 2.774943225085735321e-02 1.351694390177726746e-02
2.735271118581295013e-02 -2.865582145750522614e-02 1.513536833226680756e-02
-6.617432832717895508e-02 -6.226402521133422852e-02 -2.260291948914527893e-02
-1.658434234559535980e-02 9.418168105185031891e-03 1.483951415866613388e-02
3.729924187064170837e-02 3.743385896086692810e-02 5.930406600236892700e-02
4.473198577761650085e-02 1.883725263178348541e-02 5.135674029588699341e-02
-2.233716659247875214e-02 -1.222372427582740784e-02 3.727607429027557373e-02
-2.522414550185203552e-02 -3.384543582797050476e-02 5.668258760124444962e-03
2.032512985169887543e-02 7.601459510624408722e-03 2.060576155781745911e-02
-2.360159158706665039e-02 -7.202383130788803101e-02 -7.578359544277191162e-02
-2.095439657568931580e-02 -9.677888010628521442e-05 -5.131772905588150024e-02
2.158422768115997314e-02 -4.175910260528326035e-03 1.035505905747413635e-02
4.114342480897903442e-02 -6.088769529014825821e-03 1.067483238875865936e-02
3.089423477649688721e-02 5.908675119280815125e-02 4.990744218230247498e-02
4.541709274053573608e-02 1.784871891140937805e-02 3.594499081373214722e-02
-3.079109452664852142e-02 -2.399571239948272705e-02 -9.305133135057985783e-04
6.071260571479797363e-02 8.365815877914428711e-02 5.492696166038513184e-02
3.932177089154720306e-03 2.501483820378780365e-02 1.301053818315267563e-02
4.380967840552330017e-02 7.158841937780380249e-02 6.342896819114685059e-02
6.644491106271743774e-02 6.955972313880920410e-02 8.735466748476028442e-02
-2.213810011744499207e-02 3.308795765042304993e-02 1.116588432341814041e-02
1.869202032685279846e-02 2.216823585331439972e-02 1.287667360156774521e-02
1.955707184970378876e-02 1.924705691635608673e-03 -6.393922492861747742e-03
4.167069494724273682e-02 -1.415413897484540939e-02 2.029739879071712494e-02
2.481322735548019409e-02 -2.005509473383426666e-02 -8.215002715587615967e-03
-3.074998408555984497e-02 -2.130999229848384857e-02 -2.452197484672069550e-02
1.079307571053504944e-01 5.725597590208053589e-02 2.321559749543666840e-02
3.046376258134841919e-02 4.379739239811897278e-02 4.082438349723815918e-02
2.201035059988498688e-02 3.534034267067909241e-02 -4.010164737701416016e-02
3.420060873031616211e-02 -1.239846926182508469e-02 -2.852343395352363586e-02
7.310894131660461426e-02 -3.613169305026531219e-03 -2.077467553317546844e-02
2.328235190361738205e-03 2.065153326839208603e-03 2.972195111215114594e-02
-8.264771848917007446e-02 -3.752240166068077087e-02 -9.637859649956226349e-03
5.251993983983993530e-02 3.152603283524513245e-02 2.049510739743709564e-02
-2.481080964207649231e-02 3.897804766893386841e-02 1.629680395126342773e-02
-5.460990592837333679e-02 -4.302350059151649475e-02 -4.413863271474838257e-02
-1.588313281536102295e-01 -7.320055365562438965e-02 -1.239130198955535889e-01
-8.658430725336074829e-02 -6.164857745170593262e-02 -9.349147230386734009e-02
1.457802671939134598e-02 -9.492525458335876465e-02 4.795108735561370850e-02
7.888256013393402100e-02 7.776288688182830811e-02 4.008762910962104797e-02
-1.368793398141860962e-01 -5.350164696574211121e-02 -2.698650583624839783e-02
1.947017386555671692e-02 3.936293721199035645e-02 7.008781284093856812e-02
-9.118258208036422729e-02 -2.824606932699680328e-02 -7.919818162918090820e-02
6.431945413351058960e-02 -8.023667335510253906e-02 -8.951048552989959717e-02
4.996167123317718506e-02 5.081373732537031174e-03 5.067854654043912888e-04
-3.474931120872497559e-01 -2.846685051918029785e-01 -2.981862127780914307e-01
7.428794167935848236e-03 1.945890113711357117e-02 1.809135824441909790e-02
4.630127549171447754e-02 2.865787781774997711e-02 7.749772816896438599e-02
-4.449100419878959656e-02 1.022355444729328156e-02 7.920194417238235474e-03
5.437500029802322388e-02 -1.553640794008970261e-02 3.496461361646652222e-02
-5.543395131826400757e-02 -4.800488799810409546e-02 1.046211831271648407e-02
-8.754036575555801392e-02 -1.793317869305610657e-02 1.231404021382331848e-02
-9.392123669385910034e-02 -9.072748012840747833e-03 -4.366559907793998718e-02
-1.721996464766561985e-03 -2.245945855975151062e-02 -3.067819960415363312e-02
-6.082770600914955139e-02 -6.285080313682556152e-02 -3.092665970325469971e-02
-1.616771146655082703e-02 -5.033588781952857971e-02 -4.026497900485992432e-02
1.063547469675540924e-02 -4.326829314231872559e-02 -3.696180880069732666e-02
5.528702959418296814e-02 8.531719446182250977e-02 5.485618859529495239e-02
2.205613628029823303e-02 -4.500246793031692505e-02 -5.668930709362030029e-02
-8.108541369438171387e-02 -5.935826152563095093e-02 -5.313631892204284668e-02
-8.398070186376571655e-02 1.082069799304008484e-02 -4.480684548616409302e-02
6.813590228557586670e-02 -6.931606912985444069e-04 6.885008513927459717e-02
1.452218890190124512e-01 -9.688284248113632202e-03 -7.042834907770156860e-02
-8.423142135143280029e-02 -4.842455498874187469e-03 -6.325488537549972534e-02
5.947862938046455383e-02 2.168611064553260803e-02 -2.251780126243829727e-03
3.002707846462726593e-02 -1.351900994777679443e-01 -2.338417991995811462e-02
5.944376811385154724e-03 -7.477018982172012329e-03 1.096468884497880936e-02
-3.628532215952873230e-02 -1.793580502271652222e-02 -1.199266407638788223e-02
-5.203601345419883728e-02 2.903862390667200089e-03 1.427473034709692001e-02
2.160652540624141693e-02 2.278004772961139679e-02 -2.781741879880428314e-02
1.545601617544889450e-02 -2.433137968182563782e-02 3.451744094491004944e-02
-9.707980789244174957e-03 -6.491884123533964157e-03 -1.907029189169406891e-02
-3.853834792971611023e-02 3.538535209372639656e-03 3.372242499608546495e-04
2.899744920432567596e-02 -5.922397598624229431e-03 -1.285060867667198181e-02
-7.176644168794155121e-03 2.698285505175590515e-02 3.148721531033515930e-02
5.047567933797836304e-02 -4.104685503989458084e-03 -1.161948870867490768e-02
-2.484607137739658356e-02 -2.391383796930313110e-02 -5.395127460360527039e-03
-9.351628273725509644e-02 -8.453866094350814819e-02 -9.071401506662368774e-02
7.887606509029865265e-03 -1.844786107540130615e-02 3.771673073060810566e-04
3.059377148747444153e-02 2.146637067198753357e-02 4.452859610319137573e-02
7.029772736132144928e-03 4.537958651781082153e-03 2.540421858429908752e-02
3.740553185343742371e-02 5.730022117495536804e-02 5.754178855568170547e-03
3.794147446751594543e-02 1.414456591010093689e-02 -4.144261125475168228e-03
5.216872785240411758e-03 3.805264085531234741e-02 3.081425651907920837e-02
-3.334347531199455261e-02 1.091521792113780975e-02 5.447462201118469238e-03
-1.229451689869165421e-02 -2.524867653846740723e-02 1.372366771101951599e-02
3.883273806422948837e-03 -4.372007772326469421e-02 -2.965440414845943451e-02
-2.538996003568172455e-02 -3.503956645727157593e-02 4.412951879203319550e-03
1.859378418885171413e-03 -9.429163299500942230e-03 -1.769253239035606384e-02
1.170895062386989594e-02 4.420651495456695557e-02 7.442509755492210388e-03
1.337202824652194977e-02 2.874678373336791992e-02 -1.422275090590119362e-03
-8.896331302821636200e-03 1.336680725216865540e-02 -2.145995572209358215e-02
2.106853947043418884e-02 2.288492955267429352e-02 1.777003519237041473e-03
2.314773201942443848e-02 1.197434961795806885e-02 -1.383053255267441273e-03
2.645777538418769836e-02 1.262875087559223175e-02 -5.628815852105617523e-03
-4.368528351187705994e-02 -2.244739793241024017e-02 -1.249250024557113647e-03
5.490407813340425491e-03 1.586543582379817963e-02 5.112019367516040802e-03
3.580056503415107727e-02 -4.544825106859207153e-02 4.906758666038513184e-02
-2.163453027606010437e-02 -2.288353629410266876e-02 2.822226658463478088e-02
2.438043011352419853e-03 -1.521301828324794769e-02 2.262143604457378387e-02
-2.321608178317546844e-02 2.432426996529102325e-02 -1.325043104588985443e-02
-1.554428320378065109e-02 -1.232003048062324524e-02 -2.287511527538299561e-02
2.848818898200988770e-03 -2.399638108909130096e-02 -3.468735888600349426e-02
-1.813490502536296844e-02 -5.984592717140913010e-03 -5.702313501387834549e-03
1.578104682266712189e-02 -7.024267688393592834e-03 9.142438881099224091e-03
-2.429756708443164825e-02 -1.757611986249685287e-03 -1.276312686968594790e-04
-2.565527893602848053e-02 1.956661231815814972e-02 -6.845677737146615982e-03
-1.309978310018777847e-02 -1.172072626650333405e-02 -3.074412979185581207e-02
-1.337604690343141556e-02 1.897932216525077820e-02 -2.156179165467619896e-03
-5.546492524445056915e-03 -8.472439949400722980e-04 3.350682556629180908e-03
2.998012676835060120e-02 -2.505764178931713104e-02 -1.171325705945491791e-02
1.094185374677181244e-02 -1.305132079869508743e-02 2.960226032882928848e-03
1.495372038334608078e-02 -1.526215858757495880e-02 2.732335962355136871e-02
-7.140590809285640717e-03 -2.215957827866077423e-02 -3.152414038777351379e-02
2.903638035058975220e-02 2.565703541040420532e-02 8.932987228035926819e-03
-2.611033432185649872e-02 -1.491872314363718033e-02 1.609470508992671967e-02
4.795393906533718109e-03 -2.319427952170372009e-02 3.789419773966073990e-03
2.225420810282230377e-02 -5.756995640695095062e-03 2.114656753838062286e-02
3.648484125733375549e-02 3.182104229927062988e-02 6.058537401258945465e-03
-2.251344267278909683e-03 3.350012004375457764e-02 3.144096955657005310e-02
7.267660927027463913e-03 -2.051899954676628113e-02 -1.491851173341274261e-02
2.417938038706779480e-02 -3.774680430069565773e-03 -1.332583371549844742e-02
-2.714974060654640198e-02 1.524408441036939621e-02 1.748848333954811096e-02
2.487086690962314606e-02 1.185641624033451080e-02 -2.767288684844970703e-02
-1.524770725518465042e-02 -5.070054903626441956e-03 8.681528270244598389e-03
1.441171858459711075e-02 9.425672702491283417e-03 -2.350451610982418060e-02
-5.847491323947906494e-03 -3.307284787297248840e-02 -1.530217193067073822e-02
1.410927996039390564e-02 1.971361041069030762e-02 1.088871434330940247e-02
-4.419128876179456711e-03 -1.888534985482692719e-02 2.492749691009521484e-02
5.707012489438056946e-03 -3.763309866189956665e-02 6.431720219552516937e-03
-3.139853104948997498e-02 -2.703752368688583374e-02 -4.925090447068214417e-02
-2.679622359573841095e-02 -3.058814257383346558e-02 8.081936975941061974e-04
1.498187705874443054e-02 -5.120341200381517410e-03 3.654186427593231201e-02
1.292054168879985809e-02 2.537268912419676781e-03 1.796499267220497131e-02
1.218184828758239746e-02 -2.186109311878681183e-02 1.461157668381929398e-02
-4.338553175330162048e-02 -8.855537325143814087e-02 -4.782216995954513550e-02
2.257314510643482208e-03 9.678956121206283569e-03 -7.524513639509677887e-03
-4.344462230801582336e-02 -4.915535822510719299e-02 -2.282366156578063965e-02
-2.752151153981685638e-02 -1.109934132546186447e-02 -1.234481926076114178e-03
-2.372856624424457550e-02 3.625517245382070541e-03 -1.726597733795642853e-02
1.950181834399700165e-02 1.002560369670391083e-02 4.588763043284416199e-02
6.720218807458877563e-02 9.846963733434677124e-02 1.154762953519821167e-01
-2.516196854412555695e-02 5.025194212794303894e-02 5.147090926766395569e-02
-3.444574400782585144e-02 3.287631087005138397e-03 -4.151714034378528595e-03
4.456880688667297363e-02 7.337802648544311523e-02 7.346247881650924683e-02
-4.354008659720420837e-02 -6.123929098248481750e-02 -4.996367916464805603e-02
-2.693481184542179108e-02 8.001684211194515228e-03 2.186969667673110962e-02
1.573038659989833832e-02 -5.432200804352760315e-02 -6.678782403469085693e-02
4.142660647630691528e-03 -4.569931887090206146e-03 8.561256341636180878e-03
-2.822146750986576080e-02 -2.808259800076484680e-02 -2.933170646429061890e-02
-4.593934863805770874e-04 1.489856932312250137e-02 1.240675989538431168e-02
8.648836985230445862e-03 -4.450128413736820221e-03 -1.587075553834438324e-02
-2.661557681858539581e-02 3.312233090400695801e-02 1.405998412519693375e-02
7.152324542403221130e-04 -3.087040968239307404e-02 -1.758670434355735779e-02
6.778608262538909912e-02 6.152470037341117859e-02 9.228257089853286743e-02
6.408090889453887939e-02 5.406741797924041748e-02 -2.736202673986554146e-03
-8.546360768377780914e-03 1.019065920263528824e-02 5.458395183086395264e-02
4.652019590139389038e-02 -1.241901703178882599e-02 -1.044377870857715607e-02
3.670637682080268860e-02 4.460099618881940842e-03 8.755413000471889973e-05
-6.577903777360916138e-02 -3.325821086764335632e-02 5.081031471490859985e-03
1.607198640704154968e-02 -4.152538254857063293e-02 -9.627646207809448242e-02
8.489359915256500244e-02 -4.206529818475246429e-03 -8.303217589855194092e-02
9.883399121463298798e-03 7.076282054185867310e-03 1.888802833855152130e-02
-1.498357765376567841e-02 -1.300268806517124176e-02 6.356703233905136585e-04
-3.115868568420410156e-02 -4.379492253065109253e-02 -1.135004125535488129e-02
3.041471168398857117e-02 -2.152047492563724518e-02 2.169981040060520172e-02
6.382418423891067505e-02 2.243850380182266235e-02 -1.150276213884353638e-01
1.629874343052506447e-03 4.142590239644050598e-02 1.990685984492301941e-02
-1.492963521741330624e-03 -1.017796527594327927e-02 -2.917028218507766724e-02
-2.505672164261341095e-02 -1.672128774225711823e-02 -2.793231606483459473e-02
6.785281933844089508e-03 -1.834273338317871094e-02 1.801710203289985657e-02
1.118355896323919296e-02 5.530597269535064697e-02 5.463884398341178894e-02
4.119673278182744980e-03 -1.849547401070594788e-02 1.801716722548007965e-02
1.585455611348152161e-02 -8.510312065482139587e-03 3.509986773133277893e-02
-6.066856905817985535e-02 8.343817666172981262e-03 2.077433094382286072e-02
1.275087613612413406e-02 3.387178527191281319e-03 9.976224042475223541e-03
-4.963913932442665100e-02 -6.684310734272003174e-03 1.100742071866989136e-02
1.214467774843797088e-04 2.263909578323364258e-02 -1.261474750936031342e-02
-1.331271976232528687e-02 -8.697430603206157684e-03 4.283260204829275608e-04
-1.001418847590684891e-02 -7.191466167569160461e-03 1.960785314440727234e-02
2.144992165267467499e-02 -2.071530744433403015e-02 -1.467164419591426849e-02
2.596699632704257965e-02 -2.167532220482826233e-02 3.830980509519577026e-03
-1.346360146999359131e-02 -2.090989425778388977e-02 -2.625215984880924225e-02
-2.189723588526248932e-02 -1.972597651183605194e-02 -2.259689942002296448e-02
-2.919437736272811890e-02 -2.584543079137802124e-02 2.809534594416618347e-02
-4.747875500470399857e-03 -3.049587644636631012e-02 9.917287155985832214e-03
-4.836223646998405457e-02 -3.442865610122680664e-02 -1.475311815738677979e-02
1.750402152538299561e-02 -3.317316621541976929e-02 -1.143204700201749802e-02
3.066308796405792236e-02 9.497372433543205261e-03 -1.561602391302585602e-02
7.762899622321128845e-05 6.888909637928009033e-02 -2.032831497490406036e-02
-1.491232775151729584e-02 2.300914749503135681e-02 1.448914688080549240e-02
-5.369950667954981327e-04 2.059366181492805481e-02 3.889187797904014587e-02
6.956814229488372803e-02 2.017998695373535156e-02 2.402560040354728699e-02
-2.567758224904537201e-02 1.395184639841318130e-02 -7.822356373071670532e-02
2.814714983105659485e-02 2.382223680615425110e-02 1.286984886974096298e-02
-1.038698479533195496e-02 -2.124578692018985748e-02 -8.647520095109939575e-03
1.584508427185937762e-04 2.107384987175464630e-02 1.190288178622722626e-02
-2.731934562325477600e-02 2.596554905176162720e-02 2.179303020238876343e-02
-2.200526371598243713e-02 -9.674871340394020081e-03 -2.864651195704936981e-02
-1.173129025846719742e-02 1.023093517869710922e-02 2.227238751947879791e-02
3.127006068825721741e-02 2.108402363955974579e-02 2.676939778029918671e-02
-1.197870075702667236e-02 -1.726825907826423645e-02 -3.307017311453819275e-02
1.365837827324867249e-02 -1.976964296773076057e-03 -7.723164744675159454e-03
3.141875378787517548e-03 -1.375567540526390076e-02 2.942120283842086792e-02
1.567779295146465302e-02 2.455528080463409424e-02 -1.797083579003810883e-02
-1.421285700052976608e-02 1.674184761941432953e-02 -1.637513749301433563e-02
-2.535823360085487366e-02 1.640640012919902802e-02 -2.738869935274124146e-02
3.026117337867617607e-03 2.330837585031986237e-02 3.255989868193864822e-03
-2.238732762634754181e-02 3.332432359457015991e-02 2.484451606869697571e-02
-1.673844642937183380e-02 2.272299863398075104e-02 2.916245907545089722e-02
2.022276446223258972e-02 7.715517655014991760e-03 6.913541816174983978e-03
2.663081279024481773e-03 -2.019888535141944885e-02 -1.082280743867158890e-02
1.467539183795452118e-02 1.415554247796535492e-02 3.669111290946602821e-03
-4.791087470948696136e-03 2.516904659569263458e-02 -7.530038245022296906e-03
4.546754993498325348e-03 -1.294941641390323639e-03 -3.335762536153197289e-03
2.049943897873163223e-03 2.551639080047607422e-02 -2.981213666498661041e-02
2.008953690528869629e-02 -1.999096199870109558e-02 -1.479461137205362320e-02
2.800941932946443558e-03 9.490949101746082306e-03 1.677035237662494183e-03
-2.488398924469947815e-02 -1.908634789288043976e-02 9.154680185019969940e-03
-5.229205824434757233e-03 9.224471636116504669e-03 6.236171815544366837e-03
2.923312596976757050e-02 -1.906052418053150177e-02 -7.016270887106657028e-03
3.021203167736530304e-02 1.925314962863922119e-02 9.250616654753684998e-03
2.207366935908794403e-02 2.748193591833114624e-02 -2.545400336384773254e-02
1.126923225820064545e-02 5.035190843045711517e-03 -2.743320167064666748e-02
2.469388954341411591e-02 -1.413341797888278961e-02 -2.144012972712516785e-02
-1.738278381526470184e-02 6.730479188263416290e-03 -4.379125311970710754e-03
-5.264400504529476166e-03 -1.675989106297492981e-02 2.529351972043514252e-02
1.503379270434379578e-02 -9.254681877791881561e-03 -2.110448479652404785e-02
1.383064687252044678e-02 -6.831250153481960297e-03 1.475941762328147888e-02
3.428175300359725952e-02 -3.544452134519815445e-03 -1.778386346995830536e-02
2.593241073191165924e-02 -7.010462693870067596e-03 6.611977703869342804e-03
-9.626558050513267517e-03 -5.652202758938074112e-03 -4.682526632677763700e-04
-3.029964305460453033e-02 -1.073823496699333191e-02 -5.178151186555624008e-03
-1.770981587469577789e-02 -2.346832863986492157e-02 -1.910424977540969849e-02
-2.750003710389137268e-02 -3.444639267399907112e-03 1.612199284136295319e-02
-3.075109235942363739e-02 1.900531724095344543e-02 -2.092518843710422516e-02
-4.470298998057842255e-03 1.258407998830080032e-02 1.963041350245475769e-02
-2.927178889513015747e-02 1.472666859626770020e-02 9.184161201119422913e-03
2.715452760457992554e-02 9.710321202874183655e-03 -6.965723354369401932e-03
-2.999783493578433990e-02 -1.190722361207008362e-02 2.470070682466030121e-02
3.349871933460235596e-02 3.015344589948654175e-02 2.599208150058984756e-03
-1.014732755720615387e-02 1.814157515764236450e-02 -2.910161204636096954e-02
-2.650200389325618744e-02 2.044992707669734955e-02 1.104587689042091370e-02
2.031090662057977170e-05 -3.117046132683753967e-02 1.099396310746669769e-02
1.513943541795015335e-02 -1.282843016088008881e-02 -2.201393246650695801e-02
-8.365265093743801117e-03 -9.437617845833301544e-03 -2.165901288390159607e-02
6.188844796270132065e-03 7.248715031892061234e-03 -9.959192946553230286e-03
-7.785396184772253036e-03 -4.965663887560367584e-03 4.253921099007129669e-03
-1.502902247011661530e-02 -1.499265339225530624e-02 -2.063653431832790375e-02
5.859137047082185745e-03 -2.510183304548263550e-02 -1.161921769380569458e-02
-1.264941506087779999e-02 1.847211457788944244e-02 -3.114073351025581360e-02
2.708985656499862671e-02 -2.646857127547264099e-02 -1.549734082072973251e-02
2.274512313306331635e-02 1.270857267081737518e-02 -5.285091698169708252e-03
-2.858337946236133575e-02 2.122199535369873047e-02 -2.208651974797248840e-02
9.997905232012271881e-03 2.085965313017368317e-02 3.292194334790110588e-03
2.450030064210295677e-03 -1.857050135731697083e-02 -2.813113480806350708e-02
-5.265107378363609314e-03 -2.887856028974056244e-02 -2.707966789603233337e-02
3.669437393546104431e-02 1.587182097136974335e-02 -2.631387487053871155e-02
-3.977659344673156738e-02 -1.683196239173412323e-02 8.093303069472312927e-03
-2.227350696921348572e-02 2.489636652171611786e-02 -6.458761636167764664e-03
2.825887501239776611e-02 -2.004024013876914978e-02 -1.141323242336511612e-02
-6.241036579012870789e-03 2.726098708808422089e-02 1.424463652074337006e-02
-2.209935151040554047e-02 -4.850428923964500427e-02 -4.682186990976333618e-02
-2.379842288792133331e-02 2.681457810103893280e-02 2.172064967453479767e-02
1.623349823057651520e-02 -2.554910816252231598e-02 2.010922506451606750e-02
8.604729548096656799e-03 6.750217173248529434e-03 -1.452619093470275402e-03
1.268193777650594711e-02 -2.745438180863857269e-02 -1.791412569582462311e-02
-1.753387227654457092e-02 -9.775260463356971741e-03 2.107978984713554382e-02
5.313796177506446838e-02 2.594763180240988731e-03 3.301506862044334412e-02
-2.254511602222919464e-02 -1.490118075162172318e-02 -2.675198577344417572e-02
2.446606196463108063e-02 8.100036531686782837e-03 2.548442967236042023e-02
-4.345954395830631256e-03 2.488638274371623993e-02 -4.778222180902957916e-03
3.962096234317868948e-04 -7.102948613464832306e-03 1.451985538005828857e-02
1.628727419301867485e-03 2.623969316482543945e-02 3.174719400703907013e-03
-1.454458106309175491e-02 9.338710457086563110e-03 3.021373599767684937e-02
2.182796597480773926e-02 -1.129684969782829285e-02 2.853286825120449066e-02
1.617412641644477844e-02 -1.518014445900917053e-02 -4.326031543314456940e-03
-3.268633503466844559e-03 7.946389727294445038e-03 3.555044997483491898e-03
1.484594494104385376e-02 -1.316660363227128983e-02 2.180807292461395264e-02
7.586842402815818787e-03 -3.842331934720277786e-03 1.526489388197660446e-03
-2.942872606217861176e-02 2.755074575543403625e-02 3.019984997808933258e-02
-3.748608753085136414e-02 -3.319486230611801147e-02 -2.477783337235450745e-02
-4.910729476250708103e-04 -5.455564707517623901e-03 -1.932953856885433197e-02
-8.554929867386817932e-03 -2.325316332280635834e-02 3.401873633265495300e-02
4.190458357334136963e-02 -1.900628022849559784e-02 -1.525175943970680237e-02
-2.494765678420662880e-03 6.538596353493630886e-04 1.626403769478201866e-03
6.082744896411895752e-02 5.342871695756912231e-02 1.041503716260194778e-02
7.633319590240716934e-03 -1.955990865826606750e-02 -2.442964352667331696e-02
-5.318897590041160583e-02 -1.852864958345890045e-02 -1.150622684508562088e-02
6.048537790775299072e-02 9.400130249559879303e-03 2.951942384243011475e-02
2.479881234467029572e-02 -1.675082929432392120e-02 -2.071857079863548279e-02
-2.006286755204200745e-02 -5.564956925809383392e-03 4.371339920908212662e-03
-4.205385223031044006e-02 -5.540130287408828735e-02 -6.090600509196519852e-03
1.207049842923879623e-02 -2.929858118295669556e-02 -1.626126281917095184e-02
7.239460013806819916e-03 -9.146087802946567535e-03 1.390323489904403687e-01
4.683239094447344542e-04 -1.564969681203365326e-02 -4.896186292171478271e-02
2.031609910773113370e-04 3.177815675735473633e-02 -1.024206914007663727e-02
4.517513513565063477e-02 2.086062356829643250e-02 1.487060636281967163e-02
-5.468089133501052856e-03 -4.724269360303878784e-02 -4.757503047585487366e-02
4.249487817287445068e-02 3.250651434063911438e-02 -3.795392438769340515e-02
2.564719505608081818e-02 -1.614446938037872314e-02 3.303533419966697693e-02
-8.955901861190795898e-02 -6.163804605603218079e-02 -1.254915744066238403e-01
1.902454718947410583e-02 1.881626248359680176e-02 3.318206593394279480e-02
4.287920892238616943e-02 -1.606734655797481537e-02 3.045172430574893951e-02
3.092196770012378693e-02 3.920083492994308472e-02 -1.009269058704376221e-02
6.169608607888221741e-02 1.625560410320758820e-02 5.858863145112991333e-02
2.693487703800201416e-02 -1.231360249221324921e-02 2.034775540232658386e-02
-1.993104256689548492e-02 -9.547156514599919319e-04 -4.523648694157600403e-02
-2.160093514248728752e-03 9.811292402446269989e-03 -3.301871195435523987e-02
-1.080548670142889023e-02 1.275680307298898697e-02 -2.351355180144309998e-02
-1.357544027268886566e-02 -1.274075265973806381e-02 -2.457436546683311462e-02
-1.209230907261371613e-02 -1.900744624435901642e-02 -8.578168926760554314e-04
-3.299839049577713013e-02 -2.436335198581218719e-04 -3.246397897601127625e-02
4.155496507883071899e-02 3.817139193415641785e-02 -1.886124350130558014e-02
4.013465344905853271e-02 3.413148224353790283e-02 3.776364773511886597e-02
6.922422442585229874e-03 1.970488578081130981e-02 3.241351619362831116e-02
4.087385255843400955e-03 -3.087413962930440903e-03 -1.580530963838100433e-02
5.475640669465065002e-02 4.487848654389381409e-02 5.507716536521911621e-02
-1.887513510882854462e-02 -2.584850788116455078e-02 -1.645213738083839417e-02
-2.423441223800182343e-02 -6.939511001110076904e-02 -8.784265257418155670e-03
-6.671851873397827148e-02 -6.291556358337402344e-02 -3.798302263021469116e-02
2.277734503149986267e-02 1.516588777303695679e-02 1.315610017627477646e-02
-2.892002277076244354e-02 -2.240794524550437927e-02 -2.979206852614879608e-02
1.732561923563480377e-02 -8.191308006644248962e-03 2.338981628417968750e-02
1.774157956242561340e-02 3.872532397508621216e-02 4.747046623378992081e-03
-1.805452257394790649e-02 8.326854556798934937e-03 1.059269066900014877e-02
4.233664833009243011e-03 -5.629331804811954498e-03 7.487956434488296509e-02
2.279490977525711060e-02 -1.179422158747911453e-02 -9.421675466001033783e-03
2.238992415368556976e-02 1.431867666542530060e-02 2.336242981255054474e-02
3.392352024093270302e-03 7.861611433327198029e-03 2.530346997082233429e-02
4.268974438309669495e-02 5.917012318968772888e-02 3.352616354823112488e-02
1.395763712935149670e-03 -6.057202350348234177e-03 -3.879235684871673584e-02
1.217301562428474426e-02 -2.079585194587707520e-02 3.451284393668174744e-02
2.089909650385379791e-02 2.759397961199283600e-02 4.516822285950183868e-03
-3.203741461038589478e-02 -2.336762659251689911e-02 -7.642977871000766754e-03
1.895467191934585571e-02 -2.967231534421443939e-02 -4.500529728829860687e-03
-2.236678078770637512e-02 2.192024886608123779e-02 2.286423230543732643e-03
7.408522069454193115e-03 -1.339303446002304554e-03 -1.023286674171686172e-02
1.504159346222877502e-02 -5.981431342661380768e-03 -2.605960145592689514e-02
-5.802854895591735840e-02 -2.876518294215202332e-03 -6.987323611974716187e-02
-4.898432642221450806e-03 3.840750455856323242e-02 2.143015898764133453e-02
-3.025896660983562469e-02 6.578898523002862930e-03 -2.829341404139995575e-02
-2.016708441078662872e-02 -1.915529184043407440e-02 1.953536830842494965e-02
-2.355565503239631653e-02 -2.311167865991592407e-02 -8.054750971496105194e-03
-1.832104101777076721e-02 1.861893758177757263e-02 1.171869412064552307e-02
4.576666653156280518e-02 1.826518448069691658e-03 -1.844170689582824707e-02
1.406048610806465149e-02 2.977585652843117714e-03 2.084004320204257965e-02
4.553638398647308350e-02 1.127463858574628830e-02 1.717356778681278229e-02
3.028976544737815857e-02 1.171840820461511612e-02 6.777985021471977234e-03
2.242403477430343628e-02 1.432023197412490845e-02 4.026337340474128723e-02
1.093007903546094894e-02 -6.403186172246932983e-02 3.545706626027822495e-03
-1.656368002295494080e-02 2.233762852847576141e-02 -6.182610057294368744e-03
1.225836668163537979e-02 -2.279193140566349030e-02 -2.252268232405185699e-02
5.755021795630455017e-02 2.536092326045036316e-02 1.558344252407550812e-02
4.259563051164150238e-03 2.717187628149986267e-02 4.758906550705432892e-03
2.678516320884227753e-02 9.847981855273246765e-03 3.638729825615882874e-02
1.987085863947868347e-02 2.918878383934497833e-02 1.779809966683387756e-02
3.454344812780618668e-03 -2.028201520442962646e-02 1.251831930130720139e-02
-6.147088017314672470e-03 -4.028124362230300903e-02 -6.241561844944953918e-03
1.615327410399913788e-02 9.027796797454357147e-03 -1.841540820896625519e-02
-1.181267760694026947e-02 1.647884771227836609e-02 -3.006100305356085300e-04
-2.875482663512229919e-02 2.140093967318534851e-02 -2.549433521926403046e-02
2.723699808120727539e-02 2.294680848717689514e-02 2.871038205921649933e-02
-1.045338693074882030e-03 -2.500914223492145538e-02 1.352413091808557510e-02
-2.975378185510635376e-02 -2.400952763855457306e-02 -2.164961583912372589e-02
-2.179959847126156092e-04 -1.581396721303462982e-02 -1.012229174375534058e-02
2.543933503329753876e-02 1.546667795628309250e-02 8.942496606323402375e-06
7.032881840132176876e-04 -2.298351190984249115e-02 7.030214183032512665e-03
1.820204034447669983e-02 -7.548117078840732574e-03 -2.900857478380203247e-03
2.679319493472576141e-02 7.309493608772754669e-03 -1.953201182186603546e-02
1.441451814025640488e-02 3.615186782553792000e-03 -6.941564846783876419e-03
-4.177522659301757812e-02 1.857642270624637604e-02 -1.431409083306789398e-02
-2.893999218940734863e-02 -2.457829751074314117e-02 2.197418548166751862e-02
4.171096719801425934e-03 9.383165277540683746e-03 -8.894961327314376831e-03
1.335348468273878098e-02 2.445582533255219460e-03 -9.621423669159412384e-03
3.653235733509063721e-02 3.738255053758621216e-02 2.054489217698574066e-02
1.990410685539245605e-02 -2.144680917263031006e-02 -1.097569521516561508e-02
2.208708319813013077e-03 -2.625140361487865448e-02 -2.206942811608314514e-02
-3.082417324185371399e-02 1.029705442488193512e-02 -1.845474541187286377e-02
1.201042346656322479e-02 -1.320079807192087173e-02 1.742477528750896454e-02
1.857283525168895721e-02 -4.203654825687408447e-03 9.641248732805252075e-03
-3.798973187804222107e-02 -4.234284535050392151e-02 -1.360150519758462906e-02
7.796145975589752197e-03 -3.304984420537948608e-03 1.230715960264205933e-02
1.269206311553716660e-02 -6.963641382753849030e-03 1.626530475914478302e-02
-1.532487571239471436e-02 1.872184872627258301e-02 2.461801283061504364e-03
-3.825993835926055908e-02 -1.109906751662492752e-02 -3.817748650908470154e-02
3.465677797794342041e-02 -1.242000795900821686e-02 -8.783166296780109406e-03
1.842413283884525299e-02 2.628669328987598419e-02 -1.733466796576976776e-02
-4.551948513835668564e-03 4.541320353746414185e-02 3.418550640344619751e-02
-1.588563248515129089e-02 -2.190783992409706116e-02 2.326351031661033630e-02
-1.366782700642943382e-03 -3.614037483930587769e-02 -1.017920598387718201e-01
-1.795484684407711029e-02 -9.419769980013370514e-03 2.891868352890014648e-02
-8.584011346101760864e-02 -3.565172478556632996e-02 6.702691316604614258e-04
-3.396213054656982422e-02 -2.956501441076397896e-03 -5.178089812397956848e-02
2.946954406797885895e-02 9.033525362610816956e-03 1.395146362483501434e-02
-3.085552155971527100e-02 2.691434510052204132e-02 3.530982136726379395e-02
-2.459601871669292450e-02 -4.018130525946617126e-02 -3.767343610525131226e-02
2.136882208287715912e-02 1.887175813317298889e-02 4.467928782105445862e-03
3.681300580501556396e-02 2.126613259315490723e-02 -3.776096552610397339e-02
-1.914560049772262573e-02 -3.552247956395149231e-02 -3.024383680894970894e-03
4.817196354269981384e-02 1.302676834166049957e-02 -3.884801641106605530e-02
5.527072120457887650e-03 4.031171090900897980e-03 -8.232281543314456940e-03
3.717919066548347473e-02 4.324210062623023987e-02 5.061754956841468811e-02
9.690020233392715454e-02 5.056710913777351379e-02 1.180205568671226501e-01
1.132426597177982330e-02 1.399751566350460052e-02 5.869049578905105591e-03
1.384601928293704987e-02 7.657934445887804031e-03 -9.400418959558010101e-03
5.451572127640247345e-03 -5.945579032413661480e-04 -1.714234985411167145e-02
1.952970959246158600e-02 8.976243436336517334e-03 -2.471603639423847198e-02
-3.153958916664123535e-02 1.057459693402051926e-02 -1.891879737377166748e-02
-3.275786340236663818e-02 -3.562114760279655457e-02 -1.567600667476654053e-02
-7.336971350014209747e-03 -5.592391360551118851e-03 -3.604075312614440918e-02
3.354873973876237869e-03 1.297212147619575262e-04 2.167889475822448730e-02
4.886614903807640076e-02 6.750322645530104637e-04 2.141003310680389404e-02
2.082957327365875244e-02 -7.682903204113245010e-03 -3.195597603917121887e-02
9.624540805816650391e-02 1.712387055158615112e-02 1.290324609726667404e-02
-2.506322041153907776e-02 1.442504930309951305e-03 3.732481971383094788e-02
-1.455513411201536655e-04 -1.382492017000913620e-02 4.878055304288864136e-03
6.713932007551193237e-02 -3.349424153566360474e-02 -4.323833063244819641e-02
-3.771727904677391052e-02 -2.608789131045341492e-02 9.930159896612167358e-03
-4.371630400419235229e-02 -4.138404130935668945e-02 -5.284817516803741455e-02
-3.971042856574058533e-02 -2.439507097005844116e-02 -3.549532219767570496e-02
-2.603697404265403748e-02 -1.257062237709760666e-02 -2.122831530869007111e-02
3.757257387042045593e-02 -4.781995713710784912e-02 6.765419244766235352e-02
-4.660474881529808044e-02 -6.299437582492828369e-02 -9.819241240620613098e-04
2.605853788554668427e-02 1.512999925762414932e-02 5.710029229521751404e-02
9.664419107139110565e-03 -1.756225596182048321e-03 1.570128463208675385e-02
3.867324441671371460e-02 3.004428371787071228e-02 -4.472852498292922974e-02
1.029141433537006378e-02 -5.930141545832157135e-03 -5.412290617823600769e-02
7.411586586385965347e-03 1.656951196491718292e-02 -1.608118764124810696e-03
-1.903599947690963745e-01 -1.787883341312408447e-01 -1.639088988304138184e-01
3.013999573886394501e-02 2.742815390229225159e-02 -1.828019134700298309e-02
5.215662531554698944e-03 1.531124487519264221e-02 4.330239072442054749e-02
-3.431971371173858643e-02 5.168905481696128845e-04 -1.498006284236907959e-02
-7.055859547108411789e-03 1.268532779067754745e-02 -9.117671288549900055e-03
1.963157206773757935e-02 3.348874300718307495e-02 2.861606329679489136e-02
-7.390040904283523560e-02 4.250100464560091496e-04 8.347317576408386230e-03
-1.041738223284482956e-02 5.667253863066434860e-03 -2.591274864971637726e-02
2.261785604059696198e-02 -3.636068105697631836e-02 -2.384445443749427795e-02
-1.764486730098724365e-02 2.621136372908949852e-03 -3.753222897648811340e-02
-4.562004283070564270e-02 -6.836382206529378891e-03 -5.283776298165321350e-02
-2.862079069018363953e-02 -2.876027673482894897e-02 -9.226156398653984070e-03
6.305849552154541016e-02 7.975302636623382568e-02 4.438451305031776428e-02
2.170786634087562561e-02 -2.736489521339535713e-03 1.514809392392635345e-02
-1.051984075456857681e-02 -6.806493736803531647e-03 -1.155454199761152267e-02
-7.537053897976875305e-03 8.606321178376674652e-03 1.682322705164551735e-03
4.461885243654251099e-02 1.565374247729778290e-02 -3.529584500938653946e-03
2.197658084332942963e-02 -6.919911503791809082e-02 -4.254667833447456360e-02
-6.959388405084609985e-02 -2.450826950371265411e-02 -8.865050226449966431e-02
-2.218013629317283630e-02 -4.402485210448503494e-03 1.705870591104030609e-02
1.493739336729049683e-02 -4.103309661149978638e-02 5.520690977573394775e-02
-3.558433847501873970e-03 -8.223031763918697834e-04 -1.977324858307838440e-02
-2.137994021177291870e-02 1.045795436948537827e-02 1.298903394490480423e-02
2.710334397852420807e-02 1.755576767027378082e-02 -1.399111375212669373e-02
-2.551067387685179710e-03 -6.096483673900365829e-03 2.438708208501338959e-02
1.273518986999988556e-02 8.831007406115531921e-03 3.186646103858947754e-02
-8.218188770115375519e-03 6.086193490773439407e-03 2.257644012570381165e-02
-4.824536852538585663e-03 -5.074244923889636993e-03 -1.242993678897619247e-02
4.447465762495994568e-03 -4.829310346394777298e-03 -3.839583368971943855e-03
7.815402001142501831e-03 -2.677716128528118134e-02 -2.003172598779201508e-02
2.578904852271080017e-03 2.591688185930252075e-02 -3.276082873344421387e-02
2.126487903296947479e-02 -1.799349300563335419e-02 -2.349687926471233368e-02
-2.166748605668544769e-02 2.339485660195350647e-02 -1.563981175422668457e-02
3.597605274990200996e-03 7.611619774252176285e-03 5.039750784635543823e-02
1.171552017331123352e-02 2.388372458517551422e-02 -1.913671754300594330e-02
1.899465918540954590e-02 -6.627538707107305527e-03 4.753440152853727341e-03
-2.896778658032417297e-02 1.070098485797643661e-02 -9.475561790168285370e-03
2.169966697692871094e-02 2.951508015394210815e-02 -1.350753195583820343e-02
3.846118599176406860e-02 3.801718354225158691e-02 -1.405513007193803787e-02
-4.852756857872009277e-03 -3.306236758362501860e-04 1.217847969383001328e-02
1.339934766292572021e-02 6.579030887223780155e-04 1.435051322914659977e-03
-2.102296985685825348e-02 -1.566470973193645477e-02 2.169588580727577209e-03
1.957368105649948120e-02 -5.122877657413482666e-03 1.754927448928356171e-02
-1.573397777974605560e-02 -1.882009208202362061e-02 -2.981533482670783997e-02
-2.411216497421264648e-02 1.026559900492429733e-02 8.125641383230686188e-03
-3.478725254535675049e-02 2.110261097550392151e-02 8.589876815676689148e-03
2.506889030337333679e-02 1.797555573284626007e-02 1.791201345622539520e-02
-3.682289272546768188e-02 -3.395128995180130005e-02 -7.520949933677911758e-03
-8.056524209678173065e-03 -2.266795560717582703e-02 -4.239789396524429321e-02
1.142593286931514740e-02 -2.320718765258789062e-02 -1.236390974372625351e-02
3.347081318497657776e-02 8.531835861504077911e-03 3.231372311711311340e-02
2.402123622596263885e-02 2.430680207908153534e-02 -7.272044662386178970e-03
-1.822224073112010956e-02 4.025777056813240051e-02 -2.780775073915719986e-03
-2.430183254182338715e-02 2.832161448895931244e-02 4.220314323902130127e-02
-2.426420338451862335e-03 -3.058442845940589905e-02 6.291673518717288971e-03
2.968813665211200714e-02 2.040924131870269775e-02 -3.226930974051356316e-03
3.087705187499523163e-02 2.460766397416591644e-02 9.271377697587013245e-03
-5.447260662913322449e-02 -1.789856702089309692e-02 2.909949980676174164e-02
-2.924714051187038422e-02 -4.276192933320999146e-02 -2.729292400181293488e-02
-4.154508560895919800e-02 -3.508055955171585083e-02 -3.075300715863704681e-02
-1.741997525095939636e-02 -3.423759341239929199e-02 -7.986467331647872925e-03
-6.448457948863506317e-03 -4.471746459603309631e-02 -1.228302624076604843e-02
-2.418393269181251526e-02 2.123095467686653137e-02 7.791546639055013657e-03
7.285274565219879150e-03 5.554458126425743103e-03 -1.584537886083126068e-02
5.887579172849655151e-02 3.501008078455924988e-02 6.204711273312568665e-03
1.827146188588812947e-04 1.577730849385261536e-02 1.966822706162929535e-02
1.059064362198114395e-02 -3.212705627083778381e-02 2.213552780449390411e-02
3.144222497940063477e-02 4.310371354222297668e-02 9.832096286118030548e-03
-5.994356703013181686e-03 8.526068180799484253e-03 -3.534811362624168396e-02
-2.651300653815269470e-02 -1.421780046075582504e-02 -2.459068037569522858e-02
-2.709164051339030266e-03 3.729361295700073242e-02 1.074212696403264999e-02
2.671414799988269806e-02 -2.439063414931297302e-02 -3.428970649838447571e-02
-9.195445105433464050e-03 -9.677913039922714233e-03 -1.797782257199287415e-02
-2.808703109622001648e-03 8.476638235151767731e-03 -1.102215144783258438e-02
-3.043825365602970123e-02 3.009777516126632690e-02 1.247304026037454605e-02
-1.407274103257805109e-04 1.117421407252550125e-02 -3.430151566863059998e-02
1.791014336049556732e-02 -1.630755141377449036e-02 -2.292319200932979584e-02
-2.467533573508262634e-03 -1.611161977052688599e-02 1.718188263475894928e-02
-1.339155342429876328e-02 -5.374529398977756500e-03 -8.294185623526573181e-03
2.974916994571685791e-02 2.224170044064521790e-02 1.519102789461612701e-02
1.877289079129695892e-02 4.969764873385429382e-02 1.323749683797359467e-02
-5.151015706360340118e-03 3.092076256871223450e-02 3.620853647589683533e-02
-3.845614148303866386e-03 -1.896637678146362305e-02 -2.706237137317657471e-02
-1.514983922243118286e-02 2.000546082854270935e-02 2.160086110234260559e-02
3.410956123843789101e-03 -6.124682724475860596e-03 -2.859972603619098663e-02
1.139246579259634018e-02 4.315617680549621582e-02 1.743346825242042542e-02
4.175212699919939041e-03 -1.796637475490570068e-02 8.656645193696022034e-03
-2.620967850089073181e-02 -2.501981798559427261e-03 -4.807906225323677063e-03
1.700215274468064308e-03 2.179023623466491699e-02 -8.950733579695224762e-03
6.626646220684051514e-02 -1.086464151740074158e-02 2.440440841019153595e-02
-3.133484721183776855e-02 -3.242934122681617737e-02 -1.930475793778896332e-02
-3.415098786354064941e-02 1.980389282107353210e-02 -1.233447156846523285e-02
3.240418061614036560e-02 2.520947903394699097e-02 1.587156206369400024e-02
-5.207015573978424072e-02 -1.863388717174530029e-02 -7.856756448745727539e-03
1.532125379890203476e-02 -3.630456980317831039e-03 -6.199102383106946945e-03
2.319065388292074203e-03 9.339282289147377014e-03 -1.082896371372044086e-03
-2.184655331075191498e-02 -3.285823389887809753e-02 -3.356909751892089844e-02
-9.666798636317253113e-03 -2.130671963095664978e-02 -1.509166043251752853e-02
-1.831579394638538361e-02 2.338625118136405945e-02 3.355984343215823174e-03
-4.147073253989219666e-02 -3.217843128368258476e-03 -1.902540773153305054e-02
4.830719903111457825e-02 1.878716051578521729e-02 3.811052814126014709e-02
2.236798778176307678e-02 2.357952855527400970e-02 -1.489622239023447037e-02
2.136886678636074066e-02 -1.895291171967983246e-02 -5.114411003887653351e-03
-3.481754288077354431e-02 -3.586415201425552368e-02 2.666683495044708252e-02
9.700865484774112701e-03 -7.826331071555614471e-03 2.536023966968059540e-02
8.703367784619331360e-03 1.924116536974906921e-02 -3.030681982636451721e-02
-9.335602633655071259e-03 -1.731402799487113953e-02 3.202362451702356339e-03
-1.138068735599517822e-02 -2.982524223625659943e-02 6.250709295272827148e-03
3.260624781250953674e-02 1.054739020764827728e-02 3.537500649690628052e-02
8.035997743718326092e-04 3.988562151789665222e-03 -5.770249292254447937e-03
-5.453880876302719116e-03 -2.436497434973716736e-02 2.118917368352413177e-02
3.195716068148612976e-02 1.568861491978168488e-02 1.512479595839977264e-02
9.337770752608776093e-03 1.148067321628332138e-02 1.185033842921257019e-02
2.671904675662517548e-02 -3.689314797520637512e-02 -1.162486709654331207e-02
-6.146465241909027100e-02 -4.566511139273643494e-03 -8.199801668524742126e-03
3.256400302052497864e-02 -1.993402093648910522e-02 -3.131622448563575745e-02
4.261938482522964478e-02 -3.249224973842501640e-03 1.058724243193864822e-02
3.040941245853900909e-02 1.230705063790082932e-02 1.045170472934842110e-03
-1.264532376080751419e-02 -2.455879561603069305e-02 -2.661241404712200165e-02
-6.825064122676849365e-02 -1.688528619706630707e-02 -4.169658944010734558e-02
-3.550833836197853088e-02 -7.112558465451002121e-03 -2.783119492232799530e-02
3.432873636484146118e-02 -6.165991071611642838e-03 8.518488705158233643e-02
4.342308640480041504e-02 2.616041526198387146e-02 -1.422265172004699707e-02
-3.680177405476570129e-02 -5.064675956964492798e-02 -1.620492711663246155e-02
3.417934849858283997e-02 3.956350684165954590e-02 1.730989105999469757e-02
-5.708912014961242676e-02 1.205108407884836197e-02 -4.193633422255516052e-02
4.298618063330650330e-02 -2.916793338954448700e-02 -2.361459657549858093e-02
-9.024363011121749878e-03 -2.979891188442707062e-02 -2.682078070938587189e-02
-1.330731809139251709e-01 -8.234006166458129883e-02 -1.224726289510726929e-01
-1.265727169811725616e-02 3.199518844485282898e-02 -1.673360541462898254e-02
3.050220385193824768e-02 3.426848351955413818e-02 3.384678065776824951e-02
-3.180686384439468384e-03 2.050669305026531219e-02 -3.767448663711547852e-02
-3.120920853689312935e-03 2.258725650608539581e-02 4.481939226388931274e-02
2.044787444174289703e-02 2.447548881173133850e-02 3.575044125318527222e-02
1.418493501842021942e-02 1.600467599928379059e-02 5.848537385463714600e-02
-3.196487203240394592e-02 -3.953497484326362610e-02 -4.018784686923027039e-02
4.906845744699239731e-03 -2.808687835931777954e-02 -2.545326761901378632e-02
-4.140159487724304199e-02 -1.838658004999160767e-02 -1.323793549090623856e-02
-4.039618745446205139e-02 -4.945004358887672424e-02 -4.404779151082038879e-02
1.733308844268321991e-02 -1.340670790523290634e-02 -3.502478590235114098e-03
-2.892580523621290922e-04 3.292741999030113220e-02 -3.256718814373016357e-02
1.461133826524019241e-02 -2.370379120111465454e-02 -3.585639933589845896e-04
-1.094879582524299622e-02 1.786592975258827209e-02 -2.744266204535961151e-02
1.927250064909458160e-02 2.137810923159122467e-02 -2.869599498808383942e-02
3.937929496169090271e-02 -3.188801929354667664e-02 5.445268005132675171e-02
7.259700447320938110e-02 -1.925425836816430092e-03 -1.907265558838844299e-02
-2.973852865397930145e-02 7.040703203529119492e-03 7.868246175348758698e-03
2.103629894554615021e-02 -9.424389572814106941e-04 -7.637227885425090790e-03
4.348712414503097534e-02 1.904820650815963745e-02 5.413412675261497498e-02
2.244164608418941498e-02 3.983836248517036438e-02 4.046325385570526123e-02
-3.932374343276023865e-02 -1.106467097997665405e-02 -3.383788978680968285e-03
-4.884397611021995544e-02 -3.793450444936752319e-02 -2.401468530297279358e-02
-4.233255609869956970e-02 7.049204315990209579e-03 -3.580644354224205017e-02
6.567687541246414185e-02 -5.401892215013504028e-02 1.135390903800725937e-02
-6.019358336925506592e-02 -2.044161409139633179e-02 -5.014488473534584045e-03
-5.871178209781646729e-02 -7.056014984846115112e-02 -6.350993365049362183e-02
7.239342201501131058e-03 -3.549944981932640076e-02 -1.521650981158018112e-02
-2.601080201566219330e-02 -7.148032635450363159e-02 -7.947291433811187744e-02
7.780046015977859497e-02 2.942094765603542328e-02 -3.786022774875164032e-03
6.137622985988855362e-03 -4.609115049242973328e-02 1.857315935194492340e-02
-1.519744843244552612e-01 -1.394255608320236206e-01 -1.533809453248977661e-01
1.167909894138574600e-02 3.898805379867553711e-02 -6.383883953094482422e-02
2.443573251366615295e-02 1.065676659345626831e-02 4.323603957891464233e-02
-2.293565077707171440e-03 2.832468040287494659e-02 -2.481221687048673630e-03
1.542969606816768646e-02 2.332205511629581451e-02 3.572877869009971619e-02
-1.760877552442252636e-03 -5.157439038157463074e-03 2.326652593910694122e-02
3.757088631391525269e-02 -2.302937954664230347e-02 -4.396407399326562881e-03
-6.345713883638381958e-02 -6.112854927778244019e-02 -6.258500367403030396e-02
-7.940011098980903625e-03 -7.664863951504230499e-04 2.340367436408996582e-02
-3.045812807977199554e-02 -3.089238516986370087e-02 -3.527488186955451965e-02
9.726887568831443787e-03 -3.964171931147575378e-02 -2.468304894864559174e-02
-1.026439014822244644e-03 -1.745691895484924316e-02 -4.783013463020324707e-02
4.945756122469902039e-02 -8.843108080327510834e-03 -4.009220376610755920e-02
8.358304947614669800e-02 -1.519213803112506866e-02 1.807669177651405334e-02
-2.847685851156711578e-02 -5.914649739861488342e-02 -4.225873947143554688e-02
1.107971668243408203e-01 9.955445677042007446e-02 6.192509457468986511e-02
5.812698975205421448e-02 5.498919263482093811e-02 4.905041679739952087e-02
1.397967040538787842e-01 5.008018016815185547e-02 -3.772486746311187744e-02
-1.089303046464920044e-01 -7.363052666187286377e-02 -1.755374483764171600e-02
-8.920636959373950958e-03 -4.134403169155120850e-02 1.054286025464534760e-02
1.208501588553190231e-02 -7.359507679939270020e-02 1.508376002311706543e-02
-1.697659306228160858e-02 -3.675674088299274445e-04 -8.609255775809288025e-03
5.091163795441389084e-03 1.151723694056272507e-02 1.657193340361118317e-02
-2.762175723910331726e-02 -3.696136549115180969e-02 -2.813043631613254547e-02
-2.425835002213716507e-03 4.288907628506422043e-03 5.690182093530893326e-03
3.043903224170207977e-02 -9.102688170969486237e-03 3.102157032117247581e-03
1.937299780547618866e-02 -3.331750258803367615e-02 -3.893681615591049194e-02
-1.063422486186027527e-02 2.507978118956089020e-02 -2.916789799928665161e-02
1.715347357094287872e-02 2.852800861001014709e-02 3.168254159390926361e-03
-2.391318790614604950e-02 -2.579370513558387756e-02 -2.604133263230323792e-02
3.552765771746635437e-02 -4.629892297089099884e-03 2.860473655164241791e-02
9.234130382537841797e-03 -4.419064149260520935e-02 -2.890172414481639862e-02
1.544738560914993286e-02 2.480024285614490509e-02 2.170110307633876801e-02
-2.363950200378894806e-02 -3.029535338282585144e-02 -1.766649447381496429e-02
-5.121709313243627548e-03 2.940881438553333282e-02 2.256682608276605606e-03
-2.346063591539859772e-02 1.989297382533550262e-02 -1.638297922909259796e-02
2.733575366437435150e-02 2.183632180094718933e-02 1.028671511448919773e-03
2.545871213078498840e-02 -2.003879472613334656e-02 -1.293016504496335983e-02
1.467010937631130219e-02 3.214783733710646629e-03 3.002256155014038086e-02
-2.973580546677112579e-02 -1.875861547887325287e-02 2.431703545153141022e-02
-2.655676379799842834e-02 -2.432617917656898499e-02 8.142028003931045532e-03
-1.270583085715770721e-02 7.142573129385709763e-03 2.668686024844646454e-02
-7.345245685428380966e-03 5.885797552764415741e-03 -4.528022371232509613e-03
2.626965008676052094e-02 2.325620874762535095e-02 -2.456396073102951050e-02
2.117188274860382080e-02 6.339673884212970734e-03 1.831132546067237854e-02
3.111302480101585388e-02 1.991955563426017761e-02 1.698245853185653687e-02
-4.874105565249919891e-03 -9.175151586532592773e-03 2.911831252276897430e-02
3.779996559023857117e-02 4.284355044364929199e-02 2.781693637371063232e-02
-1.232565939426422119e-02 3.999336436390876770e-02 4.518487304449081421e-02
-4.982107318937778473e-03 1.656151143833994865e-03 -2.729550190269947052e-02
-1.235268358141183853e-02 1.383793260902166367e-02 7.734723854809999466e-03
-5.519678350538015366e-03 -6.850173231214284897e-04 -1.915158121846616268e-03
-2.351443842053413391e-02 -3.734095022082328796e-02 -3.003383986651897430e-02
1.871494017541408539e-02 1.800575666129589081e-02 3.866186738014221191e-02
2.552966400980949402e-02 1.692544110119342804e-02 2.721952088177204132e-02
2.555002644658088684e-02 3.074468113481998444e-02 2.328416891396045685e-02
-3.071969561278820038e-02 -2.222586609423160553e-02 -2.585489302873611450e-03
4.109571222215890884e-03 -2.986583299934864044e-02 -1.261853799223899841e-02
5.410293582826852798e-03 4.142036661505699158e-02 4.711803048849105835e-02
7.882740464992821217e-04 2.630376629531383514e-02 -1.487002614885568619e-02
2.470372617244720459e-02 1.431539561599493027e-02 1.563152857124805450e-02
-3.083795309066772461e-03 -2.217691391706466675e-02 -2.303573861718177795e-02
-1.986834406852722168e-02 2.031855098903179169e-02 2.341507188975811005e-02
8.452790789306163788e-03 2.497677691280841827e-02 -6.759628187865018845e-03
2.427488192915916443e-02 2.440609782934188843e-02 1.459380798041820526e-02
-8.252643980085849762e-03 2.414073608815670013e-02 -1.541658211499452591e-02
-7.563088554888963699e-03 2.115556504577398300e-03 1.333715487271547318e-02
1.562327425926923752e-02 1.968996413052082062e-02 -2.468901127576828003e-02
2.416663430631160736e-02 -7.732839789241552353e-03 9.886892512440681458e-03
2.980833686888217926e-02 2.935624867677688599e-02 2.337259240448474884e-02
1.604758203029632568e-02 7.290724199265241623e-03 -5.500402301549911499e-03
-2.541642263531684875e-02 2.135221613571047783e-03 2.404163219034671783e-02
2.382856607437133789e-02 -2.197139663621783257e-03 1.715425774455070496e-02
2.012464404106140137e-02 1.518395449966192245e-02 1.646064408123493195e-02
2.995868586003780365e-02 1.852407678961753845e-02 2.661633864045143127e-02
2.150139212608337402e-02 -1.816017366945743561e-02 3.051872598007321358e-03
1.976258866488933563e-02 9.550797753036022186e-03 1.818691752851009369e-02
2.011227048933506012e-02 2.159785665571689606e-02 -9.431817452423274517e-04
1.679675653576850891e-02 -2.274633385241031647e-03 2.133264206349849701e-02
1.361582195386290550e-03 9.835458360612392426e-03 -1.036663260310888290e-02
-1.560855843126773834e-02 2.088988944888114929e-02 -3.216155990958213806e-02
-3.334137424826622009e-02 2.308570034801959991e-02 -1.079671457409858704e-02
9.477815590798854828e-03 -2.645613625645637512e-02 1.747630885802209377e-03
3.117403760552406311e-02 -1.425431296229362488e-02 4.710802342742681503e-03
1.279267203062772751e-02 3.436620160937309265e-02 9.655352332629263401e-04
-2.393960766494274139e-02 -1.692223735153675079e-02 -7.918410003185272217e-03
1.837645657360553741e-02 -1.674747839570045471e-02 -1.091257482767105103e-02
1.311847474426031113e-02 -1.789190061390399933e-02 -7.510269060730934143e-04
-1.241850759834051132e-02 1.398905646055936813e-02 -3.657586500048637390e-02
-2.729027718305587769e-02 8.344340138137340546e-03 1.271477639675140381e-01
-4.012894257903099060e-02 -5.481407791376113892e-02 -2.012222632765769958e-02
7.162086665630340576e-02 4.465066269040107727e-02 3.972179722040891647e-03
3.186273574829101562e-02 2.440285123884677887e-02 -4.095974564552307129e-02
2.153818961232900620e-03 8.897373452782630920e-03 -3.349340707063674927e-02
1.716060563921928406e-02 -3.659180551767349243e-02 -6.367538589984178543e-03
6.714825332164764404e-02 -1.439240854233503342e-02 2.669558487832546234e-02
-3.902294114232063293e-02 -3.394674882292747498e-02 -6.437628716230392456e-02
4.085327312350273132e-02 6.868632975965738297e-03 3.088357113301753998e-02
2.260083891451358795e-02 2.201819419860839844e-02 -2.362489141523838043e-02
2.138404641300439835e-03 1.371399033814668655e-02 -1.680646277964115143e-02
1.160276122391223907e-03 5.816778633743524551e-03 1.239057350903749466e-02
-2.763523953035473824e-04 1.945302449166774750e-02 2.820614166557788849e-02
-5.691944062709808350e-02 -5.544835329055786133e-02 -3.771358355879783630e-02
1.792494580149650574e-02 2.156919101253151894e-03 -1.703408919274806976e-02
-2.163788862526416779e-02 -3.046986274421215057e-02 -2.433314919471740723e-03
9.633233770728111267e-03 -1.663224212825298309e-02 -3.435239940881729126e-02
5.818873643875122070e-03 -2.349023334681987762e-02 1.507572177797555923e-02
-3.126398369204252958e-04 -1.699865795671939850e-02 -2.936863154172897339e-02
2.048474363982677460e-02 -1.839305646717548370e-02 -3.907842561602592468e-03
4.403496161103248596e-02 -4.909259732812643051e-03 1.902457512915134430e-02
1.026020664721727371e-02 -3.667850513011217117e-03 1.526771113276481628e-02
1.872576959431171417e-02 3.191241994500160217e-02 -1.971450075507164001e-02
-2.554521150887012482e-02 -2.867608517408370972e-02 3.545275330543518066e-02
6.268316879868507385e-03 -2.430786564946174622e-02 -2.881087362766265869e-02
-2.221164852380752563e-02 -2.759954659268260002e-03 -3.277166560292243958e-02
-4.678131267428398132e-02 -6.467233598232269287e-02 -2.801530435681343079e-02
-8.154598064720630646e-03 -4.299599304795265198e-02 3.712601214647293091e-02
4.187265411019325256e-02 3.718511760234832764e-02 1.272142678499221802e-02
-2.015777863562107086e-02 -2.182549610733985901e-02 -1.001779083162546158e-02
1.022592559456825256e-02 2.356362529098987579e-02 1.210451405495405197e-02
-8.371860720217227936e-03 -2.993032522499561310e-02 2.021964825689792633e-02
2.411618828773498535e-02 -6.576755084097385406e-03 -1.529785525053739548e-02
-1.853444427251815796e-02 -3.782881423830986023e-02 -8.001820242498070002e-05
-2.935283817350864410e-03 -1.300953142344951630e-02 -2.562171407043933868e-02
2.122160606086254120e-02 -8.774367161095142365e-03 8.671729825437068939e-03
-1.119991671293973923e-02 -3.436977276578545570e-03 1.492839306592941284e-02
1.722273044288158417e-02 3.629006817936897278e-02 -2.151492796838283539e-02
-6.273417174816131592e-02 -2.320132963359355927e-02 -2.172930166125297546e-02
-6.112342816777527332e-04 -2.367285545915365219e-03 2.104205824434757233e-02
-7.273653522133827209e-03 -3.382342308759689331e-02 -4.029597342014312744e-02
-2.472302503883838654e-02 -3.362109651789069176e-03 -1.420585531741380692e-02
2.443505451083183289e-02 -4.087361041456460953e-03 -2.421658486127853394e-02
9.955497458577156067e-03 -1.199211832135915756e-02 -9.478620253503322601e-03
8.910843171179294586e-03 2.440999634563922882e-02 -2.482724562287330627e-02
7.432280480861663818e-02 2.113325707614421844e-02 -2.182891964912414551e-02
5.941441631875932217e-04 1.775859296321868896e-02 3.519780235365033150e-03
1.301370188593864441e-02 -1.596431806683540344e-02 -1.529147755354642868e-02
-1.702764071524143219e-02 1.907715387642383575e-02 -2.752768434584140778e-02
2.045746333897113800e-02 -1.542452257126569748e-02 -2.069987542927265167e-02
-2.187354862689971924e-02 -1.472513470798730850e-02 -9.761008433997631073e-03
-9.144293144345283508e-03 -1.112259645015001297e-02 -3.010050859302282333e-03
1.737063378095626831e-02 2.438306808471679688e-02 1.246325764805078506e-02
-1.728367991745471954e-02 1.188530307263135910e-02 1.188178546726703644e-02
3.466904163360595703e-02 4.892322048544883728e-02 2.800086326897144318e-02
3.516460582613945007e-02 -8.423872292041778564e-03 1.098608691245317459e-02
2.349146082997322083e-02 2.884356118738651276e-02 7.650535088032484055e-03
2.574725076556205750e-03 -3.305125609040260315e-02 8.972031995654106140e-03
1.700904406607151031e-02 4.050825163722038269e-02 -8.769527077674865723e-03
-4.354458674788475037e-02 -4.506064206361770630e-02 -4.166335985064506531e-02
-6.364650093019008636e-03 -1.341203879565000534e-02 -2.334563760086894035e-03
-1.470713037997484207e-02 3.193926811218261719e-02 1.966473646461963654e-02
3.253771923482418060e-03 1.934152655303478241e-02 1.378734037280082703e-02
-2.220487780869007111e-02 -1.082198508083820343e-02 -1.913311146199703217e-02
-3.762953728437423706e-02 4.486317280679941177e-03 -7.534914184361696243e-03
-1.955469138920307159e-02 -1.216046046465635300e-02 3.404310345649719238e-02
9.164898656308650970e-03 1.359679363667964935e-02 2.968062646687030792e-02
-3.206235170364379883e-02 2.097602561116218567e-02 -1.487383991479873657e-02
2.294006757438182831e-02 1.016760477796196938e-03 -2.962865307927131653e-02
8.384013548493385315e-03 1.866138726472854614e-02 1.984863542020320892e-02
1.039604470133781433e-02 -2.259010821580886841e-02 7.519058883190155029e-03
-9.618599899113178253e-03 2.162972278892993927e-02 -1.150615699589252472e-02
1.641039550304412842e-02 -1.763689331710338593e-02 -3.371577942743897438e-03
1.649071089923381805e-02 6.814023363403975964e-04 8.061677217483520508e-03
-5.622632801532745361e-03 2.197477035224437714e-03 2.421787753701210022e-02
-8.980599232017993927e-03 2.542768139392137527e-03 1.655563130043447018e-03
-2.421161159873008728e-02 -1.137027796357870102e-02 2.600855380296707153e-02
-1.233357004821300507e-02 2.389685623347759247e-02 2.175290696322917938e-02
2.402188628911972046e-02 1.902403682470321655e-02 -1.960940100252628326e-02
-1.850550808012485504e-02 -2.116079814732074738e-02 2.381725795567035675e-02
-1.503711380064487457e-02 2.392711490392684937e-02 7.140798028558492661e-03
-1.293859444558620453e-02 1.441437285393476486e-02 2.722167782485485077e-02
-3.136714547872543335e-02 -2.593989856541156769e-02 -5.222239997237920761e-03
5.470150616019964218e-03 3.898046677932143211e-03 -1.818588189780712128e-02
-1.185120269656181335e-02 3.308550221845507622e-03 -3.111425600945949554e-02
2.628295309841632843e-02 -1.609988138079643250e-02 1.795888063497841358e-03
-1.817223615944385529e-02 -1.757918484508991241e-02 2.109363861382007599e-02
-2.501970157027244568e-02 -2.893471159040927887e-02 -3.662425279617309570e-02
3.747560782358050346e-03 -1.637820340692996979e-02 -6.359951104968786240e-03
-5.397860892117023468e-03 -2.493181964382529259e-03 1.095762476325035095e-02
1.540927682071924210e-03 3.165784873999655247e-04 -2.115730941295623779e-02
1.667391695082187653e-02 9.745768271386623383e-03 -2.425475046038627625e-02