-1.310986815951764584e-03
1.151956766843795776e-01
8.592160791158676147e-02
7.925323396921157837e-02
2.373337745666503906e-02
-1.762375608086585999e-02
7.373766601085662842e-02
1.348493844270706177e-01
-7.171256584115326405e-06
2.359606884419918060e-02
-4.237907379865646362e-02
7.264001667499542236e-02
1.640412658452987671e-01
-8.250829577445983887e-02
-7.743512094020843506e-02
1.037819236516952515e-01
7.198484241962432861e-02
1.295049637556076050e-01
-1.695303362794220448e-04
1.279925490962341428e-04
1.334712654352188110e-01
-1.773431176843587309e-05
8.580844104290008545e-02
7.257606089115142822e-02
8.094337768852710724e-03
2.690587937831878662e-02
1.382165104150772095e-01
-2.132538519799709320e-02
-1.690742908976972103e-03
7.447328418493270874e-02
6.697581266053020954e-04
-4.407169180922210217e-04
2.314657345414161682e-02 -2.915989421308040619e-02 -3.604933852329850197e-03
-3.085460886359214783e-02 -5.425530485808849335e-03 5.090118385851383209e-03
2.032742463052272797e-02 1.724290661513805389e-02 -1.968132890760898590e-02
-9.617271833121776581e-03 -1.345292758196592331e-02 1.454591937363147736e-02
1.291099004447460175e-02 -9.866734035313129425e-03 -4.775727167725563049e-03
-8.825894445180892944e-03 1.936988346278667450e-02 -2.481918781995773315e-02
-8.504237979650497437e-03 2.412851899862289429e-02 2.488137222826480865e-02
8.493302389979362488e-03 2.134540304541587830e-02 -2.009996585547924042e-02
-6.537195760756731033e-03 -8.221134543418884277e-03 -2.297547087073326111e-02
-2.618411369621753693e-02 2.228522114455699921e-02 -3.048347122967243195e-02
2.733900770545005798e-02 -1.939088664948940277e-02 -1.913549751043319702e-02
-4.131250549107789993e-03 1.020833477377891541e-02 2.370895631611347198e-02
-1.572726527228951454e-03 -2.665578573942184448e-02 1.131159439682960510e-02
5.969967693090438843e-03 1.106045208871364594e-02 2.435886114835739136e-02
-1.230783574283123016e-02 -4.210900980979204178e-03 -1.785268634557723999e-02
-2.963809855282306671e-02 1.460042130202054977e-02 2.016102336347103119e-02
1.250245887786149979e-02 2.425443381071090698e-02 -2.379093691706657410e-02
-8.460825309157371521e-03 -1.787665672600269318e-02 -2.354958280920982361e-02
-3.057810850441455841e-02 -7.908931933343410492e-03 -7.927672937512397766e-03
-2.787232398986816406e-02 2.177507244050502777e-02 2.816563239321112633e-03
-1.652698777616024017e-02 -1.841694675385951996e-02 2.366090007126331329e-02
1.508639752864837646e-02 2.959918230772018433e-02 -3.186090616509318352e-03
-3.005520626902580261e-02 -2.653229609131813049e-02 -2.039882726967334747e-02
-3.021176904439926147e-03 -1.139721274375915527e-02 1.921414025127887726e-02
-2.010770514607429504e-02 1.769888959825038910e-02 -1.119561120867729187e-02
-1.676993444561958313e-02 7.311015855520963669e-03 -7.547632791101932526e-03
-1.348232477903366089e-02 1.359787303954362869e-02 -2.347465977072715759e-02
1.284548174589872360e-02 -8.587803691625595093e-03 -1.108598709106445312e-02
1.298218034207820892e-02 -9.686309844255447388e-03 -3.145519644021987915e-02
-1.608905009925365448e-02 2.460453659296035767e-02 -2.544202469289302826e-02
-2.136816643178462982e-02 -2.180207334458827972e-02 -2.681673504412174225e-02
7.167578674852848053e-03 2.468179445713758469e-03 1.349448319524526596e-02
-2.355023520067334175e-03 -3.526686877012252808e-02 -3.959678858518600464e-02
7.488639652729034424e-02 3.116823174059391022e-02 8.622679114341735840e-02
2.165220677852630615e-02 2.643549442291259766e-02 4.045924916863441467e-02
8.891029865480959415e-04 -1.529028639197349548e-03 -6.006929278373718262e-02
6.014393270015716553e-02 3.886007471010088921e-03 2.931624464690685272e-02
-1.699499040842056274e-02 -7.800893858075141907e-03 -2.011596411466598511e-02
-1.349947880953550339e-03 -1.107913325540721416e-03 -4.669222049415111542e-03
3.605445614084601402e-03 -1.253948081284761429e-02 -2.072924189269542694e-02
-7.167737931013107300e-03 2.814852818846702576e-02 7.923047989606857300e-03
-4.810417443513870239e-02 -1.379997842013835907e-02 -4.842002317309379578e-02
3.386473655700683594e-02 3.985814005136489868e-02 -1.252903603017330170e-02
4.075530916452407837e-02 1.981967128813266754e-02 9.781882166862487793e-02
-3.730071336030960083e-02 -1.297338958829641342e-02 -1.250432729721069336e-01
-2.893552184104919434e-02 -3.863907232880592346e-02 7.044665515422821045e-03
3.709521517157554626e-02 3.932194784283638000e-02 5.305226147174835205e-02
-7.334261201322078705e-03 -2.055797353386878967e-02 -1.970865763723850250e-02
-2.023882046341896057e-02 -9.249503724277019501e-03 -4.760009236633777618e-03
2.388754300773143768e-02 9.560520993545651436e-05 1.734081283211708069e-02
6.609816849231719971e-02 3.510235249996185303e-02 3.616484627127647400e-02
-1.448831334710121155e-02 1.260375324636697769e-02 -6.416162941604852676e-03
6.847864948213100433e-03 -8.815131150186061859e-03 1.187186408787965775e-02
-5.802410095930099487e-02 -1.018465403467416763e-02 4.435916617512702942e-02
-5.961130186915397644e-02 -2.668988518416881561e-02 -6.315022706985473633e-02
1.689912378787994385e-02 3.401451185345649719e-02 6.633547693490982056e-02
-8.218618482351303101e-02 -2.949407510459423065e-02 -2.861590869724750519e-02
-4.412983544170856476e-03 2.754491940140724182e-02 -1.976196654140949249e-02
-5.731137841939926147e-02 -5.956071987748146057e-02 -6.889756768941879272e-02
-1.414446718990802765e-02 1.051827240735292435e-02 4.003178700804710388e-02
4.030804149806499481e-03 3.962054476141929626e-02 3.616948798298835754e-02
-3.820690512657165527e-02 -4.164878651499748230e-02 -6.555949896574020386e-02
-3.390491241589188576e-03 1.973404176533222198e-02 -1.753292977809906006e-02
2.028863318264484406e-02 1.048063300549983978e-02 4.871002957224845886e-02
5.527868866920471191e-03 -6.792515516281127930e-03 2.195122838020324707e-02
-7.865244522690773010e-03 5.267020314931869507e-02 -6.057329592294991016e-04
-2.079498022794723511e-02 -1.531198620796203613e-02 -1.567288860678672791e-02
1.392119936645030975e-02 -2.229630772490054369e-04 3.426061943173408508e-02
1.576014421880245209e-02 1.721875742077827454e-02 3.558052331209182739e-02
3.560221567749977112e-02 1.045842003077268600e-02 2.013102546334266663e-02
-8.434385061264038086e-03 -1.127000246196985245e-02 1.536629162728786469e-02
4.159427434206008911e-02 1.737238466739654541e-02 3.647558391094207764e-02
-1.839357987046241760e-02 7.447969168424606323e-03 2.964676730334758759e-02
6.048512086272239685e-02 -1.547522284090518951e-02 3.324992209672927856e-02
9.249781258404254913e-03 -1.979483850300312042e-02 -9.469053708016872406e-03
-2.597723156213760376e-02 1.089876703917980194e-02 -3.546336665749549866e-02
1.572267264127731323e-01 -1.534404349513351917e-03 8.900249749422073364e-02
4.374353960156440735e-02 3.494840487837791443e-02 -9.014791809022426605e-03
-3.222136199474334717e-02 3.568787872791290283e-02 -3.785992413759231567e-02
-5.733791273087263107e-03 1.117877103388309479e-02 1.649646647274494171e-02
9.290003217756748199e-03 1.520132739096879959e-02 1.672041416168212891e-02
-2.808267250657081604e-02 -2.470249123871326447e-02 2.549278363585472107e-02
-4.196516051888465881e-02 8.857666514813899994e-03 -8.833345025777816772e-03
-3.121695481240749359e-03 2.376177534461021423e-02 -5.535108037292957306e-03
-4.430823028087615967e-03 1.953998394310474396e-02 2.845471911132335663e-02
3.907550871372222900e-02 -1.491213776171207428e-02 -5.616671871393918991e-03
6.574659049510955811e-02 8.451566100120544434e-03 6.111232563853263855e-02
2.316188439726829529e-02 3.100052662193775177e-02 -1.378901023417711258e-02
1.004540547728538513e-02 4.464375600218772888e-02 4.901688545942306519e-02
1.062768474221229553e-01 6.580964662134647369e-03 5.726344138383865356e-02
3.880873322486877441e-02 4.409784451127052307e-02 2.050902135670185089e-02
3.534438833594322205e-02 -1.214405428618192673e-02 -2.729267347604036331e-03
6.048877909779548645e-02 1.987863518297672272e-02 -3.860283270478248596e-02
1.085967104882001877e-02 1.036526449024677277e-02 3.208697959780693054e-02
1.659888774156570435e-02 8.856331929564476013e-03 2.399349957704544067e-02
-2.553079649806022644e-02 -1.337334048002958298e-02 -5.364964902400970459e-02
-1.602786220610141754e-02 1.784431003034114838e-02 -3.405883163213729858e-02
-3.376777470111846924e-02 -1.020194124430418015e-02 -8.663444966077804565e-02
4.808583762496709824e-03 -2.606986090540885925e-02 9.850028436630964279e-04
1.810830272734165192e-02 3.905095160007476807e-02 4.875995591282844543e-02
2.603499451652169228e-04 3.565542632713913918e-03 -3.229974955320358276e-02
-3.070736303925514221e-02 -1.202560123056173325e-02 2.584042586386203766e-02
-2.842986583709716797e-02 -1.192220393568277359e-02 -1.250343117862939835e-02
1.055668294429779053e-02 -1.837818068452179432e-03 1.241396530531346798e-03
8.521964773535728455e-03 5.808844231069087982e-03 -1.695943064987659454e-02
-8.457131683826446533e-03 -5.244715511798858643e-02 1.214496698230504990e-02
4.358683712780475616e-03 4.074672982096672058e-02 -7.492662407457828522e-04
2.356777153909206390e-02 -1.365954335778951645e-02 -5.675394460558891296e-02
2.524744346737861633e-02 -4.596412647515535355e-03 6.838909536600112915e-02
-1.572703570127487183e-02 7.643728516995906830e-03 -8.717206306755542755e-03
3.395783156156539917e-02 2.820591069757938385e-02 -1.089184544980525970e-02
-1.072343252599239349e-02 8.153057657182216644e-03 4.748429171741008759e-03
-5.627435166388750076e-03 -9.089741506613790989e-04 -9.937508031725883484e-03
-3.004219383001327515e-02 2.785792574286460876e-02 2.653071284294128418e-02
1.006926526315510273e-03 3.530467674136161804e-02 -3.706027194857597351e-02
-1.464379252865910530e-03 -1.701416820287704468e-02 -2.375217713415622711e-02
1.510727871209383011e-02 3.776285098865628242e-03 1.453042589128017426e-02
-2.451263181865215302e-02 -1.564865000545978546e-02 -2.492428012192249298e-02
1.115933153778314590e-02 -2.215826511383056641e-02 3.344831988215446472e-02
-1.609691232442855835e-02 -2.974442206323146820e-03 -8.464241027832031250e-02
-3.192527219653129578e-02 -6.666252389550209045e-03 -6.240301299840211868e-04
-5.107062682509422302e-02 -5.536373704671859741e-02 -5.605083424597978592e-03
1.830394729040563107e-03 -3.053228929638862610e-02 -3.607262298464775085e-02
-9.013791568577289581e-03 -1.846186071634292603e-02 -7.821838557720184326e-02
-1.716198213398456573e-02 2.040285617113113403e-03 -3.463876992464065552e-02
3.132617799565196037e-03 -9.219236671924591064e-04 -2.767681516706943512e-02
4.877919272985309362e-04 4.649465903639793396e-03 1.950196735560894012e-02
2.699395408853888512e-03 1.261518191313371062e-04 -1.246948726475238800e-02
5.478071980178356171e-03 -3.058410435914993286e-02 -8.470932021737098694e-03
1.083036065101623535e-01 3.139694407582283020e-02 4.640799388289451599e-02
-2.681653946638107300e-02 -1.639397069811820984e-02 -2.968131378293037415e-02
-2.898596972227096558e-02 -3.323379158973693848e-02 -4.968485329300165176e-03
7.491407543420791626e-02 -1.192168425768613815e-02 5.107340961694717407e-02
-6.863335147500038147e-03 4.123150184750556946e-02 -2.489966526627540588e-02
9.849990718066692352e-03 2.817082684487104416e-03 -2.759461291134357452e-02
1.127533335238695145e-02 -2.707370324060320854e-03 4.291456565260887146e-02
1.809137687087059021e-02 -1.267603971064090729e-02 2.731139585375785828e-02
-4.609537497162818909e-02 -1.570248231291770935e-02 -2.032455243170261383e-02
3.571954369544982910e-02 8.503211662173271179e-03 -1.121048722416162491e-02
1.165950484573841095e-02 -4.946329817175865173e-02 -8.146883919835090637e-03
-3.101246431469917297e-02 3.332357481122016907e-02 -2.637114562094211578e-02
-3.144622594118118286e-02 1.250408589839935303e-02 -2.995308116078376770e-02
2.003541402518749237e-02 -3.292317315936088562e-02 2.014983445405960083e-02
-8.400344289839267731e-03 9.153626859188079834e-03 2.374314330518245697e-02
-1.193581335246562958e-02 -1.435951096937060356e-03 7.253078743815422058e-03
-4.803061019629240036e-03 -2.984608337283134460e-02 5.934440065175294876e-03
2.073263190686702728e-02 -3.076275624334812164e-02 2.966142259538173676e-02
1.465895399451255798e-02 2.883039601147174835e-02 -7.069716230034828186e-03
2.064321003854274750e-02 3.058037720620632172e-02 -3.559487173333764076e-03
-3.125194832682609558e-02 2.523122914135456085e-02 7.916021160781383514e-03
-1.698466204106807709e-02 -2.015290595591068268e-02 9.289694949984550476e-03
3.983018919825553894e-02 2.400406450033187866e-02 4.652824252843856812e-02
-2.767838165163993835e-02 2.059786953032016754e-02 2.186835743486881256e-03
1.488737668842077255e-02 1.787191629409790039e-02 4.016573354601860046e-02
-7.027942221611738205e-03 1.486518234014511108e-02 1.592594012618064880e-02
4.783229902386665344e-03 -3.233456611633300781e-02 -2.026901766657829285e-02
-1.502121984958648682e-02 1.475470606237649918e-02 1.204478368163108826e-02
-3.510421141982078552e-03 2.414569957181811333e-03 -5.747739225625991821e-03
4.939876031130552292e-03 1.836643740534782410e-02 3.146696602925658226e-03
3.774263709783554077e-02 -2.762043662369251251e-02 -8.742077276110649109e-03
5.079583078622817993e-02 3.264217078685760498e-02 -1.150717400014400482e-02
-7.100088149309158325e-02 -8.306092023849487305e-02 -8.291135728359222412e-02
3.158819302916526794e-02 1.722958055324852467e-03 2.399079687893390656e-02
-4.465780686587095261e-03 -7.868913933634757996e-03 5.525422096252441406e-02
-2.525105141103267670e-02 -1.729784905910491943e-02 -3.904707357287406921e-02
2.009256556630134583e-02 1.588324829936027527e-02 9.695441462099552155e-03
-1.159636303782463074e-02 2.222132310271263123e-02 -2.191700786352157593e-02
5.704713612794876099e-02 2.762265689671039581e-02 -1.253958418965339661e-02
9.361208416521549225e-03 3.049111180007457733e-02 2.994194254279136658e-02
2.338171377778053284e-02 4.578632488846778870e-02 3.874216601252555847e-02
-3.404996544122695923e-02 1.439094636589288712e-02 8.726888918317854404e-04
-3.489156812429428101e-02 -5.454491451382637024e-02 -6.896971911191940308e-02
1.147373914718627930e-01 7.911894470453262329e-02 8.430583029985427856e-02
5.036763846874237061e-02 3.703622892498970032e-02 4.354356229305267334e-02
-3.737775608897209167e-02 -6.598050147294998169e-02 -4.566100612282752991e-02
2.750272490084171295e-02 -1.835785433650016785e-02 1.013132277876138687e-02
2.903279289603233337e-02 3.010537102818489075e-02 2.554783411324024200e-02
5.397866945713758469e-03 -2.477453462779521942e-02 2.359179966151714325e-02
-8.022844791412353516e-02 -7.019104808568954468e-02 -1.190336048603057861e-02
-1.984971947968006134e-02 5.170745775103569031e-03 -2.316420665010809898e-03
1.803728006780147552e-02 4.656097386032342911e-03 -2.577706938609480858e-03
3.089955262839794159e-02 -3.003071760758757591e-03 -3.692035004496574402e-02
3.291581571102142334e-02 -3.540958976373076439e-03 4.965575784444808960e-02
-4.402511566877365112e-02 -1.837375387549400330e-02 -8.528907597064971924e-02
6.743235886096954346e-02 2.576620131731033325e-02 3.679981455206871033e-02
7.831448689103126526e-03 -6.500812247395515442e-03 2.140031382441520691e-02
-1.569187268614768982e-02 3.800926962867379189e-03 1.429029274731874466e-02
2.296057529747486115e-02 -1.707343757152557373e-02 -9.543033316731452942e-03
-1.992477476596832275e-02 3.701425157487392426e-03 -3.971999511122703552e-02
5.107769276946783066e-03 3.216229751706123352e-02 2.733549475669860840e-02
-2.820206247270107269e-02 -2.597642131149768829e-02 1.387995108962059021e-02
-3.454188257455825806e-02 -2.409654855728149414e-02 -5.807021260261535645e-02
3.970726579427719116e-02 -2.297533676028251648e-02 2.294333092868328094e-02
-7.373491674661636353e-02 -2.333417348563671112e-02 -1.188263818621635437e-01
1.835571601986885071e-02 -6.170491687953472137e-03 4.714208655059337616e-03
-8.599691092967987061e-03 4.223995842039585114e-03 5.501722544431686401e-02
-8.242885768413543701e-02 -2.114737965166568756e-02 2.359748817980289459e-03
-2.758917771279811859e-02 -3.495005518198013306e-02 -3.422143636271357536e-04
-2.598236501216888428e-02 4.493568267207592726e-04 -2.242357237264513969e-03
2.269559074193239212e-03 3.691969439387321472e-03 4.253547638654708862e-02
-8.768963627517223358e-03 -9.638789109885692596e-03 1.640165969729423523e-02
7.013420760631561279e-02 2.703519165515899658e-02 5.089851468801498413e-02
-6.823544856160879135e-03 1.545507833361625671e-02 5.269797984510660172e-03
-7.677213754504919052e-03 4.517649114131927490e-02 -5.914448574185371399e-02
7.053662091493606567e-02 -5.775587633252143860e-02 8.267998695373535156e-02
1.639921218156814575e-02 1.197544392198324203e-03 3.649900108575820923e-02
-5.569960922002792358e-02 4.080925136804580688e-02 -5.263331811875104904e-03
1.740385778248310089e-02 -2.682296000421047211e-02 -1.973600313067436218e-02
-1.057340297847986221e-02 -1.842163689434528351e-02 2.943536452949047089e-02
1.437835162505507469e-03 4.183707758784294128e-03 1.216078177094459534e-02
-5.281267315149307251e-02 2.605909295380115509e-02 -2.814510092139244080e-02
1.110628433525562286e-02 -2.881540171802043915e-02 -2.955069020390510559e-02
-1.577743515372276306e-02 -4.075350589118897915e-04 -2.486657351255416870e-02
5.020639672875404358e-02 1.089417375624179840e-02 -5.270459130406379700e-02
1.804790087044239044e-02 -1.744379103183746338e-02 2.615961618721485138e-02
-7.648209109902381897e-03 2.431029081344604492e-02 -5.339026823639869690e-02
3.400783613324165344e-02 5.862708762288093567e-02 5.327732488512992859e-02
9.895598515868186951e-03 -1.856546849012374878e-02 -4.036790877580642700e-02
-2.389691770076751709e-03 1.270017679780721664e-02 -2.290857769548892975e-02
7.310711592435836792e-02 7.819044403731822968e-03 -4.074069485068321228e-02
4.634249955415725708e-02 -1.420118287205696106e-02 -5.962334573268890381e-02
2.750651352107524872e-02 -1.182595174759626389e-02 3.313127905130386353e-02
2.494351007044315338e-02 1.956243254244327545e-02 1.526992488652467728e-02
-8.928022347390651703e-03 4.881796892732381821e-03 -2.909688092768192291e-02
1.771269366145133972e-02 3.357363119721412659e-02 1.509654335677623749e-02
-8.136930316686630249e-02 1.416660007089376450e-02 -5.081576853990554810e-02
3.705049678683280945e-02 -3.141630068421363831e-02 -1.721685519441962242e-03
2.558112144470214844e-02 7.554883137345314026e-03 8.166589587926864624e-02
-6.809901446104049683e-02 2.038334682583808899e-02 1.862371223978698254e-03
-1.154749654233455658e-02 -3.655716404318809509e-02 3.036444447934627533e-02
2.529498655349016190e-03 7.713324856013059616e-03 3.029039595276117325e-03
3.904872806742787361e-03 7.476662751287221909e-03 2.168238721787929535e-02
-2.719169668853282928e-02 -7.846903987228870392e-03 -2.939547412097454071e-02
9.372600913047790527e-02 3.686527535319328308e-02 2.493180707097053528e-02
-4.152378067374229431e-02 -2.415228076279163361e-02 1.934373378753662109e-02
3.583414852619171143e-02 2.026642672717571259e-02 -1.939975470304489136e-02
7.607384026050567627e-02 -3.254171833395957947e-02 8.728161454200744629e-02
2.548890747129917145e-02 2.216859953477978706e-03 -2.832565456628799438e-03
-5.309969931840896606e-02 2.937711775302886963e-02 -8.249642327427864075e-03
2.533208392560482025e-02 1.885881274938583374e-02 -2.242569997906684875e-02
-7.001839112490415573e-03 -4.775614012032747269e-03 1.202193927019834518e-02
-1.519660931080579758e-02 -1.957564055919647217e-02 -7.052325643599033356e-03
-3.422130644321441650e-02 4.659031983464956284e-03 1.177789922803640366e-02
1.199730578809976578e-02 -2.032961137592792511e-02 1.970563456416130066e-02
-3.580362349748611450e-02 -3.301309049129486084e-02 7.625767495483160019e-03
7.134592533111572266e-02 1.065587531775236130e-02 -3.820350021123886108e-02
2.248095534741878510e-02 -1.193896587938070297e-02 4.110196977853775024e-02
-5.443019047379493713e-02 1.235352735966444016e-02 -3.048049099743366241e-02
3.828930482268333435e-02 2.965615317225456238e-02 3.099516779184341431e-02
-1.921371184289455414e-02 -6.656584888696670532e-02 2.513035899028182030e-03
2.133892662823200226e-02 1.014983188360929489e-02 3.000208735466003418e-02
3.829355910420417786e-02 5.128578469157218933e-02 -9.216994978487491608e-03
2.713184058666229248e-02 -4.528294131159782410e-02 -3.142391517758369446e-02
5.677846819162368774e-02 2.721963822841644287e-02 7.011914998292922974e-02
-9.902128949761390686e-04 -2.600552048534154892e-03 -1.444744598120450974e-02
2.200680971145629883e-02 2.563435584306716919e-02 -3.955459967255592346e-02
3.008201159536838531e-02 2.550247311592102051e-02 -2.024760842323303223e-02
-6.500506773591041565e-03 -2.172978594899177551e-02 -4.949466791003942490e-03
-1.193894445896148682e-02 -2.463530749082565308e-02 2.037840196862816811e-03
-1.925497874617576599e-02 -2.285737171769142151e-02 9.880281053483486176e-03
1.145226135849952698e-02 -2.826850675046443939e-02 -2.536585927009582520e-02
1.735699549317359924e-02 4.411358386278152466e-03 1.306612417101860046e-02
-2.049596607685089111e-02 -1.385892741382122040e-02 1.322620362043380737e-02
8.646256290376186371e-03 1.084045227617025375e-02 -8.849844336509704590e-03
3.044249862432479858e-02 -2.069260925054550171e-02 2.508866041898727417e-02
-1.887728832662105560e-02 -8.598048239946365356e-03 2.211931534111499786e-02
-2.607781998813152313e-02 -5.678681191056966782e-04 3.480961080640554428e-03
-1.916858367621898651e-02 -1.186985801905393600e-02 -1.613404415547847748e-02
-1.054320111870765686e-02 -3.014951758086681366e-02 -1.005315501242876053e-02
-1.278374530375003815e-02 -2.249375917017459869e-02 -3.109492547810077667e-02
1.315317768603563309e-02 -1.511485967785120010e-02 1.741777546703815460e-02
-1.981336623430252075e-02 -1.597148366272449493e-02 -2.093910425901412964e-02
2.051385492086410522e-02 -1.095217652618885040e-02 -1.467686705291271210e-02
-1.478802785277366638e-02 -2.704299800097942352e-02 3.046115487813949585e-02
-2.574120461940765381e-02 -2.325977571308612823e-02 -1.320067513734102249e-02
-1.327566988766193390e-02 8.003421127796173096e-03 -1.871277764439582825e-02
1.475252397358417511e-02 1.308330800384283066e-02 -2.417204342782497406e-02
1.236410997807979584e-02 1.505402009934186935e-02 -2.760794386267662048e-02
-9.049607440829277039e-03 -2.135218866169452667e-02 -2.881866320967674255e-02
-2.088965848088264465e-02 8.316036313772201538e-03 2.495963312685489655e-02
2.472050674259662628e-02 -2.385008707642555237e-02 -1.916160993278026581e-02
1.879396475851535797e-02 -2.602596022188663483e-02 3.673245431855320930e-03
2.198995649814605713e-02 -2.399504370987415314e-02 -1.062666438519954681e-02
-1.397598162293434143e-02 2.579188905656337738e-02 -2.973034605383872986e-02
1.088709337636828423e-03 1.856533437967300415e-02 2.516690455377101898e-02
-7.036880124360322952e-03 -5.001430865377187729e-03 3.016370348632335663e-02
6.746358703821897507e-04 -2.127373358234763145e-03 -8.285887539386749268e-03
2.614743262529373169e-02 2.153116278350353241e-02 1.508070970885455608e-03
1.039522700011730194e-02 -2.726396312937140465e-03 -1.400716137140989304e-02
4.214266687631607056e-02 -3.599929437041282654e-02 5.667587369680404663e-02
-2.824950963258743286e-02 1.451385952532291412e-02 3.510231524705886841e-02
3.569111600518226624e-02 -2.813249593600630760e-03 1.502082962542772293e-02
7.123711705207824707e-02 3.309924900531768799e-02 2.645631507039070129e-02
-1.369168981909751892e-02 1.612596213817596436e-02 1.546040549874305725e-02
6.073339376598596573e-03 -3.484286135062575340e-04 -7.306632585823535919e-03
-2.175041288137435913e-02 2.268800325691699982e-02 3.748149052262306213e-02
-2.040274906903505325e-03 6.809093058109283447e-03 1.704086177051067352e-02
-3.460587561130523682e-02 1.357993576675653458e-03 -2.013483829796314240e-02
2.545206807553768158e-02 -1.528599415905773640e-03 7.474655285477638245e-03
4.751281812787055969e-02 7.872248999774456024e-03 4.161831736564636230e-02
-6.600809842348098755e-02 6.766168773174285889e-02 1.661795936524868011e-02
-2.593997493386268616e-02 -3.852718276903033257e-03 -3.373287245631217957e-02
3.881159052252769470e-02 1.502314303070306778e-02 -1.676121726632118225e-02
4.390087909996509552e-03 1.686364971101284027e-02 2.713119797408580780e-02
-1.618434488773345947e-02 -2.887235395610332489e-02 -2.039350941777229309e-02
-2.645658329129219055e-02 -9.568837471306324005e-03 -1.308833993971347809e-02
3.438001871109008789e-02 -1.083228643983602524e-02 4.674312472343444824e-02
1.362872868776321411e-02 1.045007631182670593e-02 2.534650079905986786e-02
-5.657216999679803848e-03 -8.192931301891803741e-03 -2.547043375670909882e-02
-8.873237296938896179e-03 1.154073234647512436e-02 5.240730941295623779e-03
1.276406738907098770e-02 -1.658978173509240150e-03 -1.452537998557090759e-02
5.095884203910827637e-02 -1.681360416114330292e-02 8.876612409949302673e-03
-5.656590801663696766e-04 -1.820437610149383545e-02 7.157811895012855530e-03
-2.534641139209270477e-02 -5.704649724066257477e-03 3.278326988220214844e-02
2.537897787988185883e-02 -1.303710322827100754e-02 -6.747465115040540695e-03
1.519681140780448914e-02 2.066354826092720032e-02 4.073656722903251648e-02
6.774343783035874367e-04 -2.360900118947029114e-02 -7.373332045972347260e-03
-1.633587665855884552e-02 -2.446287497878074646e-02 4.109603818506002426e-03
1.946640573441982269e-02 -2.522681280970573425e-02 1.470145862549543381e-02
1.148365717381238937e-02 -3.207062929868698120e-02 3.273343294858932495e-02
-2.612141706049442291e-02 1.736745610833168030e-02 3.286735853180289268e-03
-5.925071425735950470e-03 1.065154187381267548e-02 1.589800044894218445e-02
2.868054620921611786e-02 2.320412546396255493e-02 1.351202744990587234e-02
1.676214858889579773e-02 2.069022879004478455e-02 5.288683460094034672e-04
-8.837683126330375671e-03 -3.275670856237411499e-02 2.908550202846527100e-03
-2.808375842869281769e-02 -1.624747528694570065e-03 -1.733110286295413971e-02
-2.478873543441295624e-02 1.966073177754878998e-04 -2.713989652693271637e-02
-3.928754013031721115e-03 2.782028354704380035e-02 2.493079192936420441e-02
1.321041025221347809e-02 4.163237288594245911e-03 -3.034112975001335144e-02
-2.195760048925876617e-02 -1.335675269365310669e-02 -1.663880422711372375e-03
-1.101553719490766525e-02 -1.572014018893241882e-02 2.384658530354499817e-02
1.285343524068593979e-02 -1.444014161825180054e-02 -1.068760361522436142e-02
-3.096377290785312653e-02 2.941808430477976799e-03 1.351020578294992447e-02
-4.147200845181941986e-03 -1.341825257986783981e-02 1.691793277859687805e-02
1.690291054546833038e-02 1.475323736667633057e-02 2.105021476745605469e-02
-2.990591153502464294e-02 2.592923678457736969e-02 -2.548999525606632233e-02
2.423527091741561890e-02 -1.793814077973365784e-02 2.043060027062892914e-02
-9.680999442934989929e-03 -1.676093228161334991e-02 -1.337799709290266037e-02
-2.035566419363021851e-02 2.308341488242149353e-02 1.009535230696201324e-02
3.345296485349535942e-03 7.999703288078308105e-03 8.571484126150608063e-03
-4.275418352335691452e-03 2.633260376751422882e-02 -2.394011802971363068e-02
-1.431509107351303101e-02 -2.735933475196361542e-02 -2.087048254907131195e-02
-1.783376187086105347e-02 8.441182784736156464e-03 -3.826052648946642876e-03
1.871178671717643738e-02 2.317435666918754578e-02 1.626339182257652283e-02
-2.764640003442764282e-02 2.661344408988952637e-02 -2.432244271039962769e-02
-3.097903542220592499e-02 -3.001533448696136475e-03 -2.614705264568328857e-02
-2.041869238018989563e-02 -2.194644883275032043e-02 -2.481231652200222015e-02
5.459848791360855103e-03 -3.102782554924488068e-02 1.097576599568128586e-02
-3.641931572929024696e-03 -1.375244837254285812e-02 2.267524786293506622e-02
-7.130301557481288910e-03 2.605199627578258514e-02 1.000567711889743805e-02
1.538774836808443069e-02 -2.576024271547794342e-02 3.018772788345813751e-02
-1.411384344100952148e-02 4.105843137949705124e-03 6.415314506739377975e-03
4.942527785897254944e-02 3.929585963487625122e-02 -1.976786926388740540e-02
-8.805444836616516113e-02 -2.753291092813014984e-02 1.221523508429527283e-01
2.826803363859653473e-02 -3.987369593232870102e-03 1.009152829647064209e-02
-9.715044870972633362e-03 -4.922511428594589233e-02 1.351224491372704506e-03
-5.367849394679069519e-02 -4.825494438409805298e-02 1.787867513485252857e-04
3.064209409058094025e-02 -1.868083514273166656e-02 -3.967498242855072021e-02
-8.823362179100513458e-03 -2.278737910091876984e-02 1.247833389788866043e-02
-2.983782673254609108e-03 -3.417402133345603943e-02 -5.447855219244956970e-03
3.206175938248634338e-02 2.634992264211177826e-02 2.574050799012184143e-02
-1.806511916220188141e-02 -4.442312195897102356e-02 -4.953822866082191467e-02
-2.819583937525749207e-02 -3.201994672417640686e-02 -3.452119231224060059e-02
-8.579642325639724731e-02 1.651097461581230164e-02 5.575799942016601562e-02
6.895400583744049072e-02 -4.988984018564224243e-02 -9.660335630178451538e-02
-1.423881109803915024e-02 7.426027208566665649e-03 -2.916426025331020355e-02
-5.812738463282585144e-02 -5.578604992479085922e-03 2.722875587642192841e-02
1.219038013368844986e-02 1.418200694024562836e-02 -1.978267543017864227e-02
-2.416311576962471008e-02 -1.303574256598949432e-02 -7.902112789452075958e-03
2.472986094653606415e-02 2.251492254436016083e-02 3.002402558922767639e-02
-6.163367256522178650e-02 3.128829877823591232e-03 3.156815841794013977e-02
2.156699309125542641e-03 3.838718635961413383e-03 7.253063376992940903e-03
-9.548244066536426544e-03 1.984629966318607330e-02 1.344411983154714108e-03
3.838120400905609131e-02 5.719077587127685547e-02 2.480868436396121979e-02
5.918068811297416687e-02 5.524262785911560059e-03 -5.341288819909095764e-02
-7.020049542188644409e-02 -2.958372607827186584e-02 9.527037292718887329e-02
1.270665042102336884e-02 2.710937988013029099e-03 -4.937954246997833252e-03
5.814092699438333511e-03 9.354422800242900848e-03 -4.422578029334545135e-03
-2.637501992285251617e-02 -3.273601830005645752e-02 -9.598069824278354645e-03
-1.368005760014057159e-02 4.218040034174919128e-03 1.019884645938873291e-01
1.401406596414744854e-03 3.085702285170555115e-02 2.491317689418792725e-02
1.734996959567070007e-02 -1.246533077210187912e-02 -8.192247711122035980e-03
-1.655813865363597870e-02 2.093001268804073334e-02 2.598147653043270111e-02
-3.499708324670791626e-02 3.772073984146118164e-02 7.993440330028533936e-02
6.193701177835464478e-02 1.053886767476797104e-02 3.697587177157402039e-02
-3.387144953012466431e-02 -3.496233606711030006e-03 -9.858243167400360107e-02
-5.210089962929487228e-03 -5.008659139275550842e-02 1.688589807599782944e-03
1.173986960202455521e-02 4.386173188686370850e-02 6.558180600404739380e-02
-8.309602737426757812e-02 -1.413229294121265411e-02 -4.123696126043796539e-03
1.001020800322294235e-02 1.826049759984016418e-02 9.129595011472702026e-03
-1.453413534909486771e-02 7.527250796556472778e-03 1.428803987801074982e-02
1.144241541624069214e-03 -3.262759372591972351e-02 4.831477627158164978e-02
9.752543643116950989e-03 -2.589810825884342194e-02 3.912651911377906799e-03
7.354392111301422119e-02 3.557265922427177429e-02 4.836631566286087036e-02
-1.035677175968885422e-02 1.575555070303380489e-03 3.674733266234397888e-02
-7.308749947696924210e-03 3.340980783104896545e-02 -6.783827394247055054e-02
8.785091340541839600e-02 5.452110432088375092e-03 1.453973203897476196e-01
2.343814820051193237e-02 -7.953212596476078033e-03 4.899371787905693054e-02
-6.410673260688781738e-02 1.105760969221591949e-02 -6.801856309175491333e-02
1.356747467070817947e-02 -1.126802340149879456e-02 -1.349419937469065189e-03
-2.098757214844226837e-02 1.000194437801837921e-02 -2.894984744489192963e-02
1.023157779127359390e-02 -1.058550365269184113e-02 1.728226081468164921e-03
-1.848336867988109589e-02 -5.253689829260110855e-03 -6.072368007153272629e-03
-1.515363529324531555e-02 2.837303094565868378e-02 -1.355029642581939697e-02
-4.533533006906509399e-02 -1.182755827903747559e-02 1.327311270870268345e-03
3.684304654598236084e-02 -2.010572142899036407e-02 -2.923358790576457977e-02
1.581868343055248260e-02 4.158071801066398621e-02 2.793934009969234467e-02
-3.916511777788400650e-03 2.139371261000633240e-02 -5.627573654055595398e-02
8.148984611034393311e-02 3.075338713824748993e-02 4.783332720398902893e-02
1.061147730797529221e-02 -3.774264454841613770e-02 3.437415882945060730e-02
5.443244054913520813e-02 1.631222851574420929e-02 4.367223754525184631e-02
7.461205590516328812e-03 3.032049909234046936e-02 -4.658069834113121033e-02
6.339771207422018051e-03 -3.880820795893669128e-02 -4.436640813946723938e-02
6.713158637285232544e-02 6.663632392883300781e-02 7.858169823884963989e-02
1.247437857091426849e-02 -1.478825230151414871e-02 -1.775668375194072723e-02
-2.735823206603527069e-02 -2.004969120025634766e-02 -7.548261433839797974e-02
9.010445326566696167e-03 2.831125864759087563e-03 -1.343789417296648026e-02
4.069688543677330017e-02 5.705949291586875916e-02 5.254059284925460815e-02
1.750095002353191376e-02 -1.405789423733949661e-02 3.957793489098548889e-02
9.638266637921333313e-03 2.917528524994850159e-02 3.902845829725265503e-02
-1.508011668920516968e-02 2.826864831149578094e-02 5.460773594677448273e-03
2.614584518596529961e-03 -2.010185085237026215e-02 -1.249755546450614929e-02
1.834922470152378082e-02 -2.927398495376110077e-02 1.158811617642641068e-02
-6.323411315679550171e-02 -5.547360703349113464e-02 -4.017806798219680786e-02
-1.501462794840335846e-02 -1.973167993128299713e-02 -7.066905964165925980e-04
-2.805708209052681923e-03 1.175886578857898712e-02 -9.259754791855812073e-03
9.011610527522861958e-04 3.327824873849749565e-03 -2.080839913105592132e-04
7.079821079969406128e-02 8.666532486677169800e-02 1.155217643827199936e-02
-1.058305278420448303e-01 -1.492286026477813721e-01 -1.260234117507934570e-01
1.636129617691040039e-02 2.348782308399677277e-02 -2.445878833532333374e-02
-1.025258563458919525e-03 5.972787737846374512e-02 4.762966930866241455e-02
1.996964588761329651e-02 2.051994204521179199e-02 -1.421558205038309097e-02
-3.765657544136047363e-03 -2.873300947248935699e-02 -2.332648029550909996e-03
3.073113225400447845e-02 1.101185381412506104e-02 9.979686699807643890e-03
2.041740901768207550e-02 5.482747405767440796e-02 3.377661481499671936e-02
2.081045322120189667e-02 4.557295702397823334e-03 8.253210224211215973e-03
-2.856218814849853516e-02 2.249933965504169464e-02 4.130831733345985413e-02
7.986087352037429810e-03 -1.635625213384628296e-02 -3.975482285022735596e-02
-2.571111544966697693e-02 -6.580768618732690811e-03 -4.866671748459339142e-03
6.054058298468589783e-02 8.424665778875350952e-02 3.326517343521118164e-02
-2.235767431557178497e-02 1.807370455935597420e-03 -1.211732346564531326e-02
-3.397645801305770874e-02 -7.962590456008911133e-02 -9.667252004146575928e-02
-1.579221151769161224e-02 1.182081992737948895e-03 2.324202470481395721e-02
8.055505901575088501e-02 3.522887825965881348e-02 -2.096472308039665222e-02
3.060165606439113617e-02 -3.008540347218513489e-02 -2.732605114579200745e-02
-2.669415064156055450e-02 1.357009727507829666e-02 -2.263092808425426483e-02
-2.193037606775760651e-02 -2.130757644772529602e-02 -2.400471828877925873e-02
6.228017155081033707e-03 1.551613677293062210e-02 1.194637175649404526e-02
-9.623323567211627960e-03 -1.950753480195999146e-02 -1.790533214807510376e-02
1.675324887037277222e-01 6.879348307847976685e-02 1.545368134975433350e-01
-5.763063207268714905e-02 -9.393155574798583984e-03 3.141752630472183228e-02
4.622910916805267334e-02 4.709329921752214432e-03 1.645685988478362560e-03
8.596085011959075928e-02 1.165083888918161392e-02 3.780477494001388550e-02
2.916082926094532013e-02 -1.688074693083763123e-02 -1.100064255297183990e-02
2.976454235613346100e-02 2.665611729025840759e-02 2.113528735935688019e-02
-5.261247605085372925e-02 -3.243620693683624268e-02 -1.423767115920782089e-02
2.608833089470863342e-02 -2.800452895462512970e-02 -1.718648523092269897e-02
-4.064227640628814697e-02 -3.723806142807006836e-02 1.625266671180725098e-02
9.544306434690952301e-03 1.357365865260362625e-02 2.509087696671485901e-02
3.627145290374755859e-02 5.360471457242965698e-02 1.203332170844078064e-01
-9.263491630554199219e-02 -1.067933160811662674e-02 -1.002772375941276550e-01
-1.068140566349029541e-02 -1.066927798092365265e-02 3.913793712854385376e-03
6.681920588016510010e-02 -4.704160615801811218e-03 -1.736682723276317120e-03
-7.832806557416915894e-03 -1.996206492185592651e-02 1.320491544902324677e-02
-2.432792074978351593e-02 2.043331600725650787e-02 1.683258637785911560e-02
-2.541870065033435822e-02 -7.292331196367740631e-03 -1.981336064636707306e-02
2.199621498584747314e-02 3.824335336685180664e-02 6.847525388002395630e-02
-2.268069982528686523e-02 6.898391526192426682e-03 -4.872681107372045517e-03
-1.970718242228031158e-02 -2.388512529432773590e-02 -1.489245146512985229e-02
-4.898872599005699158e-02 1.721087656915187836e-02 2.186190895736217499e-02
-1.707958802580833435e-02 5.021329037845134735e-03 -2.356256358325481415e-02
8.482304215431213379e-02 1.892200112342834473e-02 8.768543601036071777e-02
-5.879146046936511993e-03 -1.495883055031299591e-02 -7.986903190612792969e-03
-1.244413014501333237e-02 1.853994908742606640e-03 9.238425642251968384e-03
3.673538565635681152e-03 2.304759621620178223e-02 -2.339811064302921295e-03
-1.646273769438266754e-02 -3.405545430723577738e-04 8.906847238540649414e-02
-2.447646483778953552e-02 -1.006312202662229538e-02 2.379179373383522034e-02
-3.552407026290893555e-02 -2.746536023914813995e-02 -1.884926855564117432e-02
1.503636594861745834e-02 -1.057484745979309082e-02 -2.142284996807575226e-02
5.948028992861509323e-03 4.969659727066755295e-03 5.262817814946174622e-02
-1.011704374104738235e-02 -1.087947934865951538e-02 -1.684597507119178772e-02
4.825265612453222275e-03 7.411965634673833847e-03 -6.930883228778839111e-02
1.895890198647975922e-02 -4.797374363988637924e-03 3.142017871141433716e-02
7.520919293165206909e-02 3.397714346647262573e-02 4.326686635613441467e-02
2.711107023060321808e-02 4.886981844902038574e-02 9.797065518796443939e-03
-2.859312109649181366e-02 2.018066123127937317e-02 -2.879560459405183792e-03
-5.640002898871898651e-03 -3.138357400894165039e-02 -1.788269169628620148e-02
-1.550200488418340683e-02 -1.233098283410072327e-02 2.944600209593772888e-02
-5.100436974316835403e-03 1.556706614792346954e-02 3.201093152165412903e-02
-8.900769054889678955e-03 9.740764275193214417e-03 2.176163159310817719e-02
2.043938636779785156e-02 2.539882250130176544e-02 1.795578398741781712e-03
-8.462661644443869591e-04 -2.882273867726325989e-03 7.576548028737306595e-03
-7.405739277601242065e-02 7.544142426922917366e-04 9.986100345849990845e-02
1.249083725269883871e-04 -2.661546319723129272e-02 -2.155114896595478058e-02
3.391281515359878540e-02 4.900944605469703674e-02 -3.057585097849369049e-02
8.840506896376609802e-03 8.575290441513061523e-03 2.404525317251682281e-02
-9.149277582764625549e-03 -2.623215690255165100e-02 1.477196626365184784e-02
-2.313258592039346695e-03 2.515717409551143646e-02 2.632606588304042816e-02
1.568710617721080780e-02 5.103009566664695740e-02 -1.799065736122429371e-03
4.196666646748781204e-03 -1.288539636880159378e-02 1.053798291832208633e-02
-1.740533299744129181e-02 -1.579867675900459290e-02 -7.226483430713415146e-03
-2.922431565821170807e-02 5.026412545703351498e-04 -3.821870079264044762e-03
-5.073846131563186646e-02 -3.126505389809608459e-02 1.463141106069087982e-02
-3.965283278375864029e-03 -6.000753957778215408e-03 -6.432098150253295898e-02
-6.136586517095565796e-02 -1.928763277828693390e-02 -1.313826069235801697e-03
-1.057462543249130249e-01 -5.545419454574584961e-02 2.989529073238372803e-02
2.278878353536128998e-02 -3.128915652632713318e-02 -1.638681627810001373e-02
1.287212013266980648e-03 -2.196155302226543427e-02 -2.799813449382781982e-02
-3.105932660400867462e-02 -6.573115941137075424e-03 4.656011238694190979e-03
3.509869053959846497e-02 3.696307074278593063e-03 -2.705147780943661928e-04
1.173765049315989017e-03 1.995063619688153267e-03 1.090223435312509537e-02
-1.818719133734703064e-02 -9.208775009028613567e-04 -3.822147101163864136e-02
3.413624595850706100e-03 -4.371840972453355789e-03 1.924493722617626190e-02
1.127850934863090515e-01 -7.071384228765964508e-03 -6.844245642423629761e-02
-6.249528378248214722e-02 -9.441639296710491180e-03 1.270741410553455353e-02
4.629296064376831055e-02 3.183102607727050781e-02 4.188092797994613647e-02
1.234597340226173401e-01 5.165275558829307556e-02 -9.846807457506656647e-03
7.021253462880849838e-03 2.429050393402576447e-02 5.644707009196281433e-03
1.405528746545314789e-02 -2.513674274086952209e-02 -9.695274755358695984e-03
1.365323364734649658e-02 5.592773854732513428e-02 6.327854841947555542e-02
-2.539538033306598663e-02 -2.171052992343902588e-02 3.005125559866428375e-02
-1.146938875317573547e-01 -1.331177819520235062e-02 2.187258191406726837e-02
3.776054084300994873e-02 3.031861037015914917e-02 6.466054916381835938e-02
-3.069634316489100456e-03 -7.350436598062515259e-02 -1.220764443278312683e-01
-7.226800173521041870e-02 6.872832030057907104e-02 8.557088673114776611e-02
-1.770788989961147308e-02 -2.198707684874534607e-02 -2.300428785383701324e-02
9.232407063245773315e-02 -2.959966100752353668e-02 -2.387426048517227173e-02
-1.542938500642776489e-02 -4.067180212587118149e-03 -1.763017103075981140e-02
-2.970593795180320740e-02 2.106557413935661316e-02 -1.433237455785274506e-02
5.151454824954271317e-03 2.195842750370502472e-02 1.378106139600276947e-02
2.241611853241920471e-02 -1.269778516143560410e-02 7.351935375481843948e-03
3.802491817623376846e-03 1.059695240110158920e-02 -1.587585429660975933e-03
1.072252518497407436e-03 1.205099094659090042e-02 -1.748301088809967041e-02
-3.968781977891921997e-02 -3.573281690478324890e-02 -2.036921679973602295e-02
1.221296098083257675e-02 4.770762461703270674e-04 -2.678724937140941620e-02
1.032177880406379700e-01 -2.159568294882774353e-02 -6.700468063354492188e-02
4.736804403364658356e-03 2.559886872768402100e-02 -1.154712680727243423e-02
-3.157072141766548157e-02 3.236047923564910889e-02 3.721736744046211243e-02
-7.385722361505031586e-03 -2.075998298823833466e-02 -2.708869613707065582e-02
-6.972103565931320190e-02 -9.182307124137878418e-02 -4.175410419702529907e-02
-5.816344544291496277e-02 -1.790970005095005035e-02 5.886969156563282013e-03
-5.519559234380722046e-02 1.267928164452314377e-02 -8.011249825358390808e-03
2.482603117823600769e-02 -9.883241727948188782e-03 -1.274174824357032776e-02
1.373076997697353363e-02 -3.358665853738784790e-02 -6.741546094417572021e-02
-8.600320667028427124e-03 -5.094986408948898315e-02 -1.104837562888860703e-02
4.116834700107574463e-02 8.853360265493392944e-02 -1.611940115690231323e-01
-2.003193646669387817e-02 2.359052747488021851e-02 3.460329771041870117e-02
6.763945333659648895e-03 -9.063222445547580719e-03 3.054798580706119537e-02
3.388572484254837036e-03 5.622103810310363770e-02 -2.620907686650753021e-02
-3.157981671392917633e-03 4.490165505558252335e-03 -1.317660138010978699e-02
-1.953966729342937469e-02 -1.498893275856971741e-02 -2.888414077460765839e-03
3.867376223206520081e-02 1.531852874904870987e-02 6.485266610980033875e-03
3.074869140982627869e-02 -2.722033113241195679e-02 2.175174839794635773e-02
6.692762952297925949e-03 -9.484459459781646729e-02 -6.904860492795705795e-03
-5.867819301784038544e-03 3.777458146214485168e-02 2.020450192503631115e-04
6.249239202588796616e-03 1.013053487986326218e-02 -8.003870397806167603e-02
1.998206973075866699e-02 -4.745869711041450500e-02 1.676146872341632843e-02
-4.527133330702781677e-02 -3.034148924052715302e-02 -4.687740933150053024e-03
1.072372496128082275e-02 1.080436706542968750e-01 -2.410487830638885498e-02
-1.234851777553558350e-02 3.013665601611137390e-02 1.089312136173248291e-02
-1.622030138969421387e-02 8.291804231703281403e-03 2.097905427217483521e-02
-1.082962192595005035e-02 2.001438522711396217e-03 2.692211791872978210e-02
3.496072441339492798e-02 3.695870190858840942e-02 -2.990913391113281250e-02
-2.384316409006714821e-03 -2.988320402801036835e-02 5.810699076391756535e-04
5.651782825589179993e-02 1.380335818976163864e-02 2.568929456174373627e-02
3.151370212435722351e-02 -7.383211050182580948e-03 -5.170079320669174194e-02
-1.989029720425605774e-02 1.459540892392396927e-02 1.022686157375574112e-02
5.858208984136581421e-02 9.129748493432998657e-02 -8.156292140483856201e-02
-1.019102334976196289e-02 9.039365686476230621e-03 2.418026514351367950e-02
3.529615234583616257e-03 -1.166842994280159473e-04 -4.148218780755996704e-02
1.578306779265403748e-02 -3.990088589489459991e-03 -7.600279152393341064e-02
3.286344185471534729e-02 -2.491446398198604584e-02 -1.042496040463447571e-01
4.957946366630494595e-04 -1.409461256116628647e-02 -6.012627854943275452e-02
-3.202002122998237610e-02 -4.631674289703369141e-02 1.406589057296514511e-02
-2.339906245470046997e-02 1.404149830341339111e-02 1.980836689472198486e-02
8.311199955642223358e-03 7.605905644595623016e-03 -2.801911532878875732e-02
-1.019410416483879089e-02 -3.755926154553890228e-03 -2.394926361739635468e-02
2.214361540973186493e-02 -1.540422998368740082e-02 -2.980592474341392517e-02
6.759719457477331161e-03 2.322778664529323578e-02 2.125276811420917511e-02
-1.298105996102094650e-02 2.223001793026924133e-02 -1.762378029525279999e-02
-8.218261413276195526e-03 -2.480921335518360138e-02 1.867394894361495972e-02
2.351783215999603271e-02 2.400678349658846855e-03 2.705729939043521881e-02
1.917417347431182861e-02 2.573546394705772400e-02 -1.884019002318382263e-02
-5.048586055636405945e-03 -2.277422510087490082e-02 2.647232823073863983e-02
-8.008769713342189789e-03 2.040212787687778473e-02 -1.745465584099292755e-02
-5.817529745399951935e-03 -9.959494695067405701e-03 2.366691827774047852e-02
1.955943554639816284e-02 1.722488179802894592e-02 -2.134771272540092468e-02
-2.092172764241695404e-02 1.328349672257900238e-02 -1.203014981001615524e-02
-2.443961985409259796e-02 -7.021881174296140671e-03 -1.998097822070121765e-02
-2.020339295268058777e-02 -2.331151254475116730e-02 1.768006198108196259e-02
-1.877682283520698547e-02 1.067112758755683899e-02 -1.313825789839029312e-02
-2.485970407724380493e-02 1.140574179589748383e-02 -4.099189769476652145e-03
1.484649349004030228e-02 -3.047079220414161682e-02 2.235713601112365723e-02
2.241204120218753815e-02 -3.051458392292261124e-03 3.009510785341262817e-02
-2.991138026118278503e-02 -1.417355332523584366e-02 2.312383428215980530e-02
-1.842138171195983887e-02 -4.131329245865345001e-03 2.102701924741268158e-02
7.840787991881370544e-03 6.008233409374952316e-03 1.672738580964505672e-03
-2.122286334633827209e-02 -6.083881482481956482e-03 -1.102492678910493851e-02
2.150385407730937004e-03 1.686327718198299408e-02 -1.221857313066720963e-02
-1.110283192247152328e-02 -1.423931308090686798e-02 3.087911009788513184e-02
1.886299997568130493e-02 1.642905734479427338e-02 -1.159177348017692566e-02
-2.264205180108547211e-02 -1.622463203966617584e-02 2.095942385494709015e-02
1.865509338676929474e-02 -2.615317702293395996e-02 1.347024692222476006e-03
-2.973277820274233818e-03 -6.508036982268095016e-03 -8.097972720861434937e-03
2.242030948400497437e-02 4.359780345112085342e-03 -1.334571838378906250e-02
7.923091761767864227e-03 -1.881177164614200592e-02 -6.024748086929321289e-03
-1.859233900904655457e-02 2.912577614188194275e-02 5.437166895717382431e-03
-8.348729461431503296e-03 -1.877682283520698547e-02 1.805712655186653137e-02
-4.215497523546218872e-03 8.987287059426307678e-03 6.174365989863872528e-03
1.032593846321105957e-02 9.965139441192150116e-03 -6.842905655503273010e-03
-2.061856677755713463e-03 -2.922678738832473755e-02 4.474042914807796478e-03
-5.799055099487304688e-03 2.780194208025932312e-02 3.068263828754425049e-02
-9.596758522093296051e-03 -2.933439053595066071e-02 -3.043278306722640991e-02
-2.785373711958527565e-03 1.997198164463043213e-02 -9.334874339401721954e-03
2.995225833728909492e-03 -2.308681420981884003e-02 -1.722314953804016113e-02
-2.777623571455478668e-02 -3.055889718234539032e-02 1.202646875753998756e-03
1.643459871411323547e-02 -1.568322256207466125e-02 -7.589682471007108688e-03
-2.545403502881526947e-02 -1.085420046001672745e-02 -2.582306228578090668e-02
-1.472928561270236969e-02 -1.753096096217632294e-02 -9.596134535968303680e-03
-4.608803428709506989e-03 -1.795666664838790894e-02 -2.662130072712898254e-02
1.873083226382732391e-02 -1.899790763854980469e-02 1.035667024552822113e-02
-2.741189301013946533e-02 2.394141070544719696e-02 -2.188573218882083893e-02
6.037265993654727936e-03 9.960149414837360382e-03 -2.034965157508850098e-02
-1.571469008922576904e-02 1.972814789041876793e-03 1.190436910837888718e-02
-2.245881408452987671e-02 2.629873901605606079e-02 -2.421836182475090027e-02
-2.449168264865875244e-02 1.874756254255771637e-02 -1.041321447701193392e-04
4.283528542146086693e-04 4.972440365236252546e-05 -1.873506582342088223e-03
2.724682167172431946e-02 -1.707965508103370667e-03 1.024439698085188866e-04
4.047348164021968842e-03 1.660374365746974945e-02 -2.394337672740221024e-03
-4.269945900887250900e-03 -1.519691850990056992e-02 7.854121737182140350e-03
1.305590104311704636e-02 -2.611591480672359467e-03 -1.602423749864101410e-02
5.495320074260234833e-04 2.060633711516857147e-02 -2.540505863726139069e-02
1.905604265630245209e-02 -5.751494783908128738e-03 -1.068130601197481155e-02
-1.352033019065856934e-02 1.586432754993438721e-02 2.376286685466766357e-02
3.498766804113984108e-03 -1.078957412391901016e-02 1.584686711430549622e-02
-2.252020500600337982e-02 -4.321562591940164566e-03 1.377379894256591797e-02
3.087085857987403870e-02 -2.956927381455898285e-02 -1.863301359117031097e-02
-1.200889237225055695e-02 2.248233556747436523e-02 -2.692413702607154846e-02
9.047708474099636078e-03 2.051463723182678223e-02 -2.116101328283548355e-03
-2.751404605805873871e-02 -2.958924509584903717e-02 2.137710154056549072e-02
-4.306886717677116394e-02 -2.920223027467727661e-02 3.388536395505070686e-03
1.035359129309654236e-01 -9.763207286596298218e-02 1.845646649599075317e-02
1.497360318899154663e-02 5.683159083127975464e-02 3.027426078915596008e-02
7.399813830852508545e-02 2.799875475466251373e-02 -1.156407967209815979e-02
8.524102717638015747e-02 -1.269318442791700363e-02 -2.992669306695461273e-02
8.002972230315208435e-03 6.911664269864559174e-03 -9.737883694469928741e-03
-2.989851310849189758e-02 1.649591885507106781e-02 -1.606391929090023041e-02
-5.280187353491783142e-02 -1.709963008761405945e-02 -1.387695781886577606e-02
-2.651422284543514252e-03 -2.191796526312828064e-02 -1.269024983048439026e-02
-5.871726199984550476e-02 -7.459241431206464767e-03 -1.943938061594963074e-02
7.169779390096664429e-02 3.652374446392059326e-02 1.002177875488996506e-02
4.642356932163238525e-02 -1.732953451573848724e-02 4.494575038552284241e-02
-1.499967128038406372e-01 6.017800047993659973e-02 -3.382028266787528992e-02
-2.320678718388080597e-02 -2.334712632000446320e-02 -3.134514018893241882e-02
8.217558264732360840e-02 -1.383812353014945984e-02 3.721101582050323486e-02
-2.893047779798507690e-02 -6.570653524249792099e-03 4.271630663424730301e-03
-2.424132078886032104e-02 1.354155689477920532e-02 8.563895709812641144e-03
-5.229550879448652267e-03 1.500862929970026016e-02 -1.014747004956007004e-02
7.820171862840652466e-02 5.366825498640537262e-03 1.419803965836763382e-02
-1.214513438753783703e-03 2.662060409784317017e-02 1.073465682566165924e-02
1.373057812452316284e-02 -1.912861876189708710e-02 -3.714997321367263794e-02
-8.834746479988098145e-02 -1.288701314479112625e-02 3.243220597505569458e-02
-8.636686950922012329e-02 -7.986155338585376740e-03 -4.489816352725028992e-02
4.143447428941726685e-02 -6.771108508110046387e-02 -5.024423450231552124e-02
-5.102755501866340637e-02 -5.553223565220832825e-02 -7.387910038232803345e-02
-1.179010942578315735e-01 2.549341693520545959e-02 -3.225106000900268555e-02
4.469829611480236053e-03 -4.409564658999443054e-03 -5.298717692494392395e-02
-3.909996524453163147e-02 -2.001850493252277374e-02 -2.489034645259380341e-02
-3.129481896758079529e-02 -2.354582026600837708e-02 -6.930905859917402267e-03
-1.433819066733121872e-02 -2.033545821905136108e-02 -2.555765397846698761e-02
1.439697947353124619e-02 -6.470891647040843964e-03 5.052970373071730137e-04
4.041841998696327209e-02 -3.034672699868679047e-02 3.470573341473937035e-03
-1.579897105693817139e-02 1.451112981885671616e-02 3.441471606492996216e-03
-4.389801993966102600e-03 -6.024439353495836258e-03 -2.094418928027153015e-02
-1.644025184214115143e-02 -2.006671391427516937e-02 -3.523579100146889687e-03
-1.393676735460758209e-02 -5.354826804250478745e-03 -6.850417703390121460e-03
6.288733333349227905e-03 -1.817092485725879669e-02 -9.277863427996635437e-03
-1.754747517406940460e-02 4.208510741591453552e-03 1.813784986734390259e-02
-7.617741823196411133e-03 2.438833191990852356e-02 -8.673090487718582153e-04
2.187412604689598083e-02 4.381129518151283264e-03 -1.765206828713417053e-02
-1.180373318493366241e-02 1.588493026793003082e-02 -3.087423928081989288e-02
-1.509199105203151703e-02 -1.708492450416088104e-02 5.785051733255386353e-03
-8.524524979293346405e-03 9.309672750532627106e-03 -2.552146092057228088e-02
-1.914747059345245361e-02 -2.940864488482475281e-02 -2.677786163985729218e-02
-8.264169096946716309e-03 -2.347997203469276428e-02 -9.637880139052867889e-03
-8.871511556208133698e-03 -2.803783118724822998e-02 2.124823071062564850e-02
-2.540851198136806488e-02 -2.094488777220249176e-02 -2.410731650888919830e-02
3.010183572769165039e-03 -9.548760019242763519e-03 -2.726073563098907471e-02
1.019899360835552216e-02 2.835104474797844887e-03 1.865918003022670746e-02
-3.096788376569747925e-02 -6.459219846874475479e-03 5.530603695660829544e-03
2.299045957624912262e-02 1.407429203391075134e-02 -1.252071838825941086e-02
-2.702759951353073120e-02 -1.579649373888969421e-02 4.605676513165235519e-03
-1.189398113638162613e-03 2.558037638664245605e-02 -2.228778973221778870e-02
-3.029461205005645752e-02 1.346085593104362488e-02 2.086050249636173248e-02
-1.196918170899152756e-02 1.011434383690357208e-02 6.813310086727142334e-03
-5.634038709104061127e-03 1.234753406606614590e-03 -1.204832643270492554e-02
4.655406810343265533e-03 1.062309928238391876e-02 -1.742547727189958096e-03
1.688407361507415771e-02 -2.282642200589179993e-02 2.080998755991458893e-02
7.922407239675521851e-03 1.080036978237330914e-03 -9.371792897582054138e-03
3.106808103621006012e-02 -1.609224267303943634e-02 1.882398314774036407e-02
9.345036000013351440e-03 -2.328944392502307892e-02 -2.151203341782093048e-02
2.393679320812225342e-02 -5.035477224737405777e-03 2.739928290247917175e-02
5.846262909471988678e-03 2.180680446326732635e-02 -2.107184380292892456e-02
-2.199617400765419006e-02 6.632019300013780594e-03 3.050731495022773743e-02
1.040439587086439133e-02 3.189585357904434204e-02 1.400948036462068558e-02
-2.431658655405044556e-02 7.955623418092727661e-02 -8.351582288742065430e-02
2.446880377829074860e-02 -1.574510894715785980e-02 -2.469267696142196655e-02
-1.678860932588577271e-02 -3.043253347277641296e-02 3.830925002694129944e-02
-2.906511723995208740e-02 -1.677171513438224792e-02 -1.221911609172821045e-02
4.345824010670185089e-03 -1.074102334678173065e-02 1.578052528202533722e-02
-1.559918001294136047e-02 -2.185931801795959473e-02 1.695663784630596638e-03
3.936808183789253235e-02 -9.713187813758850098e-03 2.440574578940868378e-02
-9.306639432907104492e-03 -2.735011093318462372e-02 4.396809265017509460e-03
6.154759228229522705e-02 -3.436604142189025879e-02 2.577857114374637604e-02
-4.724489897489547729e-02 -3.883307427167892456e-02 1.882423274219036102e-02
-1.416697725653648376e-02 5.378947407007217407e-02 2.210868056863546371e-03
8.360716700553894043e-02 -6.792929768562316895e-02 9.165868163108825684e-03
5.144602060317993164e-02 -1.035988912917673588e-03 1.701683388091623783e-03
-4.251872655004262924e-03 4.808066785335540771e-02 -2.368318475782871246e-02
-5.196899641305208206e-03 -1.732087507843971252e-02 1.603942178189754486e-02
-1.303947996348142624e-02 5.697709973901510239e-03 -1.230103708803653717e-02
2.204202488064765930e-02 1.724242232739925385e-02 -2.705891150981187820e-03
-1.532324473373591900e-03 4.876285046339035034e-02 -1.823124475777149200e-02
-2.317068725824356079e-02 1.549086719751358032e-02 2.393655665218830109e-02
4.104159027338027954e-02 6.182709708809852600e-03 1.741239987313747406e-02
8.446580171585083008e-02 4.480421915650367737e-02 -3.840737044811248779e-02
5.089600011706352234e-02 3.679564595222473145e-02 4.729540646076202393e-02
-1.670443825423717499e-02 8.868898451328277588e-02 -3.084023296833038330e-02
3.535889834165573120e-02 9.220101637765765190e-04 6.227644532918930054e-02
8.934769034385681152e-02 -3.839525580406188965e-02 -5.246691033244132996e-02
-6.661368999630212784e-03 -5.349987652152776718e-03 -9.750670753419399261e-03
7.009973376989364624e-02 3.607830777764320374e-02 -4.264587163925170898e-02
2.862820774316787720e-02 4.682956729084253311e-03 -6.265622377395629883e-02
3.829772025346755981e-02 -1.062610093504190445e-02 2.896527759730815887e-02
1.401849649846553802e-02 -1.051198807545006275e-03 2.568062953650951385e-02
1.909896731376647949e-02 4.409806430339813232e-02 -1.140645705163478851e-02
1.627517305314540863e-02 5.681009031832218170e-03 -2.839575288817286491e-03
-5.675255507230758667e-02 -2.794559299945831299e-02 -6.650739163160324097e-02
-3.339678049087524414e-03 3.507883101701736450e-02 -9.985456243157386780e-03
2.146993204951286316e-02 1.594300754368305206e-02 -1.604811102151870728e-02
-4.256072640419006348e-02 -2.532847598195075989e-02 -2.783586271107196808e-02
-6.105893291532993317e-03 -3.471929207444190979e-02 -2.969655022025108337e-02
-2.272199653089046478e-02 -2.181679382920265198e-02 -2.298246510326862335e-02
-7.810722105205059052e-03 4.830617457628250122e-03 -9.726811200380325317e-03
-2.379843220114707947e-02 -1.350068952888250351e-02 -2.099296823143959045e-02
3.718479350209236145e-02 -3.205290995538234711e-04 2.568359486758708954e-02
-1.100502256304025650e-02 -2.006329409778118134e-02 1.653808914124965668e-02
1.633511297404766083e-02 -1.989073865115642548e-02 1.994862593710422516e-02
-1.505026128143072128e-02 -3.178751468658447266e-02 1.318822521716356277e-02
-1.322172861546278000e-02 -2.843947336077690125e-02 3.581795096397399902e-02
-1.675664260983467102e-02 -2.824342623353004456e-02 -2.608221396803855896e-02
-2.538088150322437286e-02 3.955009859055280685e-03 -1.991902536246925592e-04
-5.261305719614028931e-03 1.983250491321086884e-02 -8.548094891011714935e-03
1.108142267912626266e-02 2.174484916031360626e-02 1.421389169991016388e-02
-1.957646571099758148e-02 -1.098964456468820572e-02 -3.401957824826240540e-02
4.688166081905364990e-03 2.384264394640922546e-02 1.782876625657081604e-02
-7.642678916454315186e-03 -1.145378802902996540e-03 -8.394107222557067871e-03
2.996003953740000725e-03 -6.523132789880037308e-03 2.964629046618938446e-02
9.459686465561389923e-03 1.908954605460166931e-02 3.113326244056224823e-02
-2.688087895512580872e-02 5.397070199251174927e-03 -3.560905531048774719e-02
2.100075408816337585e-02 9.867335669696331024e-03 -3.684245282784104347e-03
-7.655210793018341064e-03 -1.997859776020050049e-02 -2.651476301252841949e-02
-1.830734254326671362e-04 -4.182572010904550552e-03 -3.133181482553482056e-02
-1.670143753290176392e-02 1.721540652215480804e-02 5.748370196670293808e-03
4.145498853176832199e-03 1.028245128691196442e-02 -2.123228088021278381e-02
2.593755349516868591e-02 2.427643164992332458e-02 -1.181219331920146942e-02
1.036361907608807087e-03 7.076819427311420441e-03 2.312163822352886200e-02
-1.722400891594588757e-03 1.894521713256835938e-02 5.549303721636533737e-03
2.131271921098232269e-02 -1.924895867705345154e-02 -1.619586721062660217e-02
-3.332215826958417892e-03 1.891595777124166489e-03 -1.777940988540649414e-02
-1.801018603146076202e-02 6.259484682232141495e-03 -1.013094279915094376e-02
3.092004545032978058e-02 8.724954677745699883e-04 2.112456411123275757e-02
2.255535498261451721e-02 -2.123595401644706726e-02 6.977715995162725449e-03
1.638858951628208160e-02 1.401660405099391937e-02 1.345049124211072922e-02
7.477146107703447342e-03 1.698296703398227692e-02 1.565976813435554504e-02
1.682869158685207367e-02 -2.158988825976848602e-02 1.185543090105056763e-02
-7.258678786456584930e-03 -7.258492521941661835e-03 -1.918905600905418396e-02
1.679061912000179291e-02 -8.873579092323780060e-03 -5.724951159209012985e-03
1.014054380357265472e-02 1.249360386282205582e-02 2.420324273407459259e-02
-2.501610107719898224e-02 4.071067087352275848e-03 1.735789701342582703e-02
1.466874091420322657e-04 -1.397915557026863098e-02 -2.155473269522190094e-02
1.182519551366567612e-02 -2.512653730809688568e-02 5.341170355677604675e-03
2.564871124923229218e-02 1.721971784718334675e-03 -2.108811633661389351e-03
-9.941184893250465393e-03 2.566071972250938416e-02 1.887617819011211395e-02
-1.437300443649291992e-02 9.705764241516590118e-03 4.968985449522733688e-03
1.706603355705738068e-02 -4.561077803373336792e-03 -2.216197922825813293e-02
-2.557304129004478455e-02 1.942745409905910492e-02 -1.717261038720607758e-02
-2.951801568269729614e-02 -2.572545036673545837e-02 -4.518887493759393692e-03
1.122708083130419254e-03 2.101442404091358185e-02 -2.975553832948207855e-02
-1.334959547966718674e-02 2.074981108307838440e-02 -3.887856146320700645e-03
2.989227883517742157e-02 3.394438885152339935e-03 1.940015330910682678e-02
-2.934778667986392975e-02 2.669943310320377350e-02 -5.121130496263504028e-03
1.997351646423339844e-02 2.810687012970447540e-02 -1.409791596233844757e-02
-1.656869240105152130e-02 -3.605459351092576981e-03 1.320056710392236710e-02
-1.879335381090641022e-02 -3.125013783574104309e-02 -2.778462693095207214e-02
1.391127798706293106e-02 5.913071800023317337e-03 -2.770944125950336456e-02
1.275633089244365692e-02 -2.948132716119289398e-02 -1.416516117751598358e-02
-2.351311780512332916e-02 -8.401707746088504791e-04 -2.104061841964721680e-02
-2.354086004197597504e-02 1.846966333687305450e-03 9.750337339937686920e-03
-3.339198185130953789e-03 -2.518203109502792358e-02 -1.183405518531799316e-02
-2.807205310091376305e-03 1.878107897937297821e-02 2.876311074942350388e-03
3.023418970406055450e-02 -1.663236878812313080e-02 8.231207728385925293e-02
-3.299142792820930481e-02 -2.673120982944965363e-02 9.980063885450363159e-03
1.790866814553737640e-02 -2.368140034377574921e-02 -1.566703058779239655e-02
4.337562993168830872e-02 2.948714233934879303e-02 3.787128627300262451e-02
-1.066190004348754883e-02 -2.258037589490413666e-02 -3.107303753495216370e-02
2.298762649297714233e-02 -1.661148853600025177e-02 -3.887844271957874298e-03
3.038717433810234070e-02 -4.346524830907583237e-03 1.174449920654296875e-02
-2.542212046682834625e-02 -4.190718755125999451e-03 1.228733826428651810e-02
-4.155836254358291626e-02 2.514922246336936951e-02 -5.025370791554450989e-02
1.902674138545989990e-02 3.226030990481376648e-02 2.733150869607925415e-02
1.501274667680263519e-02 -3.270277380943298340e-02 3.866937011480331421e-02
1.267179008573293686e-02 3.390261903405189514e-02 -5.056612193584442139e-02
-1.185170933604240417e-02 -1.799074374139308929e-02 4.682328552007675171e-03
1.006180886179208755e-02 -3.781354799866676331e-02 4.329243209213018417e-03
-2.113708481192588806e-02 1.608592271804809570e-02 2.155035734176635742e-02
-1.866848580539226532e-02 -5.177138955332338810e-04 -1.897347904741764069e-02
1.556084211915731430e-02 -4.062602296471595764e-03 1.353588607162237167e-02
4.895522817969322205e-02 2.431380189955234528e-02 3.050703182816505432e-02
-2.046678215265274048e-02 1.441751839593052864e-03 -2.481681294739246368e-02
9.479775093495845795e-03 2.936254255473613739e-02 1.397255435585975647e-02
-1.831699162721633911e-02 3.668789751827716827e-03 4.130838438868522644e-02
-1.414785441011190414e-02 1.165850553661584854e-02 4.064056556671857834e-03
3.419036045670509338e-02 4.067101981490850449e-03 9.787510335445404053e-02
-3.478501364588737488e-02 7.826351560652256012e-03 -3.484909608960151672e-02
2.346966415643692017e-02 6.311429291963577271e-02 6.875450257211923599e-03
8.089552633464336395e-03 -7.472504395991563797e-03 2.403746545314788818e-02
-1.334357541054487228e-02 -1.633347757160663605e-02 5.016751587390899658e-02
9.536171332001686096e-03 4.112491756677627563e-02 4.083189368247985840e-02
-2.333227545022964478e-02 -2.472101710736751556e-02 -6.916733458638191223e-03
-1.075201667845249176e-03 1.213749870657920837e-02 -2.413449808955192566e-02
1.262274291366338730e-02 -3.064003586769104004e-02 5.668490007519721985e-02
3.331886976957321167e-02 5.852434039115905762e-02 3.013913892209529877e-02
2.022412046790122986e-02 7.539719343185424805e-02 -1.361992862075567245e-02
-5.177085846662521362e-02 -5.299201980233192444e-02 -3.866707161068916321e-02
3.803306492045521736e-03 1.706001930870115757e-03 5.446683615446090698e-02
-1.816915161907672882e-02 6.286171823740005493e-02 4.034706577658653259e-02
-4.978299606591463089e-03 2.289493568241596222e-02 6.276441365480422974e-02
-2.560670860111713409e-02 2.629812248051166534e-02 -3.007208369672298431e-02
1.128905192017555237e-01 3.686705604195594788e-02 1.122717559337615967e-01
1.211244426667690277e-02 2.431445755064487457e-02 2.275745198130607605e-02
5.440415441989898682e-02 2.469299733638763428e-02 9.313115477561950684e-02
-1.264127995818853378e-02 1.004458405077457428e-02 6.224240362644195557e-02
-2.971990406513214111e-02 -9.025312960147857666e-03 -4.860630258917808533e-02
1.996149718761444092e-01 8.131112158298492432e-02 2.491436600685119629e-01
5.384311452507972717e-02 -7.914617657661437988e-03 -1.407254859805107117e-02
-5.376319587230682373e-02 -2.908824197947978973e-02 -5.882324650883674622e-02
2.927342429757118225e-02 -3.047869307920336723e-03 -6.638794671744108200e-03
9.970552287995815277e-03 -2.918471023440361023e-02 -4.150100518018007278e-03
-1.132609508931636810e-02 1.767523400485515594e-02 2.695689536631107330e-02
-5.998108536005020142e-03 -4.868980497121810913e-03 1.057490799576044083e-02
1.004722155630588531e-02 2.933555096387863159e-02 6.474112626165151596e-03
-1.533294795081019402e-03 1.469470746815204620e-02 1.308800745755434036e-02
5.977542698383331299e-02 3.313842415809631348e-02 1.295244973152875900e-02
7.167398929595947266e-02 2.338151633739471436e-02 4.056181386113166809e-02
1.171688642352819443e-02 3.915852308273315430e-02 -1.613991893827915192e-02
8.360920101404190063e-02 4.107693955302238464e-02 7.943054288625717163e-02
1.113417223095893860e-01 5.353294312953948975e-02 5.287263169884681702e-02
4.275498539209365845e-02 5.364514887332916260e-02 3.071676753461360931e-02
7.789316028356552124e-02 4.535745829343795776e-02 -1.599683240056037903e-02
5.402791872620582581e-02 -2.536178752779960632e-02 -1.144228316843509674e-02
-3.246038919314742088e-03 1.306250691413879395e-02 8.321151882410049438e-02
9.404312819242477417e-03 1.146496157161891460e-03 7.466808892786502838e-04
4.607997369021177292e-03 1.861099526286125183e-02 -5.809669569134712219e-02
-1.622697710990905762e-02 -2.554927580058574677e-02 -2.924063801765441895e-02
-9.001831640489399433e-04 8.923294022679328918e-03 -2.044569142162799835e-02
-2.969156950712203979e-02 2.454099245369434357e-03 -1.683893497101962566e-03
1.078823674470186234e-02 -2.636623196303844452e-02 8.276467211544513702e-03
-3.204822912812232971e-02 6.821651011705398560e-03 1.595094427466392517e-02
2.801735885441303253e-02 -1.064018160104751587e-02 -7.216894533485174179e-03
3.418958513066172600e-03 -2.965404838323593140e-02 2.200492285192012787e-02
-2.725576423108577728e-02 1.046434976160526276e-02 -7.041987497359514236e-03
2.931501343846321106e-02 3.510099835693836212e-03 1.673438027501106262e-02
-2.521504648029804230e-02 4.196949768811464310e-03 1.374508161097764969e-02
-3.143529593944549561e-02 1.847011968493461609e-02 -7.346813566982746124e-03
2.506514545530080795e-03 -3.359643742442131042e-02 2.771327272057533264e-02
5.266492720693349838e-03 2.662066183984279633e-02 9.710341691970825195e-03
-2.124387584626674652e-02 1.209747418761253357e-02 -2.802828326821327209e-03
2.042551338672637939e-02 1.703384332358837128e-02 -2.242828905582427979e-02
-7.331048138439655304e-03 2.816617116332054138e-02 -8.683893829584121704e-03
5.502299871295690536e-03 -1.456113904714584351e-02 -1.903889141976833344e-02
2.345051243901252747e-02 -1.802342757582664490e-02 6.496394518762826920e-03
2.081884630024433136e-02 -2.847776189446449280e-02 2.511466853320598602e-02
2.855668589472770691e-02 2.326170727610588074e-02 1.127242483198642731e-02
1.409968454390764236e-02 8.780887350440025330e-03 -1.201943773776292801e-02
-2.841038256883621216e-02 1.756832003593444824e-02 1.825403980910778046e-02
4.487137775868177414e-03 2.111029578372836113e-03 2.535309828817844391e-02
1.524145249277353287e-02 8.627048693597316742e-03 5.549764726310968399e-03
-6.729647051542997360e-03 1.715997606515884399e-02 5.846948362886905670e-03
4.782646894454956055e-03 -2.328919619321823120e-02 -8.161040954291820526e-03
-7.709899451583623886e-03 -9.150845929980278015e-03 -1.200886256992816925e-02
-1.472774054855108261e-02 -9.922991506755352020e-03 1.653454266488552094e-02
-9.248475544154644012e-03 -3.222247119992971420e-03 1.008678972721099854e-02
2.551032602787017822e-02 -9.960664436221122742e-03 -2.133391983807086945e-02
-1.231191959232091904e-02 1.262592431157827377e-02 -7.806963752955198288e-03
-3.019615262746810913e-02 -1.141176838427782059e-02 1.429596170783042908e-02
-1.087796874344348907e-02 -2.214680053293704987e-02 1.263066101819276810e-02
9.774641133844852448e-03 -3.111502528190612793e-02 2.283271402120590210e-02
-1.137483026832342148e-02 -6.432070396840572357e-03 3.096824279054999352e-03
-2.135943621397018433e-02 -3.066692315042018890e-02 1.962865889072418213e-02
-2.549495548009872437e-02 7.045869715511798859e-04 1.368679292500019073e-02
-2.427473664283752441e-03 -2.495170384645462036e-02 -1.009264774620532990e-02
-2.825304865837097168e-02 1.822126470506191254e-02 -5.738854408264160156e-03
3.649526974186301231e-03 2.211073786020278931e-02 -1.222702208906412125e-02
1.592166908085346222e-02 -2.697267569601535797e-02 1.356033026240766048e-04
2.839362993836402893e-02 3.308747836854308844e-04 -5.294280592352151871e-03
1.305934134870767593e-02 2.510100230574607849e-02 3.175263479351997375e-02
1.627688296139240265e-02 8.633722551167011261e-03 2.524760179221630096e-02
-6.913686171174049377e-03 1.676754443906247616e-03 -1.375783048570156097e-02
2.345154434442520142e-02 -2.208076417446136475e-02 3.742349334061145782e-03
2.824206650257110596e-02 -2.052510902285575867e-02 8.265503682196140289e-03
3.084636107087135315e-02 -2.510195970535278320e-02 -6.059189792722463608e-03
-8.891273289918899536e-03 3.041082620620727539e-02 8.319248445332050323e-03
-3.148352727293968201e-03 -9.599756449460983276e-04 1.350554544478654861e-02
-2.872054465115070343e-02 -2.605127543210983276e-02 -1.562902703881263733e-02
-1.613648422062397003e-02 -1.975262165069580078e-02 7.659093476831912994e-03
-1.761337183415889740e-02 -1.014011260122060776e-02 -2.784029953181743622e-02
2.770759537816047668e-02 -1.977988518774509430e-02 -2.074443176388740540e-02
1.472405996173620224e-02 -2.599219605326652527e-02 -2.391805313527584076e-02
1.603047130629420280e-03 -1.408690400421619415e-02 1.513699721544981003e-02
-2.435336634516716003e-02 3.521051490679383278e-03 2.025428786873817444e-02
8.947292342782020569e-03 -2.238940447568893433e-02 -2.521068323403596878e-03
3.157695010304450989e-02 2.728855051100254059e-02 -3.784361993893980980e-03
1.693085581064224243e-02 -2.941765636205673218e-02 1.647166535258293152e-02
1.183117274194955826e-03 2.872724831104278564e-02 -2.341416664421558380e-02
-1.642068661749362946e-02 8.098919875919818878e-03 -2.333111129701137543e-02
-2.318941429257392883e-02 4.313167184591293335e-03 2.312947250902652740e-02
-1.119658444076776505e-02 -3.038555383682250977e-03 -1.089276466518640518e-02
3.730919957160949707e-02 -1.468359120190143585e-02 -5.482241511344909668e-03
-7.264903187751770020e-02 -1.589683629572391510e-02 -1.374609302729368210e-03
4.716807603836059570e-02 -5.476711317896842957e-03 -1.164760347455739975e-02
2.672802843153476715e-02 2.074543572962284088e-02 6.103610619902610779e-03
-2.785960026085376740e-02 -3.820807859301567078e-02 -2.414223179221153259e-02
1.116722170263528824e-02 -3.811019286513328552e-02 -2.944051660597324371e-02
4.364619962871074677e-03 2.162714116275310516e-02 5.948802921921014786e-03
4.731980711221694946e-02 -2.513377740979194641e-02 -1.464542001485824585e-02
2.581781893968582153e-02 1.754426211118698120e-02 -2.921168692409992218e-02
5.673521757125854492e-02 -3.922015894204378128e-03 -1.847875863313674927e-02
-1.959965564310550690e-02 -3.600582852959632874e-02 -4.328104853630065918e-02
1.102651702240109444e-03 2.017115801572799683e-02 2.089366503059864044e-02
3.785131126642227173e-02 1.636913279071450233e-03 -2.134169638156890869e-02
1.849359483458101749e-03 3.069480694830417633e-02 -4.536698572337627411e-03
-8.663455955684185028e-03 -9.538852609694004059e-03 2.383787557482719421e-02
1.270142383873462677e-02 2.988326177000999451e-02 -3.472374286502599716e-03
7.678098045289516449e-03 1.702362671494483948e-02 -2.964025177061557770e-02
-5.057555157691240311e-03 -5.804155487567186356e-03 -1.320853643119335175e-02
-4.631633684039115906e-02 -7.601387798786163330e-03 -1.959813386201858521e-02
3.465284826233983040e-03 -9.690365754067897797e-03 -3.311634762212634087e-03
1.402329746633768082e-02 3.210420534014701843e-02 -1.620438136160373688e-02
4.133998975157737732e-02 4.219126701354980469e-02 -1.877269335091114044e-02
2.735137753188610077e-02 -4.190294072031974792e-03 2.874348312616348267e-02
-7.823149859905242920e-02 -4.141882993280887604e-03 -1.620189100503921509e-02
1.429037377238273621e-02 -7.826015353202819824e-03 9.507808834314346313e-03
4.642995074391365051e-02 4.865363589487969875e-04 -2.314511314034461975e-02
-2.993168495595455170e-02 9.299986064434051514e-03 -1.885997131466865540e-02
5.770051479339599609e-02 3.175539523363113403e-02 -3.202874213457107544e-02
2.480135113000869751e-02 6.059775594621896744e-03 -2.521938085556030273e-02
3.782422840595245361e-02 -4.972639959305524826e-03 2.961536869406700134e-02
-8.848797297105193138e-04 -2.584963664412498474e-02 2.844426035881042480e-02
-3.550509735941886902e-02 1.046967599540948868e-02 -3.365044668316841125e-02
-8.788540726527571678e-04 7.047417107969522476e-03 -9.412543848156929016e-03
-2.770190313458442688e-02 -2.167823910713195801e-02 -2.407528273761272430e-02
2.922234870493412018e-02 -2.744469977915287018e-02 -2.867973037064075470e-02
-2.515050023794174194e-02 5.601020529866218567e-03 -2.361613296670839190e-04
6.755244452506303787e-03 -1.425896026194095612e-02 -1.396075170487165451e-02
-1.628297567367553711e-02 -5.711809732019901276e-03 3.044130839407444000e-02
-2.720811776816844940e-02 7.891602814197540283e-03 -1.565509662032127380e-02
-5.192556418478488922e-03 -3.037118352949619293e-02 -2.763676643371582031e-02
-1.135282218456268311e-02 2.866528183221817017e-02 -1.385236158967018127e-03
-1.534500252455472946e-02 -1.081024482846260071e-02 -2.067299559712409973e-02
4.296761006116867065e-03 8.017375133931636810e-03 8.821965195238590240e-03
1.381294894963502884e-02 1.593339070677757263e-02 6.267684046179056168e-03
-6.545137614011764526e-03 1.856173016130924225e-02 -1.007806602865457535e-02
2.814011089503765106e-02 2.006758935749530792e-03 2.165498398244380951e-02
-4.837546031922101974e-03 2.773300511762499809e-03 2.771545015275478363e-02
4.881311673671007156e-03 -2.842321060597896576e-03 -2.469888189807534218e-03
1.695332862436771393e-02 1.137212757021188736e-02 1.514550764113664627e-02
-1.677557243965566158e-03 2.572399750351905823e-02 2.709389477968215942e-02
-2.642610110342502594e-02 2.743713743984699249e-02 -7.258489727973937988e-03
-3.054660186171531677e-02 9.135048836469650269e-03 3.091498091816902161e-02
-4.614738281816244125e-03 -2.525895601138472557e-03 2.982751280069351196e-02
-2.976986579596996307e-02 -1.941962866112589836e-03 -1.092372578568756580e-03
1.065970584750175476e-02 -2.287644892930984497e-02 1.844897866249084473e-02
2.714513055980205536e-02 -2.199889346957206726e-02 -1.916933059692382812e-02
-1.616693101823329926e-02 -2.502555586397647858e-02 1.836728421039879322e-03
-1.332197058945894241e-02 3.474059980362653732e-03 -9.214377030730247498e-03
-2.872399799525737762e-02 1.287007937207818031e-03 -2.651332644745707512e-03
-8.438335731625556946e-03 1.926672086119651794e-02 8.592629805207252502e-03
-1.964041776955127716e-02 -2.460437081754207611e-02 2.144210785627365112e-02
-1.969400793313980103e-02 -2.920241095125675201e-02 -2.167615666985511780e-02
-3.463629633188247681e-03 1.597704924643039703e-02 5.578855983912944794e-03
1.049292366951704025e-02 1.476601231843233109e-02 -3.120886720716953278e-02
-2.085442654788494110e-02 -2.322028018534183502e-02 2.796487882733345032e-02
-2.684692665934562683e-02 -2.760757505893707275e-02 3.277862071990966797e-02
1.693486794829368591e-02 4.106701537966728210e-02 -2.494196873158216476e-03
-1.974200084805488586e-02 -1.461906451731920242e-02 3.554795635864138603e-03
-5.621421709656715393e-02 -2.310856245458126068e-02 -3.267045319080352783e-02
-2.551676705479621887e-02 1.777344569563865662e-02 2.335320785641670227e-02
8.410288020968437195e-03 -2.453643456101417542e-02 1.696276850998401642e-02
1.634972915053367615e-02 -1.513624936342239380e-02 -2.856346592307090759e-02
1.789900474250316620e-02 -1.978839561343193054e-02 2.410037815570831299e-02
3.683928772807121277e-02 9.389947168529033661e-03 -3.104476444423198700e-02
-2.600822038948535919e-02 3.042139485478401184e-02 8.505046367645263672e-03
4.587379842996597290e-02 3.457288816571235657e-02 2.808276191353797913e-02
-2.535980381071567535e-02 -4.153762757778167725e-02 -8.288507163524627686e-02
-8.672649040818214417e-03 5.851105321198701859e-03 1.069817319512367249e-02
-4.466846957802772522e-02 -6.315981736406683922e-04 3.814266994595527649e-02
-1.373395044356584549e-02 1.341692055575549603e-03 -2.738779038190841675e-02
-1.246482413262128830e-02 8.480141870677471161e-03 -1.574735855683684349e-03
-4.471817519515752792e-03 -6.431080400943756104e-03 2.010294934734702110e-03
2.325218543410301208e-02 -1.240598782896995544e-02 -1.817314140498638153e-02
-8.735077455639839172e-03 1.931006647646427155e-02 1.394675858318805695e-02
-2.420452795922756195e-02 -6.168176885694265366e-03 -1.105088833719491959e-02
4.860543180257081985e-03 1.386475004255771637e-02 -1.595655828714370728e-02
1.430619624443352222e-03 -3.489964408800005913e-03 -1.804433204233646393e-02
-5.550157278776168823e-02 3.043280914425849915e-02 3.522576019167900085e-02
-8.547645993530750275e-03 9.675491601228713989e-03 -2.598848938941955566e-02
-1.795499585568904877e-02 1.845698617398738861e-02 -2.289075776934623718e-02
1.409265026450157166e-02 -4.425101447850465775e-03 -5.113448482006788254e-03
4.249078407883644104e-02 4.978397488594055176e-02 5.680710449814796448e-02
-1.139146462082862854e-02 1.916012354195117950e-02 1.571248658001422882e-02
2.096656337380409241e-02 -2.714449539780616760e-02 1.647746562957763672e-02
-6.287625525146722794e-03 -7.132871542125940323e-03 6.570785772055387497e-04
1.462142914533615112e-02 2.412164583802223206e-02 5.553377047181129456e-02