-8.899612426757812500e-01
-3.095155060291290283e-01
-6.848612427711486816e-02
9.929665923118591309e-02
-7.641299813985824585e-02
1.845712363719940186e-01
-1.297322195023298264e-02
-2.003523260354995728e-01
-5.482108891010284424e-02
3.169797062873840332e-01
-3.114005029201507568e-01
-4.458197206258773804e-02
4.526304453611373901e-02
-5.675328895449638367e-02
1.520581636577844620e-02
-2.149692326784133911e-01
2.444588989019393921e-01
1.069748252630233765e-01
-1.481119692325592041e-01
-3.054482396692037582e-03
-2.715096995234489441e-02
1.003590822219848633e-01
2.387000471353530884e-01
1.215902119874954224e-01
1.030435934662818909e-01
9.727813303470611572e-02
6.414955854415893555e-02
7.124795019626617432e-02
1.520869731903076172e-01
2.371912300586700439e-01
5.627769231796264648e-02
-1.431916560977697372e-02
-2.658938989043235779e-02 6.504464149475097656e-02 1.301649492233991623e-02 -1.179685350507497787e-02
1.397859305143356323e-01 7.915727794170379639e-03 -2.232281118631362915e-02 1.828021556138992310e-02
2.126914262771606445e-02 1.952981692738831043e-03 -1.164527423679828644e-02 3.890882059931755066e-02
-3.325119242072105408e-02 -1.690452545881271362e-02 -2.180640771985054016e-02 -1.886873133480548859e-02
-1.407526992261409760e-02 1.462010201066732407e-02 1.823977008461952209e-02 -9.424032270908355713e-02
-3.074387321248650551e-03 4.650448262691497803e-02 -2.183298766613006592e-02 -1.362601853907108307e-02
6.966602057218551636e-02 2.399696037173271179e-02 -3.559331968426704407e-02 2.059129811823368073e-02
-1.243653148412704468e-02 8.027076721191406250e-03 -2.268811501562595367e-02 -2.801156835630536079e-03
4.100427404046058655e-02 1.638409565202891827e-03 -7.505651563405990601e-02 2.483246615156531334e-03
1.897696405649185181e-02 -5.422443524003028870e-02 7.593597471714019775e-02 5.370416492223739624e-02
2.455571107566356659e-02 -2.579825557768344879e-02 -2.516744285821914673e-02 -1.496439799666404724e-03
-6.296989321708679199e-02 7.544694095849990845e-02 -6.870336830615997314e-02 1.739945821464061737e-02
-2.459544874727725983e-02 5.886975675821304321e-02 4.308298602700233459e-02 -5.287242680788040161e-02
1.629209145903587341e-02 -7.203761488199234009e-03 4.079703707247972488e-03 -4.095476493239402771e-02
9.936181455850601196e-02 -2.041371539235115051e-03 5.993720516562461853e-02 1.125769168138504028e-01
1.329783722758293152e-02 2.763219363987445831e-02 1.365303341299295425e-02 -6.799285113811492920e-02
3.784199431538581848e-02 -3.006293997168540955e-02 4.705190192908048630e-03 3.914444148540496826e-02
4.129044339060783386e-02 1.489202957600355148e-02 -8.344074711203575134e-03 2.420856803655624390e-02
5.624302104115486145e-02 -2.375889383256435394e-02 -3.019375354051589966e-02 -3.263032808899879456e-02
5.288281012326478958e-03 -5.654671043157577515e-02 -3.497185558080673218e-02 5.185033753514289856e-02
7.866786420345306396e-02 -6.315239518880844116e-02 -1.646979653742164373e-04 -2.668086625635623932e-02
-6.515521090477705002e-03 -2.256629057228565216e-02 -1.074116528034210205e-01 -6.741400808095932007e-02
-3.476910293102264404e-02 -1.926863752305507660e-02 2.268509380519390106e-02 -4.915915429592132568e-02
-5.191897228360176086e-02 -2.587777189910411835e-02 2.150571439415216446e-03 -2.156950905919075012e-02
2.138615027070045471e-02 -3.483151271939277649e-02 -8.426213636994361877e-03 5.221462622284889221e-02
-5.435802787542343140e-02 1.872104965150356293e-02 1.379937282763421535e-03 5.268243327736854553e-02
-6.647586822509765625e-03 4.461555555462837219e-02 -4.120354726910591125e-02 9.096757322549819946e-02
9.446515887975692749e-02 -4.652929026633501053e-03 8.470172435045242310e-02 2.570574171841144562e-02
4.872929677367210388e-02 1.631992869079113007e-02 5.948759615421295166e-02 -1.673611439764499664e-02
6.037335842847824097e-02 7.458766922354698181e-03 8.381942659616470337e-02 1.075953245162963867e-01
5.023261904716491699e-02 -3.733883053064346313e-02 3.047939017415046692e-02 1.936986297369003296e-02
9.402545168995857239e-03 -8.057219907641410828e-03 -2.738680317997932434e-02 1.962320180609822273e-03
-2.133244648575782776e-03 4.840855672955513000e-02 -3.458762541413307190e-02 -3.493335098028182983e-02
-1.007022112607955933e-01 -7.882460020482540131e-03 -2.062655240297317505e-02 2.962543070316314697e-02
-3.549478575587272644e-02 1.789021305739879608e-02 5.442479159682989120e-03 -8.284281007945537567e-03
-1.365168951451778412e-02 -2.854493074119091034e-02 -1.324464450590312481e-03 8.768637478351593018e-02
4.854997619986534119e-02 -1.543124299496412277e-02 1.312738284468650818e-02 6.401748210191726685e-02
-5.998443439602851868e-02 4.755701124668121338e-02 -2.803288958966732025e-02 1.330341212451457977e-02
5.050452053546905518e-02 -6.950332969427108765e-02 8.215989917516708374e-03 -4.733905941247940063e-02
4.703545942902565002e-02 -3.515192121267318726e-02 1.308290753513574600e-02 -7.288251072168350220e-02
-5.885732918977737427e-02 -5.680312588810920715e-02 -2.006937563419342041e-02 3.651268035173416138e-02
6.330874562263488770e-02 -1.228312216699123383e-02 6.114189326763153076e-02 1.435321569442749023e-01
7.243390381336212158e-02 -3.048721887171268463e-02 -8.088939636945724487e-02 2.286671474575996399e-02
-3.359359130263328552e-02 -5.229822546243667603e-02 3.655380755662918091e-02 1.350761651992797852e-01
1.438692212104797363e-01 -1.626712456345558167e-02 -3.326101228594779968e-02 3.207221999764442444e-02
7.366535812616348267e-02 -6.603975594043731689e-02 3.182071447372436523e-02 -1.075388398021459579e-02
9.131552278995513916e-02 7.681080698966979980e-02 -4.086931794881820679e-02 7.799948751926422119e-02
3.119513578712940216e-02 2.509843371808528900e-02 2.746847085654735565e-02 -1.607162877917289734e-02
-2.361652255058288574e-02 -3.059204295277595520e-02 4.390896484255790710e-02 -5.616907030344009399e-03
3.299003466963768005e-02 2.998526580631732941e-02 -7.744931429624557495e-02 5.465405806899070740e-02
-2.113034715875983238e-03 1.000209338963031769e-02 -5.444404110312461853e-02 -1.354800630360841751e-02
-4.736185818910598755e-02 2.063482627272605896e-02 8.897128514945507050e-03 1.431273389607667923e-02
-1.551797240972518921e-02 -2.303861640393733978e-02 -3.062623925507068634e-02 -7.437355816364288330e-02
1.746529787778854370e-01 -1.053314357995986938e-01 8.497594855725765228e-03 -2.453614771366119385e-02
3.220430761575698853e-02 -8.748457767069339752e-03 -2.182817272841930389e-02 7.508679479360580444e-02
-3.194619342684745789e-02 -2.378255501389503479e-02 -5.026474967598915100e-02 -1.322725787758827209e-02
-6.803198903799057007e-02 -9.833338856697082520e-02 -5.370394513010978699e-02 8.682359009981155396e-02
2.962682209908962250e-02 -7.381260395050048828e-02 3.245267271995544434e-02 4.057325422763824463e-04
4.821247234940528870e-02 -5.416066199541091919e-02 6.707498431205749512e-02 4.684566985815763474e-03
6.038452312350273132e-02 3.493802621960639954e-02 1.411254703998565674e-01 2.159879803657531738e-01
3.987735137343406677e-02 2.757803536951541901e-02 -6.070720776915550232e-02 9.253358002752065659e-04
9.839230775833129883e-02 8.746078237891197205e-03 1.121062114834785461e-01 1.189994737505912781e-01
9.277636557817459106e-02 -5.165059491991996765e-02 -5.057044699788093567e-02 -8.660051389597356319e-04
1.192677859216928482e-02 -8.285651914775371552e-03 -2.532115206122398376e-02 -1.872884482145309448e-02
1.736979931592941284e-02 -1.007941830903291702e-02 -3.827676922082901001e-02 -6.824221462011337280e-02
-2.660465613007545471e-02 -4.327490553259849548e-02 -3.477589040994644165e-02 4.539829678833484650e-03
-6.958006322383880615e-02 -2.962140552699565887e-02 -1.377284433692693710e-02 -5.395100638270378113e-02
-2.870538830757141113e-02 -3.602511435747146606e-02 -2.334279008209705353e-02 -6.835230439901351929e-02
8.655872941017150879e-02 -6.866031792014837265e-03 -5.185274407267570496e-02 -8.504448086023330688e-02
5.450168624520301819e-03 -1.729868911206722260e-02 -5.714762955904006958e-02 -1.040446907281875610e-01
2.372801117599010468e-02 3.021351248025894165e-02 6.771274656057357788e-02 4.740053415298461914e-02
5.390726774930953979e-02 4.014158621430397034e-03 1.218425855040550232e-02 4.412910342216491699e-02
-1.438040584325790405e-01 -7.803879678249359131e-02 -1.011053845286369324e-02 -2.893984317779541016e-02
-2.606859058141708374e-02 5.111562833189964294e-02 2.730612829327583313e-02 1.356470212340354919e-02
2.183956652879714966e-02 -1.598208025097846985e-02 -3.340262547135353088e-02 -2.185647003352642059e-02
1.419662218540906906e-02 8.396672084927558899e-03 -3.629770595580339432e-03 -1.293576601892709732e-02
1.180924475193023682e-03 -2.590482123196125031e-02 -4.249599575996398926e-02 -7.786799967288970947e-02
7.678043097257614136e-03 -2.829303219914436340e-02 -5.996241234242916107e-03 5.368892848491668701e-02
3.273378685116767883e-02 9.383498132228851318e-02 -9.328343719244003296e-02 -3.920966014266014099e-02
-2.780057676136493683e-02 -6.079836384742520750e-05 -3.786208108067512512e-02 -5.928020924329757690e-02
3.127335384488105774e-02 4.322900995612144470e-02 3.958803042769432068e-02 4.039685800671577454e-02
6.373744108714163303e-04 2.112608775496482849e-02 1.170335104689002037e-03 -2.521548606455326080e-02
-1.031931210309267044e-02 -3.437678888440132141e-02 8.015532977879047394e-03 6.948457565158605576e-03
-3.823113813996315002e-02 3.117761388421058655e-02 -4.415100812911987305e-02 -8.486617356538772583e-02
1.021515019237995148e-02 2.565064234659075737e-03 -2.866547182202339172e-02 3.613227233290672302e-02
-9.134821593761444092e-02 -6.317519396543502808e-02 -7.508495450019836426e-02 -2.818239293992519379e-02
5.283296108245849609e-02 -1.417221222072839737e-02 -9.476968646049499512e-02 -6.440789997577667236e-02
-3.840204328298568726e-02 -9.747873060405254364e-03 -3.216501697897911072e-02 -6.809517741203308105e-02
-3.706939518451690674e-02 -3.676475211977958679e-02 -4.230271652340888977e-02 -6.736879050731658936e-02
2.113809622824192047e-02 -5.826570093631744385e-03 5.956410989165306091e-02 6.753906607627868652e-02
6.466761231422424316e-03 -1.137077342718839645e-02 6.775242090225219727e-02 5.116930976510047913e-02
-5.453451722860336304e-02 -1.310012582689523697e-02 -2.670596726238727570e-02 8.425201475620269775e-02
-9.301419556140899658e-02 -5.988638848066329956e-02 -1.762486994266510010e-02 1.348752249032258987e-02
-2.089864760637283325e-02 -2.808054909110069275e-02 2.973143942654132843e-02 2.891333587467670441e-02
-1.238954626023769379e-02 -2.033587358891963959e-02 -4.532786831259727478e-02 -4.656321555376052856e-02
-2.589480765163898468e-02 -3.114339895546436310e-02 -6.459254655055701733e-05 1.731969602406024933e-02
-2.324455790221691132e-02 -1.257533021271228790e-02 -1.157934498041868210e-02 2.819770714268088341e-03
3.918189555406570435e-03 -1.750389300286769867e-02 -2.465428411960601807e-02 -3.311084210872650146e-02
-1.975854486227035522e-02 -4.729214310646057129e-02 -3.408991545438766479e-02 -7.738836109638214111e-02
1.701470091938972473e-02 -1.739627309143543243e-02 5.225980654358863831e-02 1.084293983876705170e-02
1.944032870233058929e-02 1.639417000114917755e-02 -2.722856402397155762e-02 1.677318476140499115e-02
4.111433774232864380e-02 -3.047890774905681610e-02 6.151350215077400208e-03 3.153087198734283447e-02
-4.167585819959640503e-02 -5.887477472424507141e-02 -1.061259396374225616e-02 -1.501479372382164001e-02
-1.348035484552383423e-01 -6.294378638267517090e-02 2.583552896976470947e-02 1.466884836554527283e-02
7.989045232534408569e-03 7.327612023800611496e-03 -7.228821050375699997e-03 1.246031001210212708e-01
6.471434980630874634e-02 1.417375984601676464e-03 -7.817386090755462646e-02 9.547636657953262329e-02
5.762075632810592651e-02 -2.379948459565639496e-02 1.614311896264553070e-02 -1.291601732373237610e-02
-6.393634527921676636e-02 -3.449913859367370605e-02 1.513402443379163742e-03 3.794952481985092163e-02
1.235235482454299927e-01 3.970746323466300964e-02 -6.129141524434089661e-02 -3.722674399614334106e-02
-1.262611299753189087e-01 2.953225560486316681e-02 1.340957265347242355e-02 -1.585111953318119049e-02
-1.490670293569564819e-01 2.991821989417076111e-02 -3.795061632990837097e-02 -1.422628387808799744e-02
1.775061152875423431e-02 -5.708487704396247864e-03 3.512361645698547363e-02 -3.572611510753631592e-02
-6.071088835597038269e-03 -5.526399239897727966e-02 -6.568399071693420410e-02 2.484863065183162689e-02
6.382905691862106323e-02 1.438908837735652924e-02 -2.856780216097831726e-02 -2.676575072109699249e-02
-8.592700958251953125e-02 -1.818651892244815826e-02 -1.000733021646738052e-02 8.123227953910827637e-02
5.193730071187019348e-02 -1.262012273073196411e-01 -1.206970307976007462e-02 -5.318219959735870361e-02
-1.158512979745864868e-01 -2.469180896878242493e-02 4.440359398722648621e-02 2.802966721355915070e-02
5.171073228120803833e-02 -7.393327355384826660e-02 3.173271194100379944e-02 -1.353646218776702881e-01
3.886831924319267273e-02 1.650912314653396606e-02 -6.247726734727621078e-03 2.854056283831596375e-02
-7.348487153649330139e-03 -2.181536518037319183e-02 7.324871420860290527e-02 -9.005956351757049561e-02
-2.987662702798843384e-02 1.892854645848274231e-02 9.791139513254165649e-03 2.987330593168735504e-02
-7.022625207901000977e-02 1.338644325733184814e-01 -1.740958355367183685e-02 1.957058906555175781e-02
-4.181347042322158813e-02 9.400295466184616089e-02 -6.682483945041894913e-03 1.064628642052412033e-02
1.821726560592651367e-01 -9.820561390370130539e-04 5.665534362196922302e-02 7.919953018426895142e-02
6.660644710063934326e-02 -2.508022636175155640e-02 2.495010383427143097e-02 -3.498353809118270874e-02
8.452875167131423950e-02 2.198616713285446167e-01 -4.158966243267059326e-02 2.122357115149497986e-02
7.750562578439712524e-02 2.419538097456097603e-03 1.634945860132575035e-03 -1.332532465457916260e-01
-4.952882230281829834e-02 -1.206489279866218567e-03 -1.491561904549598694e-02 5.745252594351768494e-02
-4.624566808342933655e-02 -3.271026909351348877e-02 1.605554483830928802e-02 -3.409005701541900635e-02
3.835130855441093445e-02 3.270958736538887024e-02 1.511392556130886078e-02 -1.314644664525985718e-01
-1.227269787341356277e-02 -4.824640601873397827e-02 -5.693105515092611313e-03 7.842254638671875000e-02
3.624740242958068848e-02 -9.711877442896366119e-03 -1.427309121936559677e-02 -7.158267498016357422e-02
-3.642778098583221436e-02 1.561192423105239868e-02 -3.280307352542877197e-02 -9.962019324302673340e-02
-4.977139085531234741e-02 -1.057977322489023209e-02 3.134870529174804688e-02 -1.180299967527389526e-01
-7.088028639554977417e-02 2.165808714926242828e-02 -1.275803078897297382e-03 5.747275799512863159e-02
-4.981723031960427761e-05 1.558042480610311031e-03 5.633985251188278198e-02 8.176443167030811310e-03
3.332936018705368042e-02 2.042307145893573761e-02 4.389028623700141907e-02 -1.213596016168594360e-01
6.799414008855819702e-02 4.409603774547576904e-02 -4.476102069020271301e-02 2.343809977173805237e-02
-2.764396369457244873e-03 5.644588544964790344e-02 2.721180766820907593e-02 -5.607830462395213544e-05
5.221569910645484924e-02 8.110897988080978394e-02 8.206744492053985596e-02 6.357652600854635239e-04
-9.760574251413345337e-02 -6.078366190195083618e-03 3.736620768904685974e-02 -3.931578621268272400e-02
-1.271976437419652939e-02 1.605271361768245697e-02 5.645428225398063660e-02 8.443934842944145203e-03
-4.231365770101547241e-02 -4.258482158184051514e-02 -8.563231676816940308e-02 7.465407717972993851e-03
-7.968953996896743774e-02 -3.051110170781612396e-02 2.042126096785068512e-02 3.273607790470123291e-02
1.453527528792619705e-02 5.462313070893287659e-02 5.400888156145811081e-03 5.413233861327171326e-02
2.655888674780726433e-03 3.943243995308876038e-02 2.916185883805155754e-03 -1.167462207376956940e-02
1.800181460566818714e-03 4.247265402227640152e-03 4.757536575198173523e-02 -5.737420916557312012e-02
-5.629585683345794678e-02 -3.826399520039558411e-02 3.153544617816805840e-03 9.115200489759445190e-02
-3.095682477578520775e-03 6.600047647953033447e-02 6.631544977426528931e-02 -1.518752612173557281e-02
1.257324665784835815e-01 -3.698920365422964096e-03 -1.662703976035118103e-02 -1.765158399939537048e-02
-1.014890708029270172e-02 2.421669475734233856e-02 -2.055222727358341217e-02 -1.005125567317008972e-01
3.912011161446571350e-02 -6.110505200922489166e-03 -1.306058187037706375e-02 -4.381050914525985718e-02
4.641990363597869873e-02 2.655155211687088013e-02 -5.244798213243484497e-02 -7.854791730642318726e-02
1.027397811412811279e-02 8.877214044332504272e-02 4.488413687795400620e-03 -7.454793155193328857e-02
4.910093173384666443e-02 5.507651343941688538e-02 -2.070764824748039246e-02 -7.354651391506195068e-02
3.830832242965698242e-02 1.626101695001125336e-02 3.524652868509292603e-02 -4.606252908706665039e-02
-6.148194428533315659e-03 -1.926916278898715973e-02 2.742289798334240913e-03 -6.157893314957618713e-02
-1.992922276258468628e-02 6.348122656345367432e-02 -2.318242751061916351e-02 -5.763987824320793152e-02
5.938713252544403076e-02 -8.084709942340850830e-02 6.339588761329650879e-02 2.945827133953571320e-02
4.280439577996730804e-03 1.771930605173110962e-02 1.906299591064453125e-02 -5.028227716684341431e-02
3.283587750047445297e-03 5.382524803280830383e-03 -1.954529620707035065e-02 1.134066609665751457e-03
6.888034753501415253e-03 -9.011511690914630890e-03 8.942501153796911240e-06 1.392773352563381195e-02
5.292312707751989365e-03 -2.948160842061042786e-02 -1.012562960386276245e-02 3.381582722067832947e-02
-2.779682911932468414e-02 -7.393585052341222763e-03 3.784176334738731384e-02 5.381674319505691528e-02
-6.612615287303924561e-02 -3.741742670536041260e-02 -6.967013329267501831e-02 -3.296738490462303162e-02
-4.937279596924781799e-02 6.777945440262556076e-03 -2.324231341481208801e-02 6.581296678632497787e-03
5.985527765005826950e-03 -8.285584300756454468e-02 -3.818697854876518250e-02 -1.450957078486680984e-02
-6.028702110052108765e-02 9.978276677429676056e-03 3.238611668348312378e-02 -5.713690537959337234e-03
-9.264147281646728516e-02 -3.059300594031810760e-03 3.437082469463348389e-02 4.026385024189949036e-02
4.102555662393569946e-02 -3.929122537374496460e-02 6.346909701824188232e-02 4.454321786761283875e-02
-2.175203338265419006e-02 -2.728896774351596832e-02 6.160897668451070786e-03 6.183311715722084045e-02
3.218450397253036499e-02 4.321695119142532349e-02 5.671175662428140640e-03 -1.451953221112489700e-02
-1.102923154830932617e-01 -5.268975347280502319e-02 -3.145655244588851929e-02 -6.057534739375114441e-02
-3.524098172783851624e-02 4.899442568421363831e-02 3.291231766343116760e-02 5.279823206365108490e-03
4.913936182856559753e-02 6.671734154224395752e-02 2.194732241332530975e-02 2.261220104992389679e-02
-1.825296878814697266e-02 -5.621425807476043701e-02 -1.202272810041904449e-02 -5.051617627032101154e-04
3.970943391323089600e-02 -4.539249464869499207e-02 3.170888405293226242e-03 1.959856972098350525e-02
9.320391342043876648e-03 1.417145878076553345e-02 4.414610099047422409e-03 2.863224223256111145e-02
-5.114235356450080872e-02 -1.120180450379848480e-02 3.831032291054725647e-02 4.227217659354209900e-02
-2.655249089002609253e-02 8.129984140396118164e-03 2.266653999686241150e-02 3.301382064819335938e-02
-3.980983048677444458e-02 1.937438733875751495e-02 4.125380516052246094e-02 2.363979071378707886e-02
-2.091398276388645172e-02 3.957083076238632202e-02 7.867937907576560974e-03 -5.888364103157073259e-05
-9.958750754594802856e-02 -7.778272032737731934e-02 -5.442582070827484131e-02 -8.499948307871818542e-03
-1.687932014465332031e-02 7.706975098699331284e-03 1.525208260864019394e-02 5.155014246702194214e-02
-3.661522269248962402e-02 -4.967792890965938568e-03 -1.851379871368408203e-02 4.167364165186882019e-02
1.518510468304157257e-02 9.265475906431674957e-03 7.024171203374862671e-02 4.257451742887496948e-02
4.996167123317718506e-02 -9.844050742685794830e-03 3.817841410636901855e-02 4.343530908226966858e-02
-4.229122027754783630e-02 7.413108367472887039e-03 -7.561235129833221436e-02 1.910363137722015381e-02
6.883558351546525955e-03 9.213332831859588623e-02 5.270294472575187683e-02 -1.538698794320225716e-03
-7.977542281150817871e-02 -4.852392897009849548e-02 -1.220564357936382294e-02 -7.110125571489334106e-02
-1.091420277953147888e-01 -1.032206267118453979e-01 1.150232180953025818e-02 -1.966674812138080597e-02
-1.692143268883228302e-02 -2.185213193297386169e-02 -1.448503811843693256e-03 2.118788287043571472e-02
7.873622328042984009e-02 -1.761105610057711601e-03 -3.743079304695129395e-02 5.536326672881841660e-03
-5.819710204377770424e-04 1.660634879954159260e-03 2.432593889534473419e-02 8.309527300298213959e-03
5.124042928218841553e-02 -3.213999792933464050e-02 6.378567311912775040e-03 4.610919393599033356e-03
2.487652376294136047e-02 -5.921060219407081604e-02 4.916599020361900330e-03 -4.528494179248809814e-02
-7.852347916923463345e-04 2.862138673663139343e-02 -3.490128740668296814e-02 -1.267606858164072037e-03
2.532026357948780060e-02 -1.709070615470409393e-02 -3.055610321462154388e-02 5.964084062725305557e-03
-5.861380323767662048e-02 6.007229164242744446e-02 2.553416229784488678e-02 2.369622327387332916e-02
3.457892313599586487e-02 5.815477669239044189e-02 -6.186233460903167725e-02 2.580588310956954956e-02
3.610311821103096008e-02 -5.422265455126762390e-02 -8.808128535747528076e-03 3.524385765194892883e-02
-2.169227972626686096e-02 -1.444125734269618988e-02 -1.937563531100749969e-02 -1.555587947368621826e-01
-6.207920610904693604e-02 5.353656783699989319e-02 -2.403801120817661285e-02 -9.725054353475570679e-02
-4.912530258297920227e-02 -1.780752651393413544e-02 -2.267927303910255432e-02 -2.541641704738140106e-02
8.646343648433685303e-02 5.241046100854873657e-02 8.626983501017093658e-03 1.233047805726528168e-02
1.111140288412570953e-02 -3.135814797133207321e-03 -3.226529434323310852e-02 -3.880274668335914612e-02
3.456395864486694336e-02 8.306660689413547516e-03 2.522638998925685883e-02 -1.471685469150543213e-01
2.775384485721588135e-02 4.062546789646148682e-02 2.150663640350103378e-03 -4.829184710979461670e-02
-2.306475117802619934e-02 -6.608217209577560425e-02 2.072491124272346497e-02 -5.172919854521751404e-02
1.029237825423479080e-02 -5.042531341314315796e-02 -2.061487361788749695e-02 -3.158947825431823730e-02
-8.463900536298751831e-03 -2.977659692987799644e-03 -3.034738823771476746e-02 3.030413947999477386e-02
7.568949460983276367e-02 -4.576908051967620850e-02 4.306964576244354248e-02 -8.481428772211074829e-02
-1.425829976797103882e-01 -2.060899324715137482e-02 -2.019998803734779358e-02 -1.956640183925628662e-02
2.048563063144683838e-01 4.192254273220896721e-04 -3.470923006534576416e-02 -9.745906293392181396e-02
-1.459344523027539253e-03 1.010626275092363358e-02 6.424764171242713928e-03 1.475065108388662338e-02
-1.938828383572399616e-03 -3.043689019978046417e-02 1.397823914885520935e-02 -4.169894009828567505e-02
-2.828487940132617950e-02 -2.322532236576080322e-02 -1.417661085724830627e-02 1.408899202942848206e-02
-5.404745787382125854e-02 -3.573030978441238403e-02 9.083719924092292786e-03 -4.482675343751907349e-02
-4.642212763428688049e-02 -5.085102282464504242e-03 -1.109274476766586304e-02 -4.330175742506980896e-02
9.206196665763854980e-02 2.936741104349493980e-03 -2.263070084154605865e-02 -8.783293515443801880e-02
1.077409684658050537e-01 2.558663953095674515e-03 -1.604274101555347443e-02 -2.208712510764598846e-02
1.007034853100776672e-01 1.148211732506752014e-01 -3.248457983136177063e-02 -9.636146016418933868e-03
1.969360709190368652e-01 -2.211233414709568024e-02 -1.538829412311315536e-02 -5.646064877510070801e-02
-2.222413383424282074e-02 -1.352079119533300400e-02 -1.476678065955638885e-02 3.343245759606361389e-02
-4.411726072430610657e-02 -3.091373108327388763e-02 -3.837680444121360779e-02 -5.070457607507705688e-02
6.490326486527919769e-03 9.269976057112216949e-03 -1.402281969785690308e-02 -1.651261933147907257e-03
2.178790979087352753e-02 -2.304931916296482086e-02 -7.726755924522876740e-03 9.395966678857803345e-02
-8.604177273809909821e-03 -2.808581478893756866e-02 -5.788536742329597473e-02 7.349433004856109619e-02
-1.011076346039772034e-01 -4.727931693196296692e-02 -6.087326258420944214e-02 -1.663744822144508362e-02
-6.206661462783813477e-02 -6.870095431804656982e-02 -4.759908095002174377e-02 2.841543965041637421e-02
-8.845188468694686890e-02 -3.408692777156829834e-02 -1.758478395640850067e-02 -7.779511623084545135e-03
-4.886519908905029297e-02 -2.942425757646560669e-02 2.309706062078475952e-02 -1.438493654131889343e-02
1.462543383240699768e-02 -2.649334818124771118e-02 -8.456069231033325195e-02 -9.827829152345657349e-02
5.602730065584182739e-02 4.318565130233764648e-02 -1.285439133644104004e-01 -8.502794057130813599e-02
9.583825012668967247e-04 1.286379061639308929e-02 -1.809683628380298615e-02 -7.544425874948501587e-02
-6.036209315061569214e-02 -4.598539695143699646e-02 -4.598595947027206421e-02 -8.051980286836624146e-02
2.223179861903190613e-02 -1.024572029709815979e-01 -8.927173167467117310e-02 -1.488240808248519897e-01
-2.099146880209445953e-02 -4.930995055474340916e-04 2.432890050113201141e-02 6.571430247277021408e-03
1.971559971570968628e-02 4.745092988014221191e-02 -1.264811456203460693e-01 2.290811948478221893e-02
1.085970830172300339e-02 -4.866718780249357224e-03 -1.084521599113941193e-02 -3.297004848718643188e-02
-5.667393282055854797e-02 1.090758293867111206e-02 -3.091790899634361267e-02 -1.347898785024881363e-02
3.983712196350097656e-02 6.447532027959823608e-02 1.330198720097541809e-02 -1.238609012216329575e-02
-8.873690851032733917e-03 9.056938812136650085e-03 -3.462379053235054016e-02 -7.154759764671325684e-02
3.385744988918304443e-02 -1.330328639596700668e-02 2.574604237452149391e-03 8.697951585054397583e-02
9.474243037402629852e-03 -3.685236210003495216e-03 1.418197154998779297e-02 -6.042179092764854431e-02
1.270621865987777710e-01 -2.403690712526440620e-03 3.376339003443717957e-02 5.058397352695465088e-02
-7.798635214567184448e-02 -6.069624051451683044e-02 -3.303227201104164124e-02 1.361827272921800613e-02
3.958402946591377258e-02 -3.845871984958648682e-02 -9.715477377176284790e-02 1.154939904808998108e-01
1.214492507278919220e-02 1.725213043391704559e-02 -1.004903092980384827e-01 3.216504678130149841e-02
-3.690320998430252075e-02 -4.327866807579994202e-02 -5.593987181782722473e-02 -3.372073173522949219e-02
-5.523232743144035339e-02 -7.143836468458175659e-02 -9.357595443725585938e-02 -1.963497884571552277e-02
-3.190059447661042213e-03 1.581196300685405731e-02 1.042430382221937180e-02 4.241088870912790298e-03
4.473244398832321167e-02 -1.489519141614437103e-02 -9.598997235298156738e-02 -1.360667496919631958e-01
4.031643271446228027e-02 -2.536807581782341003e-02 7.799833081662654877e-03 -3.628347814083099365e-02
9.202328324317932129e-02 -1.568754203617572784e-02 1.096937712281942368e-02 1.065160632133483887e-01
1.038332562893629074e-02 -2.312931977212429047e-02 -9.646743535995483398e-03 -3.739215806126594543e-02
2.441890537738800049e-02 -2.823550812900066376e-02 -3.012534789741039276e-02 2.906771935522556305e-02
-5.337503552436828613e-02 5.067820847034454346e-02 -7.451337762176990509e-03 -4.840246960520744324e-02
-4.177010059356689453e-02 -3.617655858397483826e-02 5.344929546117782593e-02 -9.004607796669006348e-03
3.876204043626785278e-02 -7.016957271844148636e-03 2.774717472493648529e-02 -4.114887863397598267e-02
-1.253610253334045410e-01 -7.482384145259857178e-02 -3.350105136632919312e-02 -1.327758748084306717e-02
-3.913007676601409912e-02 -7.210442423820495605e-02 -4.369973391294479370e-02 -2.244309894740581512e-02
-7.983883470296859741e-02 3.890728205442428589e-02 -1.368720829486846924e-02 -3.314221650362014771e-02
5.003071203827857971e-02 -4.175547510385513306e-02 -1.963288523256778717e-02 -6.208146736025810242e-02
-5.866375938057899475e-02 -9.982701390981674194e-03 -1.409066915512084961e-01 -9.214544668793678284e-03
-1.819074898958206177e-02 4.519927781075239182e-03 -1.074070557951927185e-01 9.883221238851547241e-02
9.323053061962127686e-03 4.035042598843574524e-02 -6.151157990097999573e-02 6.076007336378097534e-02
3.880633413791656494e-02 -5.685240030288696289e-02 2.674574498087167740e-03 1.112488377839326859e-02
-1.956693828105926514e-01 -5.734422430396080017e-02 -9.837491065263748169e-02 1.424511242657899857e-02
8.090973645448684692e-02 2.361267060041427612e-02 2.856878563761711121e-03 1.064174436032772064e-02
1.223041489720344543e-01 -1.023658439517021179e-01 3.140450268983840942e-02 1.106164455413818359e-01
-7.707102596759796143e-02 -2.405647374689579010e-02 -1.173368562012910843e-02 -4.242455586791038513e-02
-6.755822896957397461e-02 1.180959958583116531e-02 -5.052041262388229370e-03 -4.788024351000785828e-03
3.013067133724689484e-02 -1.629143022000789642e-02 -3.199324011802673340e-02 -3.477476537227630615e-02
-5.417457967996597290e-02 9.202190674841403961e-03 2.036047726869583130e-02 -1.005549952387809753e-01
-7.434967905282974243e-02 -3.367748484015464783e-02 5.429329723119735718e-02 -2.953173033893108368e-02
9.049737453460693359e-02 7.900533825159072876e-02 1.984210871160030365e-02 2.182585000991821289e-02
-3.422562405467033386e-02 8.559954166412353516e-02 -2.889966405928134918e-02 4.582945629954338074e-02
-8.617145568132400513e-02 -5.929182097315788269e-02 -2.482162974774837494e-02 -6.589407473802566528e-02
4.877839237451553345e-02 -6.569025665521621704e-02 3.486704081296920776e-02 -6.161687523126602173e-02
6.412896513938903809e-02 -1.428855676203966141e-02 -5.879746167920529842e-04 2.272728830575942993e-02
-1.237456034868955612e-02 2.765902690589427948e-02 -1.097785588353872299e-02 -6.839124858379364014e-02
-1.524413283914327621e-02 6.570036930497735739e-05 -2.906504273414611816e-02 -4.032671079039573669e-02
3.356081992387771606e-02 -2.302845567464828491e-02 1.021093279123306274e-01 -2.418528497219085693e-02
4.363630712032318115e-02 6.185613945126533508e-02 -5.619906634092330933e-02 -2.746693231165409088e-02
2.080120593309402466e-01 1.972278766334056854e-02 -6.232156231999397278e-02 2.693015150725841522e-02
-1.081007122993469238e-01 1.084800437092781067e-01 2.197527140378952026e-02 -1.676163673400878906e-01
-4.789553955197334290e-02 -6.851976271718740463e-03 -3.421657904982566833e-02 -5.917396768927574158e-02
3.577048657462000847e-03 -1.165953427553176880e-01 4.693638533353805542e-02 -6.339874118566513062e-03
-7.964650541543960571e-02 -2.199831046164035797e-02 9.965029358863830566e-02 -7.575135678052902222e-02
-2.816351689398288727e-02 8.299946784973144531e-03 3.052648715674877167e-02 4.642825201153755188e-02
9.214992634952068329e-03 1.067657396197319031e-02 7.301054149866104126e-02 -8.857678622007369995e-02
4.098371043801307678e-02 -2.237958274781703949e-02 3.167807590216398239e-03 7.452439749613404274e-04
-1.851881039328873158e-03 -9.577085822820663452e-02 -1.197363017126917839e-03 -2.405358478426933289e-03
-3.399975225329399109e-02 5.355530232191085815e-02 -6.111114844679832458e-02 1.596817672252655029e-01
6.483151763677597046e-02 -1.814858801662921906e-02 -3.088766150176525116e-02 3.063437715172767639e-02
-4.392306506633758545e-02 3.824712336063385010e-02 -3.095654537901282310e-03 -6.031962484121322632e-02
-7.377289235591888428e-02 5.296953022480010986e-02 -1.060222238302230835e-01 -3.457693010568618774e-02
-1.062722504138946533e-01 2.316950354725122452e-03 -4.767658188939094543e-02 4.793732613325119019e-02
9.629753977060317993e-02 -4.305332154035568237e-02 1.361968554556369781e-02 -4.623334482312202454e-02
4.863952100276947021e-02 -3.809774294495582581e-03 -4.192565567791461945e-03 -5.214278772473335266e-02
8.355142176151275635e-02 -3.122648783028125763e-02 -4.872393608093261719e-02 -1.379849575459957123e-02
1.013504788279533386e-01 -9.106896072626113892e-02 3.314280137419700623e-02 -1.112861484289169312e-01
5.322013050317764282e-02 2.286669984459877014e-02 -1.210949290543794632e-02 -1.950003672391176224e-03
-6.962361931800842285e-02 2.776667289435863495e-02 -2.769238874316215515e-02 3.304179757833480835e-02
-1.942022517323493958e-02 -2.651993371546268463e-02 -8.044529706239700317e-03 -1.304023340344429016e-02
-3.749389573931694031e-02 3.524142876267433167e-02 5.220036581158638000e-02 -2.124110236763954163e-02
-5.597783252596855164e-02 -6.552395969629287720e-02 2.147442474961280823e-02 3.085396997630596161e-02
-5.647284910082817078e-02 -4.986156150698661804e-02 2.790351212024688721e-02 5.427540279924869537e-03
-2.486977167427539825e-02 9.829876571893692017e-02 -7.382608950138092041e-02 -6.907298415899276733e-02
2.213361859321594238e-02 -3.119296208024024963e-02 4.000031854957342148e-03 6.375859025865793228e-03
7.280839234590530396e-02 -4.096280410885810852e-02 2.110782079398632050e-02 -1.059622243046760559e-01
-4.152305424213409424e-02 3.035438805818557739e-02 4.822689667344093323e-02 -1.848672330379486084e-02
8.012659847736358643e-02 2.877405099570751190e-02 -1.103385630995035172e-02 2.962885890156030655e-03
2.206868864595890045e-02 -2.019607834517955780e-02 -1.708375848829746246e-02 -1.344287861138582230e-02
1.078072413802146912e-01 6.646485626697540283e-02 6.958410143852233887e-02 -1.106831952929496765e-01
-7.271077483892440796e-02 -1.107345521450042725e-02 -2.075272612273693085e-02 1.135606039315462112e-02
3.186469078063964844e-01 1.270064562559127808e-01 -1.798208244144916534e-02 -6.555188447237014771e-02
-4.503344744443893433e-02 1.130085214972496033e-01 -2.847752533853054047e-02 -1.133501250296831131e-02
-3.132595494389533997e-02 2.719903364777565002e-02 4.423315823078155518e-02 -3.175519406795501709e-02
-2.233245782554149628e-02 -1.979302987456321716e-02 -5.546838417649269104e-02 -1.398101169615983963e-02
3.061418607831001282e-02 -7.891394942998886108e-02 -3.411259502172470093e-02 3.947049751877784729e-02
6.391838192939758301e-02 4.725664481520652771e-02 2.230984857305884361e-03 2.344524301588535309e-02
1.822036108933389187e-03 1.160768885165452957e-02 -1.665554009377956390e-02 5.135147646069526672e-02
-9.049765020608901978e-02 -7.020297646522521973e-02 -4.795188456773757935e-02 5.543145909905433655e-02
-8.127393573522567749e-02 -6.644224748015403748e-03 -7.643757015466690063e-02 3.632105514407157898e-02
-1.217001583427190781e-02 2.786805853247642517e-03 -2.721212245523929596e-02 1.161553547717630863e-03
-6.014097109436988831e-02 -1.631663180887699127e-02 -3.368381783366203308e-02 -7.323575671762228012e-03
-1.764225028455257416e-02 1.953687286004424095e-03 -5.153943225741386414e-02 -4.446083307266235352e-02
-8.903214335441589355e-02 4.072052892297506332e-03 2.230302430689334869e-02 -1.034762039780616760e-01
-5.659714713692665100e-02 -5.004166811704635620e-02 -7.491167634725570679e-03 -3.848334029316902161e-02
-1.090771630406379700e-01 -3.021738864481449127e-02 -1.847977936267852783e-02 -8.799442648887634277e-02
8.518300205469131470e-02 3.727316856384277344e-02 -3.800649568438529968e-02 -4.236518591642379761e-02
-1.519679743796586990e-02 -4.691964481025934219e-03 -1.562728732824325562e-02 1.060232520103454590e-02
1.237729638814926147e-01 -2.854848653078079224e-02 6.286254525184631348e-02 -3.949830308556556702e-02
5.715923756361007690e-02 2.121187001466751099e-02 3.020897042006254196e-03 -2.184254117310047150e-03
-9.282043203711509705e-03 -3.303559264168143272e-03 -1.277093123644590378e-02 -3.864004090428352356e-02
-7.225839421153068542e-03 -4.905466362833976746e-02 2.927192859351634979e-02 -2.479050308465957642e-02
-8.568949997425079346e-03 -2.329980023205280304e-02 -4.102293774485588074e-02 -4.518693685531616211e-02
9.462597966194152832e-02 5.278660356998443604e-02 -5.498608108609914780e-03 2.293388918042182922e-02
3.398979082703590393e-02 -3.150052204728126526e-02 3.923066426068544388e-03 -4.320922493934631348e-02
9.288179129362106323e-02 3.954632207751274109e-03 8.204988203942775726e-03 5.451056361198425293e-02
-4.337274655699729919e-02 7.384398486465215683e-03 -1.570649072527885437e-02 5.872168391942977905e-02
-3.899520263075828552e-02 7.213003933429718018e-03 -6.099059060215950012e-02 5.923432298004627228e-03
-2.617795765399932861e-02 -2.005412708967924118e-03 -5.493851006031036377e-02 8.229476399719715118e-03
-2.807607501745223999e-02 1.026665698736906052e-02 -6.486425176262855530e-03 2.495418675243854523e-02
7.946286350488662720e-03 -1.741218380630016327e-02 -3.659857064485549927e-02 -2.157791890203952789e-02
-5.238890275359153748e-02 -1.306665502488613129e-02 -3.734715050086379051e-03 -3.160810843110084534e-02
5.065409466624259949e-03 -9.503073245286941528e-02 -2.631253562867641449e-02 -3.729847818613052368e-02
-1.345648914575576782e-01 -8.171163499355316162e-02 1.135013182647526264e-03 -4.910055082291364670e-03
1.375797688961029053e-01 1.103828195482492447e-02 2.094965428113937378e-02 1.081623435020446777e-01
-9.303702041506767273e-03 -5.363256204873323441e-03 -4.854997247457504272e-02 -2.029152214527130127e-02
-2.570006623864173889e-02 -1.175669208168983459e-02 3.628217149525880814e-03 -1.536993589252233505e-02
3.651414811611175537e-02 4.007091000676155090e-02 5.804049316793680191e-03 -1.060300273820757866e-03
4.447064548730850220e-02 -4.579465836286544800e-02 1.023013424128293991e-02 -2.776263654232025146e-02
6.290935561992228031e-04 2.736868895590305328e-02 -4.829460382461547852e-02 -3.688450530171394348e-02
-1.352559775114059448e-02 -1.598934468347579241e-04 2.140320278704166412e-02 3.415608033537864685e-02
-5.954097490757703781e-03 -1.263589248992502689e-03 -2.258118055760860443e-02 -1.142493821680545807e-02
-2.668894641101360321e-02 -2.246341668069362640e-02 -6.148487329483032227e-03 -3.523215185850858688e-03
1.918796799145638943e-03 -2.023265138268470764e-02 -3.039601258933544159e-02 -1.340570859611034393e-02
-3.937381319701671600e-03 -3.266063332557678223e-02 -5.161934345960617065e-02 -8.477061986923217773e-03
-2.044510096311569214e-02 -4.503880068659782410e-02 -7.068514823913574219e-02 -8.493415266275405884e-02
8.592019788920879364e-03 2.262650243937969208e-02 1.510446052998304367e-02 -2.804950054269284010e-04
-3.420696035027503967e-02 -4.193777858745306730e-04 -8.856029808521270752e-02 -2.692211419343948364e-02
1.318843383342027664e-02 -7.217007130384445190e-02 -5.291547626256942749e-02 -2.835669182240962982e-02
-3.704062430188059807e-03 -1.057485025376081467e-02 -3.912823647260665894e-02 -3.838572278618812561e-02
2.484903298318386078e-02 -7.171529531478881836e-02 -6.437029689550399780e-02 -6.728363037109375000e-02
1.504735182970762253e-02 -1.251644548028707504e-02 3.529730020090937614e-03 6.368767470121383667e-03
-1.345074642449617386e-02 -3.432841598987579346e-02 -2.572059445083141327e-02 -2.723789960145950317e-02
-1.637558802030980587e-03 -3.527856618165969849e-02 -6.650425493717193604e-03 -4.148176312446594238e-02
-2.971211075782775879e-02 -7.409069221466779709e-03 -1.271986588835716248e-02 -4.014677926898002625e-02
3.330211713910102844e-02 -7.905239239335060120e-03 -4.559983685612678528e-02 -2.043252624571323395e-02
-1.155165396630764008e-02 1.544376835227012634e-02 -2.872103592380881310e-03 -4.168972745537757874e-02
1.519703269004821777e-01 2.021286264061927795e-02 -3.521612659096717834e-02 -3.157936036586761475e-02
-6.435798108577728271e-02 1.074217143468558788e-03 -3.084314055740833282e-02 -5.766692105680704117e-03
3.415901213884353638e-02 7.526241242885589600e-03 -4.266740009188652039e-02 -7.853820174932479858e-02
4.263107106089591980e-02 2.705799229443073273e-02 -1.430324930697679520e-02 -7.354208827018737793e-02
-2.270334586501121521e-02 7.918253540992736816e-03 -3.532221540808677673e-02 -3.610414639115333557e-02
4.670089037972502410e-05 -1.503192726522684097e-02 -4.508206620812416077e-02 -5.839245021343231201e-02
-7.350812852382659912e-02 -5.966156348586082458e-02 -2.720922231674194336e-02 -8.137457072734832764e-02
8.410441875457763672e-02 -4.667207971215248108e-02 -2.328884974122047424e-02 -7.071083784103393555e-02
2.696108631789684296e-02 -4.326494038105010986e-02 -1.510776858776807785e-02 -6.509672105312347412e-02
9.392522275447845459e-02 -3.371235216036438942e-03 -4.512088000774383545e-02 -1.686314120888710022e-02
1.041419152170419693e-02 -2.129037864506244659e-02 4.988947883248329163e-03 -1.692687906324863434e-02
-7.944126846268773079e-04 3.942557144910097122e-03 4.575889091938734055e-03 3.584009408950805664e-02
-2.150611020624637604e-02 -3.031411580741405487e-02 2.969395183026790619e-02 -5.660211667418479919e-03
6.828774511814117432e-02 -1.445832196623086929e-02 5.792730301618576050e-02 -2.574507705867290497e-02
3.026725910604000092e-02 1.796103082597255707e-02 1.239543966948986053e-02 -4.639020189642906189e-02
-7.567997276782989502e-02 -3.280296176671981812e-02 -2.288325689733028412e-03 -2.698442526161670685e-02
-2.658495493233203888e-02 -2.974527888000011444e-02 1.704951003193855286e-02 3.781049326062202454e-02
-5.853491276502609253e-02 -6.022524088621139526e-02 1.047926768660545349e-02 -4.548584669828414917e-02
-6.906380504369735718e-02 3.237306838855147362e-03 4.841733607463538647e-04 2.588190510869026184e-02
-5.112398788332939148e-02 1.448714081197977066e-02 -8.499857783317565918e-02 -7.253465801477432251e-02
3.669950645416975021e-03 2.206714078783988953e-02 5.348466220311820507e-04 5.824317410588264465e-02
-8.427295088768005371e-02 2.651191875338554382e-02 6.283825729042291641e-03 4.466153308749198914e-02
1.014935970306396484e-02 -2.676591277122497559e-02 -4.651211667805910110e-03 5.412200465798377991e-02
-2.978150360286235809e-02 2.268014289438724518e-02 5.805624648928642273e-03 -6.239128485321998596e-02
-5.557158216834068298e-02 -5.052509903907775879e-02 -1.827422156929969788e-02 3.048496879637241364e-02
5.958899483084678650e-02 -1.181445899419486523e-03 -1.252810657024383545e-02 9.287544339895248413e-02
7.381170522421598434e-03 -5.407512933015823364e-02 -5.197856575250625610e-03 -6.021329667419195175e-03
-3.449226915836334229e-02 -3.745929896831512451e-02 5.588230118155479431e-02 -6.284682452678680420e-02
9.177482686936855316e-03 -1.667708344757556915e-02 7.980132475495338440e-03 -3.616306185722351074e-02
1.827472820878028870e-02 -1.404902245849370956e-02 -3.225987404584884644e-02 -1.028838604688644409e-01
6.802177429199218750e-02 -2.556336112320423126e-02 7.018068432807922363e-02 -3.996568266302347183e-03
2.760894782841205597e-02 -4.130201414227485657e-02 -4.765124246478080750e-02 4.103916697204113007e-03
-3.499561920762062073e-02 6.491101533174514771e-02 3.933348506689071655e-02 2.367792278528213501e-02
-4.743662849068641663e-02 -4.277569428086280823e-02 1.508844643831253052e-02 -1.393917482346296310e-02
2.607310377061367035e-02 4.914956167340278625e-02 2.664686553180217743e-02 -7.214070856571197510e-02
3.644324094057083130e-02 3.143411129713058472e-02 3.092824015766382217e-03 -5.331480503082275391e-02
-6.132758036255836487e-02 1.053008344024419785e-02 -2.468037232756614685e-02 -1.168276891112327576e-01
-5.232656374573707581e-02 -4.312606900930404663e-02 -4.321847483515739441e-02 -1.152230203151702881e-01
-2.938419580459594727e-02 -1.167957112193107605e-01 7.976127788424491882e-03 6.483017653226852417e-02
-4.009233042597770691e-02 2.248360402882099152e-02 -1.417316589504480362e-02 -1.374200880527496338e-01
-3.257583081722259521e-02 -8.833190053701400757e-02 -1.083770245313644409e-01 5.462584644556045532e-02
6.970622111111879349e-03 3.197630867362022400e-02 4.190785810351371765e-02 -2.114994637668132782e-02
2.923015505075454712e-03 4.556812811642885208e-03 -2.773638628423213959e-02 -1.112490072846412659e-01
-5.399302113801240921e-03 -3.365175053477287292e-02 -2.326020970940589905e-03 -4.530227184295654297e-02
-3.411313891410827637e-02 -9.532994590699672699e-03 -4.480510577559471130e-02 4.104671999812126160e-02
-3.489910438656806946e-02 1.747560501098632812e-02 3.074937127530574799e-02 7.330995053052902222e-02
-2.706871554255485535e-02 -2.167121134698390961e-02 2.776888571679592133e-02 8.913017064332962036e-02
-3.779660910367965698e-02 -5.656079575419425964e-02 -5.589294806122779846e-02 -8.477035909891128540e-02
-2.115434408187866211e-02 -4.610927402973175049e-02 -4.064847156405448914e-02 -1.849421486258506775e-02
-2.890186943113803864e-02 -4.014693945646286011e-02 -2.283131331205368042e-02 2.095762267708778381e-02
-8.529526740312576294e-02 -2.997888624668121338e-02 -3.639257326722145081e-02 -1.656967401504516602e-02
5.905853118747472763e-03 -1.766645535826683044e-02 -3.399752452969551086e-02 -4.512932896614074707e-02
-1.221686135977506638e-02 -3.584642335772514343e-02 -2.637429721653461456e-02 3.411287069320678711e-02
-3.505019098520278931e-02 -2.009608037769794464e-02 -4.920227080583572388e-02 2.491565793752670288e-02
-9.109469503164291382e-02 -3.973200917243957520e-02 -4.276119917631149292e-02 -3.986186534166336060e-02
6.347502022981643677e-02 -1.168452668935060501e-02 -5.842700228095054626e-02 -1.394956409931182861e-01
-8.472584187984466553e-02 -3.487586602568626404e-02 4.820989444851875305e-03 1.268864981830120087e-02
-1.054847836494445801e-01 -7.851067185401916504e-02 5.164942517876625061e-02 9.815543144941329956e-02
1.615048386156558990e-02 -1.124346908181905746e-02 2.069523371756076813e-02 -4.363195225596427917e-02
-5.312279984354972839e-02 -3.622167557477951050e-02 -4.077912122011184692e-02 -2.206413634121417999e-02
1.167782768607139587e-02 -1.340559870004653931e-02 -1.285563688725233078e-02 -2.690188772976398468e-02
-1.105298520997166634e-03 -4.741838201880455017e-02 -4.155779629945755005e-02 -2.755657583475112915e-02
2.559822052717208862e-03 -3.563242789823561907e-04 5.063923820853233337e-02 8.245053142309188843e-02
-6.577308475971221924e-02 -3.525032103061676025e-02 -1.312342286109924316e-02 -1.208211202174425125e-02
-5.298950150609016418e-02 -1.505800057202577591e-02 -8.244397118687629700e-03 5.236328393220901489e-02
-6.197964400053024292e-02 -3.092407062649726868e-02 -1.064668223261833191e-02 -3.152704983949661255e-02
-6.546185165643692017e-02 -7.808412611484527588e-02 3.055052086710929871e-02 9.219966828823089600e-02
-4.729408770799636841e-02 -7.225728780031204224e-02 3.317392244935035706e-02 8.209015429019927979e-02
-5.603829398751258850e-02 -1.280346792191267014e-02 -1.868935301899909973e-02 1.297470275312662125e-02
-6.761668622493743896e-02 -4.220610857009887695e-02 -1.420015841722488403e-02 -1.658494397997856140e-02
-1.544936895370483398e-01 1.398023404181003571e-02 -2.896882593631744385e-02 -1.021316461265087128e-02
-1.116540562361478806e-02 -9.924357384443283081e-02 -2.945795841515064240e-02 -6.117113679647445679e-02
-1.381881684064865112e-01 -4.419292137026786804e-02 -9.450641274452209473e-02 -7.398083060979843140e-02
-7.168241590261459351e-02 4.378275200724601746e-02 1.322322711348533630e-02 9.346899390220642090e-02
-3.436177223920822144e-02 -4.280938208103179932e-02 -4.619465023279190063e-02 -2.323617786169052124e-02
3.228208422660827637e-02 -6.890129297971725464e-03 -9.390261024236679077e-03 2.249807119369506836e-02
7.567809522151947021e-02 1.419778168201446533e-02 1.998547278344631195e-02 -2.305127680301666260e-02
1.789351180195808411e-02 -9.077312052249908447e-02 -8.752654492855072021e-02 -6.236725673079490662e-02
-4.529019352048635483e-03 -3.244132921099662781e-02 -2.251081168651580811e-02 -9.081769734621047974e-03
2.701414190232753754e-02 -3.050308860838413239e-02 -1.226992998272180557e-02 2.372254990041255951e-02
3.440668806433677673e-02 -3.885366395115852356e-02 2.684601768851280212e-02 3.954615443944931030e-02
-4.154098033905029297e-02 6.124985404312610626e-03 -1.509257033467292786e-02 -5.772383883595466614e-02
4.420083388686180115e-02 2.266784571111202240e-02 -2.322427742183208466e-02 -3.511880338191986084e-02
-2.959049493074417114e-02 -2.445901744067668915e-02 8.031685650348663330e-02 -4.140483587980270386e-02
-5.556161329150199890e-02 1.620372012257575989e-02 3.101780824363231659e-02 -4.042655602097511292e-02
2.614095062017440796e-02 -1.429937034845352173e-02 -3.505182638764381409e-02 -2.877354808151721954e-02
7.066270709037780762e-02 -3.553237020969390869e-02 -4.304309934377670288e-02 2.593572437763214111e-02
1.446401514112949371e-02 -2.333695627748966217e-02 -2.937570679932832718e-04 -1.378975156694650650e-02
3.002153523266315460e-02 -1.023426838219165802e-02 -5.670486390590667725e-02 2.308376505970954895e-02
-1.413553953170776367e-02 -3.852745145559310913e-02 -9.342839010059833527e-03 -1.103775296360254288e-02
-3.636654838919639587e-02 1.104587409645318985e-02 -7.996796630322933197e-03 -4.871985875070095062e-03
-5.641534924507141113e-02 -3.859589993953704834e-02 4.322669655084609985e-02 -5.210603401064872742e-02
7.171766832470893860e-03 -8.434141054749488831e-03 1.913147233426570892e-02 -1.877288334071636200e-02
3.361112251877784729e-02 -1.793590560555458069e-02 8.554157800972461700e-03 -8.636305108666419983e-03
-4.811357706785202026e-02 -3.930966928601264954e-02 -3.605963662266731262e-02 -2.295160293579101562e-02
-2.649566624313592911e-03 -5.732368212193250656e-03 -4.814675450325012207e-02 3.959998115897178650e-02
6.014821305871009827e-02 -7.810907810926437378e-02 -5.314862355589866638e-02 -1.091213077306747437e-01
4.361740872263908386e-02 -3.352853283286094666e-02 1.480040885508060455e-02 -1.851813867688179016e-02
-5.500929802656173706e-02 -9.457962587475776672e-03 8.364553563296794891e-03 1.927456818521022797e-02
3.554724156856536865e-03 -2.235181257128715515e-02 -5.887814983725547791e-02 -3.602398186922073364e-02
-6.440253555774688721e-02 -5.458935350179672241e-02 -1.936531253159046173e-02 1.539278030395507812e-02
-6.046882271766662598e-02 -2.011653594672679901e-02 2.873964980244636536e-02 -3.551853075623512268e-02
1.284578740596771240e-01 -1.639713533222675323e-02 4.448293149471282959e-02 -1.850234577432274818e-03
4.503667354583740234e-03 -2.466329559683799744e-02 1.102917194366455078e-01 5.919300485402345657e-03
-8.375975489616394043e-02 1.712166815996170044e-01 -4.065680876374244690e-02 -5.433357506990432739e-02
5.395808815956115723e-02 -7.886794954538345337e-02 -6.876974832266569138e-03 -1.119948327541351318e-01
1.350403763353824615e-02 5.001720506697893143e-03 8.952860720455646515e-03 -5.088677862659096718e-04
9.091043844819068909e-03 -2.368438057601451874e-02 2.915669232606887817e-03 2.436818741261959076e-02
-8.286993950605392456e-02 5.772117897868156433e-02 -8.675166964530944824e-02 4.291418939828872681e-02
-1.251652929931879044e-02 3.338672965764999390e-02 -5.990317091345787048e-03 3.540225699543952942e-02
3.586976602673530579e-02 3.017963282763957977e-02 -2.197003923356533051e-02 1.584020070731639862e-02
2.103680372238159180e-02 -2.262083813548088074e-02 4.344042763113975525e-02 2.541865408420562744e-02
-1.507109496742486954e-02 2.289922162890434265e-02 -4.660832509398460388e-02 2.259231545031070709e-02
3.150433674454689026e-02 -1.176140457391738892e-02 -4.463638179004192352e-04 1.442615594714879990e-02
-4.477416351437568665e-02 -3.746584057807922363e-02 -1.056880131363868713e-01 -1.199763827025890350e-02
5.348987504839897156e-02 2.932725660502910614e-02 -2.050540037453174591e-02 -3.005179204046726227e-02
3.222374245524406433e-02 -7.655712217092514038e-02 3.529151529073715210e-02 4.775579273700714111e-02
-6.271517276763916016e-02 -4.332985356450080872e-02 1.944429613649845123e-02 8.347149193286895752e-02
-7.009419053792953491e-02 -2.030432596802711487e-02 -4.590974748134613037e-02 1.974655874073505402e-02
1.024797931313514709e-02 6.170499324798583984e-02 -1.737328246235847473e-02 3.172797337174415588e-02
6.448622792959213257e-02 -2.182435244321823120e-02 -4.894647374749183655e-02 -8.265351504087448120e-02
-3.318683803081512451e-02 -8.432099223136901855e-02 1.409053523093461990e-02 1.248456388711929321e-01
8.248375728726387024e-03 3.267040243372321129e-03 -1.655193977057933807e-02 2.105939202010631561e-02
-4.713721945881843567e-02 -2.580922655761241913e-02 2.701456472277641296e-02 7.541853934526443481e-02
-7.303795777261257172e-03 -3.584082052111625671e-02 -1.750804670155048370e-02 3.546291962265968323e-02
6.227019801735877991e-02 5.957073718309402466e-02 -2.530568279325962067e-02 -5.067758262157440186e-02
-4.698036238551139832e-02 6.393555551767349243e-02 -8.166551124304533005e-04 4.622224718332290649e-02
7.735088467597961426e-02 3.303183475509285927e-04 -6.031372398138046265e-02 -6.770157068967819214e-02
-1.101538538932800293e-01 1.829333044588565826e-02 -2.132685855031013489e-02 6.457991898059844971e-02
-2.647778391838073730e-02 -1.673823595046997070e-02 -1.393065974116325378e-02 -1.714410819113254547e-02
-2.199268527328968048e-02 5.547820590436458588e-03 -1.661797799170017242e-02 3.019531257450580597e-02
2.719911746680736542e-03 -1.653281971812248230e-02 3.449919819831848145e-02 2.534550614655017853e-02
5.329126492142677307e-02 -8.832948654890060425e-02 -1.973482221364974976e-02 1.138885989785194397e-01
4.350971058011054993e-02 -5.172215029597282410e-02 2.691514603793621063e-02 7.641742378473281860e-02
-9.132909588515758514e-03 3.694002702832221985e-02 5.230851843953132629e-02 1.902898848056793213e-01
-3.037228249013423920e-02 -7.145702093839645386e-02 -1.159080043435096741e-01 1.070659309625625610e-01
7.985228300094604492e-02 2.711612731218338013e-02 6.364992260932922363e-02 3.373270109295845032e-02
-1.141795367002487183e-01 9.262956678867340088e-02 -5.509048700332641602e-02 1.165259331464767456e-01
4.377913102507591248e-02 3.372899815440177917e-02 -1.566451974213123322e-03 -4.782996699213981628e-02
2.551246434450149536e-02 -3.404207061976194382e-03 -1.619850099086761475e-02 -2.677368000149726868e-02
-3.370243683457374573e-02 -1.916985400021076202e-02 -2.943600714206695557e-02 -3.711446188390254974e-03
-4.268591478466987610e-02 5.650991946458816528e-02 1.654947735369205475e-02 -5.060937255620956421e-02
-1.581455022096633911e-02 4.407120123505592346e-02 8.208935149013996124e-03 4.187291488051414490e-04
1.585349254310131073e-02 -2.818225510418415070e-02 2.277032285928726196e-02 -3.615773096680641174e-02
1.412102486938238144e-02 -4.914236813783645630e-02 -3.034647181630134583e-02 -5.019482597708702087e-02
-1.706722076050937176e-03 -5.850914865732192993e-03 7.624112535268068314e-03 -1.132954563945531845e-02
9.897043555974960327e-02 -4.260216280817985535e-02 1.154412864707410336e-03 9.887164458632469177e-03
-3.957524150609970093e-02 -1.749792136251926422e-02 -8.939892053604125977e-02 -8.995365351438522339e-02
-4.403226822614669800e-02 -7.918569259345531464e-03 -5.305868759751319885e-02 -5.558949708938598633e-02
-2.890569157898426056e-02 -1.730058109387755394e-03 -4.183525219559669495e-02 -1.635529473423957825e-02
6.347747892141342163e-02 2.611455602163914591e-05 -1.842674612998962402e-02 -7.388377934694290161e-02
-5.256035551428794861e-02 2.467359602451324463e-02 5.266851186752319336e-02 -6.194683909416198730e-02
6.344188004732131958e-02 -7.427474111318588257e-02 -5.894129723310470581e-02 -3.564842045307159424e-02
1.021123118698596954e-02 2.985846949741244316e-03 -4.959582164883613586e-02 -1.039223968982696533e-01
-1.510404329746961594e-02 3.708108514547348022e-02 5.162402987480163574e-02 -2.959245443344116211e-02
3.768460359424352646e-03 -4.422974213957786560e-02 -5.755076184868812561e-03 -3.012018650770187378e-02
-5.483040213584899902e-02 -1.250675134360790253e-02 -1.177333667874336243e-02 -5.659208446741104126e-02
5.340367555618286133e-02 -2.534312941133975983e-02 1.012856420129537582e-02 -6.526708137243986130e-03
2.750091999769210815e-02 4.661538824439048767e-02 3.386763483285903931e-02 -9.429649449884891510e-03
2.668271586298942566e-02 -9.388134628534317017e-02 -2.793921716511249542e-02 -6.374091655015945435e-02
-1.318001449108123779e-01 -1.623624004423618317e-02 4.628944024443626404e-02 3.770826384425163269e-02
1.558473333716392517e-02 -3.207580745220184326e-02 -3.280839323997497559e-02 9.520892053842544556e-03
9.400748647749423981e-03 7.418004330247640610e-03 3.422038629651069641e-02 -2.860290743410587311e-02
-5.608316510915756226e-02 5.830835551023483276e-02 4.340773448348045349e-02 6.449122447520494461e-03
1.116299070417881012e-02 -4.429573938250541687e-02 -2.251473255455493927e-02 -2.232009731233119965e-02
-5.390269216150045395e-03 -4.313793033361434937e-02 -2.214620076119899750e-02 -8.112016320228576660e-02
-8.037405461072921753e-02 -1.250162869691848755e-01 -2.232021093368530273e-01 -1.701720654964447021e-01
-1.283221393823623657e-01 -1.258003897964954376e-02 -4.385526850819587708e-02 -7.546801865100860596e-02
-3.914847597479820251e-02 -1.869794577360153198e-01 -1.532806009054183960e-01 -1.675984412431716919e-01
-1.624422222375869751e-01 4.275150597095489502e-02 9.700091555714607239e-03 -2.456850372254848480e-02
2.818188816308975220e-02 -1.604400947690010071e-02 8.940985426306724548e-03 -2.891369862481951714e-03
9.620302356779575348e-03 -3.272061049938201904e-02 1.510099880397319794e-02 1.538921962492167950e-03
2.794624492526054382e-02 -3.559343516826629639e-02 -8.383993804454803467e-02 7.692261133342981339e-03
2.617722377181053162e-02 6.598643213510513306e-02 3.171300515532493591e-02 4.499477520585060120e-02
-5.076481401920318604e-02 -4.857256263494491577e-02 7.534448057413101196e-02 -3.297236561775207520e-02
-8.832609653472900391e-02 -4.674272239208221436e-02 -2.388753741979598999e-02 -3.569091483950614929e-02
-8.637067675590515137e-02 -2.563051134347915649e-02 -2.254850696772336960e-04 -8.505017310380935669e-02
-3.425619751214981079e-02 6.731625646352767944e-02 4.244640003889799118e-03 1.080768927931785583e-01
-1.036853566765785217e-01 2.942069619894027710e-02 -1.556838117539882660e-02 -1.598024740815162659e-03
-5.678520351648330688e-02 -1.275978051126003265e-02 -1.461177319288253784e-02 -5.344472825527191162e-02
5.915103014558553696e-03 -1.833680830895900726e-02 2.715900912880897522e-02 1.722333133220672607e-01
1.494930032640695572e-02 -1.420136913657188416e-02 -5.200991290621459484e-04 7.839690148830413818e-02
1.001859456300735474e-02 -3.042851388454437256e-02 -4.041173309087753296e-02 6.858304888010025024e-02
-8.291739970445632935e-02 -1.037633121013641357e-01 -7.995278388261795044e-02 -5.362712219357490540e-02
-4.800720512866973877e-02 2.470485121011734009e-02 -2.092051506042480469e-02 1.885582879185676575e-02
-1.025486644357442856e-02 -7.583768665790557861e-02 4.096897691488265991e-02 8.235094696283340454e-02
-4.839579761028289795e-02 -4.803603515028953552e-02 -1.739903911948204041e-02 -2.224853727966547012e-03
-2.301564067602157593e-02 2.317590825259685516e-02 -3.312370681669563055e-04 9.855142235755920410e-02
1.657338440418243408e-02 -2.308952808380126953e-02 6.784342229366302490e-03 1.873414590954780579e-02
-7.211338728666305542e-02 -5.453479010611772537e-03 1.086567807942628860e-02 -4.217925947159528732e-03
-2.082900702953338623e-02 2.969079837203025818e-02 8.241921663284301758e-03 2.206916548311710358e-02
-7.039745338261127472e-03 6.656636018306016922e-03 -8.269187062978744507e-02 -2.089885063469409943e-02
9.787566959857940674e-02 -3.062429837882518768e-02 -3.061623685061931610e-02 1.594355702400207520e-02
-7.786714285612106323e-02 -7.576259225606918335e-02 -4.127988591790199280e-02 -8.945321291685104370e-02
-5.358972400426864624e-02 -5.209577828645706177e-02 4.790753871202468872e-02 -2.770568616688251495e-02
-3.294743970036506653e-02 -8.642940968275070190e-02 8.178342878818511963e-02 3.483747318387031555e-02
-9.137173742055892944e-02 6.278036534786224365e-02 5.475163459777832031e-02 1.001992300152778625e-01
-3.309896960854530334e-02 2.989847585558891296e-02 2.069977112114429474e-02 5.353557318449020386e-02
-3.724656999111175537e-02 -1.409547962248325348e-02 -3.401160985231399536e-02 1.207562759518623352e-01
5.372494459152221680e-02 -6.426138430833816528e-02 -7.486974820494651794e-03 4.210499301552772522e-02
-5.929837375879287720e-02 -1.483815722167491913e-02 -8.897355943918228149e-02 6.237646192312240601e-02
-4.827716946601867676e-02 -9.266887791454792023e-03 4.447882995009422302e-03 2.069360204041004181e-02
-2.212314121425151825e-02 -2.314371056854724884e-02 -5.687148775905370712e-03 -2.168655768036842346e-02
-6.686245650053024292e-02 1.177845522761344910e-02 4.026114195585250854e-02 1.440634077880531549e-04
2.929715439677238464e-02 -3.651676466688513756e-03 -3.148780018091201782e-02 -1.350989565253257751e-02
-5.497882515192031860e-02 2.954540541395545006e-03 4.667063429951667786e-02 1.109688207507133484e-01
1.605615206062793732e-02 -5.227338522672653198e-02 7.451053708791732788e-03 -7.089681923389434814e-03
5.380007624626159668e-02 2.390090934932231903e-02 7.631895598024129868e-03 -1.409491710364818573e-02
-2.274632453918457031e-02 3.332918742671608925e-03 4.829657450318336487e-02 -4.827743768692016602e-02
-5.630945041775703430e-02 1.053330749273300171e-01 2.859426103532314301e-02 5.722090229392051697e-02
-5.305618047714233398e-02 1.545714214444160461e-02 -3.275888413190841675e-02 5.636762827634811401e-02
3.930146247148513794e-02 2.975892648100852966e-02 7.527227979153394699e-03 -1.346843838691711426e-01
-3.547723218798637390e-02 1.648969948291778564e-02 1.777532510459423065e-02 1.841910928487777710e-02
4.948368668556213379e-02 8.597338572144508362e-03 1.657432690262794495e-02 1.405464834533631802e-03
3.787488862872123718e-02 -2.939207106828689575e-02 3.372016176581382751e-02 4.698489978909492493e-02
-1.123377680778503418e-02 4.014634527266025543e-03 1.240264158695936203e-02 -6.755129992961883545e-02
7.347911130636930466e-03 -5.384968221187591553e-02 -7.120279967784881592e-02 1.745484769344329834e-02
-9.637216571718454361e-04 -5.631858110427856445e-02 5.998439155519008636e-03 1.729935035109519958e-02
-1.427973038516938686e-03 5.624751338473288342e-06 -1.108655519783496857e-02 7.705762982368469238e-03
-1.384805329144001007e-02 2.234773896634578705e-02 3.505737707018852234e-02 1.147726830095052719e-02
-1.732206717133522034e-02 -2.308739349246025085e-03 4.414712544530630112e-03 -3.219475597143173218e-02
-6.932635791599750519e-03 6.038775667548179626e-03 -4.040980339050292969e-02 -5.865303799510002136e-02
9.512866847217082977e-03 1.630024053156375885e-02 3.104183450341224670e-02 1.095639690756797791e-01
1.751823537051677704e-02 -4.983271658420562744e-02 -8.342728018760681152e-02 1.139005925506353378e-02
1.785652339458465576e-02 -8.667700737714767456e-02 -1.539214402437210083e-01 6.698203273117542267e-03
5.154764279723167419e-02 1.522954553365707397e-02 2.919045649468898773e-02 -7.034782320261001587e-02
3.348219022154808044e-02 -8.545333147048950195e-02 2.456386573612689972e-02 8.824737742543220520e-03
-1.272604241967201233e-02 -1.409871038049459457e-03 -2.425139956176280975e-02 9.541956707835197449e-03
-1.040790155529975891e-01 -1.001606136560440063e-02 5.180287361145019531e-02 3.318034112453460693e-02
-2.807866595685482025e-02 3.950200043618679047e-03 3.801069781184196472e-02 2.746638283133506775e-02
4.113379493355751038e-02 5.605801567435264587e-02 4.954034462571144104e-02 1.527397632598876953e-01
-2.021269500255584717e-02 4.468044266104698181e-02 2.125282399356365204e-02 -7.054362446069717407e-02
-5.913038551807403564e-02 9.912036359310150146e-02 4.731461405754089355e-02 1.350652873516082764e-01
-8.329803496599197388e-02 -3.733847290277481079e-02 -1.498502213507890701e-02 1.232324242591857910e-01
-3.065956383943557739e-02 -3.807186149060726166e-03 -1.025715377181768417e-02 -7.370025664567947388e-02
1.002314593642950058e-02 -4.089128598570823669e-02 3.668525442481040955e-02 -1.620368473231792450e-02
-6.141340360045433044e-02 3.067490644752979279e-02 -2.068582549691200256e-02 1.846148446202278137e-02
-5.512856692075729370e-02 -8.823098242282867432e-02 -3.014480881392955780e-02 -1.253106165677309036e-02
1.978536508977413177e-02 -4.894581623375415802e-03 -2.702030912041664124e-02 -1.253769081085920334e-02
-4.574124142527580261e-02 -2.031884901225566864e-02 2.170690335333347321e-02 2.448695711791515350e-02
3.684342838823795319e-03 -3.470184653997421265e-02 1.711212471127510071e-02 -1.037376746535301208e-02
1.792042143642902374e-02 -3.099765628576278687e-02 6.447793915867805481e-03 1.190882176160812378e-02
7.786653190851211548e-02 -2.518190629780292511e-02 1.942892931401729584e-02 -1.847201399505138397e-02
1.301012281328439713e-02 4.571328312158584595e-02 5.262696743011474609e-02 5.104168318212032318e-03
7.220339030027389526e-03 2.340612374246120453e-02 1.271675806492567062e-02 1.043613906949758530e-02
-2.129694260656833649e-02 -2.246200293302536011e-02 -3.666555136442184448e-02 -4.005920141935348511e-02
2.865347452461719513e-02 -4.148313030600547791e-02 -4.794559255242347717e-02 1.845145225524902344e-02
-1.026614978909492493e-01 -3.354146331548690796e-02 3.316305205225944519e-02 3.511306270956993103e-02
5.858740955591201782e-02 -2.545136213302612305e-02 -8.427282795310020447e-03 1.981970109045505524e-02
1.079704333096742630e-02 -6.644667685031890869e-02 -1.057536900043487549e-02 2.518411353230476379e-02
-7.837593555450439453e-02 -3.609161451458930969e-02 -1.951855234801769257e-02 1.897979294881224632e-03
2.738960785791277885e-03 -2.180401422083377838e-02 2.727975603193044662e-03 2.392405271530151367e-02
-5.906756594777107239e-02 2.958485111594200134e-02 1.730760326609015465e-03 -5.746296141296625137e-03
-5.820852820761501789e-04 3.059170581400394440e-02 1.375835109502077103e-02 4.232247173786163330e-02
-8.383556269109249115e-03 -5.928169563412666321e-02 -4.317420721054077148e-02 2.914727665483951569e-02
3.165289014577865601e-02 -4.185686632990837097e-02 -2.751902118325233459e-02 1.546767260879278183e-02
-2.882055379450321198e-02 -4.094081372022628784e-02 -5.076873302459716797e-02 -2.828251337632536888e-03
-8.881640620529651642e-03 -7.983940304256975651e-04 4.918019473552703857e-02 -1.177753973752260208e-02
3.022660268470644951e-03 -2.078204974532127380e-02 -1.831221021711826324e-02 1.337750721722841263e-02
9.641799260862171650e-04 -1.155445165932178497e-02 -5.031513981521129608e-03 6.861732341349124908e-03
6.728395819664001465e-02 -4.919097200036048889e-02 9.471569210290908813e-03 2.099142409861087799e-02
-1.205661450512707233e-03 -3.755924105644226074e-02 1.819493621587753296e-02 3.242705389857292175e-02
-7.358722388744354248e-02 1.001781597733497620e-01 -1.230385852977633476e-03 6.429102271795272827e-03
-8.297987282276153564e-02 -1.819698512554168701e-02 3.926416859030723572e-02 4.489672556519508362e-02
1.348439604043960571e-01 2.789284847676753998e-02 6.706064939498901367e-02 3.687138110399246216e-02
-8.707676827907562256e-02 -3.159940987825393677e-02 -1.737417653203010559e-02 -4.769767075777053833e-02
-2.473251335322856903e-02 -1.336808782070875168e-02 2.766544697806239128e-03 2.445114403963088989e-02
5.252590402960777283e-02 1.237688958644866943e-02 1.886695250868797302e-02 2.271505258977413177e-02
-2.102251909673213959e-02 1.281402260065078735e-02 9.248861111700534821e-03 -2.109042368829250336e-02
-5.316256731748580933e-02 -9.359801560640335083e-02 -2.368403971195220947e-02 -7.699070125818252563e-02
3.559476509690284729e-02 -2.974832244217395782e-02 -1.322998665273189545e-02 -8.391345851123332977e-03
-4.349037044448778033e-05 -6.435064226388931274e-02 2.683416940271854401e-02 -2.455072104930877686e-02
3.448589891195297241e-02 -3.837986290454864502e-02 6.756181828677654266e-03 2.939978800714015961e-02
-1.299774274230003357e-02 -4.004216194152832031e-02 -2.835790999233722687e-02 4.451310727745294571e-03
7.642360031604766846e-02 -1.929778419435024261e-02 -4.404223710298538208e-02 7.761233020573854446e-03
-1.077388226985931396e-02 1.179636828601360321e-02 1.938235014677047729e-02 5.021939054131507874e-02
3.572762385010719299e-02 1.975314319133758545e-02 -1.630151644349098206e-02 4.412773251533508301e-02
-7.625991851091384888e-02 1.976278610527515411e-03 5.454645142890512943e-04 3.010212071239948273e-02
6.139944866299629211e-02 6.427552551031112671e-03 1.810159161686897278e-02 -2.824543043971061707e-02
-6.246529892086982727e-02 -9.810482710599899292e-02 -1.618847250938415527e-02 -2.035888470709323883e-02
3.760815039277076721e-02 2.085607312619686127e-02 -3.681072033941745758e-03 -2.191439643502235413e-02
6.110825017094612122e-02 1.350037753582000732e-02 9.393955580890178680e-03 -3.904902935028076172e-02
-4.967553168535232544e-02 -7.742725312709808350e-02 -4.625379666686058044e-02 -3.515346348285675049e-02
1.396204903721809387e-02 -6.748762726783752441e-02 -3.444114327430725098e-02 -6.856667343527078629e-03
-8.902124129235744476e-03 2.385798841714859009e-03 2.925676293671131134e-02 -3.785083070397377014e-03
-6.843116600066423416e-03 1.347063388675451279e-02 -3.478430211544036865e-02 3.940245881676673889e-02
1.103214547038078308e-02 -8.788095414638519287e-02 -7.134931627660989761e-03 -1.117634847760200500e-01
1.296097878366708755e-02 5.398331955075263977e-02 -4.530712962150573730e-02 -2.972714416682720184e-02
-6.532948464155197144e-02 -1.831715553998947144e-02 6.021244823932647705e-02 -3.193372115492820740e-02
-6.088362075388431549e-03 -3.574376553297042847e-02 1.221802551299333572e-02 2.552708052098751068e-02
3.717150539159774780e-02 -1.261201500892639160e-02 -4.406471177935600281e-02 -4.371452145278453827e-03
1.781472563743591309e-02 -2.902289666235446930e-02 -2.442513220012187958e-02 -5.001164972782135010e-02
1.393307279795408249e-02 -6.176624447107315063e-02 -4.830845817923545837e-02 3.510247170925140381e-02
2.579910308122634888e-02 -3.020956180989742279e-02 -3.318054974079132080e-02 2.434483170509338379e-02
9.078755229711532593e-02 4.160468280315399170e-02 -4.401174932718276978e-02 -1.941112130880355835e-01
-7.198749575763940811e-03 -1.522965636104345322e-02 4.269673675298690796e-02 -2.932094736024737358e-03
3.931499645113945007e-02 1.387291103601455688e-01 -2.948436513543128967e-02 -7.642363011837005615e-02
1.341327372938394547e-02 -2.354219555854797363e-02 3.745792806148529053e-02 -8.877278119325637817e-02
-3.633902594447135925e-02 2.307559363543987274e-02 -1.151748280972242355e-02 2.686316147446632385e-03
2.653358131647109985e-02 -6.675127148628234863e-02 -3.007998131215572357e-02 -7.527764886617660522e-02
-3.255800530314445496e-02 -5.607880279421806335e-02 2.526560798287391663e-02 -3.230733796954154968e-02
6.815793458372354507e-03 3.639667853713035583e-02 -2.623912878334522247e-02 -4.435473680496215820e-02
-6.698832660913467407e-02 1.935620792210102081e-02 1.485308632254600525e-02 -1.731917262077331543e-02
7.089368999004364014e-02 -3.975694626569747925e-02 -9.949869662523269653e-02 -1.160822957754135132e-01
1.899512112140655518e-02 -5.612812563776969910e-02 -5.395913124084472656e-02 -9.151683747768402100e-02
2.113609574735164642e-02 -1.839841948822140694e-03 6.202947814017534256e-03 1.064095273613929749e-01
7.933906465768814087e-02 -6.529006641358137131e-03 -2.125613950192928314e-02 2.383127063512802124e-02
-1.403143107891082764e-01 -1.063162311911582947e-01 -2.657171525061130524e-02 4.989711195230484009e-02
-7.629236206412315369e-03 2.168065682053565979e-02 -3.063204139471054077e-02 4.208296537399291992e-02
-2.882998436689376831e-03 -3.116085194051265717e-02 -5.955668538808822632e-02 4.237452894449234009e-02
2.200883068144321442e-02 -3.209601854905486107e-04 -1.938949455507099628e-03 -5.492608994245529175e-03
-1.556364446878433228e-02 -2.817666903138160706e-02 -1.519531458616256714e-01 -1.433564573526382446e-01
2.315247245132923126e-02 -7.902327179908752441e-02 -4.753194749355316162e-02 4.031614586710929871e-02
1.381715685129165649e-01 8.284340798854827881e-02 1.684902235865592957e-02 -1.021732911467552185e-01
3.043177304789423943e-03 4.348970949649810791e-02 -5.806247517466545105e-02 -2.578822709619998932e-02
-5.117827560752630234e-03 -3.758063074201345444e-03 -1.222334895282983780e-02 6.788663566112518311e-02
-1.702856644988059998e-02 -3.188484162092208862e-02 -3.660759655758738518e-03 -1.302794553339481354e-02
-7.184654474258422852e-02 -1.146987080574035645e-01 -5.472100526094436646e-02 1.504864078015089035e-02
1.069175451993942261e-02 -1.656653173267841339e-02 -2.033416926860809326e-02 -4.754883050918579102e-02
-5.072586983442306519e-02 -5.753570795059204102e-02 -2.033023536205291748e-02 7.894239388406276703e-03
-1.573230326175689697e-01 -1.281847432255744934e-02 -2.671474404633045197e-02 -3.791955485939979553e-02
9.144486486911773682e-02 -4.829693585634231567e-02 -8.706903457641601562e-02 -1.237298399209976196e-01
-2.167345769703388214e-02 -2.911146963015198708e-03 2.643369510769844055e-02 -5.717874318361282349e-02
-5.560579150915145874e-02 5.789699498564004898e-03 9.609716362319886684e-04 -3.749285265803337097e-02
2.174526825547218323e-02 3.393140807747840881e-02 -2.483481727540493011e-02 1.220653802156448364e-01
-7.810487877577543259e-03 -6.639073137193918228e-03 -1.868782378733158112e-02 1.203694194555282593e-01
1.694700121879577637e-02 4.892988363280892372e-04 -3.563150018453598022e-02 2.488672919571399689e-02
-7.920960336923599243e-02 -4.830513522028923035e-02 1.859884336590766907e-02 -2.826750045642256737e-03
2.829268202185630798e-02 -1.138599123805761337e-02 5.751496180891990662e-02 5.514613818377256393e-03
-1.051321551203727722e-01 5.219214595854282379e-03 -2.191345207393169403e-02 -2.218297496438026428e-02
-6.675820797681808472e-02 -4.513832926750183105e-02 -3.905036300420761108e-02 2.428462170064449310e-02
-1.204561907798051834e-02 7.731281965970993042e-02 -1.659297570586204529e-02 -4.144255071878433228e-02
-2.925876062363386154e-03 -6.350808590650558472e-02 -6.688865832984447479e-03 -1.739985682070255280e-02
1.000825464725494385e-01 4.255585744976997375e-02 -6.298185791820287704e-03 3.036636859178543091e-02
-1.508138794451951981e-02 3.839366370812058449e-03 -1.052847355604171753e-01 -1.788513660430908203e-01
-2.759391255676746368e-02 -2.476060763001441956e-02 -6.436377018690109253e-02 -7.691694796085357666e-02
-2.992993593215942383e-02 1.174716372042894363e-02 -1.935456879436969757e-02 -9.311699122190475464e-02
9.275759570300579071e-03 8.153687417507171631e-02 2.014231681823730469e-02 3.778756130486726761e-03
-2.288884110748767853e-02 2.591358497738838196e-02 2.416576491668820381e-03 3.453981503844261169e-02
-3.745719045400619507e-02 -2.504383958876132965e-02 -4.285018518567085266e-02 -1.576685309410095215e-01
1.603969559073448181e-02 6.495639681816101074e-02 8.546092547476291656e-03 -5.324950069189071655e-02
-7.030809298157691956e-03 3.467394411563873291e-02 7.019648794084787369e-03 -5.890401825308799744e-02
4.521259665489196777e-02 5.600717291235923767e-02 7.483831793069839478e-02 -4.971256852149963379e-02
-6.139822676777839661e-02 3.713871911168098450e-02 -1.753212697803974152e-02 -9.345942735671997070e-02
-4.851187579333782196e-03 7.203060202300548553e-03 6.772452499717473984e-03 -4.521108046174049377e-02
-1.049230024218559265e-01 -2.476389519870281219e-02 -1.178367510437965393e-01 1.080183405429124832e-02
-1.018153131008148193e-02 2.392995916306972504e-02 -4.467683378607034683e-03 -3.915312141180038452e-02
1.418137364089488983e-02 9.332808852195739746e-02 2.439361414872109890e-04 -9.748609736561775208e-03
1.524781342595815659e-02 5.414520855993032455e-03 -1.354698650538921356e-02 4.708885401487350464e-02
-4.051467403769493103e-03 8.257376030087471008e-03 -5.085238069295883179e-02 -1.216002851724624634e-01
1.154520437121391296e-01 6.647964566946029663e-02 -2.232193946838378906e-02 3.471798449754714966e-02
-4.827317968010902405e-02 -2.114900201559066772e-02 -3.172829374670982361e-02 -4.148548468947410583e-02
1.335546746850013733e-02 1.118385344743728638e-01 4.927168786525726318e-02 -2.305684611201286316e-02
-1.254945620894432068e-02 -5.148675292730331421e-02 -4.484784230589866638e-02 -1.148297339677810669e-01
5.521677900105714798e-03 3.941452130675315857e-02 -1.663720011711120605e-01 -1.368720680475234985e-01
-3.821801766753196716e-02 6.044111400842666626e-02 -1.313185542821884155e-01 -1.477591842412948608e-01
-4.454258363693952560e-03 6.726023554801940918e-02 7.883384823799133301e-03 -1.868933066725730896e-02
1.366902142763137817e-02 1.908335089683532715e-02 -1.316685974597930908e-02 -3.109706379473209381e-02
6.228801980614662170e-02 -1.284553557634353638e-01 4.325343668460845947e-02 -6.918600201606750488e-02
-6.574905663728713989e-02 7.047612965106964111e-02 5.176642537117004395e-02 -3.553983941674232483e-02
-4.593814909458160400e-02 8.328400552272796631e-03 -5.320728197693824768e-02 -2.009658841416239738e-03
-1.293843146413564682e-03 7.940007746219635010e-02 -2.396617457270622253e-02 -7.660352624952793121e-03
1.085058320313692093e-02 -2.547252736985683441e-02 -3.680232167243957520e-02 -1.118014603853225708e-01
-4.305473715066909790e-02 -3.930913284420967102e-02 -1.015918143093585968e-02 -3.622296079993247986e-02
-2.285999432206153870e-02 -2.515361644327640533e-02 -1.105055958032608032e-02 -6.420993804931640625e-02
7.962682098150253296e-02 -2.328906208276748657e-03 -9.541498124599456787e-02 -2.982530742883682251e-02
-2.599672041833400726e-02 -7.317473739385604858e-02 -6.073579564690589905e-02 -8.435347676277160645e-02
-7.946918904781341553e-02 -7.812348008155822754e-02 -3.407771885395050049e-02 -9.642830491065979004e-02
-5.537313595414161682e-02 2.514810068532824516e-03 -5.043188109993934631e-02 -1.090983077883720398e-01
-5.871073529124259949e-02 -5.003547668457031250e-02 -1.596008427441120148e-02 9.334015659987926483e-03
-1.381379663944244385e-01 7.071455009281635284e-03 1.058928668498992920e-03 2.390327863395214081e-02
-5.046898871660232544e-02 9.745809249579906464e-03 -5.914212018251419067e-02 -1.042496785521507263e-01
2.929833531379699707e-02 3.849771246314048767e-02 5.210215691477060318e-03 2.113156951963901520e-03
3.632559627294540405e-02 8.429857902228832245e-03 -7.627618964761495590e-03 3.981472458690404892e-03
-1.051315441727638245e-01 -3.347443789243698120e-02 1.421797648072242737e-02 -6.069124210625886917e-03
1.873240247368812561e-02 -2.800558134913444519e-02 -8.634661324322223663e-03 -8.904456347227096558e-02
-6.147618219256401062e-02 -4.133136942982673645e-02 4.813667386770248413e-02 5.469878017902374268e-02
2.726731635630130768e-02 -5.813290365040302277e-03 -4.849921166896820068e-02 9.885044395923614502e-02
2.046332508325576782e-02 -4.672743752598762512e-02 -4.187088459730148315e-02 1.543536223471164703e-02
-2.234052680432796478e-02 -2.363809943199157715e-02 -6.380743533372879028e-02 -1.131210941821336746e-02
1.084509771317243576e-02 2.960759960114955902e-02 1.747031882405281067e-02 3.118942677974700928e-02
-2.717533893883228302e-02 -5.722944159060716629e-03 -8.197102695703506470e-03 -2.995535731315612793e-02
6.534494459629058838e-02 -2.454356476664543152e-02 -1.264324933290481567e-01 1.193995680660009384e-02
-1.667088712565600872e-03 -1.734159514307975769e-02 3.162624314427375793e-02 1.727419905364513397e-02
1.777518242597579956e-01 -2.749033644795417786e-02 1.798775233328342438e-02 -5.081502348184585571e-02
-1.046091467142105103e-01 -4.461122304201126099e-02 -7.133609056472778320e-02 -1.314568221569061279e-01
-7.729942910373210907e-03 -3.079321794211864471e-02 -6.592688709497451782e-02 -6.417186558246612549e-02
2.968262997455894947e-04 -1.178637798875570297e-02 -1.024613529443740845e-01 -1.027775704860687256e-01
-8.481556922197341919e-02 2.088282071053981781e-02 -2.814563736319541931e-02 -3.611209243535995483e-02
-5.150732398033142090e-02 3.037384524941444397e-02 -7.109150290489196777e-02 -2.876101760193705559e-03
6.926234066486358643e-02 1.069621462374925613e-02 2.253993414342403412e-02 7.634346187114715576e-02
4.609298706054687500e-02 -2.346774376928806305e-02 5.369482561945915222e-02 2.064710482954978943e-02
4.853292182087898254e-02 2.936599403619766235e-02 -1.514631323516368866e-02 -3.725405037403106689e-02
6.806430965662002563e-02 -1.762421987950801849e-02 -6.502551585435867310e-02 -1.475502736866474152e-02
-2.673280052840709686e-02 -3.658071532845497131e-02 8.337307721376419067e-03 -1.380586065351963043e-02
-1.922565861605107784e-03 -6.531088054180145264e-02 -4.896996915340423584e-02 -1.439487095922231674e-02
-6.274112313985824585e-02 1.991847343742847443e-02 -1.287043839693069458e-02 -1.477592531591653824e-02
5.938727408647537231e-02 -9.371370077133178711e-03 2.171243913471698761e-02 6.536116823554039001e-03
1.660236157476902008e-02 -1.977391541004180908e-02 3.078294545412063599e-02 -6.009744852781295776e-02
-6.491554901003837585e-03 -3.095717541873455048e-02 -3.366556763648986816e-02 -6.137322634458541870e-02
-3.952518850564956665e-02 -4.286950081586837769e-02 -6.702343374490737915e-02 -6.902202218770980835e-02
-6.102702021598815918e-02 -3.534340485930442810e-02 -3.907934948801994324e-02 -1.027770899236202240e-02
-7.741224765777587891e-02 -4.244600888341665268e-03 -2.178228646516799927e-02 -6.186820566654205322e-02
5.995980929583311081e-03 1.672029867768287659e-02 -7.495513558387756348e-02 -1.260423958301544189e-01
9.689762257039546967e-03 3.221368044614791870e-02 -8.500185795128345490e-03 4.833745211362838745e-02
2.128507196903228760e-02 -5.087055731564760208e-03 -5.061491206288337708e-02 3.537778928875923157e-02
-4.196229204535484314e-02 -2.371262572705745697e-02 2.473524212837219238e-02 1.006764471530914307e-01
8.364006131887435913e-02 -4.960423335433006287e-02 -9.146362543106079102e-02 -3.289893642067909241e-02
-7.980719953775405884e-02 -3.888189420104026794e-02 -6.721532437950372696e-03 -2.641085162758827209e-02
-2.527329698204994202e-02 1.517614535987377167e-02 -4.335370287299156189e-02 6.047061458230018616e-02
3.909798711538314819e-02 2.977790124714374542e-02 -2.531377784907817841e-02 -2.797504188492894173e-03
-1.560269203037023544e-02 -5.357054248452186584e-02 -9.474005550146102905e-03 -6.534493993967771530e-03
-4.119686037302017212e-02 -2.904658019542694092e-02 -2.732554450631141663e-02 -1.792998053133487701e-02
-2.234099991619586945e-02 -3.598828241229057312e-02 -5.020881816744804382e-02 -9.938289225101470947e-02
6.318449974060058594e-02 1.269553694874048233e-02 5.578792467713356018e-02 3.661631047725677490e-02
-1.173437610268592834e-01 -4.353990405797958374e-02 -3.281946852803230286e-02 -3.353236615657806396e-02
8.360281586647033691e-02 1.003346033394336700e-02 3.059080243110656738e-02 4.284735023975372314e-02
-3.187152743339538574e-02 -4.741134494543075562e-02 -8.325023204088211060e-02 -1.182457134127616882e-01
1.534421578980982304e-03 -7.896263152360916138e-03 1.348660327494144440e-02 -5.902825668454170227e-02
5.998771637678146362e-03 -5.405097082257270813e-02 2.418035455048084259e-02 -2.558592706918716431e-02
-6.176953390240669250e-02 3.952625393867492676e-02 -5.511203035712242126e-02 -1.466526985168457031e-01
-6.350072473287582397e-02 -4.326713085174560547e-02 -4.325129091739654541e-02 -1.150560081005096436e-01
7.096614222973585129e-03 6.390989571809768677e-02 7.190492749214172363e-02 1.902534626424312592e-02
4.753673449158668518e-02 1.385186240077018738e-02 1.156601216644048691e-02 -4.661440383642911911e-03
-9.595372527837753296e-02 2.240485697984695435e-02 9.744993597269058228e-02 8.825393021106719971e-02
5.594598874449729919e-02 9.635040909051895142e-02 4.652601480484008789e-02 -3.959605842828750610e-02
5.928279133513569832e-04 -9.712217375636100769e-03 -2.415134012699127197e-02 -1.015465557575225830e-01
5.772832408547401428e-02 4.921062383800745010e-03 4.819735884666442871e-02 -6.871495395898818970e-03
1.436134427785873413e-02 -4.118917882442474365e-02 1.161292381584644318e-02 1.528740953654050827e-02
-1.353203654289245605e-01 -2.956387773156166077e-02 -3.650569124147295952e-03 -2.696053497493267059e-02
-4.588275775313377380e-02 -1.154232420958578587e-03 -1.317935436964035034e-02 -5.089532956480979919e-02
-6.241555884480476379e-02 -2.295763418078422546e-02 -4.988943040370941162e-02 -1.486589945852756500e-02
6.049977615475654602e-02 -1.135382149368524551e-02 2.914629690349102020e-02 3.653585165739059448e-02
-9.243690222501754761e-02 4.017544165253639221e-02 1.222257502377033234e-02 6.828947365283966064e-02
-1.013887003064155579e-01 -1.079539880156517029e-01 -2.743568457663059235e-02 1.026613563299179077e-01
-3.125466639176011086e-03 -2.607658877968788147e-02 3.290151432156562805e-02 7.240136712789535522e-02
4.687400534749031067e-03 7.587535772472620010e-03 3.988622501492500305e-02 8.854421973228454590e-02
-1.920147053897380829e-02 -2.716531604528427124e-02 6.341285258531570435e-02 1.087320595979690552e-02
-1.030202955007553101e-02 -3.442212566733360291e-02 5.407770629972219467e-03 4.180352389812469482e-02
-8.235243707895278931e-02 -1.206674948334693909e-01 -6.684152409434318542e-03 -2.627300284802913666e-02
-7.977746427059173584e-03 -7.451659440994262695e-02 -4.229462705552577972e-03 3.265407634899020195e-03
5.561621859669685364e-02 -2.037014812231063843e-02 5.213032290339469910e-02 9.577879309654235840e-02
-6.621176749467849731e-02 -1.409482490271329880e-02 -2.470988407731056213e-02 -9.126075543463230133e-03
-7.597166299819946289e-02 3.225032612681388855e-02 4.262037575244903564e-02 5.871526524424552917e-02
-2.867066673934459686e-02 -2.638068422675132751e-02 4.180442541837692261e-02 -1.048303116112947464e-02
2.363083511590957642e-02 -2.319205738604068756e-02 -2.170648239552974701e-02 5.403195694088935852e-02
-7.475876063108444214e-02 1.964932866394519806e-02 1.708526164293289185e-02 -2.722674608230590820e-02
1.033721864223480225e-02 -6.597831845283508301e-02 2.464571967720985413e-02 -9.114079177379608154e-03
-1.146051660180091858e-01 -8.007277548313140869e-02 -4.011238459497690201e-03 -3.858625423163175583e-03
4.396186210215091705e-03 -4.689516127109527588e-02 -4.691861197352409363e-02 -2.386781945824623108e-02
-2.136027626693248749e-02 1.906462013721466064e-02 -2.975417533889412880e-03 -5.417328327894210815e-02
-4.956845194101333618e-02 3.727183118462562561e-02 -5.111667886376380920e-02 -2.609746530652046204e-02
-1.114801391959190369e-01 -4.999742284417152405e-02 1.027447544038295746e-02 3.195186704397201538e-02
-5.894834175705909729e-02 -3.911469597369432449e-03 4.020546004176139832e-02 3.258470818400382996e-02
-9.707855433225631714e-02 3.519768267869949341e-02 6.581228971481323242e-02 7.904026657342910767e-02
-5.862221121788024902e-02 -8.289933204650878906e-02 6.335359066724777222e-02 1.913419179618358612e-02
-9.229258447885513306e-02 2.981191314756870270e-02 -3.702652081847190857e-02 1.344741135835647583e-01
-1.025015935301780701e-01 -6.200893968343734741e-02 -2.429774403572082520e-02 6.269285827875137329e-02
-1.112081483006477356e-02 -7.401831913739442825e-03 1.251339726150035858e-02 1.816646009683609009e-02
5.365520343184471130e-02 -5.389686208218336105e-03 5.943841766566038132e-03 6.295578181743621826e-02
-2.758638747036457062e-02 3.176087141036987305e-02 -1.123224385082721710e-02 1.710383594036102295e-02
-4.029843211174011230e-02 -3.126043826341629028e-02 7.197587750852108002e-03 2.893884479999542236e-02
-2.733568660914897919e-02 3.021501004695892334e-02 -6.393856834620237350e-03 6.220837309956550598e-02
1.078922487795352936e-02 -1.473441068083047867e-02 -3.729560971260070801e-02 6.245947256684303284e-02
1.791414432227611542e-02 3.437900170683860779e-02 2.095834352076053619e-02 5.136210098862648010e-02
-4.994964599609375000e-02 -1.895611733198165894e-02 1.297523919492959976e-02 -8.638001978397369385e-02
-7.703511044383049011e-03 -8.319842070341110229e-02 -2.523067221045494080e-02 -1.936574466526508331e-02
-1.985012181103229523e-02 5.034889280796051025e-02 6.325279176235198975e-02 4.224798828363418579e-02
-3.024528175592422485e-02 1.657645101658999920e-03 4.526935890316963196e-02 -8.829166740179061890e-02
-4.362686350941658020e-02 -4.305808804929256439e-03 3.413216769695281982e-02 2.219299413263797760e-02
-3.174391388893127441e-02 -2.469409443438053131e-02 -6.582624465227127075e-02 7.512804586440324783e-03
7.831574417650699615e-03 -4.863310977816581726e-02 -6.619454920291900635e-02 4.348305240273475647e-02
3.228951618075370789e-02 -6.654372066259384155e-02 -6.328338384628295898e-02 -2.141644619405269623e-02
-8.744607679545879364e-03 6.334309466183185577e-03 1.515972986817359924e-02 1.030029058456420898e-01
-3.287553414702415466e-02 -4.440691322088241577e-03 6.556088337674736977e-04 1.488229352980852127e-02
-8.854879438877105713e-02 -3.188956156373023987e-02 -1.777076162397861481e-02 -2.519169822335243225e-02
-1.789068058133125305e-02 -2.820485644042491913e-02 -1.982700452208518982e-02 9.162402711808681488e-03
-2.076761424541473389e-02 4.337335005402565002e-02 2.750980295240879059e-02 1.309614256024360657e-02
-4.643333330750465393e-02 1.208052318543195724e-02 1.152797322720289230e-02 1.823990792036056519e-02
3.642425406724214554e-03 2.485269680619239807e-02 -1.509874965995550156e-02 5.060805380344390869e-02
1.006585545837879181e-02 -4.926790669560432434e-02 -5.040947720408439636e-02 5.357833579182624817e-02
-2.003678120672702789e-02 -3.069189190864562988e-02 -3.119412437081336975e-02 5.484545230865478516e-02
1.417095586657524109e-02 3.519350290298461914e-02 -3.324919380247592926e-03 1.099737063050270081e-01
-8.575554820708930492e-04 -1.658157072961330414e-02 5.650044232606887817e-02 4.235936328768730164e-02
-2.921513281762599945e-02 -5.260746926069259644e-02 -8.820324391126632690e-02 2.537065930664539337e-02
1.385263632982969284e-03 -1.867270283401012421e-02 -8.049161732196807861e-02 2.352413255721330643e-03
-9.911132603883743286e-02 -2.689551562070846558e-02 -4.824439436197280884e-02 1.243846677243709564e-02
2.997147850692272186e-02 -5.198508128523826599e-02 2.046856097877025604e-02 1.327846795320510864e-01
-2.106016874313354492e-01 -3.895416855812072754e-02 -4.265019670128822327e-02 -1.968065276741981506e-02
-7.657556794583797455e-03 -9.857892990112304688e-02 -6.187663227319717407e-02 8.411815762519836426e-02
-1.515172049403190613e-02 2.868562377989292145e-02 1.995945721864700317e-02 2.758282236754894257e-02
-6.877292692661285400e-02 -2.575144544243812561e-02 7.044135127216577530e-03 5.405568052083253860e-03
-1.468382775783538818e-02 1.381767354905605316e-02 -1.327431574463844299e-02 -2.934597618877887726e-02
5.919094756245613098e-02 4.726650658994913101e-03 -4.719308018684387207e-02 4.362923093140125275e-03
2.673398703336715698e-02 -2.950797788798809052e-02 -3.791157528758049011e-02 -1.887623220682144165e-02
-5.183171480894088745e-02 1.498299185186624527e-02 1.533449254930019379e-02 -3.348081186413764954e-02
-7.125247269868850708e-02 -1.199980359524488449e-02 2.356052026152610779e-02 -4.404727369546890259e-02
2.842693589627742767e-02 -6.312857568264007568e-02 1.595366559922695160e-02 -3.589451313018798828e-02
-2.483833581209182739e-02 -4.555142670869827271e-02 6.823243573307991028e-03 -4.770439118146896362e-02
1.231607515364885330e-02 -2.845173142850399017e-02 5.720967799425125122e-02 -8.388312906026840210e-02
1.894017495214939117e-02 -5.899389274418354034e-03 -1.817709952592849731e-02 -1.110273227095603943e-01
1.327706500887870789e-02 -8.304267190396785736e-03 1.162760797888040543e-02 -4.051638394594192505e-02
1.655359007418155670e-02 -7.515678182244300842e-03 -1.085153035819530487e-02 -2.585994661785662174e-05
1.825852505862712860e-02 3.697849065065383911e-02 2.151571400463581085e-02 -5.395401269197463989e-02
2.627510018646717072e-02 -4.671036079525947571e-02 -8.331545628607273102e-03 -6.020915135741233826e-02
-3.592035919427871704e-02 2.516160160303115845e-02 -3.978971391916275024e-02 -2.041162364184856415e-02
7.456083782017230988e-03 2.145699970424175262e-02 -1.170383300632238388e-02 2.816993743181228638e-02
-1.976536214351654053e-02 -4.425320029258728027e-02 -2.049756981432437897e-02 -1.006993651390075684e-01
-6.644245982170104980e-02 5.133701488375663757e-02 -2.925816923379898071e-02 -3.756767511367797852e-02
2.132714726030826569e-02 -3.261713311076164246e-02 1.539528835564851761e-02 -6.951412558555603027e-02
5.685500428080558777e-02 -3.389311954379081726e-02 -2.985248342156410217e-02 -1.410078909248113632e-02
1.757726259529590607e-02 -4.155146703124046326e-02 4.867443814873695374e-03 -1.620404800632968545e-04
9.555711597204208374e-02 7.799924910068511963e-02 -1.590545754879713058e-03 -8.997173607349395752e-02
-2.378034964203834534e-02 -1.204879675060510635e-02 1.935381442308425903e-02 -4.093031398952007294e-03
-3.766883537173271179e-02 1.896238327026367188e-02 -2.785770967602729797e-02 -5.224285647273063660e-02
2.275357022881507874e-02 -1.422131666913628578e-03 3.063535550609230995e-03 -2.519181929528713226e-02
-2.654860727488994598e-02 -3.428015857934951782e-02 -1.450515165925025940e-02 -1.094099730253219604e-01
-2.640567906200885773e-02 -5.808301270008087158e-02 -2.661615051329135895e-02 -7.206294685602188110e-02
1.972924545407295227e-02 -2.569425851106643677e-02 -3.474355861544609070e-02 1.422927677631378174e-01
-1.302435845136642456e-01 8.683566004037857056e-02 1.912650465965270996e-02 -1.427969895303249359e-02
-6.644550710916519165e-02 3.405589237809181213e-02 -2.802637219429016113e-02 1.512991171330213547e-02
5.348046123981475830e-02 3.273407742381095886e-02 -3.326477482914924622e-02 -1.770568639039993286e-02
8.533773943781852722e-03 -2.245616167783737183e-02 2.122789435088634491e-02 -1.432781014591455460e-02
-8.393273502588272095e-02 2.166504599153995514e-02 -5.021027475595474243e-02 2.053881064057350159e-03
-5.424342676997184753e-02 1.535837352275848389e-02 -3.071853891015052795e-02 3.295764327049255371e-02
8.724354952573776245e-02 -8.220966905355453491e-02 -8.549664914608001709e-02 1.782905161380767822e-01
3.269202541559934616e-03 8.860250934958457947e-03 -1.758529804646968842e-02 9.651688486337661743e-02
-9.449663013219833374e-02 -6.729323416948318481e-02 -3.074364364147186279e-02 -4.555189236998558044e-02
-5.620828643441200256e-02 -1.303430180996656418e-02 -5.005315691232681274e-02 3.725981712341308594e-02
-1.007662620395421982e-02 -2.634580805897712708e-02 -1.632332056760787964e-02 -1.159193459898233414e-02
7.558884564787149429e-03 4.456551745533943176e-02 1.112489402294158936e-02 1.224144734442234039e-02
3.947024047374725342e-02 4.487060755491256714e-02 -1.104849204421043396e-02 -8.682988584041595459e-02
-3.663105890154838562e-02 5.529864225536584854e-03 -4.926406219601631165e-02 -8.196459710597991943e-02
-7.761945948004722595e-03 -2.096723951399326324e-02 3.391781821846961975e-02 3.037361614406108856e-02
-2.782456018030643463e-02 -3.437646850943565369e-02 1.404583454132080078e-03 -2.934298850595951080e-02
5.474817752838134766e-02 -3.063374757766723633e-02 2.497046068310737610e-02 -7.945632189512252808e-02
-4.210500791668891907e-02 3.901717066764831543e-02 7.600966840982437134e-03 -3.331078682094812393e-03
-1.020495072007179260e-01 -5.906606838107109070e-02 -1.276349425315856934e-01 4.925104230642318726e-02
3.059812122955918312e-03 -6.501116603612899780e-02 1.535403449088335037e-02 6.417530775070190430e-02
-3.066926263272762299e-02 -7.117419689893722534e-02 -3.981409594416618347e-02 3.437237814068794250e-02
-2.100944891571998596e-02 3.605305030941963196e-02 -3.224098309874534607e-02 -2.310552820563316345e-02
-5.497718602418899536e-02 6.430777162313461304e-02 2.436020039021968842e-02 -3.781865164637565613e-02
-1.138841081410646439e-02 -1.205189749598503113e-01 -3.381947055459022522e-02 2.060922086238861084e-01
-3.484061732888221741e-02 5.741857737302780151e-02 -1.417206693440675735e-02 -5.847502499818801880e-02
1.424590647220611572e-01 8.696079999208450317e-02 -8.477560430765151978e-02 -4.083225876092910767e-02
-9.095451235771179199e-02 -1.446996163576841354e-02 -3.907736763358116150e-02 7.770071271806955338e-03
1.797398366034030914e-02 -4.697304964065551758e-02 -5.371811985969543457e-02 7.033303380012512207e-02
2.734278095886111259e-03 1.292962301522493362e-02 -2.363772876560688019e-02 4.571733623743057251e-02
-4.284074157476425171e-02 -3.800469636917114258e-02 -6.497649103403091431e-02 3.690801560878753662e-02
-4.377431795001029968e-02 -2.868458442389965057e-02 -4.872018843889236450e-02 9.133447310887277126e-04
1.906431652605533600e-02 -1.129710748791694641e-01 -2.427197247743606567e-02 9.006349742412567139e-02
4.954123497009277344e-02 6.660043448209762573e-02 -3.880457952618598938e-02 -1.293957233428955078e-01
-6.419318169355392456e-02 -4.969387874007225037e-02 -4.310619086027145386e-02 -1.244335249066352844e-02
6.465120613574981689e-02 -4.761717282235622406e-03 -6.327246874570846558e-02 8.464282006025314331e-02
-4.659266769886016846e-02 5.697239935398101807e-02 7.710497826337814331e-03 -2.831757254898548126e-02
-2.487941831350326538e-02 5.976969003677368164e-02 2.589268982410430908e-02 -9.601318836212158203e-02
-3.813800588250160217e-02 5.038867890834808350e-02 6.519897282123565674e-02 -8.111973851919174194e-02
-4.406885430216789246e-02 5.568731948733329773e-02 3.393879905343055725e-02 -1.222355812788009644e-01
1.410518400371074677e-02 3.950267657637596130e-02 -2.118518576025962830e-02 -1.398297995328903198e-01
-1.927526667714118958e-02 -5.048455204814672470e-03 3.855648636817932129e-02 -2.994059771299362183e-02
-7.254209835082292557e-03 1.709618233144283295e-02 3.618608042597770691e-02 -1.519441157579421997e-01
-7.857623696327209473e-02 3.641023859381675720e-02 1.542699057608842850e-02 5.806843191385269165e-02
-2.708724886178970337e-02 -8.104632049798965454e-02 3.088638558983802795e-02 2.084890753030776978e-02
-4.732067137956619263e-02 -3.242399543523788452e-02 -4.052620008587837219e-02 6.615117937326431274e-02
5.481448769569396973e-02 -3.990363702178001404e-02 -4.675383493304252625e-02 1.007884144783020020e-01
3.939696401357650757e-02 3.388849645853042603e-02 1.977135054767131805e-02 4.911564663052558899e-02
2.583483047783374786e-02 3.623085096478462219e-02 4.593539983034133911e-02 -1.216781437397003174e-01
2.974938834086060524e-03 -3.120393678545951843e-02 -7.704591378569602966e-03 1.669237762689590454e-02
-1.555737294256687164e-02 -1.455561164766550064e-02 -2.498964220285415649e-02 3.929894883185625076e-03
9.078991599380970001e-03 6.432592123746871948e-02 9.059768170118331909e-02 -1.280908137559890747e-01
-4.723122343420982361e-02 2.694076485931873322e-02 2.412783727049827576e-02 4.445547237992286682e-03
-7.453152537345886230e-02 3.865638375282287598e-02 -2.986952289938926697e-02 9.708699584007263184e-02
-4.292795807123184204e-02 1.762427203357219696e-02 -1.485239528119564056e-02 4.213201347738504410e-03
-1.304636243730783463e-02 3.081968985497951508e-02 -5.166735965758562088e-03 3.408551216125488281e-02
-2.677921950817108154e-02 -9.936448186635971069e-03 2.648584730923175812e-02 -7.264521718025207520e-02
-3.568104282021522522e-02 -6.981515791267156601e-03 5.894353985786437988e-02 -1.453519985079765320e-02
-5.529208108782768250e-02 2.051737159490585327e-02 1.475772727280855179e-02 -3.254473209381103516e-02
-2.762739360332489014e-02 -2.195586264133453369e-02 5.465407297015190125e-02 -2.854924835264682770e-02
1.486679073423147202e-03 5.896021611988544464e-03 -4.096103087067604065e-02 -1.119376048445701599e-01
4.149981960654258728e-02 8.039043843746185303e-02 2.037201821804046631e-02 -1.013454794883728027e-01
-8.300919085741043091e-02 -8.069559931755065918e-02 6.021640729159116745e-03 1.273856610059738159e-01
-4.141890257596969604e-02 -7.376649230718612671e-02 -2.029786817729473114e-02 1.251432150602340698e-01
-3.591134399175643921e-02 4.112520441412925720e-02 2.014068653807044029e-03 -8.445414900779724121e-02
-7.156798988580703735e-02 1.162209510803222656e-01 -2.002029214054346085e-03 2.266947180032730103e-02
-4.248638078570365906e-02 1.731556095182895660e-02 4.151525720953941345e-02 9.719269722700119019e-02
-1.452701538801193237e-01 -8.397405594587326050e-02 -2.067625522613525391e-02 -6.348598003387451172e-02
-4.420523066073656082e-03 -8.090296760201454163e-03 -1.740765990689396858e-03 3.003150597214698792e-02
3.263600543141365051e-02 -2.162041887640953064e-02 4.338319413363933563e-03 -1.417030487209558487e-02
-6.732747703790664673e-02 -2.475444227457046509e-02 -2.858804725110530853e-02 -2.141351811587810516e-02
8.372592180967330933e-02 -1.884874305687844753e-03 -6.658787280321121216e-02 -5.934632569551467896e-02
-4.946101829409599304e-02 -5.180672556161880493e-02 -4.071168974041938782e-02 -4.201898351311683655e-02
-2.093365602195262909e-02 -3.522775322198867798e-02 -2.803543210029602051e-02 -2.913825400173664093e-02
3.149441257119178772e-02 2.250401675701141357e-02 1.045593898743391037e-02 -2.115829288959503174e-02
9.560591727495193481e-02 2.632020041346549988e-02 -2.499387133866548538e-03 -1.320503652095794678e-01
9.650462120771408081e-02 7.452701032161712646e-02 2.827540040016174316e-02 -1.206606179475784302e-01
-3.684816136956214905e-02 -5.552772898226976395e-03 6.042569503188133240e-02 -1.220277026295661926e-01
