2.212476879358291626e-01
1.376775652170181274e-02
7.118385750800371170e-03
-1.718097366392612457e-02
4.550631344318389893e-02
2.275434732437133789e-01
6.828152388334274292e-02
3.490167111158370972e-02
3.463860973715782166e-02
1.836213767528533936e-01
1.524805929511785507e-02
-1.498767267912626266e-02
-3.390830382704734802e-02
1.054813638329505920e-01
6.414598226547241211e-02
1.737800799310207367e-02
5.928374826908111572e-02
2.338138818740844727e-01
9.922008216381072998e-02
-9.950989857316017151e-03
8.963486552238464355e-02
4.558278247714042664e-02
-4.528372362256050110e-02
1.957707107067108154e-01
3.784791231155395508e-01
1.863140016794204712e-01
-1.281836070120334625e-02
-4.028096050024032593e-02
6.049766540527343750e-01
8.523856103420257568e-02
3.141089379787445068e-01
9.512589126825332642e-02
1.797550544142723083e-02 -2.756289392709732056e-02 1.166126877069473267e-02
-1.576160192489624023e-01 3.736646845936775208e-02 6.317847222089767456e-02
5.528022721409797668e-02 -1.062673516571521759e-02 -6.056729704141616821e-02
1.307216589339077473e-03 -5.564388632774353027e-02 -7.071200013160705566e-02
-1.114385575056076050e-01 7.855049520730972290e-02 3.010357543826103210e-02
6.842525303363800049e-02 -9.357215464115142822e-02 -6.773047894239425659e-02
1.295300871133804321e-01 -1.053451970219612122e-01 -1.034571453928947449e-01
1.494868397712707520e-01 -2.397852577269077301e-02 -8.612471073865890503e-02
2.434084005653858185e-02 2.523117000237107277e-03 1.987029053270816803e-02
-1.021379828453063965e-01 1.004449184983968735e-02 4.790631122887134552e-03
-1.712189987301826477e-02 -1.763591915369033813e-02 -2.051560394465923309e-02
7.304414361715316772e-02 3.312987089157104492e-02 6.149305775761604309e-02
1.036912724375724792e-01 -9.192571975290775299e-03 -6.310287863016128540e-02
-2.025801315903663635e-02 -1.702625490725040436e-02 -3.878693655133247375e-02
-1.725909709930419922e-01 -2.559859678149223328e-02 1.984235458076000214e-02
-2.343804575502872467e-02 -7.416874915361404419e-02 -5.591752752661705017e-02
-1.218389570713043213e-01 1.213118061423301697e-02 4.123891144990921021e-02
3.783609252423048019e-03 -9.571354836225509644e-02 -4.398502409458160400e-02
1.871029660105705261e-02 -4.281265661120414734e-03 3.756188554689288139e-03
3.077861666679382324e-02 -2.148328907787799835e-02 -1.877486519515514374e-02
-1.865990906953811646e-01 2.272574417293071747e-02 2.050564810633659363e-02
9.936575777828693390e-03 1.774525269865989685e-02 2.113291248679161072e-02
9.471680968999862671e-02 -2.866529673337936401e-02 -8.244752883911132812e-02
1.346308272331953049e-02 -4.087366163730621338e-02 -1.173517014831304550e-02
8.845163509249687195e-03 -3.031536377966403961e-02 4.468152299523353577e-03
-8.416619151830673218e-02 3.511397168040275574e-02 5.569797754287719727e-02
1.241481527686119080e-01 -2.262598834931850433e-02 -9.850012138485908508e-03
1.223010104149580002e-02 1.140571665018796921e-02 2.986578084528446198e-02
2.832427993416786194e-02 1.077750045806169510e-02 -5.326512269675731659e-03
7.568480819463729858e-02 -2.876336127519607544e-02 -2.562513388693332672e-02
1.766960322856903076e-02 2.244573645293712616e-02 -1.679505407810211182e-02
8.112012408673763275e-03 -3.639767318964004517e-02 9.121977724134922028e-03
2.314877882599830627e-02 3.077723458409309387e-02 1.477587129920721054e-02
-6.559570785611867905e-03 1.113155204802751541e-02 6.960657984018325806e-02
1.065467204898595810e-02 6.240819580852985382e-03 -3.762291371822357178e-02
-6.926824338734149933e-03 -7.834438234567642212e-03 -3.515239059925079346e-02
-2.873595990240573883e-02 -1.349253952503204346e-02 -2.319050207734107971e-02
-3.034108877182006836e-02 -5.522196739912033081e-02 -1.966864615678787231e-02
2.763893269002437592e-02 5.900400225073099136e-03 -4.434136301279067993e-02
-3.821432124823331833e-03 1.457462739199399948e-02 -4.861609637737274170e-02
-4.166576080024242401e-03 -1.833038218319416046e-02 -2.479486726224422455e-02
-4.002139437943696976e-03 -2.615286223590373993e-02 1.971328072249889374e-02
2.817173721268773079e-03 -5.097507499158382416e-03 1.453896705061197281e-02
3.421995788812637329e-03 1.848626695573329926e-02 4.083798453211784363e-02
7.377084810286760330e-03 -2.392707159742712975e-03 -5.105295404791831970e-02
-3.060094267129898071e-02 -4.070088267326354980e-03 3.575541079044342041e-02
-5.373334139585494995e-02 -4.879916086792945862e-02 1.452820561826229095e-02
-2.727395482361316681e-02 -2.295627444982528687e-02 -1.025815727189183235e-03
-9.270408190786838531e-03 6.368963979184627533e-03 -2.294191718101501465e-02
-2.161336131393909454e-03 4.321913793683052063e-02 1.528860069811344147e-03
2.486492507159709930e-02 -1.538358069956302643e-02 1.279687974601984024e-02
4.337459686212241650e-04 -1.143211778253316879e-02 -9.440271183848381042e-03
-8.386336266994476318e-03 -3.412253782153129578e-02 4.039258509874343872e-02
-2.001963555812835693e-02 -2.480586990714073181e-02 -3.100519068539142609e-02
-6.990374997258186340e-03 5.303017050027847290e-02 6.972065195441246033e-03
-3.689137846231460571e-02 7.333213463425636292e-03 1.290954276919364929e-02
-1.118627376854419708e-02 -8.283247239887714386e-03 1.069544348865747452e-02
-2.181022055447101593e-02 -4.934719298034906387e-03 3.429774194955825806e-02
-1.526898518204689026e-02 2.542676217854022980e-02 -6.686914712190628052e-02
-1.600978150963783264e-02 6.533972918987274170e-03 -6.355787627398967743e-03
-9.586334228515625000e-03 -7.105943514034152031e-04 1.794741861522197723e-02
2.052230993285775185e-03 9.399116970598697662e-03 -2.106571570038795471e-02
-1.023590192198753357e-02 1.909907348453998566e-02 2.223521471023559570e-02
-2.383540384471416473e-03 3.330320492386817932e-02 4.617543146014213562e-02
-5.594314425252377987e-04 2.328662946820259094e-02 -2.333357371389865875e-02
-3.788905590772628784e-02 2.019488811492919922e-02 3.493348136544227600e-02
1.288427133113145828e-02 9.094842709600925446e-03 -4.265931434929370880e-03
-3.162473812699317932e-02 -4.186063632369041443e-02 -5.894512287341058254e-04
-3.938504308462142944e-02 3.489859169349074364e-03 3.279655054211616516e-02
-1.609444804489612579e-02 -2.349406294524669647e-02 -3.284853696823120117e-02
3.989359736442565918e-02 -2.930257283151149750e-02 -6.413116306066513062e-02
7.737906649708747864e-03 1.441594585776329041e-02 -5.911570042371749878e-02
3.140132874250411987e-02 -2.973943948745727539e-02 3.126567602157592773e-02
-4.210990294814109802e-02 2.852043695747852325e-02 8.774317800998687744e-03
2.243931405246257782e-02 5.443948786705732346e-03 2.140776254236698151e-02
3.643826395273208618e-02 -2.302003651857376099e-02 6.234540045261383057e-02
4.827934782952070236e-03 -6.405869033187627792e-03 -6.789815425872802734e-02
-3.805451095104217529e-02 -2.987322583794593811e-02 -1.854225248098373413e-02
-5.838838964700698853e-02 -7.828732021152973175e-03 -1.457832753658294678e-02
1.433182973414659500e-02 -9.853260591626167297e-03 -2.627234347164630890e-02
-3.267461061477661133e-02 7.206621579825878143e-03 -1.065711490809917450e-02
-1.419474463909864426e-02 3.436309751123189926e-03 -6.307897716760635376e-02
1.350600738078355789e-02 8.983001112937927246e-03 -1.794982887804508209e-02
2.210187353193759918e-02 9.554643183946609497e-03 -2.788539044559001923e-02
-3.038020804524421692e-02 -9.613785892724990845e-03 2.513311989605426788e-02
1.241551525890827179e-02 -2.823126129806041718e-02 -6.342176930047571659e-04
1.250237412750720978e-02 -5.975114181637763977e-03 -1.001926325261592865e-02
-1.870756968855857849e-02 -3.902630507946014404e-02 -2.971526980400085449e-02
-2.210208401083946228e-02 -2.797182882204651833e-03 -1.484974566847085953e-02
-4.721519537270069122e-03 7.304081809706985950e-04 2.961763925850391388e-02
3.182426095008850098e-02 2.563756518065929413e-02 -4.706954583525657654e-02
3.932682797312736511e-03 -2.274382486939430237e-02 -1.555487141013145447e-02
-1.196976285427808762e-02 -2.731724083423614502e-02 2.928252890706062317e-02
9.044132195413112640e-03 -1.327996794134378433e-02 -1.193070784211158752e-02
1.618578843772411346e-02 -2.355625852942466736e-02 -2.896578982472419739e-02
2.321437001228332520e-03 5.789230577647686005e-03 -1.857290044426918030e-02
-2.107243612408638000e-02 -1.313750538975000381e-02 -1.914802379906177521e-02
3.491209819912910461e-02 -7.729011587798595428e-03 -2.875629579648375511e-03
-1.062838919460773468e-02 3.137939050793647766e-02 -1.205423288047313690e-02
-2.809304185211658478e-02 -3.136743232607841492e-02 -2.242525108158588409e-02
-7.445960771292448044e-03 -1.229470502585172653e-02 -1.119212131015956402e-03
-2.272851392626762390e-02 2.970461035147309303e-03 4.704785533249378204e-03
-3.020858578383922577e-02 2.420226298272609711e-02 -2.133052796125411987e-02
-8.989579975605010986e-03 1.186031568795442581e-02 2.264307998120784760e-02
-8.104356005787849426e-03 2.313216682523488998e-03 6.338657811284065247e-03
2.364571765065193176e-02 3.197666723281145096e-03 -2.308715321123600006e-02
-2.875603362917900085e-02 -2.563073113560676575e-02 7.177780847996473312e-03
-1.479646377265453339e-02 -2.351433970034122467e-02 8.218440227210521698e-03
-2.506812289357185364e-02 7.670066319406032562e-03 -8.423977997153997421e-04
-1.188392192125320435e-02 1.933841733261942863e-03 2.495835535228252411e-03
4.173464328050613403e-02 -2.249238081276416779e-02 -3.313189372420310974e-02
-8.512198925018310547e-03 -3.282993659377098083e-02 2.473448403179645538e-02
5.794179812073707581e-02 6.416653748601675034e-03 9.249176830053329468e-03
-1.609084382653236389e-02 -3.277397714555263519e-03 -9.004840627312660217e-03
-1.090339943766593933e-02 -2.400097437202930450e-02 -2.211807854473590851e-02
-1.641671359539031982e-02 -2.641957253217697144e-02 2.559797093272209167e-02
4.200441017746925354e-02 1.175979897379875183e-02 -7.766383350826799870e-04
-3.508677007630467415e-03 2.237306721508502960e-02 1.847905851900577545e-02
5.684933625161647797e-03 3.297218307852745056e-02 -2.210108377039432526e-02
-2.958693541586399078e-02 -1.565786451101303101e-02 -2.974271401762962341e-02
-2.576429769396781921e-02 -7.938097231090068817e-03 6.062572356313467026e-03
-3.533914685249328613e-03 -9.684064425528049469e-03 9.583756327629089355e-03
1.580069656483829021e-03 2.044752798974514008e-02 1.449553109705448151e-02
1.430596690624952316e-02 -2.434004470705986023e-02 -2.594138029962778091e-03
-7.753581274300813675e-03 -2.190590836107730865e-02 -1.193321682512760162e-02
-4.191004484891891479e-02 -8.727868087589740753e-03 1.570378243923187256e-02
1.418303232640028000e-02 2.329390263184905052e-03 2.555818483233451843e-02
1.737547921948134899e-03 -8.241440169513225555e-03 -2.684395387768745422e-02
2.529719844460487366e-02 3.279466554522514343e-02 -2.548154070973396301e-02
-4.079687967896461487e-02 -1.179131679236888885e-02 1.391594670712947845e-02
-3.687726706266403198e-02 1.748046465218067169e-02 -3.565922006964683533e-02
2.739016339182853699e-02 -1.268495619297027588e-02 2.318773418664932251e-02
-1.906250417232513428e-02 -4.861983470618724823e-03 -1.162173971533775330e-02
-2.003232948482036591e-02 -4.839751124382019043e-02 -3.878064453601837158e-02
1.584741473197937012e-02 2.464611083269119263e-02 6.978766992688179016e-03
1.685153879225254059e-02 1.236595306545495987e-02 1.940054935403168201e-03
-2.442340366542339325e-03 2.535887807607650757e-02 1.491048373281955719e-02
-4.673590138554573059e-02 -9.324391372501850128e-03 -6.404016632586717606e-03
3.336750343441963196e-02 2.291665039956569672e-02 -1.920238696038722992e-02
5.703550577163696289e-02 -4.815955646336078644e-03 -4.654533416032791138e-02
1.528788474388420582e-03 -4.317856952548027039e-02 -4.564984142780303955e-02
-3.828508034348487854e-02 1.657373644411563873e-02 7.343401666730642319e-03
-7.332857698202133179e-02 1.714588887989521027e-02 -1.730904541909694672e-02
9.490251541137695312e-03 8.933811448514461517e-03 -3.129115700721740723e-02
-2.316220477223396301e-02 -8.112982846796512604e-03 1.609540730714797974e-02
-5.882486701011657715e-02 2.938561083283275366e-04 9.426520019769668579e-02
-1.315484102815389633e-02 -1.147720031440258026e-02 -1.125262957066297531e-02
1.104660052806138992e-02 -1.559165539219975471e-03 9.366624988615512848e-03
2.613662183284759521e-02 -4.279309138655662537e-02 5.030179396271705627e-02
-6.468404550105333328e-03 -1.269466825760900974e-03 4.372482944745570421e-04
-5.034993216395378113e-02 3.911904245615005493e-02 2.824783697724342346e-02
4.358850792050361633e-02 -1.814828254282474518e-02 2.441228553652763367e-02
1.277366373687982559e-02 1.160294469445943832e-02 -2.674191491678357124e-03
-4.869572073221206665e-02 4.704764578491449356e-03 -4.019432887434959412e-02
-1.200512871146202087e-01 -1.679554209113121033e-02 -1.088376566767692566e-01
2.600049413740634918e-02 3.034001588821411133e-02 -2.721716836094856262e-02
-2.888114191591739655e-03 1.927981898188591003e-02 -1.141512207686901093e-02
2.316103130578994751e-02 1.539121009409427643e-02 -1.815669052302837372e-02
-2.031869627535343170e-02 -2.586574479937553406e-02 -2.584238164126873016e-02
-4.729632753878831863e-03 -1.977577805519104004e-02 -2.896777912974357605e-02
1.560529507696628571e-02 9.763316251337528229e-03 -2.433979138731956482e-02
-3.002036921679973602e-02 -4.666546825319528580e-03 -1.015464216470718384e-01
5.195561330765485764e-03 -2.695060521364212036e-02 8.512444049119949341e-02
2.584852091968059540e-02 -1.430344861000776291e-02 -1.510152779519557953e-02
1.237057894468307495e-02 -2.792893722653388977e-02 -1.891487464308738708e-02
2.733822539448738098e-02 6.390986032783985138e-03 3.708052914589643478e-03
-3.222274407744407654e-02 -2.872535772621631622e-02 1.287236995995044708e-02
3.462685272097587585e-02 -6.902588997036218643e-03 9.136183559894561768e-02
1.551549695432186127e-02 -1.217266265302896500e-02 -2.925833687186241150e-03
8.943935856223106384e-03 1.382768154144287109e-02 3.980270400643348694e-02
2.604573406279087067e-02 2.987008728086948395e-02 -3.049652092158794403e-03
4.470599815249443054e-02 4.552212357521057129e-02 1.540858764201402664e-02
2.745956741273403168e-02 4.809415433555841446e-03 1.182382404804229736e-01
-4.538065195083618164e-02 -4.572092369198799133e-02 1.364548411220312119e-02
-7.106846570968627930e-02 -5.637098103761672974e-02 -6.680735200643539429e-02
-7.528461050242185593e-03 -2.339067868888378143e-02 1.316478103399276733e-02
2.406376879662275314e-03 3.414939390495419502e-03 3.205347433686256409e-02
4.304511938244104385e-03 -7.363829761743545532e-02 -3.394824638962745667e-02
-3.248402103781700134e-02 -7.670380640774965286e-03 -2.640558220446109772e-02
2.814180403947830200e-02 1.473229192197322845e-02 8.992854505777359009e-03
3.122797468677163124e-03 3.804259002208709717e-02 -3.414170816540718079e-02
-3.307965025305747986e-02 2.086712233722209930e-02 2.507907897233963013e-02
-2.814816869795322418e-02 -3.290658816695213318e-02 3.019326180219650269e-02
-8.915033191442489624e-03 1.694490946829319000e-02 -2.598241157829761505e-02
-2.211275137960910797e-02 -2.505121380090713501e-02 3.325277240946888924e-03
-4.374282434582710266e-02 2.508033998310565948e-03 1.257849298417568207e-02
-4.813821241259574890e-02 -5.523895099759101868e-02 1.738377213478088379e-01
-5.514252698048949242e-04 1.559835113584995270e-02 -2.579529024660587311e-02
-1.351633109152317047e-02 2.085129171609878540e-02 -2.850641123950481415e-02
2.659066766500473022e-02 1.343616191297769547e-02 -1.432484202086925507e-02
1.441655680537223816e-02 3.318212181329727173e-02 -1.758636347949504852e-02
-1.669033989310264587e-02 -1.981117017567157745e-02 -3.918024303857237101e-04
-1.406278461217880249e-02 -2.728455513715744019e-02 3.044015541672706604e-02
1.714171320199966431e-01 2.529068849980831146e-02 2.392123937606811523e-01
-9.608950465917587280e-02 8.252258598804473877e-02 -1.016445904970169067e-01
1.223947294056415558e-02 7.784926146268844604e-02 -1.035060137510299683e-01
1.319701820611953735e-01 -4.344094172120094299e-02 8.645992726087570190e-02
-1.384257376194000244e-01 -8.396471291780471802e-02 -1.916119158267974854e-01
-1.615594327449798584e-01 -1.765864714980125427e-02 -1.274523884057998657e-01
-1.810722053050994873e-01 1.916228793561458588e-02 -1.024932637810707092e-01
-1.317096315324306488e-02 7.137603592127561569e-03 2.945722267031669617e-02
9.002088755369186401e-02 -3.663016855716705322e-02 3.183594718575477600e-02
-1.827646419405937195e-02 -5.229702219367027283e-03 2.898882701992988586e-02
-9.566098451614379883e-02 4.423729330301284790e-02 1.334599703550338745e-01
-1.406066566705703735e-01 3.111082687973976135e-02 -1.757261753082275391e-01
1.508378088474273682e-01 6.421981751918792725e-02 1.642319709062576294e-01
1.214442104101181030e-01 -6.459292024374008179e-02 7.722135633230209351e-02
3.664888069033622742e-02 6.753980368375778198e-02 -1.188080087304115295e-01
3.050024509429931641e-01 4.236398264765739441e-03 1.791259460151195526e-02
9.195069223642349243e-02 1.186563298106193542e-01 -1.185304224491119385e-01
-2.076456509530544281e-02 -2.245851606130599976e-02 3.454122226685285568e-03
1.399987377226352692e-02 -2.834714204072952271e-02 -1.967655681073665619e-02
2.164116650819778442e-01 -6.735959649085998535e-02 7.319761812686920166e-02
1.812628656625747681e-02 -1.985135115683078766e-02 -6.146810017526149750e-03
-9.163904190063476562e-02 3.522123396396636963e-02 -1.003077700734138489e-01
-4.072067141532897949e-02 -6.610307097434997559e-02 -5.737392604351043701e-02
1.590537652373313904e-02 1.302530989050865173e-02 -1.678621396422386169e-03
9.122259169816970825e-02 -3.572220355272293091e-02 1.459846049547195435e-01
-1.352857351303100586e-01 8.080860227346420288e-02 -1.250786334276199341e-01
-2.660647220909595490e-02 4.795103799551725388e-03 -4.326151101849973202e-04
2.314613573253154755e-02 1.455210894346237183e-02 1.060776878148317337e-02
-8.328287303447723389e-02 -3.876775270327925682e-03 -1.928170584142208099e-02
-8.279910311102867126e-03 1.433932315558195114e-02 2.180086635053157806e-02
2.483209781348705292e-02 6.451950222253799438e-02 8.522527664899826050e-02
1.398381125181913376e-02 -2.248698659241199493e-02 1.904595270752906799e-02
2.548975870013237000e-02 2.262031845748424530e-02 -4.942185245454311371e-03
-2.406805939972400665e-02 -2.171085961163043976e-02 -3.379566362127661705e-03
2.044023200869560242e-02 -1.462481729686260223e-02 2.019972726702690125e-02
5.912226624786853790e-03 1.625447720289230347e-02 6.090797833167016506e-04
-2.977663837373256683e-02 -8.651019074022769928e-03 -1.744863577187061310e-02
-6.757441163063049316e-02 -4.534339159727096558e-02 1.176822558045387268e-02
-3.659694269299507141e-02 -3.567210584878921509e-02 4.203884862363338470e-03
-1.264487579464912415e-02 4.311532713472843170e-03 -7.019448559731245041e-03
2.474081516265869141e-02 2.236516028642654419e-02 3.056366555392742157e-02
1.443562004715204239e-02 -1.543579250574111938e-02 -2.519791945815086365e-02
-2.521214820444583893e-02 2.646856475621461868e-03 -2.387157268822193146e-02
-6.834092736244201660e-02 8.627751842141151428e-03 2.069221250712871552e-02
-2.017950639128684998e-02 -6.186021026223897934e-03 -2.136871218681335449e-02
4.506310075521469116e-02 2.559576369822025299e-02 -1.252304948866367340e-02
2.314649894833564758e-02 -9.239799343049526215e-03 1.966217905282974243e-02
7.735852152109146118e-02 -1.036639790982007980e-02 -1.239229273051023483e-02
-2.323050610721111298e-02 -3.518949076533317566e-02 2.499099064152687788e-04
-4.874907433986663818e-03 -1.391619443893432617e-02 -6.487147416919469833e-03
-2.390516689047217369e-03 3.005366213619709015e-02 -1.737005822360515594e-02
2.768018655478954315e-02 -4.899621126241981983e-04 1.193842850625514984e-02
-8.393345400691032410e-03 -1.310992799699306488e-02 1.829143241047859192e-02
-3.383980691432952881e-02 -3.845893219113349915e-02 2.847946062684059143e-02
4.495507106184959412e-03 1.638870127499103546e-02 3.424051450565457344e-03
-6.624058820307254791e-03 2.663384377956390381e-02 -6.038749706931412220e-04
5.491532385349273682e-02 -1.691745966672897339e-02 2.003284543752670288e-02
-4.064565896987915039e-02 -2.107452042400836945e-02 2.383359521627426147e-02
3.070682287216186523e-02 -9.056392009370028973e-04 -1.804376486688852310e-03
2.121132239699363708e-02 -2.804950810968875885e-02 -3.881549928337335587e-03
-5.636165663599967957e-02 5.004488397389650345e-03 -4.011647775769233704e-02
-2.540363231673836708e-03 -3.662661183625459671e-03 -2.178124710917472839e-02
-2.669519186019897461e-02 3.547823289409279823e-03 2.630313858389854431e-03
2.595164068043231964e-02 -2.710812538862228394e-02 -1.187772024422883987e-02
3.030659165233373642e-03 3.994349762797355652e-02 1.446358412504196167e-01
-3.286357969045639038e-02 3.644206374883651733e-02 -4.982953891158103943e-02
9.314584545791149139e-03 -4.892901983112096786e-03 -5.289030075073242188e-02
-3.340432187542319298e-03 9.345911443233489990e-03 6.950307637453079224e-02
-3.483309969305992126e-02 -5.167810618877410889e-02 -1.126022711396217346e-01
-1.958758104592561722e-03 -6.967034190893173218e-03 -1.091232150793075562e-01
-2.301983349025249481e-02 -1.127107534557580948e-02 -5.105884373188018799e-02
-2.573482878506183624e-02 -2.849595993757247925e-02 -2.818458247929811478e-03
3.490737453103065491e-02 -2.373800240457057953e-02 6.848491728305816650e-03
2.471369132399559021e-02 -2.200898900628089905e-02 3.035171329975128174e-02
9.283522143959999084e-03 -6.611547898501157761e-03 6.852787733078002930e-02
-2.889415249228477478e-02 3.336136043071746826e-02 -1.426130831241607666e-01
4.887808859348297119e-02 2.530146948993206024e-02 3.990306705236434937e-02
-3.990896046161651611e-02 -2.367767319083213806e-02 7.068434357643127441e-02
1.781938225030899048e-02 4.710173234343528748e-03 -7.167421281337738037e-02
4.841992631554603577e-02 -5.646681413054466248e-03 -2.407111600041389465e-02
-2.518152259290218353e-02 5.546061322093009949e-02 -9.437741339206695557e-02
4.023085813969373703e-03 -2.220554277300834656e-02 -7.107814890332520008e-04
-2.233931981027126312e-02 1.700169406831264496e-02 -1.295042596757411957e-02
2.952138334512710571e-02 -7.542326580733060837e-03 1.766220666468143463e-02
7.434911094605922699e-03 -2.825338579714298248e-02 -2.115674130618572235e-02
5.820441525429487228e-03 4.888967424631118774e-02 -7.353354245424270630e-02
1.350274495780467987e-02 -3.669421747326850891e-02 7.044248282909393311e-03
-2.998116426169872284e-02 -9.210386313498020172e-03 9.590388508513569832e-04
1.635760627686977386e-02 2.154284901916980743e-02 1.026021689176559448e-01
-6.150429835543036461e-04 2.590171620249748230e-02 -1.226063445210456848e-01
-2.817984484136104584e-02 2.806826494634151459e-02 -1.690333522856235504e-02
1.215772423893213272e-02 6.669089663773775101e-03 3.294595517218112946e-03
-3.091895021498203278e-02 -1.832573860883712769e-02 1.086815632879734039e-02
-3.996910527348518372e-03 2.002291148528456688e-03 2.000586688518524170e-02
-3.520097350701689720e-03 -1.024726033210754395e-02 2.816788293421268463e-02
-1.840817392803728580e-03 -3.401519730687141418e-03 -5.751668475568294525e-03
6.929304450750350952e-03 -2.121087349951267242e-02 -6.422822177410125732e-02
5.803009867668151855e-02 1.041092723608016968e-02 -2.701063267886638641e-02
-2.410659752786159515e-02 -2.251208061352372169e-03 3.582658618688583374e-02
7.038398087024688721e-02 -1.022378262132406235e-02 -5.132575333118438721e-02
-1.360182277858257294e-02 8.095007389783859253e-03 2.418982237577438354e-02
-9.193444624543190002e-03 -2.745329774916172028e-02 7.374011725187301636e-02
-2.173070795834064484e-02 -6.092179100960493088e-03 2.323065884411334991e-02
2.941554039716720581e-02 1.048726378940045834e-03 -2.064996398985385895e-02
2.652799524366855621e-02 -2.315238304436206818e-02 -1.491771731525659561e-02
2.282819151878356934e-02 2.238115109503269196e-02 5.744487047195434570e-03
-2.424385212361812592e-02 3.804958611726760864e-02 -1.697981148026883602e-03
3.942710161209106445e-02 2.493371255695819855e-03 5.472938716411590576e-02
-3.151253610849380493e-02 -1.125976210460066795e-03 -1.251635840162634850e-03
-4.473798722028732300e-02 -1.294218283146619797e-02 -6.066944077610969543e-02
-4.218095168471336365e-02 -1.207787636667490005e-02 5.162785574793815613e-02
8.187934011220932007e-02 2.778350375592708588e-02 4.669217392802238464e-02
5.282295867800712585e-02 2.549144066870212555e-02 4.313218221068382263e-02
-2.900809235870838165e-02 -1.851954311132431030e-02 2.885078266263008118e-02
1.039171777665615082e-02 -1.440048310905694962e-02 2.539306320250034332e-02
-3.703862801194190979e-02 1.620221696794033051e-02 -1.304220035672187805e-02
1.923162303864955902e-02 -4.462933167815208435e-03 -1.431870739907026291e-02
3.515745326876640320e-02 -7.874058559536933899e-03 2.381672151386737823e-02
-1.161553338170051575e-02 1.385418418794870377e-02 -2.050363644957542419e-02
-1.471551507711410522e-02 2.621546015143394470e-02 -8.042965782806277275e-04
1.303213927894830704e-02 -1.207917463034391403e-02 -2.795031480491161346e-02
1.034702807664871216e-01 -3.319377452135086060e-02 3.328082337975502014e-02
-1.181069761514663696e-03 -3.678684006445109844e-04 1.857541687786579132e-02
2.574915066361427307e-02 7.347053382545709610e-03 3.099862299859523773e-02
-5.837948620319366455e-02 -1.812463067471981049e-02 4.791184887290000916e-02
-2.906600385904312134e-02 -2.756664901971817017e-02 -2.037671208381652832e-02
7.233301294036209583e-04 -2.732259035110473633e-02 -3.001999482512474060e-02
1.081377081573009491e-02 -7.723657879978418350e-03 -2.360257878899574280e-02
2.070308197289705276e-03 -6.850242149084806442e-03 -4.774555191397666931e-02
-3.213235735893249512e-02 -1.977134123444557190e-02 -3.329591825604438782e-02
1.689530722796916962e-02 2.106089331209659576e-02 6.803233642131090164e-03
-3.494480997323989868e-02 -2.332662977278232574e-02 -5.379580706357955933e-02
7.143235765397548676e-03 -1.145033910870552063e-02 3.282464167568832636e-04
1.095876470208168030e-02 2.399083040654659271e-02 3.381212800741195679e-02
9.342477656900882721e-03 -3.111181966960430145e-02 -2.603840269148349762e-02
-1.346764154732227325e-03 4.916763864457607269e-03 2.432283200323581696e-02
-7.164059206843376160e-03 1.373299118131399155e-02 -1.604901626706123352e-02
-1.303686201572418213e-02 -6.488505750894546509e-03 -7.044488098472356796e-03
-3.387423232197761536e-02 -1.332180295139551163e-02 -3.318869695067405701e-02
-5.965516343712806702e-02 -5.529726040549576283e-04 -3.690491430461406708e-04
4.390806332230567932e-02 -2.583560533821582794e-02 -2.175613306462764740e-03
1.117878942750394344e-03 1.260448805987834930e-02 -3.742186725139617920e-02
1.093525532633066177e-02 2.785157039761543274e-02 -8.647683076560497284e-03
1.247296389192342758e-02 5.929556488990783691e-02 -1.460907328873872757e-02
1.888745278120040894e-02 7.054490596055984497e-02 4.376023262739181519e-02
-7.040936034172773361e-03 -1.835948787629604340e-02 -2.730679325759410858e-02
2.289279364049434662e-02 -6.528852973133325577e-03 1.014535687863826752e-02
1.639636605978012085e-02 1.452171616256237030e-02 -1.864809729158878326e-02
-1.610257104039192200e-02 1.571723842062056065e-03 -6.603635847568511963e-03
-8.831142331473529339e-04 -2.772031165659427643e-02 4.123118240386247635e-03
2.739289775490760803e-02 -4.324371926486492157e-03 1.652112044394016266e-02
2.208531089127063751e-02 8.696953882463276386e-04 -2.473664656281471252e-02
-1.100522000342607498e-02 -1.855292543768882751e-02 -6.077443435788154602e-02
-1.110812872648239136e-01 -2.281378582119941711e-02 -1.226920187473297119e-01
-1.604444906115531921e-02 -2.630765922367572784e-02 -1.098718959838151932e-02
1.741716079413890839e-02 -2.785265073180198669e-02 -1.778403855860233307e-02
3.015389479696750641e-02 -3.180198371410369873e-03 7.392113562673330307e-03
-5.997965577989816666e-03 -1.584097370505332947e-02 1.956635154783725739e-03
-1.958128809928894043e-02 -2.549340575933456421e-02 -1.482652872800827026e-02
1.931471563875675201e-02 -3.039123117923736572e-02 2.266668900847434998e-02
-1.234848611056804657e-02 -2.705093473196029663e-02 2.026809751987457275e-02
3.531039506196975708e-02 5.418535787612199783e-03 -2.620587497949600220e-02
-2.155334874987602234e-02 7.635840680450201035e-03 3.143499046564102173e-02
-8.649578317999839783e-03 7.817946025170385838e-04 -2.790378965437412262e-02
1.903200522065162659e-02 -6.357005797326564789e-03 2.725383825600147247e-02
-3.282972052693367004e-02 -4.181099124252796173e-03 2.326815854758024216e-03
-2.402405627071857452e-02 1.243669074028730392e-03 -2.413357608020305634e-02
1.337057445198297501e-03 2.021644450724124908e-02 -8.551972918212413788e-03
9.943583048880100250e-03 -8.411688031628727913e-04 6.199408788233995438e-03
2.295156195759773254e-02 6.312754470854997635e-03 2.084092423319816589e-02
1.152223162353038788e-02 -1.576830260455608368e-02 1.702348887920379639e-02
2.247070707380771637e-02 -1.508553512394428253e-02 2.169676870107650757e-02
-4.228809848427772522e-03 1.060039736330509186e-02 -3.075408563017845154e-02
-6.836899556219577789e-03 -2.103910036385059357e-02 -7.557305507361888885e-04
-4.094097763299942017e-02 -6.336872465908527374e-03 -1.868635416030883789e-02
4.348850343376398087e-03 1.350938528776168823e-02 -1.229063328355550766e-02
2.662130631506443024e-02 5.221959669142961502e-03 -1.121323835104703903e-02
-1.081207301467657089e-02 -2.703100256621837616e-02 -2.575493790209293365e-02
-2.746721170842647552e-02 1.056855358183383942e-02 -2.887859754264354706e-02
-1.412357762455940247e-02 -4.670391208492219448e-04 -1.518855430185794830e-02
-3.494100179523229599e-03 1.912045665085315704e-02 2.059084549546241760e-02
-3.074645763263106346e-03 2.180745080113410950e-02 -1.403228938579559326e-02
1.397323701530694962e-02 -2.737353928387165070e-02 2.690833527594804764e-03
-2.306422591209411621e-02 3.368537174537777901e-03 -8.609962533228099346e-04
4.584363196045160294e-03 -2.327731065452098846e-02 -2.368435636162757874e-02
3.085977025330066681e-02 -2.636576630175113678e-02 -1.177061256021261215e-02
2.629698254168033600e-02 2.613044902682304382e-02 -8.038994856178760529e-03
2.696418017148971558e-02 -1.322836335748434067e-02 -5.879835691303014755e-03
-2.042457833886146545e-02 2.224612422287464142e-02 2.421961165964603424e-02
2.116848155856132507e-02 2.063583023846149445e-02 -2.319405972957611084e-02
6.455913651734590530e-03 2.000492066144943237e-02 1.768298260867595673e-02
2.653386071324348450e-02 -1.958588603883981705e-03 2.024228870868682861e-02
1.676039025187492371e-02 -1.888469234108924866e-02 -1.638359948992729187e-02
1.923999516293406487e-03 3.727865964174270630e-02 5.374180618673563004e-03
-9.141054004430770874e-03 3.102786466479301453e-02 -1.320501975715160370e-02
3.331473469734191895e-02 9.224225766956806183e-03 -2.289644675329327583e-03
2.059855312108993530e-02 3.422999754548072815e-02 7.580038625746965408e-03
-6.372816395014524460e-03 1.293230056762695312e-02 -8.062676526606082916e-03
-1.107910182327032089e-02 -1.309312321245670319e-02 -2.062930725514888763e-02
-3.120058588683605194e-02 -1.669724844396114349e-02 1.649188250303268433e-02
1.721538975834846497e-02 -3.528285399079322815e-02 2.016925811767578125e-02
-2.801473625004291534e-02 1.646331138908863068e-02 7.691057398915290833e-03
-4.547834396362304688e-02 -2.734447084367275238e-02 3.253330662846565247e-02
2.085928060114383698e-02 2.465290203690528870e-02 -4.997143987566232681e-03
2.684589475393295288e-02 1.292175380513072014e-03 -1.716489717364311218e-02
6.078389473259449005e-03 1.908345334231853485e-02 9.956913068890571594e-03
-2.007824368774890900e-02 -3.106837102677673101e-04 -2.314017899334430695e-02
4.539198428392410278e-02 3.450292628258466721e-03 -1.961904205381870270e-02
6.537834182381629944e-03 -1.028798148036003113e-02 -3.929499164223670959e-02
-1.471837423741817474e-02 1.216320693492889404e-02 4.060025326907634735e-03
2.346569113433361053e-02 -1.972033642232418060e-02 -1.419210433959960938e-02
3.079765883740037680e-04 -2.683134004473686218e-02 6.071739830076694489e-03
2.316979132592678070e-02 -5.313229747116565704e-03 6.041423417627811432e-03
-9.913458488881587982e-03 2.891211211681365967e-02 -1.981112919747829437e-02
-2.715833298861980438e-02 3.294144198298454285e-02 -1.349194068461656570e-02
-9.440689347684383392e-03 1.439309492707252502e-02 -2.882965840399265289e-02
1.450666505843400955e-02 1.457075215876102448e-02 2.687949687242507935e-03
1.932342909276485443e-02 2.616535313427448273e-02 2.019873447716236115e-02
-9.178333915770053864e-03 -2.884823642671108246e-02 3.281401703134179115e-03
8.608613163232803345e-03 -2.460886724293231964e-02 2.699605002999305725e-02
1.700976863503456116e-02 4.855867940932512283e-03 -1.028962805867195129e-02
-3.457186045125126839e-03 -9.486856870353221893e-03 1.890564151108264923e-02
1.433490309864282608e-02 -1.910919137299060822e-02 -2.273938432335853577e-02
6.784130819141864777e-03 -1.936801895499229431e-02 -1.558915479108691216e-03
-2.503018453717231750e-02 6.541388109326362610e-03 -1.465314347296953201e-02
7.161582261323928833e-02 -9.101747535169124603e-03 -2.909523621201515198e-02
-3.888584673404693604e-02 1.676029153168201447e-02 7.702776789665222168e-02
3.893480822443962097e-02 1.966791972517967224e-02 -4.852265864610671997e-02
1.985016977414488792e-03 -3.875597566366195679e-02 4.302404075860977173e-02
-2.596851810812950134e-02 -1.138550415635108948e-02 4.505464062094688416e-02
9.932028129696846008e-03 1.292312983423471451e-02 3.301235660910606384e-02
2.061080373823642731e-02 -1.568559184670448303e-02 1.080840174108743668e-02
-1.568719185888767242e-02 -7.400490809231996536e-03 1.059530582278966904e-02
1.794847659766674042e-02 2.009801566600799561e-02 6.824937183409929276e-03
-8.145073428750038147e-03 1.973979547619819641e-02 -3.487112000584602356e-03
3.883808851242065430e-02 -5.597587674856185913e-03 4.618103057146072388e-02
-3.022186830639839172e-02 -4.748614504933357239e-03 1.089710090309381485e-02
-9.131539613008499146e-03 -1.611088030040264130e-02 -4.897839948534965515e-02
-1.332067791372537613e-02 4.929325543344020844e-03 7.385458052158355713e-02
1.580163650214672089e-02 7.701059803366661072e-03 8.777022361755371094e-03
2.752153016626834869e-02 -1.986728236079216003e-02 7.998719066381454468e-02
9.156500454992055893e-04 2.496549300849437714e-02 -1.922989077866077423e-02
-2.535917982459068298e-02 -1.949550397694110870e-02 -2.797135617583990097e-03
-2.819431014358997345e-02 3.460561484098434448e-02 1.747228438034653664e-03
-8.427058346569538116e-03 3.027932532131671906e-02 -9.860132820904254913e-03
4.260082915425300598e-02 -2.418960630893707275e-02 1.160563714802265167e-02
-1.439073961228132248e-02 2.740212483331561089e-03 3.417751193046569824e-02
8.720340207219123840e-03 -1.275917980819940567e-02 -2.109811827540397644e-02
3.409103676676750183e-02 -1.336649246513843536e-02 -6.585306674242019653e-02
1.412821114063262939e-01 -3.621053695678710938e-02 -5.831995233893394470e-02
1.672291196882724762e-02 -1.931906118988990784e-02 -1.691326871514320374e-02
7.576297037303447723e-03 2.533661946654319763e-02 -2.181196957826614380e-02
-1.261728117242455482e-03 -3.382252529263496399e-02 -1.088361535221338272e-02
-5.572713911533355713e-03 2.257123775780200958e-02 -1.270825229585170746e-02
-5.571111105382442474e-03 5.649566184729337692e-03 -1.501518767327070236e-02
-1.250508427619934082e-02 -7.893275469541549683e-03 -1.305650919675827026e-03
7.758981734514236450e-02 3.559611365199089050e-02 9.253744781017303467e-02
-6.932620704174041748e-02 -1.795400865375995636e-02 -3.509048745036125183e-02
3.042291291058063507e-02 2.240020409226417542e-02 1.678719068877398968e-03
3.102405928075313568e-02 -1.918815076351165771e-02 1.307632960379123688e-02
-5.229820683598518372e-02 -3.683286160230636597e-02 -5.258742347359657288e-02
-6.357636302709579468e-02 -2.160269208252429962e-02 -6.290976703166961670e-02
-8.986878395080566406e-02 1.229391898959875107e-02 -6.747871637344360352e-02
1.791289262473583221e-02 2.296763844788074493e-02 -2.727628499269485474e-02
1.891377195715904236e-02 2.103880979120731354e-03 -7.477377075701951981e-03
-1.628935104236006737e-03 -6.690193898975849152e-03 -2.526667900383472443e-02
-5.028454959392547607e-02 1.559883449226617813e-02 5.167483910918235779e-02
-8.867488056421279907e-02 -2.180839143693447113e-02 -9.154473990201950073e-02
1.475731655955314636e-02 9.589323308318853378e-04 4.405669867992401123e-02
2.526302449405193329e-02 -5.702938139438629150e-02 -2.246001549065113068e-02
5.174950882792472839e-02 2.147228829562664032e-02 -3.401337889954447746e-03
8.261376619338989258e-02 -3.380061313509941101e-02 1.761357672512531281e-02
-6.579754408448934555e-03 1.587493903934955597e-02 -1.781151443719863892e-02
1.098430994898080826e-02 -2.640316449105739594e-02 6.725625600665807724e-03
-1.412532106041908264e-02 -5.314128939062356949e-03 -1.265645772218704224e-02
9.314830601215362549e-02 -3.353421390056610107e-02 2.983218804001808167e-02
-2.579014748334884644e-02 2.964971959590911865e-02 2.480253460817039013e-04
-2.422150783240795135e-02 2.755364030599594116e-02 -4.041615873575210571e-02
-3.756791353225708008e-02 -1.350792776793241501e-02 1.835381961427628994e-03
-5.173664540052413940e-03 -2.668928354978561401e-02 1.355616282671689987e-02
3.650839673355221748e-03 -2.754805982112884521e-02 2.042126655578613281e-02
-1.002498567104339600e-01 1.392682176083326340e-02 -9.376794844865798950e-02
2.586437016725540161e-02 4.192244727164506912e-03 1.791294664144515991e-02
2.335869066882878542e-04 -1.740105636417865753e-02 -1.492988597601652145e-02
-3.473398461937904358e-02 -2.082194387912750244e-02 -2.349988091737031937e-03
-2.570325881242752075e-02 -2.192543074488639832e-02 1.934458687901496887e-02
1.519391126930713654e-02 -5.706333555281162262e-03 -1.957690401468425989e-04
-1.047739479690790176e-02 -1.287254970520734787e-02 -2.881076373159885406e-02
1.265460718423128128e-02 -2.007049135863780975e-02 3.463271632790565491e-02
-3.947451710700988770e-02 -1.635261252522468567e-02 -2.747228741645812988e-02
-5.083697033114731312e-04 2.803375571966171265e-02 -9.671417064964771271e-03
3.788873180747032166e-02 -1.115447189658880234e-02 4.456920921802520752e-02
-4.065919294953346252e-02 -3.872970119118690491e-02 -9.942448697984218597e-03
-3.698474913835525513e-02 -2.456260100007057190e-02 -6.077404320240020752e-02
-4.564136266708374023e-02 4.456388764083385468e-03 -1.188155636191368103e-02
-2.434237673878669739e-02 1.861646212637424469e-02 6.330826436169445515e-04
-3.222367260605096817e-03 -1.726421713829040527e-02 2.958612143993377686e-02
1.777069084346294403e-02 -2.040865458548069000e-02 2.340659312903881073e-02
1.577901467680931091e-02 3.518421947956085205e-02 6.586202979087829590e-02
-3.625134471803903580e-03 -2.981893718242645264e-02 -3.347672522068023682e-02
3.476057201623916626e-02 2.228169515728950500e-02 3.039151802659034729e-02
3.935053199529647827e-02 -9.652664884924888611e-03 4.970794171094894409e-02
-1.712195575237274170e-02 2.693031542003154755e-02 -5.330597981810569763e-02
2.477098256349563599e-03 8.710609399713575840e-04 2.677443251013755798e-02
1.729136146605014801e-02 3.163513541221618652e-02 -3.376579657196998596e-02
1.912158168852329254e-02 3.011045977473258972e-02 -9.265822358429431915e-03
5.967590026557445526e-03 -7.505173794925212860e-03 -1.025228016078472137e-02
1.392513280734419823e-03 -2.489186450839042664e-02 2.259489335119724274e-02
1.796863973140716553e-02 1.043855585157871246e-02 -1.189328636974096298e-02
1.666158251464366913e-02 -1.180901192128658295e-02 -3.191912919282913208e-02
4.081394523382186890e-03 1.083196047693490982e-02 -6.169543135911226273e-03
-5.038483534008264542e-03 2.483820170164108276e-02 -2.730252454057335854e-03
2.270279638469219208e-02 -1.639395765960216522e-02 4.797427915036678314e-03
-9.486256167292594910e-03 9.381704963743686676e-03 -2.966517955064773560e-02
2.723973803222179413e-02 7.119695190340280533e-03 3.103679046034812927e-02
1.510015409439802170e-02 1.390795572660863400e-03 -2.472442388534545898e-02
-4.411955550312995911e-02 -2.474996261298656464e-02 2.193314023315906525e-02
7.351323030889034271e-03 -3.480777377262711525e-03 -1.900162547826766968e-02
-7.650098297744989395e-03 -4.196276888251304626e-03 4.928089678287506104e-02
-2.914672717452049255e-02 -1.478962600231170654e-02 2.695708908140659332e-02
2.245385432615876198e-03 -2.332798391580581665e-02 1.734545268118381500e-02
-6.191150471568107605e-02 -3.717209910973906517e-04 -2.651207335293292999e-02
2.284108474850654602e-02 2.390925213694572449e-02 -3.518574312329292297e-02
-1.841903105378150940e-02 1.287557091563940048e-02 -4.046407062560319901e-03
-5.958525463938713074e-02 -4.480023309588432312e-02 -5.522279441356658936e-02
-4.539987444877624512e-02 3.094314783811569214e-02 -3.368136659264564514e-02
-1.386326085776090622e-02 9.749991819262504578e-03 -3.580924496054649353e-02
3.231162577867507935e-02 1.857657358050346375e-02 3.496344434097409248e-03
3.281729668378829956e-02 -1.311821583658456802e-02 1.475251838564872742e-02
-9.481134824454784393e-03 2.578477002680301666e-02 -7.881137542426586151e-03
2.779732691124081612e-03 -3.001205995678901672e-02 1.696609519422054291e-02
-1.173627004027366638e-02 1.806197804398834705e-03 -5.417175218462944031e-02
5.246663466095924377e-02 -1.357301045209169388e-02 7.568087428808212280e-03
1.144608575850725174e-02 -1.113516371697187424e-02 -3.476591780781745911e-02
5.582527443766593933e-02 2.774078026413917542e-02 1.463346090167760849e-02
1.983330771327018738e-02 3.583256853744387627e-03 7.024465128779411316e-03
-4.453415516763925552e-03 2.215647883713245392e-02 1.372442021965980530e-02
-9.625764563679695129e-03 -3.106758557260036469e-02 -1.084054470993578434e-03
1.612373068928718567e-02 -8.326074108481407166e-03 -1.529624033719301224e-02
5.722240358591079712e-02 -2.429120428860187531e-02 3.423507884144783020e-02
9.400553070008754730e-03 -2.699165977537631989e-02 -1.013053581118583679e-02
-1.851189881563186646e-02 1.246734894812107086e-02 -4.672223702073097229e-03
1.419384591281414032e-02 -2.645868435502052307e-02 5.663958145305514336e-04
2.450080588459968567e-02 2.020831219851970673e-02 8.951261639595031738e-03
5.528747104108333588e-03 -6.535262335091829300e-03 4.307149909436702728e-03
-1.214873939752578735e-01 -1.538472622632980347e-02 -1.185866147279739380e-01
-2.703784592449665070e-02 -1.008728984743356705e-02 -1.888875477015972137e-02
-6.626114714890718460e-03 -1.554265711456537247e-02 -2.450062520802021027e-02
-3.437661007046699524e-02 3.398573957383632660e-03 1.205532159656286240e-02
-2.830030629411339760e-03 -1.353035215288400650e-02 3.067935258150100708e-02
-5.684789270162582397e-03 -5.186806432902812958e-03 3.458213061094284058e-02
-1.933620311319828033e-02 2.668704092502593994e-02 3.251657262444496155e-02
-9.541957080364227295e-02 -2.812550775706768036e-02 -9.919235110282897949e-02
-1.694886572659015656e-02 -9.137544780969619751e-02 7.910640537738800049e-02
3.200969845056533813e-02 1.240280573256313801e-03 -7.577754557132720947e-02
-7.415357232093811035e-02 1.874100789427757263e-02 2.411196939647197723e-02
5.004557594656944275e-02 1.784934662282466888e-02 2.647231146693229675e-02
4.260394722223281860e-02 -1.127329468727111816e-02 -3.218057379126548767e-02
6.671033799648284912e-02 -3.857707604765892029e-02 5.215662345290184021e-02
3.049849905073642731e-02 6.581130903214216232e-03 4.408201668411493301e-03
-2.534784562885761261e-02 4.077279567718505859e-02 1.230295654386281967e-02
-1.846482977271080017e-02 2.561144344508647919e-02 9.255536831915378571e-03
1.156647801399230957e-01 3.077762760221958160e-02 2.680386602878570557e-02
-6.884447298943996429e-03 2.059402503073215485e-02 1.122555881738662720e-01
1.017322484403848648e-02 -4.935171082615852356e-02 -2.835881151258945465e-02
-9.973328560590744019e-02 -4.532878845930099487e-02 -3.429198265075683594e-02
1.263812370598316193e-02 -9.015322662889957428e-03 -2.406887710094451904e-02
-1.240216493606567383e-01 2.904981561005115509e-02 3.565983474254608154e-02
-5.178640410304069519e-02 -7.164318114519119263e-02 -1.168389320373535156e-01
7.001067977398633957e-03 -6.038397550582885742e-04 -1.367790275253355503e-03
1.328339520841836929e-02 -2.010472863912582397e-02 -6.100718397647142410e-03
-5.685638636350631714e-02 6.104911118745803833e-02 -6.192969158291816711e-02
-4.367091227322816849e-03 -2.729869075119495392e-02 1.223052944988012314e-02
4.040450602769851685e-02 -7.966408133506774902e-02 -6.138250604271888733e-02
3.923638723790645599e-03 2.537147514522075653e-02 -9.431491605937480927e-03
2.570854313671588898e-02 2.429877407848834991e-02 -1.339052990078926086e-02
-7.866525650024414062e-02 1.766454055905342102e-02 4.299531504511833191e-02
-5.997803434729576111e-02 -3.046984784305095673e-02 2.665320336818695068e-01
2.876479737460613251e-02 8.568956516683101654e-03 2.168980240821838379e-02
3.758143400773406029e-03 -1.315561495721340179e-02 1.762195676565170288e-02
9.886936843395233154e-02 -5.296818912029266357e-03 -7.092004269361495972e-02
-2.321086125448346138e-03 3.168378770351409912e-02 -2.252016775310039520e-02
-1.791065558791160583e-02 -2.840898931026458740e-02 -6.355203688144683838e-02
6.005929317325353622e-03 -1.481703668832778931e-02 -2.130708657205104828e-02
-1.499829522799700499e-04 -2.657806873321533203e-02 -4.451225697994232178e-02
-2.989278873428702354e-03 -3.289429470896720886e-02 2.509988378733396530e-03
-2.605697698891162872e-02 9.625097736716270447e-03 8.069806732237339020e-03
-1.162835955619812012e-02 1.140727661550045013e-02 1.032858248800039291e-02
-9.310029447078704834e-03 -1.075737643986940384e-02 2.261647582054138184e-02
-3.959977999329566956e-03 -5.913787055760622025e-03 7.810807786881923676e-03
1.064984407275915146e-02 -2.655123732984066010e-02 -3.001879714429378510e-02
-2.911739284172654152e-04 8.873070590198040009e-03 6.805667188018560410e-03
-2.937210537493228912e-02 2.050034143030643463e-02 -2.413525246083736420e-02
2.434184774756431580e-02 2.986926585435867310e-02 9.478600695729255676e-03
1.047412492334842682e-02 1.800676994025707245e-02 2.314159274101257324e-02
2.157871611416339874e-02 -2.611153526231646538e-03 -2.582667022943496704e-02
-4.253680631518363953e-02 -2.195751294493675232e-02 -3.630306944251060486e-02
-1.999153755605220795e-02 -9.715320542454719543e-03 -1.144471298903226852e-02
-3.521629050374031067e-02 9.692138992249965668e-03 3.100920654833316803e-02
-1.055109873414039612e-02 1.333656604401767254e-03 8.985329419374465942e-03
3.713727742433547974e-02 -1.420155819505453110e-02 -2.376173064112663269e-02
-2.651699073612689972e-02 1.096616312861442566e-02 -3.004066087305545807e-02
-4.514107014983892441e-03 -2.672292664647102356e-02 -1.406511012464761734e-02
-2.390862256288528442e-02 2.041018940508365631e-02 -1.483281049877405167e-02
-2.256187796592712402e-02 1.354792993515729904e-02 4.041865468025207520e-03
3.968648985028266907e-02 1.773072220385074615e-02 1.547308289445936680e-03
-6.475932896137237549e-03 -1.398443477228283882e-03 -2.376537956297397614e-02
-8.327607065439224243e-03 2.470434643328189850e-02 -1.740110851824283600e-02
-1.456096582114696503e-02 -1.666999049484729767e-02 2.148935571312904358e-02
7.950820773839950562e-02 -2.826017141342163086e-02 2.335223555564880371e-02
-2.928964048624038696e-02 2.024900540709495544e-02 -2.528669126331806183e-02
1.401783712208271027e-02 -1.970455795526504517e-02 1.601528376340866089e-02
-9.828284382820129395e-03 9.772620163857936859e-03 -1.585647836327552795e-02
-2.665592543780803680e-02 1.390954665839672089e-02 -2.226277813315391541e-02
8.567633107304573059e-03 1.703399419784545898e-02 -2.511597797274589539e-02
-1.150716654956340790e-02 -4.392512608319520950e-03 9.115760214626789093e-03
4.522907838691025972e-04 5.557157099246978760e-03 -3.461979329586029053e-03
-5.882110417587682605e-05 -2.750458754599094391e-02 -2.306548878550529480e-02
-2.036747056990861893e-03 -2.114252373576164246e-02 1.885903067886829376e-02
-1.445836969651281834e-03 -3.302063047885894775e-02 1.679104007780551910e-02
4.374225065112113953e-02 -4.661498125642538071e-03 -4.241296555846929550e-04
1.765123009681701660e-02 2.044935710728168488e-02 2.623455366119742393e-03
3.393931314349174500e-02 1.237754430621862411e-02 2.000156231224536896e-02
9.074769914150238037e-03 -1.207135524600744247e-02 -1.966766826808452606e-02
-1.923320628702640533e-02 -7.226924411952495575e-03 -1.910270564258098602e-02
-1.921221241354942322e-02 8.997534401714801788e-03 2.842109836637973785e-02
5.082041025161743164e-03 -3.028014115989208221e-02 -2.926459722220897675e-02
-3.768911585211753845e-03 -6.256449036300182343e-03 2.093086764216423035e-02
-4.954385571181774139e-03 7.643141318112611771e-03 -1.929205283522605896e-02
8.315581828355789185e-03 -3.415665030479431152e-02 -1.281834859400987625e-02
7.273308001458644867e-03 2.145130746066570282e-02 2.742202579975128174e-02
-3.318892791867256165e-02 -2.894919924437999725e-02 4.921361105516552925e-04
6.405357271432876587e-03 2.584545500576496124e-02 -2.729709632694721222e-02
1.957036368548870087e-02 2.667806670069694519e-02 2.846754528582096100e-02
-3.116347268223762512e-02 1.498730108141899109e-02 -2.021375857293605804e-02
6.074554752558469772e-03 -2.815924212336540222e-02 -1.820923574268817902e-02
6.450727581977844238e-03 -2.382495626807212830e-02 -5.309967324137687683e-03
-7.955199107527732849e-03 1.907329820096492767e-02 2.556057088077068329e-02
4.251081496477127075e-02 2.768074348568916321e-02 -6.807965692132711411e-03
-2.452174201607704163e-03 -8.558110333979129791e-03 -1.890532113611698151e-02
-1.848113164305686951e-02 1.115757506340742111e-02 -2.526089362800121307e-02
-5.131480842828750610e-02 -2.196761593222618103e-02 4.025393165647983551e-03
2.184388041496276855e-02 2.255347184836864471e-02 -3.010800108313560486e-02
-1.587468013167381287e-02 2.182318456470966339e-02 -7.087960373610258102e-03
4.406148195266723633e-02 -2.698133466765284538e-03 -1.713908463716506958e-02
-4.794995766133069992e-03 2.080767042934894562e-02 1.993270963430404663e-02
2.233037026599049568e-03 1.250916533172130585e-02 5.621989723294973373e-03
-2.623887546360492706e-02 1.323878951370716095e-02 1.288276072591543198e-02
9.626287966966629028e-02 1.912338286638259888e-02 5.863012745976448059e-02
-6.188075989484786987e-02 7.674879394471645355e-03 -4.233952239155769348e-02
-1.425641472451388836e-03 -1.090346556156873703e-02 -6.708940025418996811e-03
4.281423613429069519e-02 -3.421504423022270203e-02 2.824570238590240479e-02
-8.051630854606628418e-02 -3.669793158769607544e-02 -5.949168652296066284e-02
-8.418176323175430298e-02 7.802877109497785568e-03 -4.209121689200401306e-02
-1.080822944641113281e-01 3.271537646651268005e-02 -2.879399992525577545e-02
2.198627777397632599e-02 3.080765716731548309e-02 -1.235276227816939354e-03
5.899190530180931091e-02 -5.093487724661827087e-02 2.244234317913651466e-03
-1.430768985301256180e-03 3.106350451707839966e-02 -1.741078682243824005e-02
-4.262172803282737732e-02 2.058914862573146820e-02 2.097126469016075134e-02
-8.036974817514419556e-02 1.419738586992025375e-02 -3.101155534386634827e-02
2.445243112742900848e-02 1.506969518959522247e-02 2.989945560693740845e-02
-1.889672596007585526e-03 -8.507146686315536499e-02 -2.705619856715202332e-02
4.190456867218017578e-02 2.694771625101566315e-02 -4.461699351668357849e-02
1.238463222980499268e-01 4.092190414667129517e-02 4.658091440796852112e-02
1.713261939585208893e-02 1.275185588747262955e-02 1.211837306618690491e-02
-2.005809918045997620e-02 -1.511015277355909348e-02 7.469911361113190651e-04
-2.317347936332225800e-02 2.646947279572486877e-02 -2.453767880797386169e-02
1.537930071353912354e-01 -4.500271379947662354e-02 1.620057504624128342e-03
-7.236042059957981110e-03 -5.400029942393302917e-03 -2.753788232803344727e-02
-8.999499678611755371e-02 3.268445655703544617e-02 -2.470370009541511536e-02
1.842829026281833649e-02 -2.732524648308753967e-02 9.920838288962841034e-03
-7.464916445314884186e-03 3.272194042801856995e-02 1.520428154617547989e-02
9.510586969554424286e-03 2.835531020537018776e-03 2.175882831215858459e-02
-1.127381771802902222e-01 -1.894937083125114441e-02 -5.705912411212921143e-02
-2.171659842133522034e-02 1.402518060058355331e-02 -2.696584444493055344e-03
-1.567068626172840595e-03 1.165540050715208054e-02 -2.803377807140350342e-03
-2.806618995964527130e-02 -5.531099159270524979e-03 -2.392102219164371490e-02
-1.590997539460659027e-02 2.305790595710277557e-02 -1.553523703478276730e-03
4.777630325406789780e-03 3.355429694056510925e-02 1.114539895206689835e-02
-2.702846005558967590e-02 2.814408950507640839e-02 3.652813611552119255e-03
-3.384390380233526230e-03 -7.875392213463783264e-03 -4.581256583333015442e-02
5.222067236900329590e-03 6.340374704450368881e-03 -1.128818560391664505e-02
-3.183183446526527405e-02 8.005865849554538727e-03 1.101997960358858109e-02
2.739051729440689087e-02 -1.537714060395956039e-02 -2.376313880085945129e-02
-4.175589606165885925e-02 -6.254684645682573318e-03 1.147486176341772079e-02
-5.817359313368797302e-02 -2.118721045553684235e-02 3.622475266456604004e-02
-1.596538722515106201e-02 -3.539323806762695312e-02 -1.511130575090646744e-02
4.870868287980556488e-03 -2.852833084762096405e-02 2.204379299655556679e-03
1.983265951275825500e-02 1.406980678439140320e-02 2.191134728491306305e-03
-9.270589216612279415e-04 4.512997809797525406e-03 2.039600349962711334e-02
3.180946921929717064e-03 9.921493940055370331e-03 -1.382243447005748749e-02
-2.811573445796966553e-02 -1.716296374797821045e-02 3.328277170658111572e-02
-2.460525557398796082e-02 -1.240675244480371475e-02 -1.340536959469318390e-02
7.966669276356697083e-03 1.749129593372344971e-02 -4.018433019518852234e-02
-5.841154139488935471e-03 -1.231869775801897049e-02 -1.862620562314987183e-02
6.387128680944442749e-02 4.052227362990379333e-02 3.208068013191223145e-02
-3.474546596407890320e-02 1.515119802206754684e-02 1.039747893810272217e-02
-8.332036435604095459e-03 -1.843709312379360199e-02 -6.706222891807556152e-03
-6.308142561465501785e-03 -7.175187114626169205e-03 2.699559554457664490e-02
4.230079427361488342e-02 3.363864868879318237e-02 -3.351308777928352356e-02
2.013290300965309143e-02 1.801985315978527069e-02 2.833727560937404633e-02
-3.214529901742935181e-02 -1.462324056774377823e-02 1.626455970108509064e-02
-1.445415802299976349e-02 -2.661920385435223579e-03 -1.828889362514019012e-02
-3.489659167826175690e-03 7.823216728866100311e-03 1.001713913865387440e-03
2.950956858694553375e-02 -1.417747233062982559e-02 4.461619537323713303e-03
-4.816553369164466858e-02 -8.075631223618984222e-03 5.808153375983238220e-02
-1.828910782933235168e-02 2.126679569482803345e-02 -1.933616213500499725e-02
-7.926656864583492279e-03 1.157445274293422699e-02 -1.909930631518363953e-02
-2.720908634364604950e-02 -3.706023469567298889e-02 4.587879811879247427e-04
1.327743637375533581e-03 2.049753256142139435e-02 1.550084538757801056e-02
5.491803400218486786e-03 2.402096986770629883e-02 -3.035033121705055237e-02
2.869293093681335449e-03 2.078477106988430023e-02 -1.966702193021774292e-02
3.992267325520515442e-02 -1.614030078053474426e-02 6.349446624517440796e-02
2.919580973684787750e-02 2.944458648562431335e-02 -1.759470440447330475e-02
-2.174405567348003387e-02 2.927031740546226501e-02 -1.544276904314756393e-02
2.528531942516565323e-03 -5.010953173041343689e-02 1.484236493706703186e-02
8.144243620336055756e-03 -8.474915288388729095e-03 8.249222300946712494e-03
-2.671091817319393158e-02 4.136395826935768127e-02 -6.284340750426054001e-03
-2.259405888617038727e-02 2.777528204023838043e-02 -1.973307691514492035e-02
-1.853621378540992737e-02 2.695358730852603912e-02 -1.143761444836854935e-02
1.889303699135780334e-02 -5.437313765287399292e-02 1.300187408924102783e-02
-2.528933063149452209e-02 -1.505141239613294601e-02 1.015933137387037277e-02
-4.638979956507682800e-02 -1.430125813931226730e-02 -1.214083097875118256e-02
2.387852407991886139e-02 2.716351486742496490e-02 2.711711567826569080e-04
-3.292425535619258881e-03 6.537725683301687241e-03 2.512719854712486267e-02
3.295046836137771606e-02 -1.497242879122495651e-02 2.704427391290664673e-02
-2.780980989336967468e-02 2.153008617460727692e-02 -2.276853844523429871e-02
3.595775738358497620e-02 -1.717488281428813934e-02 -1.320406794548034668e-02
4.016788676381111145e-02 1.486684940755367279e-02 -5.148961022496223450e-02
4.303428810089826584e-03 2.951658517122268677e-02 -2.374003455042839050e-02
9.869011119008064270e-04 -2.223318815231323242e-02 -1.251832116395235062e-02
3.669572621583938599e-02 -2.573061548173427582e-02 -3.007065877318382263e-02
-8.482464589178562164e-03 1.728842034935951233e-02 -2.074799127876758575e-02
2.463249024003744125e-03 3.613526001572608948e-02 -3.400557860732078552e-02
-2.678512409329414368e-02 3.661581128835678101e-02 2.528852224349975586e-02
-9.738340042531490326e-03 -2.341039478778839111e-02 5.241625942289829254e-03
-2.180089429020881653e-02 -2.672208100557327271e-02 5.209476500749588013e-02
2.595073170959949493e-02 6.630855798721313477e-02 2.704437077045440674e-02
9.597140364348888397e-03 2.454884722828865051e-02 1.833005063235759735e-02
-6.048992741852998734e-03 -1.926342397928237915e-02 -2.672296762466430664e-02
-2.377001196146011353e-02 -9.632714092731475830e-03 -1.838136091828346252e-02
2.579671330749988556e-03 1.379677746444940567e-02 -1.929651387035846710e-02
2.307743579149246216e-02 -4.744882753584533930e-04 3.215983742848038673e-03
-8.200194686651229858e-03 7.997192442417144775e-03 -5.144975613802671432e-03
-8.482171222567558289e-03 -2.292762696743011475e-02 -1.242106631398200989e-01
1.227790862321853638e-01 -3.779703378677368164e-02 -4.141910374164581299e-02
-4.096088558435440063e-02 9.569328278303146362e-03 1.429838389158248901e-01
8.658942580223083496e-02 2.890340285375714302e-03 -6.020380556583404541e-02
-2.125031873583793640e-02 3.204799816012382507e-02 5.547575652599334717e-02
-7.219727337360382080e-02 -1.656937412917613983e-03 1.129037812352180481e-01
-2.548118680715560913e-02 -2.353045903146266937e-02 4.778995737433433533e-02
3.271589754149317741e-03 8.747622370719909668e-03 -1.236117538064718246e-02
-2.185236196964979172e-03 -3.129172697663307190e-02 -7.046193629503250122e-02
-7.798710837960243225e-03 -1.925961300730705261e-02 3.132594376802444458e-02
-2.772493846714496613e-02 3.399029001593589783e-02 -7.199740409851074219e-02
6.237662583589553833e-02 -1.171242911368608475e-02 6.258444860577583313e-03
-4.885772243142127991e-02 -3.820097446441650391e-02 1.085228007286787033e-02
1.583847100846469402e-03 -2.948362566530704498e-02 -8.535983413457870483e-02
-1.017123237252235413e-01 -1.828971132636070251e-02 1.046892777085304260e-01
7.357634603977203369e-02 1.102454867213964462e-02 4.377078264951705933e-02
3.523161169141530991e-03 -5.059215053915977478e-02 1.535460948944091797e-01
2.581886574625968933e-02 1.410383637994527817e-02 -1.951222121715545654e-02
4.364411812275648117e-03 -2.619726769626140594e-02 8.273968473076820374e-03
-8.414075523614883423e-02 2.091374620795249939e-02 4.671140760183334351e-02
-2.871529757976531982e-02 -2.304815873503684998e-02 1.840683259069919586e-02
4.248073324561119080e-02 -5.492964759469032288e-02 3.393843770027160645e-02
-4.132563993334770203e-02 -7.321829441934823990e-03 -2.343012019991874695e-03
-1.209915149956941605e-02 1.473971363157033920e-02 1.351574785076081753e-03
4.552473127841949463e-02 2.602506894618272781e-03 -1.059681251645088196e-01
2.110983133316040039e-01 -3.891304880380630493e-02 -7.754225283861160278e-02
2.438565529882907867e-02 -1.740704663097858429e-02 -2.344341389834880829e-02
-9.375117719173431396e-03 -2.996737509965896606e-02 -3.970497753471136093e-03
-3.275109827518463135e-02 -1.566352508962154388e-02 4.192082956433296204e-02
-2.077224664390087128e-02 1.049139257520437241e-02 9.717736393213272095e-04
-3.635844215750694275e-02 5.270626395940780640e-03 1.555563975125551224e-02
1.490771397948265076e-02 3.555023297667503357e-02 -1.585328020155429840e-02
-7.910066097974777222e-02 3.079284448176622391e-03 -1.052896380424499512e-01
1.902794279158115387e-02 -4.266715794801712036e-02 5.145102366805076599e-02
-1.970372162759304047e-03 -2.546168491244316101e-02 1.395178679376840591e-02
4.885284602642059326e-02 2.721295878291130066e-02 5.267437547445297241e-02
-3.395028412342071533e-03 -6.520574539899826050e-02 -3.713804064318537712e-03
8.655167184770107269e-03 -7.081138342618942261e-02 2.801279164850711823e-02
2.687922678887844086e-03 -9.690077975392341614e-03 1.819845102727413177e-02
1.682734861969947815e-02 -5.579445976763963699e-03 -2.036733925342559814e-02
-1.924384944140911102e-02 2.475548535585403442e-02 -1.309186313301324844e-02
8.174848044291138649e-04 2.937771752476692200e-02 2.651699818670749664e-02
5.146753042936325073e-02 5.241677910089492798e-02 3.028730489313602448e-02
1.429504342377185822e-02 -4.873092845082283020e-02 8.592708408832550049e-02
-3.393811360001564026e-02 -3.924966603517532349e-02 -6.491437554359436035e-02
-9.276393800973892212e-02 -7.650898396968841553e-02 -7.316270470619201660e-02
-6.238308921456336975e-02 -2.012629248201847076e-02 3.071529604494571686e-02
1.876797527074813843e-02 4.854957014322280884e-02 9.468445926904678345e-02
1.353753916919231415e-02 -5.177855491638183594e-02 3.451286628842353821e-02
-1.535763591527938843e-02 -3.198252245783805847e-02 -3.166077658534049988e-02
-1.290043909102678299e-02 6.028947420418262482e-03 6.815939210355281830e-03
-7.546840608119964600e-02 -4.595805890858173370e-03 -7.428023964166641235e-02
2.287967316806316376e-02 -1.501654554158449173e-02 1.305964961647987366e-02
2.138871513307094574e-02 -2.722515165805816650e-02 1.560303568840026855e-02
-4.639442265033721924e-02 -2.872493350878357887e-03 -5.102602019906044006e-02
-4.516506742220371962e-04 4.852572456002235413e-03 -2.471926622092723846e-02
2.008018642663955688e-02 -1.643095538020133972e-02 -8.697927929461002350e-03
7.887780666351318359e-02 -1.431360561400651932e-02 1.270312070846557617e-01
2.700173528864979744e-03 -2.684666402637958527e-02 -1.670372672379016876e-02
2.775157056748867035e-02 -1.591484621167182922e-02 2.487793751060962677e-02
-1.523843128234148026e-02 -2.355942875146865845e-02 -3.792730346322059631e-02
-7.366744684986770153e-04 3.211196511983871460e-02 7.771688047796487808e-03
-3.711828589439392090e-02 -4.463969543576240540e-02 -4.040518030524253845e-02
9.429856436327099800e-04 -1.572999358177185059e-02 2.570320293307304382e-02
2.650487422943115234e-02 -3.677606955170631409e-02 -1.157797724008560181e-01
-4.168744012713432312e-02 -6.014720723032951355e-02 2.106449007987976074e-02
-3.793590143322944641e-02 -7.189191132783889771e-02 7.525859773159027100e-02
5.696154758334159851e-02 2.196093834936618805e-02 -3.411658480763435364e-02
-8.563734591007232666e-02 -5.983553454279899597e-02 -2.535246126353740692e-02
-9.962831437587738037e-02 -6.279548257589340210e-02 6.827229261398315430e-02
-1.122029274702072144e-01 -2.234911173582077026e-02 7.366577535867691040e-02
-1.872994378209114075e-02 3.056660108268260956e-02 -1.072502229362726212e-02
2.163928188383579254e-02 2.702861092984676361e-02 -1.394363585859537125e-02
1.778472797013819218e-03 8.002460934221744537e-03 2.630665898323059082e-02
3.306005895137786865e-02 3.327157720923423767e-02 -1.784484460949897766e-02
-6.410514563322067261e-02 -1.557319983839988708e-02 1.277929246425628662e-01
-4.259995743632316589e-02 -7.134184241294860840e-03 -3.950644657015800476e-02
1.297083683311939240e-02 -8.094495534896850586e-02 -1.188208460807800293e-01
3.121807426214218140e-02 -5.752582848072052002e-02 4.238498955965042114e-02
8.708966523408889771e-02 6.549320369958877563e-02 7.098586857318878174e-02
-5.395009741187095642e-02 -3.861275315284729004e-02 1.264849603176116943e-01
7.303091697394847870e-04 -2.206986397504806519e-02 -1.951016671955585480e-02
5.125170573592185974e-03 -2.470195293426513672e-02 -2.359401807188987732e-02
1.162169352173805237e-01 9.494917467236518860e-04 -3.904823586344718933e-02
5.450028111226856709e-04 -8.481916971504688263e-03 2.619617991149425507e-02
-1.309619247913360596e-01 -3.864006698131561279e-02 9.264300763607025146e-02
-5.433722864836454391e-03 -2.070557512342929840e-02 -2.460987493395805359e-02
1.945493556559085846e-02 -3.668482881039381027e-03 2.483391016721725464e-02
4.291014000773429871e-02 2.791253849864006042e-02 -2.569342963397502899e-02
-1.253070533275604248e-01 -3.803259134292602539e-02 1.355184465646743774e-01
6.079012062400579453e-03 -1.194918621331453323e-02 -4.318271763622760773e-03
-1.329072378575801849e-02 1.825211755931377411e-02 5.930567160248756409e-03
-5.608652159571647644e-02 -2.031020633876323700e-02 -7.253111898899078369e-02
-6.125121377408504486e-03 5.642430856823921204e-03 -8.830894716084003448e-03
2.155124954879283905e-02 -1.242761872708797455e-02 -3.510766848921775818e-02
-2.400572970509529114e-02 -2.668108977377414703e-02 3.090905584394931793e-02
-2.983898296952247620e-02 -2.299456670880317688e-02 3.026029281318187714e-02
-2.524481713771820068e-02 2.978015691041946411e-02 -2.814709581434726715e-02
1.243637967854738235e-02 -3.163186833262443542e-02 -7.262418046593666077e-03
-1.385468058288097382e-03 5.918498616665601730e-03 2.090106904506683350e-02
-2.584892325103282928e-02 3.384570823982357979e-03 -5.165644921362400055e-03
4.601624328643083572e-03 -1.614837534725666046e-02 -2.423312142491340637e-02
-3.730307333171367645e-03 3.397370222955942154e-03 -2.624262310564517975e-02
1.312408130615949631e-02 -1.541848573833703995e-02 3.107605152763426304e-05
9.363812278024852276e-04 -1.836465485394001007e-02 2.014034800231456757e-02
6.018595304340124130e-03 -2.426017262041568756e-02 1.468198373913764954e-02
-2.942142076790332794e-03 -1.801881380379199982e-02 1.723642461001873016e-02
1.620448660105466843e-03 2.078041434288024902e-02 -9.237931109964847565e-03
-3.100580535829067230e-02 -7.325663231313228607e-03 3.272713348269462585e-02
-3.248310461640357971e-02 -2.640375867486000061e-02 -2.856790646910667419e-02
1.476095337420701981e-02 -5.904598627239465714e-03 5.927749909460544586e-03
-2.753498777747154236e-02 -1.226568408310413361e-02 -9.332605637609958649e-03
2.122316882014274597e-02 1.930308714509010315e-02 3.839953988790512085e-02
1.787491329014301300e-02 -1.586914807558059692e-02 -1.034170109778642654e-02
-2.704175189137458801e-02 2.242811955511569977e-02 -1.823406107723712921e-02
-3.397052641957998276e-03 -2.328970842063426971e-02 1.790662482380867004e-02
3.075512684881687164e-02 1.946036890149116516e-02 -2.966569736599922180e-02
-3.939546272158622742e-02 1.975771412253379822e-02 2.899729087948799133e-02
-1.351225376129150391e-02 3.665510565042495728e-03 3.354878164827823639e-03
2.431245520710945129e-02 1.066587492823600769e-02 -1.872798055410385132e-02
2.046598680317401886e-02 -1.395980548113584518e-02 3.012413531541824341e-02
-7.006521336734294891e-03 -2.451276965439319611e-02 -4.036884382367134094e-02
1.628694310784339905e-02 3.843666752800345421e-03 -4.750099498778581619e-03
-7.234282325953245163e-03 2.586595900356769562e-02 6.570839788764715195e-03
-3.797950688749551773e-03 1.954520307481288910e-02 9.905119426548480988e-03
7.999211549758911133e-03 -1.124735083431005478e-02 2.280042693018913269e-02
-2.662554010748863220e-02 1.288074441254138947e-02 2.247087284922599792e-02
2.521269768476486206e-02 -1.071885880082845688e-02 1.159505173563957214e-02
2.184341102838516235e-02 -1.289086416363716125e-02 8.103767782449722290e-02
2.636611461639404297e-02 5.083107203245162964e-02 7.283905870281159878e-04
-5.141273140907287598e-04 2.902513742446899414e-02 -8.476974815130233765e-02
7.032712548971176147e-02 6.765250116586685181e-03 2.042846940457820892e-02
-3.818103671073913574e-02 3.096774406731128693e-02 -6.639416515827178955e-02
-2.999745123088359833e-02 -6.481633521616458893e-03 -7.464305311441421509e-02
-2.644296921789646149e-02 3.049915656447410583e-02 -4.595350474119186401e-02
2.020128443837165833e-02 2.008240297436714172e-02 1.617430150508880615e-02
3.574424609541893005e-02 -2.466633543372154236e-02 3.932337835431098938e-02
-2.760277315974235535e-02 -3.154698992148041725e-03 2.206317335367202759e-02
-5.130454897880554199e-03 -6.676647812128067017e-03 4.824706539511680603e-02
-4.140886664390563965e-02 2.530898898839950562e-03 -1.024598702788352966e-01
7.213808596134185791e-02 7.562215626239776611e-02 5.213960260152816772e-02
4.445751011371612549e-02 -1.296394970268011093e-02 1.205421909689903259e-01
1.955748535692691803e-02 5.033273994922637939e-02 -4.767474159598350525e-02
8.448994904756546021e-02 2.871074341237545013e-02 8.858514949679374695e-03
3.844369202852249146e-02 6.910514086484909058e-02 -1.087191998958587646e-01
-6.794659886509180069e-03 1.404866669327020645e-02 2.399786608293652534e-03
1.182829588651657104e-02 -2.409393154084682465e-02 -3.703253576532006264e-03
4.700776934623718262e-02 -3.571498394012451172e-02 2.936935238540172577e-02
-2.258998900651931763e-02 3.058079630136489868e-02 7.602783734910190105e-04
-3.020532242953777313e-02 4.241967946290969849e-02 -3.436066955327987671e-02
1.475652493536472321e-02 -1.478668116033077240e-02 3.514260286465287209e-03
-1.889149658381938934e-02 9.282438084483146667e-03 8.269555866718292236e-03
1.160951144993305206e-02 -1.942965388298034668e-02 8.370739221572875977e-02
-4.215575288981199265e-03 2.270062826573848724e-02 -2.201478555798530579e-02
-1.675381325185298920e-02 2.077520079910755157e-02 -2.841416373848915100e-02
1.316280197352170944e-02 -2.840761467814445496e-02 -6.552909035235643387e-03
-4.806239530444145203e-02 -1.079197600483894348e-02 -3.319068625569343567e-02
-2.374513447284698486e-02 9.729205630719661713e-03 -1.974425651133060455e-02
1.413856633007526398e-02 1.894304901361465454e-02 7.397823780775070190e-02
3.849912434816360474e-02 2.909751795232295990e-02 -1.568343862891197205e-02
-1.008691713213920593e-01 -5.442080646753311157e-02 -1.277672946453094482e-01
7.351572066545486450e-02 -7.318617403507232666e-02 7.519686967134475708e-02
-6.966976076364517212e-02 -7.320098578929901123e-02 4.203994572162628174e-02
3.899670392274856567e-02 7.248997688293457031e-02 1.136673707515001297e-02
-4.243376851081848145e-02 -9.731911122798919678e-02 -4.437115509063005447e-03
-4.188518226146697998e-02 -8.024959266185760498e-02 -2.976017817854881287e-02
-9.797265520319342613e-04 -9.707513451576232910e-02 4.190053418278694153e-02
-1.341182552278041840e-02 8.606079965829849243e-03 8.185647428035736084e-03
-6.116168200969696045e-02 -2.145176008343696594e-02 -1.239794120192527771e-02
2.012173831462860107e-02 2.031845040619373322e-03 3.721004724502563477e-02
1.464768648147583008e-01 6.279527395963668823e-02 2.675361745059490204e-02
4.656928405165672302e-02 -3.452669829130172729e-02 1.397255808115005493e-01
-1.029128283262252808e-01 -1.436621248722076416e-01 -1.264273524284362793e-01
-1.289902031421661377e-01 -1.135462149977684021e-01 -1.420931518077850342e-01
-1.393908858299255371e-01 -8.884745091199874878e-02 6.310576200485229492e-02
3.065793029963970184e-02 6.762205809354782104e-02 1.132685467600822449e-01
-1.652206992730498314e-03 -8.498912304639816284e-02 3.767646849155426025e-02
-1.856766641139984131e-02 4.709007625933736563e-04 3.247635206207633018e-03
-2.722663432359695435e-02 7.606794824823737144e-04 1.819265447556972504e-02
-1.507697999477386475e-01 3.077546879649162292e-02 -7.627445459365844727e-02
-2.733474783599376678e-02 -2.023581042885780334e-02 -3.540214151144027710e-02
6.562761217355728149e-02 -7.669560611248016357e-02 -1.089398842304944992e-02
-5.103666707873344421e-02 1.276743947528302670e-03 -2.620679885149002075e-02
9.003667160868644714e-03 1.493502035737037659e-02 3.414732217788696289e-02
9.927053004503250122e-03 3.268148750066757202e-02 -4.931890219449996948e-02
1.748065054416656494e-01 -6.439056992530822754e-02 1.783465296030044556e-01
-8.285651914775371552e-03 3.505374118685722351e-02 1.960475184023380280e-02
3.217879682779312134e-02 -1.803559018298983574e-03 1.626450754702091217e-02
1.708616502583026886e-02 -5.076436325907707214e-02 -6.230983138084411621e-02
3.242770209908485413e-02 2.072905376553535461e-02 1.284237485378980637e-02
-3.194552287459373474e-02 -5.142379179596900940e-02 -6.174224987626075745e-02
3.368449164554476738e-03 -5.178370513021945953e-03 1.890833675861358643e-02
-4.199558123946189880e-02 -3.029564954340457916e-02 -3.845165297389030457e-02
-3.062713518738746643e-02 -5.298543721437454224e-03 4.370331764221191406e-03
3.694527968764305115e-02 7.520749699324369431e-03 -5.626848712563514709e-02
-5.217794328927993774e-02 -9.199659340083599091e-03 5.591539666056632996e-02
3.254823153838515282e-03 1.488194707781076431e-02 -2.463415451347827911e-02
2.550475671887397766e-02 -6.821456365287303925e-03 -4.110183566808700562e-02
3.887217119336128235e-02 1.884216442704200745e-02 4.087850823998451233e-02
1.328668557107448578e-02 -2.864930778741836548e-02 -2.438627742230892181e-02
-3.603526577353477478e-02 1.205782173201441765e-03 5.813957750797271729e-02
3.164080157876014709e-02 2.953851222991943359e-02 -2.591879852116107941e-02
5.332869291305541992e-02 -9.886905318126082420e-04 6.563921459019184113e-03
1.729819551110267639e-02 -2.352294139564037323e-02 4.870581999421119690e-02
-9.033613023348152637e-04 2.512390911579132080e-02 -5.256451666355133057e-02
-2.313733287155628204e-02 -1.939629577100276947e-02 -3.087296150624752045e-02
2.209467068314552307e-02 -2.004195237532258034e-03 -1.657953835092484951e-04
-6.231863051652908325e-02 -3.724750876426696777e-02 -5.438355728983879089e-03
-1.437482540495693684e-03 -6.161547452211380005e-02 -1.159118190407752991e-01
7.088542915880680084e-03 1.382386218756437302e-02 -1.937371864914894104e-02
8.075550198554992676e-03 -2.723517082631587982e-02 -2.233391441404819489e-02
5.565265193581581116e-03 2.345482818782329559e-02 -4.614110663533210754e-02
-2.317653410136699677e-02 -4.220348317176103592e-03 -2.261811634525656700e-03
2.365281246602535248e-02 -1.434575673192739487e-02 -8.063108474016189575e-02
2.674204297363758087e-02 -6.612632889300584793e-03 6.395731586962938309e-03
-2.850913628935813904e-02 3.074208088219165802e-02 -2.070049569010734558e-02
-5.293630436062812805e-02 2.715752087533473969e-02 1.619451865553855896e-02
-1.798848062753677368e-02 -4.232812672853469849e-02 1.662948578596115112e-01
1.811974495649337769e-02 -2.202579192817211151e-02 -2.652552537620067596e-02
1.568927988409996033e-02 1.722792908549308777e-02 3.664047690108418465e-03
6.594464927911758423e-02 1.409544423222541809e-02 -2.154634706676006317e-02
-2.299894206225872040e-02 1.375857461243867874e-02 1.697647571563720703e-02
3.032873151823878288e-03 1.308112125843763351e-02 -2.904556877911090851e-02
-2.383634448051452637e-02 3.312732651829719543e-02 3.208326548337936401e-02
-8.666713535785675049e-02 -4.712341725826263428e-02 -6.126098334789276123e-02
1.231663897633552551e-01 -1.537788752466440201e-02 3.125948086380958557e-02
-2.052394486963748932e-02 -1.926286891102790833e-02 1.076685078442096710e-02
-4.161394760012626648e-02 -1.749550690874457359e-03 -1.710731908679008484e-02
6.540028750896453857e-02 -1.293385308235883713e-02 3.760259225964546204e-02
3.036393225193023682e-02 -3.495198115706443787e-02 3.671089187264442444e-02
8.394785970449447632e-02 1.332918298430740833e-03 4.297118261456489563e-02
1.079995417967438698e-03 2.123343199491500854e-02 3.353471681475639343e-02
-2.654629759490489960e-02 -2.310492657124996185e-02 -2.496123127639293671e-02
-3.987999167293310165e-03 1.331711653620004654e-02 3.658886998891830444e-02
9.871565550565719604e-02 4.413688182830810547e-02 -2.970341965556144714e-02
7.493977993726730347e-02 -2.464919537305831909e-02 7.593489438295364380e-02
-4.491664841771125793e-02 -6.108438596129417419e-02 -4.519107192754745483e-02
-1.277646720409393311e-01 -8.958217687904834747e-03 -5.122966691851615906e-02
-5.286918580532073975e-02 8.475631475448608398e-03 4.493805766105651855e-02
-4.987675324082374573e-02 4.625819995999336243e-02 6.926620006561279297e-02
-3.282180801033973694e-02 -4.112289845943450928e-02 -2.033199556171894073e-02
2.029419131577014923e-02 1.040468178689479828e-02 -1.979138143360614777e-02
-1.442530751228332520e-02 -1.004046387970447540e-02 2.500355616211891174e-02
-1.604002863168716431e-01 7.191554456949234009e-02 -2.512084878981113434e-02
-1.276938337832689285e-02 -2.564189396798610687e-02 1.317418087273836136e-02
1.183193475008010864e-01 -3.597779944539070129e-02 -3.601111471652984619e-02
-4.418491199612617493e-02 -2.107279608026146889e-03 -2.051588147878646851e-02
1.033405400812625885e-02 1.458167191594839096e-02 -1.680148206651210785e-02
-5.782653577625751495e-03 9.400168433785438538e-03 -5.134329944849014282e-02
2.083582729101181030e-01 -2.233714610338211060e-02 4.994765669107437134e-02
-1.710447110235691071e-02 -5.356169422157108784e-04 1.798480190336704254e-02
-5.444146692752838135e-03 -2.700182050466537476e-02 -1.363170798867940903e-02
4.331886023283004761e-02 -2.678555995225906372e-02 4.951003007590770721e-03
-1.031503919512033463e-02 2.611157856881618500e-02 3.411857411265373230e-02
-2.244560979306697845e-02 -8.314988575875759125e-03 1.071358658373355865e-02
-1.076908223330974579e-02 7.332208566367626190e-03 6.767724175006151199e-03
1.230731513351202011e-02 2.762798592448234558e-02 -7.257842272520065308e-02
-1.048909965902566910e-02 7.472673431038856506e-03 4.143733531236648560e-02
-2.914645150303840637e-02 4.010236822068691254e-03 4.516180977225303650e-02
3.684239462018013000e-02 4.071271419525146484e-02 -3.692981228232383728e-02
-4.514178633689880371e-02 2.418239833787083626e-03 6.709323078393936157e-02
-6.026075035333633423e-02 -2.735996246337890625e-02 4.335087910294532776e-02
-1.770199276506900787e-02 -3.610765188932418823e-02 4.655518755316734314e-02
2.785384096205234528e-02 -2.535956539213657379e-02 1.942002773284912109e-02
1.810444751754403114e-03 -2.705425024032592773e-02 -5.056753009557723999e-02
2.531761303544044495e-02 -2.758239209651947021e-02 2.490667812526226044e-02
3.144766762852668762e-02 1.232479326426982880e-02 -3.389111161231994629e-02
-1.654371619224548340e-02 -9.511774405837059021e-03 4.474380984902381897e-02
-1.270658057183027267e-02 -2.317563816905021667e-02 -3.272327780723571777e-02
3.492200002074241638e-02 -2.151708118617534637e-03 -6.838433444499969482e-02
-7.194884587079286575e-03 -3.765451163053512573e-02 4.416330903768539429e-02
1.182380039244890213e-02 4.298654943704605103e-02 9.345275908708572388e-02
-6.985130906105041504e-02 -2.997877076268196106e-02 1.172980666160583496e-01
-9.087606333196163177e-03 -1.293085701763629913e-02 1.160786021500825882e-02
2.900141663849353790e-02 -2.744927187450230122e-04 2.951800823211669922e-02
4.456432908773422241e-02 -1.255453564226627350e-02 1.724407821893692017e-02
-1.626444980502128601e-02 -7.944251410663127899e-03 -2.468210458755493164e-02
-2.343573234975337982e-02 -1.231566723436117172e-02 6.890967488288879395e-02
2.169735729694366455e-03 -1.975722238421440125e-02 3.003404848277568817e-02
-2.602824941277503967e-02 8.037652820348739624e-03 2.191675640642642975e-02
4.116813838481903076e-02 2.551067806780338287e-02 -6.683126837015151978e-02
-8.172667771577835083e-02 -3.006822057068347931e-02 5.896442383527755737e-02
2.557593584060668945e-02 3.095172718167304993e-02 -9.213836863636970520e-03
3.027973510324954987e-02 1.736798696219921112e-02 -1.455207634717226028e-02
1.273101847618818283e-02 -1.855196431279182434e-02 -1.395078841596841812e-02
3.238406777381896973e-02 2.940818481147289276e-02 -1.845500059425830841e-02
1.327968109399080276e-02 -2.619457431137561798e-03 5.309496074914932251e-03