-7.736136764287948608e-02
5.055464804172515869e-02
7.280411571264266968e-02
-1.639902442693710327e-01
1.449184212833642960e-02
2.208472415804862976e-02
1.161369457840919495e-01
-3.348856233060359955e-03
-6.434453278779983521e-02
2.616689354181289673e-02
-1.175496429204940796e-01
3.157983720302581787e-02
-1.173921972513198853e-01
-1.839033067226409912e-01
4.309787228703498840e-02
-3.031865507364273071e-02
-5.227177590131759644e-02
-6.167085841298103333e-02
-9.748121351003646851e-02
-7.039726525545120239e-02
-1.676280498504638672e-01
-9.114568680524826050e-02
-1.049757096916437149e-02
7.831431925296783447e-03
9.911461174488067627e-02
5.796023458242416382e-02
-1.571127772331237793e-01
-9.248624742031097412e-02
-4.914312437176704407e-02
-8.113972842693328857e-02
-5.254979804158210754e-02
-1.733417250216007233e-02
-3.851727023720741272e-02 8.228772319853305817e-03 3.431161493062973022e-02
-6.877405941486358643e-02 -3.442975506186485291e-02 -6.301970034837722778e-02
-8.387285470962524414e-02 -1.896233707666397095e-01 -2.266936451196670532e-01
8.298651874065399170e-02 2.606559358537197113e-02 3.500959649682044983e-02
-5.261473357677459717e-02 -1.125547811388969421e-01 -1.172568798065185547e-01
2.562789060175418854e-02 -7.345914840698242188e-03 -1.311640292406082153e-01
-2.709934301674365997e-02 2.114510722458362579e-02 -5.449406430125236511e-02
-1.601095199584960938e-01 -9.023421443998813629e-03 8.604985661804676056e-03
-5.183629109524190426e-04 -4.786893259733915329e-03 2.875891281291842461e-03
-9.109320491552352905e-02 -7.781034708023071289e-02 -4.642767086625099182e-02
-1.336615905165672302e-02 -6.870324909687042236e-02 -1.062220558524131775e-01
6.953366100788116455e-02 4.856427386403083801e-02 8.935319632291793823e-02
1.813492178916931152e-02 -4.334276542067527771e-03 2.927899919450283051e-02
2.699707867577672005e-03 -5.594351515173912048e-02 -1.532693058252334595e-01
-2.718353644013404846e-02 -4.505035281181335449e-02 -6.131796631962060928e-03
-1.524509210139513016e-02 1.537729147821664810e-02 -3.882058709859848022e-02
-5.177239887416362762e-03 -7.066792249679565430e-02 -1.110099777579307556e-01
1.145619899034500122e-02 -1.892340485937893391e-03 -4.583794996142387390e-02
-6.849528849124908447e-02 -2.318216301500797272e-02 1.606318540871143341e-02
1.637249439954757690e-02 1.723038963973522186e-02 4.879824444651603699e-02
8.662284165620803833e-02 2.086118981242179871e-02 4.440622776746749878e-02
3.907809033989906311e-02 2.224124222993850708e-02 -4.549395758658647537e-03
-5.050549283623695374e-02 3.364051133394241333e-02 8.779516071081161499e-02
-4.072400182485580444e-02 -1.579264737665653229e-02 -7.990155369043350220e-03
-7.863042876124382019e-03 -3.703369945287704468e-02 -5.071165785193443298e-02
1.090697199106216431e-01 4.522441327571868896e-02 1.718489825725555420e-02
-4.866041243076324463e-02 -1.041338196955621243e-03 -6.596340984106063843e-02
-3.464278578758239746e-02 6.315345317125320435e-02 -7.099867798388004303e-03
4.448144510388374329e-02 2.416420914232730865e-02 1.466428488492965698e-01
-7.046030834317207336e-03 4.489506781101226807e-02 1.165946796536445618e-01
-3.528208285570144653e-02 -3.066315688192844391e-02 2.895577251911163330e-02
6.048848386853933334e-03 -2.941697649657726288e-02 -7.206850498914718628e-02
1.007846891880035400e-01 -3.210537880659103394e-02 -1.596710062585771084e-03
7.435053586959838867e-02 2.982648462057113647e-02 -5.644013732671737671e-02
-4.532117396593093872e-02 -4.136620461940765381e-02 3.685989230871200562e-02
1.086540799587965012e-02 -5.124474689364433289e-02 1.554673537611961365e-02
5.382437258958816528e-02 3.895195573568344116e-02 -3.240261226892471313e-02
-7.933969795703887939e-02 -6.128757260739803314e-03 1.278926730155944824e-01
-4.532813653349876404e-02 -3.925356268882751465e-02 -8.915810286998748779e-02
-1.592736393213272095e-01 3.636113926768302917e-02 -7.662972807884216309e-02
9.039462544023990631e-03 -2.308463491499423981e-02 -1.543708145618438721e-02
-6.198754161596298218e-02 9.219684638082981110e-03 2.015894837677478790e-02
-4.301174078136682510e-03 -6.017310172319412231e-02 -9.644631296396255493e-02
3.361458331346511841e-02 -6.372312456369400024e-02 6.568786501884460449e-02
-2.284284448251128197e-03 1.431358698755502701e-02 1.122325938194990158e-02
1.402362715452909470e-02 4.482624307274818420e-02 -5.994953960180282593e-02
-2.055388316512107849e-02 2.621691860258579254e-02 4.719879105687141418e-02
1.201559826731681824e-01 2.719773678109049797e-03 -4.909503087401390076e-02
1.145323365926742554e-02 1.095033809542655945e-02 8.401384949684143066e-02
-2.517952956259250641e-02 4.504009615629911423e-03 8.007216267287731171e-03
9.468244761228561401e-02 -2.295332029461860657e-02 3.604143112897872925e-02
-7.640146650373935699e-03 -3.337359800934791565e-02 -5.189748108386993408e-02
-5.322903394699096680e-02 -3.483609482645988464e-02 5.212862789630889893e-02
8.566393703222274780e-02 2.567162923514842987e-02 4.575464874505996704e-02
-1.744101494550704956e-01 4.193853959441184998e-02 9.598179906606674194e-02
-1.873717084527015686e-02 -3.870047628879547119e-02 3.507503494620323181e-02
1.572994738817214966e-01 5.425888299942016602e-02 -1.889627613127231598e-02
1.365519016981124878e-01 6.468179076910018921e-02 3.919310122728347778e-02
2.370583638548851013e-02 6.243072450160980225e-02 -4.726472496986389160e-02
-2.177686616778373718e-02 2.110209502279758453e-02 1.418546736240386963e-01
-1.161809414625167847e-01 2.250454947352409363e-02 3.625536337494850159e-02
8.931067585945129395e-02 7.447197288274765015e-02 8.048172108829021454e-03
4.696534574031829834e-02 7.204747200012207031e-02 -2.756401896476745605e-02
6.252559274435043335e-02 1.604783348739147186e-02 3.268414735794067383e-02
5.229835398495197296e-03 -5.662418156862258911e-02 1.809897460043430328e-02
-6.690417975187301636e-02 1.106177736073732376e-02 -7.593142241239547729e-02
3.214516490697860718e-02 -3.247911855578422546e-02 -1.325026750564575195e-01
2.582572028040885925e-02 -5.451026931405067444e-02 -2.550724707543849945e-02
-4.987811297178268433e-02 -1.902948133647441864e-02 -2.855537831783294678e-02
-4.614085704088211060e-02 4.700643476098775864e-03 1.018352061510086060e-01
8.598637767136096954e-03 2.654304727911949158e-02 1.139231696724891663e-01
-6.461057811975479126e-02 -7.758889812976121902e-03 -3.425243869423866272e-02
2.529411017894744873e-02 -6.483669276349246502e-04 1.095590274780988693e-02
-3.800217062234878540e-02 -9.460775554180145264e-02 -1.329706907272338867e-01
1.417183876037597656e-01 1.586003415286540985e-02 -8.744771778583526611e-02
5.122380703687667847e-02 -1.005936879664659500e-02 -6.750165671110153198e-02
2.614744007587432861e-02 2.489484474062919617e-02 4.474120680242776871e-03
-1.781648141331970692e-03 -5.229341983795166016e-02 -7.681179791688919067e-02
-6.148520484566688538e-02 1.185145322233438492e-02 -1.276261825114488602e-02
-1.029259562492370605e-01 -2.701541036367416382e-02 -3.662757948040962219e-02
-1.070680376142263412e-02 9.662126190960407257e-03 4.429499432444572449e-02
-9.482220048084855080e-04 -1.189457532018423080e-02 -5.054823681712150574e-02
8.862313814461231232e-03 -4.192636907100677490e-02 -2.334193699061870575e-02
1.481152605265378952e-02 7.305271178483963013e-02 -2.846297807991504669e-03
5.638583004474639893e-02 -6.627656519412994385e-02 -9.660683572292327881e-02
7.114218175411224365e-02 2.391831949353218079e-02 -5.882474780082702637e-02
4.125676117837429047e-03 -1.043073162436485291e-01 4.450087621808052063e-02
3.907191008329391479e-02 -2.299270406365394592e-02 -9.022413194179534912e-02
8.583729714155197144e-02 2.566381171345710754e-02 4.409749060869216919e-02
1.592921763658523560e-01 -5.386969819664955139e-02 -1.007462739944458008e-01
-1.648016721010208130e-01 5.165081098675727844e-02 8.419280499219894409e-02
1.902224682271480560e-02 4.556268453598022461e-02 -1.271452847868204117e-02
-5.826594680547714233e-02 3.752174973487854004e-02 1.060039177536964417e-02
7.345291972160339355e-02 4.171674698591232300e-02 4.875330254435539246e-02
-5.830055475234985352e-02 -1.714046671986579895e-02 -1.605664752423763275e-02
9.828677028417587280e-02 1.593601889908313751e-02 -1.725984364748001099e-02
-5.476659163832664490e-02 -5.554032698273658752e-02 1.241327496245503426e-03
5.409425497055053711e-02 8.840036578476428986e-03 5.451640859246253967e-02
-9.068588167428970337e-02 -4.304611682891845703e-02 -1.052472833544015884e-02
-5.293354392051696777e-02 -3.399521112442016602e-02 -2.640628628432750702e-02
-6.430825591087341309e-02 -9.352898225188255310e-03 1.663165749050676823e-03
-1.039187889546155930e-02 3.865428268909454346e-03 -3.631579503417015076e-02
8.512804657220840454e-02 2.810282818973064423e-02 -1.303562819957733154e-01
6.686438620090484619e-02 6.121968477964401245e-02 -8.047075010836124420e-03
2.865824848413467407e-02 -1.856764778494834900e-02 -2.420039661228656769e-02
-9.790913760662078857e-02 -9.109567105770111084e-02 -4.696718975901603699e-02
2.371773123741149902e-03 -1.019989605993032455e-02 -4.429572448134422302e-02
7.617894443683326244e-04 -6.805108487606048584e-02 -7.770900428295135498e-02
-3.314518183469772339e-02 6.068978924304246902e-03 1.729547977447509766e-02
-1.625816971063613892e-01 -4.228992015123367310e-02 5.771112814545631409e-02
-2.054634504020214081e-02 -4.453398287296295166e-02 -5.434020236134529114e-02
6.713289022445678711e-02 -2.834465913474559784e-02 4.751962050795555115e-02
7.553044706583023071e-02 -1.002187840640544891e-02 9.984659403562545776e-02
-4.299584776163101196e-02 -6.414677202701568604e-02 -4.124374594539403915e-03
3.995879739522933960e-02 1.820387318730354309e-02 -1.047886908054351807e-03
-5.698630213737487793e-02 -8.036089688539505005e-02 -5.062732100486755371e-02
-6.070540472865104675e-02 9.633243083953857422e-03 -2.857407554984092712e-02
-5.801223218441009521e-02 -3.756370767951011658e-02 -4.508431255817413330e-02
2.137546390295028687e-01 -6.683734059333801270e-02 -2.250923961400985718e-01
-3.475378267467021942e-03 1.334766042418777943e-03 -7.713994383811950684e-02
-2.931286394596099854e-02 -4.820413514971733093e-02 2.202849835157394409e-03
6.578949093818664551e-02 -1.401641964912414551e-02 -3.157367557287216187e-02
1.989453472197055817e-02 -2.479773759841918945e-02 -8.793688565492630005e-02
5.870645865797996521e-02 -3.284987807273864746e-02 4.715421423316001892e-02
9.706033393740653992e-03 7.050729542970657349e-02 -5.456849187612533569e-02
-1.678018718957901001e-01 -5.282467603683471680e-02 -6.265161931514739990e-02
9.056055545806884766e-02 3.832008317112922668e-02 2.109308913350105286e-02
3.685477003455162048e-02 1.179352402687072754e-02 8.903017640113830566e-02
1.157894432544708252e-01 -1.134046465158462524e-01 -5.741487070918083191e-02
1.030016019940376282e-01 -3.543715178966522217e-02 -9.619241952896118164e-02
-1.776588857173919678e-01 -1.388973444700241089e-01 1.233909372240304947e-02
1.407178584486246109e-02 -5.955163016915321350e-02 -7.068711519241333008e-02
-5.620991438627243042e-02 -1.798918545246124268e-01 -1.378133594989776611e-01
-1.833617389202117920e-01 -2.838100865483283997e-02 -6.001136451959609985e-02
-1.283970922231674194e-01 8.932319469749927521e-03 -5.072714015841484070e-02
-6.574457138776779175e-02 1.029952615499496460e-01 2.768612466752529144e-04
-4.268658813089132309e-03 -1.515306904911994934e-02 -3.626507148146629333e-02
-1.308637261390686035e-01 -8.137967437505722046e-02 4.854631610214710236e-03
6.832887977361679077e-02 -5.432076007127761841e-02 -1.210589483380317688e-01
-1.041776407510042191e-02 -5.123014003038406372e-02 7.256656140089035034e-02
1.237134821712970734e-02 1.681330241262912750e-02 -3.844333067536354065e-02
-7.777336239814758301e-02 -1.677065342664718628e-02 3.268668800592422485e-02
-4.245051648467779160e-03 -4.209787026047706604e-02 -3.129285573959350586e-02
6.642544269561767578e-02 -2.587379328906536102e-02 -2.850604802370071411e-02
2.108585834503173828e-02 -5.380022898316383362e-02 2.121324092149734497e-02
3.701754286885261536e-02 -2.713915519416332245e-02 1.780832931399345398e-02
-8.087412454187870026e-03 -4.412603750824928284e-02 1.236270461231470108e-02
3.800906240940093994e-02 -4.022402316331863403e-02 -1.086506694555282593e-01
-9.180465340614318848e-02 -6.367953866720199585e-02 -1.130151227116584778e-01
-3.151255473494529724e-02 -5.172747001051902771e-02 -5.920362658798694611e-03
-1.932145059108734131e-01 1.256450563669204712e-01 -2.854145877063274384e-02
-6.799481064081192017e-02 -1.177962347865104675e-01 4.074535518884658813e-02
5.690369382500648499e-02 4.806649684906005859e-02 -5.440500006079673767e-02
-5.233234912157058716e-02 1.231578513979911804e-01 3.329468145966529846e-02
8.805110305547714233e-02 -1.055235508829355240e-02 -1.118632778525352478e-01
-6.122083216905593872e-02 8.058766275644302368e-02 5.736396182328462601e-03
1.387253589928150177e-02 -4.236173629760742188e-02 -1.199330911040306091e-01
2.306279912590980530e-02 4.534518346190452576e-03 -1.115450859069824219e-01
-8.515677764080464840e-04 -3.181639313697814941e-02 3.218735754489898682e-02
-1.233271509408950806e-01 -5.038405209779739380e-02 1.170616298913955688e-01
3.820996731519699097e-02 -7.219480723142623901e-02 -1.136927306652069092e-01
-7.926199585199356079e-02 -5.720411613583564758e-02 1.233827322721481323e-02
2.314722724258899689e-02 3.936336189508438110e-02 7.578320801258087158e-02
6.556515395641326904e-02 6.745322048664093018e-02 7.696456275880336761e-03
-2.806240878999233246e-02 8.747295476496219635e-03 3.771979361772537231e-02
2.678226493299007416e-02 1.325514167547225952e-02 -2.401221171021461487e-02
-3.996807709336280823e-02 3.170855343341827393e-02 -1.251961383968591690e-02
1.614179015159606934e-01 2.498139813542366028e-02 -1.508433967828750610e-01
1.258016005158424377e-02 3.195664379745721817e-03 -1.522337459027767181e-02
-4.963031411170959473e-02 -2.141676843166351318e-02 3.558003529906272888e-02
-1.141998358070850372e-02 -1.860692538321018219e-02 3.469225391745567322e-02
-3.797736391425132751e-02 -4.018934816122055054e-02 6.715852767229080200e-02
1.171754114329814911e-02 2.076774463057518005e-02 2.191493101418018341e-02
1.136653125286102295e-02 8.292393386363983154e-02 4.470988363027572632e-02
-1.403636299073696136e-02 -1.151040382683277130e-02 1.508361776359379292e-03
6.766451150178909302e-02 1.977154240012168884e-02 1.038423702120780945e-01
7.492590695619583130e-02 8.274718374013900757e-02 3.785534203052520752e-02
3.941443189978599548e-02 6.530964374542236328e-02 2.928487583994865417e-02
-3.049093298614025116e-02 -2.853384986519813538e-02 1.500417850911617279e-02
-3.366944612935185432e-03 -2.061438933014869690e-02 -6.342184543609619141e-02
-4.306424409151077271e-03 3.337838128209114075e-02 5.855997005710378289e-05
3.269617632031440735e-02 3.957227617502212524e-02 6.923530250787734985e-02
-1.226345356553792953e-02 2.070818282663822174e-02 4.347336292266845703e-02
-8.092489838600158691e-02 1.133654918521642685e-02 5.834893882274627686e-02
1.941869221627712250e-02 -3.312288608867675066e-04 -3.048201277852058411e-02
1.088330522179603577e-01 1.840173266828060150e-02 -4.281067475676536560e-02
-1.851441524922847748e-02 6.997782737016677856e-03 -4.994783923029899597e-02
-2.705943398177623749e-02 3.458841471001505852e-03 8.357519656419754028e-02
-3.725282102823257446e-02 2.357150800526142120e-02 -7.841456681489944458e-02
2.874571084976196289e-02 1.095168478786945343e-02 -9.892249852418899536e-02
-8.856856077909469604e-02 -6.767127197235822678e-03 7.247424125671386719e-02
-9.096525609493255615e-02 -5.364293232560157776e-02 7.912184298038482666e-02
-1.051735505461692810e-02 4.087587445974349976e-02 -1.853654161095619202e-02
-4.947812110185623169e-02 -7.887629419565200806e-02 -2.747700549662113190e-02
-3.100177273154258728e-02 -6.358366459608078003e-02 4.338252544403076172e-02
-1.204542443156242371e-02 -3.389552608132362366e-02 -2.878683619201183319e-02
-1.736450493335723877e-01 -1.136079281568527222e-01 -1.132537871599197388e-01
6.549534853547811508e-03 -9.119078516960144043e-03 4.842985421419143677e-02
5.430270917713642120e-03 9.948402643203735352e-02 -9.452921897172927856e-02
1.336767524480819702e-01 -1.543016172945499420e-02 -1.734842360019683838e-01
4.815690685063600540e-03 -2.094941213726997375e-02 -2.553024096414446831e-03
1.933575980365276337e-02 1.601096056401729584e-02 3.871793299913406372e-02
-1.419838331639766693e-02 8.532651513814926147e-02 8.533949404954910278e-02
-9.993813186883926392e-02 5.037005990743637085e-02 1.867515444755554199e-01
3.567932173609733582e-02 -2.310635172761976719e-04 -1.158800721168518066e-02
5.061741545796394348e-02 -2.204082347452640533e-02 -2.695603761821985245e-03
3.913551941514015198e-02 8.527872152626514435e-03 -1.725234277546405792e-02
-6.918170303106307983e-02 -4.780368879437446594e-02 -9.526064246892929077e-02
-6.408628076314926147e-02 -1.662930287420749664e-02 -3.652432188391685486e-02
2.208816818892955780e-02 -4.406720399856567383e-02 -5.405176896601915359e-03
-1.003652140498161316e-01 -5.378606170415878296e-02 -1.110545769333839417e-01
-1.225298363715410233e-02 1.560975611209869385e-02 -5.165379494428634644e-02
-1.254035830497741699e-01 -2.593078836798667908e-02 -1.019809278659522533e-03
-4.341185465455055237e-02 2.811087667942047119e-02 8.978399634361267090e-02
1.402286440134048462e-01 -3.387045860290527344e-02 -7.415156811475753784e-02
-3.052962757647037506e-02 9.866263717412948608e-04 5.854725092649459839e-02
-2.124287784099578857e-01 -1.379878073930740356e-01 -1.815511286258697510e-01
-1.214730441570281982e-01 -1.389969885349273682e-02 -5.622770171612501144e-03
5.331709608435630798e-02 -6.892226636409759521e-02 -6.975774466991424561e-02
4.822571203112602234e-02 -6.514510512351989746e-02 9.731227159500122070e-02
5.590847879648208618e-02 1.319815684109926224e-02 -1.984903775155544281e-02
4.665260761976242065e-02 1.280208583921194077e-02 -3.397184982895851135e-02
4.249714687466621399e-02 -1.526498235762119293e-02 -8.419809490442276001e-02
1.704867184162139893e-02 3.377036750316619873e-02 9.656302630901336670e-02
-4.888013005256652832e-02 -2.798875048756599426e-02 2.744761668145656586e-02
4.116469994187355042e-02 1.210899744182825089e-02 -2.016179263591766357e-02
-5.914334207773208618e-02 -1.140188192948698997e-03 3.482793644070625305e-02
-5.083324015140533447e-02 -1.850820146501064301e-02 -5.389918759465217590e-02
2.498434297740459442e-02 3.652136027812957764e-02 -1.639089459786191583e-04
-6.868386268615722656e-02 -1.368035469204187393e-02 3.891903534531593323e-02
2.295136637985706329e-02 -4.107957705855369568e-02 -2.446581609547138214e-02
-1.183462888002395630e-01 2.244408987462520599e-02 1.664750576019287109e-01
-2.554513327777385712e-02 -5.508429370820522308e-03 6.021743640303611755e-03
-1.174185052514076233e-01 -1.022179871797561646e-01 -7.239407300949096680e-02
-7.105831056833267212e-02 -1.168512646108865738e-02 -3.692246228456497192e-02
-2.251331321895122528e-02 -5.662948638200759888e-02 -5.890331044793128967e-02
-2.321295812726020813e-02 -1.007814658805727959e-03 1.741572283208370209e-02
1.318814046680927277e-02 -3.593053668737411499e-02 1.305932402610778809e-01
-7.174310088157653809e-02 -1.229116227477788925e-02 -1.715404540300369263e-02
-2.801793441176414490e-02 2.171715907752513885e-02 1.572730951011180878e-02
-1.725973002612590790e-02 3.570649400353431702e-02 4.422163963317871094e-02
-1.937590539455413818e-02 -6.345097441226243973e-03 -3.874406591057777405e-02
1.897197030484676361e-02 1.600122265517711639e-02 1.388167869299650192e-02
-2.157939597964286804e-02 -3.574702888727188110e-02 -4.956949874758720398e-02
-1.634293794631958008e-02 -7.021114230155944824e-02 -1.950350776314735413e-02
-3.569249063730239868e-02 -2.495401352643966675e-02 -2.049862220883369446e-02
3.207372874021530151e-02 6.367565691471099854e-02 9.203047305345535278e-02
1.709953136742115021e-02 -3.962289169430732727e-02 -4.526134207844734192e-02
1.741636544466018677e-02 2.325895801186561584e-02 -4.439106583595275879e-02
-1.539216469973325729e-02 -3.267399594187736511e-02 2.031813748180866241e-02
-6.629878282546997070e-02 -1.876609958708286285e-02 -1.047191321849822998e-01
-8.688777685165405273e-03 8.954453282058238983e-03 -7.558724377304315567e-03
1.752232760190963745e-01 4.469766095280647278e-02 -9.838227182626724243e-02
-5.571255460381507874e-04 2.076056413352489471e-02 -6.402578204870223999e-02
2.753519639372825623e-02 -4.156632721424102783e-02 -7.467723637819290161e-02
-6.778864562511444092e-02 -4.806259647011756897e-02 1.777266524732112885e-02
5.124246329069137573e-02 9.810893982648849487e-02 2.864408865571022034e-02
-8.572727441787719727e-02 3.762420639395713806e-02 2.689620666205883026e-02
-6.110494211316108704e-02 -4.110952466726303101e-02 -8.518546074628829956e-02
6.208076700568199158e-02 -5.114106927067041397e-03 -2.571386843919754028e-02
-2.373336628079414368e-02 6.758747249841690063e-02 8.208309113979339600e-02
3.753530234098434448e-02 -5.549771711230278015e-02 -4.284409061074256897e-02
1.664995402097702026e-01 9.840296208858489990e-02 -7.357463240623474121e-02
-4.743126779794692993e-02 -7.607217133045196533e-02 -7.005658745765686035e-02
8.171116933226585388e-03 -1.511206198483705521e-02 3.835590090602636337e-03
-6.742782145738601685e-02 -1.884194649755954742e-02 3.195016458630561829e-02
6.819972395896911621e-02 -7.076299190521240234e-02 2.816095016896724701e-02
1.058120876550674438e-01 1.082854866981506348e-01 1.327155083417892456e-01
-4.737615119665861130e-03 6.420065183192491531e-03 1.497801742516458035e-03
3.088812157511711121e-02 -7.134095579385757446e-02 4.352886602282524109e-02
1.087108813226222992e-02 -1.424300577491521835e-02 3.553886339068412781e-02
-1.679358258843421936e-02 1.752558909356594086e-02 -5.927421152591705322e-02
5.036018788814544678e-03 3.489449992775917053e-02 1.097415834665298462e-01
4.532834887504577637e-02 3.766133636236190796e-02 6.452041119337081909e-02
1.258366703987121582e-01 1.046381071209907532e-01 9.449500590562820435e-03
-6.021792069077491760e-03 -4.197070375084877014e-03 5.879370868206024170e-02
-3.972318954765796661e-03 -2.233783155679702759e-02 2.475332096219062805e-02
-1.186352674267254770e-04 4.627689346671104431e-02 1.113714128732681274e-01
5.112526193261146545e-02 6.345693767070770264e-02 6.502115167677402496e-03
-2.348051220178604126e-02 -3.120315074920654297e-02 2.527380827814340591e-03
-4.140002280473709106e-02 -9.833973599597811699e-04 9.857189655303955078e-02
-3.266127780079841614e-02 -1.892199943540617824e-04 -9.585861116647720337e-02
-1.030284762382507324e-01 -2.811026945710182190e-02 3.075854107737541199e-02
3.543893247842788696e-02 1.308441162109375000e-01 5.407742038369178772e-02
-1.246278733015060425e-01 -4.726642370223999023e-02 -1.607867628335952759e-01
-4.027233645319938660e-02 3.836523741483688354e-02 -2.448744699358940125e-02
-1.552298292517662048e-02 -7.649113982915878296e-02 -4.172570258378982544e-02
9.327651560306549072e-02 3.955605626106262207e-02 3.418947756290435791e-02
-1.091710329055786133e-01 -4.196661710739135742e-02 -5.788807570934295654e-02
-6.544829159975051880e-02 -5.539671331644058228e-02 -4.937488213181495667e-02
-3.584510460495948792e-02 -4.283284395933151245e-02 7.186636328697204590e-02
-8.221690356731414795e-02 -7.886265404522418976e-03 -3.868988156318664551e-02
-1.964005827903747559e-01 -1.160213574767112732e-01 -5.371368303894996643e-02
4.997253417968750000e-02 -3.710733354091644287e-02 1.406822702847421169e-04
1.660071127116680145e-02 4.726077988743782043e-02 -1.550121456384658813e-01
1.075662020593881607e-02 9.151782840490341187e-03 -4.156221821904182434e-02
1.687140949070453644e-02 -2.847407385706901550e-02 -2.392327412962913513e-02
-7.136493921279907227e-02 -5.403884500265121460e-02 -2.027586847543716431e-02
1.594277173280715942e-01 2.787432260811328888e-02 -4.873022437095642090e-02
3.070647362619638443e-04 1.097826436161994934e-01 7.875837385654449463e-02
2.776237018406391144e-02 3.840238321572542191e-03 1.669481210410594940e-02
5.531886592507362366e-03 9.846688061952590942e-02 -1.707585901021957397e-02
-1.382070593535900116e-02 -4.032599180936813354e-02 -1.003196239471435547e-01
-6.282303482294082642e-02 1.469697616994380951e-02 -4.592940956354141235e-02
-8.576273918151855469e-02 -1.728379912674427032e-02 1.009402349591255188e-01
-1.375665143132209778e-02 2.490478102117776871e-03 5.238949880003929138e-02
-1.011736541986465454e-01 -6.864477694034576416e-02 -9.623145312070846558e-02
-3.894417732954025269e-02 -2.558142878115177155e-02 -1.058505028486251831e-01
-6.619852036237716675e-02 5.356503650546073914e-03 3.280539438128471375e-02
-4.362460970878601074e-02 2.887101657688617706e-02 1.305276751518249512e-01
9.816668927669525146e-02 -1.357025001198053360e-02 3.490664809942245483e-02
-7.399895042181015015e-02 -1.526696048676967621e-02 1.751306504011154175e-01
-2.081347107887268066e-01 -1.374733150005340576e-01 -9.030575305223464966e-02
-3.557248413562774658e-02 3.950259834527969360e-02 -1.134696900844573975e-01
2.396747097373008728e-02 5.895836651325225830e-02 1.645262539386749268e-02
2.384473942220211029e-02 -3.216922283172607422e-02 9.155104309320449829e-02
5.737858265638351440e-02 -3.173555806279182434e-02 -1.940399855375289917e-01
-6.315079331398010254e-02 -1.678949221968650818e-02 -1.502315402030944824e-01
2.547958120703697205e-02 -2.226623706519603729e-03 -3.854848444461822510e-02
2.429602481424808502e-02 2.192852273583412170e-02 1.535648852586746216e-01
-5.386792123317718506e-02 -4.888515546917915344e-02 5.808746814727783203e-02
1.285520941019058228e-02 -3.106477670371532440e-02 -6.295771803706884384e-03
-6.671921163797378540e-02 -5.438712425529956818e-03 -4.925011843442916870e-02
2.172971516847610474e-02 6.709287874400615692e-03 -3.885281085968017578e-02
-1.147170667536556721e-03 -2.596223540604114532e-02 -1.601361291250213981e-04
8.868139982223510742e-02 1.240610703825950623e-02 2.405552566051483154e-02
1.196671649813652039e-01 4.102874174714088440e-02 8.821130543947219849e-02
-3.709403052926063538e-02 2.329148724675178528e-02 3.485625982284545898e-02
5.090123508125543594e-03 3.443945199251174927e-03 -2.386660501360893250e-02
-8.916280418634414673e-02 -1.063830181956291199e-01 -6.708949059247970581e-02
-1.170506794005632401e-02 2.470233291387557983e-02 5.493286252021789551e-02
6.690578162670135498e-02 9.097886830568313599e-02 3.185377642512321472e-02
-5.506576038897037506e-03 6.734843365848064423e-03 -9.992703795433044434e-03
-9.536255151033401489e-02 -8.412520587444305420e-02 -9.065642952919006348e-02
-5.027632415294647217e-02 -2.816492319107055664e-02 1.882565766572952271e-02
-2.836705185472965240e-03 -2.640585415065288544e-02 -2.979871071875095367e-02
6.063384190201759338e-02 1.018718704581260681e-01 4.259767010807991028e-02
-2.358126454055309296e-02 -6.005768105387687683e-02 -8.087192475795745850e-02
4.337593540549278259e-02 6.045195832848548889e-02 4.540036991238594055e-02
-3.912102431058883667e-02 1.712390570901334286e-03 -8.430447429418563843e-03
-1.642460562288761139e-02 -2.099173143506050110e-03 -2.125469222664833069e-02
-1.407062634825706482e-02 -4.335863888263702393e-02 -5.205276980996131897e-02
1.974441111087799072e-02 -4.159447923302650452e-02 -2.860767208039760590e-02
-5.750215798616409302e-02 -4.272661358118057251e-02 -5.211694911122322083e-02
-2.216668613255023956e-02 -5.637164693325757980e-03 2.888506837189197540e-02
5.493939388543367386e-04 -1.123044546693563461e-02 -1.036502271890640259e-01
-7.546169310808181763e-02 -3.823726251721382141e-02 6.961799412965774536e-02
1.443630158901214600e-01 3.733810409903526306e-02 -2.582909353077411652e-02
-1.277272850275039673e-01 -6.932526826858520508e-02 -1.736874505877494812e-02
-6.638721376657485962e-02 -7.813067734241485596e-02 3.268142929300665855e-03
4.333091527223587036e-02 5.916168168187141418e-02 7.610186468809843063e-03
2.706782706081867218e-02 1.983903348445892334e-02 -4.499508067965507507e-02
9.705483913421630859e-03 1.742643886245787144e-03 -4.116956517100334167e-02
-1.164924874901771545e-01 -8.094153553247451782e-02 -5.386520922183990479e-02
-1.001250520348548889e-01 -6.378728151321411133e-02 -9.301885217428207397e-02
2.814484015107154846e-02 2.674931287765502930e-02 3.865917399525642395e-02
-8.744884282350540161e-02 2.539625763893127441e-02 2.767427358776330948e-03
2.885250933468341827e-02 -7.155149430036544800e-02 5.804043263196945190e-02
7.847378961741924286e-03 6.301071494817733765e-03 -4.149294644594192505e-02
4.924876987934112549e-02 5.323204398155212402e-02 -1.642496208660304546e-03
2.178119868040084839e-02 7.576627656817436218e-03 3.331359941512346268e-03
-3.400573879480361938e-02 -4.274391382932662964e-02 -1.654991880059242249e-02
1.361548248678445816e-02 2.515808492898941040e-02 1.161196362227201462e-02
-3.594027087092399597e-02 2.508674934506416321e-02 1.002216562628746033e-01
2.147454069927334785e-03 3.501548618078231812e-02 1.679090899415314198e-03
1.986414566636085510e-02 2.800280461087822914e-03 5.591230094432830811e-02
4.850846529006958008e-02 2.858416736125946045e-02 -2.083754166960716248e-02
4.863543808460235596e-02 6.580206006765365601e-02 3.904774785041809082e-02
3.707827255129814148e-02 5.924361199140548706e-02 -3.425468131899833679e-02
-1.821767725050449371e-02 -4.786325991153717041e-02 -2.220890671014785767e-02
-1.449896139092743397e-03 -3.611242771148681641e-02 -5.529703944921493530e-02
-9.183947741985321045e-02 -9.486492723226547241e-02 -1.620456576347351074e-02
-7.935902103781700134e-03 4.299237392842769623e-03 -5.505187436938285828e-02
-7.875055074691772461e-02 -1.788893900811672211e-02 9.579617530107498169e-03
-1.083699837327003479e-01 -1.046567410230636597e-02 -9.704507887363433838e-03
-1.110458374023437500e-01 -3.752279281616210938e-02 -8.390221744775772095e-02
-1.329474896192550659e-01 -3.592653200030326843e-02 -5.809827521443367004e-02
-3.902160376310348511e-02 4.749447852373123169e-02 -1.651690155267715454e-02
3.671023994684219360e-02 -2.270646393299102783e-02 -1.596226394176483154e-01
-1.015475764870643616e-01 -5.573378503322601318e-02 -6.279651075601577759e-02
-1.184923052787780762e-01 -6.324132531881332397e-02 -2.859594766050577164e-03
-6.196080520749092102e-02 -1.498370803892612457e-02 -2.520281821489334106e-02
-6.547285616397857666e-02 1.796437613666057587e-02 9.618104994297027588e-02
-1.118327211588621140e-02 -6.834483146667480469e-02 -4.632489010691642761e-02
-3.742515295743942261e-02 2.768742479383945465e-02 6.094559654593467712e-02
-1.267697215080261230e-01 -2.940479107201099396e-02 -1.287233680486679077e-01
6.792692840099334717e-02 -9.474572539329528809e-02 -1.501179188489913940e-01
-3.654251992702484131e-02 -3.065370954573154449e-02 6.672687362879514694e-03
-2.676215581595897675e-02 8.110313676297664642e-03 4.381136223673820496e-02
-7.778382301330566406e-02 -1.804604679346084595e-01 1.460750252008438110e-01
-2.612277567386627197e-01 -3.598145768046379089e-02 1.887307129800319672e-02
1.571176201105117798e-02 1.232669223099946976e-03 4.124629870057106018e-02
-1.541580539196729660e-03 -2.762235328555107117e-02 9.754761122167110443e-03
1.428599236533045769e-03 -5.677580460906028748e-02 -7.316125184297561646e-02
1.302316505461931229e-02 7.196394260972738266e-03 -1.964184083044528961e-02
-9.593629278242588043e-03 -9.138540923595428467e-02 3.775322809815406799e-02
9.109235252253711224e-04 -1.138157094828784466e-03 -2.986273355782032013e-02
9.934303909540176392e-02 -3.759103268384933472e-02 -3.010633587837219238e-02
3.038901463150978088e-02 -1.905922405421733856e-02 -1.332795247435569763e-02
-4.739580675959587097e-02 1.367886201478540897e-03 6.652419269084930420e-02
-1.143890842795372009e-01 -1.148127391934394836e-01 -2.746202051639556885e-02
7.957872748374938965e-02 3.753232955932617188e-02 -5.232049152255058289e-02
1.823556609451770782e-02 4.492349550127983093e-02 1.220019068568944931e-02
-4.846313595771789551e-02 -8.443286642432212830e-04 1.433301996439695358e-02
3.853294625878334045e-02 4.222299158573150635e-02 -5.758521333336830139e-02
-6.696830689907073975e-02 -7.198853790760040283e-02 -6.636904925107955933e-02
-1.674850583076477051e-01 -1.279479563236236572e-01 1.970126628875732422e-01
4.520594701170921326e-02 2.869044803082942963e-02 2.809347584843635559e-02
-5.725691094994544983e-02 5.446995049715042114e-02 8.843316882848739624e-02
-6.168607994914054871e-02 2.541897073388099670e-02 -9.443125873804092407e-02
-3.153221448883414268e-03 3.737680846825242043e-03 2.676515094935894012e-02
-7.392980903387069702e-02 -4.729996249079704285e-02 -1.386186107993125916e-02
1.407396346330642700e-01 -2.430809661746025085e-02 9.716768562793731689e-02
2.342471480369567871e-02 5.303434655070304871e-02 4.671998694539070129e-02
2.529582940042018890e-02 -1.708307117223739624e-02 3.519697347655892372e-03
-3.845618572086095810e-03 -2.471267431974411011e-02 -5.518142879009246826e-02
-3.390718996524810791e-02 -1.277059782296419144e-02 -3.103240951895713806e-02
-1.378099899739027023e-02 -8.304219692945480347e-02 -4.510029405355453491e-02
-6.733107566833496094e-02 -7.052673399448394775e-02 -5.479922518134117126e-02
-9.132893756031990051e-03 -3.236913308501243591e-02 -2.897466532886028290e-03
3.719473024830222130e-03 1.851637475192546844e-02 -2.211599610745906830e-02
-8.628922514617443085e-03 9.108912199735641479e-02 7.401374727487564087e-02
-6.709751207381486893e-03 -6.539805978536605835e-02 -2.640278078615665436e-02
-3.818629193119704723e-05 -9.257221966981887817e-02 -9.821214526891708374e-02
9.377790614962577820e-03 -2.492148056626319885e-02 -3.370715305209159851e-02
-1.467556133866310120e-02 -2.878539077937602997e-02 1.968605071306228638e-02
-2.523656561970710754e-02 -5.525024980306625366e-02 -6.270831078290939331e-02
7.792542129755020142e-02 1.266653239727020264e-01 3.557088598608970642e-02
4.449250642210245132e-03 -2.109067887067794800e-02 -5.735337734222412109e-03
1.599281281232833862e-01 9.260918945074081421e-02 8.976735174655914307e-02
1.248709391802549362e-02 2.273558406159281731e-03 -1.071648392826318741e-02
1.426278501749038696e-01 3.837703913450241089e-02 1.560737285763025284e-02
7.276708632707595825e-02 -3.446393087506294250e-02 -1.631786487996578217e-02
-1.713271625339984894e-02 -9.816662967205047607e-02 -1.249726712703704834e-01
9.305946528911590576e-02 7.225135713815689087e-02 2.568522095680236816e-02
1.598393358290195465e-02 -1.192932110279798508e-02 -4.098129644989967346e-02
-8.358635753393173218e-02 -3.120108041912317276e-03 4.656363651156425476e-02
-7.959209382534027100e-02 -7.319729030132293701e-02 -4.074844717979431152e-02
2.674483507871627808e-02 9.983585774898529053e-02 2.737023634836077690e-03
3.831979632377624512e-02 5.655147880315780640e-02 -2.370636165142059326e-02
-1.712583750486373901e-02 8.047631010413169861e-03 -2.605750039219856262e-02
-1.267520934343338013e-01 -1.083656214177608490e-02 3.618731349706649780e-02
-6.050179712474346161e-03 -3.765041381120681763e-02 6.764101237058639526e-02
1.865263655781745911e-02 9.540338069200515747e-02 -1.456122286617755890e-02
3.024363145232200623e-02 -1.430325210094451904e-01 -1.189264729619026184e-01
-7.050704956054687500e-02 -2.139419876039028168e-02 -2.115823328495025635e-02
1.154280919581651688e-02 1.527824103832244873e-01 1.670640110969543457e-01
4.480276256799697876e-03 2.276611700654029846e-02 -1.099068596959114075e-01
4.014588147401809692e-02 -3.395285457372665405e-02 -5.223388597369194031e-02
1.604786887764930725e-02 -7.880947738885879517e-02 -2.907905727624893188e-02
-1.282175537198781967e-03 -5.294525995850563049e-02 3.756261244416236877e-02
-1.921947672963142395e-02 3.764234483242034912e-02 -6.385232787579298019e-03
9.949932247400283813e-02 1.715967245399951935e-02 -1.946656592190265656e-02
-7.459522038698196411e-02 2.911917306482791901e-02 -3.032969124615192413e-02
-3.871513530611991882e-02 9.669278748333454132e-03 1.706896349787712097e-03
6.971688475459814072e-03 5.755271390080451965e-02 -8.543097972869873047e-02
-2.901243278756737709e-03 -2.792167849838733673e-02 -8.901633322238922119e-03
3.550457954406738281e-02 -1.860132440924644470e-02 1.189782656729221344e-02
4.544384777545928955e-03 -1.028550416231155396e-02 -3.579010441899299622e-02
-1.429398357868194580e-02 -2.191507630050182343e-02 -3.412260487675666809e-02
-3.135932236909866333e-02 -2.533538499847054482e-03 2.235084027051925659e-02
-3.064478561282157898e-02 -2.987829223275184631e-02 3.545645996928215027e-02
-1.628131978213787079e-02 -7.805753499269485474e-03 -7.239209860563278198e-02
3.566218540072441101e-02 4.197776317596435547e-02 1.336668524891138077e-02
-5.719420313835144043e-02 -1.122862100601196289e-01 -9.607739746570587158e-02
-8.406319655478000641e-03 -4.253397136926651001e-02 3.336250409483909607e-02
3.745137900114059448e-02 6.631332449615001678e-03 1.904015615582466125e-02
4.734515771269798279e-02 -3.400195017457008362e-02 -7.377482205629348755e-02
-8.791415393352508545e-02 -5.554997548460960388e-02 -3.733774274587631226e-02
-4.212600737810134888e-02 -3.813166171312332153e-02 -8.571784012019634247e-03
-5.810896307229995728e-02 -1.646311394870281219e-02 6.772001832723617554e-02
-2.102829888463020325e-02 1.961820991709828377e-03 -6.851731985807418823e-02
3.418707847595214844e-02 -5.982145667076110840e-02 -2.969991974532604218e-02
2.942837402224540710e-02 1.548318285495042801e-02 3.301200643181800842e-02
2.517287060618400574e-02 -6.344320718199014664e-03 -9.519939869642257690e-02
-5.987116694450378418e-02 -4.608315974473953247e-02 -4.357912018895149231e-02
1.506880968809127808e-01 -1.619299058802425861e-03 -3.954981267452239990e-02
1.237988173961639404e-01 1.584545709192752838e-02 1.288383547216653824e-02
-9.089425206184387207e-03 -1.837883703410625458e-02 3.047656454145908356e-02
-1.033343151211738586e-01 -1.750521808862686157e-01 -8.999251574277877808e-02
6.485779583454132080e-02 7.216157019138336182e-02 6.719540059566497803e-02
1.034431457519531250e-01 6.052202358841896057e-02 -6.264900323003530502e-03
4.875875264406204224e-02 3.680045902729034424e-02 6.481592357158660889e-02
-2.000026777386665344e-02 4.398604854941368103e-02 7.714147865772247314e-02
3.069350682199001312e-02 -4.881024651695042849e-04 3.814012929797172546e-02
-4.902850091457366943e-02 5.425850674510002136e-02 2.705151773989200592e-02
-6.682280916720628738e-03 2.174801379442214966e-02 9.692862629890441895e-03
4.310982767492532730e-03 1.036402303725481033e-02 3.243117779493331909e-02
-3.192665800452232361e-02 -2.019857056438922882e-02 -2.046948485076427460e-02
-4.153040051460266113e-02 -1.088246703147888184e-02 3.645435348153114319e-02
-2.933734282851219177e-02 -2.793855406343936920e-02 -7.337880134582519531e-02
-6.571171432733535767e-02 -7.042340189218521118e-02 -1.499315351247787476e-02
-7.408643607050180435e-03 8.188622072339057922e-03 2.567079849541187286e-02
-1.214574798941612244e-01 -8.551345020532608032e-02 -3.064394928514957428e-02
2.371616894379258156e-03 5.541437119245529175e-02 8.363579213619232178e-02
7.871931046247482300e-02 -1.086911885067820549e-03 -8.698639459908008575e-03
-7.084072567522525787e-03 1.822403632104396820e-02 2.897247113287448883e-02
1.727375760674476624e-02 3.689495101571083069e-02 -1.001575961709022522e-02
7.018294930458068848e-02 6.486649811267852783e-02 1.062659695744514465e-01
-6.542256474494934082e-02 -8.722228556871414185e-02 -4.277718067169189453e-02
-3.614725545048713684e-03 2.520537935197353363e-02 -6.402866914868354797e-03
-1.962699368596076965e-02 -4.920950159430503845e-02 -5.656763538718223572e-02
1.601137779653072357e-02 2.955043315887451172e-02 -5.584076046943664551e-02
-1.004299148917198181e-01 -8.182709664106369019e-02 -3.852285817265510559e-02
-2.903223736211657524e-03 -4.933154582977294922e-02 -4.815355315804481506e-02
-7.608830183744430542e-02 -4.532415419816970825e-02 1.077881362289190292e-02
-1.392682939767837524e-01 -5.217311903834342957e-02 1.110678464174270630e-01
7.562964409589767456e-02 2.253368310630321503e-02 4.254593327641487122e-02
-7.843676209449768066e-02 -2.324702963232994080e-02 9.493019431829452515e-03
1.762684248387813568e-02 4.715723451226949692e-03 1.599178835749626160e-02
8.337979763746261597e-02 -1.622064411640167236e-02 -1.100368797779083252e-01
-1.235608607530593872e-01 -1.042177751660346985e-01 4.819880425930023193e-02
8.511303365230560303e-02 4.099427163600921631e-02 8.282715082168579102e-02
2.038665115833282471e-02 8.367612957954406738e-03 4.262380674481391907e-02
-3.295039013028144836e-02 -4.432889446616172791e-02 1.109493803232908249e-02
3.088515065610408783e-02 1.903072930872440338e-02 -6.333752721548080444e-02
4.691962525248527527e-02 -4.969780147075653076e-02 5.107982829213142395e-02
9.645751118659973145e-02 3.096996620297431946e-02 -9.650858119130134583e-03
4.597706347703933716e-02 6.514763087034225464e-02 8.265233039855957031e-02
6.919969618320465088e-02 -4.833641648292541504e-02 -1.489325612783432007e-01
-3.182099014520645142e-02 1.131348311901092529e-02 9.046706371009349823e-03
-1.789768785238265991e-02 -9.097711741924285889e-02 -4.821734875440597534e-02
-2.576274983584880829e-02 -4.794363677501678467e-02 -3.833408653736114502e-02
2.125138975679874420e-02 5.473955348134040833e-02 7.854299247264862061e-02
-2.679543383419513702e-02 -3.052887506783008575e-02 7.608074229210615158e-03
-8.851885050535202026e-02 -4.500384628772735596e-02 3.836254030466079712e-02
-4.831221699714660645e-02 2.218179218471050262e-02 2.949711494147777557e-02
1.016944721341133118e-01 5.121336132287979126e-02 7.680106163024902344e-02
-9.536837041378021240e-02 -7.170590758323669434e-02 -1.604162305593490601e-01
-2.280714735388755798e-02 -9.552969597280025482e-03 -2.962435223162174225e-02
9.681594371795654297e-02 3.761063888669013977e-02 1.856686733663082123e-02
-9.747356176376342773e-03 -1.945977844297885895e-02 -4.001670703291893005e-02
-1.264547370374202728e-02 -5.142397060990333557e-02 -5.214708298444747925e-02
-1.906127296388149261e-02 8.077180013060569763e-03 9.901667013764381409e-03
1.219818741083145142e-02 -2.635027747601270676e-03 8.882816880941390991e-02
4.180687945336103439e-03 -4.209257662296295166e-02 -5.526042357087135315e-02
4.110636189579963684e-02 5.776005610823631287e-02 1.100553944706916809e-01
-5.963788181543350220e-02 -1.691880635917186737e-02 -6.031083688139915466e-02
-6.687358021736145020e-02 -2.303288877010345459e-02 -2.506360970437526703e-02
7.757505774497985840e-02 4.948865622282028198e-03 -6.141339987516403198e-02
-5.041065812110900879e-02 -1.092091724276542664e-01 -7.496986072510480881e-03
1.741565614938735962e-01 6.214492022991180420e-02 1.517556980252265930e-02
-6.532256491482257843e-03 5.660056695342063904e-02 -5.078709870576858521e-02
-3.463781252503395081e-02 -7.568789273500442505e-02 -1.051062494516372681e-01
8.463247865438461304e-02 -8.433764427900314331e-02 6.932905316352844238e-02
5.132766813039779663e-02 -7.209932059049606323e-02 -5.455057322978973389e-02
3.346033021807670593e-02 5.160891637206077576e-02 -8.289271593093872070e-02
1.728479191660881042e-02 -2.036906965076923370e-02 -6.286828964948654175e-02
1.801451854407787323e-02 -3.197541460394859314e-02 8.672046661376953125e-02
6.487400084733963013e-02 -2.859590947628021240e-02 -7.278063893318176270e-02
2.256611883640289307e-01 -1.420519649982452393e-01 -8.913931995630264282e-02
1.047575026750564575e-01 -5.700064823031425476e-02 -2.130504250526428223e-01
-2.411557361483573914e-02 -2.546667121350765228e-03 7.511156145483255386e-03
3.700640052556991577e-02 3.102984651923179626e-02 -3.353567793965339661e-02
-8.686603605747222900e-02 -3.553809598088264465e-02 3.947728499770164490e-02
3.687477484345436096e-02 2.876711823046207428e-02 3.485044091939926147e-02
6.898172432556748390e-04 -1.287146843969821930e-02 1.113293413072824478e-02
-1.032929867506027222e-01 -1.692916601896286011e-01 -7.392702251672744751e-02
-5.173122510313987732e-03 -5.534739233553409576e-03 3.574222559109330177e-03
3.772120922803878784e-02 -3.409916907548904419e-02 4.330923780798912048e-02
-2.113207057118415833e-02 -5.623753741383552551e-02 5.868228897452354431e-02
-1.251242756843566895e-01 6.058601289987564087e-02 1.859465092420578003e-01
-2.528953924775123596e-02 -1.609057374298572540e-02 1.764765195548534393e-02
-8.835945278406143188e-02 -6.416839361190795898e-02 1.593297868967056274e-01
-7.964802533388137817e-02 -5.099350586533546448e-02 1.385818701237440109e-02
-1.454672962427139282e-01 -5.362005159258842468e-02 8.456113189458847046e-02
1.238293573260307312e-01 -4.190565086901187897e-03 -1.483314335346221924e-01
-5.697690322995185852e-02 1.294296532869338989e-01 8.925420790910720825e-02
-1.366222947835922241e-01 -1.411499083042144775e-01 1.153761744499206543e-01
-4.345455020666122437e-02 -6.027265638113021851e-02 9.816715866327285767e-02
6.907147355377674103e-03 -6.602364033460617065e-02 -9.077344089746475220e-02
1.669561713933944702e-01 -9.003277122974395752e-02 2.820797497406601906e-03
3.335554525256156921e-02 -9.439983405172824860e-03 -1.004057563841342926e-02
-4.682311043143272400e-02 -1.219515800476074219e-01 -7.022336125373840332e-02
-9.931422024965286255e-02 1.744986698031425476e-02 7.186293601989746094e-02
2.913821116089820862e-02 9.818723797798156738e-02 -5.205048993229866028e-02
2.665664441883563995e-02 -9.438549168407917023e-04 -1.312268059700727463e-02
4.296187683939933777e-02 -9.858454577624797821e-04 4.885964095592498779e-03
2.295785211026668549e-02 -6.511896383017301559e-03 5.217583850026130676e-02
-1.339035294950008392e-02 4.572826251387596130e-02 5.613415688276290894e-02
8.701315522193908691e-02 6.102259829640388489e-02 7.339221239089965820e-02
1.310884356498718262e-01 1.010396238416433334e-02 -3.515359759330749512e-02
-8.008532226085662842e-02 3.212492540478706360e-02 -5.032633617520332336e-02
6.616120785474777222e-02 -2.838182263076305389e-02 -5.686878692358732224e-03
1.256940793246030807e-02 -1.936479285359382629e-02 1.121419295668601990e-02
1.579565927386283875e-03 -5.085564032196998596e-02 4.890950396656990051e-02
-2.085057087242603302e-02 -6.161078438162803650e-02 1.283083227463066578e-03
1.048980280756950378e-01 1.554198097437620163e-02 1.151796150952577591e-02
-9.851939044892787933e-03 -2.839498966932296753e-02 -1.993414014577865601e-03
-9.781501255929470062e-03 6.667376146651804447e-05 8.313083648681640625e-02
-1.057810988277196884e-02 -6.030975375324487686e-03 3.714028745889663696e-02
-1.483522169291973114e-02 5.691360682249069214e-02 -9.778892993927001953e-02
-6.344965845346450806e-02 -4.818442277610301971e-03 1.950426143594086170e-03
-7.110447436571121216e-02 -5.245826393365859985e-02 -3.725367784500122070e-02
-1.742066070437431335e-02 -9.726893156766891479e-03 1.555425766855478287e-02
-3.517594188451766968e-02 1.203108020126819611e-02 3.791876882314682007e-02
-7.098470628261566162e-02 -6.500467192381620407e-03 6.593895703554153442e-02
-1.338071934878826141e-02 1.051745750010013580e-02 2.534997416660189629e-03
2.404327243566513062e-01 -6.941924337297677994e-03 -9.607974439859390259e-02
-1.888788118958473206e-02 -8.693153411149978638e-02 -3.822872880846261978e-03
6.353276968002319336e-02 5.742630362510681152e-02 6.696577370166778564e-02
2.488727308809757233e-02 7.494518160820007324e-02 4.644270986318588257e-02
-6.346674263477325439e-02 3.088818397372961044e-03 -4.828990623354911804e-02
8.222683519124984741e-02 -3.144583106040954590e-02 1.799671649932861328e-01
-6.789500266313552856e-02 -3.551594447344541550e-03 1.523841451853513718e-02
-7.201118022203445435e-02 -4.146280139684677124e-02 -6.437367200851440430e-02
-1.512236800044775009e-02 -5.638185143470764160e-02 -7.327841967344284058e-02
2.999273315072059631e-02 7.662655413150787354e-02 1.334417909383773804e-01
-6.738200038671493530e-02 -2.624656073749065399e-02 -1.160985976457595825e-01
-1.684582605957984924e-02 2.860953658819198608e-02 -1.658344827592372894e-02
2.874318975955247879e-03 -5.131334066390991211e-02 -1.128498930484056473e-03
4.758269339799880981e-02 5.661357194185256958e-03 -1.345695462077856064e-02
-5.077869072556495667e-02 -7.232750952243804932e-02 -1.111178696155548096e-01
2.246768772602081299e-02 1.194035708904266357e-01 2.314935065805912018e-02
-5.395757406949996948e-02 -1.936404034495353699e-02 -5.368712171912193298e-02
-3.184074908494949341e-02 9.916556999087333679e-03 -5.678646266460418701e-04
-1.983735896646976471e-02 2.837809175252914429e-02 -2.750970423221588135e-02
-6.242761388421058655e-02 -8.676829934120178223e-02 -9.375537931919097900e-02
-1.047519966959953308e-01 -1.090003252029418945e-01 -1.598474681377410889e-01
-6.527600437402725220e-02 -7.431445270776748657e-02 2.890231274068355560e-02
-8.354970254004001617e-03 1.484987232834100723e-02 -6.302045949269086123e-05
6.430882960557937622e-02 -3.296394273638725281e-02 -1.268748492002487183e-01
-6.119521334767341614e-02 9.187801624648272991e-04 3.742767125368118286e-02
-4.416555911302566528e-02 1.344153098762035370e-02 6.442926824092864990e-02
-1.868598312139511108e-01 -7.175956666469573975e-02 1.756157726049423218e-02
-6.314449012279510498e-02 4.615225829184055328e-03 -1.357396785169839859e-02
-1.811969280242919922e-02 -2.476754039525985718e-02 9.846619516611099243e-02
2.870287932455539703e-02 6.744770333170890808e-03 -7.316198199987411499e-02
-5.391343683004379272e-02 -1.467791572213172913e-02 -5.969100445508956909e-02
-5.256028473377227783e-02 -4.633808508515357971e-02 -5.253969877958297729e-02
-9.096408635377883911e-02 -4.498019441962242126e-02 -1.097339019179344177e-01
-4.938358906656503677e-03 -7.942616939544677734e-02 -1.924343034625053406e-02
-1.206569299101829529e-01 -8.652998507022857666e-02 -1.052603349089622498e-01
-1.825286820530891418e-02 7.987400144338607788e-02 3.772846981883049011e-02
-7.694885879755020142e-02 -1.565879210829734802e-02 8.688646554946899414e-02
6.958811730146408081e-02 -4.703379794955253601e-02 8.343009650707244873e-02
-2.107094740495085716e-03 2.234735339879989624e-02 -3.782349824905395508e-02
8.629231713712215424e-03 -7.161001116037368774e-02 -1.457288265228271484e-01
1.061164736747741699e-01 -2.887322567403316498e-02 5.697593465447425842e-02
-9.101043641567230225e-02 -2.190998941659927368e-02 2.513225376605987549e-02
-7.365597411990165710e-04 6.090282276272773743e-02 7.172319293022155762e-02
-2.296188659965991974e-02 4.949788376688957214e-02 9.382117539644241333e-02
1.616562157869338989e-02 6.017762422561645508e-02 -2.957161143422126770e-02
6.928187608718872070e-02 1.182714011520147324e-02 9.160435199737548828e-02
-4.131341353058815002e-03 1.191628724336624146e-01 2.932641506195068359e-01
1.455460637807846069e-01 -2.247906103730201721e-02 -4.772423580288887024e-02
9.864590317010879517e-02 -2.449389547109603882e-02 -2.617997489869594574e-02
1.518083214759826660e-01 -3.275915980339050293e-02 1.376355765387415886e-03
1.171214133501052856e-02 -1.736418902873992920e-02 -5.302529782056808472e-03
-2.966818399727344513e-02 -3.166693821549415588e-02 -1.158160343766212463e-01
-1.195170432329177856e-01 -7.857127487659454346e-02 -5.947006121277809143e-02
6.005455553531646729e-02 -3.802124876528978348e-03 -4.476443678140640259e-02
1.878643594682216644e-02 -2.672791853547096252e-02 -2.856866829097270966e-02
6.070423498749732971e-02 3.191091865301132202e-02 4.744936898350715637e-02
-2.601394802331924438e-02 2.210393920540809631e-02 -1.831803843379020691e-02
-1.018550768494606018e-01 5.136007070541381836e-02 1.340418308973312378e-01
-2.535776421427726746e-02 1.296862810850143433e-01 -2.198411710560321808e-02
-1.374973356723785400e-02 9.295948594808578491e-02 7.343921065330505371e-02
-4.682092741131782532e-02 6.317379325628280640e-02 5.720617249608039856e-02
-6.693059951066970825e-02 6.352644413709640503e-02 1.192134544253349304e-01
-1.378545016050338745e-01 -6.931697577238082886e-02 -3.165529808029532433e-03
-6.523443013429641724e-02 -3.675366193056106567e-02 -2.018820866942405701e-02
8.556976914405822754e-02 5.641416087746620178e-02 -7.578312605619430542e-02
-2.027360349893569946e-02 2.514705620706081390e-02 5.895867943763732910e-02
-3.125444799661636353e-02 -8.626608178019523621e-03 9.351406246423721313e-02
-9.689504653215408325e-02 -6.088109314441680908e-02 -7.375650107860565186e-02
3.111770749092102051e-02 1.695806905627250671e-02 -6.966286897659301758e-02
-4.616042133420705795e-03 -9.087657183408737183e-02 -1.629260182380676270e-01
-3.607975691556930542e-02 -5.640855990350246429e-03 6.100637093186378479e-02
-1.025745719671249390e-01 -7.982254773378372192e-02 -1.212841738015413284e-02
-2.433660672977566719e-03 -2.180929481983184814e-02 -7.546534389257431030e-02
-4.541098605841398239e-03 -1.108231302350759506e-02 2.250776812434196472e-02
3.462881222367286682e-02 -5.661526694893836975e-02 -7.224308699369430542e-02
-2.677657175809144974e-03 4.147598892450332642e-02 8.595819235779345036e-04
2.374405227601528168e-02 -1.168929878622293472e-02 -4.703190643340349197e-03
1.796439103782176971e-02 4.760181903839111328e-02 7.130495272576808929e-03
1.028404012322425842e-01 8.135017752647399902e-02 -2.401210181415081024e-02
-3.302735835313796997e-02 -1.131469681859016418e-01 -5.597689375281333923e-02
-4.447577521204948425e-02 3.968626633286476135e-02 6.130374222993850708e-02
-2.013137340545654297e-01 -6.825986504554748535e-02 2.250575423240661621e-01
7.121994160115718842e-03 9.464621543884277344e-03 5.716499290429055691e-04
-3.159108385443687439e-02 -2.145764417946338654e-02 -4.445654898881912231e-02
2.069935202598571777e-02 -3.073935024440288544e-02 -6.743162125349044800e-02
-9.246316552162170410e-02 2.902813255786895752e-02 -8.860415965318679810e-02
-1.336487382650375366e-02 1.692560501396656036e-02 -3.234185045585036278e-03
1.101219281554222107e-01 9.725803975015878677e-04 -6.308221071958541870e-02
-1.217298302799463272e-02 1.966439653187990189e-03 3.043851070106029510e-02
5.145103484392166138e-02 -4.449633136391639709e-02 -6.780950725078582764e-02
-6.937336176633834839e-02 -8.000365458428859711e-03 -2.675057202577590942e-02
6.429139524698257446e-02 -1.093696244060993195e-02 -5.811394751071929932e-02
5.270030815154314041e-03 2.588952193036675453e-03 -2.327917888760566711e-02
6.537402421236038208e-02 3.721546754240989685e-02 -4.327734187245368958e-02
2.194716408848762512e-02 -1.285700649023056030e-01 -1.471112817525863647e-01
-1.011822745203971863e-02 -4.871101304888725281e-02 -1.044660732150077820e-01
-2.172579020261764526e-01 1.328061148524284363e-02 2.117049098014831543e-01
-1.276131346821784973e-02 3.202963247895240784e-02 -2.059117518365383148e-02
6.435896456241607666e-02 -1.688395068049430847e-02 -2.404919452965259552e-02
8.451231569051742554e-02 -3.342571854591369629e-02 -8.971828967332839966e-02
-7.571419328451156616e-02 3.109142929315567017e-02 4.182540997862815857e-02
3.021575044840574265e-03 2.712979726493358612e-02 -4.203708842396736145e-02
-4.981411248445510864e-02 -2.089812420308589935e-02 7.319260388612747192e-02
3.054085420444607735e-03 3.708352521061897278e-02 6.557534635066986084e-02
-2.291545271873474121e-02 1.208441518247127533e-02 -1.510766595602035522e-01
-7.111819088459014893e-02 3.522489592432975769e-02 -4.090509936213493347e-02
-3.125691786408424377e-02 1.632591523230075836e-02 1.350645720958709717e-01
-7.345265895128250122e-02 1.119978576898574829e-01 1.257677972316741943e-01
2.188986912369728088e-02 -8.060500770807266235e-02 -2.040970027446746826e-01
-4.892455786466598511e-02 -3.792021423578262329e-02 2.381840487942099571e-03
3.699989244341850281e-02 1.288354098796844482e-01 1.191732659935951233e-01
-8.504010736942291260e-02 5.901390686631202698e-03 5.001523345708847046e-02
-7.130637299269437790e-03 -7.878583669662475586e-02 -3.946654871106147766e-02
1.889779865741729736e-01 -8.787629008293151855e-02 -7.781659066677093506e-02
-6.820768117904663086e-03 1.781836338341236115e-02 -4.187766835093498230e-02
-2.545107854530215263e-03 -7.780749350786209106e-02 -1.703079789876937866e-01
-1.095731928944587708e-02 -3.791163116693496704e-02 -7.741818577051162720e-02
-6.920789182186126709e-02 -6.298343837261199951e-02 -1.351426392793655396e-01
1.920812577009201050e-02 -6.901141256093978882e-03 9.015801362693309784e-03
-2.641608193516731262e-02 -2.298164740204811096e-02 7.357207685708999634e-02
2.139184251427650452e-02 2.564877085387706757e-02 1.518288347870111465e-02
-2.297264710068702698e-02 5.326749756932258606e-02 1.495474204421043396e-02
-1.683714240789413452e-01 -3.511554561555385590e-03 8.581151068210601807e-02
1.909591071307659149e-02 1.508749276399612427e-02 -5.257616564631462097e-02
-4.555409029126167297e-02 3.509840369224548340e-02 1.361139118671417236e-01
4.903302341699600220e-02 1.667159423232078552e-02 2.837341465055942535e-02
4.895454645156860352e-02 -4.172735661268234253e-02 -9.787309169769287109e-02
4.439084976911544800e-02 -9.591063484549522400e-03 -8.604990690946578979e-02
1.554199010133743286e-01 -6.548881530761718750e-02 -1.837487369775772095e-01
-3.604466840624809265e-02 -2.141397446393966675e-02 -7.316078245639801025e-02
1.444919854402542114e-01 6.145152822136878967e-02 5.938493181020021439e-03
7.586861401796340942e-02 3.011596016585826874e-02 5.526543408632278442e-02
-2.961737662553787231e-02 -1.249747257679700851e-02 -1.212248653173446655e-01
-9.187210351228713989e-02 -4.333187243901193142e-04 5.410152673721313477e-02
1.572256833314895630e-01 -2.903150161728262901e-04 -4.638739302754402161e-02
1.342427581548690796e-01 7.404196262359619141e-02 5.482729524374008179e-02
-7.713603228330612183e-02 6.163167580962181091e-02 -1.810599584132432938e-03
4.308531433343887329e-02 5.334801040589809418e-03 -9.130486100912094116e-02
-6.524511426687240601e-02 1.314786076545715332e-02 3.082283399999141693e-02
-1.758963242173194885e-02 -1.277574598789215088e-01 -1.505890041589736938e-01
-3.506265208125114441e-02 -2.008765190839767456e-02 -1.550303422845900059e-03
4.134727269411087036e-02 -5.199069529771804810e-02 -7.941433042287826538e-02
-1.334328353404998779e-01 -7.545115053653717041e-02 -3.987656533718109131e-02
-2.065925449132919312e-01 -6.667098402976989746e-02 4.389117285609245300e-02
-1.385569125413894653e-01 -3.818228840827941895e-03 1.397298872470855713e-01
-3.354716300964355469e-02 1.554677635431289673e-02 -3.657796978950500488e-02
1.587760075926780701e-02 -1.336658932268619537e-02 -2.356784977018833160e-02
-4.871377348899841309e-02 4.617051780223846436e-02 4.470429569482803345e-02
2.423575893044471741e-02 2.939958870410919189e-02 1.515228184871375561e-03
4.868518933653831482e-02 2.091133967041969299e-02 1.781137892976403236e-03
2.595517225563526154e-02 3.559984266757965088e-02 -1.364071294665336609e-02
8.032169193029403687e-02 3.791362047195434570e-02 -2.523797377943992615e-02
-4.609184339642524719e-02 -1.565168797969818115e-02 -1.039748545736074448e-02
3.568590804934501648e-02 -4.368930682539939880e-02 -9.385345131158828735e-02
9.671702980995178223e-02 5.141076073050498962e-02 -5.556362681090831757e-03
-5.605215579271316528e-02 -8.780083805322647095e-02 -1.335230469703674316e-01
-7.785656303167343140e-02 -2.330590970814228058e-02 -1.455367449671030045e-02
3.672057390213012695e-02 -6.223329156637191772e-02 -7.035822421312332153e-02
-1.127593368291854858e-01 -1.252809166908264160e-01 -1.062146946787834167e-01
2.524465322494506836e-02 -1.631651073694229126e-02 3.716004267334938049e-02
-5.573917180299758911e-02 4.181916359812021255e-03 1.431699842214584351e-02
6.347113288938999176e-03 -1.637686602771282196e-02 -4.949808865785598755e-02
-2.459390833973884583e-02 1.329482160508632660e-02 -8.064486831426620483e-02
-5.309614166617393494e-02 -1.229963526129722595e-01 -4.773798212409019470e-02
-2.768410369753837585e-02 7.062297314405441284e-02 9.482688456773757935e-02
6.480228900909423828e-02 -9.517356753349304199e-02 -2.045736275613307953e-02
1.053204061463475227e-03 -1.941623724997043610e-02 6.075229123234748840e-02
1.673914492130279541e-02 3.650464862585067749e-02 4.773033410310745239e-02
4.915237799286842346e-02 -4.694050643593072891e-03 -3.211939334869384766e-02
4.077119752764701843e-03 -6.169492751359939575e-02 4.490010812878608704e-02
6.511545926332473755e-02 -2.917902357876300812e-02 -1.979821734130382538e-02
2.095912583172321320e-02 -8.000405877828598022e-02 2.695957571268081665e-02
-3.008544445037841797e-02 -8.343769004568457603e-04 1.790460199117660522e-02
2.633230015635490417e-02 2.652323618531227112e-02 -8.843521773815155029e-02
-2.148371562361717224e-02 5.551729723811149597e-02 -9.630845161154866219e-04
6.743811070919036865e-02 -4.037851095199584961e-02 -1.760564148426055908e-01
9.444926679134368896e-02 1.921752095222473145e-02 -8.662090450525283813e-02
-5.370003730058670044e-02 -7.484736852347850800e-03 -1.730992086231708527e-02
-6.715842755511403084e-04 -8.355763740837574005e-03 6.255601532757282257e-03
-3.755383938550949097e-02 -2.284976840019226074e-02 -5.414177477359771729e-02
3.375800326466560364e-02 4.429544880986213684e-02 -5.799491330981254578e-02
3.596811741590499878e-02 6.701916456222534180e-02 4.736372455954551697e-02
-2.630730532109737396e-02 -3.021131828427314758e-02 2.215082384645938873e-02
4.498040676116943359e-02 6.122329831123352051e-02 -1.024507805705070496e-01
-3.383311443030834198e-03 4.776499234139919281e-03 -7.815875858068466187e-02
-2.098542079329490662e-02 -1.456836704164743423e-02 -5.164597928524017334e-02
4.695725440979003906e-02 1.902879588305950165e-02 8.376666158437728882e-02
6.996906362473964691e-03 7.464808877557516098e-03 7.435643672943115234e-02
1.480814814567565918e-02 3.276995569467544556e-02 5.326186120510101318e-02
1.827048510313034058e-02 -5.460441112518310547e-02 1.004510000348091125e-02
5.647601559758186340e-02 3.013798035681247711e-02 -2.160379290580749512e-02
-1.108461059629917145e-02 -5.157723557204008102e-03 5.794351175427436829e-02
1.706899330019950867e-02 -1.927911676466464996e-02 -4.542688280344009399e-02
-1.004014536738395691e-01 4.214308410882949829e-02 5.764755234122276306e-02
8.423194289207458496e-02 -7.534997537732124329e-03 -4.928795620799064636e-02
1.001437543891370296e-03 -5.379651859402656555e-02 -7.029585540294647217e-02
1.492254883050918579e-01 3.611177438870072365e-03 -1.486309021711349487e-01
3.816365450620651245e-02 -5.950064957141876221e-02 -1.073299944400787354e-01
-1.200021803379058838e-02 2.509254030883312225e-02 -3.824002668261528015e-02
3.548562526702880859e-02 4.426518827676773071e-02 -7.697407156229019165e-02
8.394801616668701172e-02 -3.095232695341110229e-02 -1.762937172316014767e-03
-2.548131160438060760e-02 -3.346518054604530334e-02 2.334908954799175262e-02
-6.441902369260787964e-04 1.411871239542961121e-02 4.631572589278221130e-02
-4.343721643090248108e-02 2.217152342200279236e-02 4.883845522999763489e-02
3.918088972568511963e-02 -4.732964187860488892e-02 -1.229978576302528381e-01
-1.369087025523185730e-02 -7.944414764642715454e-02 -1.060013100504875183e-01
7.083134353160858154e-02 3.362406045198440552e-02 -4.553536418825387955e-03
-6.753452867269515991e-02 -5.072465166449546814e-02 -1.945581287145614624e-02
-7.547608017921447754e-02 -6.987472064793109894e-03 1.287906430661678314e-02
2.970551326870918274e-02 -4.528133198618888855e-02 -8.297239989042282104e-02
2.165522426366806030e-02 -2.666310407221317291e-02 -1.625492423772811890e-02
3.331452980637550354e-02 -6.062167510390281677e-02 -9.923908859491348267e-02
-5.710310861468315125e-02 -5.928048864006996155e-02 -1.410384029150009155e-01
-4.020627215504646301e-02 1.327184122055768967e-02 -9.873212128877639771e-02
1.684809220023453236e-03 -1.350346393883228302e-02 -2.162488549947738647e-02
5.043160542845726013e-02 3.628151118755340576e-02 -1.750795543193817139e-01
-1.052134949713945389e-02 -4.440237954258918762e-02 -7.331904023885726929e-02
3.155548498034477234e-02 -4.984912276268005371e-02 -3.568598628044128418e-02
3.258412238210439682e-03 3.357701376080513000e-02 4.029047675430774689e-03
-7.090831547975540161e-02 -2.829667925834655762e-02 -8.173207193613052368e-02
5.000958219170570374e-02 6.882044672966003418e-02 5.310560110956430435e-03
-2.761519700288772583e-02 -4.103966429829597473e-02 1.489792764186859131e-02
2.241548709571361542e-02 3.496436774730682373e-02 -9.106372296810150146e-02
2.515843370929360390e-03 -5.305473506450653076e-02 -9.969836473464965820e-02
-7.865310646593570709e-03 5.070014670491218567e-02 7.389228790998458862e-02
-7.879203557968139648e-02 -7.664443552494049072e-02 -1.340648680925369263e-01
-1.013813987374305725e-01 1.595260575413703918e-02 -3.623172640800476074e-02
-6.036519631743431091e-02 7.744558900594711304e-02 3.990575205534696579e-03
-3.270526230335235596e-02 -1.631063967943191528e-02 -1.513187307864427567e-02
3.388080373406410217e-02 7.149610202759504318e-03 1.772891581058502197e-01
2.314628474414348602e-02 1.804828643798828125e-02 -3.559508174657821655e-02
-2.175739966332912445e-02 -2.488193847239017487e-02 1.072754263877868652e-01
-7.083454728126525879e-02 -1.004668325185775757e-01 3.390607237815856934e-02
3.330111131072044373e-02 1.271107420325279236e-02 2.279505692422389984e-02
2.293538069352507591e-03 2.193313650786876678e-02 7.001093775033950806e-02
2.178123965859413147e-02 2.898661419749259949e-02 -1.021407078951597214e-02
3.322592750191688538e-02 6.223585084080696106e-02 2.710691466927528381e-02
-1.508270855993032455e-02 1.961784251034259796e-02 1.802977547049522400e-02
1.363720893859863281e-01 1.096735820174217224e-01 3.896185383200645447e-02
-4.938386380672454834e-02 -3.757411614060401917e-02 -1.727068593027070165e-06
3.090418502688407898e-02 -2.459346689283847809e-02 -7.097777724266052246e-02
-7.302685827016830444e-02 2.070065401494503021e-02 -8.862779475748538971e-03
-5.973493680357933044e-03 -6.936297751963138580e-03 -3.073764499276876450e-03
-6.279416382312774658e-03 -3.911507315933704376e-03 -1.353413145989179611e-02
-9.836905635893344879e-03 7.883318699896335602e-03 5.778601020574569702e-02
-3.417813405394554138e-02 1.011790009215474129e-03 -3.817815706133842468e-02
2.045895718038082123e-02 3.189075738191604614e-02 4.835142195224761963e-02
6.007777899503707886e-02 7.612822577357292175e-03 -2.541718306019902229e-03
2.266268245875835419e-02 4.018354788422584534e-02 4.108763858675956726e-02
-8.249518275260925293e-02 2.139278315007686615e-02 7.968748360872268677e-02
1.233063042163848877e-01 4.857533052563667297e-02 1.147101894021034241e-01
-1.422701403498649597e-02 3.204335644841194153e-02 6.752002518624067307e-03
4.278558189980685711e-04 1.451874710619449615e-02 -3.780625993385910988e-03
3.806541115045547485e-02 7.000967115163803101e-02 6.921830028295516968e-02
4.443883150815963745e-02 1.088649220764636993e-02 -2.648879401385784149e-02
9.341507405042648315e-02 6.629188358783721924e-02 1.266647577285766602e-01
1.823251694440841675e-02 3.974599391222000122e-02 -2.014272660017013550e-02
1.173511967062950134e-01 1.137898117303848267e-01 9.345097094774246216e-02
1.243803650140762329e-01 2.948906645178794861e-02 1.014817878603935242e-02
-6.160323694348335266e-02 -6.354159861803054810e-02 1.133350562304258347e-02
-2.353990636765956879e-02 8.527217432856559753e-03 -8.823888376355171204e-03
-2.922835014760494232e-02 -1.559277921915054321e-01 -5.606157705187797546e-02
1.384349763393402100e-01 2.295519597828388214e-02 -1.201209872961044312e-01
1.751196384429931641e-01 5.467728152871131897e-02 -1.003035753965377808e-01
5.827031284570693970e-02 3.295616060495376587e-02 3.788071498274803162e-02
7.531994953751564026e-03 -3.988024964928627014e-02 -1.052731741219758987e-02
6.104579661041498184e-03 2.222573570907115936e-02 -2.979975659400224686e-03
-4.289017617702484131e-02 -5.378308147192001343e-02 -1.361325085163116455e-01
-5.198564380407333374e-02 -2.581826597452163696e-02 -8.719038963317871094e-02
-1.229783613234758377e-02 -2.239803411066532135e-02 3.438359871506690979e-02
-9.414695203304290771e-02 -8.360070735216140747e-02 -3.745872527360916138e-02
-3.934605047106742859e-02 -1.067120581865310669e-01 -9.705464355647563934e-03
9.930873662233352661e-02 -1.317661814391613007e-02 -1.852052100002765656e-02
8.933581411838531494e-03 -1.701755635440349579e-02 -4.688296467065811157e-02
2.288676239550113678e-02 1.926730200648307800e-02 -1.416658516973257065e-02
-9.354243427515029907e-02 -7.354056579060852528e-04 9.965515928342938423e-04
1.314010471105575562e-01 1.739754527807235718e-02 8.747854828834533691e-02
-3.741649538278579712e-02 -2.637847559526562691e-03 -2.942966297268867493e-02
-1.231024786829948425e-02 2.433904260396957397e-02 2.941963449120521545e-02
6.262138485908508301e-02 4.325437173247337341e-02 -3.045801073312759399e-02
5.935513973236083984e-02 3.434889018535614014e-02 -2.111909724771976471e-02
1.661127083934843540e-03 6.291261874139308929e-03 2.803388051688671112e-02
1.338541656732559204e-01 4.657187685370445251e-02 -4.927190020680427551e-02
-5.263524129986763000e-03 7.700399961322546005e-03 -3.084992244839668274e-02
-7.326323539018630981e-02 -6.515517085790634155e-02 -5.928828939795494080e-02
5.294140893965959549e-03 4.840568453073501587e-02 6.428859382867813110e-02
6.023044884204864502e-02 -1.554152555763721466e-02 8.653914928436279297e-02
-8.746217936277389526e-02 -4.203545674681663513e-02 -2.944295108318328857e-02
6.503648310899734497e-02 -6.989315617829561234e-03 1.310865134000778198e-01
3.239059820771217346e-02 3.638740628957748413e-02 9.037555754184722900e-02
-1.326831728219985962e-01 -1.145724654197692871e-01 5.232544615864753723e-02
-4.402964934706687927e-02 -4.020475223660469055e-02 5.008058995008468628e-02
9.413430839776992798e-02 1.962273567914962769e-02 -1.212889030575752258e-01
-1.152146756649017334e-01 -7.322984933853149414e-02 -1.177485510706901550e-01
-9.044207632541656494e-03 1.407391726970672607e-01 5.085104331374168396e-02
-1.578573435544967651e-01 -1.032318472862243652e-01 -5.463023856282234192e-02
7.167827337980270386e-02 5.726077035069465637e-02 1.603870838880538940e-02
5.543793551623821259e-03 -5.815598648041486740e-03 -4.524203762412071228e-02
-4.295738413929939270e-02 -9.797850623726844788e-03 4.474884644150733948e-02
5.990055855363607407e-03 4.782630875706672668e-02 1.230719909071922302e-01
-5.512560904026031494e-02 6.306885927915573120e-02 3.615435957908630371e-02
-1.914726383984088898e-02 1.686772704124450684e-02 3.328372538089752197e-02
-5.825611203908920288e-02 -4.083979874849319458e-03 8.017512410879135132e-02
1.246723160147666931e-01 -2.209853567183017731e-02 -1.620930247008800507e-02
-9.935472905635833740e-02 -1.849168390035629272e-01 -7.270944118499755859e-02
-4.299780353903770447e-02 4.801775328814983368e-03 9.051890112459659576e-03
-1.734492182731628418e-02 -1.490943040698766708e-02 -6.885489710839465261e-05
-1.885480135679244995e-01 -6.167572364211082458e-02 -1.068231314420700073e-01
1.246837452054023743e-01 -5.082876235246658325e-02 -7.251704484224319458e-02
2.222007326781749725e-02 3.305530548095703125e-02 -1.223612800240516663e-01
8.035777136683464050e-03 -1.735957711935043335e-02 2.257905900478363037e-02
-9.157503396272659302e-02 1.927268505096435547e-02 -3.808796405792236328e-02
4.277390614151954651e-02 1.816324703395366669e-02 -1.495013013482093811e-02
6.766286492347717285e-02 3.194173797965049744e-02 3.605594858527183533e-02
2.335589192807674408e-02 -2.313763462007045746e-02 5.430019274353981018e-02
-8.471705019474029541e-02 -4.253429826349020004e-03 9.448461234569549561e-03
-4.188470169901847839e-02 -2.107518166303634644e-02 7.742755115032196045e-02
-8.280510455369949341e-02 -1.277312338352203369e-01 -1.626945585012435913e-01
7.546941936016082764e-02 -5.625322088599205017e-02 -1.280682235956192017e-01
-1.126877665519714355e-01 -3.992291912436485291e-02 4.206342995166778564e-02
1.921354234218597412e-01 1.508010178804397583e-02 -1.041046828031539917e-01
-3.421127423644065857e-02 -3.607384487986564636e-02 -7.204994559288024902e-02
2.354806102812290192e-02 -2.348250336945056915e-02 6.885939836502075195e-02
5.940538272261619568e-02 -1.392870210111141205e-02 -1.438736449927091599e-02
5.280034244060516357e-02 -7.800912857055664062e-02 -7.344872504472732544e-02
-5.970784649252891541e-02 3.215640550479292870e-03 7.081123441457748413e-02
-8.791057765483856201e-02 -5.907013267278671265e-02 5.289889127016067505e-02
-2.026510611176490784e-02 -1.044446788728237152e-02 1.016626283526420593e-01
4.734857007861137390e-02 1.365139521658420563e-02 -1.295111030340194702e-01
1.861026734113693237e-01 -2.121164463460445404e-02 -1.090645715594291687e-01
-1.799082965590059757e-03 8.722664415836334229e-02 1.218350976705551147e-01
7.978322356939315796e-02 2.729559689760208130e-02 -2.295070327818393707e-02
-1.297767013311386108e-01 -6.527034938335418701e-02 -9.902451932430267334e-02
7.640475034713745117e-02 8.330174535512924194e-02 6.328663229942321777e-02
-3.985299542546272278e-02 2.603070810437202454e-03 -7.149670273065567017e-02
-5.426764488220214844e-02 -6.732933968305587769e-02 -4.244659841060638428e-02
-1.611490249633789062e-01 -4.488326609134674072e-02 -8.842654526233673096e-02
4.327817261219024658e-02 5.105881020426750183e-02 -1.063628569245338440e-01
-7.228607777506113052e-03 -3.509044880047440529e-03 8.946047164499759674e-03
-7.936077564954757690e-02 -9.255854040384292603e-02 -1.552740633487701416e-01
-4.623187333345413208e-02 -1.761124096810817719e-02 -9.547097235918045044e-02
-1.411363035440444946e-01 -1.823807209730148315e-01 -8.025036007165908813e-02
-1.059174165129661560e-02 2.259203605353832245e-02 -4.702672362327575684e-03
-1.454766988754272461e-01 -8.141222596168518066e-02 -3.759226202964782715e-02
7.825964130461215973e-03 -3.431485965847969055e-02 -1.215482503175735474e-01
3.695785626769065857e-02 7.835207134485244751e-02 -6.218547001481056213e-02
1.214221715927124023e-01 1.414232328534126282e-02 8.786036819219589233e-02
-6.428516656160354614e-02 -6.048405542969703674e-02 -4.568329825997352600e-02
2.980281226336956024e-02 1.164694279432296753e-01 1.732399016618728638e-01
-5.060562863945960999e-02 -5.864667892456054688e-02 -1.183820664882659912e-01
-1.196920201182365417e-01 -2.058889716863632202e-02 -9.614687412977218628e-03
-2.398425340652465820e-02 -6.543604284524917603e-02 -5.331570655107498169e-02
-9.277670085430145264e-02 1.763021349906921387e-01 8.076192438602447510e-02
-4.522314295172691345e-02 -1.015763506293296814e-01 -9.782104939222335815e-02
-4.143827408552169800e-02 -9.986310265958309174e-03 9.730415418744087219e-03
-8.934760838747024536e-02 4.645402729511260986e-02 1.530378963798284531e-02
-2.020875178277492523e-02 2.663678675889968872e-02 9.182514250278472900e-02
-4.632768034934997559e-02 1.285414695739746094e-01 -2.121475152671337128e-02
-1.294286251068115234e-01 -6.818952411413192749e-02 8.401404321193695068e-02
-1.921302676200866699e-01 -1.556251943111419678e-02 2.967096120119094849e-02
1.278906762599945068e-01 -5.684746801853179932e-02 4.902552440762519836e-02
-8.461633324623107910e-02 -1.014486998319625854e-01 -9.587826579809188843e-02
-3.886925801634788513e-02 3.511286526918411255e-02 3.726370632648468018e-02
-1.445611193776130676e-02 -5.226344615221023560e-02 -2.530112676322460175e-02
-3.671369701623916626e-02 -3.695428743958473206e-02 7.963715121150016785e-03
4.023269936442375183e-02 7.850570231676101685e-02 3.677041083574295044e-02
-1.409898512065410614e-02 3.249577805399894714e-02 4.352561384439468384e-02
2.303727529942989349e-02 -1.627817749977111816e-02 -6.095015630125999451e-02
4.602710530161857605e-02 3.905060887336730957e-02 4.203061759471893311e-02
-1.407218426465988159e-01 -1.134792249649763107e-02 1.003896519541740417e-01
-2.085227705538272858e-02 8.206539787352085114e-03 2.129129320383071899e-02
-8.079313486814498901e-02 -6.207939982414245605e-02 -1.884346455335617065e-02
1.342924591153860092e-02 -2.087669074535369873e-02 -6.234744563698768616e-03
-7.515678554773330688e-02 4.288642108440399170e-02 2.559947967529296875e-02
-2.394580747932195663e-03 -3.252418711781501770e-02 -2.236035652458667755e-02
7.438771426677703857e-02 -4.097915440797805786e-02 -2.600226923823356628e-02
-4.258247092366218567e-03 -3.617658093571662903e-02 -7.586060464382171631e-02
3.656080737709999084e-02 7.439623773097991943e-02 1.272292286157608032e-01
-3.654182329773902893e-02 1.089981850236654282e-02 4.887657705694437027e-03
5.439699068665504456e-02 -3.415125608444213867e-02 -3.106486797332763672e-02
-4.661323130130767822e-02 5.612683668732643127e-02 1.540859881788492203e-02
1.567528955638408661e-02 4.289429634809494019e-02 3.139999508857727051e-02
1.469275355339050293e-01 -3.535110736265778542e-03 -8.323273807764053345e-02
-2.517686598002910614e-02 -5.350701883435249329e-02 -3.092315606772899628e-02
-1.066557243466377258e-01 5.549265816807746887e-02 4.654261097311973572e-02
-8.953466266393661499e-02 1.216757111251354218e-02 3.023943677544593811e-02
5.640863254666328430e-02 3.506788198137655854e-05 1.112874597311019897e-03
1.607476361095905304e-02 2.686444669961929321e-02 4.057420790195465088e-02
-1.134575996547937393e-02 -1.122948713600635529e-02 5.983382090926170349e-02
-2.216421812772750854e-02 2.759860269725322723e-02 -8.598068729043006897e-03
-1.157923638820648193e-01 -7.902269065380096436e-02 -4.107841104269027710e-02
-2.273128181695938110e-02 -2.318202145397663116e-02 2.229754626750946045e-02
5.257963016629219055e-02 -1.200086716562509537e-02 4.953449126332998276e-03
-8.268200606107711792e-02 -8.470411598682403564e-02 -8.017101883888244629e-02
8.070539683103561401e-02 -3.101725690066814423e-02 -4.386629164218902588e-02
-2.344981022179126740e-02 -6.814952939748764038e-02 -9.400280565023422241e-02
-7.246921956539154053e-02 -1.319830715656280518e-01 -1.091049909591674805e-01
-3.226399794220924377e-02 -1.414371877908706665e-01 -2.029311656951904297e-01
-7.091016322374343872e-02 -1.030913069844245911e-01 -1.370276212692260742e-01
-3.070976957678794861e-02 4.208789207041263580e-03 -1.632899940013885498e-01
-1.275920541957020760e-03 -1.059183571487665176e-02 4.505426064133644104e-02
-2.630020081996917725e-01 -3.564545139670372009e-02 5.108712986111640930e-02
-3.011701442301273346e-02 -2.082295343279838562e-02 -9.896225295960903168e-03
-1.845178008079528809e-02 -4.268832877278327942e-02 -4.802824556827545166e-02
4.266109783202409744e-03 -4.161157086491584778e-02 2.209357358515262604e-02
9.930922091007232666e-02 1.663238927721977234e-02 -2.405724860727787018e-02
1.135072950273752213e-02 -3.064174950122833252e-02 1.085847616195678711e-02
1.796707510948181152e-02 2.740201540291309357e-02 3.838721662759780884e-02
-2.674919739365577698e-02 -5.571863427758216858e-02 -4.139545187354087830e-02
9.204861999023705721e-05 3.269958123564720154e-02 -4.343947395682334900e-03
-1.418055593967437744e-02 2.775373868644237518e-02 1.476472988724708557e-02
-1.740151084959506989e-02 -2.233664691448211670e-02 -3.004376962780952454e-02
-2.712785638868808746e-02 -5.059882625937461853e-02 -1.199544295668601990e-01
-3.575890138745307922e-02 -3.367725759744644165e-02 -2.552441507577896118e-02
-1.360052078962326050e-01 -1.447619795799255371e-01 -3.828274086117744446e-02
-1.240232586860656738e-02 -3.644576296210289001e-02 -3.427976043894886971e-03
3.924032673239707947e-02 8.504923433065414429e-02 2.404309809207916260e-02
-2.561436034739017487e-02 -5.877577140927314758e-02 -6.185312569141387939e-02
-1.477115601301193237e-01 -8.106853067874908447e-02 -4.347349703311920166e-02
-1.558182090520858765e-01 -1.240766718983650208e-01 -2.749161608517169952e-02
-5.863977968692779541e-02 -5.328839179128408432e-04 -7.525318861007690430e-02
-1.010738089680671692e-01 -3.846873342990875244e-02 -3.536794334650039673e-02
-7.554633170366287231e-02 -8.012386411428451538e-02 5.751632526516914368e-02
6.121876183897256851e-03 -8.580972440540790558e-03 1.269467920064926147e-01
5.754411965608596802e-02 6.108656991273164749e-03 1.453705877065658569e-01
2.511769533157348633e-02 -1.508264988660812378e-02 8.925762772560119629e-02