-1.373120862990617752e-02
2.260995842516422272e-02
6.575632840394973755e-02
3.014987148344516754e-02
-4.443159326910972595e-02
-3.838402405381202698e-02
6.623845081776380539e-03
-3.678426891565322876e-02
4.509318619966506958e-02
1.074706390500068665e-01
2.566812187433242798e-02
8.923028409481048584e-02
1.050014942884445190e-01
-7.239957898855209351e-02
-5.152558907866477966e-02
-8.536374568939208984e-02
-1.695797592401504517e-02
1.262346655130386353e-02
-6.531414389610290527e-02
5.710759013891220093e-02
-2.264093793928623199e-02
-1.011629849672317505e-01
-7.155012339353561401e-02
-4.425716400146484375e-02
-4.927571117877960205e-02
-4.343592375516891479e-02
-3.038937784731388092e-02
2.439169958233833313e-02
-9.249075502157211304e-02
8.366445079445838928e-03
4.634966328740119934e-02
1.301920711994171143e-01
2.252792716026306152e-01 -1.655295938253402710e-01 -6.176666542887687683e-02
-2.406549751758575439e-01 -1.722416281700134277e-02 1.490776240825653076e-01
1.033052206039428711e-01 -1.292607039213180542e-01 1.339462399482727051e-01
1.711924672126770020e-01 -2.254171222448348999e-01 1.099472865462303162e-01
-1.255331933498382568e-01 1.136289089918136597e-01 -1.413752287626266479e-01
-1.095919013023376465e-01 -5.739490501582622528e-03 1.722041168250143528e-03
-3.805646672844886780e-02 -2.257732748985290527e-01 1.872678846120834351e-01
1.236415505409240723e-01 -6.223646178841590881e-02 3.490247949957847595e-02
9.413517266511917114e-02 -8.382786810398101807e-02 -1.158451884984970093e-01
2.073585540056228638e-01 -2.897198796272277832e-01 1.667668968439102173e-01
1.914546936750411987e-01 1.127672046422958374e-01 -2.354256808757781982e-01
1.023771166801452637e-01 -1.177446395158767700e-01 -7.036010921001434326e-02
-1.619533449411392212e-01 -1.985112130641937256e-01 3.741459846496582031e-01
-9.027951955795288086e-02 3.433314338326454163e-02 -1.002152934670448303e-01
1.888839602470397949e-01 -1.360950171947479248e-01 -4.832552000880241394e-02
2.946740984916687012e-01 -4.345740973949432373e-01 1.314494460821151733e-01
-9.632780402898788452e-02 1.631068438291549683e-01 -3.791746217757463455e-03
1.499932911247014999e-02 1.387766897678375244e-01 -1.271544545888900757e-01
2.634514868259429932e-01 -4.323179721832275391e-01 1.647279411554336548e-01
2.548844218254089355e-01 -2.503047585487365723e-01 1.140579232014715672e-03
-4.805686697363853455e-02 1.383820325136184692e-01 -1.704287230968475342e-01
-3.522696793079376221e-01 4.145193696022033691e-01 -8.433305472135543823e-02
-6.182882562279701233e-02 6.252588331699371338e-02 6.171050667762756348e-02
1.762507259845733643e-01 -1.655650436878204346e-01 -7.075724005699157715e-02
2.746121585369110107e-01 -4.943183958530426025e-01 2.159992456436157227e-01
1.494630798697471619e-02 6.364279240369796753e-02 4.329189192503690720e-03
-7.763130124658346176e-03 -4.893790930509567261e-02 -1.434504170902073383e-03
2.634248733520507812e-01 -8.712516725063323975e-02 -1.590878218412399292e-01
-2.376751750707626343e-01 4.781256020069122314e-01 -2.640911936759948730e-01
-1.267486158758401871e-02 -1.110280901193618774e-01 8.177302032709121704e-02
3.317495062947273254e-02 -3.616245687007904053e-01 2.751954495906829834e-01
1.080110147595405579e-01 2.065490782260894775e-01 -3.257486522197723389e-01