2.115140557289123535e-01
1.059402823448181152e-01
-1.838315278291702271e-02
-1.691875979304313660e-02
1.303739696741104126e-01
-1.995239965617656708e-02
-8.805073797702789307e-03
-4.036461561918258667e-02
1.220363974571228027e-01
-4.991760849952697754e-02
-2.945163846015930176e-02
2.349601825699210167e-03
1.478483974933624268e-01
1.080698296427726746e-01
-1.068868953734636307e-02
1.875364929437637329e-01
-2.358802966773509979e-02
1.736366301774978638e-01
1.164261251688003540e-02
5.670725181698799133e-02
9.567191824316978455e-03
2.163487374782562256e-01
1.853550039231777191e-02
8.014685660600662231e-02
-2.476437017321586609e-02
-4.276385996490716934e-03
3.756919875741004944e-02
2.623828873038291931e-02
8.093819953501224518e-03
-4.488839954137802124e-02
1.763852238655090332e-01
-2.840462327003479004e-02
5.181851610541343689e-02 3.602154552936553955e-03 1.980247162282466888e-02 5.677932873368263245e-02
-4.729413986206054688e-02 -3.133409097790718079e-02 -1.864901371300220490e-02 -5.972694605588912964e-02
-2.411752380430698395e-02 -1.509369071573019028e-02 -6.077449023723602295e-02 -2.395009808242321014e-02
-3.844526037573814392e-02 -2.197376266121864319e-02 -1.886299625039100647e-02 3.757386235520243645e-03
-1.042812224477529526e-02 -2.137102931737899780e-02 3.765663504600524902e-02 2.738642133772373199e-02
-1.985434591770172119e-01 -1.430476605892181396e-01 -7.452506572008132935e-02 -2.097593992948532104e-02
2.160032466053962708e-02 1.906056329607963562e-02 2.881585434079170227e-02 8.175309747457504272e-02
1.015041396021842957e-01 4.824727028608322144e-02 8.322368562221527100e-02 1.023048982024192810e-01
9.450701624155044556e-02 5.730938538908958435e-02 3.606767207384109497e-02 7.560762763023376465e-02
5.272287875413894653e-02 1.044834312051534653e-02 1.204842329025268555e-02 1.617005094885826111e-02
3.066070936620235443e-02 6.091015785932540894e-02 8.445609360933303833e-02 1.507638692855834961e-01
-1.978303045034408569e-01 -1.472053527832031250e-01 -1.208333522081375122e-01 -1.127988323569297791e-01
3.226555883884429932e-02 5.182771384716033936e-02 5.276820808649063110e-02 4.885790497064590454e-02
-6.525415182113647461e-02 -6.774582713842391968e-02 -1.601537875831127167e-02 2.498027309775352478e-02
4.821028560400009155e-02 2.830932661890983582e-02 3.505058214068412781e-02 -1.264396309852600098e-02
8.638786524534225464e-02 4.056113213300704956e-02 5.623977631330490112e-02 4.544321075081825256e-02
-2.477919682860374451e-02 -4.620416089892387390e-02 -1.317009236663579941e-02 -5.791332200169563293e-02
-1.825475506484508514e-02 -3.070063143968582153e-02 1.952634193003177643e-02 3.723543137311935425e-02
-5.785992741584777832e-02 -1.223806478083133698e-02 -1.638229936361312866e-02 1.115555595606565475e-02
-1.169653385877609253e-01 -8.462007343769073486e-02 -7.100028544664382935e-02 -9.470286965370178223e-02
-6.512872129678726196e-02 -8.324669301509857178e-02 -1.045293733477592468e-01 -1.067631021142005920e-01
8.989382535219192505e-03 4.712056834250688553e-03 3.344423323869705200e-02 6.695405393838882446e-02
-9.679751098155975342e-02 -1.111948564648628235e-01 -5.067576467990875244e-02 -6.159057840704917908e-02
-8.453679084777832031e-02 -7.982090860605239868e-02 -3.400155901908874512e-02 -5.531462281942367554e-02
-1.819169893860816956e-02 -7.644950412213802338e-03 -5.533075332641601562e-02 -3.606516122817993164e-02
1.884365454316139221e-02 -6.596927996724843979e-03 -3.926781564950942993e-02 -1.294362824410200119e-02
-1.461948361247777939e-02 -1.879298314452171326e-02 -6.526173092424869537e-03 -2.692142128944396973e-02
2.494510263204574585e-03 -3.098534420132637024e-02 -6.258983165025711060e-02 -9.402512758970260620e-02
-6.171489879488945007e-02 -4.726335406303405762e-02 -5.429761484265327454e-02 -3.879892826080322266e-02
-4.715963453054428101e-02 4.453587345778942108e-03 4.627550020813941956e-02 7.726213335990905762e-02
1.462845876812934875e-02 1.553409267216920853e-02 1.874991692602634430e-02 4.725257679820060730e-02
4.224784299731254578e-02 1.717181690037250519e-02 -1.638836809433996677e-03 -1.078689750283956528e-02
-1.175745129585266113e-01 -6.728600710630416870e-02 -6.522483378648757935e-02 -7.842741906642913818e-02
-6.505705416202545166e-02 -4.018273577094078064e-02 -4.597974568605422974e-02 -6.977862119674682617e-02
-5.571295320987701416e-02 -7.972316443920135498e-02 -4.412934184074401855e-02 -4.038693010807037354e-02
-1.714822053909301758e-01 -1.291929483413696289e-01 -9.753467142581939697e-02 -1.684463620185852051e-01
-1.497050523757934570e-01 -1.696019172668457031e-01 -1.350343674421310425e-01 -1.336059272289276123e-01
-6.875739246606826782e-02 -7.852176576852798462e-02 -1.058875024318695068e-01 -1.329653561115264893e-01
-1.129342243075370789e-01 -3.664962202310562134e-02 -7.781096547842025757e-02 -1.456994116306304932e-01
-8.199491538107395172e-03 1.628401689231395721e-02 3.981908783316612244e-02 2.486991463229060173e-03
-4.619817063212394714e-02 -4.327981919050216675e-02 -6.183936074376106262e-02 -7.538971304893493652e-02
-1.769498437643051147e-01 -1.419348865747451782e-01 -8.472721278667449951e-02 -9.541151672601699829e-02
-6.921975314617156982e-02 -4.279205948114395142e-02 -2.724862843751907349e-02 -1.456545572727918625e-02
1.127277314662933350e-01 7.296813279390335083e-02 8.734855055809020996e-02 2.341057211160659790e-01
-9.635930508375167847e-02 -5.548442155122756958e-02 -7.975393533706665039e-02 -5.928281694650650024e-02
-2.261481434106826782e-01 -1.735655069351196289e-01 -1.279113590717315674e-01 -9.502214938402175903e-02
-7.738502323627471924e-02 -2.599880658090114594e-02 9.476526640355587006e-03 3.681661328300833702e-04
-5.449022725224494934e-02 -3.828262910246849060e-02 -6.101244315505027771e-02 -6.205896288156509399e-02
-5.399610102176666260e-02 -4.868291318416595459e-03 -3.088923543691635132e-02 -2.407253906130790710e-02
-1.364172399044036865e-01 -7.785288989543914795e-02 -7.734872400760650635e-02 -1.145215332508087158e-01
-1.212878525257110596e-01 -1.512413173913955688e-01 -1.145328357815742493e-01 -1.495935469865798950e-01
-9.853281080722808838e-02 -5.263096839189529419e-02 -5.016799271106719971e-02 -3.972121328115463257e-02
-7.406812906265258789e-02 -7.236416637897491455e-02 -2.450158819556236267e-02 -4.619386792182922363e-02
-1.057600751519203186e-01 -8.112053573131561279e-02 -9.840424358844757080e-02 -1.390756517648696899e-01
-5.523906648159027100e-02 -3.721360489726066589e-02 -2.784869261085987091e-02 -1.180869247764348984e-02
-8.371531963348388672e-02 -6.112880259752273560e-02 -3.393221646547317505e-02 -3.471811488270759583e-02
-9.180577099323272705e-02 -5.148371309041976929e-02 -7.321079075336456299e-02 -4.602592065930366516e-02
-1.219735518097877502e-01 -1.559149920940399170e-01 -1.782552599906921387e-01 -2.338780760765075684e-01
-4.328791797161102295e-02 -6.733304262161254883e-02 -2.636209316551685333e-02 -4.672978818416595459e-02
-3.807954490184783936e-02 -7.392400503158569336e-02 -2.535249106585979462e-02 -3.996009379625320435e-02
-3.203663975000381470e-02 -4.409706220030784607e-02 -3.810790553689002991e-02 -1.149360090494155884e-02
-1.204665824770927429e-01 -1.473213583230972290e-01 -1.566797494888305664e-01 -1.597746461629867554e-01
-2.124137580394744873e-01 -1.384429484605789185e-01 -7.457619160413742065e-02 -1.134659871459007263e-01
-1.309745609760284424e-01 -1.416061371564865112e-01 -1.073567494750022888e-01 -1.525889635086059570e-01
-8.738757669925689697e-02 -2.748643793165683746e-02 -5.438002571463584900e-02 -4.071031138300895691e-02
-3.665768075734376907e-03 -2.936216257512569427e-02 -1.445950195193290710e-02 -1.718628592789173126e-02
-1.449865475296974182e-02 -4.184027388691902161e-02 -9.355892427265644073e-03 -3.820897638797760010e-02
-6.476853042840957642e-02 -2.500558830797672272e-02 -2.942082285881042480e-02 -6.614427268505096436e-02
-3.677838668227195740e-02 -6.978929042816162109e-02 -4.926873371005058289e-02 -2.905973419547080994e-02
4.978632181882858276e-02 3.144153952598571777e-02 4.540704656392335892e-03 -4.590732976794242859e-02
-7.298218458890914917e-02 -4.817568138241767883e-02 -2.802659012377262115e-02 -4.527593776583671570e-02
-2.226462215185165405e-02 6.912766955792903900e-03 4.902838543057441711e-02 3.913583606481552124e-02
1.152716297656297684e-02 -1.210456993430852890e-02 -3.274540230631828308e-02 -6.768212188035249710e-03
-1.052041724324226379e-01 -7.853623479604721069e-02 -4.211958497762680054e-02 -8.788630366325378418e-02
-3.989636898040771484e-02 -2.732274308800697327e-02 -4.637547954916954041e-02 -3.540295362472534180e-02
-3.485072776675224304e-02 -4.898626729846000671e-02 1.440199930220842361e-02 2.816792577505111694e-02
-2.942325547337532043e-02 -2.304602414369583130e-02 -2.410957962274551392e-02 4.401155281811952591e-03
-6.799702998250722885e-03 7.459522690623998642e-03 -3.704584087245166302e-04 -1.402682857587933540e-03
-3.814128041267395020e-02 -2.962167747318744659e-02 1.225942187011241913e-02 2.788327634334564209e-02
-2.508370392024517059e-02 -3.898182511329650879e-02 -2.071098424494266510e-02 -1.394626032561063766e-02
1.686787046492099762e-02 -2.420300245285034180e-02 1.511017791926860809e-02 1.492722146213054657e-02
-1.905657723546028137e-02 -1.574877090752124786e-02 -2.077516913414001465e-02 -5.468871444463729858e-02
-4.171347990632057190e-02 -5.467156320810317993e-02 -6.839477270841598511e-02 -6.208220869302749634e-02
-2.413305453956127167e-02 -3.737157210707664490e-03 -2.477321960031986237e-02 -3.428130224347114563e-02
-3.134500235319137573e-02 -3.115560160949826241e-03 -2.938421443104743958e-02 7.447656826116144657e-04
-2.600136399269104004e-02 -3.617173805832862854e-02 -4.286481812596321106e-02 -6.589521467685699463e-02
3.201533691026270390e-04 -1.317908428609371185e-02 8.396131917834281921e-03 9.931174106895923615e-03
-2.739573828876018524e-04 -3.655158728361129761e-02 -2.943046949803829193e-02 2.279773727059364319e-02
-7.527401670813560486e-03 -4.323805868625640869e-02 -1.299238763749599457e-02 -2.311637066304683685e-02
-4.928210005164146423e-02 -4.233597591519355774e-02 -4.184219241142272949e-02 -5.961535125970840454e-02
-1.208090037107467651e-02 -3.771441057324409485e-02 -1.476763468235731125e-02 -3.704970329999923706e-02
-1.108866767026484013e-03 -3.682293742895126343e-02 -4.248382523655891418e-02 -2.556317113339900970e-02
-1.248536258935928345e-02 1.353696454316377640e-02 1.889701187610626221e-02 -7.380043622106313705e-03
-1.624815724790096283e-02 -6.281045079231262207e-02 -2.614600770175457001e-02 -7.553247362375259399e-02
-6.515703350305557251e-02 -5.344747006893157959e-02 -3.723739832639694214e-02 -2.719291858375072479e-02
-7.478108257055282593e-02 -5.566558241844177246e-02 -5.384733527898788452e-02 -5.783148482441902161e-02
-1.105034537613391876e-02 -1.875819265842437744e-02 -4.338012635707855225e-02 1.020253915339708328e-02
5.138603039085865021e-03 1.998463831841945648e-02 1.142867188900709152e-02 2.666117157787084579e-03
1.088619884103536606e-02 -1.238599792122840881e-02 -8.064166642725467682e-03 -1.324218697845935822e-02
-5.846506357192993164e-02 -4.277471080422401428e-02 -3.186842054128646851e-02 -1.811393909156322479e-02
-3.407508507370948792e-02 -1.971002295613288879e-02 -3.592981770634651184e-02 -1.157035864889621735e-02
-3.790206462144851685e-02 -6.764973513782024384e-03 -7.302585523575544357e-03 -4.984941706061363220e-02
-2.880717068910598755e-02 -2.561326511204242706e-02 -2.815744094550609589e-02 -2.445259131491184235e-02
-1.487734075635671616e-02 2.925516339018940926e-03 -5.394256673753261566e-03 5.376280099153518677e-02
7.287207525223493576e-03 2.534449659287929535e-02 -3.538100572768598795e-04 -1.702221855521202087e-02
-7.042455673217773438e-02 -4.937037453055381775e-02 -2.902315929532051086e-02 -2.690642327070236206e-02
-4.092617332935333252e-02 -2.621928229928016663e-02 6.045954301953315735e-03 -1.758985593914985657e-02
-4.374191164970397949e-02 -2.821439690887928009e-02 -1.248893141746520996e-02 -1.048706006258726120e-02
1.687351241707801819e-02 -1.330377068370580673e-02 -1.695725508034229279e-02 9.117698296904563904e-03
3.082920052111148834e-02 1.234061084687709808e-02 1.618168689310550690e-02 -2.424442395567893982e-02
-3.110763430595397949e-02 -3.107456304132938385e-02 -9.532696567475795746e-03 4.926003748551011086e-04
8.033495396375656128e-03 1.172808092087507248e-02 1.315766945481300354e-02 -1.019159890711307526e-02
3.403999377042055130e-03 3.047359175980091095e-03 -1.973377726972103119e-02 -9.528285823762416840e-03
6.522860378026962280e-03 -1.558656152337789536e-02 2.766578225418925285e-03 -4.364403337240219116e-02
-8.746048435568809509e-03 1.566251739859580994e-02 -1.901069469749927521e-02 -7.565933279693126678e-03
5.603625439107418060e-03 -1.600307412445545197e-02 2.413098327815532684e-02 7.272165734320878983e-03
-1.393291633576154709e-02 -2.108190394937992096e-02 -1.919717527925968170e-02 -6.319795269519090652e-03
3.362611867487430573e-03 -2.152527309954166412e-02 -3.110302239656448364e-02 -3.535199165344238281e-02
3.553888062015175819e-03 -1.632737740874290466e-02 -2.355403639376163483e-02 -1.569425128400325775e-02
-1.680462621152400970e-02 -2.337113767862319946e-02 2.396910451352596283e-02 6.327708251774311066e-03
1.853373460471630096e-02 2.042025141417980194e-02 -9.310201741755008698e-03 -1.789426244795322418e-02
-1.539749465882778168e-02 -3.651503100991249084e-02 -6.503982469439506531e-03 -4.292940720915794373e-02
-3.145498922094702721e-03 7.985887117683887482e-03 2.086419798433780670e-02 -1.638542860746383667e-02
-2.873513288795948029e-02 -2.548092603683471680e-02 -1.586094847880303860e-03 3.060421673581004143e-03
-2.373155951499938965e-02 -1.931083574891090393e-02 2.083585783839225769e-02 2.264915732666850090e-03
2.898389007896184921e-03 -1.441633235663175583e-02 -9.425345808267593384e-03 -3.823824971914291382e-02
-3.316544741392135620e-02 -4.357193538453429937e-04 -3.188417479395866394e-02 -2.900384552776813507e-02
-3.570231050252914429e-02 -3.559103608131408691e-02 3.637253772467374802e-03 -3.530228137969970703e-02
-2.054861560463905334e-02 -3.659375756978988647e-02 -3.597478941082954407e-02 -4.233992472290992737e-02
-1.823133602738380432e-02 -3.521766141057014465e-02 -2.430570498108863831e-02 -2.124124951660633087e-02
-1.352783199399709702e-02 -3.710307553410530090e-02 -2.943651191890239716e-02 -2.325155399739742279e-02
-7.050356268882751465e-02 -4.147285223007202148e-02 -3.450889885425567627e-02 -3.351980075240135193e-02
-4.600040242075920105e-02 -2.020031213760375977e-02 -8.776951581239700317e-03 -3.823948558419942856e-03
-7.831927388906478882e-02 -6.290129572153091431e-02 -5.381202697753906250e-02 -3.459013300016522408e-03
1.379984058439731598e-02 -2.300856076180934906e-02 -2.970102429389953613e-02 2.790371654555201530e-03
1.097840908914804459e-02 1.501611084677278996e-03 -1.487800106406211853e-02 -4.993275925517082214e-02
-7.751230895519256592e-02 -4.059612005949020386e-02 -3.084062598645687103e-02 -2.744988538324832916e-02
-7.256316021084785461e-03 7.428456563502550125e-03 -6.392622366547584534e-03 4.750716965645551682e-03
-5.705576390027999878e-03 -6.851469632238149643e-03 -2.458122558891773224e-02 2.758000791072845459e-02
9.065895527601242065e-02 6.900460273027420044e-02 9.015213698148727417e-02 1.265725642442703247e-01
-3.722089529037475586e-02 -1.739022508263587952e-02 -1.141220983117818832e-02 -1.797105185687541962e-02
3.225735947489738464e-02 -5.382868694141507149e-04 3.272286802530288696e-02 2.480258792638778687e-02
-6.761384196579456329e-03 -1.776083000004291534e-02 -2.972015365958213806e-02 1.112058386206626892e-02
-3.322853893041610718e-02 -1.949725858867168427e-02 -2.296775393187999725e-02 -4.451497271656990051e-02
-4.736468568444252014e-02 -3.701865300536155701e-02 -8.994762902148067951e-04 6.600366439670324326e-03
-5.440059304237365723e-02 -4.127971082925796509e-02 -4.677728284150362015e-03 -3.587424010038375854e-02
-4.347850009799003601e-02 -7.124873995780944824e-02 -6.279215216636657715e-02 -4.555672779679298401e-02
-1.961742714047431946e-02 -4.540319740772247314e-02 -3.773069381713867188e-02 -2.767683193087577820e-02
-4.934305697679519653e-02 -1.879617199301719666e-02 -6.469510030001401901e-03 -5.465102940797805786e-02
-5.073202773928642273e-02 2.803608542308211327e-03 -4.269612487405538559e-03 1.442119013518095016e-02
-6.728643923997879028e-02 -3.432738780975341797e-02 -4.902338981628417969e-02 -3.743827715516090393e-02
-4.385423287749290466e-02 -4.181642085313796997e-02 -2.529489435255527496e-02 -7.193663041107356548e-04
-4.906440153717994690e-02 -3.337095677852630615e-02 -5.034593120217323303e-02 -3.382005915045738220e-02
-1.909062382765114307e-03 8.085090667009353638e-03 -4.304343834519386292e-03 -5.598291009664535522e-02
-1.081523951143026352e-02 -3.055673465132713318e-02 -2.953028678894042969e-02 -4.705728590488433838e-02
-2.707043662667274475e-02 -1.826907508075237274e-02 -1.714442297816276550e-02 -3.594103083014488220e-02
-2.382022328674793243e-02 5.816808436065912247e-03 3.440678818151354790e-03 -3.468204289674758911e-03
-3.558208420872688293e-02 -6.039601936936378479e-02 -3.975279256701469421e-02 -5.799949634820222855e-03
-5.142145603895187378e-02 -3.800251707434654236e-02 -4.142382368445396423e-02 -1.550514437258243561e-02
-6.406583823263645172e-03 -1.884520240128040314e-02 -8.207860402762889862e-03 -6.765465438365936279e-02
-4.232148174196481705e-03 2.764759398996829987e-02 3.309612721204757690e-02 -7.338102441281080246e-03
7.461702916771173477e-03 -3.632341278716921806e-03 3.951096441596746445e-03 1.302609220147132874e-02
-2.422656491398811340e-02 1.134388800710439682e-02 -4.112094175070524216e-03 -2.042523771524429321e-02
9.832370094954967499e-03 -2.565152198076248169e-02 -2.202998474240303040e-02 7.099808659404516220e-03
1.026630494743585587e-02 2.630215696990489960e-02 -1.563000120222568512e-02 8.952327072620391846e-03
-2.349555864930152893e-02 -9.830892086029052734e-03 -4.521263390779495239e-02 -1.950418227352201939e-03
2.582290582358837128e-02 1.727289706468582153e-02 5.893833469599485397e-03 2.308269031345844269e-02
6.003253906965255737e-02 4.830070957541465759e-02 1.638235338032245636e-02 2.715306542813777924e-02
5.954214185476303101e-02 9.958483278751373291e-03 2.412309870123863220e-02 2.213896624743938446e-02
-2.389938011765480042e-02 -9.630511514842510223e-03 -8.857926353812217712e-03 -2.697223238646984100e-02
8.073955774307250977e-03 -8.066585287451744080e-03 3.122586198151111603e-02 7.120836526155471802e-03
-1.316470839083194733e-02 -3.700031340122222900e-02 -3.144174441695213318e-02 -3.828774392604827881e-02
-1.207799930125474930e-02 -8.291345089673995972e-03 -1.789318025112152100e-02 2.049139887094497681e-02
5.708549544215202332e-02 3.395400568842887878e-02 4.273005574941635132e-02 4.434953257441520691e-02
-8.187985047698020935e-03 1.898468472063541412e-02 2.668942324817180634e-02 4.584893584251403809e-03
7.287748623639345169e-03 1.355364546179771423e-02 5.915751680731773376e-03 -1.419692952185869217e-02
6.116247386671602726e-04 -1.294328831136226654e-02 -1.959753967821598053e-02 9.493222460150718689e-03
-1.361326966434717178e-02 2.148575382307171822e-03 -1.138622872531414032e-02 -1.981057599186897278e-02
-1.490485109388828278e-02 1.709184981882572174e-02 2.482873387634754181e-02 2.901250310242176056e-02
-2.253712899982929230e-02 -3.876834735274314880e-02 5.259185563772916794e-04 -3.018567338585853577e-02
-4.924851935356855392e-03 1.298481039702892303e-02 -2.728934958577156067e-02 6.352930213324725628e-04
-3.443078696727752686e-02 1.366412173956632614e-02 -1.137927453964948654e-02 -2.469888702034950256e-02
-2.159421518445014954e-02 -7.310107816010713577e-03 -1.906313374638557434e-02 -1.817112672142684460e-03
-2.523024939000606537e-02 1.425896398723125458e-02 2.201761305332183838e-02 1.723960624076426029e-03
1.810978539288043976e-02 1.065176445990800858e-02 -1.745531894266605377e-02 4.719083954114466906e-04
1.178283523768186569e-02 -2.176541090011596680e-02 9.109439328312873840e-03 -1.855680905282497406e-02
-2.102346718311309814e-02 1.120570953935384750e-02 -1.248399447649717331e-02 2.367413602769374847e-02
2.623184409458190203e-04 -3.175894962623715401e-03 -1.441630534827709198e-02 -1.827096566557884216e-02
-1.282802037894725800e-02 5.659909918904304504e-03 1.962144114077091217e-02 1.526705175638198853e-02
1.680149324238300323e-02 -1.344762742519378662e-02 2.691250294446945190e-02 2.868504635989665985e-02
6.206708494573831558e-03 -2.181635983288288116e-02 1.242174021899700165e-02 -2.808648720383644104e-02
8.967368863523006439e-03 2.120855497196316719e-03 6.360080558806657791e-03 -2.345855534076690674e-02
4.924437031149864197e-03 9.908170439302921295e-03 5.850794259458780289e-04 5.474584642797708511e-03
4.395987838506698608e-02 2.243765257298946381e-02 2.049885457381606102e-03 3.778828680515289307e-02
1.302972156554460526e-02 3.954094648361206055e-02 4.380808398127555847e-02 1.220771204680204391e-02
-1.953785680234432220e-02 -1.306887995451688766e-02 4.472590051591396332e-03 -1.596730016171932220e-02
6.068458408117294312e-02 7.875036448240280151e-03 1.171666197478771210e-02 3.168024122714996338e-02
-4.643337801098823547e-02 -2.113612368702888489e-02 -5.104384198784828186e-02 -5.992013216018676758e-02
-2.546441974118351936e-04 3.212433680891990662e-02 -6.266759708523750305e-03 1.769954338669776917e-02
9.332047775387763977e-03 3.283829195424914360e-03 -5.285371094942092896e-03 8.153617382049560547e-03
5.245383363217115402e-03 2.054778160527348518e-03 1.878935471177101135e-02 4.167706705629825592e-03
-1.935960724949836731e-02 -1.200618594884872437e-02 1.367178466171026230e-02 -5.403198767453432083e-03
1.600620150566101074e-02 2.924647741019725800e-02 2.353612892329692841e-02 -1.255102735012769699e-02
-1.315275486558675766e-02 4.558640066534280777e-03 -1.977630145847797394e-02 -3.353110700845718384e-02
-1.717207394540309906e-02 -5.102065391838550568e-03 -1.862690225243568420e-02 -2.475225552916526794e-02
2.230798639357089996e-02 1.814272999763488770e-02 6.452952511608600616e-03 -2.027336321771144867e-02
1.611692644655704498e-02 -9.980304166674613953e-03 -1.183686405420303345e-02 3.360760211944580078e-02
-3.045288287103176117e-02 1.115521881729364395e-02 1.308059692382812500e-02 -1.325332373380661011e-02
2.143154479563236237e-02 1.361002773046493530e-02 -5.291089881211519241e-03 2.771623432636260986e-02
6.092074513435363770e-02 2.064689248800277710e-02 1.031353976577520370e-02 4.355458542704582214e-02
4.703909531235694885e-02 4.007930308580398560e-02 1.644123531877994537e-02 3.546412661671638489e-02
1.292953733354806900e-02 1.678500697016716003e-02 2.706727944314479828e-02 1.445281319320201874e-02
3.156162053346633911e-02 3.496391698718070984e-02 2.019777707755565643e-02 4.863903671503067017e-02
2.606857195496559143e-02 1.112950034439563751e-02 -1.248396374285221100e-02 -4.866609815508127213e-03
4.791549593210220337e-02 4.374185577034950256e-02 1.668004877865314484e-02 1.654244586825370789e-02
7.051402330398559570e-02 3.246926516294479370e-02 2.619420550763607025e-02 3.575734049081802368e-02
3.398746624588966370e-02 2.615273557603359222e-02 2.557732723653316498e-02 2.761053293943405151e-02
-3.477041050791740417e-02 1.341396756470203400e-02 -1.556596159934997559e-02 2.650961838662624359e-02
1.732644811272621155e-02 2.542145177721977234e-02 2.460924349725246429e-02 4.719424992799758911e-02
3.968552220612764359e-03 -4.552162252366542816e-03 -4.046448972076177597e-03 2.090163715183734894e-02
4.726706817746162415e-02 2.859299816191196442e-02 4.929688200354576111e-02 6.106384564191102982e-03
4.724821448326110840e-02 3.940141201019287109e-02 8.668621070683002472e-03 9.700656868517398834e-03
-1.531057246029376984e-02 2.166348509490489960e-02 -1.109428890049457550e-02 -3.060168027877807617e-02
-2.261005155742168427e-02 2.284210734069347382e-02 3.983056638389825821e-03 -9.403112344443798065e-03
1.124874651432037354e-01 8.435557782649993896e-02 3.736210986971855164e-02 1.044756323099136353e-01
-1.727551408112049103e-02 -3.581573814153671265e-02 -2.612894587218761444e-02 -1.116027589887380600e-02
-1.323643722571432590e-03 -4.857107624411582947e-02 -4.568139836192131042e-02 -2.645415253937244415e-02
-8.547570556402206421e-02 -8.457256853580474854e-02 -7.088127732276916504e-02 -6.829231977462768555e-02
-3.311588242650032043e-02 -2.779338043183088303e-03 -9.422795847058296204e-03 -1.290540024638175964e-02
-2.011112123727798462e-01 -1.528846919536590576e-01 -1.315921843051910400e-01 -1.586375385522842407e-01
8.220386505126953125e-02 4.205652326345443726e-02 1.229895092546939850e-02 2.313195960596203804e-03
2.545845806598663330e-01 1.690822392702102661e-01 1.965598762035369873e-01 2.775744199752807617e-01
2.044889032840728760e-01 1.443254053592681885e-01 1.816262304782867432e-01 1.986159235239028931e-01
-3.366011381149291992e-02 -4.265757277607917786e-02 -1.170193124562501907e-02 -2.801998332142829895e-02
1.474145650863647461e-01 1.660283654928207397e-01 1.923243254423141479e-01 1.709291934967041016e-01
-1.055558249354362488e-01 -8.298680186271667480e-02 -1.013831719756126404e-01 -1.884093582630157471e-01
-2.168685168726369739e-04 1.758775673806667328e-02 5.155521631240844727e-02 5.642914772033691406e-02
1.223556324839591980e-01 1.346630901098251343e-01 1.228203997015953064e-01 1.958588510751724243e-01
1.155501231551170349e-01 8.770612627267837524e-02 8.556932210922241211e-02 8.713214099407196045e-02
1.014202088117599487e-01 5.686478316783905029e-02 6.599010527133941650e-02 1.284992992877960205e-01
-4.529940336942672729e-02 2.660189638845622540e-04 -4.187754914164543152e-02 -2.056831866502761841e-02
-3.287384659051895142e-02 -2.197567932307720184e-02 7.753087556920945644e-04 -1.864682137966156006e-02
-3.234482184052467346e-02 -4.096709191799163818e-02 -1.846019551157951355e-02 -5.115349590778350830e-02
-1.449093967676162720e-01 -1.276876926422119141e-01 -1.059605702757835388e-01 -1.032875850796699524e-01
-7.054445147514343262e-02 -6.667238473892211914e-02 -5.999126285314559937e-02 -4.807021841406822205e-02
-4.381213337182998657e-02 -2.858003973960876465e-02 -5.206619948148727417e-02 -9.567027539014816284e-02
-8.221873641014099121e-02 -8.484059572219848633e-02 -4.906806722283363342e-02 -8.078785985708236694e-02
-2.176978439092636108e-02 -3.386154770851135254e-02 -1.708986982703208923e-02 -1.626346819102764130e-02
-3.128907084465026855e-02 -2.262592315673828125e-02 -2.161817066371440887e-02 -5.153886601328849792e-02
-7.554619014263153076e-02 -8.116509765386581421e-02 -9.707662463188171387e-02 -8.849126100540161133e-02
-3.412696719169616699e-02 -2.463899925351142883e-02 -4.799624904990196228e-02 -2.607986144721508026e-02
-8.417974412441253662e-02 -5.625876784324645996e-02 -9.432549774646759033e-02 -7.319211214780807495e-02
-2.763133868575096130e-02 -4.436057060956954956e-02 -3.135643899440765381e-02 -3.059881180524826050e-02
-2.034403011202812195e-02 1.210794039070606232e-02 2.115751616656780243e-02 4.595826845616102219e-03
-4.508134152274578810e-04 5.074918270111083984e-03 8.528898470103740692e-03 -1.065810024738311768e-02
5.628022365272045135e-03 -5.835732817649841309e-02 -4.883733764290809631e-02 -5.444449558854103088e-02
-3.483567014336585999e-02 -1.083733607083559036e-02 -5.674693733453750610e-03 -4.654221236705780029e-02
-5.978348664939403534e-03 -4.325649887323379517e-02 -2.636512275785207748e-03 5.819789366796612740e-04
-5.056396871805191040e-02 -1.716313511133193970e-02 -5.332379788160324097e-02 -2.269496396183967590e-02
-2.171189151704311371e-02 -1.699820719659328461e-02 -4.119021445512771606e-02 -3.400291875004768372e-02
-6.244760006666183472e-02 -3.291363269090652466e-02 -2.646200358867645264e-02 -9.365486912429332733e-03
-6.111762300133705139e-02 -5.464220046997070312e-02 -4.929197579622268677e-02 -3.303423896431922913e-02
1.403900980949401855e-02 -1.670946367084980011e-02 3.161715576425194740e-03 -1.955477520823478699e-02
-2.433597296476364136e-02 7.103963755071163177e-03 5.014035850763320923e-03 -8.139614760875701904e-02
-7.742530852556228638e-02 -2.674939297139644623e-02 -3.076306357979774475e-02 3.228013869374990463e-03
-1.365573238581418991e-02 -2.078617922961711884e-02 -2.928489260375499725e-02 -1.584658212959766388e-02
4.827026277780532837e-03 1.091179903596639633e-02 -2.236370556056499481e-02 2.882828470319509506e-03
4.683998227119445801e-02 5.063648149371147156e-02 4.963075742125511169e-02 1.194546073675155640e-01
-9.202500805258750916e-03 -2.755394764244556427e-02 -5.067235790193080902e-03 -3.570524230599403381e-02
2.890216559171676636e-02 1.459721103310585022e-02 4.005002602934837341e-02 2.246475405991077423e-02
1.110873930156230927e-02 -6.336702033877372742e-03 -1.928990706801414490e-02 -1.567750610411167145e-02
-7.218938320875167847e-03 -7.940075360238552094e-03 -4.205578938126564026e-02 -1.477497443556785583e-02
-3.026513755321502686e-02 -3.821351006627082825e-02 -2.260549925267696381e-02 3.001829376444220543e-03
-1.561549771577119827e-02 -6.706265732645988464e-03 -3.839292377233505249e-02 -4.779316112399101257e-02
-4.216022416949272156e-02 -4.244481027126312256e-02 -5.848056823015213013e-02 -3.193202242255210876e-02
-1.062414888292551041e-02 -4.408188164234161377e-02 -3.763103112578392029e-02 -3.655048459768295288e-02
-2.082253992557525635e-02 -3.851377218961715698e-02 -7.971170816745143384e-06 -1.455099880695343018e-02
-4.462292417883872986e-02 -1.550462190061807632e-02 -2.671580389142036438e-02 2.425359003245830536e-02
-5.388836935162544250e-02 -5.464333295822143555e-02 -3.523628786206245422e-02 -1.597775332629680634e-02
-5.090239644050598145e-02 -6.595493759959936142e-03 -1.345163397490978241e-02 -1.959715783596038818e-02
-3.781572729349136353e-02 -3.160183131694793701e-02 -2.179997600615024567e-02 -1.966382935643196106e-02
-1.468258164823055267e-02 -7.462969049811363220e-03 -4.454478621482849121e-02 -3.214142099022865295e-02
-6.789704784750938416e-03 2.152656670659780502e-03 -1.497809495776891708e-02 -4.470491036772727966e-02
2.635330893099308014e-04 -2.453510835766792297e-02 -3.665681183338165283e-02 -6.271360325627028942e-04
4.188785795122385025e-03 -9.840696118772029877e-03 2.108571352437138557e-03 -3.952069208025932312e-02
-2.942862920463085175e-02 -6.557631492614746094e-02 -3.326535969972610474e-02 -4.399470612406730652e-02
-4.330658912658691406e-02 -5.473456159234046936e-02 -8.969116024672985077e-03 -6.641270592808723450e-03
-5.923239979892969131e-03 3.917436115443706512e-03 -3.960166499018669128e-02 -2.798734977841377258e-02
1.292657945305109024e-02 3.201922029256820679e-02 2.897649630904197693e-02 4.336915537714958191e-02
1.057455502450466156e-02 1.263435557484626770e-02 -2.099207229912281036e-02 1.217667479068040848e-02
-1.315929926931858063e-02 -4.749148618429899216e-03 -1.533752772957086563e-02 -6.318742409348487854e-03
-2.286245860159397125e-02 -4.435538873076438904e-02 -4.342695698142051697e-02 -5.449927225708961487e-02
1.849680207669734955e-02 -8.942739106714725494e-03 2.687899209558963776e-02 1.103600021451711655e-02
-4.552211984992027283e-02 -5.031256005167961121e-02 -6.155171617865562439e-02 -5.015081167221069336e-02
-6.346104666590690613e-03 -5.616547539830207825e-03 3.131849691271781921e-02 2.679700218141078949e-02
9.150781482458114624e-02 6.936276704072952271e-02 4.392930492758750916e-02 7.676729559898376465e-02
9.456001222133636475e-02 5.737308785319328308e-02 6.864956021308898926e-02 3.512680530548095703e-02
9.826725581660866737e-04 2.987818419933319092e-02 2.159494161605834961e-02 -2.083041518926620483e-02
7.586405426263809204e-02 5.792885273694992065e-02 8.333789557218551636e-02 9.939298778772354126e-02
-5.336293578147888184e-02 -6.796048581600189209e-02 -5.962260439991950989e-02 -6.862438470125198364e-02
4.697263240814208984e-02 4.448856040835380554e-02 1.546111702919006348e-02 2.874160930514335632e-02
-1.641920581459999084e-02 -5.028792098164558411e-02 -8.357065729796886444e-03 1.079126819968223572e-02
2.268499508500099182e-02 4.349337145686149597e-02 1.801515929400920868e-02 3.174794837832450867e-02
1.087041758000850677e-02 4.684856906533241272e-02 1.449133083224296570e-02 7.825131528079509735e-03
1.984509639441967010e-02 9.741113521158695221e-03 -2.297924645245075226e-02 1.398628018796443939e-02
-1.566958799958229065e-02 -1.593225635588169098e-02 1.758355647325515747e-02 2.067171270027756691e-03
-3.875802457332611084e-02 -2.155061997473239899e-02 -3.570847911760210991e-03 -4.494544118642807007e-03
-1.145251095294952393e-02 -5.376948043704032898e-02 -3.636720404028892517e-02 -7.574461400508880615e-03
-3.671777620911598206e-02 -7.234672084450721741e-03 -5.471332743763923645e-02 -5.928706377744674683e-02
1.562515832483768463e-02 -3.204722190275788307e-03 3.162984177470207214e-02 5.378908943384885788e-03
-2.338872477412223816e-02 1.332814898341894150e-02 4.746757913380861282e-03 9.194291487801820040e-05
9.511200478300452232e-04 -1.553695090115070343e-02 -3.065075958147644997e-03 8.578214794397354126e-03
-4.358238540589809418e-03 -2.051015384495258331e-02 -9.073078632354736328e-03 -2.069057710468769073e-02
5.796395242214202881e-03 -2.857045829296112061e-02 -3.777218610048294067e-02 -3.219053149223327637e-02
-3.209410002455115318e-03 -2.516969293355941772e-02 -4.857254680246114731e-03 1.593093760311603546e-02
-9.353705681860446930e-03 -2.969668433070182800e-02 -8.571784012019634247e-03 -2.417118847370147705e-02
-2.948082610964775085e-02 1.448855036869645119e-03 -2.647838555276393890e-02 -3.750217705965042114e-02
-1.724866800941526890e-03 -8.196449838578701019e-03 1.067445054650306702e-02 3.569075465202331543e-02
3.242118284106254578e-02 2.464683167636394501e-02 -6.077697966247797012e-03 1.810092246159911156e-03
2.305874601006507874e-02 8.044821210205554962e-03 1.912003196775913239e-02 -2.739394083619117737e-02
2.147912420332431793e-02 4.482494667172431946e-02 1.784506998956203461e-02 6.978388875722885132e-02
8.429175242781639099e-03 2.690645866096019745e-03 -1.596419140696525574e-02 -5.744351539760828018e-03
1.691735535860061646e-02 -2.429816313087940216e-02 -3.569472208619117737e-02 7.508439943194389343e-03
-4.697382450103759766e-02 -2.166482433676719666e-02 -3.190255165100097656e-02 -3.037819080054759979e-02
-5.406026502896565944e-06 5.664330907166004181e-03 1.004326250404119492e-02 4.826289787888526917e-02
-1.432623863220214844e-01 -9.940373897552490234e-02 -1.013198122382164001e-01 -8.088538795709609985e-02
2.879078686237335205e-02 -2.191307581961154938e-02 -2.378012612462043762e-02 -6.803865544497966766e-03
1.050641685724258423e-01 7.203726470470428467e-02 1.086662337183952332e-01 8.831270039081573486e-02
9.853576868772506714e-02 5.433409661054611206e-02 6.898175925016403198e-02 6.174947321414947510e-02
4.164895042777061462e-02 1.124870404601097107e-02 2.321844920516014099e-02 1.069416385143995285e-02
9.071204811334609985e-02 9.580203890800476074e-02 5.854705348610877991e-02 1.054267510771751404e-01
-5.305241420865058899e-02 -8.679708093404769897e-02 -9.783189743757247925e-02 -1.180943623185157776e-01
1.972650736570358276e-02 7.220470812171697617e-03 2.220997773110866547e-02 2.185343205928802490e-02
3.527296939864754677e-04 -1.069185696542263031e-02 2.160754613578319550e-02 1.490216888487339020e-02
7.856678217649459839e-02 6.901426613330841064e-02 4.892055690288543701e-02 1.499705854803323746e-02
3.480619192123413086e-02 2.755780518054962158e-02 4.190139845013618469e-02 3.952076286077499390e-02
-7.863068021833896637e-03 -2.607970125973224640e-02 1.717374473810195923e-02 -1.717958971858024597e-02
-2.067811321467161179e-03 2.385533787310123444e-02 4.230583459138870239e-02 4.705170914530754089e-02
-3.503413125872612000e-02 -6.865621544420719147e-03 1.320049446076154709e-02 1.929165050387382507e-02
-6.709984689950942993e-02 -4.682481661438941956e-02 -2.974019572138786316e-02 -3.518384695053100586e-02
-5.014643445611000061e-02 -4.142665863037109375e-02 -5.157598480582237244e-02 -2.180590480566024780e-02
-5.791629105806350708e-02 -7.962768897414207458e-03 -6.483958102762699127e-03 -2.320244163274765015e-02
-4.215076193213462830e-02 -3.443584591150283813e-02 -1.439502369612455368e-02 -2.097518369555473328e-02
-1.900298520922660828e-02 -3.762537613511085510e-02 -2.011811919510364532e-02 3.993678838014602661e-03
1.842514425516128540e-02 1.782250776886940002e-02 -2.442339062690734863e-02 -2.001421153545379639e-02
-6.591967772692441940e-03 -1.980561390519142151e-02 -1.586764119565486908e-02 -3.351165214553475380e-03
-7.062021177262067795e-03 1.572172157466411591e-02 -1.001646742224693298e-02 -1.955960504710674286e-02
-6.205710233189165592e-04 -4.505264014005661011e-02 -1.329700369387865067e-02 -5.156833305954933167e-02
-1.679033413529396057e-02 -3.663016483187675476e-02 7.072070613503456116e-03 -2.673323499038815498e-03
-4.276289418339729309e-02 -1.041259989142417908e-02 3.762281849049031734e-04 4.107781499624252319e-02
2.205424383282661438e-02 -2.202617563307285309e-02 1.666778139770030975e-02 1.361773815006017685e-02
7.066158205270767212e-02 5.135881528258323669e-02 2.278811484575271606e-02 -2.572358027100563049e-02
-1.277493033558130264e-02 -1.787067204713821411e-02 -2.443652227520942688e-02 4.839224857278168201e-04
6.924462039023637772e-03 1.524873171001672745e-02 -8.607894182205200195e-03 -8.518737740814685822e-03
3.894964233040809631e-03 2.978537464514374733e-03 9.649327024817466736e-03 1.315406523644924164e-02
4.287135601043701172e-02 2.120807068422436714e-03 2.002937160432338715e-02 -2.334323897957801819e-02
-2.373533323407173157e-02 -6.415957119315862656e-03 3.039506031200289726e-03 1.114625763148069382e-02
2.727218531072139740e-02 -6.766689475625753403e-03 -3.573062596842646599e-03 -8.012974634766578674e-03
-1.304223109036684036e-02 -4.526150226593017578e-02 1.007917523384094238e-02 3.716130927205085754e-02
3.884882200509309769e-03 -1.159371994435787201e-02 -1.805633865296840668e-02 -2.058910764753818512e-02
3.533833101391792297e-02 2.616091445088386536e-02 7.229532115161418915e-03 -6.877643521875143051e-03
4.129607602953910828e-02 3.972852975130081177e-02 1.048273500055074692e-02 -2.279702387750148773e-02
-2.988527528941631317e-02 -3.900790354236960411e-03 2.573003992438316345e-03 4.990172106772661209e-03
-3.935055434703826904e-02 4.619788378477096558e-03 2.590207755565643311e-02 5.388393253087997437e-02
3.722117980942130089e-03 7.942533120512962341e-03 2.744264900684356689e-02 3.141116350889205933e-03
-5.554928444325923920e-03 -1.901585981249809265e-02 -7.519400678575038910e-04 1.027174014598131180e-02
2.401307923719286919e-03 -1.346440706402063370e-02 -2.048893831670284271e-02 -4.175365716218948364e-02
3.335254639387130737e-02 2.322356216609477997e-02 -7.849236018955707550e-03 -2.998297661542892456e-02
3.081378526985645294e-02 1.047626975923776627e-02 -3.695938794407993555e-04 8.011762984097003937e-03
2.224735729396343231e-02 -1.815144717693328857e-02 8.522870019078254700e-03 -3.710261546075344086e-03
8.888985030353069305e-03 -2.205494046211242676e-02 -2.026951988227665424e-04 1.741129718720912933e-02
3.678610548377037048e-02 3.927758708596229553e-02 4.443704150617122650e-03 2.758427988737821579e-03
3.072280809283256531e-02 1.836019940674304962e-02 1.550478581339120865e-02 2.431112155318260193e-02
2.238252945244312286e-02 3.273104503750801086e-02 6.956728175282478333e-03 4.299141094088554382e-02
-9.872986003756523132e-03 1.715071126818656921e-02 1.706192456185817719e-02 -1.187237165868282318e-02
2.443867549300193787e-02 -1.126317190937697887e-03 -8.390795439481735229e-03 2.323733642697334290e-02
2.006916888058185577e-02 1.852912269532680511e-02 1.411379897035658360e-03 -1.895760558545589447e-02
4.328317567706108093e-02 1.878438144922256470e-02 -6.548076402395963669e-03 -1.637229509651660919e-02
-1.170235872268676758e-02 3.665309341158717871e-04 3.208422288298606873e-02 -1.773171313107013702e-02
9.774900041520595551e-03 3.363256156444549561e-02 -1.533987466245889664e-02 -1.830884814262390137e-02
1.353046111762523651e-02 2.693893946707248688e-02 2.125991880893707275e-02 -2.468292415142059326e-02
-1.572826062329113483e-03 1.673357933759689331e-02 1.966908387839794159e-02 2.054938487708568573e-02
-2.323052845895290375e-02 1.531639602035284042e-02 1.160115748643875122e-02 3.856848552823066711e-02
3.662732988595962524e-02 1.502306945621967316e-02 4.962065257132053375e-03 -1.101186964660882950e-02
7.506493479013442993e-03 -1.862818561494350433e-02 2.281607128679752350e-02 4.430555552244186401e-02
8.851534686982631683e-03 -3.664278611540794373e-02 -4.398075863718986511e-02 -1.036753598600625992e-02
-2.929690480232238770e-02 -1.344723347574472427e-02 -2.770419232547283173e-02 -5.522045120596885681e-02
8.621578104794025421e-03 1.096181478351354599e-02 3.662868589162826538e-02 4.695652052760124207e-02
5.446134135127067566e-03 -2.890212647616863251e-02 -1.191247440874576569e-02 1.060008723288774490e-02
-4.205724224448204041e-02 -4.817264527082443237e-02 -2.363078296184539795e-02 -8.380811661481857300e-03
-1.424331683665513992e-02 -1.044639572501182556e-02 4.019000381231307983e-02 7.015606015920639038e-02
1.772749982774257660e-02 2.182969264686107635e-02 2.875781059265136719e-02 5.261887609958648682e-02
5.051994696259498596e-02 1.842625066637992859e-02 1.402283902280032635e-03 1.175670512020587921e-02
4.264827072620391846e-02 2.756482362747192383e-02 2.331391908228397369e-02 3.009171038866043091e-02
3.167894203215837479e-03 2.863832283765077591e-03 5.890155956149101257e-02 5.767358466982841492e-02
-1.190283372998237610e-01 -8.955991268157958984e-02 -3.257108479738235474e-02 -4.548745974898338318e-02
3.367559611797332764e-02 4.757380113005638123e-02 4.817656427621841431e-02 3.684733062982559204e-02
-1.765679754316806793e-02 -1.245267875492572784e-02 -2.115913294255733490e-02 2.516687847673892975e-02
5.882421042770147324e-03 6.019108463078737259e-03 1.894776336848735809e-02 7.501717656850814819e-03
2.506307326257228851e-02 1.341415848582983017e-02 4.723314568400382996e-02 3.465328365564346313e-02
3.276520641520619392e-03 -4.000974446535110474e-02 2.112001646310091019e-03 1.894295564852654934e-03
6.897754501551389694e-04 -5.854094051755964756e-04 3.249367326498031616e-02 -8.380046114325523376e-03
-4.738485813140869141e-02 -1.178388204425573349e-02 -3.117329254746437073e-02 -2.653940953314304352e-02
-1.414703950285911560e-02 -9.506500326097011566e-03 1.359090674668550491e-02 -1.259859837591648102e-02
-1.884284242987632751e-02 -1.026407349854707718e-02 -3.760906308889389038e-02 -4.017396643757820129e-02
-4.761978983879089355e-03 1.091270335018634796e-02 1.755800284445285797e-02 4.257828742265701294e-02
-6.973976641893386841e-02 -3.859168291091918945e-02 -4.947348311543464661e-02 -6.941903848201036453e-03
-3.058751299977302551e-02 -7.739069871604442596e-03 -1.062731631100177765e-02 -1.576226018369197845e-02
-1.529928110539913177e-02 -2.857499010860919952e-02 6.925627589225769043e-03 -1.638553850352764130e-02
3.414078429341316223e-02 -1.500071771442890167e-02 -1.133903209120035172e-02 -2.383389510214328766e-02
-1.473260577768087387e-02 4.419277887791395187e-03 -5.458119558170437813e-04 -3.303414955735206604e-02
1.356630492955446243e-02 -2.899822406470775604e-02 -3.694976866245269775e-02 -3.029646538197994232e-02
-2.247631200589239597e-04 -4.695291444659233093e-02 -2.100417762994766235e-02 -2.177570946514606476e-02
-2.410130808129906654e-03 5.556276068091392517e-03 1.355586573481559753e-02 3.695005550980567932e-02
3.573887795209884644e-02 1.978516578674316406e-02 7.135721389204263687e-03 1.826939731836318970e-02
1.285767211811617017e-04 1.028614956885576248e-02 1.977890264242887497e-03 2.023794688284397125e-03
-2.167070470750331879e-02 -2.662396430969238281e-02 -1.082183700054883957e-02 -2.400006353855133057e-02
1.190101960673928261e-03 -1.870656758546829224e-02 -1.845208182930946350e-02 -1.783500425517559052e-02
-9.562375955283641815e-03 2.210479928180575371e-03 -4.268656298518180847e-02 -3.437625616788864136e-02
-3.640817850828170776e-02 -7.213518489152193069e-03 -1.722351089119911194e-02 -4.093012958765029907e-02
-2.148372679948806763e-02 -5.006348714232444763e-02 -2.128889597952365875e-02 -3.111226297914981842e-02
-4.810832068324089050e-02 -2.401585876941680908e-02 -6.072340160608291626e-02 -3.086996637284755707e-02
5.929322913289070129e-03 -7.013165857642889023e-03 -4.636030178517103195e-03 -5.471908953040838242e-03
1.713077165186405182e-02 -1.855474337935447693e-02 4.613584838807582855e-03 -6.587014347314834595e-02
-6.652330607175827026e-02 -3.852911293506622314e-02 9.310350753366947174e-03 9.563355706632137299e-03
-1.393151096999645233e-02 -2.360366471111774445e-02 -1.981561072170734406e-02 -1.616602204740047455e-02
6.198076531291007996e-03 5.125939380377531052e-03 4.754739813506603241e-03 -9.975657798349857330e-03
6.403387337923049927e-02 3.562486916780471802e-02 1.296643912792205811e-02 9.591193497180938721e-02
-3.337749093770980835e-02 6.712796632200479507e-03 -3.639565780758857727e-02 -1.198067236691713333e-02
3.184896707534790039e-02 1.501705590635538101e-02 9.128650650382041931e-03 2.697076462209224701e-02
-2.370830439031124115e-02 -3.326083533465862274e-03 6.203326862305402756e-03 -3.506591543555259705e-02
-1.377006061375141144e-02 -1.554124709218740463e-02 -3.295246139168739319e-02 -4.418114945292472839e-02
-3.065525926649570465e-02 -1.744460314512252808e-02 1.259977463632822037e-02 -7.554240524768829346e-03
-3.646168112754821777e-02 -4.742863029241561890e-02 -1.447237189859151840e-02 -1.991532929241657257e-02
-4.452969506382942200e-02 -4.949192982167005539e-03 -7.649096194654703140e-03 -1.829169876873493195e-02
-1.956973597407341003e-02 -9.729765355587005615e-03 -1.751113124191761017e-02 -3.100395388901233673e-02
-2.126029506325721741e-02 -1.880857348442077637e-02 -1.476259529590606689e-02 -2.784153074026107788e-02
-4.919796064496040344e-02 -1.104802265763282776e-02 -9.243812528438866138e-04 -1.370964571833610535e-03
-2.771805785596370697e-02 -4.797440394759178162e-02 -3.141069412231445312e-02 -3.758744150400161743e-02
-4.606825113296508789e-02 1.182707212865352631e-02 -2.887746086344122887e-03 9.609137661755084991e-03
-3.747755289077758789e-02 -1.710431277751922607e-02 -2.146075665950775146e-02 -4.363115504384040833e-02
-3.891757875680923462e-02 7.259097415953874588e-03 -3.645287454128265381e-02 -3.485696017742156982e-02
-1.776596531271934509e-02 -1.958796568214893341e-02 -2.617590129375457764e-02 -2.819818072021007538e-02
7.013876922428607941e-03 -2.526033855974674225e-02 -1.149211823940277100e-02 1.805105060338973999e-02
-1.141976378858089447e-02 -6.182159297168254852e-03 -4.168878495693206787e-02 -1.265926193445920944e-02
-5.042030662298202515e-02 -3.788648173213005066e-02 -2.905131503939628601e-02 -2.006263285875320435e-02
-5.576993152499198914e-02 -5.156090483069419861e-04 -3.907616063952445984e-02 -1.150514651089906693e-02
-2.267465367913246155e-02 1.625720970332622528e-02 -1.456463057547807693e-02 -3.516485169529914856e-02
-6.665532477200031281e-03 -2.071221359074115753e-02 -2.120843902230262756e-02 -1.197765115648508072e-03
3.847503662109375000e-02 7.010652218014001846e-03 1.913117989897727966e-02 1.027732528746128082e-02
4.993167892098426819e-02 3.263780847191810608e-02 3.909140825271606445e-02 3.073605895042419434e-02
-3.144495189189910889e-02 -2.849506027996540070e-02 -5.833964096382260323e-04 -4.523076582700014114e-03
4.663336649537086487e-02 9.335178881883621216e-03 2.469132095575332642e-02 1.818953268229961395e-02
-3.763573616743087769e-02 -5.025589093565940857e-02 -2.612791024148464203e-02 -7.287114113569259644e-02
-9.848040528595447540e-03 3.992996737360954285e-02 -1.845883578062057495e-02 -1.470643561333417892e-02
3.514995565637946129e-03 7.290726993232965469e-03 -1.646782830357551575e-02 2.993826754391193390e-02
8.388010784983634949e-03 7.605607621371746063e-03 1.570451818406581879e-02 1.432792400009930134e-03
-9.370602667331695557e-03 5.585956852883100510e-03 5.926077137701213360e-04 1.947985216975212097e-02
4.231090471148490906e-02 3.938073292374610901e-02 -4.574769642204046249e-03 -6.230288650840520859e-03
-8.308531716465950012e-03 1.416467595845460892e-02 -4.882617387920618057e-03 -1.519103907048702240e-02
1.565354317426681519e-02 -3.233656659722328186e-02 3.192835254594683647e-03 1.680667279288172722e-03
-2.421613410115242004e-02 2.154136262834072113e-02 -6.589144468307495117e-03 1.415667217224836349e-02
3.352607041597366333e-02 3.328908234834671021e-02 3.115178830921649933e-02 2.334320731461048126e-02
-2.380248531699180603e-02 -9.977996349334716797e-03 -2.008417062461376190e-02 -2.644626609981060028e-02
6.687033921480178833e-03 3.617696464061737061e-02 6.992803420871496201e-03 2.132621221244335175e-02
6.702012568712234497e-02 4.473707079887390137e-02 1.402182970196008682e-02 3.856140375137329102e-02
4.860307276248931885e-02 5.086144432425498962e-02 2.093306556344032288e-02 1.654341630637645721e-02
-3.148431424051523209e-03 2.040649205446243286e-02 4.165062680840492249e-03 -2.296123886480927467e-03
1.620080508291721344e-02 5.148674920201301575e-02 5.124501883983612061e-02 1.587644964456558228e-02
2.496666274964809418e-03 -3.829154185950756073e-03 1.796880550682544708e-02 -4.556449595838785172e-03
6.421973556280136108e-02 2.265081368386745453e-02 2.465603873133659363e-02 2.883404307067394257e-02
5.432592704892158508e-02 5.498171970248222351e-02 3.782909363508224487e-02 4.727634042501449585e-02
3.287272155284881592e-02 3.946887701749801636e-02 1.832825876772403717e-02 5.229828879237174988e-02
9.814259596168994904e-03 -1.667827740311622620e-02 2.370856935158371925e-03 -2.022469183430075645e-03
-3.181087085977196693e-03 9.739248082041740417e-03 2.898827753961086273e-02 3.280771896243095398e-02
2.638550475239753723e-02 3.696494922041893005e-02 2.767945174127817154e-03 2.169599197804927826e-02
5.682589951902627945e-03 4.524810984730720520e-02 4.190153256058692932e-02 3.975080698728561401e-02
6.747024506330490112e-02 1.083815470337867737e-02 3.815226256847381592e-02 5.387934390455484390e-03
-6.472448352724313736e-03 5.465251859277486801e-03 -1.989446021616458893e-02 -1.638925634324550629e-02
-1.241923309862613678e-02 1.991697959601879120e-02 -1.900457590818405151e-02 2.881770953536033630e-02
-2.859340608119964600e-02 -3.406517580151557922e-02 -3.134978469461202621e-03 -5.085098370909690857e-02
-5.357941240072250366e-02 -5.157954245805740356e-02 -1.752526499330997467e-02 -7.396745029836893082e-03
-4.834116995334625244e-02 -4.859183356165885925e-02 -5.325365066528320312e-02 -2.150270156562328339e-02
-5.990101397037506104e-02 -3.268051147460937500e-02 -1.484508905559778214e-02 -7.746278494596481323e-02
-8.012716472148895264e-02 -4.586551710963249207e-02 -1.193871255964040756e-02 -2.388661727309226990e-02
-7.541625201702117920e-02 -9.184950590133666992e-02 -8.644932508468627930e-02 -3.718123584985733032e-02
1.701382920145988464e-02 -9.824978187680244446e-03 -1.143309380859136581e-02 -4.292536992579698563e-03
-1.478481199592351913e-02 -2.377582713961601257e-02 1.000071497401222587e-04 -9.375959634780883789e-02
-1.035550832748413086e-01 -2.953864634037017822e-02 -3.614791110157966614e-02 -2.282630279660224915e-02
-1.049423310905694962e-02 7.564759813249111176e-03 -1.073350943624973297e-02 2.372418064624071121e-03
3.507114574313163757e-02 -2.910192497074604034e-02 -2.585847489535808563e-02 -2.726148255169391632e-02
8.999292552471160889e-02 6.609641015529632568e-02 8.719607442617416382e-02 1.795607507228851318e-01
-6.613285094499588013e-02 -1.319216680712997913e-03 -2.178108133375644684e-02 -1.107358746230602264e-02
7.651324383914470673e-03 5.547118373215198517e-03 5.287114158272743225e-02 6.000472977757453918e-02
-7.641255797352641821e-05 -7.985830307006835938e-03 -1.612918823957443237e-02 -3.621284151449799538e-03
-3.705361485481262207e-02 -3.839828819036483765e-02 -5.382026545703411102e-03 -5.394665524363517761e-02
-3.585227578878402710e-02 -1.793354377150535583e-02 -4.638235270977020264e-02 -4.109360277652740479e-02
-4.533020406961441040e-02 -6.618071347475051880e-02 -1.218500733375549316e-02 -3.373853117227554321e-02
-8.658681809902191162e-02 -6.584729999303817749e-02 -2.370498143136501312e-02 -4.940959811210632324e-02
-5.253454670310020447e-02 -2.109270729124546051e-02 -4.555273056030273438e-02 -3.687321022152900696e-02
-2.453616261482238770e-02 -3.088292293250560760e-02 -1.196958031505346298e-02 -2.316539548337459564e-02
-6.324543803930282593e-02 -4.753371700644493103e-03 1.477357372641563416e-02 -1.226118858903646469e-02
-6.952150911092758179e-02 -2.323760464787483215e-02 -1.771991886198520660e-02 -2.443899400532245636e-02
-2.531131915748119354e-02 -5.362487718230113387e-05 -3.613649681210517883e-02 9.956368245184421539e-03
-6.415867060422897339e-02 -1.651371642947196960e-02 -5.905206128954887390e-02 -2.592618390917778015e-02
-2.217510715126991272e-02 1.382695743814110756e-03 -3.132991120219230652e-02 -3.094906173646450043e-02
-3.396084904670715332e-02 -1.130357664078474045e-02 -5.704095587134361267e-02 -3.844785690307617188e-02
-9.539274498820304871e-03 -2.364993654191493988e-02 1.097870431840419769e-02 -4.268863238394260406e-03
-1.941158622503280640e-02 -5.453690420836210251e-03 -9.900607168674468994e-03 -1.625952124595642090e-02
-9.656783938407897949e-02 -8.471325784921646118e-02 -6.020025536417961121e-02 -6.076829135417938232e-02
-5.517815053462982178e-02 -6.287390738725662231e-02 -3.803248330950737000e-02 1.249875966459512711e-02
-4.851586371660232544e-02 -4.694883897900581360e-02 -3.225436806678771973e-02 -6.451623886823654175e-02
3.488753736019134521e-02 3.000023588538169861e-02 -1.527507882565259933e-02 -4.724511876702308655e-02
4.993017762899398804e-02 4.655645415186882019e-02 4.500045999884605408e-02 4.044561088085174561e-02
5.566938966512680054e-02 3.654997050762176514e-02 5.264041945338249207e-02 6.416046619415283203e-02
-6.353422999382019043e-02 -1.804580353200435638e-02 -1.299340277910232544e-02 -2.276955638080835342e-03
6.069049984216690063e-02 5.441296100616455078e-02 4.180234298110008240e-02 2.757324650883674622e-02
-3.736048936843872070e-02 -6.043494120240211487e-02 -6.840672343969345093e-02 -9.613633155822753906e-02
1.044800225645303726e-02 3.903601318597793579e-02 1.913384348154067993e-02 -2.601567097008228302e-02
-6.035027094185352325e-03 -1.050217077136039734e-02 1.858391053974628448e-02 1.614930294454097748e-02
3.646918013691902161e-02 2.135200984776020050e-02 2.744703553617000580e-02 1.493794564157724380e-02
-5.015807598829269409e-02 4.975500516593456268e-03 -8.369589224457740784e-03 1.485541276633739471e-02
5.477952957153320312e-02 6.014806032180786133e-02 1.147194020450115204e-02 -1.215566508471965790e-02
9.753503836691379547e-03 -8.833540603518486023e-03 -3.809134289622306824e-02 -5.539844557642936707e-02
2.684340579435229301e-03 -2.531997114419937134e-02 -4.427108541131019592e-02 -4.181753098964691162e-02
1.838773116469383240e-02 -2.456947788596153259e-02 2.065572701394557953e-02 -3.217880427837371826e-02
3.207068890333175659e-02 1.526914536952972412e-02 3.219021856784820557e-02 3.150359028950333595e-03
-4.953137412667274475e-02 -3.763507679104804993e-02 -1.683467812836170197e-02 1.186934858560562134e-02
5.558792874217033386e-02 5.128296464681625366e-02 1.179927401244640350e-02 5.795572325587272644e-02
6.470675766468048096e-02 3.429900854825973511e-02 4.938297718763351440e-02 2.310363948345184326e-02
1.021699234843254089e-01 8.132444322109222412e-02 5.500045418739318848e-02 3.441000357270240784e-02
1.525834389030933380e-02 8.032035082578659058e-03 2.533410303294658661e-02 2.751728519797325134e-02
5.618457496166229248e-02 7.291702181100845337e-02 8.111710101366043091e-02 7.122783362865447998e-02
1.344331423752009869e-03 1.362855266779661179e-02 1.518646255135536194e-02 -2.648440189659595490e-02
1.064359694719314575e-01 3.447918593883514404e-02 3.479790687561035156e-02 5.920479819178581238e-02
7.620786875486373901e-02 7.193800806999206543e-02 6.195960938930511475e-02 2.738937549293041229e-02
3.163725882768630981e-02 4.651352763175964355e-02 2.817627415060997009e-02 3.945203125476837158e-02
-3.333104401826858521e-02 1.882647350430488586e-02 -1.479903981089591980e-02 -1.280608237721025944e-03
1.082938723266124725e-02 1.531591825187206268e-02 2.315272949635982513e-02 4.163325950503349304e-02
1.324325101450085640e-03 3.955679759383201599e-02 5.933881923556327820e-02 4.118847846984863281e-02
2.169306762516498566e-02 5.791991949081420898e-02 6.980741024017333984e-02 4.328230023384094238e-02
8.056685328483581543e-02 5.398364365100860596e-02 4.539738222956657410e-02 4.232338070869445801e-02
2.943007834255695343e-02 -8.272039704024791718e-03 -2.322823181748390198e-02 6.559712346643209457e-03
5.535575561225414276e-03 6.285975221544504166e-03 3.887707367539405823e-02 -5.058362148702144623e-03
-1.316494308412075043e-02 4.549886099994182587e-03 -1.705780997872352600e-02 -8.730802685022354126e-03
-1.316469628363847733e-02 -2.829841151833534241e-02 -4.987503867596387863e-03 -1.441606599837541580e-02
-1.422613579779863358e-02 -1.211015507578849792e-02 -4.844563826918601990e-02 -2.352588996291160583e-02
-1.781302131712436676e-02 2.420224994421005249e-02 1.558418758213520050e-02 2.906569093465805054e-02
-9.546795859932899475e-03 5.507250898517668247e-05 4.213271290063858032e-02 5.323849245905876160e-02
-1.449632197618484497e-01 -1.377196907997131348e-01 -8.612549304962158203e-02 -3.603973612189292908e-02
-1.319582574069499969e-02 -3.465926647186279297e-02 -2.487040124833583832e-02 3.193489462137222290e-02
8.206330239772796631e-02 7.582964003086090088e-02 5.509868636727333069e-02 4.825443774461746216e-02
9.135355800390243530e-02 8.848858624696731567e-02 8.169580996036529541e-02 5.546595528721809387e-02
9.928106516599655151e-02 4.962729290127754211e-02 3.441852331161499023e-02 2.216893061995506287e-02
3.785991109907627106e-03 4.564934223890304565e-02 8.870904147624969482e-02 1.783267110586166382e-01
-2.353907376527786255e-01 -1.327908784151077271e-01 -1.002788990736007690e-01 -6.868205219507217407e-02
5.837907642126083374e-02 6.548182666301727295e-02 9.721875190734863281e-02 8.803357928991317749e-02
-9.989663027226924896e-03 -9.775167331099510193e-03 1.834983751177787781e-02 9.774336963891983032e-02
5.930704995989799500e-02 2.937265112996101379e-02 3.591091558337211609e-02 5.524169187992811203e-03
5.698157474398612976e-02 6.126243621110916138e-02 7.776426151394844055e-03 8.595398627221584320e-03
-5.914992187172174454e-03 -2.069781161844730377e-02 -3.335974738001823425e-02 -2.394524030387401581e-02
-6.257661618292331696e-03 9.264621883630752563e-03 1.689240150153636932e-02 5.999931693077087402e-02
-3.573006764054298401e-02 -3.639047220349311829e-02 -3.733413526788353920e-03 -6.199060590006411076e-05
-6.858199834823608398e-03 -1.559753715991973877e-02 -2.779746428132057190e-02 2.640727907419204712e-03
-2.584326453506946564e-02 -6.369201093912124634e-02 -6.671850383281707764e-02 -6.340895593166351318e-02
3.289789194241166115e-03 4.580544307827949524e-02 3.875558078289031982e-02 6.504998356103897095e-02
-1.119242981076240540e-01 -9.373832494020462036e-02 -2.921647764742374420e-02 -1.098187733441591263e-02
-5.747322365641593933e-02 -5.059163644909858704e-02 -7.152160257101058960e-02 -4.029208794236183167e-02
1.571607775986194611e-02 -9.354886598885059357e-03 -3.991195932030677795e-02 -3.143050521612167358e-02
6.712304055690765381e-02 2.218557335436344147e-02 -2.403318881988525391e-03 5.737784318625926971e-03
-3.554835170507431030e-02 -1.196220051497220993e-03 -2.825847361236810684e-03 -4.125702194869518280e-03
-8.669290691614151001e-03 -2.975396066904067993e-02 -9.822428226470947266e-03 -7.810301333665847778e-02
-1.482068561017513275e-02 -4.308309406042098999e-02 -2.973235771059989929e-02 -1.862828806042671204e-02
-3.498184680938720703e-02 -1.215317100286483765e-02 2.484404109418392181e-02 6.497371196746826172e-02
2.545820176601409912e-02 4.120624437928199768e-02 1.995795965194702148e-02 4.898592829704284668e-02
7.339617609977722168e-02 2.549545466899871826e-02 2.577721700072288513e-02 -8.740477263927459717e-03
7.723891641944646835e-03 -6.890702527016401291e-03 1.054271589964628220e-02 -1.772226020693778992e-02
2.340515376999974251e-03 -6.652046926319599152e-03 -1.637923344969749451e-02 1.759873144328594208e-02
8.495962829329073429e-04 -1.701559126377105713e-02 -7.695007137954235077e-03 1.282345387153327465e-03
1.785187236964702606e-02 -8.278592140413820744e-04 1.739002577960491180e-02 -1.700886338949203491e-02
9.346136823296546936e-03 -1.332411170005798340e-02 -2.458618208765983582e-02 -4.410410299897193909e-03
3.237521648406982422e-02 1.884489879012107849e-02 1.748447306454181671e-02 5.061587784439325333e-03
-1.692521758377552032e-02 -1.532206498086452484e-02 -2.689473703503608704e-02 -5.198898259550333023e-03
1.719832420349121094e-02 -1.984853064641356468e-03 -1.535977888852357864e-02 1.046047732234001160e-02
-1.249036658555269241e-02 3.240526840090751648e-02 -1.035779900848865509e-02 -2.174699120223522186e-02
-3.435039147734642029e-02 1.217621378600597382e-02 -6.471450906246900558e-04 -3.461425751447677612e-02
-2.409014850854873657e-02 8.015301078557968140e-03 -1.665979623794555664e-02 -1.864741742610931396e-02
-7.268914952874183655e-03 -1.449570292606949806e-03 -2.851176308467984200e-03 -5.228756740689277649e-02
-1.013399288058280945e-02 3.214706899598240852e-03 2.140026725828647614e-02 -2.877714857459068298e-02
-1.093354821205139160e-02 2.187293022871017456e-02 -1.794503815472126007e-02 1.421487145125865936e-02
1.944671757519245148e-02 -3.271336853504180908e-02 -3.105258941650390625e-02 -2.260570786893367767e-02
-1.534705329686403275e-02 -5.976717802695930004e-04 1.288786157965660095e-02 -1.725031621754169464e-02
-5.977196153253316879e-03 -5.843434482812881470e-03 -4.423255566507577896e-03 8.382659289054572582e-04
1.036207377910614014e-02 -1.970197632908821106e-02 -1.179724186658859253e-02 -2.341780997812747955e-02
5.078482441604137421e-03 -1.228122971951961517e-02 -3.231752291321754456e-02 4.289878532290458679e-03
2.015780191868543625e-04 -3.954786225222051144e-04 -1.602359302341938019e-02 -1.649787649512290955e-02
1.355523522943258286e-02 -2.219250798225402832e-02 6.343362852931022644e-03 -3.004148416221141815e-02
-1.443386916071176529e-02 -3.487115958705544472e-03 -2.833858598023653030e-03 -2.898134663701057434e-02
1.071374304592609406e-02 -1.560002192854881287e-02 -1.579199731349945068e-02 -6.789135746657848358e-03
-2.757716923952102661e-03 9.382423944771289825e-03 1.609537377953529358e-02 -9.290802292525768280e-03
-1.719745434820652008e-02 -2.252769656479358673e-02 1.752664335072040558e-02 2.144853770732879639e-02
-2.314972691237926483e-02 1.169028878211975098e-02 2.529138000681996346e-03 -1.865756884217262268e-02
2.153844572603702545e-02 -1.232773810625076294e-02 1.999443024396896362e-02 -1.671071350574493408e-02
-2.819578163325786591e-02 -3.717174055054783821e-03 -2.780332230031490326e-02 4.006114788353443146e-03
-2.213153429329395294e-02 1.896606199443340302e-02 1.643139310181140900e-02 -5.667596124112606049e-03
-5.132570397108793259e-03 1.766399294137954712e-02 -3.364962339401245117e-02 -1.648930460214614868e-02
-1.922135613858699799e-02 -9.782469132915139198e-04 1.166081894189119339e-02 -1.936697080964222550e-04
-7.585019338876008987e-03 1.295840833336114883e-02 2.108225598931312561e-02 2.537032216787338257e-02
2.397594414651393890e-02 1.935951039195060730e-02 -9.022169746458530426e-03 3.950270265340805054e-02
-4.907517693936824799e-03 -3.677484765648841858e-02 -2.041915245354175568e-02 -2.478669025003910065e-02
-2.101500518620014191e-02 3.323293989524245262e-03 -3.091538324952125549e-02 -3.520865738391876221e-02
2.906513400375843048e-02 4.899633675813674927e-02 5.069446936249732971e-02 4.254940897226333618e-02
-3.969339653849601746e-02 -5.992737133055925369e-03 3.380508348345756531e-02 2.421725168824195862e-02
-1.317130923271179199e-01 -1.036602780222892761e-01 -7.881887257099151611e-02 -5.998414754867553711e-02
6.340739876031875610e-02 1.085670385509729385e-02 -2.056431211531162262e-02 -3.638255596160888672e-02
7.085551321506500244e-02 7.113493233919143677e-02 4.996258392930030823e-02 1.147490441799163818e-01
4.436766356229782104e-02 4.627748206257820129e-02 3.663985431194305420e-02 3.828946128487586975e-02
1.762349903583526611e-02 3.059430979192256927e-02 4.209982696920633316e-03 -2.319675870239734650e-02
9.265483170747756958e-02 5.737012624740600586e-02 5.820055305957794189e-02 9.195838868618011475e-02
-6.987231969833374023e-02 -7.627059519290924072e-02 -1.166626513004302979e-01 -1.209532395005226135e-01
2.350276708602905273e-02 2.977913245558738708e-02 1.451300177723169327e-02 6.365265697240829468e-02
6.229099817574024200e-03 -1.439789589494466782e-02 -1.116151269525289536e-02 2.374293282628059387e-02
4.184059798717498779e-02 2.020394057035446167e-02 5.338614806532859802e-02 4.325744509696960449e-02
5.200076475739479065e-02 5.651006475090980530e-02 5.871921032667160034e-02 8.487664163112640381e-03
-2.176172845065593719e-02 2.550097182393074036e-03 3.379876259714365005e-03 -6.146035157144069672e-03
-3.519854694604873657e-02 -3.428088501095771790e-02 1.444282382726669312e-02 4.425054788589477539e-02
-6.106571853160858154e-02 -3.036115691065788269e-02 -6.805555894970893860e-03 -4.012413228338118643e-06
-4.192328825592994690e-02 -6.182019412517547607e-02 -3.159732092171907425e-03 1.456981338560581207e-02
-4.582132771611213684e-02 -3.433613106608390808e-02 -4.669651389122009277e-02 -5.695941299200057983e-02
-6.129181757569313049e-02 -8.378618396818637848e-03 -3.314291313290596008e-02 1.969924010336399078e-02
-9.498193114995956421e-02 -2.973998896777629852e-02 -2.154865488409996033e-02 -2.982549183070659637e-02
-6.763537228107452393e-02 -3.885296732187271118e-02 -7.172669470310211182e-02 -6.247999519109725952e-02
-1.421518996357917786e-02 -1.983671076595783234e-02 -3.226665034890174866e-02 -2.577561512589454651e-02
5.056808888912200928e-02 3.920647129416465759e-02 -2.972937887534499168e-03 -1.599180325865745544e-02
1.451284531503915787e-02 -2.163514681160449982e-02 -1.268109213560819626e-02 -2.913988940417766571e-02
-1.695952378213405609e-03 -3.785202279686927795e-02 -3.708504885435104370e-02 -3.375001624226570129e-02
-2.725065499544143677e-02 -1.816768012940883636e-02 -4.751138761639595032e-02 -2.803487703204154968e-02
-5.763385444879531860e-02 -1.277271844446659088e-02 2.710164710879325867e-02 1.228566560894250870e-02
-5.955740809440612793e-03 -1.870422996580600739e-02 2.195347286760807037e-02 1.861232891678810120e-02
5.194980651140213013e-02 5.203860998153686523e-02 2.942435443401336670e-02 -2.875234931707382202e-02
3.792966529726982117e-02 2.722839824855327606e-03 4.210793972015380859e-02 5.742679908871650696e-02
8.182578720152378082e-03 -1.573538221418857574e-02 1.465104706585407257e-02 -2.956956066191196442e-02
-2.356401458382606506e-02 -1.126641314476728439e-02 7.185642607510089874e-03 4.454711452126502991e-03
-4.524461925029754639e-02 6.254207255551591516e-05 -1.857698522508144379e-02 -3.326782211661338806e-02
-2.324277721345424652e-02 -1.655639149248600006e-02 -1.210456364788115025e-03 -3.932319115847349167e-03
-7.570610940456390381e-02 -5.176722630858421326e-02 -4.607639461755752563e-02 -7.399590313434600830e-02
3.081594593822956085e-02 2.181059494614601135e-02 8.845585398375988007e-03 -8.472069166600704193e-03
8.672740310430526733e-02 7.713397592306137085e-02 5.339138209819793701e-02 1.147856637835502625e-01
8.062804490327835083e-02 5.314196273684501648e-02 7.833659648895263672e-02 8.531983941793441772e-02
6.868965458124876022e-03 -2.164251357316970825e-02 -1.491174846887588501e-02 -3.987206891179084778e-02
8.789973706007003784e-02 6.044447049498558044e-02 6.624690443277359009e-02 7.812769711017608643e-02
-5.651987344026565552e-02 -4.228831827640533447e-02 -6.044580042362213135e-02 -3.593617305159568787e-02
2.534870617091655731e-02 1.543148886412382126e-02 2.614096365869045258e-02 2.162855863571166992e-02
5.012011900544166565e-02 5.243906751275062561e-02 8.199104666709899902e-02 5.073293298482894897e-02
5.390819907188415527e-02 5.116876214742660522e-02 4.503004997968673706e-02 2.253350988030433655e-02
2.165864221751689911e-02 3.957749903202056885e-02 1.156586967408657074e-02 4.466561973094940186e-02
-2.080340497195720673e-02 -1.399074215441942215e-02 -2.807490155100822449e-02 -2.575733885169029236e-02
8.742454461753368378e-03 2.127958647906780243e-02 1.892334967851638794e-02 2.302485890686511993e-02
-3.072839230298995972e-02 -6.650761235505342484e-03 -1.243790984153747559e-02 5.107294302433729172e-03
-5.152945220470428467e-02 -3.892885893583297729e-02 -1.766707003116607666e-02 -4.996553063392639160e-02
-3.173745796084403992e-02 -1.366201322525739670e-02 -3.248417004942893982e-02 -4.641031846404075623e-02
-1.004679966717958450e-02 4.223564756102859974e-04 1.033340394496917725e-02 -1.901865191757678986e-02
-2.883765660226345062e-02 -1.721338741481304169e-02 -2.611712925136089325e-02 -4.789904691278934479e-03
-3.992579504847526550e-02 -3.633174672722816467e-02 1.454483624547719955e-02 -4.385125357657670975e-03
-1.571469381451606750e-02 -3.120787814259529114e-02 -7.446104194968938828e-03 -9.948120452463626862e-03
5.669893696904182434e-03 -1.206793636083602905e-02 -2.524363994598388672e-02 -2.367302775382995605e-02
-9.264867752790451050e-03 -1.293059810996055603e-02 -1.550261949887499213e-04 9.793475270271301270e-03
8.175244438461959362e-04 -3.430086374282836914e-02 -4.225576296448707581e-02 -3.193195909261703491e-02
9.300704114139080048e-03 -1.814322546124458313e-02 -1.200414169579744339e-02 9.232033044099807739e-03
-3.027869760990142822e-02 -2.149035409092903137e-02 1.600175723433494568e-02 2.902419306337833405e-02
2.223679795861244202e-03 1.641568355262279510e-02 -1.521165203303098679e-02 1.251446921378374100e-02
3.133859857916831970e-02 -1.544218882918357849e-02 -3.785547614097595215e-02 -1.179515104740858078e-02
4.774516448378562927e-02 -1.134854927659034729e-02 3.440291434526443481e-02 3.454938903450965881e-02
-2.287232317030429840e-02 -4.385292157530784607e-02 -4.776249453425407410e-02 -5.764178186655044556e-02
-4.161650687456130981e-02 -2.853262051939964294e-02 -6.033426895737648010e-02 -5.195312201976776123e-02
-2.991602011024951935e-02 -3.165121749043464661e-02 -2.734101191163063049e-02 1.752185821533203125e-02
6.257088854908943176e-03 -2.643284201622009277e-02 1.418130286037921906e-02 3.508320450782775879e-02
-1.586451232433319092e-01 -9.285134822130203247e-02 -5.540177226066589355e-02 -3.236620500683784485e-02
1.933096349239349365e-02 2.011765353381633759e-02 3.020933642983436584e-02 8.861895650625228882e-02
8.757591247558593750e-02 3.986165300011634827e-02 3.639654815196990967e-02 5.322521924972534180e-02
8.769255131483078003e-02 7.905603945255279541e-02 6.160779297351837158e-02 5.052193999290466309e-02
3.253974393010139465e-02 1.989786699414253235e-02 1.423756033182144165e-02 2.741645090281963348e-02
-1.051269471645355225e-02 3.318777307868003845e-02 4.918637499213218689e-02 1.272337138652801514e-01
-1.878887712955474854e-01 -1.339935809373855591e-01 -5.198018252849578857e-02 -8.779856562614440918e-02
6.954268366098403931e-02 6.303675472736358643e-02 6.383557617664337158e-02 4.200329259037971497e-02
-6.884951889514923096e-02 -5.947794392704963684e-02 -9.854468517005443573e-03 2.008823677897453308e-02
4.573541507124900818e-02 1.782620884478092194e-02 2.682759799063205719e-02 -1.371018495410680771e-02
6.321503967046737671e-02 3.220967575907707214e-02 1.165632251650094986e-02 6.497741490602493286e-02
-3.066578507423400879e-02 -1.648668386042118073e-02 -5.600049719214439392e-02 -1.730670034885406494e-02
8.431992318946868181e-05 2.314080670475959778e-02 -7.286582840606570244e-04 3.176749870181083679e-02
-2.520457282662391663e-02 -1.369522139430046082e-02 -2.437940612435340881e-02 1.295893918722867966e-02
-4.354010522365570068e-02 -6.842527538537979126e-02 -4.478451237082481384e-02 -4.724232852458953857e-02
-2.762658335268497467e-02 -6.148469820618629456e-02 -5.827203020453453064e-02 -7.430905103683471680e-02
-1.133469305932521820e-02 3.478209674358367920e-02 3.900057449936866760e-02 2.843465842306613922e-02
-9.617208689451217651e-02 -7.261153310537338257e-02 -7.779406756162643433e-02 -1.942450739443302155e-02
-7.374829798936843872e-02 -5.568804219365119934e-02 -4.092164710164070129e-02 -5.508081242442131042e-02
-2.530363388359546661e-02 -2.994859963655471802e-02 -3.365261480212211609e-02 -4.814987257122993469e-02
-2.332493197172880173e-03 -2.960201911628246307e-02 -1.532718539237976074e-02 -7.876642979681491852e-03
-2.958361990749835968e-02 -2.917007356882095337e-02 -2.759249508380889893e-02 -4.258069023489952087e-02
1.285037957131862640e-02 -1.117294095456600189e-02 -4.986166954040527344e-02 -6.979028135538101196e-02
-2.880349382758140564e-02 -3.687149286270141602e-02 -3.362851217389106750e-02 -6.739853322505950928e-02
-1.397242210805416107e-02 1.812649704515933990e-02 5.591332539916038513e-02 2.567304112017154694e-02
1.720840856432914734e-02 3.111016005277633667e-02 3.817170113325119019e-02 1.550331339240074158e-02
5.207419767975807190e-02 3.625587001442909241e-02 -1.881451159715652466e-02 -1.800764468498528004e-03
8.409817703068256378e-03 2.742249751463532448e-03 -1.562052499502897263e-02 -1.184254139661788940e-02
5.259641911834478378e-03 -2.413247339427471161e-02 -2.559105493128299713e-02 1.533859409391880035e-02
1.240341085940599442e-02 1.671427511610090733e-03 1.198374200612306595e-02 -6.910077296197414398e-03
-1.043941243551671505e-03 -5.618418380618095398e-02 -1.214130502194166183e-02 -4.442254453897476196e-02
4.072055220603942871e-03 2.753348834812641144e-02 -5.680367350578308105e-03 1.525219343602657318e-02
-3.375275433063507080e-02 -2.977664954960346222e-02 8.722525089979171753e-03 3.690095990896224976e-02
-4.014644026756286621e-02 -3.202385455369949341e-02 1.379059907048940659e-02 2.220164798200130463e-02
4.068884998559951782e-03 -2.140944637358188629e-02 -4.603678360581398010e-02 -4.477463290095329285e-02
4.729589819908142090e-02 -2.050528302788734436e-03 -1.304090116173028946e-02 -5.881023826077580452e-04
1.686687208712100983e-02 -6.823918316513299942e-03 -4.262692108750343323e-02 -1.005865819752216339e-02
-8.977315388619899750e-03 3.743894631043076515e-03 5.458419676870107651e-03 4.748125001788139343e-02
-7.048981636762619019e-02 -1.019661896862089634e-03 3.433442907407879829e-03 4.468943178653717041e-02
2.693036012351512909e-02 1.965077966451644897e-02 -3.481916617602109909e-03 -2.296020276844501495e-02
-4.008884727954864502e-02 -1.100407913327217102e-02 -2.607402391731739044e-02 2.448041364550590515e-02
-1.270049344748258591e-02 9.641578420996665955e-03 -2.296447753906250000e-02 -1.360481604933738708e-02
-1.500624790787696838e-02 -2.773925662040710449e-02 -1.774166524410247803e-02 -4.166686534881591797e-02
2.399832196533679962e-02 -6.368057336658239365e-03 -1.984468102455139160e-02 -2.649477683007717133e-02
2.310250513255596161e-02 3.149274736642837524e-02 -1.317530404776334763e-02 9.375079534947872162e-03
-5.033143097534775734e-04 5.282325670123100281e-03 -2.605963964015245438e-03 1.450990326702594757e-03
-2.384933410212397575e-03 -4.590776283293962479e-03 -3.754110634326934814e-02 -1.898699067533016205e-02
-1.562415622174739838e-02 -5.309496191330254078e-04 8.592907339334487915e-03 -6.899600382894277573e-03
5.388876423239707947e-02 1.835227012634277344e-02 4.648207500576972961e-02 3.652515262365341187e-02
-2.531062811613082886e-02 -1.004156190901994705e-02 3.512592229526489973e-04 2.555349096655845642e-02
1.782728731632232666e-02 1.374822109937667847e-03 -2.025972120463848114e-02 -1.510804053395986557e-02
-2.049041166901588440e-02 7.197852712124586105e-03 -3.034470602869987488e-02 -2.339644171297550201e-02
-1.521905325353145599e-02 -4.157989099621772766e-02 -1.798910461366176605e-02 -1.292379456572234631e-04
6.809574551880359650e-03 -1.325303688645362854e-03 -2.588078787084668875e-04 2.019081450998783112e-02
5.401302129030227661e-03 -1.282880082726478577e-02 -5.250547081232070923e-03 2.970818243920803070e-02
4.071569535881280899e-03 6.047862581908702850e-03 -8.436003699898719788e-03 -6.491681560873985291e-03
3.580281510949134827e-02 2.404386643320322037e-03 4.173379018902778625e-02 2.912343852221965790e-02
5.296124611049890518e-03 1.665087975561618805e-02 2.273862808942794800e-02 1.604639552533626556e-02
-1.069414149969816208e-02 -2.736045978963375092e-02 -3.688571229577064514e-02 7.621529046446084976e-03
6.439245771616697311e-03 -1.117257680743932724e-02 2.775188721716403961e-02 3.911312296986579895e-02
-1.996317692101001740e-02 5.625462625175714493e-03 -1.404262892901897430e-02 -6.247033015824854374e-04
5.803164094686508179e-03 2.000113483518362045e-03 -3.263492509722709656e-02 -1.430752221494913101e-02
-6.851844489574432373e-03 -3.907561674714088440e-02 -2.814262546598911285e-02 -7.773685269057750702e-03
1.334016211330890656e-02 3.962647169828414917e-04 3.634531516581773758e-03 3.900781273841857910e-02
-1.371246427297592163e-01 -9.133804589509963989e-02 -8.598376810550689697e-02 -2.391522005200386047e-02
-3.426115959882736206e-02 -3.462555259466171265e-02 -2.539724670350551605e-02 2.780862338840961456e-02
8.126583695411682129e-02 4.013527929782867432e-02 6.222169473767280579e-02 3.894259035587310791e-02
7.141984254121780396e-02 6.859808415174484253e-02 5.146181955933570862e-02 2.816432714462280273e-02
2.588007412850856781e-02 2.378679066896438599e-02 -1.142555754631757736e-02 1.626647263765335083e-02
2.924912422895431519e-02 5.353723838925361633e-02 5.469086393713951111e-02 7.519945502281188965e-02
-1.038467064499855042e-01 -9.239245206117630005e-02 -6.979271024465560913e-02 -4.442302510142326355e-02
3.542345017194747925e-02 4.434765502810478210e-02 3.695664927363395691e-02 4.981474578380584717e-02
-2.820160589180886745e-04 -6.425919942557811737e-03 -1.296288706362247467e-02 4.465915635228157043e-02
5.991022288799285889e-02 1.574522815644741058e-02 4.166087601333856583e-03 1.365789864212274551e-02
2.505946345627307892e-02 -2.418500604107975960e-03 1.367692369967699051e-02 2.885879250243306160e-03
1.090097799897193909e-02 1.535695279017090797e-03 -3.086647950112819672e-02 -1.435341592878103256e-02
-1.690852828323841095e-02 1.327339932322502136e-02 6.481971591711044312e-03 3.432201594114303589e-02
-3.629066422581672668e-02 -2.520418958738446236e-03 2.474392578005790710e-02 2.505961805582046509e-02
-4.380724951624870300e-02 -6.920158863067626953e-02 -6.679935008287429810e-02 -6.021805107593536377e-02
-3.410491347312927246e-02 -6.989813409745693207e-03 -2.543560788035392761e-02 -2.983443252742290497e-02
-1.738809049129486084e-03 1.557725481688976288e-02 4.812188073992729187e-02 5.325043573975563049e-02
-6.751533597707748413e-02 -2.322044456377625465e-03 -3.130096569657325745e-02 -1.987535133957862854e-02
-5.545574799180030823e-02 -1.672361046075820923e-02 -2.503735758364200592e-02 -6.557614076882600784e-03
7.552354130893945694e-03 -3.149509802460670471e-02 -4.368530958890914917e-02 -2.328724041581153870e-02
-6.540176924318075180e-03 -2.024958143010735512e-03 4.246049094945192337e-03 -3.944782365579158068e-04
-3.495681285858154297e-02 -9.770302567631006241e-04 -3.177096694707870483e-02 -6.351218558847904205e-03
-2.602203562855720520e-02 -7.207949645817279816e-03 -3.256914392113685608e-02 -2.306080609560012817e-02
-3.328604623675346375e-02 -3.788006259128451347e-03 -4.229706712067127228e-03 -4.713772982358932495e-02
-3.347039967775344849e-02 2.295991964638233185e-02 4.498539492487907410e-02 7.094330340623855591e-02
1.163973752409219742e-02 7.087047677487134933e-03 5.200337618589401245e-03 1.626690477132797241e-02
1.323388982564210892e-02 3.660583496093750000e-02 9.632312692701816559e-03 2.176680043339729309e-02
2.549884654581546783e-02 -1.801839098334312439e-02 -2.187055721879005432e-02 -1.856243982911109924e-02
6.431801617145538330e-02 2.396296337246894836e-02 4.780294746160507202e-02 4.943475127220153809e-02
5.659175664186477661e-02 4.066387936472892761e-02 2.600816078484058380e-02 7.057454437017440796e-02
-3.817654028534889221e-02 -5.177100375294685364e-02 -1.514075230807065964e-02 -2.624107059091329575e-03
6.758039444684982300e-02 1.650227792561054230e-02 4.708301275968551636e-03 3.933186829090118408e-02
-6.515682488679885864e-02 -6.738004833459854126e-02 -6.314044445753097534e-02 -8.840487897396087646e-02
3.382240608334541321e-02 2.641942724585533142e-02 2.535095624625682831e-02 9.870450943708419800e-03
1.354645285755395889e-02 7.565222913399338722e-04 6.448311731219291687e-03 3.800523467361927032e-03
2.963425032794475555e-02 1.293965708464384079e-02 -9.170600213110446930e-03 1.831214316189289093e-02
-6.268616020679473877e-02 -1.198722794651985168e-02 -2.549976576119661331e-03 -1.861043460667133331e-02
2.795855514705181122e-02 3.027136996388435364e-02 4.327551648020744324e-02 -1.234613265842199326e-02
6.948889233171939850e-03 -3.079319931566715240e-02 -1.940708979964256287e-02 -7.865885645151138306e-02
4.339554347097873688e-03 -3.271379973739385605e-03 -5.250011384487152100e-02 -3.618118166923522949e-02
1.789049804210662842e-02 8.242852054536342621e-03 -2.071641571819782257e-02 9.142238646745681763e-03
3.963475301861763000e-02 3.885841742157936096e-02 2.165608480572700500e-02 2.687422931194305420e-02
1.533580012619495392e-03 -3.888825885951519012e-03 6.413455121219158173e-03 1.123674120754003525e-02
5.105813220143318176e-02 4.565322399139404297e-02 4.432135820388793945e-02 6.397864222526550293e-02
7.696482539176940918e-02 2.243614755570888519e-02 4.400994256138801575e-02 4.644674435257911682e-02
8.726946264505386353e-02 7.119414955377578735e-02 6.629937142133712769e-02 4.154272004961967468e-02
5.432869307696819305e-03 -1.403387985192239285e-03 3.543861955404281616e-02 5.066467449069023132e-02
5.530790612101554871e-02 7.412555813789367676e-02 4.112167283892631531e-02 6.031762436032295227e-02
2.702544257044792175e-02 1.206274330615997314e-02 -2.453869208693504333e-02 -1.064100023359060287e-02
8.459439873695373535e-02 2.743831463158130646e-02 4.956651479005813599e-02 4.418424144387245178e-02
1.044764071702957153e-01 6.770527362823486328e-02 6.533220410346984863e-02 6.780445575714111328e-02
2.465691044926643372e-02 1.103768404573202133e-02 2.951264195144176483e-02 3.488422185182571411e-02
-1.433922257274389267e-02 1.030157506465911865e-02 4.286391660571098328e-03 -5.540017504245042801e-03
3.988748788833618164e-02 4.852578043937683105e-02 4.526161774992942810e-02 2.899958752095699310e-02
4.623502120375633240e-02 3.018764592707157135e-02 3.874617442488670349e-02 4.655922204256057739e-02
2.308416739106178284e-02 4.439552128314971924e-02 2.965254150331020355e-02 5.019817873835563660e-02
6.441589444875717163e-02 3.215242922306060791e-02 3.578333184123039246e-02 3.232694417238235474e-02
1.525774598121643066e-02 1.911926269531250000e-02 -3.237471729516983032e-02 -3.827776014804840088e-02
-7.258318364620208740e-04 2.927491907030344009e-03 2.264744788408279419e-02 -1.780200982466340065e-03
2.390947565436363220e-02 -2.352368086576461792e-02 -2.222834154963493347e-02 1.371965464204549789e-02
1.094243768602609634e-02 1.261266041547060013e-02 -7.990245707333087921e-03 -2.223774977028369904e-02
2.627949789166450500e-02 2.306746505200862885e-02 2.912822738289833069e-02 -2.281111199408769608e-03
2.103520371019840240e-02 -3.597477683797478676e-03 5.942345131188631058e-03 -2.049362473189830780e-02
3.115467913448810577e-02 1.429894100874662399e-02 -7.379107992164790630e-04 3.280014544725418091e-02
1.306657120585441589e-02 -7.506335619837045670e-03 -1.929066143929958344e-02 8.723471313714981079e-03
3.102920949459075928e-02 -1.842360943555831909e-02 2.813926897943019867e-02 2.668676711618900299e-02
-3.895951434969902039e-03 1.792910508811473846e-02 -1.061687618494033813e-02 7.774242199957370758e-03
-1.439070422202348709e-02 1.493162591941654682e-03 2.270989306271076202e-02 1.033307518810033798e-02
1.578861474990844727e-02 2.237240783870220184e-02 -1.624046824872493744e-02 -1.493004523217678070e-02
3.173855948261916637e-04 -1.522141601890325546e-02 1.388557814061641693e-02 1.368120033293962479e-02
2.659562416374683380e-02 1.769868470728397369e-02 2.463711239397525787e-02 -1.043118722736835480e-02
-2.088609337806701660e-02 -2.672641351819038391e-02 -1.527300383895635605e-02 -2.677636779844760895e-02
2.124519087374210358e-03 2.506143040955066681e-02 1.642799191176891327e-02 -1.345507102087140083e-03
-1.028347387909889221e-02 6.214975845068693161e-03 4.452486522495746613e-03 1.391751877963542938e-02
2.335932478308677673e-02 1.309357210993766785e-02 1.512295287102460861e-02 -2.008155360817909241e-02
-2.985442755743861198e-03 -2.027709968388080597e-02 -1.739952526986598969e-02 1.984449848532676697e-02
1.868538744747638702e-02 1.817613467574119568e-02 2.495720610022544861e-02 -4.806072916835546494e-03
9.189906530082225800e-03 1.683341152966022491e-02 2.925345487892627716e-02 -8.335347287356853485e-03
2.689431793987751007e-02 -2.104302495718002319e-02 -2.532457560300827026e-02 1.795351132750511169e-02
-1.262694783508777618e-02 2.824548818171024323e-02 1.776819489896297455e-02 -4.871738608926534653e-03
1.088385377079248428e-02 2.194389887154102325e-02 -9.399912320077419281e-03 1.370058208703994751e-02
2.925946190953254700e-02 7.158087100833654404e-04 -1.006538234651088715e-02 1.580059528350830078e-02
8.381971158087253571e-03 2.185082994401454926e-02 -1.578938588500022888e-02 1.869711466133594513e-02
1.130112167447805405e-02 -1.782163395546376705e-03 -1.472798408940434456e-03 -8.750557899475097656e-03
5.993362981826066971e-03 3.046937286853790283e-02 -1.306171249598264694e-02 1.564721390604972839e-02
1.970310881733894348e-02 9.019192657433450222e-05 1.939029805362224579e-02 1.426808536052703857e-02
-1.815190911293029785e-02 -7.618465926498174667e-03 -1.970045827329158783e-02 -2.331200754269957542e-03
-9.290625341236591339e-03 1.755534030962735415e-04 -6.972091272473335266e-03 3.269967623054981232e-03
2.242393977940082550e-02 -4.312111530452966690e-03 1.804933324456214905e-02 3.348134458065032959e-03
1.026643719524145126e-02 1.643034256994724274e-02 2.621022518724203110e-03 -1.290056947618722916e-02
1.097839674912393093e-03 1.198831759393215179e-02 -7.136277854442596436e-03 -1.353154517710208893e-02
-5.426579713821411133e-02 -2.451854199171066284e-02 -5.209340713918209076e-03 -2.318185754120349884e-02
-6.136779207736253738e-03 -1.504579093307256699e-02 -3.096839040517807007e-02 1.981488987803459167e-02
-4.354907199740409851e-03 -4.735353577416390181e-04 1.086923293769359589e-02 6.185750942677259445e-03
-4.139418713748455048e-03 -2.073468081653118134e-02 1.142371445894241333e-02 -8.406778797507286072e-03
-1.688464544713497162e-03 1.511194393970072269e-03 1.626662351191043854e-02 -9.756174869835376740e-03
1.573367160744965076e-03 2.530262991786003113e-02 -1.772392354905605316e-02 -4.045413061976432800e-02
-6.715115159749984741e-02 -7.803588174283504486e-03 -2.246357500553131104e-02 -9.899493306875228882e-03
-6.824552547186613083e-03 1.895842887461185455e-02 5.265351012349128723e-02 2.397496812045574188e-02
1.923810690641403198e-02 2.608899213373661041e-02 -2.951496094465255737e-02 -2.334240823984146118e-02
-6.191636994481086731e-02 -6.121782585978507996e-02 -3.097577951848506927e-02 -2.370744571089744568e-02
-2.146231196820735931e-02 -1.134497858583927155e-02 -2.446953766047954559e-02 -7.029656320810317993e-02
-1.026628538966178894e-01 -4.823533073067665100e-02 -9.344285726547241211e-02 -9.058637917041778564e-02
-1.165455114096403122e-02 -2.039079740643501282e-02 9.024440310895442963e-03 6.107157561928033829e-03
3.736725542694330215e-03 -2.566904202103614807e-02 3.784302389249205589e-03 -4.011648893356323242e-02
-2.573847025632858276e-02 -3.987886384129524231e-02 -4.094636067748069763e-03 -1.089681778103113174e-02
1.553809363394975662e-02 -8.617502637207508087e-03 -1.430849777534604073e-03 4.048621281981468201e-02
6.813168525695800781e-03 -3.082253411412239075e-02 -3.182032611221075058e-03 5.776356440037488937e-03
2.030950412154197693e-02 1.125510875135660172e-02 2.191948331892490387e-02 -1.419345755130052567e-02
2.972090058028697968e-02 2.206875244155526161e-03 9.310861118137836456e-03 -1.566384732723236084e-02
-4.286913201212882996e-02 -2.457718178629875183e-02 7.827806286513805389e-03 -1.371897058561444283e-03
1.591286808252334595e-02 2.428453415632247925e-02 2.981356158852577209e-02 -6.036610575392842293e-04
3.346819058060646057e-02 -9.757107123732566833e-03 -5.053566768765449524e-02 -4.106317460536956787e-02
2.044057287275791168e-02 5.070827901363372803e-02 4.288908094167709351e-02 -1.083150412887334824e-02
1.417532097548246384e-02 7.462294306606054306e-03 -3.320205491036176682e-03 2.753417007625102997e-02
-1.033257693052291870e-02 -7.846360094845294952e-03 1.936728134751319885e-02 -2.699287980794906616e-02
-1.068664900958538055e-02 -2.033862471580505371e-02 8.963644504547119141e-03 -1.033200789242982864e-02
-2.693342044949531555e-02 -2.116448059678077698e-02 -1.427973899990320206e-02 -3.558059397619217634e-04
2.755031455308198929e-03 3.949389327317476273e-03 -1.037374790757894516e-02 1.100964937359094620e-02
-3.056091256439685822e-02 -1.284482982009649277e-02 -2.225164137780666351e-02 2.102027833461761475e-02
1.542086713016033173e-02 -1.460202410817146301e-02 7.812881842255592346e-03 -4.351920634508132935e-02
7.690388243645429611e-03 -2.385539188981056213e-02 -5.204091221094131470e-02 -4.873248562216758728e-02
-8.686307817697525024e-03 -2.794915996491909027e-02 -2.595149539411067963e-02 2.062334306538105011e-02
-4.621731350198388100e-04 1.931909099221229553e-02 -8.774022571742534637e-03 2.356267161667346954e-02
6.872219964861869812e-03 2.801726944744586945e-02 2.403545565903186798e-02 2.232196042314171791e-03
-3.234577365219593048e-03 -2.666525542736053467e-03 -6.212161388248205185e-03 -5.444266833364963531e-03
4.402257502079010010e-02 1.118820067495107651e-02 1.508013438433408737e-02 -1.480365917086601257e-02
1.129604596644639969e-02 -1.644789613783359528e-02 -1.191867329180240631e-02 1.023820787668228149e-02
3.053791262209415436e-02 -7.123275659978389740e-03 3.347042202949523926e-02 3.204899653792381287e-02
-2.917538769543170929e-02 4.524614196270704269e-03 -2.035740949213504791e-02 3.173611313104629517e-02
1.543389819562435150e-02 -3.745221765711903572e-03 -3.274414688348770142e-02 -3.865652717649936676e-03
2.083306573331356049e-02 2.084373310208320618e-02 -2.860748209059238434e-04 -3.697625943459570408e-04
2.649671025574207306e-02 2.452164888381958008e-02 -3.610026789829134941e-03 2.897008322179317474e-02
-2.772473357617855072e-02 -2.374451048672199249e-02 -6.185900419950485229e-03 9.760144166648387909e-03
-2.883777953684329987e-03 -3.872812166810035706e-02 1.751811429858207703e-02 3.026048943866044283e-04
2.245357073843479156e-02 4.399184137582778931e-03 4.479998722672462463e-03 3.404132649302482605e-02
-1.797280646860599518e-02 -1.934209140017628670e-04 3.302490711212158203e-02 3.508882969617843628e-02
7.862783037126064301e-03 9.645909070968627930e-03 -3.136288374662399292e-02 -6.016432307660579681e-03
3.324744477868080139e-02 -6.698112469166517258e-03 5.861639976501464844e-03 -1.223920937627553940e-02
5.940213333815336227e-03 2.352029457688331604e-02 -1.216038037091493607e-02 -1.544328127056360245e-02
-2.073207683861255646e-02 2.215422131121158600e-02 6.000413559377193451e-03 3.850087150931358337e-02
-7.899264805018901825e-03 1.610192935913801193e-03 1.983454264700412750e-02 -1.575768738985061646e-02
2.055922523140907288e-03 4.404374863952398300e-03 2.683951146900653839e-02 -1.298062689602375031e-02
4.801488947123289108e-03 3.071780689060688019e-02 2.525257319211959839e-02 -8.569147437810897827e-03
-5.635759407596196979e-06 -3.320825099945068359e-02 8.504981175065040588e-03 2.317581698298454285e-02
-2.440273761749267578e-02 6.242085946723818779e-04 -1.346327085047960281e-02 -1.503099221736192703e-02
-2.700660377740859985e-02 2.269924059510231018e-02 -1.374339684844017029e-03 -4.347436479292809963e-04
-1.299789641052484512e-02 -5.539583042263984680e-03 1.798764429986476898e-02 3.055332601070404053e-02
8.137915283441543579e-03 2.220490388572216034e-02 4.160915315151214600e-02 2.362303808331489563e-02
3.015616163611412048e-02 -1.917164772748947144e-03 3.254935890436172485e-02 1.525421533733606339e-02
3.619084507226943970e-02 4.396206885576248169e-02 8.251765742897987366e-03 3.567110374569892883e-02
-7.225103676319122314e-03 1.989304833114147186e-02 -1.683790120296180248e-03 2.295262925326824188e-02
2.322411164641380310e-02 2.965597622096538544e-02 2.911260165274143219e-02 2.454920485615730286e-02
4.883712623268365860e-03 1.862663589417934418e-02 3.203557804226875305e-02 2.222942933440208435e-02
3.577408567070960999e-02 2.759767882525920868e-02 3.705705329775810242e-02 1.232677511870861053e-02
7.047759369015693665e-03 3.684059483930468559e-03 2.069809474050998688e-02 -8.052822202444076538e-03
-2.963289991021156311e-02 6.283146794885396957e-04 -1.508598122745752335e-02 5.149221397005021572e-04
1.282080728560686111e-02 -2.002006582915782928e-02 1.071607973426580429e-02 -2.942964993417263031e-02
1.181302033364772797e-02 1.501591596752405167e-02 -6.676306948065757751e-03 -1.607941463589668274e-02
3.838101169094443321e-03 1.233091671019792557e-02 1.910165301524102688e-03 -4.494269378483295441e-04
1.017788983881473541e-02 5.156877450644969940e-03 7.685104385018348694e-03 -3.065098263323307037e-02
-1.532524637877941132e-02 -1.520510669797658920e-02 -4.098967649042606354e-03 -5.648785736411809921e-03
1.237964816391468048e-02 -1.323741581290960312e-02 2.910041436553001404e-02 1.630775257945060730e-02
-9.228399954736232758e-03 2.295524999499320984e-02 2.992902323603630066e-02 3.167324885725975037e-02
-1.294978708028793335e-02 -2.316472306847572327e-02 -1.258006523130461574e-04 8.509847975801676512e-05
-1.083495095372200012e-02 2.829539217054843903e-02 1.570948772132396698e-02 -3.459028434008359909e-03
-3.066255524754524231e-02 2.190802944824099541e-03 -2.968196570873260498e-02 -2.195801772177219391e-02
9.976294822990894318e-03 6.495739333331584930e-03 2.072622068226337433e-02 -1.713340915739536285e-02
2.092337235808372498e-02 -1.787410117685794830e-02 1.565362140536308289e-02 -2.181853726506233215e-02
7.813311181962490082e-03 1.133357081562280655e-02 -5.771688651293516159e-03 -1.457859110087156296e-02
-1.998207299038767815e-04 -2.569950371980667114e-02 2.140210568904876709e-02 -1.014424767345190048e-02
-2.371489070355892181e-02 2.229817770421504974e-02 2.134107984602451324e-02 8.001329377293586731e-03
-1.462443731725215912e-02 8.656268008053302765e-03 -2.311042323708534241e-02 1.340159773826599121e-02
-1.688002794981002808e-02 -2.438890188932418823e-02 -8.872535079717636108e-03 -2.356242202222347260e-02
-2.325630001723766327e-02 -6.949190516024827957e-03 4.503763280808925629e-03 4.094583913683891296e-03
1.248159445822238922e-02 -1.067210268229246140e-02 9.258776903152465820e-03 4.504788958001881838e-04
3.583717159926891327e-03 -1.103775016963481903e-02 1.770446822047233582e-02 -1.860971003770828247e-02
2.060980303213000298e-03 -2.016877010464668274e-02 -2.113509364426136017e-02 -1.594073697924613953e-02
1.687134988605976105e-02 8.368198759853839874e-03 2.075892128050327301e-02 -4.275023937225341797e-03
-2.250925265252590179e-02 2.805748255923390388e-03 1.453508436679840088e-02 -2.332646865397691727e-03
1.761983148753643036e-02 -1.270415820181369781e-02 -2.336667105555534363e-02 -2.303356118500232697e-02
-2.144134370610117912e-03 1.222899463027715683e-02 2.197663858532905579e-02 1.566856354475021362e-02
1.180656813085079193e-02 8.907631039619445801e-03 1.948062516748905182e-02 -3.850932000204920769e-03
5.801585037261247635e-03 -3.748457180336117744e-03 -2.201585099101066589e-02 -2.583848126232624054e-02
2.887926064431667328e-03 -2.579660899937152863e-02 -2.652756683528423309e-02 -1.497037243098020554e-02
-4.453956615179777145e-03 7.593431044369935989e-03 1.670649461448192596e-02 1.709752343595027924e-02
-8.353435987373813987e-05 1.296703983098268509e-02 -6.281163077801465988e-03 3.927561920136213303e-03
-1.078584045171737671e-01 -9.598122537136077881e-02 -4.474868997931480408e-02 -8.317721635103225708e-02
-2.378621138632297516e-04 -2.463280968368053436e-02 -6.787761813029646873e-04 8.974963799118995667e-03
1.062910165637731552e-02 -2.518065646290779114e-02 -2.697040140628814697e-02 -8.309450931847095490e-03
-1.370355784893035889e-01 -1.162701994180679321e-01 -8.525325357913970947e-02 -1.040948778390884399e-01
-5.584218353033065796e-02 -1.023226156830787659e-01 -8.565902709960937500e-02 -1.148978099226951599e-01
-8.412769436836242676e-02 -9.833902865648269653e-02 -1.031614765524864197e-01 -1.204122751951217651e-01
-1.456666439771652222e-01 -4.835953935980796814e-02 -3.686914965510368347e-02 -9.672731906175613403e-02
5.597705487161874771e-03 4.449926689267158508e-02 7.946695387363433838e-02 7.788345217704772949e-02
4.103029519319534302e-02 1.846089586615562439e-02 -5.374332517385482788e-02 -7.209024578332901001e-02
-1.782363504171371460e-01 -1.713715940713882446e-01 -1.017517820000648499e-01 -1.397038549184799194e-01
-1.290052831172943115e-01 -3.686012327671051025e-02 -8.086838573217391968e-02 -9.196528047323226929e-02
-9.613081812858581543e-02 -1.009842082858085632e-01 -7.360620796680450439e-02 -7.735928893089294434e-02
-2.220237255096435547e-02 -2.474532090127468109e-02 -3.268128633499145508e-02 -5.469010770320892334e-02
5.505817383527755737e-02 5.662234127521514893e-02 2.482097968459129333e-02 -2.573312632739543915e-02
-8.643929660320281982e-02 -9.415440261363983154e-02 -4.791676625609397888e-02 -4.572822898626327515e-02
-4.547108709812164307e-02 -2.035668306052684784e-02 1.353819947689771652e-02 2.796657010912895203e-02
-2.023631520569324493e-02 -3.976865671575069427e-03 1.234670821577310562e-02 -4.819504451006650925e-03
-3.807956352829933167e-02 -2.115606330335140228e-02 -6.839578598737716675e-02 -5.787411332130432129e-02
9.361693635582923889e-03 -1.395602989941835403e-02 -3.934059292078018188e-02 -5.213624984025955200e-02
-4.155431687831878662e-02 -3.173492476344108582e-02 -6.851192098110914230e-03 6.462027877569198608e-02
-2.522703260183334351e-03 2.097049355506896973e-02 2.801068313419818878e-02 4.811806604266166687e-02
5.583046935498714447e-03 -2.172340452671051025e-02 -1.267900615930557251e-01 -1.262282729148864746e-01
9.112903475761413574e-02 6.200766563415527344e-02 4.388647153973579407e-02 1.152734179049730301e-02
3.334726393222808838e-02 2.255310863256454468e-02 2.138551324605941772e-02 6.555522978305816650e-02
-2.762495912611484528e-02 -2.049100026488304138e-02 -2.385268919169902802e-02 4.805605392903089523e-03
-1.385038048028945923e-01 -1.029016673564910889e-01 -1.095998883247375488e-01 -1.475387960672378540e-01
-2.806279063224792480e-02 -1.728521473705768585e-02 1.018291059881448746e-02 4.625064320862293243e-04
-2.706304006278514862e-02 1.505064964294433594e-02 -2.482490241527557373e-02 -2.741697616875171661e-02
-1.453817076981067657e-02 2.058323100209236145e-02 8.661553263664245605e-03 1.644156291149556637e-03
-1.842314191162586212e-02 -4.340365901589393616e-02 -8.029794692993164062e-02 -1.119934618473052979e-01
-4.455097764730453491e-02 -5.279250815510749817e-02 -9.845840185880661011e-02 -9.507639706134796143e-02
-8.512824028730392456e-02 -8.984028548002243042e-02 -7.141980528831481934e-02 -5.780970677733421326e-02
-8.441555313766002655e-03 -2.953807637095451355e-02 -3.323608636856079102e-02 -6.997429579496383667e-02
-1.567239686846733093e-02 -4.141477122902870178e-02 -3.549272194504737854e-02 -4.622720181941986084e-02
-5.851000919938087463e-02 -5.250239744782447815e-02 -1.443917024880647659e-02 -5.889696255326271057e-02
-4.584488272666931152e-02 -4.077025502920150757e-02 -4.054614156484603882e-02 -7.832400500774383545e-02
-6.002682447433471680e-02 -4.545785114169120789e-02 -2.485514804720878601e-02 -4.521379247307777405e-03
-7.597969472408294678e-02 -6.017838045954704285e-02 -8.718849718570709229e-02 -6.243658438324928284e-02
3.798672184348106384e-02 1.496187690645456314e-02 -1.140925195068120956e-02 -2.780770324170589447e-02
-2.324825897812843323e-02 1.776940003037452698e-02 -4.745019227266311646e-02 -1.071321219205856323e-01
-8.138013631105422974e-02 -2.321957051753997803e-02 -2.231019362807273865e-02 -2.070869877934455872e-02
