2.013404108583927155e-02
-9.427674114704132080e-02
7.802969217300415039e-02
4.414735361933708191e-02
3.066172590479254723e-03
1.702070981264114380e-02
1.051774341613054276e-02
1.058603748679161072e-01
-1.146367844194173813e-02
4.696461558341979980e-02
4.506557062268257141e-02
4.781730100512504578e-02
2.966642677783966064e-01
1.534311287105083466e-02
2.106858044862747192e-02
-2.441343851387500763e-03
-1.473650243133306503e-02
-2.092947997152805328e-02
6.599928252398967743e-03
-1.524717546999454498e-03
1.828525401651859283e-02
6.304269284009933472e-02
-1.078010629862546921e-02
-6.581633538007736206e-02
-4.468256141990423203e-03
7.432172447443008423e-02
-3.475575149059295654e-02
2.758912183344364166e-02
1.597514748573303223e-02
5.319118499755859375e-02
-7.074456661939620972e-03
3.865329176187515259e-02
2.054358087480068207e-02 2.565035410225391388e-02 -1.207089051604270935e-02
-3.108617290854454041e-02 -1.277106720954179764e-02 -8.541436400264501572e-04
4.254956543445587158e-02 -3.276126226410269737e-03 -3.695791354402899742e-03
-5.486448854207992554e-02 -5.480194836854934692e-02 -3.678612783551216125e-02
4.672242794185876846e-03 -5.225578323006629944e-03 2.246310934424400330e-02
8.807974867522716522e-03 -3.015271760523319244e-02 -1.812224090099334717e-02
3.988814540207386017e-03 -9.561887010931968689e-03 -2.878923527896404266e-02
-5.534073337912559509e-02 -2.592406049370765686e-02 2.695819362998008728e-03
1.072854083031415939e-02 2.220676653087139130e-02 -1.825234293937683105e-02
-1.746514998376369476e-02 -3.233925998210906982e-02 5.908085498958826065e-03
-1.268343720585107803e-02 1.051703002303838730e-02 -2.039197459816932678e-02
-4.523519426584243774e-03 3.325837850570678711e-02 4.198282584547996521e-02
-1.514660660177469254e-02 -1.454345602542161942e-02 -9.994639083743095398e-03
-1.012624893337488174e-02 2.481420710682868958e-02 -1.949448487721383572e-03
-1.368740200996398926e-02 -6.379808299243450165e-03 -3.040226921439170837e-02
3.322586044669151306e-02 2.244771271944046021e-02 -2.176219224929809570e-02
8.159969002008438110e-03 -2.807589434087276459e-02 -1.631616987287998199e-02
-5.681303143501281738e-02 -7.287006825208663940e-02 -3.143782541155815125e-02
4.436126910150051117e-03 -1.896716281771659851e-02 1.008582953363656998e-02
-3.807824105024337769e-02 -5.550318956375122070e-02 -5.666813347488641739e-03
1.306870952248573303e-02 -5.479901097714900970e-03 4.121532198041677475e-03
-3.062454052269458771e-02 1.092325709760189056e-02 2.746636606752872467e-02
6.014291662722826004e-03 2.160016819834709167e-02 1.477863267064094543e-02
-1.276278588920831680e-02 7.997292093932628632e-03 2.826336026191711426e-02
-1.014343090355396271e-02 -9.401769493706524372e-04 -1.989816501736640930e-02
-2.677000500261783600e-02 1.318140421062707901e-02 1.695059984922409058e-02
-2.983485348522663116e-02 -1.815496012568473816e-02 8.821849711239337921e-03
1.130069978535175323e-02 2.599041536450386047e-02 2.588840760290622711e-02
2.809649333357810974e-02 2.084446325898170471e-02 -8.417712524533271790e-03
1.307138148695230484e-02 1.142382039688527584e-03 -1.141981873661279678e-02
2.295631915330886841e-02 8.079341612756252289e-03 6.484941113740205765e-04
-1.727441884577274323e-02 -1.253013778477907181e-02 -2.922750450670719147e-02
-4.446306452155113220e-02 -3.580250591039657593e-02 -3.635637089610099792e-02
-2.694752067327499390e-02 -3.639084100723266602e-02 1.501125865615904331e-03
1.163200587034225464e-01 6.566486507654190063e-02 -4.513622820377349854e-02
1.628992557525634766e-01 2.961726859211921692e-02 8.502303808927536011e-02
5.005674809217453003e-02 2.028303965926170349e-02 1.475941985845565796e-01
-6.573245674371719360e-02 -2.006058022379875183e-02 -7.153537124395370483e-03
6.987300515174865723e-02 3.348161652684211731e-02 1.148107945919036865e-01
4.965532105416059494e-03 -4.315761849284172058e-02 1.005719825625419617e-01
-5.180165916681289673e-02 3.536785719916224480e-03 -7.299797143787145615e-03
-7.985493168234825134e-03 1.932688988745212555e-02 1.396460272371768951e-02
6.537427008152008057e-02 2.563454583287239075e-02 4.830085113644599915e-02
-5.450021475553512573e-02 -3.083521872758865356e-02 -8.677350729703903198e-02
9.568322449922561646e-02 3.647336363792419434e-02 5.687718838453292847e-02
-1.096619516611099243e-01 -4.236888885498046875e-02 -9.919531643390655518e-02
1.473789960145950317e-01 7.628984004259109497e-02 -2.467761375010013580e-02
-4.000875353813171387e-02 -1.114536356180906296e-02 -8.201534859836101532e-03
-1.981758279725909233e-03 8.665724308229982853e-04 -9.612713940441608429e-03
1.100273206830024719e-01 1.533658616244792938e-02 1.805417090654373169e-01
6.092657148838043213e-02 5.147225782275199890e-02 1.998486369848251343e-02
5.121960490942001343e-02 -2.315337210893630981e-02 1.154764443635940552e-01
-5.615139845758676529e-03 1.764884404838085175e-02 -1.433455478399991989e-02
-3.182870894670486450e-02 -1.322801131755113602e-02 5.147368833422660828e-02
3.381876274943351746e-02 3.894277662038803101e-02 3.103438951075077057e-02
-3.754743933677673340e-02 2.141804806888103485e-02 -2.035357244312763214e-02
-5.734985694289207458e-02 -1.933187805116176605e-02 6.486276164650917053e-03
2.708007767796516418e-02 -1.205330435186624527e-02 -1.353315077722072601e-02
1.118277665227651596e-02 3.116494417190551758e-02 1.623109914362430573e-02
3.112841770052909851e-02 9.235273115336894989e-03 -1.223441492766141891e-02
7.701564114540815353e-03 9.065922349691390991e-04 -5.272061750292778015e-02
2.153336256742477417e-02 2.464650385081768036e-02 -7.118451595306396484e-02
8.442729711532592773e-03 -1.575091667473316193e-02 -1.409045234322547913e-02
9.664886444807052612e-02 3.371920809149742126e-02 -3.743873909115791321e-02
-5.174782127141952515e-03 3.194441320374608040e-03 -4.666649177670478821e-02
5.523763597011566162e-03 -8.647107519209384918e-03 -1.859282841905951500e-03
5.231830757111310959e-03 -2.142684347927570343e-02 -3.394250571727752686e-02
-2.551915496587753296e-02 -2.904123626649379730e-02 -2.570011839270591736e-02
-5.986272823065519333e-03 4.440739750862121582e-02 2.299884334206581116e-03
-1.860677823424339294e-02 3.226851299405097961e-02 1.161677204072475433e-02
-2.061419002711772919e-02 -9.776859544217586517e-03 1.588881202042102814e-02
9.545251959934830666e-04 4.078736156225204468e-02 -8.932207711040973663e-03
3.513043373823165894e-02 5.314737092703580856e-03 2.060860767960548401e-02
-5.283641163259744644e-03 -8.300192654132843018e-03 2.218162640929222107e-02
1.386874122545123100e-03 2.485545165836811066e-02 -1.506348839029669762e-03
2.662144973874092102e-02 -2.932849340140819550e-02 1.823394000530242920e-02
-5.424622073769569397e-02 -2.976923249661922455e-02 -9.746070951223373413e-03
4.621130973100662231e-02 5.825371481478214264e-03 -1.537226047366857529e-02
-3.493538871407508850e-02 -4.443695652298629284e-04 -3.549435734748840332e-02
-2.059906721115112305e-02 9.175164625048637390e-03 8.660264313220977783e-03
-1.274698507040739059e-02 1.133823487907648087e-02 4.541854932904243469e-02
-3.421413153409957886e-02 -2.535216975957155228e-03 7.636955473572015762e-03
-8.801250718533992767e-03 -2.261735312640666962e-02 5.005841609090566635e-03
-3.288517892360687256e-02 -6.186941638588905334e-03 2.789546549320220947e-02
-3.380424901843070984e-02 -4.580393061041831970e-02 -4.098967090249061584e-02
-3.805630654096603394e-02 9.303343482315540314e-03 3.491793945431709290e-02
2.551399171352386475e-02 -1.829075068235397339e-02 2.902788110077381134e-02
2.388188056647777557e-02 3.881536051630973816e-02 1.450297143310308456e-02
-4.844956099987030029e-03 -3.376564383506774902e-02 1.888624764978885651e-02
-9.111054241657257080e-03 -1.078447327017784119e-02 4.522731527686119080e-03
2.468980476260185242e-02 -6.130057154223322868e-04 1.470722723752260208e-02
-1.144125871360301971e-02 2.383393794298171997e-02 2.274001203477382660e-02
-3.466933220624923706e-02 -2.541017532348632812e-02 -4.634431097656488419e-03
-1.217100583016872406e-02 -3.672163235023617744e-03 2.413029782474040985e-02
-6.146108265966176987e-03 -1.562685333192348480e-02 9.508688002824783325e-03
1.264895126223564148e-02 -3.971951827406883240e-02 -4.197354614734649658e-02
3.521855548024177551e-02 7.974219508469104767e-03 8.406255394220352173e-03
-1.422562822699546814e-02 1.828259788453578949e-03 1.784396916627883911e-02
-3.526458516716957092e-02 -4.067237954586744308e-03 3.251861082389950752e-03
2.561273425817489624e-02 5.952862277626991272e-02 -5.195396952331066132e-03
-3.384674713015556335e-02 -4.019998479634523392e-03 -2.868422865867614746e-02
-1.301881298422813416e-02 -4.982216656208038330e-02 -1.415267772972583771e-02
-1.505332626402378082e-02 -3.541520796716213226e-03 -2.790123596787452698e-02
2.688507735729217529e-02 -8.907273411750793457e-03 -1.317253522574901581e-02
2.028426155447959900e-02 2.352426759898662567e-02 1.821517944335937500e-02
3.904875833541154861e-03 -3.360795089974999428e-03 4.694248491432517767e-04
8.796059526503086090e-03 2.191458083689212799e-02 2.326975204050540924e-02
3.176735714077949524e-02 1.421967637725174427e-03 2.997468225657939911e-02
2.929903380572795868e-02 1.756689138710498810e-02 -3.553087264299392700e-02
4.359385464340448380e-03 -1.665708795189857483e-02 1.075261086225509644e-01
-1.976928487420082092e-02 2.289965562522411346e-02 4.587979242205619812e-02
5.539365112781524658e-03 -2.847023308277130127e-02 2.957081049680709839e-02
2.165003307163715363e-02 1.166643481701612473e-02 1.523875165730714798e-02
4.801235720515251160e-02 3.258667513728141785e-02 -1.054902561008930206e-02
-1.341573311947286129e-03 1.389313861727714539e-02 -2.018285170197486877e-02
1.530482526868581772e-02 -6.267106160521507263e-03 -1.542043033987283707e-02
-1.236893143504858017e-02 2.587330900132656097e-02 -9.992647916078567505e-03
1.402241527102887630e-03 -2.900444902479648590e-02 -4.309104755520820618e-02
-1.578283309936523438e-02 -3.637846559286117554e-02 -7.031072396785020828e-03
-5.357126146554946899e-02 1.404072996228933334e-02 -1.903421618044376373e-02
2.740799449384212494e-02 2.417708933353424072e-02 2.465735003352165222e-02
-2.489125588908791542e-03 -7.914398796856403351e-03 -2.578383870422840118e-02
5.112303886562585831e-03 9.124494157731533051e-03 -3.608124703168869019e-02
-4.676159471273422241e-02 4.405577667057514191e-03 5.585307627916336060e-02
7.414365187287330627e-03 3.363845124840736389e-02 1.808845624327659607e-02
-5.695494636893272400e-02 -3.099965304136276245e-02 2.769972011446952820e-02
4.535012692213058472e-02 2.303987555205821991e-02 5.088388919830322266e-02
5.092171207070350647e-02 3.769547864794731140e-02 4.714265838265419006e-02
-2.562856115400791168e-02 -2.340821176767349243e-02 -4.559457302093505859e-02
-1.837141998112201691e-02 -2.034771069884300232e-02 2.139830030500888824e-02
7.736572623252868652e-02 7.147473096847534180e-02 5.084394663572311401e-02
1.255400776863098145e-01 3.328442573547363281e-02 4.640039056539535522e-02
2.228036709129810333e-02 3.715078905224800110e-02 5.884721130132675171e-02
-3.724396973848342896e-02 1.866658404469490051e-02 5.568018928170204163e-02
9.538860060274600983e-03 1.976744644343852997e-02 1.437177602201700211e-02
1.574534364044666290e-02 -1.568848267197608948e-02 3.106405213475227356e-02
-3.680049628019332886e-02 2.092992700636386871e-02 1.821064949035644531e-02
-1.053391210734844208e-02 -3.164435178041458130e-02 1.568906567990779877e-02
4.955962765961885452e-03 2.141956984996795654e-02 -1.437885500490665436e-02
-1.384152844548225403e-02 -3.980455547571182251e-02 -2.627306431531906128e-02
8.582105487585067749e-02 1.132346410304307938e-02 4.437172785401344299e-02
-5.929272621870040894e-02 -3.102140873670578003e-02 1.053485088050365448e-02
3.795053064823150635e-02 2.886957861483097076e-02 5.838611628860235214e-03
-4.524062946438789368e-02 -1.463621389120817184e-02 5.096131190657615662e-02
9.843174368143081665e-03 2.599849365651607513e-02 7.055989466607570648e-03
1.050982773303985596e-01 -5.887325853109359741e-03 1.487870234996080399e-02
1.814566180109977722e-02 4.130566120147705078e-02 3.178283572196960449e-02
3.029040247201919556e-02 1.465165335685014725e-02 -4.026646167039871216e-02
-8.155493997037410736e-03 1.318005286157131195e-02 1.363256014883518219e-02
-2.652309834957122803e-02 -4.856949672102928162e-02 -9.259334765374660492e-03
-1.564465835690498352e-02 3.041775152087211609e-02 -2.930479124188423157e-03
-5.244515836238861084e-02 -1.610000245273113251e-02 -1.115443184971809387e-03
-2.482207491993904114e-02 -3.257921338081359863e-02 -3.020417504012584686e-02
1.764907501637935638e-02 -6.748545449227094650e-03 1.713812910020351410e-02
3.922064229846000671e-02 5.271192057989537716e-04 -1.443355903029441833e-02
-5.002689734101295471e-02 1.947572268545627594e-02 1.777190715074539185e-02
4.379062727093696594e-02 -1.350731868296861649e-02 -3.078953549265861511e-02
-1.092028804123401642e-03 -1.886448450386524200e-02 5.183920636773109436e-02
1.388746965676546097e-02 3.489933907985687256e-02 -1.622622273862361908e-02
1.010403335094451904e-01 1.152802351862192154e-02 -2.124897204339504242e-02
3.224291279911994934e-02 -1.693975180387496948e-02 3.775364533066749573e-02
-4.498271271586418152e-03 2.026323974132537842e-02 8.594131097197532654e-03
1.937396079301834106e-02 2.974486444145441055e-03 2.970008179545402527e-02
1.634686440229415894e-02 3.929860144853591919e-02 8.855605497956275940e-03
3.923635464161634445e-03 1.141828950494527817e-02 -9.418568573892116547e-03
-3.332839161157608032e-02 3.660889342427253723e-03 -3.935752902179956436e-03
1.975835673511028290e-02 -2.727339975535869598e-02 -3.060659207403659821e-02
1.344494707882404327e-02 -4.656657576560974121e-03 -2.048901282250881195e-02
1.546066161245107651e-02 8.668909780681133270e-03 1.131070125848054886e-02
-2.415957115590572357e-02 1.252131164073944092e-02 7.499212864786386490e-03
-9.179253131151199341e-03 4.669412039220333099e-03 -9.747517295181751251e-03
-1.464075059629976749e-03 2.778308279812335968e-02 2.121356315910816193e-02
1.997403055429458618e-02 5.801427178084850311e-03 3.474826738238334656e-02
1.579151675105094910e-02 2.913252077996730804e-02 3.092719998676329851e-04
-1.340911164879798889e-02 2.773642539978027344e-03 -1.854128576815128326e-02
-5.857317242771387100e-03 -1.277932431548833847e-02 5.660413950681686401e-02
-1.230485457926988602e-02 -4.186016041785478592e-03 -1.179508399218320847e-02
2.357332222163677216e-02 -1.204721163958311081e-02 -1.766105554997920990e-02
-3.147635608911514282e-02 2.394847758114337921e-02 -2.372552827000617981e-02
-3.787806024774909019e-03 -2.990553528070449829e-02 -4.060402512550354004e-02
-1.044635754078626633e-02 6.685775704681873322e-03 2.386511303484439850e-02
8.147230371832847595e-03 -7.739439606666564941e-03 2.828255994245409966e-03
-2.606167457997798920e-02 -1.496613398194313049e-02 3.018204355612397194e-03
2.823223918676376343e-02 2.620682679116725922e-02 -4.284097813069820404e-03
-1.761251874268054962e-02 6.351515650749206543e-03 -1.796573214232921600e-02
-3.274648264050483704e-02 1.254591718316078186e-02 2.377941273152828217e-03
2.390114217996597290e-02 1.210394222289323807e-02 -1.971772435354068875e-04
2.416686154901981354e-02 3.123800037428736687e-03 3.987235575914382935e-02
-2.845176681876182556e-02 -2.591148950159549713e-03 -7.399893831461668015e-03
3.489431366324424744e-02 3.809729591012001038e-03 2.496172487735748291e-02
-1.944690942764282227e-02 2.955348417162895203e-02 2.703028731048107147e-02
8.870418532751500607e-04 8.242981508374214172e-03 -2.582880668342113495e-02
2.102345041930675507e-02 -2.387119457125663757e-02 -1.856274902820587158e-02
-2.025215886533260345e-02 -4.360971972346305847e-03 -2.462504431605339050e-02
-6.439969409257173538e-03 -8.283980190753936768e-03 1.034348178654909134e-02
1.652907952666282654e-02 -1.907217502593994141e-02 3.425765084102749825e-03
8.067796006798744202e-03 -2.270265482366085052e-02 -6.866204552352428436e-03
-2.056801505386829376e-02 -2.188657037913799286e-02 -1.230383350048214197e-04
-2.869220450520515442e-02 1.587479142472147942e-03 -2.771813981235027313e-02
2.029922418296337128e-02 -9.292145259678363800e-03 -4.419116303324699402e-03
4.028922878205776215e-03 -1.557980384677648544e-02 -9.176322259008884430e-03
-8.695621043443679810e-03 1.072394006769172847e-04 2.017557993531227112e-02
1.230173371732234955e-02 -2.395351789891719818e-02 1.453766832128167152e-03
2.817846368998289108e-03 1.958812400698661804e-02 -2.575784549117088318e-02
-3.632271196693181992e-03 1.416782266460359097e-03 -7.971972227096557617e-04
1.507695112377405167e-02 1.020055077970027924e-02 1.850074343383312225e-02
-1.179848890751600266e-02 -2.315881662070751190e-02 3.055736795067787170e-02
-1.785585097968578339e-02 -1.352873258292675018e-02 -2.302151173353195190e-02
-2.624086290597915649e-02 -1.171213295310735703e-02 -2.561237663030624390e-02
-1.976162753999233246e-02 -2.413636259734630585e-02 9.385373443365097046e-03
2.083007246255874634e-02 2.020908985286951065e-03 2.441737614572048187e-02
-1.051558833569288254e-02 -8.053038269281387329e-03 -4.896156489849090576e-03
-2.913833782076835632e-02 2.113656140863895416e-02 -6.485782563686370850e-03
9.448518976569175720e-03 1.147911418229341507e-02 -2.919845283031463623e-02
-2.734772674739360809e-02 1.515063177794218063e-02 -2.862865477800369263e-02
7.061035139486193657e-04 5.529507994651794434e-03 2.658661920577287674e-03
2.678929828107357025e-03 -2.419791184365749359e-02 -2.459396421909332275e-02
-1.136346999555826187e-02 -2.099724020808935165e-03 4.897533450275659561e-03
-1.639813184738159180e-02 -2.616466954350471497e-02 -1.420266367495059967e-02
-2.639309037476778030e-03 -1.025443617254495621e-02 2.731262333691120148e-02
1.429478079080581665e-02 2.952268347144126892e-03 9.857759810984134674e-03
-1.352921500802040100e-02 -1.941049844026565552e-02 2.156450413167476654e-02
-1.255311071872711182e-02 -2.317231521010398865e-02 -1.382708642631769180e-02
9.843644686043262482e-03 -1.780028641223907471e-02 -1.491336803883314133e-02
1.596549525856971741e-02 8.905657567083835602e-03 3.196533769369125366e-02
3.409512806683778763e-03 2.793050371110439301e-02 1.680834777653217316e-02
3.684845566749572754e-02 5.420785024762153625e-02 2.292855456471443176e-02
-2.842825278639793396e-02 2.485497482120990753e-02 3.025962784886360168e-02
-5.041012540459632874e-02 -4.240017384290695190e-03 -3.857427835464477539e-02
3.616539016366004944e-02 2.148958854377269745e-02 1.405288372188806534e-02
1.169990748167037964e-02 2.465762756764888763e-02 8.958550170063972473e-03
-2.141972072422504425e-02 -1.592028886079788208e-02 -1.191545557230710983e-02
5.017211288213729858e-02 -1.012689154595136642e-02 8.965492248535156250e-03
4.033133387565612793e-02 4.053096845746040344e-02 2.499498426914215088e-02
-4.146022349596023560e-02 -2.605437859892845154e-02 -1.599463634192943573e-03
-3.330647200345993042e-02 -3.962026163935661316e-02 5.062354262918233871e-03
2.221145667135715485e-02 5.126781016588211060e-02 4.820459056645631790e-03
4.391267895698547363e-02 -4.919920582324266434e-03 7.631806284189224243e-02
-3.032046556472778320e-02 1.145943999290466309e-02 3.529663383960723877e-02
6.230150163173675537e-02 -8.633468300104141235e-03 7.194054871797561646e-02
-3.704016795381903648e-03 -3.676325827836990356e-02 3.506784094497561455e-03
-2.576870284974575043e-02 6.487277336418628693e-03 -5.341304093599319458e-02
-5.031980946660041809e-02 -3.113523125648498535e-02 4.077299963682889938e-03
9.850361384451389313e-03 -2.192251756787300110e-02 -4.724129568785429001e-03
-1.417454984039068222e-02 -9.192757308483123779e-03 3.340505436062812805e-02
-4.820234607905149460e-03 1.690375618636608124e-02 -5.665296688675880432e-03
-9.311998263001441956e-03 8.943374268710613251e-03 -4.140548408031463623e-02
2.303077280521392822e-02 -4.659651592373847961e-02 3.594818711280822754e-02
-1.662998273968696594e-02 2.427900955080986023e-02 2.280243486166000366e-02
7.788110524415969849e-03 -3.766172751784324646e-02 -2.073980122804641724e-02
-2.450575307011604309e-02 -1.177211292088031769e-02 -8.824716322124004364e-03
6.844651699066162109e-02 -4.079964011907577515e-03 4.132880270481109619e-02
-2.174426615238189697e-02 -2.598153427243232727e-02 -2.755451714619994164e-03
3.876044973731040955e-02 2.795047871768474579e-02 6.590696424245834351e-02
1.527725625783205032e-02 -5.351269617676734924e-03 4.635070636868476868e-02
-3.030568361282348633e-02 1.191607094369828701e-03 5.723476409912109375e-02
4.449001047760248184e-03 4.915485624223947525e-03 -2.841243892908096313e-02
-1.929198019206523895e-02 2.187640406191349030e-02 -1.549941767007112503e-02
-1.808600500226020813e-02 1.118272822350263596e-02 -2.292829565703868866e-02
1.782304607331752777e-02 3.344550495967268944e-03 1.654862798750400543e-02
2.479058876633644104e-02 2.571792714297771454e-02 1.331138983368873596e-02
-9.106479585170745850e-03 1.092508714646100998e-02 1.621809438802301884e-03
2.630713768303394318e-02 1.986625418066978455e-02 1.142293307930231094e-02
-2.448455058038234711e-02 1.947984844446182251e-02 -2.119009196758270264e-02
3.659739857539534569e-03 -1.452574972063302994e-03 1.771761290729045868e-02
-1.130012050271034241e-02 -1.242545992136001587e-02 2.409990318119525909e-02
2.327448688447475433e-02 -5.391606246121227741e-04 -1.970261149108409882e-02
-6.833093706518411636e-03 -2.284620568389073014e-04 2.054619975388050079e-02
1.401213556528091431e-02 -1.107545103877782822e-02 -1.003539748489856720e-02
1.330922916531562805e-02 2.972332946956157684e-02 -2.399945259094238281e-02
-1.451722998172044754e-02 3.003887459635734558e-02 9.239495731890201569e-03
-7.062366697937250137e-03 1.932035014033317566e-02 2.337094768881797791e-02
1.799226179718971252e-02 2.091395901516079903e-03 -2.725597470998764038e-02
-2.801560424268245697e-02 1.302806939929723740e-02 -2.423965744674205780e-02
2.315375395119190216e-02 -2.867173589766025543e-02 -9.236555546522140503e-03
-5.367302801460027695e-03 -7.708631921559572220e-03 -2.002485282719135284e-02
-3.071876615285873413e-02 -3.009250573813915253e-02 1.824953220784664154e-02
1.696206629276275635e-02 -1.514171744929626584e-04 3.537438111379742622e-03
1.460473984479904175e-02 2.156807295978069305e-02 2.184731885790824890e-02
-2.652816101908683777e-02 -1.202319562435150146e-02 -1.963637582957744598e-02
2.640171721577644348e-02 -8.022120222449302673e-03 3.142537921667098999e-02
-9.493836550973355770e-04 -1.745605468750000000e-02 2.138844877481460571e-02
1.458814926445484161e-02 5.628511426039040089e-04 1.693420298397541046e-02
1.101175075746141374e-05 8.264319971203804016e-03 -2.886869199573993683e-02
1.694917678833007812e-02 -1.417929492890834808e-02 -2.694140747189521790e-02
-2.777959592640399933e-02 -1.890836283564567566e-02 2.150800079107284546e-02
-1.630329899489879608e-02 5.070961546152830124e-03 1.745961047708988190e-02
-2.316877618432044983e-02 9.376186877489089966e-03 -1.673972234129905701e-02
1.975098066031932831e-02 1.128092501312494278e-02 3.614742681384086609e-02
1.187181193381547928e-02 -6.294165737926959991e-03 6.269975751638412476e-02
-4.031314514577388763e-03 -4.273329302668571472e-02 -3.148077055811882019e-02
-1.250634491443634033e-01 -4.831980168819427490e-02 3.790231794118881226e-02
4.177212715148925781e-02 -4.651205148547887802e-03 -3.350836411118507385e-02
-4.443175159394741058e-03 5.520837381482124329e-02 3.620978444814682007e-02
-2.460905723273754120e-02 -8.024770766496658325e-03 6.915214471518993378e-03
-5.334499850869178772e-02 -2.792182564735412598e-02 -1.412245444953441620e-02
1.584856421686708927e-03 2.673708833754062653e-03 4.530276358127593994e-02
1.395310275256633759e-02 2.530240220949053764e-03 -5.031593516469001770e-02
2.765176817774772644e-02 -1.707409508526325226e-02 8.264561183750629425e-03
1.241431757807731628e-02 2.666244283318519592e-02 -6.446812301874160767e-02
-5.786058679223060608e-02 3.728459030389785767e-02 4.610975086688995361e-02
1.249077022075653076e-01 4.273347929120063782e-02 7.537718862295150757e-02
-3.245388716459274292e-02 -1.906690746545791626e-02 3.760839253664016724e-02
-4.726439248770475388e-03 2.259057573974132538e-02 1.044394746422767639e-01
-9.786617010831832886e-03 1.630817539989948273e-02 -2.737899683415889740e-02
-7.923924177885055542e-02 -2.411776222288608551e-03 -2.091199345886707306e-02
-5.391382053494453430e-02 -1.154882018454372883e-03 -5.146231502294540405e-02
-5.825509130954742432e-02 -3.825188055634498596e-02 -2.623438648879528046e-02
-9.787406306713819504e-04 1.803783327341079712e-02 -2.395907416939735413e-02
-1.735927723348140717e-02 2.777095139026641846e-02 2.065845765173435211e-02
1.325207296758890152e-02 1.096350792795419693e-02 7.433180697262287140e-03
1.124246511608362198e-02 -9.155176579952239990e-03 5.252621695399284363e-02
1.508146338164806366e-02 -3.731172159314155579e-02 -4.820023849606513977e-02
-1.832470856606960297e-02 2.636159956455230713e-02 8.692563511431217194e-03
-9.059111587703227997e-03 1.839814335107803345e-02 -2.989512681961059570e-02
2.405081875622272491e-02 3.465001285076141357e-02 1.637065038084983826e-02
-5.633383244276046753e-02 -1.222971547394990921e-02 -9.227753034792840481e-04
-2.705425582826137543e-02 -2.803309587761759758e-03 6.980022042989730835e-02
4.602738097310066223e-02 1.895817555487155914e-02 1.658645458519458771e-02
-4.472905397415161133e-02 -2.215784788131713867e-02 3.778517991304397583e-02
-2.692416310310363770e-02 -4.295474500395357609e-04 -7.123213261365890503e-03
2.005768241360783577e-03 -2.338344417512416840e-02 2.547013573348522186e-02
2.457366511225700378e-02 5.495410040020942688e-02 4.066443815827369690e-02
5.165897682309150696e-02 -1.528913807123899460e-02 3.874057903885841370e-02
4.054917488247156143e-03 -3.025589138269424438e-02 -1.309363078325986862e-02
-2.359499409794807434e-02 -1.455648895353078842e-02 -3.070502076297998428e-03
9.780596010386943817e-03 2.689008601009845734e-02 2.229282818734645844e-02
1.889066398143768311e-02 1.232217065989971161e-02 -1.916130259633064270e-02
-1.981066539883613586e-02 1.737785525619983673e-02 8.240255527198314667e-03
-3.356805071234703064e-02 -2.832187339663505554e-03 -5.516510922461748123e-03
-3.581969300284981728e-03 2.391754835844039917e-02 2.358610183000564575e-02
-1.332178595475852489e-03 -3.092788858339190483e-03 -3.622967749834060669e-02
1.327019929885864258e-02 6.759153679013252258e-03 -1.838256604969501495e-02
-3.343978896737098694e-02 3.798393160104751587e-02 7.448802143335342407e-02
2.174280211329460144e-02 3.777662292122840881e-02 2.268900908529758453e-02
-2.346872352063655853e-02 8.406103588640689850e-03 1.585347577929496765e-02
8.982706815004348755e-03 2.234302461147308350e-02 1.874455995857715607e-02
-2.832742873579263687e-03 1.330702379345893860e-02 -3.074012137949466705e-02
1.589208282530307770e-02 2.981522493064403534e-02 3.463907912373542786e-02
1.315812766551971436e-02 -3.224016726016998291e-02 -5.847169551998376846e-03
-1.942564174532890320e-02 -2.243371494114398956e-02 -1.585715636610984802e-02
5.697971675544977188e-03 -4.412112757563591003e-02 -4.713121056556701660e-02
-2.811631932854652405e-02 -1.807932741940021515e-02 -2.025238052010536194e-02
-2.871826477348804474e-02 2.332528680562973022e-02 1.530621945858001709e-02
-1.013885121210478246e-04 -1.492235623300075531e-02 2.174061955884099007e-03
-2.766092307865619659e-03 3.323676437139511108e-02 5.324366036802530289e-03
1.740233413875102997e-02 1.256539765745401382e-02 -3.804406896233558655e-02
-5.879399552941322327e-02 -7.036624592728912830e-04 2.070791646838188171e-02
-4.975694697350263596e-03 3.944344818592071533e-03 3.342383541166782379e-03
-6.582848727703094482e-03 1.693287864327430725e-02 3.939499333500862122e-02
-1.085366122424602509e-02 -1.650171168148517609e-02 2.881765738129615784e-02
6.225323304533958435e-02 3.981252014636993408e-02 3.220107406377792358e-02
-2.550369314849376678e-02 1.476099342107772827e-02 -2.106374129652976990e-02
-3.632795810699462891e-02 -3.057145699858665466e-02 -5.024502519518136978e-03
1.927099935710430145e-02 -3.735781833529472351e-02 -5.977378785610198975e-02
2.675979956984519958e-02 -4.020530357956886292e-02 7.852996140718460083e-02
4.375604912638664246e-02 7.868421077728271484e-02 7.643773406744003296e-02
-1.083809882402420044e-02 8.971114642918109894e-03 -3.516202047467231750e-02
5.699891597032546997e-02 3.460446372628211975e-02 7.079286128282546997e-02
1.553698163479566574e-02 2.814899198710918427e-02 5.362805351614952087e-02
-4.029270261526107788e-02 -3.106574527919292450e-02 -1.904878765344619751e-02
1.195092406123876572e-02 2.232911996543407440e-02 3.568876907229423523e-02
4.971650987863540649e-02 3.279736638069152832e-02 6.625103950500488281e-02
2.736151218414306641e-02 2.878080494701862335e-02 -8.248522877693176270e-03
3.428000782150775194e-04 -3.578926250338554382e-02 2.411636151373386383e-02
2.386641874909400940e-02 9.931299835443496704e-03 -1.816359907388687134e-02
5.302260816097259521e-02 3.319519385695457458e-02 -2.785633876919746399e-02
2.379229757934808731e-03 -2.317186631262302399e-02 -6.491004675626754761e-02
2.378553524613380432e-02 -3.255936782807111740e-03 4.110452532768249512e-02
4.481553286314010620e-02 4.965888708829879761e-02 1.017112061381340027e-01
4.924404993653297424e-02 3.534616436809301376e-03 9.041954763233661652e-03
1.012432202696800232e-02 -1.796456240117549896e-02 9.970990568399429321e-02
-3.633571323007345200e-03 2.130686491727828979e-02 -2.161522209644317627e-02
6.076158490031957626e-03 1.312742009758949280e-02 2.535388246178627014e-02
2.177896164357662201e-02 2.326440252363681793e-02 3.964898735284805298e-02
-2.593417838215827942e-02 -2.313269488513469696e-02 -4.763486981391906738e-02
2.445150865241885185e-03 3.686344949528574944e-03 -2.384273521602153778e-02
-4.996221978217363358e-03 2.601457992568612099e-03 4.108387976884841919e-02
1.711713708937168121e-02 1.379528432153165340e-03 -1.106829196214675903e-02
7.616994436830282211e-03 5.353474523872137070e-03 -1.032729223370552063e-01
-2.250666031613945961e-03 -1.502026896923780441e-02 -5.934156477451324463e-03
-5.956893786787986755e-02 -4.154045507311820984e-02 -8.925069868564605713e-02
-2.186346100643277168e-03 1.113274134695529938e-02 -3.603583574295043945e-02
1.728635281324386597e-02 7.746755611151456833e-03 -3.548638895153999329e-02
8.799472451210021973e-02 6.253606826066970825e-02 8.503118902444839478e-02
1.794813387095928192e-02 5.157490074634552002e-02 6.282101571559906006e-02
2.380265295505523682e-02 1.852837763726711273e-02 9.230670332908630371e-02
-8.318781852722167969e-02 7.044638693332672119e-02 3.828658536076545715e-02
-3.938454762101173401e-02 -5.359625443816184998e-02 -9.309517592191696167e-02
7.075116038322448730e-02 4.597846709657460451e-04 2.360376529395580292e-02
-5.173193290829658508e-02 5.897617898881435394e-03 -6.699393689632415771e-02
-7.479205261915922165e-03 1.170637551695108414e-02 -6.792915612459182739e-02
1.066112965345382690e-01 -3.477636724710464478e-03 6.475918740034103394e-02
2.871608128771185875e-03 4.346041008830070496e-02 -2.347769588232040405e-02
-7.842361181974411011e-02 -1.606515957973897457e-03 -7.987446337938308716e-02
-2.852079458534717560e-02 -2.731776610016822815e-02 -2.771839313209056854e-02
2.333556674420833588e-02 5.909603089094161987e-02 1.944430544972419739e-02
1.750223338603973389e-01 5.136943981051445007e-02 1.579882502555847168e-01
-3.951105475425720215e-02 -1.199838053435087204e-02 -1.905441470444202423e-02
6.540581583976745605e-02 4.856076836585998535e-02 1.452434957027435303e-01
-4.427264258265495300e-02 -7.841443270444869995e-02 -5.918862298130989075e-02
-9.312931448221206665e-02 1.991903409361839294e-02 -7.350242882966995239e-02
-1.456793844699859619e-01 -6.108604744076728821e-02 -1.049497798085212708e-01
-6.254936009645462036e-02 1.047281362116336823e-02 -8.561354130506515503e-02
2.233093604445457458e-03 4.500709846615791321e-02 1.196239888668060303e-02
7.418771833181381226e-02 2.028903551399707794e-02 1.644934527575969696e-03
-4.729187861084938049e-02 -4.002784565091133118e-02 -6.822701543569564819e-02
5.058387666940689087e-02 -8.343242108821868896e-03 2.292626164853572845e-02
-1.697212830185890198e-02 2.342854812741279602e-02 3.628956153988838196e-03
-1.052334811538457870e-02 -2.841077931225299835e-02 -3.162224963307380676e-02
-4.397364705801010132e-02 -5.136475339531898499e-02 -4.684065654873847961e-02
1.688904613256454468e-01 2.621303312480449677e-02 1.773509234189987183e-01
-2.097950084134936333e-03 3.025271371006965637e-02 2.123606950044631958e-02
1.235158592462539673e-01 1.756504364311695099e-02 8.191557973623275757e-02
7.570488750934600830e-02 5.271282419562339783e-02 7.272394001483917236e-02
-3.512380644679069519e-02 9.387293830513954163e-03 6.400811672210693359e-02
-5.698379129171371460e-03 -1.153625175356864929e-02 -9.275375865399837494e-03
-2.687951922416687012e-02 1.278325915336608887e-02 1.116111408919095993e-02
2.097181417047977448e-02 3.606602177023887634e-02 3.020838461816310883e-02
1.096151489764451981e-02 -4.142193868756294250e-02 -5.837378650903701782e-02
2.455877885222434998e-02 -3.111525624990463257e-02 -5.130155757069587708e-02
2.189103700220584869e-02 -3.125590458512306213e-02 -1.318768970668315887e-02
-1.167611032724380493e-02 -7.791068055666983128e-04 -1.137708313763141632e-02
7.558745797723531723e-03 -1.669293455779552460e-02 -4.206565674394369125e-03
3.756007552146911621e-02 8.411493152379989624e-03 1.913327537477016449e-02
7.901914417743682861e-03 1.947932317852973938e-02 -2.114950492978096008e-02
2.544253878295421600e-02 5.597170442342758179e-03 1.063767168670892715e-02
-3.058278188109397888e-02 4.839999973773956299e-02 3.167289122939109802e-02
-6.156094837933778763e-03 -2.760085277259349823e-02 8.200238458812236786e-03
6.201909482479095459e-02 1.050751376897096634e-02 1.204429101198911667e-02
-2.707701176404953003e-02 -2.223236672580242157e-02 -3.833172470331192017e-02
-1.556521188467741013e-02 -3.059310093522071838e-02 -3.631116589531302452e-03
1.452369615435600281e-02 -2.578169293701648712e-02 -3.306738287210464478e-02
-6.195143796503543854e-04 -1.586480252444744110e-02 5.275209899991750717e-03
-5.240986868739128113e-02 -3.395026177167892456e-02 2.083098888397216797e-02
8.703410625457763672e-03 -3.307887818664312363e-03 -2.663555927574634552e-02
2.220626920461654663e-02 -9.549082256853580475e-03 1.364498585462570190e-02
-1.548335328698158264e-02 1.918162405490875244e-02 1.470609800890088081e-03
-4.677318036556243896e-03 1.309369038790464401e-02 -2.801432088017463684e-02
2.247556112706661224e-02 1.233922317624092102e-03 1.248420029878616333e-02
-3.130235522985458374e-02 -1.066641043871641159e-02 1.729122921824455261e-02
2.824139595031738281e-02 4.095124546438455582e-03 -1.297755725681781769e-02
3.162495046854019165e-02 3.388915909454226494e-03 9.957715868949890137e-03
6.233233585953712463e-02 2.359027042984962463e-02 -1.548158656805753708e-02
1.871886663138866425e-02 3.148036310449242592e-03 -7.649268023669719696e-03
3.720568865537643433e-02 4.542786162346601486e-03 -2.662597782909870148e-02
9.322254918515682220e-03 3.394592925906181335e-02 -9.134222753345966339e-03
-2.766356430947780609e-02 -2.540477365255355835e-02 1.206074561923742294e-02
1.731470460072159767e-03 -3.377946093678474426e-02 -2.896432019770145416e-02
-2.232485264539718628e-02 -9.425998665392398834e-03 -6.279919762164354324e-03
-1.359731424599885941e-02 -1.708125229924917221e-03 1.305225957185029984e-02
1.100507229566574097e-01 2.949840202927589417e-02 -1.309574116021394730e-02
-3.855261020362377167e-03 4.434645920991897583e-02 3.505289182066917419e-02
-9.300266392529010773e-03 -2.506647631525993347e-02 2.795512229204177856e-02
4.046846553683280945e-02 4.539848491549491882e-02 1.148442365229129791e-02
3.550454601645469666e-02 -1.186196599155664444e-02 5.374628677964210510e-02
-3.225497901439666748e-02 5.691227503120899200e-03 -2.324975281953811646e-02
-2.594547159969806671e-02 9.580931626260280609e-03 3.223359584808349609e-02
4.606563225388526917e-02 3.081266395747661591e-02 -5.997470580041408539e-03
-1.547911949455738068e-02 -1.554667856544256210e-02 1.864012517035007477e-02
1.748618483543395996e-02 1.353812590241432190e-02 -2.308681420981884003e-02
-7.232160121202468872e-02 -6.633788347244262695e-02 -1.224302574992179871e-01
4.746773838996887207e-02 9.486324153840541840e-03 -2.138736471533775330e-02
-7.532930001616477966e-03 3.687774529680609703e-03 -3.258057311177253723e-02
4.318821057677268982e-02 2.560263313353061676e-02 4.325722530484199524e-02
6.037795916199684143e-02 3.944577649235725403e-02 1.029829122126102448e-02
9.762205183506011963e-02 7.637028396129608154e-02 1.687357015907764435e-02
6.807851791381835938e-02 2.246479131281375885e-02 4.295475780963897705e-02
-3.058899194002151489e-02 1.147584337741136551e-02 -9.568986482918262482e-03
-5.518200993537902832e-02 -3.610114753246307373e-02 -2.361623337492346764e-03
4.677269235253334045e-02 3.220325161237269640e-04 1.221034955233335495e-02
-4.946840181946754456e-02 2.863527648150920868e-02 -6.509245838969945908e-03
-5.947228055447340012e-03 -3.496608510613441467e-02 5.432127974927425385e-03
3.709323704242706299e-02 3.836479783058166504e-02 -1.027131918817758560e-02
3.480330482125282288e-02 3.631373122334480286e-02 -1.991168409585952759e-02
-5.540630221366882324e-02 3.898310940712690353e-03 -7.758582476526498795e-03
-1.037380937486886978e-02 5.050722509622573853e-03 7.474212441593408585e-03
-1.764399744570255280e-02 -6.364789325743913651e-03 -5.467098951339721680e-02
7.172997575253248215e-03 1.808656961657106876e-03 5.978808272629976273e-03
3.725610673427581787e-02 1.997241936624050140e-02 1.457399688661098480e-03
6.127958768047392368e-04 -2.655537053942680359e-02 -9.457060135900974274e-03
-2.317221462726593018e-02 1.359397079795598984e-02 -2.449962869286537170e-02
-3.996885847300291061e-03 1.259861141443252563e-02 -7.251814007759094238e-03
2.553603611886501312e-03 -5.143343005329370499e-03 8.780178613960742950e-03
1.637537591159343719e-02 -2.913386560976505280e-02 2.559455111622810364e-02
-8.897867053747177124e-03 1.781801320612430573e-02 4.006382077932357788e-03
-1.822253875434398651e-02 1.783652417361736298e-02 -2.246750891208648682e-02
2.340672351419925690e-02 -3.052761591970920563e-02 2.793268486857414246e-02
-1.006939541548490524e-02 8.763680234551429749e-03 1.722291484475135803e-02
1.835635304450988770e-02 2.905456908047199249e-02 -1.886205561459064484e-02
-1.151883695274591446e-02 5.257989745587110519e-03 -2.775742858648300171e-02
-1.903291977941989899e-02 2.363416133448481560e-04 -1.734299771487712860e-02
-1.509244740009307861e-02 2.166095748543739319e-02 -2.773829549551010132e-02
-1.762017048895359039e-02 4.569970071315765381e-03 6.263270974159240723e-03
2.849779650568962097e-02 -3.045065701007843018e-02 2.718791738152503967e-02
-1.934428513050079346e-02 7.694711443036794662e-03 -1.474687270820140839e-02
1.311430241912603378e-02 -2.771812863647937775e-02 -2.813986130058765411e-02
-7.536553777754306793e-03 -1.439051004126667976e-03 -1.579041592776775360e-02
2.925749309360980988e-02 2.106494829058647156e-02 1.366023998707532883e-02
-2.145240455865859985e-02 -3.301758086308836937e-03 -2.408010419458150864e-03
1.086081098765134811e-02 -8.633102290332317352e-03 1.694916188716888428e-02
2.053816337138414383e-03 4.648060537874698639e-03 -4.872635181527584791e-04
1.192859024740755558e-03 2.943116612732410431e-02 -5.545136518776416779e-03
-5.183892324566841125e-03 -1.153682731091976166e-02 -1.619998924434185028e-02
-2.986278571188449860e-02 -2.889526262879371643e-02 -2.083404920995235443e-02
-1.157313957810401917e-02 -2.089597051963210106e-03 -2.446305705234408379e-03
7.758857682347297668e-03 1.201536506414413452e-03 -2.339485660195350647e-02
-1.930782385170459747e-02 -7.281745783984661102e-03 -2.268873341381549835e-02
1.304205856285989285e-03 4.225640092045068741e-03 -9.667906560935080051e-04
3.091643378138542175e-02 -1.601842790842056274e-02 -2.771962806582450867e-02
-1.841748319566249847e-02 4.645902081392705441e-04 -4.663616884499788284e-03
-3.134187310934066772e-02 1.206902135163545609e-02 1.346397306770086288e-02
-1.265039667487144470e-02 2.628426882438361645e-04 5.625182297080755234e-03
2.208675071597099304e-02 -2.287268266081809998e-02 1.285168342292308807e-02
-1.814871653914451599e-02 -2.638681046664714813e-02 -2.854955755174160004e-02
-2.327702753245830536e-02 -1.859623193740844727e-02 2.567646838724613190e-02
-4.502765368670225143e-03 -2.576731378212571144e-03 -2.613964490592479706e-02
-6.533042527735233307e-03 2.836104715242981911e-03 -4.577382933348417282e-03
2.686453051865100861e-02 5.872102454304695129e-03 2.213318087160587311e-02
-1.707525365054607391e-02 -4.075764212757349014e-03 3.866374725475907326e-03
-2.039385214447975159e-02 -1.748315989971160889e-02 1.063800510019063950e-02
-1.929705031216144562e-02 -3.454151796177029610e-03 1.987969689071178436e-02
-2.131265960633754730e-02 -1.270912960171699524e-02 2.452927269041538239e-02
-2.248387783765792847e-02 1.237914059311151505e-02 2.663610689342021942e-02
7.112740073353052139e-03 -2.000662311911582947e-02 1.595034822821617126e-02
-8.229338563978672028e-03 2.882648445665836334e-02 3.166804322972893715e-03
1.033399440348148346e-02 1.839911006391048431e-02 1.345132593996822834e-03
4.061902873218059540e-03 -1.807697699405252934e-03 -7.135329768061637878e-03
-1.263324357569217682e-02 -1.448485441505908966e-02 -1.387282833456993103e-02
-1.906871609389781952e-02 -9.342206642031669617e-03 -1.178267411887645721e-02
2.346328459680080414e-02 -9.749220684170722961e-03 9.171884506940841675e-03
-1.496738288551568985e-02 1.707265153527259827e-02 -2.242543175816535950e-02
7.147710304707288742e-03 1.814316399395465851e-02 -4.689658526331186295e-03
6.077638827264308929e-03 -1.215410232543945312e-02 -4.828734789043664932e-03
2.451688237488269806e-02 -2.925246953964233398e-02 2.530703134834766388e-02
2.833467535674571991e-02 -2.706865221261978149e-02 -1.189028751105070114e-02
1.705491356551647186e-02 -1.541037298738956451e-02 -1.739440113306045532e-02
1.103991642594337463e-02 2.048551291227340698e-02 3.416289575397968292e-03
-3.764961147680878639e-03 1.382650714367628098e-02 -5.707877222448587418e-03
-1.653226837515830994e-02 -2.634223923087120056e-02 -2.644906379282474518e-02
2.582346647977828979e-02 -1.349500566720962524e-02 1.509068254381418228e-02
8.371731964871287346e-04 1.831001788377761841e-02 -1.919936947524547577e-02
2.845902694389224052e-03 -2.366105094552040100e-02 8.783847093582153320e-03
-1.653477549552917480e-02 4.334735684096813202e-03 3.015785478055477142e-02
7.399810012429952621e-03 -2.323128283023834229e-02 -2.905369549989700317e-02
1.793602108955383301e-02 1.991572417318820953e-02 -2.379922382533550262e-02
-1.666392199695110321e-02 1.794762536883354187e-02 -2.753474004566669464e-02
2.364418655633926392e-02 -3.535573137924075127e-03 2.257532905787229538e-03
-1.332505512982606888e-02 -1.456870511174201965e-02 -1.520303543657064438e-02
-1.336420141160488129e-02 -2.043983526527881622e-02 -1.317735295742750168e-02
-8.446109481155872345e-03 -2.443367615342140198e-02 8.358007296919822693e-03
6.612318102270364761e-03 2.854656986892223358e-02 1.406469475477933884e-02
-6.238716188818216324e-03 2.198995323851704597e-03 -2.638851478695869446e-02
1.099929213523864746e-02 1.037173997610807419e-02 8.091296069324016571e-03
2.934914082288742065e-02 -2.675361372530460358e-02 2.579003386199474335e-02
-1.130990218371152878e-02 1.937818340957164764e-02 -2.211120910942554474e-03
-2.554922178387641907e-02 1.450209412723779678e-02 7.018349599093198776e-03
-2.784370072185993195e-02 1.151595544070005417e-02 1.641442254185676575e-02
-1.895143277943134308e-02 2.906095422804355621e-02 2.296493388712406158e-02
-1.542239729315042496e-02 3.127767890691757202e-02 2.921214140951633453e-02
1.068144477903842926e-02 2.306299470365047455e-02 -3.110507130622863770e-02
5.545616615563631058e-03 -9.058644645847380161e-04 -1.001607161015272141e-02
2.122645825147628784e-02 -2.908454090356826782e-02 1.337438821792602539e-02
1.693613082170486450e-02 1.127214729785919189e-02 -5.713864229619503021e-04
-3.003906272351741791e-02 2.750168740749359131e-02 -2.880599722266197205e-02
-2.127694897353649139e-02 -1.839463599026203156e-02 -1.468585245311260223e-02
-2.572000212967395782e-02 -3.059734590351581573e-02 -1.197196263819932938e-02
2.149987034499645233e-02 -2.514393068850040436e-02 -2.712553832679986954e-03
1.172525621950626373e-02 1.210765633732080460e-02 -5.310886073857545853e-03
1.917143724858760834e-02 -1.794516853988170624e-02 1.579000242054462433e-02
2.074049413204193115e-02 -1.704094372689723969e-02 1.089173089712858200e-02
2.831638092175126076e-03 5.654891952872276306e-03 -1.788880676031112671e-02
7.269029505550861359e-03 2.709244750440120697e-02 -2.967283688485622406e-02
6.480059120804071426e-03 7.798256352543830872e-03 -9.429806843400001526e-03
-1.431180723011493683e-02 4.656862467527389526e-03 -1.176608726382255554e-02
2.237731218338012695e-02 -1.721776463091373444e-02 1.458870992064476013e-02
-2.100442722439765930e-02 -1.882934942841529846e-03 -2.150390110909938812e-02
-2.295711636543273926e-02 -1.151152048259973526e-02 1.611352898180484772e-03
3.578392043709754944e-02 4.007218778133392334e-02 -3.122828900814056396e-02
7.763885706663131714e-02 1.868523284792900085e-02 1.586449705064296722e-02
1.670161448419094086e-02 2.698095701634883881e-02 3.015163354575634003e-02
-3.793833032250404358e-02 2.883877605199813843e-02 2.377293817698955536e-02
-7.751019671559333801e-03 -4.058857914060354233e-03 5.153049901127815247e-02
6.832928862422704697e-03 -1.139223575592041016e-02 6.624695658683776855e-02
-2.257613092660903931e-02 -5.800351034849882126e-03 -2.532605640590190887e-02
-3.071593865752220154e-02 1.008575875312089920e-02 3.314010426402091980e-02
4.865198582410812378e-02 3.231167420744895935e-02 4.804703593254089355e-02
-9.891740046441555023e-03 -1.150071807205677032e-02 -4.239870980381965637e-02
4.002462327480316162e-02 -1.234386954456567764e-02 3.586406633257865906e-02
-3.034572489559650421e-02 -8.259193971753120422e-03 2.710842899978160858e-02
7.986675947904586792e-02 6.298655271530151367e-02 1.190020469948649406e-03
-1.757213496603071690e-03 -1.012184657156467438e-02 -2.165763825178146362e-02
-1.217197626829147339e-02 3.487379848957061768e-02 6.583572831004858017e-03
3.618293628096580505e-02 -2.411695662885904312e-03 8.854679763317108154e-02
3.515824303030967712e-02 5.643358454108238220e-02 4.912146250717341900e-04
3.311728825792670250e-03 -2.096413262188434601e-02 5.558312870562076569e-03
5.602254066616296768e-03 -6.130592897534370422e-03 -1.543857157230377197e-02
-5.524836480617523193e-02 -1.808687299489974976e-02 1.662806980311870575e-02
3.030362538993358612e-02 1.152319461107254028e-02 2.582015842199325562e-02
5.035080248489975929e-04 -1.908579841256141663e-02 6.615434307605028152e-03
-6.254064850509166718e-03 1.900608837604522705e-02 1.329705584794282913e-02
1.262157503515481949e-02 -1.019621826708316803e-02 1.681684888899326324e-02
3.385418094694614410e-03 2.533225715160369873e-02 -6.013636011630296707e-03
-5.357225611805915833e-02 -2.011881006183102727e-04 -1.045497506856918335e-02
-1.480292528867721558e-02 2.281220257282257080e-02 -4.074603691697120667e-02
-3.092264011502265930e-02 3.602643311023712158e-02 2.264664694666862488e-02
-2.003844641149044037e-02 -2.716979011893272400e-02 -4.151690751314163208e-02
7.248685508966445923e-02 2.973336726427078247e-02 2.160643972456455231e-02
-1.395696960389614105e-02 7.219236344099044800e-03 -2.152124186977744102e-03
-3.075329028069972992e-02 -1.561171282082796097e-02 -2.650108188390731812e-02
-3.995907492935657501e-03 -2.595215477049350739e-02 -2.563801594078540802e-02
-2.974148094654083252e-02 -2.930382266640663147e-02 1.310918945819139481e-02
2.509747259318828583e-02 -7.440938614308834076e-03 -2.819863148033618927e-02
-2.892341278493404388e-02 3.778642741963267326e-03 -2.867061085999011993e-02
-7.104702293872833252e-03 2.888026181608438492e-03 -5.256845150142908096e-03
1.896823011338710785e-02 1.796338893473148346e-02 7.654596585780382156e-03
1.038124877959489822e-02 -1.995726116001605988e-02 -2.838033717125654221e-03
4.403877537697553635e-03 -6.056362763047218323e-03 -2.654760330915451050e-02
2.122848108410835266e-02 -2.791224420070648193e-02 -1.188481878489255905e-02
8.156054653227329254e-03 -2.443562448024749756e-02 9.300666861236095428e-03
-2.907063998281955719e-02 1.648663170635700226e-02 -1.764687523245811462e-02
2.233168482780456543e-02 2.656092867255210876e-02 1.993002556264400482e-02
1.652953214943408966e-02 -2.219116687774658203e-02 2.350934967398643494e-02
-2.197539247572422028e-02 -5.662291310727596283e-03 -2.229252271354198456e-02
-1.197194214910268784e-02 8.707589469850063324e-03 -5.879906937479972839e-03
1.211737189441919327e-02 -1.173977833241224289e-02 -1.295780390501022339e-02
1.081324741244316101e-02 -2.203832194209098816e-02 -2.837945334613323212e-02
7.652106229215860367e-03 2.889535017311573029e-02 -7.437681779265403748e-03
-8.906289935111999512e-03 -2.420505136251449585e-02 4.018135368824005127e-03
1.039150811266154051e-04 -7.183204405009746552e-03 -6.986709195189177990e-04
-1.532932650297880173e-02 1.660617627203464508e-02 -6.711694295518100262e-04
-1.121801417320966721e-02 -1.582579314708709717e-02 -2.582039684057235718e-02
-1.876857131719589233e-02 -1.815382577478885651e-02 -8.789570070803165436e-03
2.028056234121322632e-02 -5.310927052050828934e-03 -2.262624213472008705e-03
2.909830212593078613e-02 -2.830663137137889862e-02 -5.827055778354406357e-03
2.886359393596649170e-02 8.451443165540695190e-03 -2.416628412902355194e-02
8.245809935033321381e-03 2.041418850421905518e-02 -3.522458020597696304e-03
-2.478888258337974548e-02 -2.356255240738391876e-02 -2.272192016243934631e-02
1.638263463973999023e-02 -1.141423732042312622e-02 -2.174524031579494476e-02
-1.953212311491370201e-03 1.803410612046718597e-02 -1.920177228748798370e-02
1.001294236630201340e-02 2.005906961858272552e-02 -2.431413903832435608e-02
-1.820670627057552338e-02 5.752103170379996300e-04 -1.095706596970558167e-02
4.018936678767204285e-02 1.936306804418563843e-02 3.577562421560287476e-02
-1.006296556442975998e-02 3.382591530680656433e-02 -1.475366204977035522e-02
1.260720100253820419e-02 -1.058245170861482620e-02 -3.497034683823585510e-02
5.019221920520067215e-03 1.110075693577528000e-02 6.595986429601907730e-03
-1.880795508623123169e-02 -2.008826844394207001e-02 1.384079456329345703e-02
7.931699045002460480e-03 -1.638351008296012878e-02 -1.745650894008576870e-03
-2.421235106885433197e-02 1.612163148820400238e-02 3.140952810645103455e-02
4.282820224761962891e-02 4.228825122117996216e-02 2.083229459822177887e-02
1.391321606934070587e-02 -2.183095086365938187e-03 1.189288496971130371e-02
-5.598622374236583710e-03 1.192315574735403061e-02 -2.556521818041801453e-02
5.884584039449691772e-03 3.646884858608245850e-02 -1.159700192511081696e-02
-7.525015622377395630e-03 -2.839940600097179413e-02 -2.510791458189487457e-02
1.424046582542359829e-03 1.105536893010139465e-02 -1.728459633886814117e-02
-3.251990303397178650e-02 -6.435922812670469284e-03 -9.034883230924606323e-03
2.261429466307163239e-02 -1.391528639942407608e-02 2.927352488040924072e-02
2.587713534012436867e-03 7.420703768730163574e-03 2.076153457164764404e-02
1.760358922183513641e-02 1.670882478356361389e-02 3.641922026872634888e-02
-8.903307840228080750e-03 1.850710622966289520e-02 2.586440555751323700e-02
-8.539303089492022991e-04 2.940616942942142487e-02 -2.724421210587024689e-02
5.112745612859725952e-02 1.795321144163608551e-02 -1.794400438666343689e-02
-9.374162182211875916e-03 -1.093923393636941910e-02 2.249451354146003723e-02
1.332938298583030701e-02 2.182470634579658508e-02 1.980925351381301880e-02
-8.268414996564388275e-03 1.554188039153814316e-02 1.073642820119857788e-02
-2.873763628304004669e-02 -1.428068894892930984e-02 -1.661094836890697479e-02
1.001849886961281300e-03 -1.404036674648523331e-02 -3.380073234438896179e-02
3.153077512979507446e-02 -1.264194771647453308e-02 4.395335912704467773e-02
-3.249454544857144356e-03 2.675651758909225464e-02 -1.940707303583621979e-02
-6.382817402482032776e-03 -3.584861056879162788e-03 2.132523618638515472e-02
-3.761655092239379883e-02 -1.761492714285850525e-02 -1.474588830024003983e-02
-1.860773377120494843e-02 1.688834279775619507e-02 3.163032233715057373e-02
2.704940736293792725e-02 3.416141122579574585e-02 2.883766591548919678e-02
3.870281577110290527e-02 2.928182110190391541e-02 -3.243106976151466370e-02
3.768262639641761780e-02 -2.886338159441947937e-03 2.509790065232664347e-04
-1.844188384711742401e-02 2.920279279351234436e-03 5.231861770153045654e-02
-4.470103885978460312e-03 -6.650759838521480560e-03 3.872011229395866394e-02
7.884432375431060791e-02 5.193502083420753479e-02 -2.579564414918422699e-02
-1.223236415535211563e-02 1.959943585097789764e-02 2.237935177981853485e-02
-2.014724723994731903e-02 2.245931141078472137e-02 6.385587155818939209e-02
2.371992543339729309e-02 2.560210414230823517e-03 2.993688732385635376e-02
-1.454947050660848618e-02 9.101925417780876160e-03 3.256984427571296692e-02
-3.164055943489074707e-02 -2.271590195596218109e-02 -1.120289508253335953e-02
-2.048403769731521606e-02 1.000930089503526688e-03 1.390296034514904022e-02
-2.802143245935440063e-02 -2.668825909495353699e-02 3.281664103269577026e-02
8.464828878641128540e-02 -2.647672966122627258e-02 -4.090894386172294617e-02
-1.214603520929813385e-02 -2.925259806215763092e-02 8.990630507469177246e-03
4.250813275575637817e-02 -1.447750721126794815e-02 -1.876846887171268463e-03
-1.886396296322345734e-02 -3.491624444723129272e-02 4.287030082195997238e-03
-4.861458763480186462e-02 1.109064463526010513e-02 6.080146506428718567e-02
-5.902316793799400330e-02 -3.218521364033222198e-03 -3.091842494904994965e-02
-1.373247895389795303e-02 1.385407987982034683e-02 3.085437789559364319e-02
-3.680793195962905884e-02 3.797539509832859039e-03 4.974772688001394272e-03
1.987025327980518341e-02 2.902800624724477530e-04 1.617667078971862793e-02
-3.222269192337989807e-02 -6.078603910282254219e-04 1.506950519979000092e-02
1.939905621111392975e-02 2.228880114853382111e-02 -2.853382192552089691e-02
-4.480892792344093323e-03 -1.526660379022359848e-02 5.549406632781028748e-03
1.634155027568340302e-02 1.077054440975189209e-02 -8.027014322578907013e-03
-4.377320781350135803e-02 -7.680981419980525970e-03 -5.665638484060764313e-03
9.568220376968383789e-02 -4.947709850966930389e-03 -3.975456953048706055e-02
-3.498131409287452698e-04 9.971871040761470795e-04 1.005433034151792526e-02
7.943698018789291382e-02 -7.144121453166007996e-03 -3.694548830389976501e-02
2.642584964632987976e-02 -2.737701311707496643e-02 1.163729093968868256e-02
-3.288944065570831299e-02 -1.020477525889873505e-02 1.029787026345729828e-02
7.992127910256385803e-03 4.403760284185409546e-02 3.564206883311271667e-03
-1.830999739468097687e-02 2.501984313130378723e-02 -7.719385903328657150e-03
7.340687513351440430e-02 5.195413157343864441e-02 3.701819479465484619e-02
1.703252457082271576e-02 -1.666051708161830902e-02 -6.189076974987983704e-02
-6.551706045866012573e-02 -5.981949344277381897e-02 -2.981439232826232910e-02
5.945877730846405029e-02 2.304148115217685699e-02 1.186441164463758469e-02
-1.480053551495075226e-02 -1.682022586464881897e-02 -8.408438414335250854e-02
-2.899901941418647766e-03 -2.317467890679836273e-02 -5.413573607802391052e-02
2.208967879414558411e-02 -1.028990093618631363e-02 -1.662519760429859161e-02
2.201811037957668304e-02 -2.400714717805385590e-02 3.037585876882076263e-02
-2.823310904204845428e-03 -1.510903704911470413e-02 -3.443310782313346863e-02
-6.503414362668991089e-02 2.822569757699966431e-02 4.773356020450592041e-02
7.849474437534809113e-03 -2.359524182975292206e-02 -1.060241833329200745e-02
-4.816354811191558838e-02 2.832819707691669464e-03 -2.865338139235973358e-02
-1.670674793422222137e-02 -3.415944054722785950e-02 3.603006713092327118e-03
-1.649687765166163445e-03 -1.304089277982711792e-02 -1.772039942443370819e-02
-1.759219449013471603e-03 -2.519350498914718628e-02 1.621696911752223969e-02
1.764640584588050842e-02 -1.313135679811239243e-02 -6.760743260383605957e-02
-1.861153985373675823e-03 1.370559446513652802e-02 1.361434254795312881e-02
-2.210227213799953461e-02 -2.583907544612884521e-02 6.118770688772201538e-03
-1.356032304465770721e-02 2.628248371183872223e-02 3.534208238124847412e-02
5.426582321524620056e-02 4.968801047652959824e-03 -1.365776266902685165e-02
-9.203079156577587128e-03 -3.122195228934288025e-02 -1.653450541198253632e-02
4.118978232145309448e-02 -7.346407044678926468e-03 1.771086081862449646e-02
-2.416938543319702148e-02 8.180350996553897858e-04 3.767721727490425110e-02
1.421650126576423645e-02 1.329339761286973953e-02 2.471026778221130371e-02
-4.765434190630912781e-03 2.473827637732028961e-02 3.593446454033255577e-03
1.019889265298843384e-01 2.669277228415012360e-02 1.418970525264739990e-02
3.006822243332862854e-02 2.798732183873653412e-02 -1.167330145835876465e-02
1.584772765636444092e-02 1.259563490748405457e-02 -1.982097141444683075e-02
-1.450301427394151688e-02 2.330010198056697845e-02 -1.988444291055202484e-02
-2.241246588528156281e-02 -3.171366453170776367e-02 -8.948896080255508423e-03
1.154232770204544067e-02 -3.676355630159378052e-02 -3.017637506127357483e-02
1.030358765274286270e-02 1.433086860924959183e-02 -2.992997877299785614e-02
9.816990047693252563e-02 6.690901517868041992e-02 2.226473065093159676e-03
9.041026979684829712e-02 2.764751948416233063e-02 5.713349580764770508e-02
1.384534221142530441e-02 4.431010037660598755e-02 5.025364458560943604e-02
-7.135030347853899002e-03 -3.289618343114852905e-02 3.806680208072066307e-03
4.145822674036026001e-02 4.043868556618690491e-02 3.930521011352539062e-02
2.723458036780357361e-02 1.594064384698867798e-02 5.314946919679641724e-02
-2.725360170006752014e-02 -2.706192992627620697e-02 -1.300559844821691513e-02
5.591080524027347565e-03 -2.758562192320823669e-02 4.879939928650856018e-02
4.215089604258537292e-03 -1.000408548861742020e-02 -7.995624910108745098e-04
-4.438592493534088135e-02 -3.737710416316986084e-02 -1.782769896090030670e-02
6.728318333625793457e-02 3.717238456010818481e-02 4.051617905497550964e-02
-5.832301452755928040e-02 -4.043275490403175354e-02 -6.671857833862304688e-02
9.182842820882797241e-02 3.528187796473503113e-02 -4.336042329668998718e-02
1.170637179166078568e-02 -1.897311210632324219e-02 -5.889702960848808289e-02
3.601454570889472961e-02 -2.317252801731228828e-04 2.709803357720375061e-02
5.595897510647773743e-02 3.832085430622100830e-02 1.115219816565513611e-01
3.215778619050979614e-02 4.366765171289443970e-02 -4.592400044202804565e-03
3.512212261557579041e-02 2.677282504737377167e-02 9.750189632177352905e-02
2.394520491361618042e-02 2.014778554439544678e-02 -4.362659063190221786e-03
-1.531239971518516541e-02 1.825400255620479584e-02 7.227702438831329346e-02
3.215571120381355286e-02 -2.237334148958325386e-03 -2.771189250051975250e-02
-2.528094127774238586e-02 1.560075441375374794e-03 -1.605670526623725891e-02
-4.009506851434707642e-02 -3.244315832853317261e-02 -2.395683713257312775e-02
3.039349429309368134e-02 1.558340620249509811e-02 6.057369988411664963e-03
4.179351031780242920e-03 -3.916383255273103714e-03 2.607875317335128784e-02
-2.343961596488952637e-02 -5.477718077600002289e-03 -5.954839661717414856e-02
6.098815705627202988e-03 -3.619535418692976236e-04 -7.498028688132762909e-03
1.423124317079782486e-02 -1.215439662337303162e-02 -7.742299884557723999e-02
-2.604481019079685211e-02 -2.669485658407211304e-02 -4.302667826414108276e-02
8.698255568742752075e-02 3.540982026606798172e-03 -8.285772986710071564e-03
2.870703488588333130e-02 3.230372443795204163e-02 2.484746277332305908e-02
4.223905876278877258e-02 -1.439917739480733871e-02 1.163554470986127853e-02
5.991735681891441345e-02 7.834498770534992218e-03 3.814681991934776306e-02
4.155770316720008850e-02 -1.567370258271694183e-02 -3.921138122677803040e-02
-5.460914224386215210e-02 -3.612764179706573486e-02 -5.755334720015525818e-02
7.257270067930221558e-02 3.045557998120784760e-02 2.446674928069114685e-02
1.888438872992992401e-02 -6.712020374834537506e-03 -7.148288190364837646e-02
2.263791672885417938e-02 4.062155634164810181e-02 -2.828110195696353912e-02
4.965439066290855408e-02 -1.011601276695728302e-02 -7.593953050673007965e-03
2.408662252128124237e-02 4.730106447823345661e-04 1.796759665012359619e-02
-7.127740979194641113e-02 -2.224381314590573311e-03 -3.618942946195602417e-02
-6.406094133853912354e-02 1.231028418987989426e-02 5.881019681692123413e-02
1.296407449990510941e-02 9.513172321021556854e-03 -1.958591490983963013e-02
-7.593156397342681885e-02 2.802906930446624756e-02 -3.208900988101959229e-02
-6.361052393913269043e-03 -2.755357138812541962e-02 -3.361530974507331848e-02
3.849295899271965027e-03 -4.247286543250083923e-02 -7.038791477680206299e-02
-4.834126308560371399e-02 -3.518584370613098145e-02 2.999120019376277924e-02
3.550050780177116394e-02 2.894451841711997986e-03 -5.200542882084846497e-02
1.347825396806001663e-02 3.966657910495996475e-03 2.439872175455093384e-02
1.444652397185564041e-02 2.394401701167225838e-03 2.889283932745456696e-03
-6.967821158468723297e-03 6.421378348022699356e-04 8.971676230430603027e-03
7.189805805683135986e-02 2.748608030378818512e-02 3.307843953371047974e-02
-3.030428290367126465e-02 -3.425110189709812403e-04 -3.153317794203758240e-02
2.840780466794967651e-02 9.741642134031280875e-05 -5.173510313034057617e-02
-3.213896974921226501e-02 1.976148784160614014e-02 3.540091216564178467e-02
-1.544710714370012283e-02 -3.091195598244667053e-02 -1.409140136092901230e-02
-2.963774651288986206e-02 9.778072126209735870e-03 -2.102601807564496994e-03
4.577595740556716919e-02 -6.017006002366542816e-03 3.796407952904701233e-02
1.689292304217815399e-02 -3.302774950861930847e-02 -1.874700002372264862e-02
-6.101523991674184799e-03 -3.576508909463882446e-02 -6.332544237375259399e-02
-2.998749166727066040e-02 -3.813074156641960144e-02 1.998161338269710541e-02
3.048454225063323975e-02 -2.514969324693083763e-03 -2.796037681400775909e-02
2.417798899114131927e-02 3.220419585704803467e-02 -8.008684962987899780e-03
-8.459743112325668335e-03 3.396784141659736633e-02 2.766624279320240021e-02
7.092674821615219116e-02 -6.911930162459611893e-03 8.541425340808928013e-04
-2.571965940296649933e-02 4.971480742096900940e-02 1.383033674210309982e-02
2.047354355454444885e-02 -3.059996850788593292e-02 -2.191077172756195068e-02
7.218840718269348145e-02 4.501192271709442139e-02 5.072316154837608337e-02
1.588132791221141815e-02 1.780444197356700897e-02 2.720667980611324310e-02
-1.431555394083261490e-02 -1.392711978405714035e-02 -3.698870167136192322e-02
5.783431231975555420e-02 -2.906791493296623230e-02 6.502543110400438309e-04
-1.353977527469396591e-02 1.796821318566799164e-02 1.332322414964437485e-02
-1.211211457848548889e-02 -3.985583409667015076e-02 -4.926933348178863525e-02
-1.954641565680503845e-02 -4.306349530816078186e-02 -2.102453820407390594e-02
3.529868088662624359e-03 8.902631700038909912e-03 5.611974373459815979e-02
6.853362172842025757e-02 2.804298698902130127e-02 4.591086879372596741e-02
2.206554170697927475e-03 2.240415895357728004e-03 2.783519448712468147e-03
8.555672317743301392e-02 3.558972850441932678e-02 2.674143761396408081e-02
-3.728415071964263916e-02 -2.794527448713779449e-02 -2.202600240707397461e-02
-4.154451936483383179e-02 -3.712745010852813721e-02 2.047858200967311859e-03
-8.637553453445434570e-02 -7.713370956480503082e-03 -1.558578759431838989e-02
-5.377676710486412048e-02 1.236869394779205322e-02 8.800578303635120392e-03
1.872615329921245575e-02 2.053211815655231476e-02 3.677018731832504272e-02
2.442056313157081604e-02 -1.024314574897289276e-02 -2.002355176955461502e-03
-4.392728675156831741e-03 1.939350180327892303e-02 1.058345008641481400e-02
2.693102881312370300e-02 3.055897355079650879e-02 2.482406981289386749e-02
-1.753281429409980774e-02 -1.330330967903137207e-02 -2.934795431792736053e-02
-1.381300203502178192e-02 -7.629179744981229305e-04 1.827375218272209167e-02
-6.276854872703552246e-02 -3.516000509262084961e-02 -3.151466837152838707e-03
1.035682857036590576e-01 5.543090403079986572e-02 3.246330097317695618e-02
-9.331867098808288574e-03 5.239715334028005600e-03 -2.380738221108913422e-02
1.438405811786651611e-01 2.933561056852340698e-02 6.859892606735229492e-02
-1.929183304309844971e-02 -2.917530387639999390e-02 2.114013768732547760e-02
-3.616238012909889221e-02 -3.757128119468688965e-02 2.862979657948017120e-02
3.619334101676940918e-02 4.215989261865615845e-03 -1.326806098222732544e-02
1.967433281242847443e-02 2.868380397558212280e-02 2.968431636691093445e-02
-3.310057148337364197e-02 -2.080784738063812256e-02 3.036903217434883118e-02
4.045277461409568787e-02 7.104158401489257812e-02 4.411237314343452454e-02
-1.813134364783763885e-02 -3.966115042567253113e-02 -4.081652313470840454e-02
1.659790985286235809e-02 -1.215015631169080734e-02 -1.888301968574523926e-02
1.143422070890665054e-02 8.972083218395709991e-03 1.475249230861663818e-02
3.200986608862876892e-02 8.900129236280918121e-03 1.198223419487476349e-02
3.566250577569007874e-02 -2.000736258924007416e-02 3.352988883852958679e-02
1.609548926353454590e-02 3.959341347217559814e-02 4.369956627488136292e-02
-4.463667422533035278e-02 1.545622106641530991e-02 -1.594239287078380585e-02
8.314311504364013672e-03 2.817096374928951263e-02 3.413173908484168351e-05
4.423036705702543259e-03 3.719403175637125969e-03 3.929116949439048767e-02
2.327431552112102509e-02 -1.214530225843191147e-02 1.141015905886888504e-02
-7.261080201715230942e-03 -2.445457316935062408e-02 -1.249968260526657104e-02
1.292412821203470230e-02 -1.572145265527069569e-03 3.460147231817245483e-02
-2.632806822657585144e-02 -3.503299877047538757e-02 -4.933624342083930969e-02
3.656873106956481934e-02 7.527558505535125732e-02 6.506000459194183350e-02
-2.637115493416786194e-02 -2.095609344542026520e-02 -1.362103689461946487e-02
-6.198973394930362701e-03 1.999336667358875275e-02 4.460052773356437683e-02
1.642992906272411346e-02 7.576968986541032791e-03 1.828132569789886475e-02
4.761342890560626984e-03 1.537347491830587387e-02 -1.058935560286045074e-02
-3.005798533558845520e-02 -1.051071286201477051e-02 -3.896396979689598083e-02
-2.913444489240646362e-02 1.298573147505521774e-02 -1.932759955525398254e-02
1.295229233801364899e-02 -1.038313470780849457e-02 -9.347456507384777069e-03
2.810929529368877411e-02 -1.338403299450874329e-02 -4.668041365221142769e-04
2.153599448502063751e-02 1.274344604462385178e-02 7.592326961457729340e-03
3.679849579930305481e-02 -3.054830431938171387e-02 1.451272517442703247e-02
1.504496484994888306e-02 2.030977234244346619e-02 7.189220748841762543e-03
-4.751092940568923950e-02 -3.743796050548553467e-02 -2.172183245420455933e-02
-4.174112342298030853e-03 -4.597625695168972015e-03 2.090478502213954926e-02
1.732254959642887115e-02 4.589146748185157776e-02 2.007406018674373627e-02
-2.012179233133792877e-02 3.758062794804573059e-02 1.533329952508211136e-02
-1.819654181599617004e-02 1.986442506313323975e-02 -3.025787649676203728e-03
2.108363620936870575e-02 -4.078773781657218933e-02 -2.742719836533069611e-02
-2.838878333568572998e-02 4.939507693052291870e-02 6.636233627796173096e-02
2.161947824060916901e-02 5.553615465760231018e-02 7.104565203189849854e-02
4.157779365777969360e-02 2.262884378433227539e-02 -8.964707143604755402e-03
-2.626052685081958771e-02 3.584408015012741089e-02 1.810158044099807739e-02
-2.104579471051692963e-02 1.519201882183551788e-02 7.416813820600509644e-02
-1.343942433595657349e-02 -1.742385327816009521e-02 -2.816127962432801723e-04
-1.049914490431547165e-02 -5.330049898475408554e-03 5.341194570064544678e-02
6.910997442901134491e-03 -5.624299403280019760e-03 -9.165875613689422607e-03
-9.998437017202377319e-03 -3.324556350708007812e-02 -8.041512221097946167e-03
-2.790453843772411346e-02 -1.860545948147773743e-02 3.836561739444732666e-02
8.570854365825653076e-02 2.473303303122520447e-02 -2.146385610103607178e-02
-2.169011719524860382e-02 2.291500801220536232e-03 -6.393996067345142365e-03
3.728482499718666077e-02 -2.947321347892284393e-02 -1.037747133523225784e-02
-1.667079702019691467e-02 -2.188302762806415558e-02 -1.396563649177551270e-02
-2.840915322303771973e-02 3.524988889694213867e-02 1.596425175666809082e-01
4.750603809952735901e-03 -1.458566822111606598e-02 -2.950621955096721649e-02
-3.253679350018501282e-02 5.269326642155647278e-02 1.226142570376396179e-01
1.303104218095541000e-02 1.126943062990903854e-02 3.048802539706230164e-02
5.595026537775993347e-02 5.340335145592689514e-02 7.080116868019104004e-02
-2.820559591054916382e-02 -1.594259636476635933e-03 -5.195711739361286163e-03
1.899639517068862915e-02 2.356972172856330872e-02 -4.317031428217887878e-02
1.050755102187395096e-02 -2.181159565225243568e-03 -2.156569994986057281e-02
1.152316574007272720e-02 2.627646736800670624e-02 -1.731974072754383087e-02
-2.567639574408531189e-02 2.013464458286762238e-02 -2.359635196626186371e-02
1.715831458568572998e-02 1.184913795441389084e-02 -7.155634462833404541e-02
-2.722793631255626678e-02 7.367387413978576660e-03 -1.454807817935943604e-02
8.215270936489105225e-03 -6.496733985841274261e-03 -4.711461812257766724e-02
-5.032604094594717026e-03 -6.361893378198146820e-03 1.021335925906896591e-02
-9.893117472529411316e-03 -4.747996106743812561e-02 2.340097166597843170e-02
4.238027147948741913e-03 -2.926344610750675201e-02 -1.005014404654502869e-02
-2.190287038683891296e-02 2.283705957233905792e-02 -1.881450228393077850e-02
1.295766700059175491e-02 -2.034147642552852631e-02 -3.674593567848205566e-02
-1.316058170050382614e-02 2.824260666966438293e-02 -7.472857832908630371e-03
4.364692606031894684e-03 8.357382379472255707e-03 8.462021127343177795e-03
2.499052882194519043e-02 4.534286633133888245e-02 1.013637403957545757e-03
1.707620220258831978e-03 4.591462388634681702e-02 -8.941028499975800514e-04
-5.036991089582443237e-02 -4.054336622357368469e-02 2.800982445478439331e-02
8.820912800729274750e-03 2.465361729264259338e-02 2.082466706633567810e-02
1.722544059157371521e-02 4.031208530068397522e-02 3.234250470995903015e-02
1.854684948921203613e-02 3.317644447088241577e-02 -1.645308919250965118e-02
-1.494976039975881577e-02 -3.952385112643241882e-02 -1.584820449352264404e-02
-2.899860963225364685e-02 -1.767891645431518555e-02 4.417189210653305054e-02
7.078432291746139526e-02 2.424993738532066345e-02 -4.359757527709007263e-02
3.704546019434928894e-02 -4.831534810364246368e-03 -2.243027091026306152e-02
2.910235710442066193e-02 -1.314964517951011658e-02 1.545411348342895508e-02
3.988560289144515991e-03 1.530323456972837448e-02 -7.905956357717514038e-03
-5.550948530435562134e-02 5.817253608256578445e-03 6.616612523794174194e-02
5.486256442964076996e-03 -2.457620389759540558e-02 3.222465515136718750e-02
-5.959185585379600525e-02 8.629736490547657013e-03 5.655685439705848694e-02
2.967202290892601013e-02 -2.196138538420200348e-02 1.817992515861988068e-02
4.869195166975259781e-03 -1.021817885339260101e-02 3.436643630266189575e-02
2.169669419527053833e-02 1.484392705606296659e-04 1.856879517436027527e-02
2.192411199212074280e-02 1.185314846225082874e-03 2.819029614329338074e-02
-4.489791113883256912e-03 -2.923714742064476013e-02 -2.160356193780899048e-02
-1.947785727679729462e-02 2.747455425560474396e-02 -1.059485133737325668e-02
-2.856725826859474182e-02 2.485381439328193665e-02 2.308095060288906097e-02
5.244368314743041992e-02 1.582806929945945740e-02 -4.455549642443656921e-02
-1.221184339374303818e-02 -1.824569515883922577e-02 -9.364966303110122681e-03
5.798003822565078735e-02 4.430074989795684814e-02 3.158761933445930481e-02
-1.645568571984767914e-02 1.580573432147502899e-02 -2.460859529674053192e-02
-6.711743772029876709e-03 1.391457673162221909e-02 -6.645052228122949600e-03
8.867550641298294067e-03 3.060670103877782822e-03 6.551124155521392822e-02
9.920180775225162506e-03 3.389278054237365723e-02 4.348937422037124634e-02
-5.944813415408134460e-02 -2.955880761146545410e-02 -3.945960476994514465e-02
-4.771733283996582031e-02 -2.564081922173500061e-02 3.640751540660858154e-02
3.720507025718688965e-02 -3.086943179368972778e-03 -1.179479714483022690e-02
3.130242228507995605e-03 3.509188815951347351e-02 1.980779506266117096e-02
-1.796874031424522400e-02 -6.791565101593732834e-04 1.765971072018146515e-02
-2.745944075286388397e-02 -4.066552594304084778e-02 -2.843044465407729149e-03
-3.513319045305252075e-02 9.182646870613098145e-03 1.772402599453926086e-02
-2.815182134509086609e-02 -3.885370492935180664e-02 -7.440156769007444382e-03
5.173371359705924988e-02 -2.026879042387008667e-02 3.920605871826410294e-03
1.502748671919107437e-02 1.320766191929578781e-02 -5.596309434622526169e-03
-6.141940504312515259e-02 7.249615620821714401e-03 1.674066111445426941e-02
5.630555003881454468e-02 -2.230052649974822998e-02 7.614516466856002808e-02
1.825333200395107269e-02 -1.989673078060150146e-02 1.044569071382284164e-02
-3.157449513673782349e-02 2.178684622049331665e-02 7.061298936605453491e-02
2.879012562334537506e-02 -3.193781152367591858e-02 -3.027200140058994293e-02
-4.365594312548637390e-02 -2.544223889708518982e-02 4.627555981278419495e-02
-1.522613968700170517e-02 -5.115813016891479492e-02 -7.984852790832519531e-02
-2.354952134191989899e-02 9.068059735000133514e-03 -2.084000408649444580e-02
-1.010028272867202759e-02 -7.259977865032851696e-04 2.597561106085777283e-02
2.849422767758369446e-02 -1.023127604275941849e-02 -6.804869044572114944e-03
-7.394969463348388672e-03 -2.859371341764926910e-02 -1.475626369938254356e-03
-3.356212377548217773e-02 -1.536267716437578201e-02 2.362008765339851379e-02
-2.454532496631145477e-02 -1.102317031472921371e-02 5.811154842376708984e-03
-1.923677045851945877e-03 -1.257288362830877304e-02 2.491169050335884094e-02
-2.933212183415889740e-02 8.032676763832569122e-03 -4.233776032924652100e-02
-2.206544857472181320e-03 -8.583542890846729279e-03 4.084484651684761047e-02
-4.304253682494163513e-02 -8.246399462223052979e-03 2.699859254062175751e-02
-1.980076730251312256e-02 -1.885676756501197815e-02 2.809891477227210999e-02
-1.192265003919601440e-02 1.830055750906467438e-02 5.521182343363761902e-02
-5.744205415248870850e-02 1.073909690603613853e-03 5.063932389020919800e-02
3.441848559305071831e-03 -1.806792104616761208e-03 -9.919268079102039337e-03
-1.973486505448818207e-02 2.792114578187465668e-02 -3.003328852355480194e-02
1.166015118360519409e-02 -5.830883048474788666e-03 2.581327687948942184e-03
-1.823276467621326447e-02 -8.355787023901939392e-03 2.519923634827136993e-02
2.797950617969036102e-02 1.119292806833982468e-02 2.051175758242607117e-02
-9.670702740550041199e-03 -1.225180365145206451e-02 -5.387762212194502354e-04
7.944156415760517120e-03 -2.398785203695297241e-02 -1.887087151408195496e-02
4.731746390461921692e-03 4.637327045202255249e-03 -1.612053625285625458e-02
-2.557328157126903534e-02 -1.651046797633171082e-02 -6.629377137869596481e-03
-1.561411470174789429e-02 9.278303012251853943e-03 -9.964832104742527008e-03
-7.951717634568922222e-06 -2.777037676423788071e-03 -2.153756096959114075e-02
2.871331945061683655e-02 1.678220927715301514e-02 -6.881806533783674240e-03
-3.635730827227234840e-03 -1.836718805134296417e-02 -2.257602661848068237e-02
-2.268357574939727783e-02 -3.137509152293205261e-02 1.088933553546667099e-02
1.561873871833086014e-02 -1.683304645121097565e-02 -1.369947381317615509e-02
1.643950864672660828e-02 -2.078043110668659210e-02 -2.935066074132919312e-02
-9.497306309640407562e-03 -8.227694779634475708e-03 -3.053305484354496002e-02
2.881154976785182953e-02 6.587411044165492058e-04 3.716759383678436279e-03
-1.856452599167823792e-02 8.203360252082347870e-03 1.221015956252813339e-02
1.238974975422024727e-03 -1.169005967676639557e-02 -1.520444173365831375e-02
-5.301441997289657593e-04 1.444563735276460648e-02 9.215141646564006805e-03
1.011313963681459427e-02 -2.070373296737670898e-02 7.113086059689521790e-03
2.708031423389911652e-02 -4.979679360985755920e-03 -1.049757562577724457e-02
-2.538126893341541290e-02 -1.527788210660219193e-02 -2.620927244424819946e-02
1.399951614439487457e-02 2.963960357010364532e-02 -6.490349303930997849e-03
1.353752333670854568e-02 -2.370424382388591766e-02 3.097268193960189819e-02
-3.064188733696937561e-02 7.362418342381715775e-03 -1.948275836184620857e-03
-1.418274082243442535e-02 -6.265937816351652145e-03 -1.973083615303039551e-02
2.821434475481510162e-02 -2.923841960728168488e-02 3.789889451581984758e-04
1.106690429151058197e-02 -2.167212963104248047e-02 -2.346735820174217224e-02
2.498289570212364197e-02 -1.488943863660097122e-02 2.400943078100681305e-02
1.329286582767963409e-02 -1.640975661575794220e-02 -1.340175792574882507e-02
-4.132122173905372620e-02 -2.411337010562419891e-02 -1.980490610003471375e-02
-2.304138615727424622e-02 -5.436872597783803940e-03 -1.865074969828128815e-02
-9.783877991139888763e-03 4.268073011189699173e-03 -2.901403047144412994e-02
4.246828705072402954e-02 -2.496131882071495056e-02 5.364210158586502075e-02
-7.689316291362047195e-03 5.173297971487045288e-02 2.401135861873626709e-02
-4.271325189620256424e-03 -8.270582184195518494e-03 7.384561467915773392e-04
4.120106250047683716e-02 2.285927347838878632e-02 9.968952275812625885e-03
3.038804046809673309e-02 1.241541374474763870e-02 6.503152847290039062e-02
-5.191807076334953308e-02 -2.735137939453125000e-02 -1.053607929497957230e-02
1.665342971682548523e-02 -6.583373062312602997e-03 3.384583070874214172e-02
3.262537717819213867e-02 2.056207135319709778e-02 2.212697267532348633e-02
7.232700008898973465e-04 1.261465344578027725e-02 -2.374646440148353577e-02
-1.368960179388523102e-02 -3.669203445315361023e-02 7.304905448108911514e-03
-1.402667816728353500e-02 -8.181118406355381012e-03 -6.687851995229721069e-02
2.873699180781841278e-02 1.022329670377075672e-03 -2.217805944383144379e-03
-3.825130686163902283e-02 7.529515307396650314e-03 -3.068751655519008636e-02
-9.134076535701751709e-04 3.478336147964000702e-03 -3.498205915093421936e-03
3.767041256651282310e-03 -2.957266382873058319e-02 8.495107293128967285e-02
3.213455667719244957e-03 4.322792217135429382e-02 4.313792660832405090e-02
-2.618039585649967194e-02 7.796728983521461487e-03 5.336916074156761169e-02
-9.128897450864315033e-03 -2.646771259605884552e-02 2.148474007844924927e-02
2.067595906555652618e-02 1.868605427443981171e-02 3.892956674098968506e-02
-1.170070469379425049e-02 2.401875145733356476e-02 1.873397384770214558e-03
-5.786527413874864578e-03 -1.785215456038713455e-03 -4.231645166873931885e-02
6.829529069364070892e-03 -1.395332626998424530e-02 1.224244758486747742e-02
-2.382107777521014214e-03 2.177845500409603119e-02 -2.319215610623359680e-02
-8.090114220976829529e-03 2.927113883197307587e-02 -4.856165032833814621e-03
8.857591077685356140e-03 4.964285064488649368e-03 -7.847533375024795532e-02
3.924299497157335281e-03 -1.674402039498090744e-03 -2.839104458689689636e-02
-2.993724308907985687e-02 1.253842189908027649e-02 -3.288203105330467224e-02
-2.077811956405639648e-02 -1.861908286809921265e-02 -2.916389331221580505e-02
-1.775293610990047455e-02 -7.148679811507463455e-03 -1.078520249575376511e-02