4.213640987873077393e-01
1.459242254495620728e-01
9.802053123712539673e-02 5.715724825859069824e-02 3.803587704896926880e-02 6.821069866418838501e-02
7.169999182224273682e-02 4.717150703072547913e-02 4.563127830624580383e-02 7.300916314125061035e-02
1.072698365896940231e-02 -1.296150032430887222e-02 2.871722728013992310e-02 -9.046956896781921387e-03
1.761248409748077393e-01 1.317842453718185425e-01 8.497498929500579834e-02 1.155258491635322571e-01
4.862971603870391846e-02 -4.526965494733303785e-04 8.106381632387638092e-03 2.919797785580158234e-02
2.381514757871627808e-02 -1.845355331897735596e-02 -1.130379829555749893e-02 -1.980875991284847260e-02
-3.150015771389007568e-01 -1.455709040164947510e-01 -1.248176246881484985e-01 -2.413581907749176025e-01
1.392287462949752808e-01 4.705779254436492920e-02 3.647071495652198792e-02 1.067373752593994141e-01
1.359082758426666260e-01 6.093960255384445190e-02 1.194871813058853149e-01 1.269561946392059326e-01
-1.030216272920370102e-02 1.126923132687807083e-02 2.376026287674903870e-02 2.496561408042907715e-02
2.932448685169219971e-01 2.331843525171279907e-01 1.980986744165420532e-01 2.883897721767425537e-01
3.387891501188278198e-02 4.778405651450157166e-02 3.238569013774394989e-03 7.510004937648773193e-02
-6.194494199007749557e-03 6.017734762281179428e-03 -1.752870902419090271e-02 -2.831076271831989288e-03
-2.580291330814361572e-01 -9.080941230058670044e-02 -7.671336829662322998e-02 -2.289368361234664917e-01
-7.804469019174575806e-02 7.694237399846315384e-03 -3.783454746007919312e-02 -6.115172058343887329e-02
1.411076635122299194e-01 8.220969140529632568e-02 2.719811536371707916e-02 1.160447672009468079e-01
5.331367850303649902e-01 3.255267739295959473e-01 3.407573401927947998e-01 4.911568164825439453e-01
-1.943129003047943115e-01 -8.748208731412887573e-02 -8.557026088237762451e-02 -1.571972072124481201e-01
6.084033101797103882e-02 5.416544526815414429e-02 -4.114350304007530212e-03 2.626578137278556824e-02
1.981954872608184814e-01 1.014995351433753967e-01 1.147336140275001526e-01 1.893395036458969116e-01
-3.644535839557647705e-01 -1.677935272455215454e-01 -1.603174954652786255e-01 -3.239586055278778076e-01
3.367331996560096741e-02 -2.530694566667079926e-02 -2.814740501344203949e-02 -1.226901635527610779e-02
-1.713007129728794098e-02 1.299294643104076385e-02 -2.132373629137873650e-03 3.944094758480787277e-03
4.394421726465225220e-02 -1.969522610306739807e-02 2.390747703611850739e-02 -2.072344720363616943e-02
2.465633898973464966e-01 1.913655847311019897e-01 1.437190622091293335e-01 2.428566813468933105e-01
-3.651519119739532471e-02 -8.480651304125785828e-03 -2.341394126415252686e-02 2.202423289418220520e-02
-6.333901733160018921e-02 -1.434622518718242645e-02 -2.586743608117103577e-02 6.192044238559901714e-04
-2.965655550360679626e-02 -9.957220405340194702e-03 -3.454428911209106445e-02 2.185128442943096161e-02
1.259442884474992752e-02 2.031020261347293854e-02 4.905337467789649963e-02 -1.839649491012096405e-02
-2.470532245934009552e-02 -3.160699456930160522e-02 -3.759569674730300903e-02 -6.541968882083892822e-02
3.494229614734649658e-01 2.006721496582031250e-01 2.292681634426116943e-01 2.918194830417633057e-01
1.303581148386001587e-01 5.604365468025207520e-02 3.721320256590843201e-02 1.375086307525634766e-01
-1.590779423713684082e-02 -6.850824691355228424e-03 -1.087620947510004044e-02 1.893798448145389557e-02
1.375675294548273087e-02 3.225477784872055054e-02 -1.610725000500679016e-02 -9.145792573690414429e-03
-2.834318019449710846e-02 -1.681189239025115967e-02 2.034380286931991577e-02 3.132541477680206299e-02
-2.598006837069988251e-02 -2.112836763262748718e-02 -1.181679125875234604e-02 1.540453173220157623e-02
-8.873562328517436981e-03 -2.128017833456397057e-03 -2.059748023748397827e-02 -4.432662576436996460e-02
1.430275384336709976e-02 -1.325679663568735123e-02 1.909972354769706726e-02 -2.723299898207187653e-03
5.289192199707031250e-01 4.210714995861053467e-01 4.425780177116394043e-01 4.879132807254791260e-01
4.677854478359222412e-03 1.253865472972393036e-02 1.920436322689056396e-02 4.643326252698898315e-02
-4.250835254788398743e-02 -3.620654577389359474e-03 -2.763224020600318909e-02 2.010003663599491119e-02
1.662761718034744263e-02 -1.925924792885780334e-02 -1.791575178503990173e-02 -2.774928882718086243e-02
-1.217558756470680237e-01 -5.135462805628776550e-02 -6.085876375436782837e-02 -7.324042171239852905e-02
-4.532342404127120972e-02 -1.642166823148727417e-02 3.045525774359703064e-02 -5.612039007246494293e-03
-1.978041231632232666e-02 3.615105152130126953e-02 -2.158934623003005981e-02 3.127914294600486755e-02
4.732584655284881592e-01 4.318958222866058350e-01 3.901910483837127686e-01 4.343363046646118164e-01
1.456845551729202271e-01 1.660874485969543457e-01 1.645647287368774414e-01 1.458831131458282471e-01
-1.722948439419269562e-02 1.538092456758022308e-02 3.706912742927670479e-03 -2.681262418627738953e-02
1.833572424948215485e-02 1.265628337860107422e-01 1.784450709819793701e-01 8.746985346078872681e-02
4.305452108383178711e-01 3.889066576957702637e-01 3.175295591354370117e-01 3.298984467983245850e-01
3.847889229655265808e-02 3.467749804258346558e-02 4.720397666096687317e-02 1.368075329810380936e-02
-4.028057307004928589e-02 1.055001374334096909e-02 1.882804743945598602e-02 2.187747880816459656e-02
4.564697444438934326e-01 3.888885378837585449e-01 3.914196491241455078e-01 4.236325323581695557e-01
-3.182730451226234436e-02 -2.824115194380283356e-02 -1.543335337191820145e-02 -8.520640432834625244e-03
-1.237643975764513016e-02 -1.782669126987457275e-02 -2.498359233140945435e-02 -3.478266298770904541e-02
1.718407496809959412e-02 -7.465512026101350784e-03 -1.133386045694351196e-02 2.103599719703197479e-02
-4.400493577122688293e-02 3.262007981538772583e-02 2.173183858394622803e-02 1.620631851255893707e-02
2.298254892230033875e-02 1.332449913024902344e-02 4.425756633281707764e-02 4.593218490481376648e-02
2.431863360106945038e-02 6.345167011022567749e-02 5.611342191696166992e-02 7.545506954193115234e-02
2.985614165663719177e-02 -2.816705591976642609e-02 -1.757151819765567780e-02 3.043578378856182098e-02
2.062352374196052551e-02 2.488264255225658417e-02 4.433181509375572205e-02 4.708019271492958069e-02
1.516457647085189819e-01 1.761949360370635986e-01 1.814306080341339111e-01 1.661719977855682373e-01
-6.110886484384536743e-02 -2.841909416019916534e-02 -4.040908440947532654e-02 -1.261538360267877579e-02
5.328945443034172058e-02 5.584450438618659973e-02 4.504381492733955383e-02 4.412266984581947327e-02