-2.882536500692367554e-02
-4.209517035633325577e-03
-4.039763472974300385e-03
-8.757796138525009155e-02
2.097218632698059082e-01
9.328942745923995972e-02
2.845010459423065186e-01
-3.511005267500877380e-02
1.017902791500091553e-01
2.292790450155735016e-02
1.696326211094856262e-02
1.611636281013488770e-01
2.899411320686340332e-01
9.826456010341644287e-02
-2.563275583088397980e-02
2.699139714241027832e-01
-9.087508078664541245e-04
4.556613974273204803e-03
2.017235904932022095e-01
3.093785345554351807e-01
4.375628754496574402e-02
3.887877762317657471e-01
4.680190980434417725e-02
1.749317795038223267e-01
-4.424070473760366440e-03
3.019004166126251221e-01
-6.169250011444091797e-01
4.804042354226112366e-02
-1.439117640256881714e-02
-1.428445279598236084e-01
5.892122536897659302e-02
1.688872873783111572e-01
-2.157638221979141235e-02 5.406904965639114380e-03 9.156861901283264160e-02
-6.863456964492797852e-02 -1.969192409887909889e-03 -5.875408649444580078e-02
5.492836702615022659e-03 -1.929598115384578705e-02 5.958260502666234970e-03
-1.147699169814586639e-02 -3.110211715102195740e-02 -1.544033759273588657e-03
-4.892219975590705872e-02 1.458096317946910858e-03 -4.252948239445686340e-02
-3.163797408342361450e-02 -3.723894432187080383e-02 -4.121250286698341370e-02
-5.617478117346763611e-02 -3.826094418764114380e-02 -2.439302392303943634e-02
6.532875820994377136e-03 -1.917560584843158722e-02 6.056491751223802567e-03
-3.702075406908988953e-02 2.325613982975482941e-02 1.535126473754644394e-03
9.458786807954311371e-03 -3.039065934717655182e-02 -3.902390599250793457e-02
-8.297207951545715332e-02 1.870666444301605225e-02 3.877965360879898071e-02
-3.041815012693405151e-02 -1.431220211088657379e-02 3.236115723848342896e-02
2.052262611687183380e-02 1.317231804132461548e-01 -6.307477504014968872e-02
-3.996416926383972168e-02 -1.350961998105049133e-02 -5.344955623149871826e-02
-2.144903875887393951e-02 -1.621993072330951691e-02 6.720269471406936646e-02
-7.335830479860305786e-02 -4.525922238826751709e-02 3.304452449083328247e-02
-3.787701204419136047e-02 4.494087304919958115e-03 4.384320601820945740e-02
-4.465017840266227722e-02 -7.973354076966643333e-04 3.018000349402427673e-02
-2.406231872737407684e-02 -6.693544238805770874e-02 5.096154287457466125e-02
-6.296594440937042236e-02 -3.056649491190910339e-02 7.263580709695816040e-02
1.182081527076661587e-03 1.148369722068309784e-02 2.264925837516784668e-02
-1.446727365255355835e-01 -1.801601052284240723e-02 7.672025263309478760e-02
4.934810567647218704e-03 5.544473230838775635e-02 -1.417394448071718216e-02
-1.795307965949177742e-03 1.042787823826074600e-02 6.519323587417602539e-02
-1.145465485751628876e-02 -2.035197429358959198e-02 2.871654555201530457e-02
-1.073025166988372803e-02 3.610109537839889526e-02 2.732588723301887512e-02
-9.017913602292537689e-03 2.175259590148925781e-02 -1.717332750558853149e-02
-5.074293911457061768e-02 4.059835523366928101e-02 8.920322358608245850e-02
-4.700755700469017029e-02 1.325508859008550644e-02 7.512860000133514404e-02
1.254841871559619904e-02 1.116880774497985840e-02 -1.519104838371276855e-02
-8.705466985702514648e-03 1.089447923004627228e-02 -3.834751620888710022e-02
-2.806607261300086975e-02 9.350295364856719971e-02 2.482629567384719849e-02
-3.454805538058280945e-02 1.510480651631951332e-03 -7.532247807830572128e-03
-9.305774420499801636e-02 3.101646713912487030e-02 -6.925097107887268066e-02
-2.485716529190540314e-02 4.224354773759841919e-02 3.494840580970048904e-03
-1.968909613788127899e-02 -2.342091687023639679e-02 -6.825578864663839340e-03
-6.941544823348522186e-03 -1.051142625510692596e-02 1.325894519686698914e-02
-1.710771769285202026e-02 2.476666308939456940e-02 -3.100484050810337067e-02
-3.825106844305992126e-02 2.273037843406200409e-02 -2.008466981351375580e-02
-2.993382699787616730e-02 2.995876967906951904e-02 -2.124468423426151276e-02
3.825108986347913742e-03 3.314281580969691277e-03 3.180364146828651428e-02
3.890692442655563354e-02 -9.022287093102931976e-03 -1.436721626669168472e-02
-2.919174544513225555e-02 -5.032759159803390503e-02 -3.444696962833404541e-02
1.901858858764171600e-02 -1.108180359005928040e-02 3.774993866682052612e-02
-4.451826587319374084e-02 3.996390849351882935e-02 -7.700438052415847778e-02
-2.158251404762268066e-02 3.241518884897232056e-02 4.038834013044834137e-03
-2.719026431441307068e-02 -2.863360196352005005e-02 3.081678785383701324e-02
8.383132517337799072e-02 -3.351478604599833488e-03 -1.438679918646812439e-02
6.308591458946466446e-03 -2.088718488812446594e-02 1.827432308346033096e-03
4.334375262260437012e-03 -3.833944723010063171e-02 -2.351605147123336792e-02
5.140488222241401672e-02 -1.299924962222576141e-02 1.016053929924964905e-02
1.638463325798511505e-02 -3.075901232659816742e-02 -1.185597665607929230e-02
-4.472325369715690613e-02 2.819471119437366724e-04 1.464642677456140518e-02
9.645734098739922047e-04 -1.229528430849313736e-02 6.542659550905227661e-02
-8.652091957628726959e-03 7.632854394614696503e-03 1.364381052553653717e-02
-9.599385783076286316e-03 1.124947331845760345e-02 2.616248093545436859e-02
8.718458563089370728e-02 -8.930805139243602753e-03 -3.501001000404357910e-02
-2.469076775014400482e-02 9.101673029363155365e-03 -5.836612079292535782e-03
-7.812100928276777267e-03 -6.433036644011735916e-03 1.702985912561416626e-02
-3.070212155580520630e-02 -1.058482006192207336e-02 -3.829099610447883606e-02
-2.920039743185043335e-02 1.980599947273731232e-02 1.097421045415103436e-03
5.601431243121623993e-03 -1.034779474139213562e-02 6.729579530656337738e-03
5.547773465514183044e-02 3.026448562741279602e-02 -4.485895112156867981e-02
-2.301168814301490784e-02 -3.791270032525062561e-02 -4.357249662280082703e-02
4.629619047045707703e-02 4.413747694343328476e-03 -5.188006442040205002e-03
-5.751530639827251434e-03 -6.608737166970968246e-03 2.616624161601066589e-02
-7.066886126995086670e-02 3.423247486352920532e-02 -9.961480274796485901e-03
-6.606760900467634201e-03 -5.303298309445381165e-02 -2.376117929816246033e-02
4.854285623878240585e-03 -2.966583240777254105e-03 -6.991071999073028564e-02
5.022620037198066711e-02 -1.811975962482392788e-03 -1.814972609281539917e-02
-2.612625993788242340e-02 2.085327357053756714e-02 3.978617116808891296e-02
-1.814861223101615906e-02 -5.358395632356405258e-03 2.188455400755628943e-04
5.583131313323974609e-02 1.458374597132205963e-02 -9.793424606323242188e-02
-5.669095367193222046e-02 -3.192701563239097595e-02 8.690153248608112335e-03
-5.547630414366722107e-02 1.721470057964324951e-02 -7.618369907140731812e-02
6.593145430088043213e-02 -1.791343651711940765e-02 -4.431750625371932983e-02
3.936267271637916565e-02 9.678164124488830566e-02 3.363192826509475708e-02
-1.623408496379852295e-02 4.145463183522224426e-02 -2.293352968990802765e-02
3.254494443535804749e-02 1.174561399966478348e-02 2.519914507865905762e-02
7.122872024774551392e-02 -8.208976127207279205e-03 4.390594735741615295e-02
7.531474530696868896e-02 -3.266023844480514526e-02 -1.753984764218330383e-02
-9.469604119658470154e-03 -8.166148327291011810e-03 -1.987031288444995880e-02
2.330912835896015167e-02 8.846286684274673462e-03 4.664724227041006088e-03
5.448462441563606262e-02 -9.386405348777770996e-03 4.697958379983901978e-02
1.722945086658000946e-02 -8.201011456549167633e-03 -1.144524738192558289e-01
1.399556696414947510e-01 -5.928703770041465759e-02 -9.196576662361621857e-03
-7.542498409748077393e-03 -3.513875231146812439e-02 -2.437023259699344635e-02
2.674702182412147522e-02 5.214832350611686707e-02 2.562686568126082420e-03
5.941934138536453247e-02 -2.966908551752567291e-02 2.159739844501018524e-02
-1.636810228228569031e-02 -4.448096826672554016e-02 -1.513064140453934669e-03
1.925721205770969391e-02 -6.208322010934352875e-03 -8.940719068050384521e-03
-4.679387062788009644e-02 1.471883151680231094e-02 -1.723800972104072571e-02
1.224388275295495987e-02 -7.915026508271694183e-03 -1.149785891175270081e-01
2.909578150138258934e-03 -7.174878846853971481e-03 1.027095783501863480e-02
-5.277530476450920105e-02 1.116233319044113159e-02 1.814728602766990662e-02
3.496303409337997437e-02 5.059789493680000305e-02 -1.061450839042663574e-01
-6.144043430685997009e-02 -2.281533181667327881e-02 -2.814521268010139465e-02
1.345931924879550934e-02 -2.176763676106929779e-02 5.606188252568244934e-02
1.133733196184039116e-03 5.248701944947242737e-02 8.572761900722980499e-03
-6.341120600700378418e-02 -1.764744520187377930e-02 5.411865562200546265e-02
4.646054282784461975e-02 6.110311951488256454e-03 -1.765978895127773285e-02
2.805598638951778412e-02 2.731387689709663391e-02 1.334847416728734970e-02
4.147631116211414337e-03 3.094301186501979828e-02 6.797443330287933350e-02
-5.303772911429405212e-02 -1.531875168439000845e-04 3.641004487872123718e-02
7.698159664869308472e-03 -1.642802543938159943e-02 -9.384611994028091431e-02
-7.091172784566879272e-02 -2.767908386886119843e-02 5.660986900329589844e-02
-1.717129051685333252e-01 8.986111730337142944e-03 9.572305530309677124e-02
-1.007408369332551956e-02 -2.651996165513992310e-02 -8.991389721632003784e-02
8.503365516662597656e-02 -3.803754970431327820e-02 6.518246233463287354e-02
7.575994729995727539e-02 4.822748713195323944e-03 -2.877461910247802734e-02
-1.651971600949764252e-02 -5.026416387408971786e-03 -2.603383548557758331e-02
6.985481362789869308e-03 1.165166869759559631e-01 -2.496328577399253845e-02
2.211455069482326508e-02 1.632355898618698120e-02 -2.352523803710937500e-02
-5.686664953827857971e-02 1.496351137757301331e-02 4.053915292024612427e-02
5.402193963527679443e-02 6.029373407363891602e-02 -1.279460359364748001e-02
-4.689162224531173706e-02 1.378473732620477676e-02 -5.037556588649749756e-02
2.202840521931648254e-02 -5.081195384263992310e-03 2.789890160784125328e-03
1.305854916572570801e-01 3.128709504380822182e-03 -3.046779520809650421e-02
3.738062456250190735e-02 -1.508754957467317581e-02 -4.078626260161399841e-02
9.889336302876472473e-03 -1.407732907682657242e-02 -6.813152879476547241e-02
1.744203083217144012e-02 8.155754208564758301e-02 3.914692206308245659e-04
-7.606857270002365112e-02 3.124153986573219299e-02 6.425869464874267578e-02
3.386139124631881714e-02 -1.284510269761085510e-02 -6.741991383023560047e-04
-8.912755548954010010e-02 -5.952636525034904480e-02 5.088382959365844727e-02
6.733953207731246948e-02 -1.362880459055304527e-03 4.010384902358055115e-02
3.931196406483650208e-03 1.800172321964055300e-04 3.932417556643486023e-02
-1.919672079384326935e-02 2.534729987382888794e-02 6.510224938392639160e-02
-2.836655266582965851e-02 -1.128453686833381653e-01 9.286910295486450195e-02
3.450680896639823914e-02 1.318094506859779358e-02 5.914250388741493225e-02
2.188878320157527924e-02 -1.184685993939638138e-02 -3.113947808742523193e-03
3.016218915581703186e-02 1.534932875074446201e-03 -3.962014243006706238e-02
4.740475118160247803e-02 7.330072578042745590e-03 -4.593931511044502258e-02
-7.957993447780609131e-02 -9.631899744272232056e-02 9.229668416082859039e-03
-2.786413207650184631e-02 -9.548569470643997192e-02 -1.841227337718009949e-02
-7.460564374923706055e-02 -4.918081685900688171e-03 -1.024909224361181259e-02
5.227542668581008911e-02 -3.241495043039321899e-02 -3.790807351469993591e-02
-3.495738282799720764e-02 -1.074655652046203613e-01 1.511005591601133347e-02
1.528187282383441925e-02 5.761447362601757050e-03 -9.592627175152301788e-03
9.329534322023391724e-02 3.554160892963409424e-02 3.166599944233894348e-02
1.412461977452039719e-02 -1.906220242381095886e-02 1.943742670118808746e-02
-8.535236120223999023e-02 -3.205551952123641968e-02 -4.701073281466960907e-03
-1.034695729613304138e-01 -5.577491968870162964e-02 1.435016514733433723e-03
3.651344776153564453e-02 -2.904900116845965385e-03 4.574772343039512634e-02
-6.756633520126342773e-02 -3.335629403591156006e-02 -6.481962651014328003e-02
2.884536795318126678e-02 -2.807055413722991943e-02 -3.892676532268524170e-02
-1.513923052698373795e-02 2.510104142129421234e-02 3.253504261374473572e-02
-1.095184683799743652e-01 -3.840119391679763794e-02 -4.872730746865272522e-02
2.164145931601524353e-02 1.845509000122547150e-02 3.046935191377997398e-03
-2.127407118678092957e-02 -3.666147962212562561e-02 1.932749152183532715e-02
6.535377819091081619e-03 -1.442704796791076660e-01 -5.972233414649963379e-02
1.174535881727933884e-02 -3.421427309513092041e-02 -4.994700476527214050e-02
1.491215825080871582e-02 2.215469442307949066e-02 1.635229215025901794e-02
-1.446827352046966553e-01 -4.054806008934974670e-02 -4.818496108055114746e-02
1.964143477380275726e-02 -1.308595109730958939e-02 -3.637752681970596313e-02
-7.952383905649185181e-02 -2.426565997302532196e-02 3.655627835541963577e-03
7.156208157539367676e-02 2.202525921165943146e-02 8.029504865407943726e-02
-1.675114594399929047e-02 -4.307876899838447571e-02 3.327965363860130310e-02
-5.596765875816345215e-02 -3.074786253273487091e-02 -5.343406461179256439e-03
-7.526067644357681274e-02 2.143333479762077332e-02 4.134744405746459961e-02
3.685878589749336243e-02 2.267536707222461700e-02 8.248388022184371948e-02
-3.072212636470794678e-02 -4.107722267508506775e-02 -3.169191256165504456e-02
-3.669269382953643799e-02 -1.122777932323515415e-03 -3.488314338028430939e-03
-2.641685865819454193e-02 -1.166076678782701492e-02 -3.502050042152404785e-02
-2.722190506756305695e-02 -4.853686317801475525e-02 -1.531659625470638275e-03
-6.919155828654766083e-03 2.215478196740150452e-02 -1.449816022068262100e-02
1.136634871363639832e-02 -3.652892308309674263e-03 3.741551190614700317e-02
-2.520295232534408569e-02 3.187078982591629028e-02 4.016276821494102478e-02
1.487150602042675018e-02 -1.369366887956857681e-02 -1.077415980398654938e-02
-1.067723520100116730e-02 3.000904805958271027e-02 -1.056760456413030624e-02
-2.434441260993480682e-02 -6.531821191310882568e-02 -5.687864124774932861e-02
-5.796073749661445618e-02 -1.928067766129970551e-02 7.294910028576850891e-03
-9.992462582886219025e-04 4.525633156299591064e-02 -1.667363941669464111e-02
-5.465226620435714722e-02 -3.443558525759726763e-04 4.083108901977539062e-02
3.076741099357604980e-02 -1.192156597971916199e-02 -3.446765244007110596e-02
-3.049566783010959625e-02 4.884749185293912888e-03 -1.586076617240905762e-02
3.881437471136450768e-03 1.468464080244302750e-02 -5.342977866530418396e-02
-2.967593632638454437e-02 -1.902951486408710480e-02 -3.067452646791934967e-02
2.430820371955633163e-03 2.389531582593917847e-02 1.332807820290327072e-02
1.156995631754398346e-02 1.274868659675121307e-02 -5.114831961691379547e-03
1.746875979006290436e-02 1.151033490896224976e-02 -8.244246244430541992e-03
6.995360017754137516e-04 -8.431155234575271606e-03 -5.213849246501922607e-02
-4.313996806740760803e-02 -8.062118664383888245e-03 -4.582167416810989380e-02
8.803195320069789886e-03 -3.315472230315208435e-02 -5.451004952192306519e-02
2.522533573210239410e-02 -9.991981089115142822e-03 -6.388075649738311768e-02
-3.548092767596244812e-02 -3.020659834146499634e-02 -1.004600152373313904e-02
-2.550709061324596405e-03 7.050105370581150055e-03 1.646958105266094208e-02
1.578849554061889648e-02 -8.791314321570098400e-04 1.975004933774471283e-02
1.050576753914356232e-02 -3.676567599177360535e-02 -2.585367672145366669e-02
-1.817770674824714661e-02 2.756409812718629837e-04 3.707011230289936066e-03
1.370536070317029953e-02 1.620754227042198181e-02 2.967167273163795471e-02
-3.333206102252006531e-02 -2.274984121322631836e-02 2.468368597328662872e-02
-2.958093583583831787e-02 -4.683074355125427246e-02 -2.171320095658302307e-02
1.994756748899817467e-03 2.161230146884918213e-02 -3.530485555529594421e-02
-9.786451701074838638e-04 2.689886465668678284e-02 -2.028480917215347290e-02
-8.513225615024566650e-02 -6.246921420097351074e-02 -2.287013456225395203e-02
-3.331611305475234985e-02 -3.770992532372474670e-02 -4.060539975762367249e-02
-6.272287666797637939e-02 -7.643957436084747314e-02 -6.188980489969253540e-02
-1.952822133898735046e-02 2.308643050491809845e-02 -4.105983674526214600e-02
4.599215090274810791e-02 1.402228605002164841e-02 -6.131996214389801025e-02
-3.454389423131942749e-02 -4.601647704839706421e-02 -4.464888200163841248e-02
-1.820991188287734985e-02 2.861131168901920319e-02 -7.628562394529581070e-03
-2.218244038522243500e-02 -5.161082744598388672e-02 6.666741333901882172e-03
-1.526711881160736084e-02 -5.080878362059593201e-02 -4.783705249428749084e-02
-2.475681900978088379e-02 2.415446797385811806e-03 -2.141010761260986328e-02
7.704000174999237061e-02 -3.653904050588607788e-02 -5.754654854536056519e-02
-3.669392317533493042e-02 -6.007500737905502319e-02 -9.996692836284637451e-02
-1.218921784311532974e-02 2.657295763492584229e-02 8.934477344155311584e-03
3.151156008243560791e-02 5.012177675962448120e-02 5.659713875502347946e-03
-1.592245534993708134e-04 3.117062523961067200e-02 -2.420342934783548117e-04
2.177798748016357422e-02 -7.434287574142217636e-03 -4.639996588230133057e-02
-3.175059705972671509e-02 3.276497498154640198e-02 1.973339542746543884e-02
1.577068120241165161e-02 5.338371172547340393e-02 1.829201169312000275e-02
-5.629519582726061344e-04 -1.675520837306976318e-02 -1.258203573524951935e-02
-3.214613720774650574e-02 4.131643474102020264e-02 7.472815457731485367e-03
-4.071266576647758484e-02 -9.428189136087894440e-03 -5.340653657913208008e-02
2.579725114628672600e-03 1.173390634357929230e-02 -3.149308264255523682e-02
1.184816937893629074e-02 1.431397069245576859e-02 -1.740452274680137634e-02
-4.382410086691379547e-03 -5.738041922450065613e-02 -2.043550275266170502e-02
-4.817157052457332611e-03 1.315526850521564484e-02 -4.954448714852333069e-02
2.157730981707572937e-02 1.483872998505830765e-02 -2.460531517863273621e-02
-1.773137971758842468e-02 1.624362915754318237e-02 3.120103850960731506e-02
-9.206466376781463623e-03 -1.858708076179027557e-02 -4.922407492995262146e-02
4.773649200797080994e-02 9.227100759744644165e-03 4.627860616892576218e-03
3.457990288734436035e-02 -1.289794035255908966e-02 -4.538633860647678375e-03
2.422291412949562073e-02 3.742493316531181335e-02 8.615027181804180145e-03
-3.073508292436599731e-02 1.777109922841191292e-03 -2.500047348439693451e-02
-3.726070374250411987e-02 -7.582795340567827225e-03 -1.069991290569305420e-02
-2.973709441721439362e-02 1.917085424065589905e-02 4.278009757399559021e-02
-4.587530856952071190e-04 -3.729190211743116379e-03 -1.652892492711544037e-02
-5.563735216856002808e-02 -2.271918021142482758e-02 -1.561552379280328751e-02
7.676604669541120529e-03 1.523339003324508667e-02 -3.103006444871425629e-02
-3.435468534007668495e-03 -3.176181763410568237e-02 -5.190864205360412598e-03
-1.410630904138088226e-02 5.656351335346698761e-03 -4.561983793973922729e-02
-1.296733506023883820e-03 -4.531568288803100586e-02 4.304372891783714294e-02
-3.998085483908653259e-02 -5.069396924227476120e-03 -6.299941986799240112e-02
-1.711729727685451508e-02 -1.871994137763977051e-02 -1.960905082523822784e-02
-3.098552860319614410e-02 1.930069923400878906e-02 -2.888882346451282501e-02
-1.446815952658653259e-02 7.091847248375415802e-03 -3.564406558871269226e-02
-1.631077937781810760e-02 -2.247154340147972107e-02 -7.348727900534868240e-03
-1.182360202074050903e-02 -2.268819138407707214e-02 5.800012499094009399e-02
4.182754829525947571e-02 -1.679473184049129486e-02 6.078601349145174026e-03
-1.717572845518589020e-02 2.069459669291973114e-02 -9.029169566929340363e-03
3.457326209172606468e-03 3.201447799801826477e-02 4.343432839959859848e-03
-2.517212182283401489e-02 -2.824790403246879578e-02 3.567381575703620911e-02
-4.958083154633641243e-04 -9.557236917316913605e-03 -3.497238457202911377e-02
6.737171858549118042e-02 -1.105195749551057816e-02 7.276479154825210571e-03
-6.707941181957721710e-03 -3.745760768651962280e-02 -1.629876159131526947e-02
-3.365376964211463928e-02 -2.490621246397495270e-02 -1.643668487668037415e-02
-2.642969228327274323e-02 -1.207517925649881363e-02 5.262000113725662231e-02
-3.536649793386459351e-02 -2.057222835719585419e-02 -3.604143857955932617e-02
1.108384411782026291e-02 -1.233374886214733124e-02 -1.274547772482037544e-03
-3.468761965632438660e-02 2.504497207701206207e-02 -4.850484058260917664e-02
6.561286747455596924e-02 -8.936269441619515419e-04 -1.783193647861480713e-02
1.155021507292985916e-02 -1.055588759481906891e-02 1.782903634011745453e-02
-4.415800422430038452e-02 -7.639050018042325974e-03 2.694953400350641459e-05
1.834828779101371765e-02 3.982297331094741821e-02 -6.534241884946823120e-02
-5.985787720419466496e-04 4.906961694359779358e-02 2.273519523441791534e-02
6.181807070970535278e-02 -1.569584943354129791e-02 6.490059196949005127e-02
-6.417965888977050781e-02 -5.073507130146026611e-02 -2.098612487316131592e-02
-6.489910930395126343e-02 -5.283582955598831177e-02 -3.447671607136726379e-02
-4.187282547354698181e-02 -2.502942830324172974e-02 -7.392057776451110840e-02
1.282729441300034523e-03 -8.491402864456176758e-02 -5.005432665348052979e-02
5.700005590915679932e-02 -4.618242383003234863e-02 5.444775521755218506e-02
-4.995657503604888916e-02 -5.120070278644561768e-02 -5.697360262274742126e-02
-7.361811399459838867e-02 -6.182660907506942749e-02 1.299931202083826065e-02
-6.842110306024551392e-03 -3.427066653966903687e-02 -6.246436852961778641e-03
-4.253644496202468872e-03 -7.733825594186782837e-02 -4.598081856966018677e-02
-6.911417841911315918e-02 -3.478175401687622070e-02 -1.150966621935367584e-02
6.471959501504898071e-02 5.646583437919616699e-02 1.037162393331527710e-01
-6.472235918045043945e-02 -7.713539153337478638e-02 -7.185940444469451904e-02
-2.525288239121437073e-02 7.442568894475698471e-03 -2.174490876495838165e-02
-3.903183713555335999e-02 1.707989908754825592e-02 5.778219178318977356e-02
-4.127153754234313965e-02 -2.592151239514350891e-02 5.130117293447256088e-03
3.282973077148199081e-03 -2.873129211366176605e-02 1.998857222497463226e-02
2.553184516727924347e-02 -1.943516544997692108e-02 3.686832636594772339e-02
-4.274238273501396179e-02 1.164142042398452759e-02 -2.252547442913055420e-02
3.415832296013832092e-03 -2.116695418953895569e-02 6.360654253512620926e-03
1.226449944078922272e-02 3.067661449313163757e-02 3.406864590942859650e-03
-6.230404227972030640e-02 -5.503052473068237305e-02 5.232596769928932190e-02
-5.782409384846687317e-02 3.222444280982017517e-02 1.103658508509397507e-02
-2.453954890370368958e-02 -1.727786287665367126e-02 1.026347652077674866e-02
-5.818841233849525452e-02 -4.709187895059585571e-02 -2.665500342845916748e-02
-5.338519811630249023e-02 -2.092658355832099915e-02 -3.174576163291931152e-02
-3.910630196332931519e-02 9.078590199351310730e-03 3.064483776688575745e-02
1.428337115794420242e-02 3.539152070879936218e-02 -3.583630919456481934e-02
3.388603404164314270e-02 -3.400087729096412659e-02 1.358103472739458084e-02
4.122240468859672546e-02 1.840054802596569061e-02 3.829841315746307373e-02
1.549712009727954865e-02 8.862411603331565857e-03 -5.333084985613822937e-02
5.708137527108192444e-02 2.960271015763282776e-02 -3.644260391592979431e-02
-6.045289710164070129e-02 -5.357116088271141052e-02 -5.870951339602470398e-02
7.224041968584060669e-02 3.087756596505641937e-02 3.158501349389553070e-03
1.861360482871532440e-02 -3.462600708007812500e-02 9.444790892302989960e-03
1.937748678028583527e-02 3.041430935263633728e-02 1.235642433166503906e-01
-3.953024372458457947e-02 1.153045240789651871e-02 -1.494240574538707733e-02
-9.591408888809382915e-04 -4.846865683794021606e-02 1.027490571141242981e-02
1.732720807194709778e-02 -1.805937290191650391e-02 -2.932500839233398438e-02
-3.416794911026954651e-02 -1.937776990234851837e-02 7.861829362809658051e-03
9.265162050724029541e-02 -4.096473008394241333e-02 3.225355595350265503e-02
-7.104127109050750732e-02 -6.777869910001754761e-02 5.426985397934913635e-02
-4.827778041362762451e-02 -3.888587281107902527e-02 -1.757520623505115509e-02
1.068184673786163330e-01 7.856997661292552948e-03 -9.412935376167297363e-02
-1.243202714249491692e-03 7.295707613229751587e-02 1.126592382788658142e-01
5.730835348367691040e-02 1.068338518962264061e-03 -1.704872236587107182e-03
7.031077146530151367e-02 4.810386523604393005e-02 8.225594460964202881e-02
-2.823660708963871002e-02 4.363194108009338379e-02 -3.689151629805564880e-02
-9.467030875384807587e-03 -2.789939753711223602e-02 2.305535227060317993e-02
6.572859734296798706e-02 -1.196330529637634754e-03 7.703860104084014893e-02
8.617979288101196289e-02 3.418464586138725281e-02 -1.531541068106889725e-02
-1.402485556900501251e-02 -8.658391423523426056e-03 3.099535405635833740e-02
2.279395237565040588e-02 6.528584659099578857e-02 -6.138265598565340042e-04
-2.449276112020015717e-02 -6.558460183441638947e-03 -2.713699825108051300e-02
-2.097039110958576202e-02 3.793408349156379700e-02 4.298118874430656433e-03
9.430158883333206177e-02 -3.457170352339744568e-02 1.086221784353256226e-01
-3.001024015247821808e-02 -2.761177346110343933e-02 -2.552556805312633514e-02
-1.060884911566972733e-02 -2.055643359199166298e-03 2.479352755472064018e-03
2.921392396092414856e-02 -8.056081831455230713e-03 -3.945103660225868225e-02
-2.364445291459560394e-02 1.384954899549484253e-03 9.846134483814239502e-02
1.645939191803336143e-03 -2.846925705671310425e-02 3.581196814775466919e-02
4.134482145309448242e-02 -6.536553055047988892e-02 -2.846357412636280060e-02
9.197958558797836304e-02 -2.003210596740245819e-02 -3.535452485084533691e-02
7.884267717599868774e-02 4.488442093133926392e-03 -1.881729438900947571e-02
-1.375052379444241524e-03 -4.531548544764518738e-02 -1.952081732451915741e-02
-3.141967952251434326e-02 -5.466295406222343445e-02 -5.704404041171073914e-02
2.466368302702903748e-02 -2.868838235735893250e-02 -1.937171444296836853e-02
-5.955854803323745728e-02 -3.245668485760688782e-02 4.093967005610466003e-02
-5.046647787094116211e-02 -2.928190864622592926e-03 1.589095033705234528e-02
-2.742931433022022247e-02 -3.922244161367416382e-02 -5.166980251669883728e-02
6.985876709222793579e-03 -6.286052055656909943e-03 -1.754346117377281189e-02
2.049692906439304352e-02 -1.307885814458131790e-02 9.419411420822143555e-03
1.455713622272014618e-02 -5.641017481684684753e-02 -7.149463891983032227e-02
8.153613656759262085e-02 -1.023130025714635849e-02 -1.677054539322853088e-02
2.994231320917606354e-02 3.170470520853996277e-02 -7.781826425343751907e-04
-4.705860465764999390e-02 -6.092737242579460144e-02 -1.914764055982232094e-03
-5.388987064361572266e-02 -2.383061498403549194e-02 2.600456820800900459e-03
4.931734502315521240e-02 1.993183791637420654e-02 2.482694387435913086e-02
-5.603529512882232666e-03 3.144441545009613037e-02 -3.735388629138469696e-03
1.036786567419767380e-02 -1.320055965334177017e-02 -4.609719291329383850e-02
1.166900340467691422e-02 -4.186451435089111328e-02 2.792758308351039886e-02
7.943803444504737854e-03 -2.493755891919136047e-03 4.753504879772663116e-03
6.142488867044448853e-02 -2.018821239471435547e-02 -2.533362433314323425e-02
-2.178055606782436371e-02 -5.923147778958082199e-03 2.625801786780357361e-02
2.588913310319185257e-03 -7.393389008939266205e-03 -2.101319655776023865e-02
-2.699088305234909058e-02 -4.268294945359230042e-02 -1.072108745574951172e-02
8.693719655275344849e-02 4.030031152069568634e-03 2.593288943171501160e-02
9.789103642106056213e-03 1.713641919195652008e-02 -4.176770895719528198e-02
9.405247867107391357e-03 -3.015357442200183868e-02 -1.080126687884330750e-02
-5.385454371571540833e-02 1.908274483866989613e-03 2.672797255218029022e-02
8.014757931232452393e-02 1.614416018128395081e-02 1.596614718437194824e-02
-1.458333455957472324e-03 -3.377777338027954102e-02 1.701768953353166580e-03
-4.614070057868957520e-02 9.640076197683811188e-03 -2.904460951685905457e-02
-3.043121472001075745e-02 -7.664531469345092773e-02 -2.418841607868671417e-02
5.979552119970321655e-02 1.635496318340301514e-02 5.996185913681983948e-02
-3.998336195945739746e-02 -6.297433865256607533e-04 -4.715055972337722778e-02
9.001853317022323608e-02 -3.258450701832771301e-02 1.760918274521827698e-02
-1.042531505227088928e-01 -1.896570064127445221e-02 3.384884446859359741e-02
-7.255351543426513672e-02 3.741163061931729317e-03 -2.792586572468280792e-02
-7.722654193639755249e-02 -6.460954993963241577e-02 -5.806285142898559570e-02
-5.712943151593208313e-02 -6.902810931205749512e-02 -7.014197111129760742e-02
-1.942234113812446594e-02 -6.329732388257980347e-02 3.654075786471366882e-02
-1.123948171734809875e-01 -4.371805116534233093e-02 1.789760310202836990e-03
-3.660364449024200439e-02 -1.823686435818672180e-02 -6.223942339420318604e-02
-7.795472443103790283e-02 9.702778421342372894e-03 2.306698076426982880e-02
-6.056175008416175842e-02 -1.171837449073791504e-01 -4.328419640660285950e-02
1.265065185725688934e-02 -1.586429774761199951e-02 1.312546152621507645e-02
1.194667071104049683e-01 4.973230138421058655e-02 7.671988755464553833e-02
-9.242192655801773071e-02 -4.146368429064750671e-02 -6.588704138994216919e-02
-2.428918518126010895e-02 3.616275638341903687e-02 -6.881834473460912704e-03
-7.332677487283945084e-03 -2.389447391033172607e-02 -6.193168926984071732e-03
5.151383951306343079e-02 2.440771833062171936e-02 1.512992568314075470e-02
-2.085366286337375641e-02 -3.903570771217346191e-02 8.636500686407089233e-03
-2.412018179893493652e-02 -3.705465048551559448e-02 -4.608013480901718140e-02
-3.203406929969787598e-02 -2.494440600275993347e-02 -3.047045506536960602e-02
4.438656469574198127e-05 3.216874552890658379e-03 -2.558796666562557220e-02
5.643648654222488403e-02 3.487668931484222412e-02 3.248577564954757690e-02
1.435971446335315704e-02 -2.840539067983627319e-02 5.379300191998481750e-02
-1.129371114075183868e-03 1.655721850693225861e-02 1.240849588066339493e-02
6.813680753111839294e-03 -1.222752686589956284e-02 -1.722485944628715515e-02
-8.052939176559448242e-02 7.183793466538190842e-03 -1.664300076663494110e-02
-2.636488294228911400e-03 -5.388652160763740540e-02 -6.131436303257942200e-02
-5.092289671301841736e-02 -1.140705030411481857e-02 -2.704529464244842529e-02
-1.972656138241291046e-02 1.480414299294352531e-03 -3.727359324693679810e-02
5.142325069755315781e-03 -1.610899716615676880e-02 -1.411144714802503586e-02
4.447465389966964722e-02 -1.790830306708812714e-02 1.375763583928346634e-02
5.942836869508028030e-03 -2.063006721436977386e-02 -7.139845937490463257e-02
-3.032551519572734833e-02 2.057865820825099945e-02 -9.684895630925893784e-04
-1.069020293653011322e-02 -2.969320921692997217e-04 3.321525081992149353e-02
-4.252071678638458252e-02 3.271497413516044617e-02 8.166932500898838043e-03
-4.088046774268150330e-02 -1.931422017514705658e-02 -3.123012371361255646e-02
4.689304903149604797e-02 -6.043898686766624451e-02 2.201910316944122314e-02
-1.687576621770858765e-02 -4.479946568608283997e-02 4.910040646791458130e-03
-7.483220845460891724e-02 3.236472234129905701e-02 -9.186234325170516968e-03
1.378647238016128540e-02 -1.286832708865404129e-02 9.403487667441368103e-03
-4.750304296612739563e-02 6.810141727328300476e-03 4.023112356662750244e-02
-3.557156026363372803e-02 3.803253173828125000e-02 -7.786287367343902588e-02
-7.085748761892318726e-02 -3.467865288257598877e-02 1.446952074766159058e-01
2.430010028183460236e-02 -3.404942527413368225e-02 2.332863956689834595e-02
5.306540802121162415e-02 1.882030069828033447e-02 -2.825762704014778137e-02
1.602114550769329071e-02 -5.365917459130287170e-02 7.666882127523422241e-02
-7.032953947782516479e-02 3.566089784726500511e-03 2.198611013591289520e-02
-6.006009131669998169e-02 8.310619741678237915e-02 -5.111765116453170776e-02
1.930866390466690063e-02 -2.107798494398593903e-02 6.504124402999877930e-02
-1.699746213853359222e-02 -3.738453611731529236e-02 8.199767768383026123e-02
-6.983114778995513916e-02 4.154106602072715759e-02 -5.656323209404945374e-02
-2.862157858908176422e-02 1.033858116716146469e-02 -2.079896070063114166e-02
9.496717713773250580e-03 2.569531835615634918e-02 6.150024477392435074e-03
1.564838737249374390e-02 1.153133809566497803e-03 2.445068396627902985e-02
-3.395723178982734680e-02 3.215092048048973083e-02 6.607890874147415161e-02
-7.096060365438461304e-02 4.111557453870773315e-02 2.849494293332099915e-02
-7.915848493576049805e-02 7.066587358713150024e-02 -1.385750249028205872e-02
-9.588355571031570435e-02 1.692723669111728668e-02 8.571886271238327026e-02
-5.370987579226493835e-02 1.564840972423553467e-02 5.538592580705881119e-03
-2.946900390088558197e-02 -1.235879771411418915e-02 9.476111084222793579e-02
-2.753741852939128876e-02 -1.489421911537647247e-02 3.148505836725234985e-02
-1.141431927680969238e-02 1.528767519630491734e-03 -9.920846670866012573e-03
-2.466290071606636047e-02 9.851290285587310791e-02 5.343290418386459351e-02
1.248336583375930786e-02 -7.275521010160446167e-02 -9.770953096449375153e-03
6.090290099382400513e-02 2.004572749137878418e-02 2.014435827732086182e-02
6.991424411535263062e-02 7.880133925937116146e-04 -1.155474688857793808e-03
4.483565315604209900e-02 9.836562676355242729e-04 -1.095936968922615051e-01
2.667139843106269836e-02 -3.594669699668884277e-02 -1.008291766047477722e-01
3.287433180958032608e-03 -3.228052705526351929e-02 -4.198340699076652527e-02
1.712994091212749481e-02 -7.603695243597030640e-02 -4.639825597405433655e-02
1.412631757557392120e-02 4.885726142674684525e-03 3.143522515892982483e-02
4.485025629401206970e-02 -3.047912567853927612e-02 -1.068498194217681885e-01
-5.825733765959739685e-02 -2.810249105095863342e-02 7.159451488405466080e-03
5.296093225479125977e-02 -5.495024845004081726e-02 -1.656687408685684204e-01
5.259631201624870300e-02 6.163435056805610657e-03 3.236667811870574951e-02
-2.382649295032024384e-02 1.557180099189281464e-02 -3.952835872769355774e-02
3.790268301963806152e-02 -1.925406046211719513e-02 -1.410001050680875778e-02
3.291370812803506851e-03 -4.303874447941780090e-02 -3.761132061481475830e-02
2.760507538914680481e-02 2.906165271997451782e-02 1.626405492424964905e-02
2.203305065631866455e-02 7.047193590551614761e-03 -8.279754221439361572e-02
2.123765833675861359e-02 -2.001700364053249359e-02 -6.329056620597839355e-02
2.590841054916381836e-02 2.842000313103199005e-02 2.267116867005825043e-02
2.196298912167549133e-02 3.935124725103378296e-03 -3.998091444373130798e-02
6.190560758113861084e-02 1.431257929652929306e-02 -1.288028247654438019e-02
-1.344249863177537918e-02 -4.147446155548095703e-02 1.724878139793872833e-02
1.472023576498031616e-01 -6.974776275455951691e-03 -5.086293444037437439e-02
-2.004288136959075928e-02 -5.860664416104555130e-03 -8.231798559427261353e-02
-2.178655937314033508e-02 3.259924426674842834e-02 4.161083605140447617e-03
6.466528028249740601e-02 3.470588102936744690e-02 -8.792110532522201538e-02
-1.844077371060848236e-02 -8.386475034058094025e-03 -3.402505442500114441e-02
-1.978784985840320587e-02 9.011280722916126251e-03 -1.687180064618587494e-02
6.485275924205780029e-02 -9.577523451298475266e-05 -1.868306077085435390e-03
9.077951312065124512e-02 -3.332414105534553528e-02 -1.182274147868156433e-02
-3.460084088146686554e-03 -2.959235757589340210e-02 -1.773663423955440521e-02
-3.240965306758880615e-02 2.983443997800350189e-02 -4.561747983098030090e-02
4.492798075079917908e-02 7.536166347563266754e-03 1.484943367540836334e-02
4.519339278340339661e-02 -2.555901743471622467e-02 9.455842897295951843e-03
-1.160727143287658691e-01 -8.673356473445892334e-02 -6.248949840664863586e-02
3.461922518908977509e-03 4.578651487827301025e-02 8.251645416021347046e-02
-3.802834078669548035e-02 -5.591201409697532654e-02 3.857947140932083130e-02
-5.850586108863353729e-03 4.347406700253486633e-02 1.026745140552520752e-01
-7.491689920425415039e-02 -4.050322994589805603e-02 1.329891476780176163e-02
-1.215791255235671997e-01 -7.632768899202346802e-02 -5.631978809833526611e-02
7.869572378695011139e-03 -1.212903112173080444e-02 5.013628304004669189e-02
2.766383811831474304e-03 3.332620114088058472e-02 5.337860807776451111e-02
-2.547732740640640259e-02 -2.547194622457027435e-02 8.488013409078121185e-03
-2.119566872715950012e-02 -6.001018919050693512e-03 6.127383187413215637e-02
1.363386400043964386e-02 3.834025701507925987e-03 -1.630302891135215759e-02
3.440603241324424744e-02 -3.574102371931076050e-02 -2.379836887121200562e-02
-1.458218228071928024e-02 -6.466428749263286591e-03 9.705067425966262817e-02
1.286019757390022278e-02 1.621109619736671448e-02 -4.169652704149484634e-03
-1.160823088139295578e-02 -6.559346336871385574e-03 1.288989325985312462e-03
-3.813082352280616760e-02 5.048326402902603149e-02 2.274832502007484436e-02
-2.837901562452316284e-02 1.828954322263598442e-03 3.871404752135276794e-02
-2.599555766209959984e-03 -3.829993680119514465e-02 -1.417861878871917725e-02
3.069481626152992249e-02 -2.370025031268596649e-02 -2.362936548888683319e-02
-2.758349291980266571e-02 -2.292168326675891876e-02 4.548432305455207825e-02
-2.045587077736854553e-02 -3.248684853315353394e-02 -4.609400033950805664e-02
1.386181823909282684e-02 2.159410854801535606e-03 1.935251615941524506e-02
2.021302841603755951e-02 -9.047538973391056061e-03 -1.769757084548473358e-02
-4.041516780853271484e-02 -4.293872416019439697e-02 -2.751790173351764679e-02
-9.683230891823768616e-04 4.704499244689941406e-02 4.417405277490615845e-02
-4.347414523363113403e-02 2.126960083842277527e-02 3.531137108802795410e-02
5.113538354635238647e-02 -1.855586096644401550e-02 6.469731032848358154e-02
-1.014795228838920593e-01 -4.073199257254600525e-02 -4.267663694918155670e-03
-7.782232761383056641e-02 -3.164853900671005249e-02 1.038062758743762970e-02
-2.582236751914024353e-02 -4.889542981982231140e-02 -4.820031300187110901e-02
-7.271875161677598953e-03 -2.293986082077026367e-02 7.238319516181945801e-02
6.131346896290779114e-02 -8.529446274042129517e-02 -8.007593452930450439e-03
6.390086561441421509e-02 -7.933253794908523560e-02 -3.723507747054100037e-03
1.898141764104366302e-02 -6.941100955009460449e-02 3.838051483035087585e-02
6.586576811969280243e-03 -8.124637603759765625e-02 1.069376245141029358e-01
-7.671836297959089279e-03 2.896337956190109253e-02 -6.704395264387130737e-02
-4.551980644464492798e-02 1.983423158526420593e-02 1.899958401918411255e-02
8.408216387033462524e-02 -1.130397394299507141e-01 3.572301566600799561e-02
-3.078844584524631500e-02 -4.270688071846961975e-02 3.549297899007797241e-02
2.584059955552220345e-03 -2.140307333320379257e-03 2.056224038824439049e-03
2.725698612630367279e-02 -8.438408374786376953e-02 9.517521411180496216e-02
-3.170852549374103546e-03 4.237950965762138367e-02 -7.259135693311691284e-02
3.648409619927406311e-02 -1.047418173402547836e-02 -1.999912597239017487e-02
4.764108732342720032e-02 -1.323247700929641724e-01 6.559232622385025024e-02
-1.299244537949562073e-02 4.798848554491996765e-02 -6.092034652829170227e-02
6.074491888284683228e-02 -5.066457018256187439e-02 -1.066066231578588486e-02
3.795016929507255554e-02 -3.760358318686485291e-02 1.022926121950149536e-01
1.815127581357955933e-02 3.371805325150489807e-02 -5.615374073386192322e-02
-4.416197910904884338e-02 2.702799998223781586e-02 -3.423659503459930420e-02
4.432073235511779785e-02 -6.177045404911041260e-02 7.124969363212585449e-02
4.665189981460571289e-02 -1.024725586175918579e-01 7.687685638666152954e-02
-4.666011407971382141e-02 6.751801818609237671e-02 -2.046838775277137756e-02
-7.899150997400283813e-02 8.390260487794876099e-02 -1.064986065030097961e-01
2.719152346253395081e-02 -1.778757758438587189e-02 -3.701131790876388550e-02
4.014246538281440735e-02 -5.724239721894264221e-02 3.486951440572738647e-02
1.795599050819873810e-02 -7.199808955192565918e-02 5.192090943455696106e-02
-5.186850205063819885e-02 5.369655415415763855e-02 -5.293639004230499268e-02
1.042959466576576233e-02 -2.087877318263053894e-02 -1.954597246367484331e-04
-1.295685581862926483e-02 -4.360350966453552246e-02 -3.169406205415725708e-02
-1.548576503992080688e-01 1.413643211126327515e-01 -1.317786127328872681e-01
2.668484859168529510e-02 -3.249613568186759949e-02 9.524766355752944946e-03
6.540731340646743774e-02 -1.471584737300872803e-01 8.634962141513824463e-02
-9.735232591629028320e-02 9.301240742206573486e-02 -9.696445614099502563e-02
1.541907526552677155e-02 4.727442935109138489e-02 1.685302122496068478e-03
5.450876802206039429e-02 -1.998832076787948608e-02 5.944900587201118469e-02
-5.440661683678627014e-03 -3.737219050526618958e-02 -3.169675916433334351e-02
-1.016019005328416824e-02 3.008339554071426392e-02 -4.878842830657958984e-02
1.718234829604625702e-02 -3.585468605160713196e-02 -1.005326062440872192e-01
5.182370543479919434e-02 -1.138810142874717712e-01 -9.846537560224533081e-02
8.057896047830581665e-02 -8.715686202049255371e-02 5.237552896142005920e-02
2.171511016786098480e-02 -6.222956627607345581e-02 -9.494905918836593628e-02
-1.409313231706619263e-01 -3.225813433527946472e-02 -8.523222990334033966e-03
4.736370965838432312e-02 3.012946248054504395e-02 -2.852107211947441101e-02
-1.202949672006070614e-03 -1.035373061895370483e-01 -7.144621014595031738e-02
-6.425845623016357422e-02 -2.023482322692871094e-02 1.136450190097093582e-02
-2.846966311335563660e-02 -3.619212284684181213e-02 1.717153191566467285e-01
-6.865736842155456543e-02 -1.143003702163696289e-01 -1.148689910769462585e-01
2.991748228669166565e-02 1.646865718066692352e-02 2.588360011577606201e-02
4.116511344909667969e-02 3.199429810047149658e-02 7.468093186616897583e-02
-3.028369322419166565e-02 -3.333373367786407471e-02 3.067279048264026642e-02
5.759114399552345276e-02 1.516649965196847916e-02 2.330786548554897308e-02
4.806956276297569275e-02 -4.016188438981771469e-03 2.447284571826457977e-02
-1.558796223253011703e-02 3.476518765091896057e-02 -5.694399005733430386e-04
-4.588654637336730957e-02 -3.628326114267110825e-03 -2.311142347753047943e-02
7.528953254222869873e-02 6.754365563392639160e-02 8.191128820180892944e-02
-7.263118028640747070e-02 -3.528134524822235107e-02 1.547614298760890961e-02
-2.840363048017024994e-02 4.472310841083526611e-02 4.765616357326507568e-02
5.787897855043411255e-02 1.341263204813003540e-02 4.322276636958122253e-02
-4.506199434399604797e-02 -7.873716205358505249e-02 -5.151263624429702759e-02
-5.793425813317298889e-02 -4.484006389975547791e-02 -1.463680714368820190e-02
2.382853068411350250e-02 3.755689412355422974e-02 1.195791922509670258e-02
-3.313001710921525955e-03 1.685588620603084564e-02 -3.412107378244400024e-02
2.233401499688625336e-02 -2.050019055604934692e-02 3.233533725142478943e-02
4.459202289581298828e-02 1.790699176490306854e-02 1.667507886886596680e-01
-1.120267342776060104e-02 -3.574320673942565918e-02 -1.614502980373799801e-03
1.314260810613632202e-02 -1.621099375188350677e-02 -2.600207924842834473e-03
-5.651425942778587341e-02 -1.867895759642124176e-02 -4.983974620699882507e-02
5.133629776537418365e-03 2.388927526772022247e-02 -4.002283886075019836e-02
1.284811273217201233e-02 -1.331774517893791199e-03 -6.710960995405912399e-03
-1.952673308551311493e-02 -1.214681193232536316e-02 -3.563275095075368881e-03
-3.137414902448654175e-02 -3.673058003187179565e-02 -2.713806740939617157e-02
-2.020492590963840485e-02 -1.070283236913383007e-03 -1.794200204312801361e-02
3.096124855801463127e-03 3.476223908364772797e-03 -3.230424970388412476e-02
-3.997352346777915955e-02 -4.985558800399303436e-03 -1.487617101520299911e-02
4.394684359431266785e-02 -2.072306908667087555e-02 -2.679733373224735260e-02
1.026322040706872940e-02 4.389641399029642344e-04 -1.188790239393711090e-02
-3.023351356387138367e-02 -3.709919750690460205e-02 -2.963600866496562958e-02
3.356379270553588867e-02 3.906321153044700623e-02 -3.882276639342308044e-02
-2.914847806096076965e-02 -2.647566050291061401e-02 -3.578456863760948181e-02
-3.320169867947697639e-03 -3.826075419783592224e-02 -1.272546593099832535e-02
3.347970172762870789e-02 -1.579046808183193207e-02 2.129542641341686249e-02
-2.662978949956595898e-04 6.761746481060981750e-03 1.271324697881937027e-02
1.296151988208293915e-02 1.852658018469810486e-02 -9.948008693754673004e-03
1.749265938997268677e-02 -3.073612600564956665e-02 9.264160878956317902e-03
-2.012784359976649284e-03 -1.603273674845695496e-02 3.454860672354698181e-02
1.564186066389083862e-02 -2.258297055959701538e-02 2.033553458750247955e-02
-3.852972760796546936e-02 -5.687688011676073074e-03 3.092393279075622559e-02
1.481292862445116043e-02 2.619580365717411041e-02 5.592563655227422714e-03
2.307365089654922485e-02 6.950612296350300312e-04 -1.130652427673339844e-02
1.949046365916728973e-02 -2.608495764434337616e-02 -3.114538826048374176e-02
-9.080268442630767822e-03 -2.179696969687938690e-02 -3.937928471714258194e-03
-5.199947860091924667e-03 7.026232313364744186e-03 1.255524158477783203e-02
-2.629478275775909424e-02 1.150050107389688492e-02 2.837659791111946106e-02
-1.583254896104335785e-02 1.782508566975593567e-02 1.369304372929036617e-03
-2.233486995100975037e-02 -1.062081940472126007e-02 3.460986074060201645e-03
-3.104909136891365051e-02 -7.587119471281766891e-03 -4.145608842372894287e-02
-4.831547848880290985e-03 -2.509038150310516357e-02 1.599351316690444946e-02
1.514764782041311264e-02 -3.494147676974534988e-03 1.161383464932441711e-02
-6.343463808298110962e-02 6.153414770960807800e-02 5.041896179318428040e-02
3.999515250325202942e-02 -7.255626376718282700e-03 5.304782837629318237e-02
-9.818326681852340698e-03 -5.703807994723320007e-02 3.220509365200996399e-02
-1.561901997774839401e-02 1.415767893195152283e-02 2.057118713855743408e-02
-1.912191626615822315e-03 3.517652302980422974e-02 3.418121114373207092e-02
-2.866666472982615232e-04 -5.604824796319007874e-02 7.139926403760910034e-02
5.062152445316314697e-02 -1.951128430664539337e-02 3.934828937053680420e-02
3.664054349064826965e-02 -1.885362342000007629e-02 -2.909515239298343658e-02
-2.000401960685849190e-03 -9.544166177511215210e-02 7.267079502344131470e-02
2.330583147704601288e-02 5.096599832177162170e-02 -5.058860778808593750e-02
-1.774422079324722290e-02 3.413977473974227905e-02 -8.613285608589649200e-03
8.898600004613399506e-03 -1.146205049008131027e-02 3.386506065726280212e-02
-4.282031208276748657e-02 6.776816397905349731e-02 1.338094286620616913e-02
2.434719912707805634e-02 2.533661900088191032e-03 3.076098673045635223e-02
-5.967522040009498596e-03 -3.915727883577346802e-02 7.485918700695037842e-02
-1.578277908265590668e-02 5.436422675848007202e-02 -1.610288023948669434e-02
-3.993166610598564148e-02 2.350978925824165344e-02 -4.166337102651596069e-02
-3.421735763549804688e-02 -7.497468590736389160e-02 4.852562025189399719e-02
-9.429289959371089935e-03 -5.940593313425779343e-03 3.752471134066581726e-02
3.271756321191787720e-02 2.463095635175704956e-02 -8.103184401988983154e-02
-1.159242689609527588e-01 4.057274758815765381e-02 -1.083668135106563568e-02
4.530600085854530334e-02 1.554911769926548004e-02 -1.046351902186870575e-02
1.354423724114894867e-02 2.562050893902778625e-02 -5.313431378453969955e-03
-1.355638075619935989e-02 -8.024616539478302002e-02 3.266206756234169006e-02
2.566440217196941376e-02 4.113422706723213196e-02 7.155562285333871841e-03
-1.521347463130950928e-02 1.270551234483718872e-02 2.912336587905883789e-02
5.749954655766487122e-02 1.111727673560380936e-02 -3.433669358491897583e-02
-1.023939698934555054e-01 1.456168480217456818e-02 -6.774088740348815918e-02
-6.714813411235809326e-03 -4.782207682728767395e-02 4.284005612134933472e-02
1.028930582106113434e-02 -2.639861591160297394e-02 3.313361853361129761e-02
3.745169937610626221e-02 2.633233927190303802e-02 -4.084272310137748718e-02
6.183664128184318542e-02 1.514234673231840134e-02 -7.090092450380325317e-02
5.728003568947315216e-03 -8.342494815587997437e-02 -9.845996648073196411e-02
-7.888177409768104553e-03 1.930578425526618958e-02 3.116066008806228638e-02
3.154512494802474976e-02 -4.969867691397666931e-02 1.863529346883296967e-02
-5.962519347667694092e-02 2.014912664890289307e-02 -3.396508097648620605e-02
-7.101509720087051392e-02 -3.508055955171585083e-02 1.717780344188213348e-02
-6.467410176992416382e-02 -5.378425866365432739e-02 -1.879645325243473053e-02
1.574769243597984314e-02 -1.563463918864727020e-02 1.517296675592660904e-02
-1.138089783489704132e-02 2.848236076533794403e-02 -5.963988229632377625e-02
4.538012295961380005e-02 2.477149246260523796e-03 -4.404116421937942505e-03
1.193403974175453186e-01 -1.238491944968700409e-02 -1.091969534754753113e-01
2.222396060824394226e-02 3.862208873033523560e-02 -4.771640896797180176e-02
3.006613999605178833e-02 -1.989404298365116119e-02 -6.939609348773956299e-02
-6.324131786823272705e-02 2.080424688756465912e-02 -2.322331769391894341e-03
8.438611403107643127e-03 6.461788900196552277e-03 -1.650383323431015015e-02
1.586106792092323303e-02 -2.798997610807418823e-02 -4.821397736668586731e-02
3.299829782918095589e-03 1.288397703319787979e-02 2.610487863421440125e-02
8.970865979790687561e-03 2.665683999657630920e-02 -2.687293104827404022e-02
-2.271545864641666412e-02 -8.034645579755306244e-03 -4.697101190686225891e-02
3.412503376603126526e-02 2.503494359552860260e-02 -7.701427489519119263e-02
2.640452876221388578e-04 2.426733449101448059e-02 -6.944778375327587128e-03
-1.112397946417331696e-02 3.589889034628868103e-02 -1.059997640550136566e-02
1.509352307766675949e-02 3.201118111610412598e-02 2.533605508506298065e-02
7.774625904858112335e-03 -2.361829765141010284e-02 -8.340433984994888306e-02
3.012020373716950417e-03 -1.150407176464796066e-02 -3.389428928494453430e-02
2.083300054073333740e-02 -1.742130145430564880e-02 3.563359752297401428e-02
-6.269317120313644409e-02 1.981570944190025330e-02 -1.717932708561420441e-02
9.445726871490478516e-02 2.767889760434627533e-02 -8.315588533878326416e-02
-2.732969261705875397e-02 -3.484356403350830078e-02 -1.207572966814041138e-02
-1.746864616870880127e-02 -5.559676885604858398e-02 -7.671809755265712738e-03
2.091288100928068161e-03 8.761402219533920288e-03 -2.496290393173694611e-02
1.178863421082496643e-01 -4.577687382698059082e-02 -9.042544662952423096e-02
-1.882593147456645966e-02 -7.234584540128707886e-03 -3.634700551629066467e-02
1.345868874341249466e-02 -5.289968568831682205e-03 2.369175106287002563e-02
-1.195696890354156494e-01 6.758824735879898071e-02 1.683033257722854614e-01
-3.795541077852249146e-02 3.968806192278862000e-02 4.435198754072189331e-02
-1.843388751149177551e-02 2.505656331777572632e-02 5.643338710069656372e-02
-2.850066497921943665e-02 2.416560426354408264e-02 1.163625251501798630e-02
2.994747087359428406e-02 -3.850208595395088196e-02 2.673990838229656219e-02
-8.531415462493896484e-02 3.316883370280265808e-02 8.719068020582199097e-02
7.389006763696670532e-02 -3.951381891965866089e-02 -6.147264316678047180e-02
-8.043686300516128540e-02 3.032546676695346832e-02 1.551829874515533447e-01
-7.661589980125427246e-02 -3.733906522393226624e-02 1.763167418539524078e-02
8.194657973945140839e-03 -2.666284330189228058e-02 -3.254805505275726318e-02
-2.241348102688789368e-02 8.059635758399963379e-02 6.932343542575836182e-02
-6.566678732633590698e-02 1.815341040492057800e-02 1.263473927974700928e-02
-1.937206462025642395e-02 -3.863824531435966492e-02 -4.420252889394760132e-02
-7.515217177569866180e-03 -1.835610903799533844e-02 2.861736901104450226e-02
3.128576278686523438e-02 1.117835752665996552e-02 2.431507408618927002e-02
-3.029457479715347290e-02 -1.536148786544799805e-02 1.203991379588842392e-02
-1.932485587894916534e-02 -2.299192361533641815e-02 7.645743899047374725e-03
-1.063405536115169525e-03 -1.614245399832725525e-02 -2.698637172579765320e-02
-1.157290302217006683e-02 2.707048691809177399e-02 -1.109500788152217865e-02
2.159939147531986237e-02 3.509759530425071716e-02 5.650860071182250977e-02
-4.290131386369466782e-03 -2.255524741485714912e-03 3.704080730676651001e-02
2.375647053122520447e-02 -4.426952823996543884e-02 -6.645277142524719238e-02
2.609466016292572021e-02 -1.361865829676389694e-02 2.661342360079288483e-02
-6.794413179159164429e-02 3.522846475243568420e-02 5.149795487523078918e-02
-1.826100982725620270e-02 2.050634846091270447e-02 1.190608274191617966e-02
-1.506216730922460556e-02 -1.348691433668136597e-02 -4.778936877846717834e-02
-1.731749624013900757e-03 2.239587530493736267e-02 -1.726853847503662109e-02
3.299878211691975594e-03 -8.480288088321685791e-03 1.231699250638484955e-03
-3.031558543443679810e-02 2.856499142944812775e-02 7.964330911636352539e-02
-3.991759568452835083e-02 -7.427409291267395020e-02 -7.967137545347213745e-02
-1.140986755490303040e-01 2.776219882071018219e-02 -4.192458838224411011e-02
-3.553638607263565063e-02 3.021679585799574852e-03 -7.360527664422988892e-02
-7.075323164463043213e-02 5.565296858549118042e-02 2.343309577554464340e-03
-1.431818306446075439e-02 4.159428179264068604e-02 2.192061021924018860e-02
-4.529899731278419495e-02 1.784638501703739166e-02 6.630134582519531250e-02
-1.777353882789611816e-02 2.525957114994525909e-02 5.362746492028236389e-02
-5.045187845826148987e-02 1.902308315038681030e-02 -2.339417301118373871e-02
-3.307329118251800537e-02 4.693523421883583069e-02 2.865564264357089996e-02
1.100288424640893936e-02 5.228340253233909607e-02 6.229783222079277039e-02
-3.293202817440032959e-02 4.574001953005790710e-02 2.647897787392139435e-02
-1.997140236198902130e-02 -1.785022579133510590e-02 -9.931446053087711334e-03
3.664346411824226379e-02 7.259204518049955368e-03 4.930494725704193115e-02
-4.789950326085090637e-02 -2.464585751295089722e-02 -9.560150653123855591e-02
-1.717355917207896709e-04 1.950911618769168854e-02 6.927815079689025879e-02
-8.310009539127349854e-02 2.128919959068298340e-02 -3.720710426568984985e-02
-2.330913953483104706e-02 8.292435109615325928e-02 -6.661340594291687012e-02
6.043167412281036377e-02 -3.280637413263320923e-02 2.775596454739570618e-03
1.904163509607315063e-02 -4.137010499835014343e-02 3.396395593881607056e-02
-3.185006231069564819e-02 5.654869973659515381e-02 -3.543754667043685913e-02
-2.656766679137945175e-03 4.729581251740455627e-02 -5.122785270214080811e-02
3.403590992093086243e-02 -3.163375332951545715e-02 6.003630533814430237e-02
4.597318544983863831e-02 5.441560968756675720e-02 -5.086874961853027344e-02
2.813081815838813782e-02 4.671960696578025818e-02 -3.166617453098297119e-02
-1.691215112805366516e-02 -2.481911098584532738e-03 -1.308865565806627274e-02
-2.978435531258583069e-02 4.705769196152687073e-02 -2.690169028937816620e-02
2.244944311678409576e-02 2.472618781030178070e-02 1.216367818415164948e-02
5.018454510718584061e-03 -3.319689305499196053e-03 4.466833546757698059e-02
-1.001678109169006348e-01 -2.391023747622966766e-02 -3.308426216244697571e-02
4.025766626000404358e-02 -6.550041586160659790e-02 5.956587567925453186e-02
-5.438213795423507690e-02 4.551663249731063843e-02 -1.764860749244689941e-02
9.713546372950077057e-03 -1.184112764894962311e-02 2.874576114118099213e-02
-7.700274139642715454e-02 -4.936373233795166016e-02 1.216725446283817291e-02
1.012830529361963272e-02 -9.712752886116504669e-03 -1.099294703453779221e-02
-1.625293195247650146e-01 7.736015319824218750e-02 2.359255217015743256e-03
2.060111425817012787e-02 -4.629880562424659729e-02 5.933654680848121643e-02
7.604790385812520981e-03 -3.353577479720115662e-02 2.711329236626625061e-02
-6.808578968048095703e-02 -8.103755116462707520e-02 7.317094504833221436e-02
-1.101818680763244629e-01 -2.436189725995063782e-02 -1.562891714274883270e-02
-9.547360986471176147e-02 8.707609027624130249e-02 2.247784659266471863e-02
2.654548920691013336e-02 -1.604673825204372406e-02 2.836925722658634186e-02
-2.277056500315666199e-02 -3.608624264597892761e-02 -3.224441409111022949e-02
3.607321158051490784e-02 -4.428304731845855713e-02 1.491804607212543488e-02
-9.288959205150604248e-03 5.919782817363739014e-02 5.800389871001243591e-02
1.144222635775804520e-02 -2.226741053164005280e-02 -6.837126612663269043e-02
-1.782004386186599731e-01 2.241848222911357880e-02 -1.602937281131744385e-02
-5.784988030791282654e-02 -2.628542110323905945e-02 6.036073714494705200e-02
-2.102680504322052002e-02 -3.805860504508018494e-02 2.251948788762092590e-02
5.646914243698120117e-02 1.451551262289285660e-02 8.573444932699203491e-02
3.221410885453224182e-02 3.369980677962303162e-02 -4.856759309768676758e-02
3.236840665340423584e-02 1.678443327546119690e-02 1.845912449061870575e-02
2.245232462882995605e-02 3.595089167356491089e-02 5.910195410251617432e-02
5.986318737268447876e-02 2.667217515408992767e-03 -7.223400752991437912e-03
-9.138449095189571381e-03 -8.423376828432083130e-02 9.550636261701583862e-02
-3.140313550829887390e-02 -1.023925025947391987e-03 1.011217981576919556e-01
9.406309574842453003e-03 -1.070153340697288513e-02 -2.440978400409221649e-02
2.355171553790569305e-02 -2.366263791918754578e-02 -2.817770652472972870e-02
1.864183694124221802e-02 5.369673296809196472e-02 4.683535173535346985e-02
2.419034391641616821e-02 1.508804783225059509e-02 9.761649183928966522e-03
-4.560241848230361938e-02 4.423959180712699890e-03 1.844687573611736298e-02
6.259467918425798416e-03 8.449992164969444275e-03 1.947980746626853943e-02
-1.312187872827053070e-03 7.984398305416107178e-02 1.027642861008644104e-01
-3.633214160799980164e-02 5.301625654101371765e-02 3.094083629548549652e-02
1.242051180452108383e-02 1.270240396261215210e-01 5.489101260900497437e-02
-1.607406884431838989e-02 -1.836486533284187317e-02 5.310599226504564285e-03
-6.443169713020324707e-02 1.912972331047058105e-02 2.304634824395179749e-02
6.842615455389022827e-02 3.909846022725105286e-02 -1.645541489124298096e-01
-4.605924710631370544e-02 4.481888562440872192e-02 -5.438444018363952637e-02
-1.984312385320663452e-02 5.823750793933868408e-02 -5.004724860191345215e-02
-7.913512736558914185e-02 -4.513310268521308899e-02 1.133874952793121338e-01
-2.357085607945919037e-02 -2.856331877410411835e-02 8.751877467148005962e-04
4.636707156896591187e-02 9.564871899783611298e-03 -8.426866680383682251e-02
-3.628393262624740601e-02 3.805970028042793274e-02 -6.531368941068649292e-02
4.513071477413177490e-02 -3.003073669970035553e-02 2.688405849039554596e-02
-8.271063864231109619e-02 8.199256658554077148e-02 -2.731669507920742035e-02
1.981259137392044067e-02 -4.834080860018730164e-02 4.667725041508674622e-02
2.571327798068523407e-02 -1.797851361334323883e-02 2.456732094287872314e-02
-5.128814652562141418e-02 1.466665863990783691e-01 -1.364997178316116333e-01
-7.091332972049713135e-02 -5.584605038166046143e-02 6.164563447237014771e-02
-2.610175311565399170e-02 2.585275564342737198e-03 2.767352201044559479e-02
-5.970563739538192749e-02 8.007752895355224609e-02 -1.061685755848884583e-02
2.051696181297302246e-02 -1.875046826899051666e-02 3.934672847390174866e-02
3.535201027989387512e-02 -4.284328222274780273e-02 4.137579351663589478e-02
-1.114555448293685913e-02 6.863771378993988037e-02 1.520856400020420551e-03
-3.458447009325027466e-02 3.108416497707366943e-02 -1.787683926522731781e-02
-1.392324920743703842e-02 -4.656869918107986450e-02 1.244672089815139771e-01
2.600063756108283997e-02 -3.294776380062103271e-02 7.940016686916351318e-02
3.049416281282901764e-02 -9.980385191738605499e-03 -3.548881784081459045e-02
-3.935286402702331543e-02 2.787789143621921539e-02 5.900116264820098877e-02
-2.216356806457042694e-02 9.573220461606979370e-02 1.385592017322778702e-02
3.036307753063738346e-04 -5.423168838024139404e-02 1.023488584905862808e-02
-3.022906370460987091e-02 -9.998835623264312744e-03 1.678974740207195282e-02
-9.100121259689331055e-02 1.954144611954689026e-02 4.947569966316223145e-02
6.857051700353622437e-02 -7.074277102947235107e-02 1.597506105899810791e-01
-1.652740314602851868e-02 4.701611120253801346e-03 -2.742012497037649155e-03
2.144393697381019592e-02 5.252141505479812622e-02 -1.280270516872406006e-01
-6.734842061996459961e-02 -1.927621546201407909e-03 1.609699577093124390e-01
6.102239247411489487e-03 -7.431090623140335083e-02 -2.047622203826904297e-02
3.140299394726753235e-02 1.347268093377351761e-02 2.359964698553085327e-02
-2.386146783828735352e-02 2.727508358657360077e-02 -3.914926946163177490e-02
3.790277987718582153e-02 -4.106462746858596802e-02 -4.041750729084014893e-02
-8.460825309157371521e-03 3.609986230731010437e-02 -1.762527972459793091e-02
2.828662842512130737e-02 3.285188972949981689e-02 1.460823044180870056e-02
-1.793236844241619110e-02 3.517567738890647888e-02 -1.192117203027009964e-02
2.989800833165645599e-02 -2.006573788821697235e-02 -1.757482811808586121e-02
5.748328194022178650e-02 -2.824919298291206360e-02 -3.562434762716293335e-02
6.602011620998382568e-02 -1.839818619191646576e-02 -4.890745878219604492e-02
4.603780433535575867e-02 -7.328741252422332764e-03 1.304915524087846279e-03
2.680790424346923828e-02 6.583887443412095308e-05 -4.078653827309608459e-02
-1.028248369693756104e-01 -4.663029685616493225e-03 2.213339507579803467e-02
4.535649344325065613e-02 1.299846824258565903e-02 1.474910066463053226e-03
-2.620981633663177490e-02 -3.207012265920639038e-02 -3.855533525347709656e-02
3.112793341279029846e-02 -3.369819000363349915e-02 -6.334636360406875610e-02
-1.714683882892131805e-02 -7.826582528650760651e-03 -2.148726955056190491e-02
-3.200386092066764832e-02 -3.664805740118026733e-02 1.708134450018405914e-02
2.314398065209388733e-02 -2.034131996333599091e-02 -1.100762374699115753e-02
2.608015388250350952e-02 -6.658628582954406738e-02 -3.239994496107101440e-02
-4.488415271043777466e-02 1.178488414734601974e-02 4.546411707997322083e-02
1.658293977379798889e-02 -6.906767189502716064e-02 8.120438084006309509e-03
-2.001733984798192978e-03 1.675575599074363708e-02 -5.639555305242538452e-02
2.317685447633266449e-02 -5.155039951205253601e-02 -1.377913635224103928e-02
4.274943098425865173e-02 1.354544516652822495e-02 -6.939370930194854736e-02
-3.118802048265933990e-02 8.064174093306064606e-03 4.445814993232488632e-03
8.361561223864555359e-03 7.483456865884363651e-04 2.887652441859245300e-02
2.858741395175457001e-02 -4.038400948047637939e-02 1.339199487119913101e-02
-2.898612432181835175e-02 -4.648840054869651794e-02 6.262867152690887451e-02
-3.896504407748579979e-03 4.326057806611061096e-02 -2.350003458559513092e-02
2.805717056617140770e-03 3.867589309811592102e-02 -5.189256742596626282e-02
-6.401886045932769775e-02 -1.074169874191284180e-01 4.364615306258201599e-02
-4.025459662079811096e-02 -1.508308295160531998e-02 3.972601518034934998e-02
-8.897862583398818970e-02 -2.659683860838413239e-02 4.106564074754714966e-02
4.121795669198036194e-02 -2.557393908500671387e-02 2.331623982172459364e-04
4.348602890968322754e-02 -5.089635774493217468e-02 -1.108145434409379959e-02
-1.970284432172775269e-02 1.543284021317958832e-02 5.694025009870529175e-02
-9.077174216508865356e-02 1.464825030416250229e-02 3.343768790364265442e-02
-1.225593239068984985e-01 6.932530552148818970e-03 2.687531895935535431e-02
-3.422383964061737061e-02 -9.966179728507995605e-03 4.362723231315612793e-02
-1.113057509064674377e-02 4.549385979771614075e-02 7.550092041492462158e-02
1.328691467642784119e-02 1.048049703240394592e-02 -5.831040441989898682e-02
-3.771834820508956909e-02 -2.067329734563827515e-02 5.611292272806167603e-02
3.697434440255165100e-02 1.586412638425827026e-02 4.923800379037857056e-02
-4.814989492297172546e-02 1.654443144798278809e-02 -9.862907975912094116e-02
-5.759187042713165283e-02 3.307587280869483948e-02 6.915064156055450439e-02
-5.439742654561996460e-02 3.293910063803195953e-03 1.062402594834566116e-02
-4.972312599420547485e-02 -3.547663614153862000e-02 -1.573939109221100807e-03
-4.405162855982780457e-02 -8.207130245864391327e-03 2.112403698265552521e-02
-1.644738018512725830e-02 1.209157519042491913e-02 -3.504501190036535263e-03
-9.517385810613632202e-02 -2.896712347865104675e-02 -3.200447931885719299e-02
-6.756288465112447739e-03 -2.314507029950618744e-02 2.432083338499069214e-02
-1.077244523912668228e-02 3.050380945205688477e-02 7.148635340854525566e-04
-9.744050353765487671e-02 -2.576409280300140381e-02 -2.002853713929653168e-02
3.811285132542252541e-03 3.377253189682960510e-02 7.431900128722190857e-03
2.401073463261127472e-02 9.133683517575263977e-03 5.971083790063858032e-02
-8.973789215087890625e-02 -7.082062214612960815e-02 -1.256225258111953735e-02
-1.792879775166511536e-02 -1.639004983007907867e-02 3.635067492723464966e-02
-8.291453123092651367e-03 -1.231859158724546432e-02 3.196698799729347229e-02
-5.084792524576187134e-02 -2.764347381889820099e-02 4.870307445526123047e-02
-1.286091953516006470e-01 -1.802928559482097626e-02 1.839909888803958893e-02
-5.757853761315345764e-02 -1.631409302353858948e-02 3.342454880475997925e-02
-8.292564004659652710e-02 -1.725168153643608093e-02 5.224263295531272888e-03
-2.186970785260200500e-02 5.234179645776748657e-02 -2.079930528998374939e-02
-5.028668418526649475e-02 7.107631117105484009e-02 4.410295560956001282e-02
-3.532393649220466614e-02 -1.278451643884181976e-03 2.688694559037685394e-02
-3.164916485548019409e-02 -1.325851492583751678e-02 1.659877225756645203e-02
-4.625320062041282654e-02 6.919293850660324097e-02 -1.756567694246768951e-02
1.647218689322471619e-02 -3.585168719291687012e-02 3.469324856996536255e-02
6.600493099540472031e-03 -8.834211621433496475e-04 -2.463997155427932739e-02
2.283835969865322113e-02 -4.927445575594902039e-02 4.048964381217956543e-02
-2.012769877910614014e-02 5.805266648530960083e-02 -2.994257770478725433e-02
-3.599549084901809692e-02 4.999056831002235413e-02 -1.957865804433822632e-02
-5.349227413535118103e-02 3.903970494866371155e-02 9.756460785865783691e-03
-7.369518280029296875e-02 5.065012723207473755e-02 -3.453538194298744202e-02
-2.242719754576683044e-02 2.544559165835380554e-02 -3.749952837824821472e-02
8.269018493592739105e-03 -2.196986414492130280e-02 2.874254621565341949e-02
1.404588203877210617e-02 -6.291487067937850952e-02 1.467892155051231384e-02
-3.918099775910377502e-02 2.669467777013778687e-02 5.232800543308258057e-02
4.759432002902030945e-02 1.518701482564210892e-02 7.085471600294113159e-02
1.425520237535238266e-02 2.893828973174095154e-02 -7.407929748296737671e-03
-1.103431824594736099e-02 4.988763947039842606e-03 2.383738942444324493e-02
5.754476413130760193e-02 4.895873367786407471e-02 8.089150488376617432e-02
-8.201783895492553711e-02 6.362883001565933228e-02 2.230743505060672760e-02
1.579117029905319214e-03 -4.307283088564872742e-03 -6.200782023370265961e-03
4.065587371587753296e-02 2.493736892938613892e-02 3.399614617228507996e-02
4.234009608626365662e-02 -2.555303974077105522e-03 1.876685302704572678e-03
-4.063548520207405090e-02 7.823626697063446045e-02 -2.160508744418621063e-02
7.080002129077911377e-02 4.475441202521324158e-02 9.646204859018325806e-02
3.455141559243202209e-02 -3.923475369811058044e-02 2.120900666341185570e-03
-8.253732696175575256e-03 -1.573594659566879272e-02 1.369673851877450943e-02
-1.023105457425117493e-01 7.043585926294326782e-02 3.274041786789894104e-02
1.044994443655014038e-01 2.949794754385948181e-02 8.176719397306442261e-02
5.129115656018257141e-02 -2.068831026554107666e-02 9.013784117996692657e-03
1.704687066376209259e-02 -3.453836217522621155e-02 5.391054600477218628e-02
-3.139247372746467590e-02 4.594432190060615540e-02 4.417010769248008728e-02
-9.606235474348068237e-02 1.250880397856235504e-02 2.755240537226200104e-02
8.825667947530746460e-02 1.661352440714836121e-02 -8.595163375139236450e-02
-1.055597960948944092e-01 6.837510969489812851e-03 2.465802617371082306e-02
-1.088991016149520874e-01 -3.253168426454067230e-03 2.585051394999027252e-02
-2.433645538985729218e-02 -4.341628775000572205e-02 8.696422725915908813e-02
-1.511177141219377518e-02 -1.460110954940319061e-02 -1.549812685698270798e-02
-3.464984474703669548e-03 1.499034836888313293e-02 -7.670265436172485352e-02
-1.099248677492141724e-01 -3.224571794271469116e-02 1.888933777809143066e-02
-5.572183057665824890e-02 -1.077775564044713974e-02 9.783215075731277466e-02
-1.191568076610565186e-01 -1.738912984728813171e-02 3.201765194535255432e-02
-1.321095079183578491e-01 4.267425835132598877e-02 1.000341726467013359e-03
-5.993691086769104004e-02 -1.303258631378412247e-02 8.032293617725372314e-02
6.831916421651840210e-02 4.741154611110687256e-02 -8.493947982788085938e-02
-1.518178358674049377e-02 -1.304879132658243179e-02 5.256698280572891235e-02
-3.627444058656692505e-02 -2.264517731964588165e-02 2.185637503862380981e-02
-8.595561981201171875e-02 -3.854966163635253906e-02 -3.190764412283897400e-02
3.167515248060226440e-02 2.103374898433685303e-02 4.661262035369873047e-02
-2.597686089575290680e-02 5.340116098523139954e-03 1.229043304920196533e-02
-6.416636705398559570e-02 -4.364236816763877869e-02 -1.192223653197288513e-02
-1.080505251884460449e-01 1.099374610930681229e-02 -8.123836014419794083e-04
-1.169193256646394730e-02 -1.086711604148149490e-02 7.587777078151702881e-02
1.030519828200340271e-01 -3.679975122213363647e-02 9.399404749274253845e-03
1.148469559848308563e-02 -7.556444033980369568e-03 5.211298167705535889e-02
-4.464592412114143372e-02 -1.475487463176250458e-02 8.096440881490707397e-02
-4.563284292817115784e-02 -3.895730152726173401e-02 -3.356090188026428223e-02
-3.544249013066291809e-02 2.714988775551319122e-03 1.612847857177257538e-02
1.432204619050025940e-03 -2.482033148407936096e-02 -5.479639861732721329e-03
-1.404626667499542236e-01 3.541347105056047440e-03 7.103838771581649780e-02
6.340504437685012817e-02 -4.262877628207206726e-02 -1.469667768105864525e-04
1.829661615192890167e-02 -8.856430649757385254e-03 -5.729103088378906250e-02
-3.630529856309294701e-03 8.045188151299953461e-03 -1.064812242984771729e-01
-8.257304877042770386e-02 1.894665136933326721e-02 -1.919842092320322990e-03
-1.614926382899284363e-02 -2.429534122347831726e-02 -1.515025552362203598e-02
-4.723083227872848511e-02 -3.634210675954818726e-02 7.588454987853765488e-03
-1.819296553730964661e-02 -3.424492105841636658e-02 -6.170967128127813339e-03
1.175077911466360092e-02 -1.421627867966890335e-02 2.321391738951206207e-02
1.451704185456037521e-02 2.939260937273502350e-02 -3.730504587292671204e-02
-2.106332778930664062e-02 -3.841910278424620628e-03 1.337505225092172623e-02
-4.076734930276870728e-02 -1.317208260297775269e-02 4.431138187646865845e-02
-2.173932828009128571e-02 1.310157682746648788e-02 -3.158874437212944031e-02
-1.341751776635646820e-04 -7.223607972264289856e-03 1.429008319973945618e-02
-1.842085830867290497e-02 -4.135340917855501175e-03 3.543930826708674431e-03
-3.402274474501609802e-02 7.401240523904561996e-03 2.366519905626773834e-02
1.815688796341419220e-02 -1.610960811376571655e-02 1.551512535661458969e-02
-3.891712427139282227e-02 3.208627924323081970e-02 3.789789974689483643e-02
-3.234853595495223999e-02 -3.709352109581232071e-03 -1.000443939119577408e-02
-1.495699211955070496e-02 2.148120477795600891e-02 8.822883479297161102e-03
2.805951796472072601e-02 2.000414999201893806e-03 2.622798318043351173e-03
1.576369628310203552e-02 -8.585811592638492584e-03 -1.862761005759239197e-02
7.951131090521812439e-03 -9.226510301232337952e-03 5.190239753574132919e-03
1.235136669129133224e-02 -2.496973052620887756e-02 3.515048697590827942e-02
-2.055610902607440948e-02 1.824615336954593658e-02 -2.961062453687191010e-02
-5.410244222730398178e-03 2.334521897137165070e-02 -3.516055271029472351e-02
-3.938582912087440491e-02 -7.650790736079216003e-03 -4.967435728758573532e-03
1.048687379807233810e-02 1.761849224567413330e-02 -8.021812885999679565e-03
1.069229934364557266e-02 1.638746121898293495e-03 4.413412883877754211e-03
-1.138509716838598251e-02 -8.724856190383434296e-03 2.044530957937240601e-02
-2.779922820627689362e-02 -1.925029978156089783e-02 -3.099494241178035736e-02
1.062528975307941437e-02 -2.432463876903057098e-02 -1.382821518927812576e-02
1.935071684420108795e-02 -2.625458687543869019e-02 -2.760365605354309082e-02
2.842646790668368340e-03 1.513074617832899094e-02 -1.705613918602466583e-02
3.014481335412710905e-04 -3.114118240773677826e-02 -9.256597608327865601e-03
-1.299502328038215637e-02 -3.211780264973640442e-02 3.996706436737440526e-05
-1.520758378319442272e-03 3.480951488018035889e-02 -1.035297475755214691e-02
5.428158678114414215e-03 5.237916111946105957e-02 -5.828490946441888809e-03
2.557044290006160736e-02 -8.086461573839187622e-02 -7.255220413208007812e-02
-5.265181884169578552e-03 -3.043004311621189117e-02 -1.344262361526489258e-01
3.459914401173591614e-02 -6.283268332481384277e-02 -4.412028938531875610e-02
2.663496322929859161e-02 -2.549084648489952087e-02 2.235162816941738129e-02
1.291779614984989166e-02 -9.323754906654357910e-02 1.436253078281879425e-02
-1.145336218178272247e-02 -2.346123941242694855e-02 -1.500821113586425781e-02
2.902457304298877716e-02 -7.670184969902038574e-02 -1.021197512745857239e-01
-2.634411677718162537e-02 1.079961191862821579e-02 9.041051566600799561e-02
6.393973529338836670e-02 -4.878562688827514648e-02 -7.753985375165939331e-02
2.367767319083213806e-02 -2.282558754086494446e-02 4.446575418114662170e-02
1.546459924429655075e-02 2.227701246738433838e-02 5.251249298453330994e-02
2.985301986336708069e-02 -3.831396251916885376e-02 -6.231961026787757874e-02
-3.764545172452926636e-02 -3.995277918875217438e-03 7.511097472161054611e-03
2.243171632289886475e-02 2.655518054962158203e-02 3.237235173583030701e-02
1.474092598073184490e-03 1.926219119923189282e-04 1.457209978252649307e-02
-1.713526807725429535e-02 -3.597742691636085510e-02 -2.042725123465061188e-02
-1.862432225607335567e-03 -3.511394560337066650e-02 3.932640701532363892e-02
-4.943132400512695312e-03 9.113650768995285034e-03 5.211511999368667603e-02
1.101486012339591980e-02 -9.710617596283555031e-04 -2.362894080579280853e-02
1.014868263155221939e-02 -1.922446116805076599e-02 6.397720426321029663e-02
5.328445136547088623e-02 -1.952827791683375835e-03 -2.353470772504806519e-03
-4.428010061383247375e-02 -4.301330447196960449e-02 -3.328477963805198669e-02
-1.157704554498195648e-02 3.398296236991882324e-02 6.655596196651458740e-02
7.228327449411153793e-03 3.550474345684051514e-02 4.390931129455566406e-02
-6.240804120898246765e-02 -4.009369015693664551e-02 -5.442795157432556152e-02
-2.837280556559562683e-02 -1.859068125486373901e-02 6.874247454106807709e-03
1.589759439229965210e-02 7.755782455205917358e-03 8.558036759495735168e-03
6.581668555736541748e-02 -2.358038350939750671e-02 9.888326376676559448e-02
-3.635052964091300964e-02 -5.228680372238159180e-02 1.351612433791160583e-02
-3.708752617239952087e-02 -6.374782416969537735e-03 2.259359136223793030e-02
-5.456137936562299728e-03 2.887206897139549255e-02 7.546220719814300537e-02
4.886160604655742645e-03 4.635716322809457779e-03 -1.671654987148940563e-03
1.173721700906753540e-01 8.673658594489097595e-03 3.391020745038986206e-02
7.034283876419067383e-02 6.863879412412643433e-02 -8.642563968896865845e-02
3.043413162231445312e-02 -4.503231495618820190e-02 3.929527942091226578e-03
5.044084042310714722e-02 6.377518177032470703e-02 -7.213539630174636841e-02
1.118101030588150024e-01 2.554485946893692017e-02 -9.070361405611038208e-02
7.033317536115646362e-02 -8.634460158646106720e-03 -7.093265186995267868e-03
8.437964320182800293e-02 -1.852067373692989349e-02 -3.892022743821144104e-02
-3.410639613866806030e-02 -5.557003244757652283e-02 -5.268032476305961609e-02
1.389023382216691971e-02 -4.679519310593605042e-02 -1.000246033072471619e-03
1.022668331861495972e-01 1.559406425803899765e-02 1.005086675286293030e-02
-4.513372108340263367e-02 -7.299637049436569214e-02 -1.095856167376041412e-02
5.375596135854721069e-02 -1.698669232428073883e-02 2.216498740017414093e-02
9.625840187072753906e-02 2.882917411625385284e-02 -9.386192262172698975e-02
4.649574309587478638e-02 -4.362145811319351196e-02 -1.318784430623054504e-02
6.812099367380142212e-02 -8.560802042484283447e-02 1.421919278800487518e-02
-2.184056676924228668e-02 -8.267014473676681519e-02 -1.751169562339782715e-02
-1.216852478682994843e-02 2.902347967028617859e-02 -2.788225002586841583e-02
4.054165259003639221e-02 -9.056748449802398682e-02 8.801093325018882751e-03
3.172321990132331848e-02 -2.019082196056842804e-02 2.618393488228321075e-02
-4.564683884382247925e-02 5.224774591624736786e-03 -7.131670415401458740e-02
9.734490513801574707e-02 -7.280982285737991333e-02 -3.903888165950775146e-02
-5.278948694467544556e-02 -7.059261947870254517e-02 -4.157413169741630554e-02
-4.439147654920816422e-03 -5.790808796882629395e-02 -2.911797957494854927e-03
5.169934779405593872e-02 -7.161156833171844482e-02 4.248297587037086487e-02
3.508513048291206360e-02 1.198542537167668343e-03 -6.395387649536132812e-02
4.153752326965332031e-02 -8.453187532722949982e-03 -2.170916087925434113e-02
6.413089483976364136e-02 8.837479166686534882e-03 -5.582517944276332855e-03
-2.388160303235054016e-02 -3.447954356670379639e-02 -3.452379256486892700e-02
6.542038172483444214e-02 -2.501632831990718842e-02 -5.259088356979191303e-05
4.428362590260803699e-04 -2.792419400066137314e-03 3.235834091901779175e-02
2.999947220087051392e-02 4.488837718963623047e-02 -1.786274649202823639e-02
6.785101722925901413e-03 3.321981430053710938e-02 2.487411536276340485e-02
-1.053026616573333740e-01 -1.326499134302139282e-02 -1.927863992750644684e-02
2.987465262413024902e-02 -7.386291027069091797e-02 -3.188885375857353210e-02
-3.398761898279190063e-02 4.152793437242507935e-03 4.135261755436658859e-03
-1.512132491916418076e-02 -3.218379616737365723e-02 -4.899219423532485962e-02
-3.015869110822677612e-02 2.651948109269142151e-02 -3.708681091666221619e-02
8.302514441311359406e-03 -1.283657550811767578e-02 -3.273726627230644226e-02
-1.322325039654970169e-02 -4.018826037645339966e-02 2.789478562772274017e-02
2.422197256237268448e-03 -2.719164825975894928e-02 -2.817330136895179749e-02
1.573060266673564911e-02 -2.913901116698980331e-03 4.097494762390851974e-03
-5.025245994329452515e-02 4.742212593555450439e-02 5.417096614837646484e-02
3.100769035518169403e-02 1.116917934268712997e-02 -5.688533559441566467e-02
-1.839173026382923126e-03 -4.694461077451705933e-02 -2.884888835251331329e-02
-2.983409166336059570e-02 -2.329401671886444092e-02 -8.612319827079772949e-02
-3.779290989041328430e-02 1.092548482120037079e-02 -2.326960675418376923e-03
2.336850389838218689e-02 3.685448318719863892e-02 4.796103574335575104e-03
-1.842264458537101746e-02 -1.681455597281455994e-02 -4.464270919561386108e-02
-6.752533838152885437e-03 -2.781731775030493736e-03 2.617418952286243439e-02
4.857305437326431274e-02 5.253633484244346619e-03 7.722397334873676300e-03
4.185652732849121094e-02 2.635229192674160004e-02 4.554845509119331837e-05
4.658062011003494263e-03 -6.346044689416885376e-02 -3.787855058908462524e-02
-1.851113513112068176e-02 3.614194318652153015e-02 -1.711880974471569061e-02
-1.275800168514251709e-02 -7.545148022472858429e-03 -6.982830166816711426e-02
-3.293168917298316956e-02 -4.498860612511634827e-02 -1.518590189516544342e-02
5.103712901473045349e-02 2.304780483245849609e-02 -3.035360202193260193e-02
2.101592533290386200e-02 -1.871486753225326538e-02 -4.579318314790725708e-02
-2.178407646715641022e-02 1.187290716916322708e-02 -3.799396380782127380e-02
-5.679728090763092041e-02 1.856029964983463287e-02 1.630004122853279114e-02
-1.488589309155941010e-02 6.423870800063014030e-04 -3.868668898940086365e-02
-2.735254168510437012e-02 1.167710218578577042e-02 -2.133490145206451416e-02
6.225786730647087097e-02 7.946545258164405823e-03 -3.421209380030632019e-02
-2.343463525176048279e-02 2.787402085959911346e-02 5.019047111272811890e-02