1.292910613119602203e-02
3.347057476639747620e-02
3.622783347964286804e-02
1.281410157680511475e-01
1.589386016130447388e-01
1.824813932180404663e-01
-1.493310090154409409e-02
9.607059508562088013e-02
1.749454289674758911e-01
6.356272101402282715e-02
1.604284197092056274e-01
9.046746790409088135e-02
3.995663952082395554e-03
4.016519710421562195e-02
1.235634163022041321e-01
8.144187182188034058e-02
-4.447595030069351196e-02
1.736173033714294434e-01
2.085788697004318237e-01
1.079713851213455200e-01
-9.030299261212348938e-03
4.620989784598350525e-02
-4.194353893399238586e-02
1.424271613359451294e-01
6.797740608453750610e-02
-3.927598521113395691e-02
-1.509297266602516174e-02
2.994384467601776123e-01
4.587041586637496948e-02
1.074717044830322266e-01
1.106491014361381531e-01
7.939286530017852783e-02
6.882485747337341309e-02 2.712207473814487457e-02 1.494134217500686646e-02
3.149897325783967972e-03 -6.077511236071586609e-03 3.483193367719650269e-02
-2.739362791180610657e-02 -3.153301402926445007e-02 -1.645968109369277954e-02
4.814738780260086060e-02 -3.534204093739390373e-03 -3.826821595430374146e-02
4.156615212559700012e-02 3.466682508587837219e-02 1.832370460033416748e-02
2.685702964663505554e-02 2.368775755167007446e-02 2.465895749628543854e-02
4.390468075871467590e-02 1.862709410488605499e-02 6.797125097364187241e-03
2.256502583622932434e-02 -5.252223461866378784e-03 2.145475707948207855e-02
7.178257219493389130e-03 2.748845145106315613e-02 -4.553355649113655090e-02
-6.115604657679796219e-03 1.293720118701457977e-02 9.872411936521530151e-02
-3.382227197289466858e-02 -1.556088309735059738e-02 -6.228794530034065247e-02
5.798243451863527298e-03 -7.940629497170448303e-03 -1.430309098213911057e-02
6.760229170322418213e-02 3.112680837512016296e-02 2.506905049085617065e-02
-2.952254144474864006e-03 -1.259232871234416962e-02 6.415374577045440674e-02
1.090500690042972565e-02 -1.939944922924041748e-02 -2.601783489808440208e-03
2.526579424738883972e-02 -2.248116955161094666e-02 -2.437790855765342712e-02
5.100076273083686829e-02 1.310099195688962936e-02 1.291714701801538467e-02
-4.997779149562120438e-03 -2.938111498951911926e-02 -9.465054608881473541e-03
1.653657993301749229e-03 -1.848580315709114075e-02 -4.837825894355773926e-02
-3.828119486570358276e-03 1.662455685436725616e-02 -1.691523008048534393e-02
-4.970375820994377136e-02 2.172696217894554138e-02 2.122095786035060883e-02
6.024696305394172668e-02 -2.559039555490016937e-02 -3.306763246655464172e-02
8.515659719705581665e-03 1.518679969012737274e-02 7.125438190996646881e-03
2.258076565340161324e-03 2.773606963455677032e-02 -2.059308066964149475e-02
2.394934184849262238e-02 -7.491290569305419922e-03 -1.474544126540422440e-02
-3.143328055739402771e-02 5.831387825310230255e-03 -4.958986863493919373e-02
-1.602688990533351898e-02 4.962181672453880310e-02 3.368384391069412231e-02
-8.711734786629676819e-03 -4.205516725778579712e-02 3.771872818470001221e-02
-3.360901726409792900e-03 3.165867412462830544e-03 -1.350725162774324417e-02
1.036343909800052643e-02 2.028213068842887878e-02 -5.125832278281450272e-03
-7.920812070369720459e-02 -1.174591854214668274e-02 4.199921153485774994e-03
-5.942249204963445663e-03 -1.640707626938819885e-02 -1.826215162873268127e-02
-1.443536020815372467e-02 4.830860998481512070e-03 -1.177760120481252670e-02
1.816447824239730835e-02 1.131450850516557693e-02 8.583482354879379272e-03
2.172615192830562592e-02 2.565905638039112091e-02 -1.859116554260253906e-02
-8.646748960018157959e-03 -1.474042423069477081e-02 -3.961532562971115112e-02
3.225083649158477783e-02 1.922121085226535797e-02 -7.933907210826873779e-03
-2.285793982446193695e-02 2.370302006602287292e-02 -1.700991764664649963e-02
5.524281878024339676e-03 1.221507415175437927e-02 -5.206107627600431442e-03
1.015015318989753723e-02 2.681445702910423279e-02 -6.390127353370189667e-03
-4.171700403094291687e-02 9.099958464503288269e-03 -2.568137086927890778e-02
-3.780613839626312256e-02 -1.543420460075139999e-02 1.843466050922870636e-02
-2.307274006307125092e-02 1.804128848016262054e-02 -2.603117749094963074e-02
-6.409784313291311264e-03 -2.059923717752099037e-03 -6.086694542318582535e-03
-1.306242309510707855e-02 -4.391050338745117188e-02 -3.717689216136932373e-02
7.675798609852790833e-03 -1.701690256595611572e-02 3.088340163230895996e-03
2.374363690614700317e-02 -1.504061557352542877e-02 2.973315864801406860e-02
2.049367129802703857e-02 2.358848601579666138e-02 -2.107947319746017456e-02
3.436923259869217873e-03 -3.544757515192031860e-02 -2.126857452094554901e-02
4.027717560529708862e-02 -3.230853378772735596e-02 -8.993286639451980591e-03
-2.321250550448894501e-02 -3.662399202585220337e-02 -3.619364276528358459e-02
1.086197979748249054e-02 -2.313930355012416840e-02 -3.116893768310546875e-02
-3.301576152443885803e-02 1.677490212023258209e-02 -1.152259577065706253e-02
1.558207999914884567e-02 -2.981689199805259705e-02 3.940595686435699463e-02
9.528841823339462280e-03 -6.524208933115005493e-03 -6.992549169808626175e-03
-5.189615767449140549e-03 8.862870745360851288e-03 -3.377403691411018372e-02
1.522573176771402359e-03 8.084474131464958191e-03 -3.816454112529754639e-02
-1.070262119174003601e-02 -6.144041940569877625e-02 -3.177911415696144104e-02
-2.766920626163482666e-02 -3.683460876345634460e-02 -5.902909860014915466e-02
-3.286866098642349243e-02 3.448653966188430786e-02 7.369887083768844604e-03
-9.759346954524517059e-03 -4.285065922886133194e-03 1.129791140556335449e-02
4.592379182577133179e-02 -2.426769211888313293e-02 3.336973488330841064e-02
-1.951991952955722809e-02 3.326926752924919128e-02 -2.321247383952140808e-02
9.678674861788749695e-03 -2.500092238187789917e-02 2.874213457107543945e-02
4.607666749507188797e-03 -1.345831807702779770e-02 -4.703125730156898499e-02
1.008918229490518570e-02 -7.723295129835605621e-03 -3.241911157965660095e-02
-1.004792563617229462e-02 -3.178903087973594666e-02 -1.454421225935220718e-02
-2.145298197865486145e-02 1.065486297011375427e-02 9.730064310133457184e-03
2.563308365643024445e-02 -3.648925200104713440e-02 3.729691728949546814e-03
-2.023092284798622131e-02 -4.548808094114065170e-03 -4.846306517720222473e-03
-2.762724645435810089e-03 -1.849328912794589996e-02 -1.552713289856910706e-02
2.996388636529445648e-02 -2.371814846992492676e-02 -1.263503357768058777e-02
-1.030981466174125671e-01 -5.756867676973342896e-02 -8.501788228750228882e-02
-6.871996074914932251e-02 3.099678270518779755e-02 9.318666905164718628e-02
-3.308663517236709595e-02 -2.310114540159702301e-02 2.597245015203952789e-02
-1.887763291597366333e-02 2.500177733600139618e-02 -9.870391339063644409e-03
-4.242062941193580627e-02 -3.515332564711570740e-02 1.884999312460422516e-02
-5.655190907418727875e-03 -3.196040401235222816e-03 1.285861525684595108e-02
3.039016202092170715e-02 -2.723393775522708893e-02 2.711983397603034973e-02
-2.583757415413856506e-02 7.498762570321559906e-03 -2.345461025834083557e-02
9.657734073698520660e-03 -1.125405449420213699e-02 -6.085282936692237854e-02
-6.314884871244430542e-02 -1.524515822529792786e-02 3.808756917715072632e-02
-1.804248662665486336e-03 -3.122805850580334663e-03 7.530227303504943848e-02
-3.047339059412479401e-02 -1.691106520593166351e-02 5.402290727943181992e-03
-4.248435422778129578e-02 -1.600152999162673950e-02 -7.322977483272552490e-02
-5.336374416947364807e-02 -2.348567731678485870e-02 5.423011630773544312e-02
1.802648976445198059e-02 -2.896918728947639465e-02 -4.437800962477922440e-04
-4.616565629839897156e-02 -2.244650572538375854e-02 -2.400654554367065430e-02
1.539705507457256317e-02 2.867324464023113251e-02 4.075774922966957092e-02
-5.128956586122512817e-02 -8.873629383742809296e-03 1.188443042337894440e-02
-1.300396472215652466e-01 -1.464206259697675705e-02 2.193538472056388855e-02
-4.187254980206489563e-02 2.190338447690010071e-02 1.874757930636405945e-02
-3.217274695634841919e-02 -3.345973417162895203e-02 -1.172493677586317062e-02
-2.099445648491382599e-02 -1.277524232864379883e-02 5.468209087848663330e-02
3.327290993183851242e-03 -2.365151606500148773e-02 -9.375052526593208313e-03
2.184069156646728516e-02 1.477756164968013763e-02 -3.203849494457244873e-02
-1.211672946810722351e-01 3.410835564136505127e-02 4.216000810265541077e-02
-1.872210577130317688e-02 -7.253175601363182068e-03 -9.847141802310943604e-03
1.941262744367122650e-03 2.196029014885425568e-02 3.265228820964694023e-03
-3.796836361289024353e-02 -9.136176086030900478e-04 1.910820603370666504e-02
1.246989332139492035e-02 -2.472279407083988190e-02 2.116951532661914825e-02
4.013016074895858765e-02 -9.098322130739688873e-03 2.821454033255577087e-02
2.151667512953281403e-02 -1.219220086932182312e-02 -1.780567876994609833e-02
-2.297968417406082153e-02 -1.551117654889822006e-02 -6.269690115004777908e-03
-7.016588747501373291e-02 -2.214339189231395721e-02 -6.186694651842117310e-02
-1.891988217830657959e-01 8.814647793769836426e-02 -1.679907366633415222e-02
-9.241423010826110840e-02 2.503480203449726105e-02 -4.326499067246913910e-03
9.334914386272430420e-03 3.394222259521484375e-02 -1.265867985785007477e-02
-6.802526116371154785e-02 -8.112506940960884094e-03 -3.529382124543190002e-02
3.552103787660598755e-02 1.117255073040723801e-02 6.638636440038681030e-02
1.264527998864650726e-02 -9.577492019161581993e-04 -3.994521684944629669e-03
-2.731395699083805084e-02 2.572139957919716835e-03 2.650057524442672729e-02
-3.508566005621105433e-04 7.206885609775781631e-03 1.132307667285203934e-02
-7.579797506332397461e-02 -4.548921063542366028e-02 -1.026210337877273560e-01
-4.508160799741744995e-02 -2.609743550419807434e-02 -3.115871734917163849e-02
2.271554805338382721e-02 1.165339443832635880e-02 -3.084758063778281212e-03
-3.156096115708351135e-02 5.484727770090103149e-02 4.335375130176544189e-02
-1.181786283850669861e-01 6.335173733532428741e-03 -4.542116448283195496e-02
1.679850555956363678e-02 8.244320750236511230e-03 -2.076614275574684143e-02
2.541494928300380707e-02 -1.082785148173570633e-02 -3.982787206768989563e-02
-3.568607941269874573e-02 1.466370839625597000e-02 -1.611014828085899353e-02
-1.001869067549705505e-01 1.094981934875249863e-02 -6.134794279932975769e-02
-8.794789761304855347e-02 1.351691316813230515e-02 -2.015569247305393219e-02
5.866726394742727280e-03 -3.039734438061714172e-02 3.133713454008102417e-02
2.936678007245063782e-02 1.662225835025310516e-02 -2.047244831919670105e-02
-6.268926896154880524e-03 1.318134134635329247e-03 -4.715436697006225586e-02
1.813990995287895203e-02 4.256593063473701477e-02 3.490487113595008850e-02
8.013495244085788727e-03 1.069313473999500275e-02 1.510177738964557648e-02
2.470249123871326447e-02 -3.689690679311752319e-02 -3.484693588688969612e-04
-2.459538727998733521e-02 -6.673483178019523621e-03 -2.982343919575214386e-02
2.112391963601112366e-02 -8.959248661994934082e-03 1.626493036746978760e-02
4.421989619731903076e-02 1.077231485396623611e-02 -3.214646130800247192e-02
-1.585574448108673096e-02 -3.716197982430458069e-02 6.407564878463745117e-02
7.852966897189617157e-03 3.151451051235198975e-02 3.197156637907028198e-02
1.256638485938310623e-02 -6.068177055567502975e-03 -5.945811513811349869e-03
1.642225310206413269e-02 2.817552722990512848e-02 -1.510251127183437347e-02
-2.539631165564060211e-02 -1.691194251179695129e-02 -4.051029309630393982e-02
8.745915442705154419e-02 -1.345883775502443314e-02 -8.753464370965957642e-02
2.945535071194171906e-02 -2.088126540184020996e-02 -1.992378011345863342e-02
-2.548940293490886688e-02 -6.455531343817710876e-03 1.732888258993625641e-02
-4.790966957807540894e-02 -2.158245816826820374e-02 1.878109946846961975e-02
7.087565027177333832e-03 3.864501416683197021e-02 3.124902583658695221e-02
-3.449314972385764122e-03 -1.747676730155944824e-02 2.230807021260261536e-02
-1.802637428045272827e-02 1.740179955959320068e-02 1.476250682026147842e-02
3.440565988421440125e-02 3.187679871916770935e-02 3.123414143919944763e-02
-3.518994152545928955e-02 -8.494939655065536499e-03 -8.955352753400802612e-02
-3.355294233188033104e-03 2.314285840839147568e-03 -1.182390097528696060e-02
-1.220693811774253845e-02 -1.446413621306419373e-02 5.674424581229686737e-03
6.739601492881774902e-02 4.791836068034172058e-02 4.804940521717071533e-02
3.245529159903526306e-02 6.207800470292568207e-03 -7.250175625085830688e-02
-1.024569757282733917e-02 -1.383919827640056610e-02 -6.081867963075637817e-03
9.228691458702087402e-03 3.548353537917137146e-02 -8.431086316704750061e-03
2.900927141308784485e-02 -1.209113094955682755e-02 -6.821114569902420044e-03
5.739994719624519348e-02 2.052794676274061203e-03 -9.934715926647186279e-02
6.454209238290786743e-02 3.039443306624889374e-02 -3.511238098144531250e-02
3.013922832906246185e-02 2.168602123856544495e-02 9.414462372660636902e-03
-1.048302743583917618e-02 -3.238325938582420349e-02 -1.970147155225276947e-02
-5.189939588308334351e-02 -4.042219370603561401e-02 -1.010130718350410461e-01
3.316543251276016235e-02 3.645310550928115845e-02 4.035570845007896423e-02
-5.799650214612483978e-03 2.624386548995971680e-02 9.943266399204730988e-03
4.437823221087455750e-02 -4.664165433496236801e-03 -2.968489378690719604e-02
-5.648522451519966125e-02 2.147665433585643768e-02 -3.275530412793159485e-02
1.189230009913444519e-02 -2.906358987092971802e-02 -1.864299364387989044e-02
1.658967346884310246e-03 -2.477386780083179474e-02 -1.461572572588920593e-02
3.491672920063138008e-03 3.104959242045879364e-02 -3.368506953120231628e-02
1.284291874617338181e-02 1.631975919008255005e-02 -3.453854238614439964e-03
-1.058880425989627838e-02 2.127572707831859589e-02 -1.025844272226095200e-02
-7.761470973491668701e-03 -8.405011147260665894e-03 1.605634950101375580e-02
-6.176874041557312012e-02 -4.563058540225028992e-02 -2.278667315840721130e-02
5.348634347319602966e-02 -4.129815846681594849e-02 1.486980821937322617e-02
5.385778378695249557e-03 -3.964826837182044983e-02 -3.040839917957782745e-02
-1.840601488947868347e-02 -1.575458794832229614e-03 4.832756239920854568e-03
-5.063859000802040100e-02 -1.069031190127134323e-02 -3.971578553318977356e-02
3.736809268593788147e-02 2.639139257371425629e-02 -1.222979649901390076e-02
-4.276458173990249634e-02 -2.270592190325260162e-02 2.854969538748264313e-02
-1.672696880996227264e-02 -8.759926073253154755e-03 9.357782080769538879e-03
-4.576756432652473450e-02 4.102412238717079163e-02 2.521972358226776123e-02
-7.390613667666912079e-03 -3.895591571927070618e-02 4.348279442638158798e-03
3.568074479699134827e-02 -3.003452904522418976e-02 -2.029478549957275391e-02
2.115488797426223755e-02 -3.367112949490547180e-02 6.523262709379196167e-03
-9.439604729413986206e-02 -6.185845471918582916e-03 -4.121748730540275574e-03
2.406813204288482666e-02 6.910673342645168304e-03 -8.816241286695003510e-03
9.179774671792984009e-03 -8.960263221524655819e-05 -3.594515100121498108e-02
-1.715200021862983704e-02 -2.418592199683189392e-02 1.891644671559333801e-02
3.122413717210292816e-02 1.032012398354709148e-03 -3.508072346448898315e-02
3.989057987928390503e-02 -1.792148314416408539e-02 -2.952749282121658325e-02
-3.051690757274627686e-02 -2.746905013918876648e-02 -2.549045346677303314e-02
-2.195478230714797974e-02 2.669818699359893799e-02 2.116060815751552582e-02
-3.860850585624575615e-03 -6.636288482695817947e-03 -1.916919276118278503e-02
-6.439468823373317719e-03 9.580272599123418331e-04 -1.392924785614013672e-02
-3.519058600068092346e-02 -3.542549535632133484e-02 1.978744403459131718e-04
-5.817631725221872330e-03 -1.116629038006067276e-02 2.191506326198577881e-02
3.781972452998161316e-02 3.400109708309173584e-02 1.090716104954481125e-02
-1.998348627239465714e-03 2.325965091586112976e-02 3.225713595747947693e-02
-2.699391730129718781e-02 2.444183826446533203e-02 -8.983919396996498108e-03
-1.395069435238838196e-02 1.178758032619953156e-02 8.964885026216506958e-03
-6.514809280633926392e-02 -1.796200638636946678e-03 -4.154576733708381653e-02
1.234298758208751678e-02 1.171138510107994080e-02 -1.019597519189119339e-02
3.467441350221633911e-02 -2.360315620899200439e-02 -2.928846888244152069e-02
2.669360488653182983e-02 8.179658092558383942e-03 1.122901961207389832e-02
-2.000324241816997528e-02 -4.012745618820190430e-02 -5.313665792346000671e-02
4.231017082929611206e-02 8.075385540723800659e-02 8.524410426616668701e-03
-3.014913201332092285e-02 -1.961631141602993011e-02 -1.177505031228065491e-02
-1.156010292470455170e-02 2.312694862484931946e-02 1.859647594392299652e-02
-2.935154177248477936e-02 -2.036312967538833618e-02 -6.018736213445663452e-02
-7.245707791298627853e-03 -6.054723169654607773e-03 3.381857275962829590e-02
-3.031429462134838104e-02 -1.131302770227193832e-02 3.107646107673645020e-02
2.153147570788860321e-02 -2.044100314378738403e-02 -1.273281313478946686e-02
-3.007825836539268494e-02 -2.723156288266181946e-02 3.063407354056835175e-02
-5.756193026900291443e-02 -7.517860271036624908e-03 -6.509636342525482178e-02
-1.387041527777910233e-02 4.748707578983157873e-04 -6.065438315272331238e-02
2.081493288278579712e-02 -1.037906669080257416e-02 -2.241131104528903961e-02
-1.374951004981994629e-02 -1.027037389576435089e-02 4.759145900607109070e-02
-6.198911368846893311e-02 1.347027998417615891e-02 -5.736585706472396851e-02
3.742786124348640442e-02 2.429435960948467255e-02 -3.967798873782157898e-02
3.684508055448532104e-02 -1.375872269272804260e-02 -1.055876724421977997e-02
-3.804405778646469116e-02 2.880984451621770859e-03 -2.971918694674968719e-02
-1.186827570199966431e-02 3.627686947584152222e-02 -4.047861695289611816e-02
-6.551790237426757812e-02 1.554049085825681686e-02 -1.844698749482631683e-02
5.888584535568952560e-03 -2.783504314720630646e-02 -7.420179899781942368e-04
3.323084861040115356e-02 1.343639753758907318e-02 1.316679641604423523e-02
-2.177017927169799805e-02 3.981660993304103613e-04 -6.409548223018646240e-02
4.255909007042646408e-03 1.954872719943523407e-02 -4.069187492132186890e-02
-1.378994341939687729e-02 5.581956356763839722e-03 -2.832248248159885406e-02
-5.031414330005645752e-02 -2.318218909204006195e-02 7.260337937623262405e-03
3.480812907218933105e-02 -3.471593139693140984e-03 -3.053477779030799866e-02
-1.059194910340011120e-03 3.354505449533462524e-02 -8.067835122346878052e-03
-4.124184325337409973e-02 1.359823066741228104e-02 2.457354962825775146e-02
-1.844188757240772247e-02 -3.009860590100288391e-02 7.913684099912643433e-02
3.396687097847461700e-03 9.812814183533191681e-03 -1.038033748045563698e-03
-1.015250454656779766e-03 1.309219049289822578e-03 1.468213088810443878e-02
2.106334827840328217e-02 4.971274640411138535e-03 -3.275351971387863159e-02
-2.956494688987731934e-03 -4.731338471174240112e-03 -2.570489421486854553e-02
-5.288112536072731018e-02 2.854633331298828125e-02 -9.230086207389831543e-02
-4.935161769390106201e-02 -8.292818441987037659e-03 5.680473055690526962e-03
2.697565220296382904e-02 3.398957848548889160e-02 1.281690970063209534e-02
-2.991880290210247040e-02 1.567352330312132835e-03 3.834704309701919556e-02
-2.559067495167255402e-02 -1.183599792420864105e-02 2.751946821808815002e-02
-2.637919597327709198e-02 -2.997673116624355316e-02 -7.388863246887922287e-03
-6.968146655708551407e-03 1.886807754635810852e-02 -2.823432721197605133e-02
-2.155553735792636871e-02 3.189848363399505615e-02 -4.576957318931818008e-03
-4.104603826999664307e-02 -5.248153582215309143e-03 -3.796797990798950195e-02
-1.461437530815601349e-02 2.417146414518356323e-02 -4.252368584275245667e-03
1.888074167072772980e-02 -6.721825338900089264e-03 2.550323866307735443e-02
1.650445978157222271e-03 8.638042025268077850e-03 4.602574184536933899e-02
-1.885260082781314850e-02 -8.462298661470413208e-03 -9.267544001340866089e-02
3.096372261643409729e-02 -2.831614762544631958e-02 -6.228439742699265480e-04
2.006797678768634796e-02 -1.472726650536060333e-02 5.854076705873012543e-03
-5.000782385468482971e-02 -2.675436204299330711e-03 -2.977368235588073730e-02
-4.765465110540390015e-02 4.226819053292274475e-02 -4.113884642720222473e-02
-5.225835368037223816e-02 -3.579407930374145508e-02 -8.738993853330612183e-02
3.461918560788035393e-03 -1.458448916673660278e-02 1.544482726603746414e-02
1.338936015963554382e-02 -6.404183339327573776e-03 -8.270090445876121521e-03
2.641269564628601074e-02 -1.587517559528350830e-02 -8.174259215593338013e-02
1.253528799861669540e-02 5.857780575752258301e-03 1.319338008761405945e-02
1.986814476549625397e-02 1.204766985028982162e-02 -1.372183207422494888e-02
2.627838402986526489e-03 -3.393756970763206482e-02 2.725847810506820679e-02
7.306129671633243561e-03 -9.907941333949565887e-03 -1.457106415182352066e-02
-3.750591352581977844e-02 -3.566807880997657776e-02 1.083880197256803513e-02
-5.000609904527664185e-02 -1.476026885211467743e-02 1.072450913488864899e-02
-4.948484897613525391e-02 -1.153333485126495361e-02 6.816196255385875702e-03
9.448981843888759613e-03 -1.543890964239835739e-02 -2.226557815447449684e-03
2.154694311320781708e-02 -8.491693064570426941e-03 1.512553449720144272e-02
-8.996821939945220947e-03 8.389292284846305847e-03 -2.052522823214530945e-02
-8.755374699831008911e-02 4.361502826213836670e-03 -6.112162768840789795e-02
7.184731960296630859e-02 -9.735926054418087006e-03 4.596200212836265564e-02
-8.688787929713726044e-03 1.213556993752717972e-02 -8.871319703757762909e-03
2.067439630627632141e-02 -4.398684948682785034e-03 -1.621013390831649303e-03
-3.696564957499504089e-02 -1.685762777924537659e-02 6.390664726495742798e-03
-3.013801388442516327e-02 9.164820425212383270e-03 1.915531419217586517e-02
9.957833215594291687e-03 -2.350721322000026703e-02 8.210265077650547028e-03
-2.598221227526664734e-02 -2.896998450160026550e-02 -1.897283270955085754e-02
-1.700643263757228851e-02 -1.742135919630527496e-02 3.383098542690277100e-02
1.717289350926876068e-02 -1.634860225021839142e-02 -2.560366876423358917e-02
2.501526148989796638e-03 4.209959134459495544e-02 -7.444883231073617935e-04
2.928867936134338379e-03 -2.317132242023944855e-02 -1.604317501187324524e-02
-6.602758541703224182e-03 -6.107017979957163334e-04 -3.311232849955558777e-02
8.829980157315731049e-03 -1.833785139024257660e-02 1.708299666643142700e-02
-6.538010668009519577e-03 1.166289579123258591e-02 -3.087891452014446259e-02
4.243109840899705887e-03 -1.421298645436763763e-02 -2.171161025762557983e-02
5.093004088848829269e-03 -3.526387363672256470e-02 -2.180944383144378662e-02
-3.590293601155281067e-02 -5.282703414559364319e-02 -1.795772090554237366e-02
-1.115316990762948990e-02 -3.501660749316215515e-02 1.767969317734241486e-02
-7.297366857528686523e-03 3.153144940733909607e-02 1.930726878345012665e-02
3.229520283639431000e-03 -3.613309003412723541e-03 -1.743962801992893219e-02
6.181863602250814438e-03 2.665773779153823853e-02 -3.703042119741439819e-02
-3.161305189132690430e-02 4.793165717273950577e-03 3.377792658284306526e-03
-9.246894158422946930e-03 -3.577003022655844688e-03 2.408027090132236481e-02
9.412599727511405945e-03 -3.576099127531051636e-02 -2.316258288919925690e-02
8.499735035002231598e-03 -1.348289381712675095e-02 -3.117723576724529266e-02
1.227371487766504288e-02 -9.168587625026702881e-03 2.804335951805114746e-02
-1.162655767984688282e-03 -4.425919149070978165e-03 -2.192778885364532471e-02
2.226067706942558289e-03 9.694832377135753632e-03 5.145128816366195679e-02
2.154469490051269531e-02 2.911113388836383820e-02 -1.812763279303908348e-03
3.290357440710067749e-02 -3.393215010873973370e-04 1.788357086479663849e-02
2.493320219218730927e-02 2.678126469254493713e-02 1.777869835495948792e-02
-1.086225919425487518e-02 -3.100390173494815826e-02 7.824154454283416271e-04
-2.108229324221611023e-02 -2.398722618818283081e-02 -8.177921921014785767e-02
-1.868013665080070496e-02 -1.559113804250955582e-02 -2.658683620393276215e-02
2.500451728701591492e-02 -1.529007870703935623e-02 -2.207590639591217041e-02
-2.853081747889518738e-02 -2.290879562497138977e-02 -1.610631681978702545e-02
2.470798604190349579e-02 7.708045188337564468e-03 4.195163771510124207e-02
1.201512292027473450e-02 1.932251383550465107e-03 9.182172827422618866e-03
1.798037253320217133e-02 2.614058181643486023e-02 -9.605556726455688477e-03
-1.724312454462051392e-02 8.638461120426654816e-03 8.861448615789413452e-03
-8.916454389691352844e-03 2.405783720314502716e-02 3.597125178202986717e-03
1.735190115869045258e-02 -2.027358859777450562e-02 8.608286269009113312e-03
-1.615977473556995392e-02 2.673341520130634308e-02 -1.556156855076551437e-02
-3.505431115627288818e-02 -1.728625735267996788e-03 -3.562362119555473328e-02
3.338410332798957825e-02 1.532100979238748550e-02 -6.703549064695835114e-03
2.588508091866970062e-02 2.711478620767593384e-02 -2.227551117539405823e-02
-1.434211153537034988e-02 -3.309591487050056458e-02 -3.159213438630104065e-02
1.331693399697542191e-02 2.076812274754047394e-02 -1.186660397797822952e-02
1.619503647089004517e-02 -1.245666760951280594e-02 -2.051495015621185303e-02
1.930187270045280457e-02 1.365829724818468094e-02 -3.523410484194755554e-02
1.754244975745677948e-02 3.120229020714759827e-02 -6.170559674501419067e-03
1.023566510411910713e-04 1.444441638886928558e-02 4.594780970364809036e-03
-2.356055751442909241e-02 3.826668858528137207e-02 1.391309429891407490e-03
1.321945153176784515e-02 1.154998596757650375e-02 1.774062216281890869e-02
1.093196310102939606e-02 1.762760430574417114e-02 -2.087963372468948364e-02
3.213179006706923246e-04 5.864675156772136688e-03 -1.388020254671573639e-02
2.179594151675701141e-02 -2.487129531800746918e-02 -4.707286134362220764e-02
9.336328133940696716e-03 -1.302036922425031662e-02 2.186228893697261810e-02
4.659349471330642700e-02 4.032088071107864380e-02 3.514443710446357727e-02
-1.968737458810210228e-03 -1.020395546220242977e-03 8.182400837540626526e-03
-7.194451056420803070e-03 -2.896672347560524940e-03 1.072254404425621033e-02
3.123640082776546478e-02 9.654988534748554230e-03 -1.725026965141296387e-02
-1.758725941181182861e-02 1.342328730970621109e-02 -1.187728997319936752e-02
7.709584198892116547e-03 3.630347549915313721e-02 1.325113046914339066e-02
4.077352955937385559e-02 2.551761083304882050e-02 -6.932142376899719238e-02
-1.689827768132090569e-03 4.200967028737068176e-03 2.178459987044334412e-02
1.386038842611014843e-03 2.247447147965431213e-02 -2.074325270950794220e-02
-4.102030768990516663e-02 -5.418293643742799759e-03 -1.070545800030231476e-02
-4.237349145114421844e-03 -1.367674767971038818e-02 3.729132935404777527e-03
-2.236521430313587189e-02 -2.428048290312290192e-02 -2.796673215925693512e-02
5.347035359591245651e-03 1.417445857077836990e-02 -2.783713117241859436e-02
5.472768843173980713e-02 2.056553028523921967e-02 -1.663013920187950134e-02
-9.653909946791827679e-04 -4.752020537853240967e-02 -4.035955294966697693e-02
-2.516081789508461952e-03 1.159365568310022354e-02 -3.138399869203567505e-02
2.114667557179927826e-02 3.672321792691946030e-03 2.763914316892623901e-02
4.115484282374382019e-02 4.844411462545394897e-02 5.992839857935905457e-02
5.143171176314353943e-03 2.496927604079246521e-02 1.085230731405317783e-03
-1.746204914525151253e-03 2.912717312574386597e-02 -2.230818755924701691e-02
1.620022021234035492e-02 6.998397875577211380e-04 -1.057839835993945599e-03
-3.458548337221145630e-02 -2.179452404379844666e-02 1.140181440860033035e-02
2.975908108055591583e-02 -7.928910665214061737e-03 -1.334458682686090469e-02
-8.084884844720363617e-03 2.573338570073246956e-03 2.361047081649303436e-02
-2.379719167947769165e-02 -1.576565206050872803e-02 1.435741316527128220e-02
-4.272777587175369263e-02 1.970230601727962494e-02 1.485404558479785919e-03
-2.165531739592552185e-02 -4.941182956099510193e-02 -6.293272227048873901e-02
-4.035275802016258240e-02 3.231729567050933838e-02 1.166415284387767315e-03
2.038292400538921356e-02 1.148725952953100204e-02 2.000398188829421997e-02
-1.369935576803982258e-03 -3.250886499881744385e-02 -3.608871623873710632e-02
4.297814145684242249e-02 1.523921824991703033e-02 -4.645423963665962219e-03
2.857328951358795166e-02 2.740949392318725586e-02 3.723978297784924507e-03
3.788423025980591774e-03 -3.073564358055591583e-02 -6.135692819952964783e-03
2.623096480965614319e-02 6.004877015948295593e-02 7.317378371953964233e-02
1.204638756462372839e-04 8.096861711237579584e-05 7.259265519678592682e-03
2.365128695964813232e-02 3.219088073819875717e-03 -7.126014679670333862e-03
2.284577116370201111e-02 1.227171067148447037e-02 -1.840130425989627838e-02
3.487340733408927917e-02 1.899787038564682007e-02 -1.590926758944988251e-02
1.651832275092601776e-02 -2.886321209371089935e-02 4.738844558596611023e-02
1.859854348003864288e-02 -3.292554616928100586e-02 3.207853529602289200e-03
-2.175849862396717072e-03 1.234410237520933151e-02 4.991734866052865982e-03
5.673566088080406189e-02 1.401410065591335297e-02 3.446030244231224060e-02
-2.566521801054477692e-02 3.067234158515930176e-02 -2.852138504385948181e-02
-3.539053490385413170e-03 -5.251151975244283676e-03 2.336701378226280212e-02
-3.160952404141426086e-02 -2.883237227797508240e-02 3.036992158740758896e-03
-2.312609553337097168e-02 1.052240189164876938e-02 2.834984625224024057e-04
-1.361293625086545944e-02 -3.031034138984978199e-04 5.120621621608734131e-02
-7.183729670941829681e-03 1.306321378797292709e-02 -3.041758574545383453e-02
1.536376215517520905e-02 2.061508968472480774e-02 -1.971188560128211975e-02
3.485267981886863708e-02 2.952593145892024040e-03 -6.029283162206411362e-03
1.770938746631145477e-02 4.432396031916141510e-03 8.271927945315837860e-03
8.552351500838994980e-04 -5.365693941712379456e-03 -3.084882162511348724e-02
2.389407716691493988e-02 4.824581742286682129e-02 4.908010736107826233e-02
1.236475165933370590e-02 1.056437380611896515e-02 1.459966693073511124e-02
-2.448647515848278999e-03 -5.898202583193778992e-02 -1.308095082640647888e-02
3.439293801784515381e-02 2.126833982765674591e-02 3.594652563333511353e-02
2.329652570188045502e-02 1.949011534452438354e-02 6.421685975510627031e-05
-2.015987783670425415e-02 -3.201919794082641602e-02 -1.492300536483526230e-02
4.159090109169483185e-03 1.357553619891405106e-02 4.264593496918678284e-02
2.971086651086807251e-02 -2.381240762770175934e-02 8.147353306412696838e-03
-3.020773455500602722e-02 -1.380334794521331787e-02 -2.772554941475391388e-02
-5.272277817130088806e-02 -3.872879547998309135e-03 4.182377830147743225e-03
4.919587518088519573e-04 1.975382491946220398e-02 -3.008345700800418854e-02
2.668837271630764008e-02 -2.496894076466560364e-02 1.698976615443825722e-03
-5.813041701912879944e-02 -4.767805337905883789e-02 -3.703470900654792786e-02
-1.221209298819303513e-02 1.165113970637321472e-02 -1.241619698703289032e-02
-2.883432619273662567e-02 -1.939329877495765686e-02 -2.637866325676441193e-02
2.130361087620258331e-02 5.387100856751203537e-03 4.096638876944780350e-03
2.186661586165428162e-02 -3.167393803596496582e-02 1.845356635749340057e-02
-8.041015267372131348e-02 -9.961860254406929016e-03 -5.720276758074760437e-02
-8.062939345836639404e-02 -1.264080405235290527e-02 -6.613132078200578690e-03
-1.301512029021978378e-02 -2.739572152495384216e-02 -1.283431332558393478e-02
-1.517151575535535812e-02 -2.197508700191974640e-02 2.998377941548824310e-02
-1.451219059526920319e-02 -3.239268437027931213e-02 -3.439705818891525269e-02
3.932774811983108521e-02 -1.529707759618759155e-02 4.510261863470077515e-02
6.467509083449840546e-03 -2.875351347029209137e-02 2.465049363672733307e-02
6.216041278094053268e-03 -2.084443345665931702e-02 -1.055931113660335541e-02
-3.726838156580924988e-02 -1.881326083093881607e-03 -1.312527991831302643e-02
-5.359440296888351440e-02 -3.024806827306747437e-02 -6.273276358842849731e-02
-2.953132055699825287e-02 -2.045859396457672119e-02 5.460769170895218849e-04
2.928362973034381866e-02 2.553591132164001465e-02 -1.638692058622837067e-02
2.589134871959686279e-02 -1.038287393748760223e-02 6.163711193948984146e-03
-6.513053178787231445e-02 -8.551080711185932159e-03 -3.222560510039329529e-02
2.044413238763809204e-02 1.539071090519428253e-03 -3.402089700102806091e-02
1.345994416624307632e-02 1.881323521956801414e-03 -1.415712106972932816e-02
-5.084512755274772644e-02 2.338510006666183472e-02 1.547653879970312119e-02
-4.656959325075149536e-02 -2.111428976058959961e-02 -4.773257765918970108e-03
-6.204088404774665833e-02 -2.572622522711753845e-02 -2.145323716104030609e-02
-2.427506493404507637e-03 2.312230062671005726e-04 9.343829937279224396e-03
-4.671411588788032532e-03 -1.326253451406955719e-02 -2.456275746226310730e-03
-9.966826066374778748e-03 3.643050789833068848e-02 -5.339353904128074646e-02
3.413500264286994934e-02 -1.516624120995402336e-03 -2.391332015395164490e-02
3.034338168799877167e-02 1.285190600901842117e-02 2.031039074063301086e-02
-3.820754215121269226e-02 -1.118309888988733292e-02 5.014060437679290771e-02
4.014400765299797058e-02 -2.800697926431894302e-03 7.984516024589538574e-02
-1.583600044250488281e-02 -2.548225596547126770e-02 -1.858229376375675201e-02
1.009934023022651672e-01 1.208852156996726990e-01 2.447088807821273804e-02
6.627452373504638672e-02 -9.258126467466354370e-02 -1.491648554801940918e-01
-5.434803664684295654e-03 4.959512501955032349e-03 1.213926635682582855e-02
-5.070257186889648438e-02 8.386941626667976379e-03 -5.558584630489349365e-02
3.333283355459570885e-03 2.464813180267810822e-02 -2.245462872087955475e-02
5.721708387136459351e-02 8.851023763418197632e-02 2.416339516639709473e-02
-1.241823062300682068e-01 -5.985527485609054565e-02 8.800243586301803589e-02
1.326932664960622787e-02 -9.483043104410171509e-03 1.669002696871757507e-03
-3.426952287554740906e-02 -9.531555697321891785e-03 5.282138008624315262e-03
7.309072464704513550e-02 -7.559750229120254517e-02 -1.073924005031585693e-01
1.287910528481006622e-02 2.690819278359413147e-02 4.369339719414710999e-02
-2.439111843705177307e-02 -1.308696903288364410e-02 -3.340565133839845657e-03
-1.160694099962711334e-02 -8.447539992630481720e-03 1.284949202090501785e-02
3.345547243952751160e-02 3.299563750624656677e-02 3.601266071200370789e-02
-5.491726845502853394e-02 -9.420584887266159058e-03 -1.188252940773963928e-01
-5.541516095399856567e-02 9.672441519796848297e-03 -8.911727368831634521e-02
1.578520238399505615e-02 -3.648388758301734924e-02 -1.322766020894050598e-02
1.110772192478179932e-01 7.308024168014526367e-02 1.032170057296752930e-01
-7.268189638853073120e-02 -1.309541463851928711e-01 2.665530890226364136e-02
-2.472996152937412262e-02 1.521472353488206863e-02 -1.937401946634054184e-03
7.026674598455429077e-02 -9.422096190974116325e-04 -4.296243563294410706e-02
6.149932369589805603e-02 -1.672277227044105530e-02 -5.124239996075630188e-02
2.168028801679611206e-02 7.235026359558105469e-02 -3.828910738229751587e-02
1.924272626638412476e-01 4.198554158210754395e-02 -6.751255691051483154e-02
-1.092322822660207748e-02 2.302857674658298492e-02 -3.759462013840675354e-02
-6.874839775264263153e-03 -1.567545533180236816e-02 -4.627870768308639526e-02
-3.222091495990753174e-02 -7.034838944673538208e-02 -1.148627400398254395e-01
6.030945107340812683e-02 1.087109092622995377e-02 -3.295236453413963318e-02
-2.342712879180908203e-02 6.879455875605344772e-03 -1.808469416573643684e-03
-5.567505583167076111e-02 1.631726138293743134e-02 2.962611429393291473e-02
1.748773828148841858e-02 7.011762820184230804e-03 -6.353851640596985817e-04
1.389695826219394803e-04 1.354817301034927368e-02 2.472053281962871552e-02
8.440670557320117950e-03 5.411423370242118835e-02 4.363711457699537277e-03
-3.479193523526191711e-02 -2.191404066979885101e-02 -7.314583659172058105e-02
2.508281543850898743e-02 -9.538159356452524662e-04 1.737938611768186092e-03
3.357052803039550781e-03 9.000683203339576721e-03 -3.925336897373199463e-02
-5.702367052435874939e-03 2.194834314286708832e-02 -3.013458475470542908e-02
3.052071854472160339e-02 -2.662708982825279236e-03 -3.898409754037857056e-02
-7.362801581621170044e-02 2.768573723733425140e-02 4.727584123611450195e-02
-2.058581635355949402e-02 3.460639342665672302e-02 3.048357181251049042e-02
-1.214740052819252014e-02 -3.530239686369895935e-03 2.163190022110939026e-02
-1.514868624508380890e-02 -1.147602871060371399e-02 -6.532451510429382324e-02
-9.440037421882152557e-03 7.344538811594247818e-03 1.681801048107445240e-03
4.548789002001285553e-03 2.404858544468879700e-02 2.260395884513854980e-02
2.730276621878147125e-02 1.906803622841835022e-02 1.550568081438541412e-02
1.334243733435869217e-02 -4.927505925297737122e-02 -3.894277149811387062e-03
-1.756133884191513062e-02 4.664267972111701965e-02 -3.807307407259941101e-02
-1.461374340578913689e-04 3.121604211628437042e-03 -2.625677734613418579e-02
2.835597284138202667e-02 1.817998662590980530e-02 1.539530116133391857e-03
1.491999626159667969e-02 5.314995534718036652e-03 5.465528741478919983e-02
-5.480448156595230103e-02 3.156813327223062515e-03 6.037608534097671509e-02
5.393401079345494509e-05 -1.080315560102462769e-02 -4.039455950260162354e-02
3.145894734188914299e-03 -8.720112964510917664e-03 2.591889910399913788e-02
2.845019800588488579e-03 2.159912697970867157e-02 -2.021522959694266319e-03
-4.934065416455268860e-02 2.426913939416408539e-02 6.460878252983093262e-02
-4.316460713744163513e-02 7.919897139072418213e-02 1.386915296316146851e-01
-1.184354815632104874e-02 8.008739911019802094e-03 1.395998708903789520e-02
-3.872511908411979675e-02 -6.946791894733905792e-03 -3.418569639325141907e-02
-9.907209314405918121e-03 2.950435131788253784e-02 -3.416585735976696014e-03
-2.783721545711159706e-03 -1.354480977170169353e-03 1.706391945481300354e-02
3.795313648879528046e-03 -1.123880156228551641e-05 -1.814361102879047394e-02
-2.531802840530872345e-02 -9.711495600640773773e-03 -5.080885067582130432e-02
-2.725693210959434509e-02 1.282146852463483810e-02 -1.602887734770774841e-02
-1.149575505405664444e-02 -2.027451526373624802e-03 5.581475794315338135e-03
-3.632220253348350525e-02 1.969256845768541098e-05 5.400745570659637451e-02
-1.544516906142234802e-02 -2.962276153266429901e-02 -1.691977530717849731e-01
-3.057846240699291229e-02 -3.008174337446689606e-02 6.688801106065511703e-03
-5.911971442401409149e-03 -5.116928368806838989e-02 -4.778658598661422729e-02
8.435722440481185913e-03 -1.227745972573757172e-02 1.709879934787750244e-02
-6.225804239511489868e-02 -3.952253609895706177e-02 -1.142574753612279892e-02
4.026856645941734314e-02 -5.590839311480522156e-02 -3.102996759116649628e-02
2.227035909891128540e-02 -3.726551309227943420e-02 5.043569207191467285e-02
-6.113457959145307541e-03 -3.357518091797828674e-02 -2.246673777699470520e-02
1.970284618437290192e-02 -1.351057831197977066e-02 -1.001591682434082031e-01
3.933944925665855408e-02 -2.202958241105079651e-02 -5.555397272109985352e-02
-7.521422114223241806e-03 4.222625866532325745e-03 -1.455732341855764389e-02
3.684122348204255104e-03 1.467357296496629715e-02 -3.135240077972412109e-02
-5.565894022583961487e-02 -2.413418330252170563e-02 -2.220724709331989288e-02
-5.756733939051628113e-02 -3.107269853353500366e-02 -1.514680869877338409e-02
-6.569045595824718475e-03 -4.283684119582176208e-02 -3.720885887742042542e-02
-3.477371111512184143e-02 -1.918276399374008179e-02 -3.277618438005447388e-02
-1.437213644385337830e-02 -2.811479382216930389e-02 -2.404078608378767967e-03
1.842137612402439117e-02 -7.647251244634389877e-03 4.942365735769271851e-02
-1.724824309349060059e-02 -4.580605309456586838e-03 -1.359813660383224487e-02
7.253458257764577866e-03 6.100478931330144405e-04 2.272771112620830536e-02
-2.426065877079963684e-02 -1.617536135017871857e-02 1.722059212625026703e-02
-5.225782096385955811e-02 -7.716758549213409424e-02 5.390052869915962219e-02
3.074871748685836792e-02 -6.973469257354736328e-02 2.357129938900470734e-03
9.383653290569782257e-03 4.526153206825256348e-02 1.559976767748594284e-02
-2.775139547884464264e-02 -1.194560155272483826e-02 -1.052154693752527237e-02
-5.336502566933631897e-02 -1.399098057299852371e-02 -4.402214661240577698e-02
5.727535486221313477e-02 2.212548628449440002e-02 3.428939357399940491e-02
-3.528556786477565765e-03 -3.104686178267002106e-02 -3.477944061160087585e-02
4.515276476740837097e-02 -1.618616469204425812e-02 8.194475434720516205e-03
2.514293417334556580e-02 -1.331896800547838211e-02 -1.854354888200759888e-02
2.069585956633090973e-02 -2.326278574764728546e-02 -1.993297040462493896e-02
-3.265535086393356323e-02 1.740791089832782745e-02 -1.500591286458075047e-03
1.663074269890785217e-02 -2.776900492608547211e-02 2.784469164907932281e-02
2.156353183090686798e-02 -1.054564863443374634e-02 1.737225055694580078e-02
3.549290448427200317e-02 1.267642620950937271e-02 -4.146861657500267029e-02
-2.833103761076927185e-02 -3.216284967493265867e-04 -3.001731634140014648e-02
1.544491294771432877e-02 2.986417151987552643e-02 -1.140686869621276855e-02
3.428557142615318298e-02 -4.216415062546730042e-02 4.884369671344757080e-02
1.472028158605098724e-02 1.215893868356943130e-02 -3.524967003613710403e-03
2.713326131924986839e-03 7.420052774250507355e-03 -2.215779758989810944e-02
-1.776580885052680969e-02 -4.913489334285259247e-03 4.422319680452346802e-02
3.519596159458160400e-02 3.434898331761360168e-02 1.674261409789323807e-03
-1.411960460245609283e-02 9.865342639386653900e-03 -1.883239857852458954e-02
2.341971173882484436e-02 2.824899181723594666e-02 -4.495371133089065552e-03
-1.248076278716325760e-02 -4.366810619831085205e-02 -4.015592485666275024e-02
-2.686970122158527374e-02 -2.617727965116500854e-02 2.747921971604228020e-04
-1.885962858796119690e-02 -2.399007230997085571e-02 -2.752478234469890594e-02
-2.724696137011051178e-02 -1.528210658580064774e-02 8.508014492690563202e-03
1.282648369669914246e-02 6.547271460294723511e-02 -3.390459716320037842e-02
-3.443605080246925354e-02 -1.475231908261775970e-02 -5.798561125993728638e-02
2.856767922639846802e-02 3.410086408257484436e-02 -1.062057912349700928e-02
7.323228288441896439e-03 3.514455631375312805e-02 4.796995967626571655e-02
9.991415776312351227e-03 -1.100111752748489380e-02 -1.554984413087368011e-02
-2.884194999933242798e-02 3.471081703901290894e-02 6.656253710389137268e-03
-2.043149201199412346e-03 -1.592252030968666077e-02 9.924765676259994507e-03
-2.057882025837898254e-02 2.632943354547023773e-02 1.238923799246549606e-02
-2.234685467556118965e-03 -3.151373239234089851e-03 7.087570615112781525e-03
1.600011810660362244e-02 -5.702151358127593994e-02 -2.305657602846622467e-02
-1.431213412433862686e-02 -1.548884552903473377e-03 3.042182186618447304e-03
2.389027364552021027e-02 2.416513301432132721e-02 2.569376677274703979e-02
-1.117150783538818359e-01 8.556193672120571136e-03 -1.018143258988857269e-02
5.650481581687927246e-02 -2.162749692797660828e-02 -1.596000604331493378e-02
3.521764650940895081e-02 -1.754770404659211636e-03 -1.491218805313110352e-02
-2.068516053259372711e-02 1.636588573455810547e-02 1.687237527221441269e-03
7.199557125568389893e-02 -1.978357695043087006e-02 1.087353453040122986e-01
3.669584915041923523e-02 2.439222857356071472e-02 -1.023089513182640076e-03
-1.518179895356297493e-03 5.301882047206163406e-04 1.273872680030763149e-03
-1.480511203408241272e-02 -1.728603243827819824e-02 7.071451283991336823e-03
-3.103453479707241058e-02 -3.087265603244304657e-02 -5.226823687553405762e-02
-9.409514069557189941e-02 9.402545541524887085e-02 -1.317508518695831299e-01
-3.729233145713806152e-02 -7.643502671271562576e-03 -6.466427445411682129e-02
-2.973769733216613531e-04 -1.143352035433053970e-02 1.865951903164386749e-02
-3.489103913307189941e-02 -5.560292303562164307e-02 -2.009410038590431213e-02
5.023717507719993591e-02 -5.109291896224021912e-02 7.357846200466156006e-02
-1.322792097926139832e-02 1.729727350175380707e-02 -2.892468497157096863e-02
2.553229918703436852e-03 6.403771112672984600e-04 2.659621462225914001e-02
-2.876347396522760391e-03 2.888461202383041382e-02 -2.779526449739933014e-02
-1.067930832505226135e-01 -3.665482997894287109e-02 -1.172726675868034363e-01
-6.393662095069885254e-02 -3.448255360126495361e-02 -4.199340473860502243e-03
2.939306199550628662e-02 3.372732549905776978e-02 1.544603612273931503e-02
5.943191237747669220e-03 3.219870850443840027e-02 6.976102292537689209e-02
-8.587618172168731689e-02 2.540875412523746490e-02 -1.134146898984909058e-01
7.279715500771999359e-03 -3.274941071867942810e-02 -2.342652902007102966e-02
4.099282994866371155e-02 3.895926056429743767e-05 -1.612252672202885151e-04
-5.845650285482406616e-02 2.301818132400512695e-02 -6.397894117981195450e-03
-8.252237737178802490e-02 4.308158531785011292e-02 -9.043008834123611450e-02
-6.538253277540206909e-02 2.919089980423450470e-02 -1.384352445602416992e-01
-9.081795811653137207e-03 2.096362644806504250e-03 8.169659413397312164e-03
2.321831416338682175e-03 -1.774631813168525696e-02 2.857808209955692291e-02
-4.105643555521965027e-02 2.590659772977232933e-03 -9.033977985382080078e-02
4.947936534881591797e-02 -1.237731520086526871e-02 9.947653859853744507e-03
3.150792559608817101e-03 1.433596480637788773e-02 3.411494567990303040e-02
-1.104657724499702454e-01 -3.464103862643241882e-02 1.630730926990509033e-03
-6.638261675834655762e-02 -8.919869549572467804e-03 2.251171506941318512e-02
-1.947649568319320679e-02 -2.870584279298782349e-02 1.416740193963050842e-02
-3.760154917836189270e-02 -3.665044903755187988e-02 7.734066341072320938e-03
2.006702683866024017e-02 -1.399549935013055801e-02 -2.312540262937545776e-02
9.891605004668235779e-03 1.940074376761913300e-03 1.037373952567577362e-02
-2.326846681535243988e-02 -5.748654529452323914e-02 -4.043697845190763474e-03
1.585743203759193420e-02 2.906590001657605171e-03 2.477764710783958435e-02
-3.739501163363456726e-02 -9.134357422590255737e-02 -3.323524072766304016e-02
-6.923563778400421143e-02 5.045505240559577942e-02 9.929569065570831299e-02
-4.905326664447784424e-02 -6.316795479506254196e-03 -2.448612079024314880e-02
-3.214403986930847168e-02 -1.607442647218704224e-02 5.691478028893470764e-03
3.953853994607925415e-02 -5.299116601236164570e-04 4.750888422131538391e-02
9.519653976894915104e-04 -7.967076264321804047e-03 -6.144122406840324402e-02
-4.320190753787755966e-03 -3.044203668832778931e-02 -1.293394342064857483e-02
8.717549964785575867e-03 2.959999069571495056e-02 6.026767659932374954e-03
-3.258815407752990723e-02 -3.066644445061683655e-02 4.417154565453529358e-02
1.409281045198440552e-03 -2.848531492054462433e-02 2.554433420300483704e-02
6.431341171264648438e-02 2.194783091545104980e-02 2.134373225271701813e-02
4.708547145128250122e-03 1.491820346564054489e-02 -1.013433560729026794e-02
-5.847072973847389221e-02 -6.358611583709716797e-02 -6.042665988206863403e-02
3.173904493451118469e-02 3.409058600664138794e-02 5.854078009724617004e-02
-2.757705189287662506e-02 -1.487853936851024628e-02 8.967282250523567200e-03
-9.761923924088478088e-03 -4.446213692426681519e-02 -6.336916983127593994e-02
-1.786176301538944244e-02 -2.016561850905418396e-02 -2.125886268913745880e-02
-8.252693712711334229e-02 1.493524760007858276e-02 -3.167531220242381096e-03
-1.312458794564008713e-02 -4.672243818640708923e-02 -9.607664309442043304e-03
2.730933576822280884e-02 -1.753241196274757385e-02 -2.940798178315162659e-02
-3.735084459185600281e-02 1.494672056287527084e-02 -3.626592829823493958e-02
1.513975113630294800e-02 3.516684100031852722e-02 4.796743765473365784e-02
-1.660743355751037598e-02 -1.907924190163612366e-02 -6.206022948026657104e-02
2.253668010234832764e-02 -3.895113477483391762e-04 1.514980103820562363e-03
-7.492172718048095703e-02 -3.388971835374832153e-02 -2.439771546050906181e-03
4.664393514394760132e-02 -1.100710034370422363e-02 -2.156745642423629761e-02
1.576530002057552338e-02 6.511463318020105362e-03 -2.091102302074432373e-02
-2.636806480586528778e-02 -3.899570554494857788e-02 -8.938468992710113525e-03
2.871988527476787567e-02 8.827383862808346748e-04 9.880813956260681152e-02
3.675294108688831329e-03 -1.456243451684713364e-02 -1.597636379301548004e-03
1.980801811441779137e-03 1.240564882755279541e-02 -7.353250402957201004e-03
-2.999352850019931793e-02 -1.226226612925529480e-02 6.942974403500556946e-03
-2.362242899835109711e-02 1.104958914220333099e-02 2.719120122492313385e-03
-7.111649215221405029e-02 5.529130622744560242e-02 -1.530490219593048096e-01
-6.706725805997848511e-02 -3.415190801024436951e-02 -4.621120914816856384e-02
-1.770756766200065613e-02 4.226592369377613068e-03 2.058102190494537354e-02
3.254727646708488464e-02 -1.744238659739494324e-02 6.282800342887639999e-03
1.358896307647228241e-02 -3.519922494888305664e-02 6.958228349685668945e-02
2.368064969778060913e-02 2.017992548644542694e-02 2.716500125825405121e-02
9.205289185047149658e-03 8.153379894793033600e-03 8.050763863138854504e-04
-1.938292570412158966e-02 -3.153256326913833618e-02 -8.716598153114318848e-03
-4.878205060958862305e-02 7.926505059003829956e-03 -4.877851158380508423e-02
-3.588863462209701538e-02 6.231732200831174850e-03 8.824702352285385132e-03
1.705840788781642914e-02 3.511535003781318665e-02 -9.359150193631649017e-03
2.003405056893825531e-02 -5.638355389237403870e-03 7.155367173254489899e-03
-5.731514841318130493e-02 -1.639082096517086029e-02 -1.112528517842292786e-01
-3.439101856201887131e-03 4.883972927927970886e-03 8.001579408301040530e-05
1.261016260832548141e-02 -1.008596550673246384e-02 -3.008395433425903320e-02
-1.914261281490325928e-02 -2.433365955948829651e-02 -4.662080854177474976e-02
-4.745302349328994751e-02 -3.946269396692514420e-03 -6.594055145978927612e-02
-4.794958978891372681e-02 -1.057858020067214966e-02 -5.832384154200553894e-02
4.200553521513938904e-03 3.046997124329209328e-03 1.237878482788801193e-02
-5.161816952750086784e-04 5.540986545383930206e-03 1.765208691358566284e-02
-2.123796567320823669e-02 2.148923836648464203e-02 -4.067362099885940552e-02
5.885425023734569550e-03 -1.261958014219999313e-02 -1.026112120598554611e-02
-6.401439895853400230e-05 1.160964649170637131e-02 1.561860740184783936e-02
-7.872209884226322174e-03 -1.059156376868486404e-02 3.381419554352760315e-02
2.732878318056464195e-03 -3.743565827608108521e-02 -3.018825314939022064e-02
-1.545124873518943787e-02 9.697077795863151550e-03 8.813115768134593964e-03
2.417975664138793945e-02 3.481551632285118103e-02 7.480680011212825775e-03
-9.659661911427974701e-03 -1.412855368107557297e-02 1.643956266343593597e-02
-2.765132673084735870e-02 1.988126337528228760e-02 -7.323645055294036865e-03
3.077831864356994629e-02 1.532547269016504288e-02 1.734420843422412872e-02
-1.579075679183006287e-02 -1.641759835183620453e-02 1.601900090463459492e-03
5.365354474633932114e-03 -6.412886083126068115e-03 1.518846023827791214e-02
1.503690704703330994e-02 2.477792464196681976e-02 1.158115081489086151e-02
1.945286430418491364e-02 -2.165956608951091766e-02 -8.589494973421096802e-03
6.409185472875833511e-03 -3.664456540718674660e-03 1.775013282895088196e-02
1.519178971648216248e-02 1.465883292257785797e-02 -1.401515398174524307e-02
-2.609901688992977142e-02 -2.771520055830478668e-02 2.989908307790756226e-02
-1.288980897516012192e-02 1.969868782907724380e-03 1.816960051655769348e-02
2.751740068197250366e-02 -2.042375318706035614e-02 -7.309541106224060059e-03
-1.330971252173185349e-02 1.958015374839305878e-02 5.779016297310590744e-03
1.531664282083511353e-02 2.919443696737289429e-02 -2.329450473189353943e-02
2.519747987389564514e-02 4.002197086811065674e-02 -8.226858917623758316e-04
-2.877017110586166382e-02 -2.356512285768985748e-02 2.385039813816547394e-02
1.696302182972431183e-02 -1.539423945359885693e-03 -1.115943770855665207e-02
2.390965964877977967e-04 -5.269617307931184769e-03 2.636573836207389832e-02
-2.320995554327964783e-02 -6.285639246925711632e-04 -3.287230804562568665e-02
-2.526430413126945496e-02 -2.541509643197059631e-02 1.723584905266761780e-02
-1.379465498030185699e-02 -6.669605150818824768e-03 1.960849761962890625e-02
2.591570466756820679e-02 2.455121651291847229e-02 1.052314508706331253e-02
-1.966357417404651642e-02 2.232907712459564209e-02 5.688789486885070801e-02
-7.858083583414554596e-03 -5.411101970821619034e-03 -1.302441954612731934e-02
-6.372811738401651382e-03 2.570840530097484589e-02 1.087286882102489471e-02
2.641036175191402435e-02 8.690769784152507782e-03 -1.114256680011749268e-02
4.287837073206901550e-03 -2.601373754441738129e-02 8.501156233251094818e-03
-1.176291727460920811e-03 2.510884590446949005e-02 -2.045677788555622101e-02
4.080326855182647705e-02 -3.944514691829681396e-02 5.095146596431732178e-03
-2.959821745753288269e-02 -8.437151089310646057e-03 1.187502313405275345e-02
-1.944945752620697021e-02 5.303192301653325558e-04 -1.385905779898166656e-02
1.245325710624456406e-02 -3.336992580443620682e-03 -4.320727661252021790e-03
-5.744494963437318802e-03 9.547394700348377228e-03 8.435629308223724365e-02
2.728052251040935516e-02 2.054513059556484222e-02 -2.096364647150039673e-02
-9.348205290734767914e-03 -1.056086458265781403e-02 4.431844130158424377e-02
1.731191202998161316e-02 -1.220634765923023224e-02 5.757580511271953583e-04
-5.971439927816390991e-02 -7.868787273764610291e-03 -1.924038305878639221e-02
6.419445574283599854e-02 -5.086971819400787354e-02 -1.099846735596656799e-01
-2.103006094694137573e-02 -2.612665668129920959e-02 -2.144557423889636993e-02
-2.556548267602920532e-02 1.302187610417604446e-02 1.425572391599416733e-02
-1.891255727969110012e-03 -4.719582851976156235e-03 3.549115732312202454e-02
2.911899238824844360e-02 1.686720363795757294e-02 5.113740265369415283e-02
1.566709205508232117e-02 3.901362419128417969e-03 5.172782111912965775e-03
5.482750944793224335e-03 -2.187755424529314041e-03 -2.341044880449771881e-02
-4.106101766228675842e-02 2.911372855305671692e-02 -5.141914822161197662e-03
1.711474731564521790e-02 6.900807376950979233e-03 -4.554698616266250610e-02
2.589522488415241241e-02 4.069883003830909729e-02 -1.141256000846624374e-02
-2.521733008325099945e-02 2.848861925303936005e-02 -5.264478269964456558e-03
-3.742736950516700745e-02 -3.188323602080345154e-02 4.743361100554466248e-02
-3.782361513003706932e-03 1.320896763354539871e-02 -4.866509139537811279e-02
1.570600084960460663e-02 -1.919814758002758026e-02 -3.860784322023391724e-02
-1.299389638006687164e-02 -2.104445546865463257e-02 1.738650910556316376e-02
1.480248663574457169e-02 -5.789359565824270248e-03 -2.406663075089454651e-02
3.929269686341285706e-02 1.142771635204553604e-02 -7.248548418283462524e-02
-3.658675402402877808e-02 -9.979598224163055420e-03 -9.133514948189258575e-03
2.350676991045475006e-02 1.925657875835895538e-02 2.974767051637172699e-02
5.946842138655483723e-04 -1.189321628771722317e-03 -7.792987395077943802e-03
1.981218345463275909e-02 3.197681158781051636e-02 -1.903488114476203918e-02
-6.095907185226678848e-03 5.408978089690208435e-03 4.333177208900451660e-02
1.518380083143711090e-02 -1.755133643746376038e-02 9.413614752702414989e-04
4.493725299835205078e-02 1.884830370545387268e-02 4.831574857234954834e-03
-1.427451847121119499e-03 2.851324714720249176e-02 -1.383202522993087769e-02
-2.407179446890950203e-03 1.673631928861141205e-02 -1.944740675389766693e-02
4.166362807154655457e-02 -6.584329064935445786e-03 2.942759543657302856e-03
9.641780517995357513e-03 1.163089089095592499e-02 -2.790696546435356140e-02
-2.499283291399478912e-02 -1.613258011639118195e-02 1.741800515446811914e-04
1.594199426472187042e-02 -6.952759809792041779e-03 2.891525812447071075e-02
8.863366674631834030e-04 -2.585702575743198395e-02 -8.781447075307369232e-03
-1.062074862420558929e-02 -1.051406934857368469e-02 2.662392333149909973e-03
3.213886916637420654e-02 3.504844754934310913e-02 -7.918150164186954498e-03
-2.772441506385803223e-02 9.100436232984066010e-03 2.368826605379581451e-02
-1.955120824277400970e-03 1.270095445215702057e-02 6.630989810219034553e-05
-7.460325490683317184e-03 -1.499772816896438599e-02 -2.874212153255939484e-02
-4.298422951251268387e-03 -1.500547677278518677e-02 1.640782132744789124e-02
-3.217495977878570557e-03 7.865243591368198395e-03 8.511484600603580475e-03
-1.770870201289653778e-02 3.170846321154385805e-04 1.479412522166967392e-02
-1.662962883710861206e-02 2.326870709657669067e-02 -1.927609555423259735e-02
-2.125487662851810455e-03 -3.087437897920608521e-02 -3.774370625615119934e-02
-3.021582029759883881e-02 -1.557433139532804489e-02 -9.520946070551872253e-03
-4.158448893576860428e-03 -1.251754816621541977e-02 2.058458514511585236e-02
1.291538309305906296e-02 9.497663937509059906e-03 6.454829871654510498e-02
-2.875340171158313751e-02 1.749092526733875275e-02 -3.411852987483143806e-03
2.751197293400764465e-02 2.212894335389137268e-02 3.840331360697746277e-02
-1.787711679935455322e-02 -2.032146230340003967e-02 2.896451391279697418e-02
-3.451720252633094788e-02 -1.735115610063076019e-02 -2.939729392528533936e-02
3.614133223891258240e-02 2.716412022709846497e-02 2.040689066052436829e-02
-2.544323168694972992e-02 -9.632615372538566589e-03 -3.618998825550079346e-02
-2.643391862511634827e-02 2.048300579190254211e-02 4.154392983764410019e-03
-8.029090240597724915e-03 -3.064353484660387039e-03 -5.639840965159237385e-04
-3.651749715209007263e-02 1.764804497361183167e-02 -1.784653402864933014e-02
-2.333902940154075623e-02 -1.712525729089975357e-03 2.909445948898792267e-02
1.288496539928019047e-03 -2.517081052064895630e-02 -1.204238925129175186e-02
1.930422708392143250e-02 1.891571655869483948e-02 2.290258556604385376e-02
-6.804958451539278030e-03 5.637017078697681427e-03 1.821518130600452423e-02
1.211686059832572937e-02 -1.543495338410139084e-02 -2.816952292050700635e-05
-3.354327753186225891e-02 2.733733854256570339e-04 -3.647343814373016357e-02
-1.298722904175519943e-02 6.327362265437841415e-03 -6.250937003642320633e-03
2.034072764217853546e-02 6.784280296415090561e-03 2.103931643068790436e-02
1.134708803147077560e-02 3.315134719014167786e-02 -2.865034341812133789e-02
-1.523695793002843857e-02 2.432960458099842072e-02 8.302154601551592350e-04
-4.648519307374954224e-02 -2.331894636154174805e-02 -3.007896430790424347e-02
5.653153732419013977e-02 -4.784475639462471008e-02 2.570536732673645020e-02
-2.248656563460826874e-02 -2.134025841951370239e-02 2.526464685797691345e-02
-2.648906223475933075e-02 2.561217173933982849e-03 -1.833569607697427273e-03
-4.243414103984832764e-02 -9.164336137473583221e-03 -4.073244705796241760e-02
1.225725281983613968e-02 -1.688453368842601776e-02 1.725862734019756317e-02
1.273329649120569229e-02 -2.017164789140224457e-02 -2.118229866027832031e-03
2.137744054198265076e-02 4.239335656166076660e-03 -8.555976673960685730e-03
-7.701733149588108063e-03 -1.193799264729022980e-02 -4.194949287921190262e-03
1.109151262789964676e-02 1.125280652195215225e-02 -1.393772102892398834e-02
3.043687436729669571e-03 2.128427475690841675e-02 1.822924241423606873e-03
-2.074887230992317200e-02 -2.776453271508216858e-02 1.671137288212776184e-02
-2.598036453127861023e-02 -6.344558671116828918e-03 1.162368524819612503e-02
2.102795056998729706e-02 2.139807492494583130e-02 -8.324481546878814697e-03
2.119932882487773895e-02 -1.975729316473007202e-02 -1.700141839683055878e-02
-4.726129584014415741e-03 -6.201853975653648376e-03 -1.035065017640590668e-02
2.910076081752777100e-02 -8.425604552030563354e-03 -3.236591070890426636e-02
4.831402096897363663e-03 1.137348124757409096e-03 1.077411789447069168e-02
-3.557444363832473755e-02 -2.618649229407310486e-02 2.651701308786869049e-02
7.428573444485664368e-03 -3.086827509105205536e-02 -1.774835400283336639e-04
-2.285294607281684875e-02 1.627748832106590271e-02 -2.452665008604526520e-02
-2.675568219274282455e-03 -3.095707483589649200e-02 1.497808378189802170e-03
-2.770948968827724457e-02 1.824791543185710907e-02 -2.273014374077320099e-02
-8.747406303882598877e-03 1.677561900578439236e-03 -2.259629406034946442e-02
-2.520013973116874695e-02 -1.911596767604351044e-02 -4.375327378511428833e-02
-8.315837010741233826e-03 2.855589613318443298e-02 2.353770099580287933e-02
-7.553839590400457382e-03 2.452849876135587692e-03 1.814823411405086517e-02
-5.180578446015715599e-04 4.961929284036159515e-03 1.479295548051595688e-02
-1.829048991203308105e-02 2.268136665225028992e-02 4.834960773587226868e-02
1.175340730696916580e-02 1.932610990479588509e-03 2.290629595518112183e-02
-2.476697042584419250e-02 2.186172828078269958e-02 -2.418168634176254272e-02
2.833477221429347992e-02 2.270839549601078033e-02 7.383924908936023712e-03
3.115963377058506012e-02 -1.734143495559692383e-02 -3.546294942498207092e-02
-5.990556441247463226e-03 -1.799816451966762543e-02 3.927099704742431641e-02
-1.192232500761747360e-02 -2.627884969115257263e-02 5.515534896403551102e-03
-2.659093588590621948e-02 -6.770940497517585754e-03 -9.351848624646663666e-03
9.814420714974403381e-03 -1.360325887799263000e-02 -7.155819184845313430e-05
-3.465729951858520508e-02 -6.678505335003137589e-03 2.866124734282493591e-02
-2.318521775305271149e-02 -1.973975915461778641e-03 -1.572786085307598114e-02
1.584272459149360657e-02 4.244303854648023844e-04 -3.589670814108103514e-04
-7.754095830023288727e-03 -1.479258760809898376e-02 -3.006741218268871307e-02
4.580036550760269165e-02 1.087824068963527679e-02 -1.237910706549882889e-02
-3.774209180846810341e-03 -1.584417559206485748e-02 2.062687836587429047e-02
6.086024921387434006e-03 -8.995741605758666992e-03 -9.834633208811283112e-03
-3.817113488912582397e-02 -6.411446724086999893e-03 -3.574800491333007812e-02
-4.585768096148967743e-03 -1.632967218756675720e-02 -2.529330179095268250e-02
-9.273939765989780426e-03 -2.474902756512165070e-02 2.231380902230739594e-02
3.769924864172935486e-02 3.815859928727149963e-02 1.138021145015954971e-02
3.397579537704586983e-03 5.199525505304336548e-03 1.244020275771617889e-02
-3.372214734554290771e-03 1.350279431790113449e-02 -1.319613307714462280e-02
1.896905340254306793e-02 1.770378649234771729e-02 2.525663934648036957e-02
2.520104311406612396e-02 6.024274509400129318e-03 -1.584994606673717499e-02
-3.902330994606018066e-03 9.636561386287212372e-03 6.187442224472761154e-03
-6.285796407610177994e-03 2.243330515921115875e-02 -1.740117371082305908e-02
1.416748855262994766e-02 2.675709547474980354e-03 2.642155997455120087e-02
2.293883822858333588e-02 1.570324599742889404e-02 -2.092652209103107452e-02
4.787038546055555344e-03 1.887846365571022034e-02 -2.758029848337173462e-02
2.852893061935901642e-02 -1.871835812926292419e-02 2.105778083205223083e-02
-2.556098997592926025e-02 -7.442381698638200760e-03 1.610064879059791565e-03
1.224997453391551971e-02 -2.443382143974304199e-02 2.336927317082881927e-02
3.610309958457946777e-02 1.816148683428764343e-02 3.282707184553146362e-02
1.084963418543338776e-02 2.081478945910930634e-02 4.666798282414674759e-03
4.305176436901092529e-03 1.583014242351055145e-02 -4.964330233633518219e-03
-2.111881040036678314e-02 -5.310102365911006927e-03 -1.644951663911342621e-02
2.200113981962203979e-02 2.346710674464702606e-02 1.990068145096302032e-02
-2.352311275899410248e-02 -1.919037103652954102e-02 1.517856400460004807e-02
1.587385125458240509e-02 2.479905262589454651e-02 1.044726581312716007e-03
2.792444266378879547e-02 2.848889853339642286e-04 2.383410744369029999e-02
-1.193943899124860764e-02 8.112641982734203339e-03 -9.021200239658355713e-03
2.020346373319625854e-02 -2.580333687365055084e-02 3.905484685674309731e-03
6.355554796755313873e-03 1.037522777915000916e-02 2.013271301984786987e-02
-3.018582239747047424e-02 -7.835793308913707733e-03 3.209722228348255157e-03
-6.095631048083305359e-03 -7.444436196237802505e-03 1.761889457702636719e-02
7.081077899783849716e-03 -2.567620482295751572e-03 3.471385315060615540e-02
-1.627376652322709560e-03 -2.276504784822463989e-02 2.095897868275642395e-02
2.188312448561191559e-02 2.560318820178508759e-02 -2.434108406305313110e-02
-3.825110197067260742e-02 -2.474710904061794281e-02 3.732959041371941566e-03
8.041040040552616119e-03 -2.976312674582004547e-02 -9.341982193291187286e-03
1.573479548096656799e-02 -1.043407683027908206e-04 1.719157584011554718e-02
-1.256339717656373978e-02 -7.978733628988265991e-03 -2.876318525522947311e-03
-3.041244111955165863e-02 -1.552630402147769928e-02 -1.910272613167762756e-02
-2.869556471705436707e-02 -4.597231163643300533e-04 -7.541433442384004593e-03
-2.170370146632194519e-02 -2.842351607978343964e-02 8.323539048433303833e-03
-3.104688972234725952e-02 -3.367102518677711487e-02 -1.608945243060588837e-02
-1.605987921357154846e-02 -1.962030120193958282e-02 -6.865744013339281082e-03
1.004949561320245266e-03 9.810135699808597565e-03 5.248633213341236115e-03
-2.899228781461715698e-02 1.499584689736366272e-02 -4.902182146906852722e-03
2.520277909934520721e-02 2.620787359774112701e-02 1.690360531210899353e-02
-5.899515002965927124e-02 -3.116389550268650055e-02 -2.623875439167022705e-02
2.962506562471389771e-02 -2.054886193946003914e-03 -8.144550025463104248e-03
2.203337848186492920e-02 -8.346291258931159973e-03 -2.436744421720504761e-02
-3.236545622348785400e-02 1.259623002260923386e-02 -1.470100227743387222e-02
4.695373773574829102e-02 1.476508658379316330e-02 5.391109734773635864e-02
1.492340769618749619e-02 2.810809388756752014e-02 -2.089584246277809143e-02
-8.178259246051311493e-03 -1.427358295768499374e-02 1.732980459928512573e-02
2.185358852148056030e-02 3.026485256850719452e-02 -5.768560338765382767e-03
-1.265017502009868622e-02 3.496314957737922668e-02 2.113280445337295532e-02
1.643838593736290932e-03 3.152519837021827698e-02 3.741203993558883667e-02
-3.394255787134170532e-02 4.974293988198041916e-03 2.089736796915531158e-02
1.374726882204413414e-03 2.934161759912967682e-02 -6.685063242912292480e-03
3.852289915084838867e-02 3.892956674098968506e-02 4.470367357134819031e-02
3.033848479390144348e-02 -1.736181229352951050e-02 4.028059076517820358e-03
-8.129546418786048889e-03 -2.571399672888219357e-04 -1.772643439471721649e-02
2.416384220123291016e-02 -2.653395198285579681e-02 2.865686267614364624e-02
9.658928960561752319e-03 -2.650455199182033539e-02 1.286977156996726990e-02
1.208758447319269180e-03 -2.793119102716445923e-02 2.915296517312526703e-02
-3.074469044804573059e-02 -3.167520835995674133e-02 2.818168513476848602e-02
-1.864054054021835327e-02 1.521540689282119274e-03 1.062360405921936035e-02
-8.478784933686256409e-03 2.817011624574661255e-02 -2.424687519669532776e-02
1.877589710056781769e-02 -2.681117877364158630e-02 -9.374014101922512054e-03
-3.639182820916175842e-02 -1.058387570083141327e-02 3.073932230472564697e-02
3.388035297393798828e-02 2.192934043705463409e-02 2.468160726130008698e-02
-5.419486202299594879e-03 -1.697419583797454834e-02 1.665247604250907898e-02
-1.562159042805433273e-02 -3.702718392014503479e-02 -3.279126808047294617e-02
2.037480846047401428e-02 -1.012136135250329971e-02 1.702211983501911163e-02
1.450671721249818802e-02 -2.630421146750450134e-02 -2.331000193953514099e-02
1.182632427662611008e-02 -2.890442311763763428e-02 2.558024227619171143e-02
-1.629544980823993683e-02 2.259522676467895508e-02 7.516152691096067429e-03
4.941130056977272034e-02 2.609231881797313690e-02 -1.759710954502224922e-03
-4.462911281734704971e-03 -2.133225090801715851e-02 -2.929073385894298553e-02
7.037538290023803711e-02 -1.623051613569259644e-02 -8.870203047990798950e-03
-7.704596966505050659e-02 -6.107129156589508057e-03 -1.955066248774528503e-02
-4.224707931280136108e-02 -3.438751772046089172e-02 -1.935753226280212402e-02
-2.960713207721710205e-02 1.396135543473064899e-03 -6.546545773744583130e-02
-5.312021449208259583e-02 1.805627159774303436e-02 -1.731867156922817230e-02
-1.720566302537918091e-02 1.670263125561177731e-03 -2.616451121866703033e-02
-1.971675269305706024e-02 1.012119185179471970e-02 -2.795428736135363579e-03
-2.602608501911163330e-02 -2.337217563763260841e-03 1.612089760601520538e-02
-1.444246470928192139e-01 -6.710999459028244019e-02 -1.043712422251701355e-01
1.450081020593643188e-01 2.648992463946342468e-02 1.384581029415130615e-01
-1.868726871907711029e-02 -2.027069032192230225e-02 1.282192580401897430e-02
-1.698096841573715210e-02 -1.635228097438812256e-02 -2.983219735324382782e-02
-3.339233621954917908e-02 3.343041986227035522e-03 -1.780715584754943848e-02
2.680464088916778564e-02 2.558542229235172272e-02 -1.127495430409908295e-02
-5.959122441709041595e-03 -9.024195373058319092e-03 -1.487000752240419388e-02
-1.741908118128776550e-02 -3.293425589799880981e-02 -1.213265303522348404e-02
-2.018255926668643951e-02 1.663668826222419739e-02 1.807092875242233276e-02
-5.070327967405319214e-02 -1.333116367459297180e-02 -3.403199091553688049e-02
-2.192601561546325684e-02 -3.908980637788772583e-02 1.128050312399864197e-02
-2.470326796174049377e-02 -3.752657771110534668e-02 -2.094098553061485291e-02
-3.247195109724998474e-02 -4.178505390882492065e-02 -1.958259381353855133e-02
3.038228861987590790e-02 -5.124649032950401306e-02 1.956304535269737244e-02
1.265905424952507019e-02 1.572813466191291809e-02 -4.389022290706634521e-02
5.496772006154060364e-03 1.579083129763603210e-02 3.781126067042350769e-02
8.827036246657371521e-03 -4.917863011360168457e-02 -2.409063093364238739e-02
2.325490675866603851e-02 -3.853102028369903564e-02 -3.671645885333418846e-03
-3.999822214245796204e-02 8.358930237591266632e-03 6.504912674427032471e-02
-2.255161851644515991e-02 -2.292576991021633148e-02 2.624852769076824188e-02
-4.334318265318870544e-02 -2.649243175983428955e-02 -3.004709444940090179e-02
-4.526676610112190247e-02 -5.983081459999084473e-02 1.069710269803181291e-04
-3.287214413285255432e-02 2.933003124780952930e-04 5.205062776803970337e-02
-2.861204743385314941e-02 1.582877524197101593e-02 -1.095976028591394424e-02
-1.978792436420917511e-02 -1.180544588714838028e-02 -9.828483685851097107e-03
7.492988836020231247e-03 -1.117716450244188309e-02 -8.848619647324085236e-03
-1.752722077071666718e-02 -9.575957432389259338e-03 -1.613720692694187164e-02
-4.203542321920394897e-02 -9.312991052865982056e-03 2.560647949576377869e-02
1.541019044816493988e-02 2.289009839296340942e-02 -8.729271357879042625e-04
2.017987333238124847e-02 9.966865181922912598e-03 2.323270775377750397e-02
-3.573564812541007996e-02 -1.761676510795950890e-03 2.573342807590961456e-02
1.624697819352149963e-02 2.176152309402823448e-03 1.440241374075412750e-02
-1.453613489866256714e-02 -2.316391281783580780e-02 -2.019288716837763786e-03
-2.551655285060405731e-02 -1.947660557925701141e-02 -9.702907875180244446e-03
-2.987862564623355865e-02 3.753147553652524948e-03 2.280734293162822723e-02
-2.571642771363258362e-02 -1.813330687582492828e-02 1.204120833426713943e-02
1.846619136631488800e-02 -2.082030102610588074e-02 2.106324583292007446e-02
-1.691946946084499359e-02 4.564731381833553314e-03 -2.255397103726863861e-02
1.545983273535966873e-02 1.215133536607027054e-02 -1.412992947734892368e-03
-3.106001764535903931e-02 -1.705656386911869049e-02 -2.898437902331352234e-02
-1.882247999310493469e-02 3.221290186047554016e-02 2.420413866639137268e-02
3.717116080224514008e-03 -1.226122491061687469e-02 3.005917370319366455e-02
6.879604421555995941e-03 -2.387867309153079987e-02 9.180162101984024048e-03
6.748832762241363525e-03 1.485202740877866745e-02 -5.528337322175502777e-03
1.227995497174561024e-03 -1.840138435363769531e-02 3.316588699817657471e-02
-1.753754168748855591e-02 2.137968316674232483e-02 7.880393415689468384e-03
-7.903999648988246918e-03 -1.407282985746860504e-02 -1.174454391002655029e-02
-1.395677961409091949e-02 -2.948197536170482635e-03 -1.683541759848594666e-02
-3.587723895907402039e-02 2.430965751409530640e-02 8.124993182718753815e-03
-3.029983118176460266e-02 -1.681036315858364105e-02 -1.918493397533893585e-02
-3.679358214139938354e-02 1.424545980989933014e-02 2.021748945116996765e-02
-1.873731799423694611e-02 -4.236528649926185608e-03 -2.121718972921371460e-02
1.196935190819203854e-03 8.255411870777606964e-03 -8.494909852743148804e-03
-5.986840464174747467e-03 1.523052155971527100e-02 -1.373281981796026230e-02
4.798629786819219589e-03 -1.203462015837430954e-02 1.205393858253955841e-02
4.086828324943780899e-03 -3.189477836713194847e-03 -1.336356066167354584e-02
4.335222765803337097e-02 -1.082403678447008133e-02 -3.692413121461868286e-02
-3.441004455089569092e-02 -1.699338480830192566e-02 -4.761079326272010803e-02
-1.601250097155570984e-02 -2.583164721727371216e-02 -4.506623372435569763e-03
-7.346267998218536377e-02 -5.630907416343688965e-02 -2.505262615159153938e-03
-6.837727874517440796e-02 -1.097789034247398376e-01 -1.398554593324661255e-01
8.909742347896099091e-03 9.143294766545295715e-03 -5.516944918781518936e-03
1.307853218168020248e-02 6.944078952074050903e-03 -4.457155615091323853e-02
-1.182980556041002274e-02 -1.431039813905954361e-02 1.761949248611927032e-02
-6.020693480968475342e-02 -9.485134482383728027e-02 -2.917801588773727417e-02
6.812708452343940735e-03 -1.254931986331939697e-01 3.754599019885063171e-04
1.219399459660053253e-02 -3.643239662051200867e-02 4.564897343516349792e-02
-3.341887146234512329e-02 1.253374386578798294e-03 -6.364344153553247452e-03
-2.861618436872959137e-02 -7.638085633516311646e-02 -5.607186257839202881e-02
5.930927023291587830e-02 -5.769920069724321365e-03 -2.020678855478763580e-02
-2.818847447633743286e-02 -2.926099346950650215e-03 3.264503902755677700e-04
-2.614030987024307251e-02 2.654261700809001923e-02 -1.603371696546673775e-03
-2.369528263807296753e-02 -2.416895329952239990e-02 -6.832416355609893799e-02
-3.825247660279273987e-02 1.008566096425056458e-02 -5.299829877912998199e-03
1.493901247158646584e-03 -3.099458478391170502e-02 5.792022123932838440e-02
-3.465866297483444214e-02 -3.965291753411293030e-02 -1.471124403178691864e-02
4.241773486137390137e-02 5.407660501077771187e-04 3.348234109580516815e-03
-3.785588964819908142e-02 -2.229926362633705139e-02 8.527446538209915161e-02
4.896029457449913025e-02 2.538857236504554749e-02 -1.551635377109050751e-02
-2.810429967939853668e-02 2.373217837885022163e-03 -4.599746689200401306e-02
4.219374433159828186e-02 4.776036832481622696e-03 2.831846103072166443e-02
2.525420486927032471e-02 -1.440348010510206223e-02 6.366167217493057251e-02
-3.227075934410095215e-02 -5.722429975867271423e-02 4.271492362022399902e-02
5.390559881925582886e-02 -2.881575189530849457e-02 -1.667870767414569855e-02
-2.008944749832153320e-02 -2.997200377285480499e-02 -4.650039598345756531e-02
-5.681309849023818970e-02 -1.701642572879791260e-02 2.575050480663776398e-02
6.972200423479080200e-02 2.325988933444023132e-02 2.305610850453376770e-02
-2.889034338295459747e-02 1.705669797956943512e-02 -1.133834943175315857e-02
-2.817525900900363922e-02 -3.219895809888839722e-02 -2.675587544217705727e-03
-1.164184510707855225e-02 3.158556669950485229e-02 -3.122846968472003937e-02
1.418403349816799164e-02 -1.070345938205718994e-02 -2.472713403403759003e-02
-9.299058467149734497e-03 5.796106532216072083e-03 -3.817341104149818420e-02
-2.295406721532344818e-02 4.132689535617828369e-02 6.648911163210868835e-03
-3.421522676944732666e-02 -5.977886728942394257e-03 1.428602449595928192e-02
3.659554570913314819e-02 -2.245712839066982269e-02 -2.115053310990333557e-02
1.358790695667266846e-02 1.695395633578300476e-02 -7.543266285210847855e-03
1.188099384307861328e-03 -4.627579823136329651e-02 -3.446296229958534241e-02
6.624446809291839600e-02 -5.125066265463829041e-03 7.440247386693954468e-02
1.536331884562969208e-02 -3.248711302876472473e-02 -3.493088856339454651e-02
2.651195507496595383e-03 -8.993842639029026031e-03 -1.625518873333930969e-02
-2.317909523844718933e-02 1.334203500300645828e-02 -1.944115571677684784e-02
3.205544874072074890e-02 -1.165974419564008713e-02 -1.020613312721252441e-02
7.020731456577777863e-03 -1.939414814114570618e-02 2.753242105245590210e-02
7.317831274121999741e-03 1.175074931234121323e-02 -8.979690261185169220e-03
2.468644455075263977e-02 1.650482416152954102e-03 3.016382269561290741e-02
-3.346297307871282101e-05 8.709029294550418854e-03 1.675041392445564270e-02
-1.706833206117153168e-02 2.764414995908737183e-02 -3.714555129408836365e-02
-9.936915710568428040e-03 -3.853800008073449135e-03 -9.818083606660366058e-03
1.028213067911565304e-03 -1.608356833457946777e-04 3.386781737208366394e-02
-2.428717166185379028e-02 -1.784765534102916718e-02 -3.183611854910850525e-02
-4.476827755570411682e-02 -3.255473822355270386e-02 -2.950413711369037628e-02
4.106597602367401123e-02 1.643906533718109131e-02 1.032240316271781921e-02
-3.828674927353858948e-02 -6.248323712497949600e-03 -1.693036034703254700e-02
-2.734711021184921265e-02 -8.120827376842498779e-03 1.312866457737982273e-03
5.966697633266448975e-02 -7.603022735565900803e-03 5.110384151339530945e-02
-1.353641785681247711e-02 -2.392485737800598145e-02 8.660820312798023224e-03
-3.700168430805206299e-02 -3.876760601997375488e-02 -3.246945515275001526e-02
-9.100701659917831421e-03 2.097061835229396820e-02 -3.164719417691230774e-02
3.115796018391847610e-03 -1.845856383442878723e-02 7.921226322650909424e-03
1.003032736480236053e-02 3.907908219844102859e-03 9.938705712556838989e-03
-7.215518504381179810e-02 -9.967511519789695740e-03 5.647714808583259583e-02
1.838037744164466858e-02 2.637962065637111664e-02 -2.653244882822036743e-02
-4.108830355107784271e-03 2.213371917605400085e-02 -2.879292890429496765e-02
-2.454644627869129181e-02 -2.044057846069335938e-02 -2.007870934903621674e-02
3.516832739114761353e-02 -3.210588544607162476e-02 -3.860990330576896667e-02
-2.407978475093841553e-02 2.323755994439125061e-02 3.198743239045143127e-02
-1.348788291215896606e-02 -2.048878185451030731e-02 -2.506518736481666565e-02
2.828046272043138742e-04 -1.616119779646396637e-02 -2.959086187183856964e-02
2.209240384399890900e-02 -1.047811936587095261e-02 1.496639661490917206e-02
-1.375058293342590332e-01 -2.763085067272186279e-02 8.069450408220291138e-02
-4.553026705980300903e-02 1.719591207802295685e-02 -1.863207481801509857e-02
2.818319201469421387e-02 2.174583449959754944e-02 -2.491796948015689850e-02
2.652298845350742340e-02 -2.268657274544239044e-02 -4.133104905486106873e-02
1.024280395358800888e-02 -2.160911681130528450e-04 1.818723231554031372e-02
3.804833069443702698e-02 1.191235240548849106e-02 1.650719530880451202e-02
-1.220421772450208664e-02 2.564641647040843964e-02 -2.907706797122955322e-02
3.117436915636062622e-02 2.136553265154361725e-02 3.938634321093559265e-02
-1.719857752323150635e-02 1.996783725917339325e-02 4.345321562141180038e-03
-6.030810531228780746e-03 3.136583045125007629e-02 1.200683042407035828e-02
7.669971790164709091e-03 3.113334439694881439e-02 -1.030914764851331711e-02
8.064697613008320332e-04 1.015258673578500748e-02 1.273003220558166504e-02
-5.296385288238525391e-02 -1.873560063540935516e-02 7.150101591832935810e-04
-2.396487444639205933e-02 3.171749785542488098e-02 2.076324075460433960e-02
4.728978872299194336e-02 3.792810486629605293e-03 -2.368283085525035858e-02
-7.135740667581558228e-02 -2.625359036028385162e-02 2.637025900185108185e-02
-6.786495447158813477e-02 -1.130157336592674255e-02 5.520253255963325500e-02
-9.939373284578323364e-02 5.302296951413154602e-03 2.388985268771648407e-02
-2.813718281686306000e-02 1.437538582831621170e-02 -1.456445362418889999e-02
7.116892375051975250e-03 2.976732887327671051e-02 -3.024245379492640495e-03
-1.104184333235025406e-02 2.539082663133740425e-03 -2.061292296275496483e-03
-2.778146788477897644e-02 1.718465611338615417e-02 -1.610540412366390228e-02
1.668481715023517609e-02 -2.796208113431930542e-02 1.532312016934156418e-02