-5.614790692925453186e-02
-6.196937337517738342e-02
1.015064679086208344e-02
-1.324246544390916824e-02
-4.260259494185447693e-02
-2.509677223861217499e-02
2.340749837458133698e-03
1.446237117052078247e-01
-5.466815084218978882e-02
-4.372191056609153748e-02
5.951742082834243774e-02
7.194683700799942017e-02
-1.273031830787658691e-01
-5.705304443836212158e-02
-2.420610040426254272e-01
-4.614597186446189880e-02
-5.396483838558197021e-02
-4.242580011487007141e-02
2.255422621965408325e-02
-3.117598593235015869e-03
-9.825056046247482300e-02
1.276071220636367798e-01
-6.815815344452857971e-03
-3.340317052789032459e-04
3.506260365247726440e-02
2.412599697709083557e-02
-6.406400352716445923e-02
-1.586131155490875244e-01
1.689327694475650787e-02
-1.395561248064041138e-01
2.376345172524452209e-02
2.598257735371589661e-03
1.536115556955337524e-01 -1.196208447217941284e-01 -8.428797870874404907e-02 1.436910629272460938e-01
-1.702289432287216187e-01 2.371469587087631226e-01 -9.503637254238128662e-02 1.293121725320816040e-01
-9.694346785545349121e-02 -1.151311770081520081e-01 -4.112037643790245056e-02 1.945762932300567627e-01
-1.068829078576527536e-04 -3.480832651257514954e-02 -1.679889857769012451e-02 1.949504911899566650e-01
1.236133053898811340e-01 3.343496099114418030e-02 -4.680731520056724548e-02 7.471306622028350830e-02
8.334012329578399658e-02 3.946363867726176977e-04 -1.512646526098251343e-01 2.152821719646453857e-01
1.516984105110168457e-01 -2.751550823450088501e-02 1.991187334060668945e-01 -2.233552932739257812e-01
2.851100265979766846e-01 -1.529579907655715942e-01 4.062701016664505005e-02 -9.482938796281814575e-02
-8.312509162351489067e-04 -9.221866726875305176e-02 1.726641654968261719e-01 -2.534970939159393311e-01
-5.666207522153854370e-02 1.191691216081380844e-02 4.290278851985931396e-01 -3.650450110435485840e-01
-1.050732508301734924e-01 1.078324988484382629e-01 1.838326156139373779e-01 -1.004976704716682434e-01
1.618873924016952515e-01 5.839482694864273071e-02 -3.639827370643615723e-01 1.895679086446762085e-01
-2.062014192342758179e-01 7.796943932771682739e-02 1.226591784507036209e-02 -7.211299985647201538e-02
2.397222816944122314e-01 -1.391024142503738403e-01 -9.308318048715591431e-02 -2.415179042145609856e-03
2.689789235591888428e-01 -3.019128739833831787e-01 -2.589520215988159180e-01 3.239835202693939209e-01
-6.320746988058090210e-02 -4.461023490875959396e-03 -4.563328623771667480e-02 3.544779121875762939e-02
3.603516891598701477e-02 5.219968035817146301e-02 1.771570742130279541e-01 -2.290540635585784912e-01
-6.574530899524688721e-02 2.193647623062133789e-01 -1.064226329326629639e-01 -5.559716746211051941e-02
7.582586258649826050e-02 -9.571550041437149048e-02 1.393051072955131531e-02 -1.260897815227508545e-01
-3.884470090270042419e-02 -1.345241367816925049e-01 -1.334198266267776489e-01 2.801238596439361572e-01
2.432674914598464966e-01 -1.978821307420730591e-01 -9.385918080806732178e-02 -3.155472129583358765e-02
-3.894743621349334717e-01 2.095893621444702148e-01 1.037928536534309387e-01 2.476733736693859100e-02
6.716108322143554688e-02 4.080843180418014526e-02 -4.960398375988006592e-02 1.200070530176162720e-01
3.310072049498558044e-02 -1.386739015579223633e-01 -3.469367697834968567e-02 2.452166974544525146e-01
-4.572004452347755432e-02 -6.589396297931671143e-02 1.152620092034339905e-01 1.313999295234680176e-01
2.313932031393051147e-01 -5.592799559235572815e-02 9.602802246809005737e-02 -2.768571078777313232e-01
1.368266493082046509e-01 -1.405450794845819473e-02 1.250292956829071045e-01 -2.648280560970306396e-01
-1.322296261787414551e-01 4.849400818347930908e-01 -7.208127975463867188e-01 3.743049502372741699e-01
-2.488730400800704956e-01 4.221842586994171143e-01 -1.186100691556930542e-01 -1.394099444150924683e-01
3.706850409507751465e-01 -7.805727124214172363e-01 6.102209091186523438e-01 -1.826874911785125732e-01
-3.500313758850097656e-01 3.198297321796417236e-01 -2.323453873395919800e-01 2.459342032670974731e-01
4.134325683116912842e-02 -4.813815280795097351e-02 -4.888874827884137630e-04 -7.952491939067840576e-02