7.059293985366821289e-02
6.677236407995223999e-03
4.320251569151878357e-02
9.911823272705078125e-02
6.633414886891841888e-03
2.298803478479385376e-01
2.690675854682922363e-01
9.582126140594482422e-02
2.646364830434322357e-02
-1.180753391236066818e-02
3.662441968917846680e-01
4.904608726501464844e-01
-3.298813849687576294e-02
1.438426226377487183e-01
4.029243811964988708e-02
7.938365638256072998e-02
-1.889765262603759766e-02
-1.035016868263483047e-02
3.106909804046154022e-02
5.741640180349349976e-02
1.072817221283912659e-01
1.320922281593084335e-02
5.317232757806777954e-02
-8.035019785165786743e-02
2.464395249262452126e-03
6.350128352642059326e-02
6.536933593451976776e-03
3.862969577312469482e-02
-5.373987555503845215e-02
1.919154747156426311e-04
3.713112697005271912e-02
1.549325883388519287e-01
-1.146872416138648987e-01 -1.073587536811828613e-01 9.444590657949447632e-02 -7.272257655858993530e-02
-7.197126746177673340e-02 -2.568525075912475586e-02 -2.861529961228370667e-02 1.121433377265930176e-01
-8.794822543859481812e-02 -4.967395588755607605e-02 -7.953070849180221558e-02 2.111148275434970856e-02
-7.554460782557725906e-03 -3.265341743826866150e-02 -1.250823261216282845e-03 -2.016683854162693024e-02
-1.534899324178695679e-02 -4.857540875673294067e-02 -8.002755790948867798e-02 -2.556367777287960052e-03
9.584700316190719604e-02 1.130582951009273529e-02 -7.235793769359588623e-02 1.031270325183868408e-01
9.759382903575897217e-02 -3.860586788505315781e-03 -8.405725657939910889e-02 -1.660540997982025146e-01
6.695550400763750076e-03 -2.922602556645870209e-02 6.578714400529861450e-02 2.815283834934234619e-02
4.648016765713691711e-03 2.343584597110748291e-02 -2.840521931648254395e-02 3.223868831992149353e-02
-2.118122577667236328e-01 -3.152329847216606140e-02 -6.108226999640464783e-02 -9.155369549989700317e-02
-1.115932408720254898e-02 -4.989119991660118103e-02 -8.153896033763885498e-02 2.447307482361793518e-02
-3.029411658644676208e-02 -1.845069229602813721e-02 3.026652149856090546e-02 -1.768172159790992737e-02
-1.091757118701934814e-01 3.657476603984832764e-02 1.057409308850765228e-02 5.146936164237558842e-04
6.685189902782440186e-02 -2.081373706459999084e-02 1.060670986771583557e-01 9.019033052027225494e-03
-8.243607729673385620e-02 -3.437882405705749989e-04 -2.909709326922893524e-02 -4.076560586690902710e-02
-1.101688295602798462e-01 -4.055923968553543091e-02 -5.099058523774147034e-02 -6.368657946586608887e-02
-4.398167133331298828e-03 -9.279696643352508545e-02 -3.529454022645950317e-02 -5.697998683899641037e-03
9.812268614768981934e-02 3.785614296793937683e-02 -5.672322213649749756e-02 -8.282988518476486206e-02
2.511952817440032959e-02 5.958773568272590637e-02 -3.993893414735794067e-02 -9.476396441459655762e-02
-2.938643842935562134e-02 1.263955887407064438e-02 6.845188909210264683e-04 -1.431649830192327499e-02
6.073069199919700623e-02 -9.815538674592971802e-02 -9.004056453704833984e-03 -8.893314749002456665e-02
8.950729668140411377e-02 -8.080167323350906372e-02 2.364901453256607056e-02 5.741107836365699768e-02
-3.923226892948150635e-02 5.151073634624481201e-02 4.470475390553474426e-02 -1.348557621240615845e-01
-7.329551875591278076e-02 -5.209821835160255432e-02 6.117388978600502014e-02 -1.236245594918727875e-02
9.335524588823318481e-02 4.307978600263595581e-02 -4.759987816214561462e-02 -1.698614656925201416e-01
1.455824356526136398e-02 -7.692255079746246338e-03 -1.003430932760238647e-01 2.955702133476734161e-02
-7.169910520315170288e-02 -2.428707480430603027e-02 -5.388469900935888290e-03 9.659619070589542389e-03
7.284694164991378784e-02 -4.234267771244049072e-02 1.159787923097610474e-02 -7.108073681592941284e-02
2.169196121394634247e-02 3.096923604607582092e-02 2.957476675510406494e-02 3.718603402376174927e-02
7.646787445992231369e-03 -3.426271304488182068e-02 8.034001290798187256e-02 3.581895679235458374e-02
-1.439205836504697800e-02 1.560363685712218285e-03 -2.582259476184844971e-03 2.785768546164035797e-02
7.201330363750457764e-02 -3.132992610335350037e-02 -2.939594909548759460e-03 -7.994373887777328491e-02
2.445284510031342506e-03 -2.344408072531223297e-02 1.581642217934131622e-02 -2.356589073315262794e-03
8.409612812101840973e-03 2.037672325968742371e-02 2.433285862207412720e-02 9.250758215785026550e-03
-4.223139490932226181e-03 -3.040478378534317017e-02 9.091889369301497936e-04 4.847774282097816467e-03
3.563859267160296440e-03 -2.732951380312442780e-02 1.391779538244009018e-02 -1.100807636976242065e-02
-1.057146489620208740e-02 5.661347415298223495e-03 -3.323576971888542175e-02 3.452371805906295776e-02
5.375108681619167328e-03 2.922421507537364960e-02 2.079957909882068634e-02 1.119456626474857330e-02
2.379085868597030640e-02 -6.120324833318591118e-04 3.283739555627107620e-03 -1.881658099591732025e-02
1.463117357343435287e-02 1.309244986623525620e-02 2.078437805175781250e-02 -3.251841664314270020e-02
-9.315455332398414612e-03 -1.345417182892560959e-02 -1.652256026864051819e-02 -1.128037646412849426e-02
-2.153798565268516541e-02 -4.200306534767150879e-02 -2.333841472864151001e-02 -1.058432552963495255e-02
2.582032233476638794e-02 -1.201351056806743145e-03 -1.189629826694726944e-02 -2.370978705585002899e-02
2.828018274158239365e-03 2.562832552939653397e-03 -1.441490184515714645e-02 8.104601292870938778e-04
1.219547539949417114e-02 -2.744873054325580597e-02 -2.247437275946140289e-02 2.610924467444419861e-02
-1.692963577806949615e-02 -2.870952710509300232e-02 -1.962739787995815277e-02 -9.782534092664718628e-03
-2.729674743022769690e-04 1.340476737823337317e-04 -2.275005390401929617e-04 8.480754680931568146e-03
2.261833474040031433e-02 2.137707546353340149e-03 1.394683215767145157e-02 2.321438677608966827e-02
5.279377102851867676e-03 -2.328550443053245544e-02 3.198844194412231445e-02 -1.322242803871631622e-02
-1.044730748981237411e-02 1.568815298378467560e-02 2.188788168132305145e-02 2.505841851234436035e-02
-6.816545035690069199e-03 -5.659662652760744095e-03 -2.466484438627958298e-04 -1.605259627103805542e-02
-3.844362869858741760e-02 1.103520160540938377e-03 -2.497007697820663452e-02 1.911548338830471039e-02
-2.386004291474819183e-02 -3.230048716068267822e-02 6.280800327658653259e-03 -3.077183105051517487e-02
-2.611339092254638672e-02 -3.483098745346069336e-02 -4.187564924359321594e-02 -3.575600311160087585e-02
-9.354660287499427795e-03 8.618443273007869720e-03 -6.239406764507293701e-03 1.114539336413145065e-02
5.794854834675788879e-03 -9.889819659292697906e-03 9.652401320636272430e-03 -1.912859827280044556e-02
-3.783711581490933895e-04 7.986076176166534424e-03 -2.309612929821014404e-02 -7.789061404764652252e-03
6.698578130453824997e-03 -2.572090178728103638e-02 -1.415223162621259689e-02 -2.572294138371944427e-02
-3.075443021953105927e-02 -2.238203026354312897e-02 3.418056992813944817e-03 6.595933344215154648e-03
-8.068524301052093506e-03 1.057372801005840302e-02 1.059137843549251556e-02 7.308788597583770752e-03
-1.773847639560699463e-02 -3.935467451810836792e-02 -1.909702830016613007e-02 -9.109592996537685394e-03
-1.574922353029251099e-02 1.259254384785890579e-02 -3.793670330196619034e-03 -1.678793341852724552e-03
2.782895229756832123e-02 1.025689579546451569e-02 3.070889040827751160e-03 -6.988292559981346130e-03
1.979771256446838379e-02 3.709121374413371086e-03 8.069327101111412048e-03 -9.005018509924411774e-03
-1.983211748301982880e-02 1.330533809959888458e-02 -1.538082258775830269e-03 -6.992857903242111206e-03
-4.222869407385587692e-03 -4.859664011746644974e-03 1.410480495542287827e-02 1.057724095880985260e-02
-1.832273416221141815e-02 1.822838187217712402e-02 -2.801823429763317108e-02 2.798025496304035187e-02
-9.500578977167606354e-03 9.765828028321266174e-03 1.511777169071137905e-03 2.338684396818280220e-03
-1.727445051074028015e-02 -2.629474364221096039e-02 -4.103358834981918335e-03 8.093576878309249878e-03
7.154120248742401600e-04 -1.977966539561748505e-02 2.110429666936397552e-02 -3.447028109803795815e-03
3.025314025580883026e-02 6.571790436282753944e-04 -1.031306479126214981e-02 -6.771489046514034271e-03
1.460586115717887878e-02 4.043284803628921509e-03 3.613450564444065094e-03 1.611573062837123871e-02
1.074773259460926056e-02 -1.217358279973268509e-02 6.250887177884578705e-03 2.757588773965835571e-02
-3.231285139918327332e-02 -2.147219516336917877e-02 -1.956895925104618073e-02 -1.275914907455444336e-02
-2.103325212374329567e-03 -3.193658543750643730e-03 -3.768889978528022766e-02 -2.023446001112461090e-02
-1.731575839221477509e-02 -1.299428753554821014e-02 -1.435745693743228912e-02 2.469492144882678986e-03
-5.712363054044544697e-04 -2.091551199555397034e-02 8.303414098918437958e-03 1.864805235527455807e-03
-2.083317190408706665e-02 -2.635603584349155426e-02 -1.409931574016809464e-02 5.878522060811519623e-03
-7.194309495389461517e-03 -2.543045580387115479e-02 1.271107350476086140e-03 2.129694446921348572e-02
3.976723179221153259e-03 2.285964787006378174e-02 -6.833894876763224602e-04 1.939188130199909210e-02
1.396909542381763458e-02 -1.082049682736396790e-02 -2.995670214295387268e-02 -7.210828363895416260e-03
2.728276327252388000e-02 4.013531282544136047e-02 5.504013970494270325e-03 4.667213931679725647e-02
4.273829516023397446e-03 -1.397523656487464905e-02 2.786352066323161125e-03 -1.478394586592912674e-02
-3.016281500458717346e-02 1.148491818457841873e-02 -2.876468747854232788e-02 1.028737705200910568e-02
3.279262222349643707e-03 -9.749968536198139191e-03 -1.465722080320119858e-02 1.155574154108762741e-02
-1.888901554048061371e-02 -1.269180793315172195e-02 1.149918232113122940e-02 -2.407184615731239319e-02
-1.957633346319198608e-02 -4.711615387350320816e-03 -9.331632405519485474e-03 3.777118027210235596e-02
-4.773400258272886276e-03 9.287439286708831787e-03 -1.013553701341152191e-02 -1.476327423006296158e-02
7.918106392025947571e-03 1.152558904141187668e-02 2.133912593126296997e-02 -3.298552241176366806e-03
3.032163158059120178e-02 -1.837573759257793427e-02 3.122313413769006729e-03 3.270140662789344788e-02
-1.011153310537338257e-02 -1.363344257697463036e-03 1.984681747853755951e-02 3.752156347036361694e-02
1.775559037923812866e-02 -8.840519003570079803e-03 -8.179786615073680878e-03 1.601313054561614990e-02
-1.870581880211830139e-02 -1.493255328387022018e-02 -2.917307987809181213e-02 -7.454689592123031616e-03
-7.266208995133638382e-04 -2.096804976463317871e-02 2.120488323271274567e-02 1.787725370377302170e-03
1.776511035859584808e-02 3.446334600448608398e-02 1.718765310943126678e-02 -8.828881196677684784e-03
1.849680580198764801e-02 1.093074679374694824e-02 -1.288162660785019398e-03 -5.106171220541000366e-02
1.184879988431930542e-02 1.539504714310169220e-02 -1.453169435262680054e-01 -2.462556399405002594e-02
-1.325290054082870483e-01 -1.274163424968719482e-01 -1.086817160248756409e-01 2.525588683784008026e-02
4.264964256435632706e-03 1.371309347450733185e-02 5.986833572387695312e-02 -3.273933380842208862e-02
-1.026716083288192749e-01 -5.842316895723342896e-02 -4.810443520545959473e-02 -9.410604089498519897e-02
-1.577311428263783455e-03 -2.655624784529209137e-02 -3.984938375651836395e-03 3.948767483234405518e-02
5.556100234389305115e-02 -3.115618834272027016e-03 -3.772543370723724365e-02 -6.143495067954063416e-02
-9.206859767436981201e-02 -3.758816793560981750e-02 -7.801513373851776123e-02 -4.338051006197929382e-02
-2.669494040310382843e-02 2.560396865010261536e-02 -2.822518534958362579e-02 2.624481450766324997e-03
-1.806778274476528168e-02 -5.233077704906463623e-02 -5.013854801654815674e-02 -5.529566481709480286e-02
-1.195146292448043823e-01 -5.603697896003723145e-02 -9.827868640422821045e-02 -1.192475929856300354e-01
-1.595821231603622437e-02 -5.500788614153862000e-02 -1.923677325248718262e-02 1.625499688088893890e-02
3.375282138586044312e-02 -2.166444202885031700e-03 1.507656276226043701e-02 7.063281722366809845e-03
6.668170914053916931e-03 4.008717834949493408e-02 2.317055128514766693e-02 6.510844081640243530e-02
-3.598330542445182800e-02 2.628054656088352203e-02 5.606088042259216309e-02 2.429149171803146601e-04
-2.158256992697715759e-02 -3.203505277633666992e-02 2.104981988668441772e-02 1.442542113363742828e-02
-8.835953474044799805e-02 3.473895043134689331e-02 2.394346287474036217e-03 7.521042972803115845e-02
3.574871644377708435e-02 -5.282280500978231430e-03 -2.662169560790061951e-02 3.284283354878425598e-02
-3.499807044863700867e-02 -6.221457570791244507e-02 -1.861594989895820618e-02 -8.054753392934799194e-02
8.922482840716838837e-03 4.270372539758682251e-02 -1.040276326239109039e-02 -5.924889445304870605e-02
8.167196065187454224e-02 5.639533326029777527e-02 -5.082080513238906860e-02 -5.318610742688179016e-02
-5.467164888978004456e-02 -1.980918832123279572e-02 7.696287240833044052e-03 -2.961827255785465240e-02
2.455754205584526062e-02 5.627387017011642456e-02 6.469776481389999390e-02 5.462465807795524597e-02
-2.333315089344978333e-02 -4.224668443202972412e-02 -7.964060455560684204e-02 -4.765358939766883850e-02
-3.723363950848579407e-02 -5.028787534683942795e-03 1.019857474602758884e-03 3.930580802261829376e-03
2.661669440567493439e-02 3.767269849777221680e-02 9.782256186008453369e-02 -7.151875179260969162e-03
4.380573704838752747e-02 5.840168148279190063e-02 -5.666485987603664398e-03 -6.817055493593215942e-02
-6.091859936714172363e-02 5.889733321964740753e-03 1.218084059655666351e-02 -1.109180971980094910e-01
-5.444196239113807678e-02 -4.651806876063346863e-02 -2.842068672180175781e-02 -5.942931398749351501e-02
2.620203047990798950e-02 2.421992644667625427e-02 2.320706099271774292e-02 5.184786394238471985e-02
-1.647281832993030548e-02 7.152564823627471924e-02 -5.518106371164321899e-02 -9.790487587451934814e-02
-3.893573209643363953e-02 -1.078205648809671402e-02 3.415187820792198181e-02 1.712355762720108032e-02
7.395575195550918579e-02 -2.628640457987785339e-02 2.306048385798931122e-02 -1.286666654050350189e-02
5.503141507506370544e-02 -5.172359570860862732e-02 -6.228992715477943420e-02 -7.502384483814239502e-02
3.179988125339150429e-03 -1.299244444817304611e-02 -3.972956538200378418e-02 -3.470696881413459778e-02
-7.649046927690505981e-02 -1.510676555335521698e-02 5.672642961144447327e-02 -7.838223129510879517e-03
1.103971805423498154e-02 1.747118495404720306e-02 1.580248959362506866e-02 -1.120170205831527710e-02
2.461993834003806114e-03 1.973479054868221283e-02 4.035443067550659180e-02 -1.993816532194614410e-02
-8.415475487709045410e-03 -4.448418319225311279e-02 4.315662756562232971e-02 3.860699757933616638e-02
-9.262957423925399780e-02 -2.962736971676349640e-02 -4.135353863239288330e-02 8.722458034753799438e-03
-2.222569659352302551e-02 -2.286070026457309723e-02 -3.326616808772087097e-02 -1.918553374707698822e-02
3.490446880459785461e-02 2.544079720973968506e-02 5.563125014305114746e-03 -3.357760235667228699e-02
5.723300203680992126e-02 5.457860603928565979e-02 2.570364065468311310e-02 -2.368546556681394577e-03
-3.262102976441383362e-02 -2.017098665237426758e-02 -6.197488307952880859e-02 2.565056458115577698e-02
5.839944351464509964e-03 1.635755784809589386e-02 -1.411911915056407452e-03 6.113985553383827209e-03
1.672335527837276459e-02 2.890988625586032867e-02 -4.774440079927444458e-02 -2.818680927157402039e-02
-1.582601480185985565e-02 1.513697858899831772e-02 -3.373727947473526001e-02 2.906785719096660614e-02
8.551478385925292969e-02 -3.217272460460662842e-02 -4.459867626428604126e-02 -3.364574164152145386e-02
-6.064919754862785339e-02 -1.100452095270156860e-01 -8.872896432876586914e-02 -7.519435882568359375e-02
-8.130373805761337280e-02 -1.345756556838750839e-02 -2.028783038258552551e-02 -2.436943911015987396e-02
-4.713845625519752502e-02 1.336294878274202347e-02 6.281781196594238281e-02 -7.101789116859436035e-03
4.550398141145706177e-02 -1.347973849624395370e-02 3.419825807213783264e-02 -3.170515969395637512e-02
5.219229683279991150e-02 -4.029699414968490601e-02 -1.493696821853518486e-03 4.495193809270858765e-02
-3.423938155174255371e-02 -1.925665885210037231e-02 -7.207011431455612183e-02 3.541983291506767273e-02
-5.810778215527534485e-02 -7.725357078015804291e-03 -3.939795866608619690e-02 -1.672191917896270752e-02
2.904316410422325134e-03 -1.126943621784448624e-02 -8.928512781858444214e-02 4.306298680603504181e-03
-4.821613430976867676e-02 8.693489362485706806e-04 7.647794205695390701e-03 9.011449292302131653e-03
-5.234565213322639465e-02 -4.090925306081771851e-02 -9.595239534974098206e-03 3.831580281257629395e-02
-1.246385090053081512e-02 8.707178756594657898e-03 -6.043341755867004395e-02 1.427159085869789124e-02
-5.514692887663841248e-02 -3.535022586584091187e-02 -4.109711199998855591e-02 -3.953225165605545044e-02
-2.850700728595256805e-02 2.883554436266422272e-02 -6.670722737908363342e-03 4.935548081994056702e-02
9.867595508694648743e-03 3.096761740744113922e-02 -4.864152893424034119e-02 -3.857339918613433838e-02
-8.724594861268997192e-02 -4.220380261540412903e-02 -2.753222174942493439e-02 -2.110709901899099350e-03
-6.993210315704345703e-02 -2.059082314372062683e-02 9.461911022663116455e-02 1.177323167212307453e-03
1.975145936012268066e-02 1.323765050619840622e-02 8.375191129744052887e-03 -1.887738518416881561e-02
-7.765296846628189087e-02 -6.839652359485626221e-02 -1.089161559939384460e-01 -1.492352187633514404e-01
1.540032122284173965e-02 -1.288071088492870331e-02 -4.482219368219375610e-02 -3.314365074038505554e-02
3.649143874645233154e-02 -1.584722474217414856e-02 1.037110202014446259e-02 7.623984664678573608e-02
-4.259237274527549744e-02 -4.652360454201698303e-03 4.544240236282348633e-02 8.789623156189918518e-03
-1.918985322117805481e-02 2.448664046823978424e-02 3.828497603535652161e-02 5.541372671723365784e-02
-8.326341211795806885e-02 -6.901852041482925415e-02 -5.075293406844139099e-02 -2.632795274257659912e-02
9.739433228969573975e-02 1.854535005986690521e-02 -2.287165261805057526e-02 -3.186642378568649292e-02
-3.775664418935775757e-02 -9.785293042659759521e-02 -4.260497167706489563e-02 3.377941623330116272e-02
-1.726797595620155334e-02 -5.748189240694046021e-02 -5.406453460454940796e-02 -4.919316247105598450e-02
1.314633246511220932e-02 -4.012356325984001160e-02 -7.423490285873413086e-02 2.552657388150691986e-02
-1.501910388469696045e-02 -1.084904279559850693e-02 -3.189820051193237305e-02 3.570500016212463379e-02
5.500767752528190613e-02 2.843721583485603333e-02 3.195248916745185852e-02 1.211332064121961594e-02
-7.427383214235305786e-03 2.651916444301605225e-02 3.055725432932376862e-02 -2.055960893630981445e-02
7.475492358207702637e-02 4.325402900576591492e-02 2.679625898599624634e-02 1.254400312900543213e-01
-2.631591819226741791e-02 1.508754771202802658e-02 -1.341746188700199127e-02 6.395144388079643250e-03
9.340919554233551025e-03 -8.216237649321556091e-03 7.484040688723325729e-03 7.964382530190050602e-05
-7.251280476339161396e-04 -8.473253808915615082e-03 -1.073999702930450439e-01 -6.959436088800430298e-02
-8.863510191440582275e-02 5.461614951491355896e-02 2.944588474929332733e-02 4.256259649991989136e-02
4.203109443187713623e-02 1.770392805337905884e-02 -1.143759023398160934e-02 1.713050901889801025e-02
-7.584937382489442825e-03 8.387966081500053406e-03 -3.489523380994796753e-02 -4.685723781585693359e-02
-6.614976376295089722e-02 2.328292094171047211e-02 -9.617958217859268188e-02 -5.288520082831382751e-02
-1.003880798816680908e-01 2.136949636042118073e-02 -4.430632572621107101e-03 9.542793035507202148e-03
-2.776809036731719971e-02 -3.777221962809562683e-02 3.503571078181266785e-02 -1.869957707822322845e-02
-4.667510464787483215e-02 7.081742398440837860e-03 -7.630632608197629452e-04 6.617715582251548767e-03
5.645595490932464600e-03 2.382753789424896240e-02 5.148783326148986816e-02 7.377967238426208496e-02
1.432251930236816406e-02 7.453456521034240723e-02 7.733771950006484985e-02 -3.704531490802764893e-02
-1.115336492657661438e-01 -3.848223015666007996e-02 -1.323843374848365784e-02 1.162268146872520447e-01
3.266060259193181992e-03 7.516432553529739380e-02 1.005682535469532013e-02 -8.893963880836963654e-03
-8.257346600294113159e-02 -1.004811152815818787e-01 3.471159376204013824e-03 -7.596579194068908691e-02
-1.214454546570777893e-01 -3.125746548175811768e-02 1.630550809204578400e-02 7.708885520696640015e-02
-6.180514767765998840e-02 -4.053330793976783752e-02 -3.385255485773086548e-02 -4.642770439386367798e-02
1.583006232976913452e-01 7.953843101859092712e-03 -8.203198760747909546e-02 -1.350682228803634644e-01
-7.568464428186416626e-02 -1.046765223145484924e-01 -1.124122664332389832e-01 -7.967419177293777466e-02
-4.816312715411186218e-02 -7.921192795038223267e-03 6.022990867495536804e-02 -2.003220841288566589e-02
-6.656086444854736328e-02 2.175004221498966217e-02 2.677174098789691925e-02 3.743785619735717773e-02
-3.568289801478385925e-02 -7.482687383890151978e-02 5.325478035956621170e-03 -5.215493589639663696e-02
-1.589612513780593872e-01 -2.068929374217987061e-01 -1.398886293172836304e-01 -1.625921130180358887e-01
-5.623757466673851013e-02 -2.755190245807170868e-02 6.224057171493768692e-03 1.042270958423614502e-01
-4.897064715623855591e-02 2.344671264290809631e-02 -2.666207216680049896e-02 -1.392192393541336060e-02
3.641123417764902115e-03 4.957879334688186646e-02 6.667349953204393387e-03 4.337903857231140137e-02
-6.086401175707578659e-03 -8.639569580554962158e-02 -6.750122457742691040e-02 2.823321521282196045e-02
3.859829530119895935e-02 -1.930855773389339447e-02 3.214490413665771484e-02 -4.686130210757255554e-02
-3.712165728211402893e-02 -4.931447654962539673e-02 -2.389530651271343231e-02 7.320504635572433472e-02
1.108305752277374268e-01 3.959836810827255249e-02 6.537206470966339111e-02 -5.498355627059936523e-02
-3.413230879232287407e-03 6.378860678523778915e-03 1.908412389457225800e-02 -1.577038690447807312e-02
1.238608639687299728e-02 4.919263534247875214e-03 -1.654124632477760315e-02 1.747667975723743439e-02
-2.916813828051090240e-02 3.441933169960975647e-02 6.039984896779060364e-02 -3.828949853777885437e-02
-7.853212766349315643e-03 -9.642367251217365265e-03 -4.104497656226158142e-02 3.565194457769393921e-02
-8.668246865272521973e-02 -5.636169016361236572e-02 -5.562375858426094055e-02 -9.403979033231735229e-02
-3.737441450357437134e-02 -1.840035314671695232e-03 -2.743056602776050568e-02 1.782692223787307739e-02
-7.608207315206527710e-02 -8.599688112735748291e-02 -8.950993418693542480e-02 -1.115862354636192322e-01
4.099497571587562561e-03 -6.658614147454500198e-04 -3.776927012950181961e-03 5.383681878447532654e-02
1.276622712612152100e-02 4.699189215898513794e-03 -1.760180667042732239e-02 -8.628491312265396118e-02
-1.168468073010444641e-01 3.084695199504494667e-04 -1.902638748288154602e-02 -5.101167038083076477e-02
-4.954393580555915833e-02 -5.027363821864128113e-02 7.742755860090255737e-02 8.186008781194686890e-03
4.500952363014221191e-02 5.052328854799270630e-02 7.725612074136734009e-02 8.543185889720916748e-03
1.203209254890680313e-02 -3.192785382270812988e-02 -6.621924787759780884e-02 2.588003873825073242e-02
2.464225143194198608e-02 -8.374146185815334320e-03 6.674769520759582520e-02 5.932774022221565247e-02
-5.877402052283287048e-02 -1.265808474272489548e-02 1.235690619796514511e-02 5.930745229125022888e-02
8.705919235944747925e-02 -2.549329027533531189e-02 -6.413474678993225098e-03 -1.534031238406896591e-02
7.473266683518886566e-03 -1.128888316452503204e-02 -4.815942421555519104e-02 -5.212157592177391052e-02
1.260766237974166870e-01 -4.914407432079315186e-02 -6.726706773042678833e-02 -1.161675527691841125e-02
5.121556669473648071e-02 2.802191302180290222e-02 -1.958215795457363129e-02 -3.385205566883087158e-02
-3.216560930013656616e-02 -9.714333713054656982e-02 -1.280793547630310059e-01 -1.892572641372680664e-01
-1.206188127398490906e-01 -6.012495234608650208e-02 -2.049020677804946899e-01 -2.860735356807708740e-01
-8.145605027675628662e-02 -4.459431394934654236e-02 1.382300704717636108e-01 7.748442888259887695e-02
-5.961447954177856445e-02 -1.160932853817939758e-01 -3.046050108969211578e-02 1.274348795413970947e-01
-2.291648238897323608e-01 -1.213681697845458984e-01 1.182423066347837448e-02 -1.440486907958984375e-01
-7.319471240043640137e-02 -8.216293901205062866e-02 7.282848656177520752e-02 -9.348518401384353638e-02
-5.382791906595230103e-02 3.164032846689224243e-02 -7.601744681596755981e-02 1.174251362681388855e-01
-1.072950363159179688e-01 1.015846384689211845e-03 -9.189708158373832703e-03 -1.264958679676055908e-01
-1.199652440845966339e-03 -1.131010614335536957e-02 -6.687604472972452641e-04 -4.864003509283065796e-02
-4.352149367332458496e-02 1.306098401546478271e-01 -1.122609078884124756e-01 5.389192700386047363e-02
-1.075172722339630127e-01 -1.160256564617156982e-01 -4.092369228601455688e-02 -1.386277079582214355e-01
-2.181797921657562256e-01 2.319198846817016602e-02 -4.211484268307685852e-02 -7.653149310499429703e-03
-4.856870509684085846e-03 -2.566444873809814453e-02 4.177065193653106689e-02 1.997221633791923523e-02
1.181432604789733887e-01 9.675639867782592773e-02 -8.000386506319046021e-02 -2.309959195554256439e-02
1.733257062733173370e-02 2.891541644930839539e-02 1.721663326025009155e-01 -5.244463682174682617e-03
-2.389541827142238617e-02 7.666231691837310791e-02 -2.479914808645844460e-03 4.641206189990043640e-02
-8.389953523874282837e-02 -2.875770814716815948e-02 -2.522365422919392586e-03 -5.957582965493202209e-02
-7.105866074562072754e-02 -6.187818571925163269e-02 -6.998672150075435638e-03 7.982785999774932861e-02
6.782069057226181030e-02 4.889353737235069275e-02 -7.752550393342971802e-02 -3.711049631237983704e-02
5.702719092369079590e-03 7.815167307853698730e-02 -1.515961289405822754e-01 -9.608507901430130005e-02
1.461644768714904785e-01 -3.763355081900954247e-03 -2.195812016725540161e-02 -8.555158972740173340e-02
6.477241218090057373e-02 -7.673189043998718262e-02 7.079387456178665161e-02 -2.742244303226470947e-02
-7.781890779733657837e-02 5.862829275429248810e-04 6.377181969583034515e-03 -1.145095229148864746e-01
-1.398273706436157227e-01 1.617790572345256805e-02 -3.583726659417152405e-02 -1.722274571657180786e-01
1.280830241739749908e-02 5.945716798305511475e-02 2.291837707161903381e-02 6.069614738225936890e-02
1.411465257406234741e-01 -1.329759359359741211e-01 -2.762134931981563568e-02 1.324586421251296997e-01
-3.071322105824947357e-02 -6.545340269804000854e-02 -3.675463050603866577e-02 5.962266027927398682e-02
5.381923541426658630e-02 -1.436157226562500000e-01 -7.352291047573089600e-02 -1.773052662611007690e-01
-1.123093813657760620e-01 -3.104637376964092255e-02 -4.549576342105865479e-02 3.723071143031120300e-02
1.286125779151916504e-01 8.116586506366729736e-02 -8.021982014179229736e-02 1.557018011808395386e-01
2.391852065920829773e-02 8.277812600135803223e-02 4.840396810322999954e-03 1.096182465553283691e-01
-1.878890767693519592e-02 5.025183409452438354e-02 1.474132761359214783e-02 -2.873303182423114777e-02
-1.091459393501281738e-02 2.421556971967220306e-03 -1.108278483152389526e-01 4.622348025441169739e-02
-1.048134788870811462e-01 -1.662604510784149170e-01 -1.502761691808700562e-01 -1.400383561849594116e-01
1.258839368820190430e-01 -8.148882538080215454e-02 -1.360981762409210205e-01 -2.264169752597808838e-01
-1.027569025754928589e-01 -1.803474128246307373e-01 5.909208580851554871e-02 6.881432235240936279e-02
1.260700076818466187e-01 -5.445900931954383850e-02 -1.193681173026561737e-02 -1.445889770984649658e-01
-1.633461005985736847e-02 7.396019250154495239e-02 -5.194606631994247437e-02 -2.071590907871723175e-02
-5.239009112119674683e-02 3.377175889909267426e-03 -1.886112801730632782e-02 -1.213650256395339966e-01
-1.792307198047637939e-01 -7.455521821975708008e-02 6.282212585210800171e-02 7.566118985414505005e-02
-2.622844651341438293e-02 9.593330323696136475e-02 8.558252453804016113e-02 1.680873706936836243e-02
-1.039245501160621643e-01 7.416454702615737915e-02 6.876108050346374512e-02 5.587237887084484100e-03
7.257966697216033936e-02 2.002822421491146088e-02 -4.069804027676582336e-02 -6.587476283311843872e-02
-2.874941229820251465e-01 -1.304852664470672607e-01 -8.208908885717391968e-02 1.718085631728172302e-02
3.585727140307426453e-02 1.175219863653182983e-01 -4.619474336504936218e-02 -2.852249890565872192e-02
7.453964650630950928e-02 -1.114479545503854752e-02 8.608164638280868530e-02 3.147320449352264404e-02
9.027857333421707153e-02 -6.091985106468200684e-02 5.363265797495841980e-02 1.269721686840057373e-01
-4.060857743024826050e-02 -1.012119129300117493e-01 -3.348391503095626831e-02 -1.131761632859706879e-02
-2.079886756837368011e-02 2.876847237348556519e-02 2.450682222843170166e-02 -1.361692398786544800e-01
6.193792913109064102e-03 -7.636754214763641357e-02 -6.692386418581008911e-02 -3.910124301910400391e-02
-4.701331257820129395e-02 -7.458189502358436584e-04 -1.317382007837295532e-01 -1.191926002502441406e-01
-3.393536806106567383e-02 -1.086741238832473755e-01 -5.560957640409469604e-02 -8.972147852182388306e-02
3.384998440742492676e-02 -2.635340020060539246e-02 -1.696049235761165619e-03 1.955705508589744568e-02
-1.126070916652679443e-01 8.989722467958927155e-03 -2.359465509653091431e-02 3.193924576044082642e-02
-2.170416153967380524e-02 -4.820148460566997528e-03 1.178547926247119904e-02 5.537775531411170959e-02
9.207091480493545532e-02 -6.572598963975906372e-02 3.850597143173217773e-02 -5.358478054404258728e-02
-7.641210407018661499e-02 8.521214127540588379e-02 5.724171549081802368e-02 1.009750217199325562e-01
2.054110318422317505e-01 -2.830292563885450363e-03 -2.413091994822025299e-02 4.284963011741638184e-02
-2.719068527221679688e-02 -7.316000759601593018e-03 -1.574367051944136620e-03 -3.154451400041580200e-02
-5.236369371414184570e-02 -1.164728030562400818e-02 -8.177264034748077393e-02 5.197783187031745911e-02
1.214780658483505249e-01 5.557429976761341095e-03 1.671047210693359375e-01 -1.033040434122085571e-01
-6.882825493812561035e-02 -2.053733542561531067e-02 7.624902296811342239e-03 -7.590931653976440430e-02
5.968135595321655273e-02 -1.666170209646224976e-01 -5.767698585987091064e-02 -1.255121976137161255e-01
9.493328630924224854e-02 1.013206243515014648e-01 4.086524620652198792e-02 5.991300940513610840e-02
-1.516044735908508301e-01 2.867690636776387691e-04 9.222069056704640388e-04 5.621587485074996948e-02
-6.091280281543731689e-02 -1.437890827655792236e-01 -2.128696301952004433e-03 -7.741829007863998413e-02
-9.335106611251831055e-02 -3.687235340476036072e-02 3.791281580924987793e-02 1.067891791462898254e-01
-2.075853524729609489e-03 -2.735025063157081604e-02 2.583052776753902435e-02 -3.438907116651535034e-02
-1.322975009679794312e-01 -3.415637463331222534e-02 1.653897948563098907e-02 4.422980174422264099e-02
-5.586916115134954453e-03 -2.521650493144989014e-02 3.792560100555419922e-02 5.910915881395339966e-02
4.743717238306999207e-02 -3.415156155824661255e-02 -3.897306695580482483e-02 -1.522872503846883774e-02
3.283191472291946411e-02 1.266795024275779724e-02 -1.311302743852138519e-02 4.735115915536880493e-02
-1.968859881162643433e-02 6.253083795309066772e-02 7.923275977373123169e-02 -5.714122951030731201e-02
1.141339261084794998e-02 -4.063201323151588440e-02 1.199152669869363308e-03 4.668767377734184265e-02
-9.030096232891082764e-02 -7.289710640907287598e-02 -3.276415169239044189e-02 -2.831216156482696533e-02
2.399808168411254883e-02 1.000384334474802017e-02 2.334452979266643524e-02 -9.205774962902069092e-02
-1.197998877614736557e-02 1.270507369190454483e-02 -1.341392565518617630e-02 4.554965347051620483e-02
8.021140843629837036e-02 -2.838008292019367218e-02 5.216785892844200134e-02 1.696147210896015167e-02
3.920144215226173401e-02 -2.668544836342334747e-02 -1.208018045872449875e-02 -5.371921136975288391e-02
-1.265077386051416397e-02 5.761238932609558105e-02 -5.176519975066184998e-02 -2.297806553542613983e-02
-7.492250204086303711e-02 -2.290987409651279449e-03 3.272189944982528687e-02 6.240103766322135925e-02
-6.015159562230110168e-02 3.701385110616683960e-02 -5.754568337579257786e-05 -6.652078777551651001e-02
5.986307188868522644e-02 -4.620424006134271622e-03 -1.159316208213567734e-02 -1.333770249038934708e-02
-3.594548627734184265e-02 2.389884367585182190e-02 -3.990912809967994690e-02 5.890942737460136414e-02
-2.951114811003208160e-02 -2.722520940005779266e-02 1.236441731452941895e-02 -8.525910228490829468e-02
-4.962965473532676697e-02 -2.210437878966331482e-02 -6.489541381597518921e-02 -5.726380273699760437e-02
5.691633746027946472e-02 2.166440337896347046e-02 -9.722488000988960266e-03 1.750585855916142464e-03
4.503493010997772217e-02 -8.689355105161666870e-02 3.022219426929950714e-02 5.816498771309852600e-02
4.660325124859809875e-03 -3.836579620838165283e-02 2.369298366829752922e-03 1.280977483838796616e-02
5.043331068009138107e-03 -6.892792880535125732e-02 1.903874054551124573e-02 -5.133505165576934814e-02
7.997243851423263550e-02 4.421771317720413208e-02 -9.947372227907180786e-02 -8.354336768388748169e-02
3.807955980300903320e-02 -8.965813368558883667e-02 -3.517906367778778076e-02 4.866290837526321411e-03
3.956762701272964478e-02 4.526207968592643738e-02 -6.959137320518493652e-02 -9.445290081202983856e-03
5.037090927362442017e-02 -9.033687412738800049e-02 -6.178688630461692810e-02 -5.402112007141113281e-02
-4.947843402624130249e-02 -1.195074543356895447e-01 -2.063455432653427124e-02 5.410253256559371948e-02
1.126214209944009781e-02 -3.578861430287361145e-02 -6.372206658124923706e-02 3.235856071114540100e-02
9.616868197917938232e-02 2.930552512407302856e-02 1.080296747386455536e-02 -9.624004364013671875e-02
-1.226855516433715820e-01 -7.575131952762603760e-02 -7.974732667207717896e-02 -1.313727796077728271e-01
-1.846379637718200684e-01 -9.074888192117214203e-03 3.653405979275703430e-02 -6.869944743812084198e-03
1.891589350998401642e-02 5.179242044687271118e-02 -3.247558698058128357e-02 -1.251922249794006348e-01
5.741509795188903809e-02 -7.599594071507453918e-03 2.784719318151473999e-02 -2.626484027132391930e-03
-1.743778772652149200e-02 -9.151191264390945435e-02 -8.363326638936996460e-02 -1.250429153442382812e-01
-1.098758913576602936e-02 8.341670036315917969e-03 -1.525267958641052246e-02 -7.056256290525197983e-03
-1.065890789031982422e-01 -4.898010566830635071e-02 -4.281286150217056274e-02 5.894418060779571533e-02
8.406122773885726929e-02 1.164962798357009888e-01 5.067949742078781128e-02 -3.187154605984687805e-02
-2.279472909867763519e-02 6.585346162319183350e-02 6.987012177705764771e-02 4.140013083815574646e-02
-2.878852374851703644e-02 -3.039346542209386826e-03 9.686203300952911377e-02 9.245364367961883545e-02
-1.199085847474634647e-03 3.885453194379806519e-02 2.313402108848094940e-02 -3.075527586042881012e-02
1.231995522975921631e-01 1.208286210894584656e-01 -1.268294453620910645e-02 1.173826679587364197e-02
-6.809103488922119141e-02 -2.785464935004711151e-02 -5.984662845730781555e-02 -7.297383248805999756e-02
6.934430450201034546e-02 1.749546639621257782e-02 2.877855859696865082e-02 -5.964009463787078857e-02
-9.994356334209442139e-02 5.869460292160511017e-03 1.412177830934524536e-02 -2.698504552245140076e-02
-9.604929387569427490e-02 -1.210003998130559921e-02 -6.698217988014221191e-02 -1.085957735776901245e-01
-8.729600906372070312e-02 -4.411680623888969421e-02 -1.329911872744560242e-02 -1.627807132899761200e-02
-3.990931436419487000e-02 3.878723457455635071e-02 1.606714352965354919e-02 -3.833663836121559143e-02
-5.160371214151382446e-02 1.650446467101573944e-02 2.196855284273624420e-02 -1.311490684747695923e-01
5.652480758726596832e-03 9.237644076347351074e-02 -2.224562503397464752e-02 -7.957964390516281128e-02
-7.316038012504577637e-02 -8.268425613641738892e-02 -3.235941007733345032e-02 -1.575669459998607635e-02
9.881440550088882446e-02 -8.019264787435531616e-03 -5.584268271923065186e-02 2.339656202821061015e-04
-7.272719591856002808e-02 -5.624038726091384888e-02 3.604569286108016968e-02 1.023044250905513763e-02
1.116117611527442932e-01 1.246282234787940979e-01 1.715180277824401855e-01 8.328405022621154785e-02
-7.137145102024078369e-02 -4.519860446453094482e-02 -9.684354066848754883e-02 -9.775169193744659424e-02
-8.465702086687088013e-02 -9.019216150045394897e-02 -1.229228898882865906e-01 -8.063610643148422241e-02
-3.881578566506505013e-03 -2.538463845849037170e-02 -5.733527988195419312e-02 -1.162125095725059509e-01
1.481991028413176537e-03 -1.854010485112667084e-02 -8.293396793305873871e-03 -5.641021952033042908e-02
7.045485824346542358e-02 -5.389739945530891418e-02 4.460884258151054382e-02 -1.540425121784210205e-01
1.678568869829177856e-02 -1.789526641368865967e-02 4.706571809947490692e-03 -6.867595948278903961e-04
5.406505987048149109e-02 -3.556193411350250244e-02 2.517732419073581696e-02 -4.966562986373901367e-02
-1.493454426527023315e-01 -6.544151902198791504e-02 -5.647700279951095581e-03 -1.807174086570739746e-02
-2.129715234041213989e-01 -4.948281496763229370e-02 1.527717709541320801e-02 -2.509132921695709229e-01
-7.282404601573944092e-02 6.501413881778717041e-02 -9.345789253711700439e-02 2.384304441511631012e-02
-3.953600302338600159e-03 -1.374237984418869019e-01 -1.342585831880569458e-01 -4.448657110333442688e-02
-1.448196321725845337e-01 1.493548508733510971e-02 -3.083384037017822266e-02 -1.222051307559013367e-02
8.582469075918197632e-03 4.784065112471580505e-02 -1.875169016420841217e-02 -1.116326153278350830e-01
1.008339822292327881e-01 2.418803609907627106e-02 6.677386164665222168e-02 -8.202678523957729340e-03
-2.433180958032608032e-01 6.325147300958633423e-02 1.164140626788139343e-01 6.276343762874603271e-02
-6.379486620426177979e-02 -2.137877792119979858e-01 -9.031872451305389404e-02 -1.344028562307357788e-01
-2.905413806438446045e-01 -1.182577088475227356e-01 5.119218956679105759e-03 -6.090752035379409790e-02
5.179493874311447144e-02 -1.550907045602798462e-01 -7.581043988466262817e-02 8.270819485187530518e-02
-4.570072889328002930e-02 -8.831041306257247925e-02 -1.011855825781822205e-01 -2.100559026002883911e-01
-2.693298831582069397e-02 -1.265639364719390869e-01 -6.184581667184829712e-02 -6.206153705716133118e-02
1.853641420602798462e-01 7.213101536035537720e-02 -4.490783438086509705e-02 -2.694621309638023376e-02
-8.021020889282226562e-02 -1.888619512319564819e-01 -1.571647226810455322e-01 -1.505488753318786621e-01
8.750007301568984985e-02 6.147287040948867798e-02 6.916122138500213623e-02 5.316577851772308350e-02
-8.163861930370330811e-02 1.142855584621429443e-01 -2.689617313444614410e-02 -1.670219749212265015e-01
9.486614167690277100e-02 -8.813473582267761230e-02 1.668375544250011444e-02 1.169994249939918518e-01
8.092807233333587646e-02 -1.010037958621978760e-01 4.220701381564140320e-02 -2.033233195543289185e-01
-1.974856667220592499e-02 9.661615639925003052e-02 1.208244590088725090e-03 -2.416708767414093018e-01
5.529255047440528870e-02 -9.623825550079345703e-02 -4.876666143536567688e-02 1.877395436167716980e-02
6.870055198669433594e-02 1.316430419683456421e-01 3.291030973196029663e-02 -2.529104985296726227e-02
-8.932072669267654419e-03 -7.888073474168777466e-02 -1.345267146825790405e-01 -2.682941555976867676e-01
9.165480732917785645e-02 9.594914317131042480e-02 -3.651773091405630112e-03 1.518330127000808716e-01
-7.746502012014389038e-02 -1.120844781398773193e-01 1.003108844161033630e-01 7.124818861484527588e-02
-1.293075829744338989e-01 5.623619630932807922e-02 9.420821070671081543e-02 1.241722423583269119e-02
-7.959353737533092499e-03 -3.784429281949996948e-02 9.393338859081268311e-02 1.562322769314050674e-02
4.311689175665378571e-03 3.776016086339950562e-02 -4.698950424790382385e-02 -1.167287826538085938e-01
-2.575992606580257416e-02 3.163232654333114624e-02 -2.943882904946804047e-02 -9.092327207326889038e-02
5.469068512320518494e-02 1.342319604009389877e-02 -1.552761793136596680e-01 -2.026804685592651367e-01
1.479783207178115845e-01 6.254947185516357422e-02 1.055183075368404388e-02 -2.060124874114990234e-01
-1.940824538469314575e-01 -1.646774411201477051e-01 -7.993054389953613281e-02 -1.825595051050186157e-01
-3.113791942596435547e-01 1.408088505268096924e-01 3.813795919995754957e-04 -1.133823096752166748e-01
-2.676202729344367981e-02 1.424123812466859818e-02 -8.965031057596206665e-02 1.835671067237854004e-02
-1.036531105637550354e-01 2.940904535353183746e-02 -3.807630017399787903e-02 -1.322203874588012695e-01
-1.404395252466201782e-01 -1.207310985773801804e-02 -1.953806541860103607e-02 -7.012530416250228882e-02
-2.638237364590167999e-02 -3.671071678400039673e-02 9.218605235219001770e-03 4.379665851593017578e-02
2.200364135205745697e-02 4.276628792285919189e-02 -2.938349545001983643e-02 -1.189292781054973602e-02
1.222587842494249344e-02 -4.058873653411865234e-02 -3.395559266209602356e-02 1.210302039980888367e-01
3.773777512833476067e-03 -6.205454468727111816e-02 3.199973329901695251e-02 1.078670620918273926e-01
-3.693855926394462585e-02 -6.951794773340225220e-02 -9.079928509891033173e-03 1.262608543038368225e-02
-2.441143803298473358e-02 -2.131124213337898254e-02 -8.785005658864974976e-02 3.538974747061729431e-02
2.394360303878784180e-02 -1.088915765285491943e-02 7.011929154396057129e-02 4.132223501801490784e-02
-3.552333265542984009e-02 -1.463567465543746948e-02 -6.306499242782592773e-02 -2.008937671780586243e-02
2.901643514633178711e-02 4.715799540281295776e-02 1.717690750956535339e-02 5.105390772223472595e-02
1.170965060591697693e-01 -6.465462595224380493e-02 -1.709384284913539886e-02 6.531011778861284256e-03
8.504989556968212128e-03 -1.053131092339754105e-02 -3.512408118695020676e-03 -1.995999179780483246e-02
2.223294228315353394e-02 -6.639190018177032471e-03 5.232472904026508331e-04 -1.191442925482988358e-02
1.522424537688493729e-02 -5.644915252923965454e-02 -1.314167529344558716e-01 -1.112126335501670837e-01
-8.523033931851387024e-03 1.221828907728195190e-02 3.657930344343185425e-02 -6.612695008516311646e-02
-5.244485288858413696e-02 4.051440861076116562e-03 -3.349904343485832214e-02 -6.394756585359573364e-02
-1.795609146356582642e-01 -3.445439785718917847e-02 2.109813503921031952e-02 -3.797231987118721008e-02
4.146554693579673767e-02 -9.896222501993179321e-03 4.698064178228378296e-02 -6.402340531349182129e-02
4.078158363699913025e-02 9.811857715249061584e-03 5.927968397736549377e-02 -9.654307737946510315e-03
5.731571093201637268e-02 -8.020126260817050934e-03 -5.324255675077438354e-02 -1.313021630048751831e-01
1.356714218854904175e-02 5.572632700204849243e-02 -3.504706546664237976e-02 1.212616567499935627e-03
1.100077629089355469e-01 -1.989426463842391968e-02 -6.969602406024932861e-02 -1.004939898848533630e-01
4.022422805428504944e-02 -2.839162759482860565e-02 4.645782988518476486e-03 -8.854184299707412720e-02
-8.645482361316680908e-02 -5.068956315517425537e-02 -5.542225763201713562e-02 3.508503362536430359e-02
-7.564935833215713501e-02 -8.223227411508560181e-02 -6.305168569087982178e-02 1.529557863250374794e-03
4.204738140106201172e-02 1.303264126181602478e-02 -2.508035115897655487e-02 -3.613797714933753014e-03
9.412898682057857513e-03 -2.085770294070243835e-02 4.051617905497550964e-02 -4.041564464569091797e-02
-1.265967488288879395e-01 -2.967183664441108704e-02 -2.911849878728389740e-02 -3.616228327155113220e-02
-9.066300094127655029e-02 -4.493180289864540100e-02 1.086123436689376831e-01 6.110357120633125305e-02
8.960260450839996338e-02 -4.128801077604293823e-02 -1.750681083649396896e-03 3.599867969751358032e-02
-9.689082205295562744e-02 -9.777155518531799316e-02 -6.839168816804885864e-02 -5.623975023627281189e-02
-1.713924109935760498e-01 -2.089394032955169678e-01 -1.985667794942855835e-01 -1.301063746213912964e-01
8.318452164530754089e-03 -2.820794656872749329e-02 -4.331454634666442871e-02 -3.130768612027168274e-02
1.958100683987140656e-02 -5.072717368602752686e-02 7.165519520640373230e-03 -1.181052811443805695e-02
-1.751193340169265866e-04 -1.139894407242536545e-02 -4.260272532701492310e-02 -9.163501113653182983e-02
3.127444535493850708e-03 -5.316335335373878479e-02 -1.012543216347694397e-02 -1.832413487136363983e-02
-8.879546076059341431e-02 -1.701456159353256226e-01 -1.258687525987625122e-01 -1.138604208827018738e-01
-1.946171931922435760e-02 -4.409812018275260925e-02 -7.352750748395919800e-02 -6.003667041659355164e-02
-5.340255051851272583e-02 -5.875774659216403961e-03 1.482756156474351883e-02 -7.710628211498260498e-02
-2.305446565151214600e-02 6.186185777187347412e-02 1.141089722514152527e-01 1.024975255131721497e-01
-5.074379593133926392e-02 -7.544884830713272095e-02 -2.300650812685489655e-02 -1.049579959362745285e-02
3.380302339792251587e-02 2.239366993308067322e-02 1.774227060377597809e-02 -1.767423748970031738e-02
4.208904504776000977e-02 3.354518860578536987e-02 -6.198345124721527100e-02 -6.878144294023513794e-02
-5.213021859526634216e-02 -3.167529031634330750e-02 -2.782786497846245766e-03 -3.209965303540229797e-02
-6.244964525103569031e-02 -5.033889785408973694e-02 -4.281657934188842773e-02 -6.117840111255645752e-02
-2.814786732196807861e-01 -1.793452799320220947e-01 -1.475179344415664673e-01 -1.760088503360748291e-01
-7.328622043132781982e-02 -3.125799819827079773e-02 -1.116818636655807495e-01 -1.494973152875900269e-01
-8.351069688796997070e-02 -4.393509030342102051e-02 -7.274333387613296509e-02 -9.363062679767608643e-02
-1.490163356065750122e-01 -1.241753622889518738e-01 -1.050614565610885620e-01 -1.127855703234672546e-01
-6.571955233812332153e-02 -6.488370895385742188e-02 -2.325892448425292969e-02 -1.139670144766569138e-02
4.166334867477416992e-02 4.535894840955734253e-02 8.054321631789207458e-03 -2.774522081017494202e-02
4.508708044886589050e-02 2.698764950037002563e-02 -5.637624114751815796e-02 -4.459241777658462524e-02
-5.909170140512287617e-04 -7.413488812744617462e-03 3.978371620178222656e-02 4.887633770704269409e-02
1.218578312546014786e-02 4.886640608310699463e-02 4.177332669496536255e-02 9.243009239435195923e-02
-6.681547313928604126e-02 -8.119083195924758911e-02 -3.333744034171104431e-02 -2.895094081759452820e-02
2.425038255751132965e-02 -2.624063054099678993e-03 -1.888406276702880859e-02 1.593811064958572388e-02
-1.196392923593521118e-01 -1.098098829388618469e-01 -1.340599060058593750e-01 -1.789477169513702393e-01
4.969830438494682312e-02 2.628287859261035919e-02 5.137617513537406921e-02 3.587463870644569397e-02
9.380321949720382690e-02 5.084360018372535706e-02 -3.621254116296768188e-02 8.711235597729682922e-03
6.156511371955275536e-04 -4.537298530340194702e-02 5.090216919779777527e-02 -9.091620333492755890e-03
1.880185753107070923e-01 9.294235706329345703e-02 -1.026273053139448166e-02 7.041295990347862244e-03
-5.647100973874330521e-03 -1.072182208299636841e-01 -1.693797111511230469e-01 -1.448912322521209717e-01
-9.669508785009384155e-02 -1.409536004066467285e-01 2.311397157609462738e-02 -1.159841716289520264e-01
-4.264908656477928162e-02 -9.818855673074722290e-03 -2.400494925677776337e-02 -3.981650620698928833e-02
-5.796893686056137085e-02 -6.898775696754455566e-02 -1.627112738788127899e-02 1.324496231973171234e-02
-5.723414942622184753e-02 1.594989933073520660e-02 -1.198779046535491943e-01 4.184050485491752625e-02
6.510021537542343140e-02 1.504602935165166855e-02 5.061796400696039200e-03 -3.902796655893325806e-02
-3.116222657263278961e-02 2.965550497174263000e-02 5.764152854681015015e-02 2.891837805509567261e-02
-7.723468542098999023e-02 -1.650732010602951050e-02 -5.626652389764785767e-03 3.596435859799385071e-02
-7.853155583143234253e-02 -5.434613674879074097e-02 1.015164926648139954e-01 -4.211258515715599060e-02
-3.736968338489532471e-02 8.523254655301570892e-03 2.464793995022773743e-02 6.037039216607809067e-03
-8.437470346689224243e-02 -5.358426645398139954e-02 -2.983188256621360779e-02 7.505170255899429321e-02
-6.992752850055694580e-02 8.910589851438999176e-03 1.018371358513832092e-01 -1.379853934049606323e-01
2.502993214875459671e-03 -2.653808705508708954e-02 1.222984399646520615e-02 -2.191533148288726807e-02
1.804617419838905334e-02 6.281713396310806274e-02 5.219901353120803833e-02 -4.580058902502059937e-02
3.354329383000731468e-04 -8.762601763010025024e-03 3.253965824842453003e-02 1.264784368686378002e-03
-6.956841796636581421e-02 2.969111315906047821e-02 1.468569855205714703e-03 -5.907610803842544556e-02
-3.968579322099685669e-02 -3.813948016613721848e-03 -3.282356634736061096e-02 -4.696665704250335693e-02
-4.771188646554946899e-02 -4.824465885758399963e-02 -3.196753934025764465e-02 -1.360696926712989807e-02
1.057471632957458496e-01 -4.080837592482566833e-02 -1.351032555103302002e-01 -6.127344444394111633e-02
-2.741099148988723755e-02 6.100366264581680298e-02 6.382741034030914307e-02 -1.811228506267070770e-02
-1.383743435144424438e-01 -2.991934306919574738e-02 6.548653356730937958e-03 -2.358701080083847046e-02
-2.144376374781131744e-02 4.641586542129516602e-02 -2.320207469165325165e-02 5.270199477672576904e-02
-1.129125710576772690e-02 2.836361527442932129e-02 -5.316356196999549866e-02 -2.721522748470306396e-02
1.796126365661621094e-03 6.695902347564697266e-02 -3.325698897242546082e-02 -9.777108207345008850e-03
7.091752439737319946e-02 5.997302010655403137e-02 -3.005890920758247375e-02 -3.067546896636486053e-02
-1.786633729934692383e-01 3.126995638012886047e-02 -7.834528386592864990e-02 4.537987336516380310e-02
-2.925098873674869537e-02 6.119510903954505920e-02 6.340879946947097778e-02 -1.267542392015457153e-01
-4.530285298824310303e-02 -2.912571281194686890e-02 -6.628302484750747681e-02 -9.717092849314212799e-03
-8.247372694313526154e-03 -1.655473932623863220e-02 7.867827080190181732e-03 -3.730461746454238892e-02
4.243584722280502319e-02 1.504351384937763214e-02 1.053711120039224625e-02 -7.011913508176803589e-02
4.753329325467348099e-03 -1.542115509510040283e-01 2.126755565404891968e-02 1.000488847494125366e-01
2.469753846526145935e-02 -5.138779804110527039e-02 4.293140023946762085e-03 -9.997435845434665680e-03
-8.722452074289321899e-02 2.520233020186424255e-02 -2.770077809691429138e-02 -4.942531511187553406e-02
-6.674042344093322754e-02 -4.044968634843826294e-02 3.779647499322891235e-02 -1.066586375236511230e-01
-1.292597651481628418e-01 -9.406131505966186523e-02 -4.707009717822074890e-02 6.924798339605331421e-02
3.941524773836135864e-02 -5.346164479851722717e-02 -5.333770066499710083e-02 5.024264007806777954e-02
-9.083817154169082642e-02 -4.143320024013519287e-02 1.207698583602905273e-01 -1.281808502972126007e-02
-1.461542677134275436e-02 2.318224869668483734e-02 2.409008704125881195e-02 -5.291712656617164612e-02
1.196868643164634705e-01 -3.916016221046447754e-02 -7.279054820537567139e-02 1.154625415802001953e-02
1.519535295665264130e-02 5.575761571526527405e-02 -1.804991997778415680e-02 -1.088549345731735229e-01
-9.364580735564231873e-03 3.644971366156823933e-05 -4.424421489238739014e-02 1.236657425761222839e-01
9.893860667943954468e-03 -2.997896447777748108e-02 -6.366880238056182861e-02 5.912508070468902588e-02
-1.115432754158973694e-01 -8.559756726026535034e-02 8.831840939819812775e-03 -1.117587834596633911e-01
5.408259481191635132e-02 3.814141452312469482e-02 -1.639560237526893616e-02 3.549773618578910828e-02
-2.254785969853401184e-02 -5.579257011413574219e-02 -6.424452364444732666e-02 -1.062145642936229706e-02
-5.506085697561502457e-03 -7.666913419961929321e-02 -2.409214153885841370e-02 -7.125457376241683960e-02
3.736622631549835205e-02 -3.538631647825241089e-02 2.426973357796669006e-02 5.834842100739479065e-02
3.396690590307116508e-03 -9.060011245310306549e-03 -2.338267117738723755e-02 -9.357372298836708069e-03
3.039924893528223038e-03 -4.157024435698986053e-03 -4.403707757592201233e-02 -9.916909039020538330e-02
-2.128640003502368927e-02 -3.618454188108444214e-02 -7.774218916893005371e-02 -1.188198849558830261e-02
8.020661026239395142e-02 -9.214738383889198303e-03 -4.537732899188995361e-02 -2.117497380822896957e-03
7.869216054677963257e-02 1.404353417456150055e-02 -1.010741591453552246e-01 -1.021118089556694031e-01
-5.283347144722938538e-02 5.288652703166007996e-02 -6.792453676462173462e-02 -8.410069346427917480e-02
-1.248440593481063843e-01 -8.007319271564483643e-02 8.663753396831452847e-04 -2.122172527015209198e-02
1.578781381249427795e-02 1.014493685215711594e-02 3.766973502933979034e-03 1.456671580672264099e-02
-5.506846308708190918e-02 6.654588878154754639e-02 5.145275220274925232e-02 -1.669571101665496826e-01
1.627132878638803959e-03 -1.915376633405685425e-02 -2.357693575322628021e-02 1.107135415077209473e-02
-5.860733240842819214e-02 4.719180986285209656e-02 -3.992182761430740356e-02 -4.068893939256668091e-02
3.138449415564537048e-02 -9.271912276744842529e-02 -1.463313847780227661e-01 -9.332237392663955688e-02
-4.558102041482925415e-02 -8.212697692215442657e-03 -2.457366511225700378e-02 -5.544121377170085907e-03
-1.072051748633384705e-02 -4.299614578485488892e-02 2.602847106754779816e-02 -4.895979538559913635e-02
1.315089320996776223e-04 -2.963027171790599823e-02 -7.453303784132003784e-02 8.308735489845275879e-02
1.262717694044113159e-01 -1.051754057407379150e-01 -3.895245864987373352e-02 1.033507138490676880e-01
-1.397329848259687424e-03 -2.760039828717708588e-02 1.344063505530357361e-02 -5.312719941139221191e-02
-5.915342643857002258e-02 3.336772322654724121e-02 5.677521973848342896e-02 -6.939738243818283081e-02
-1.108309347182512283e-02 8.307516574859619141e-03 2.349631674587726593e-02 3.502845391631126404e-02
2.129631489515304565e-02 2.288288436830043793e-02 -8.623590692877769470e-03 1.421800442039966583e-02
1.788320019841194153e-02 -8.111912757158279419e-03 2.833706559613347054e-03 -2.456697076559066772e-02
-1.262347586452960968e-02 1.992058567702770233e-02 2.226576209068298340e-02 2.817357331514358521e-02
3.090350888669490814e-03 -8.530033752322196960e-03 2.143072709441184998e-02 -8.494550362229347229e-03
-1.860844716429710388e-02 -2.628866583108901978e-02 -1.369515992701053619e-02 -8.675782941281795502e-03
2.861764840781688690e-02 -1.093449350446462631e-02 2.344100363552570343e-02 -5.783596541732549667e-03
-2.040746435523033142e-02 -2.741129323840141296e-02 1.336807757616043091e-02 4.027607385069131851e-03
-1.034472021274268627e-03 -2.241861447691917419e-02 -3.970409743487834930e-03 -1.283380016684532166e-02
-1.854276843369007111e-02 -2.224934101104736328e-02 -1.865348964929580688e-02 -1.960230059921741486e-02
-1.402838155627250671e-02 -2.372985705733299255e-02 -2.509647235274314880e-02 -2.797345072031021118e-02
-1.381437387317419052e-02 -2.471989765763282776e-02 -2.438915707170963287e-02 8.206940256059169769e-03
-6.223366595804691315e-03 2.269282005727291107e-02 1.007353421300649643e-02 1.972332410514354706e-02
-1.627122797071933746e-02 6.533603649586439133e-03 -1.763394335284829140e-03 -6.265895208343863487e-04
-5.170529242604970932e-03 -9.712575934827327728e-03 -2.459419425576925278e-03 4.239900968968868256e-03
-2.381789125502109528e-02 7.622550037922337651e-05 -5.003840662539005280e-03 2.609146013855934143e-02
1.741554588079452515e-02 9.501964086666703224e-04 2.562301000580191612e-03 1.264164224267005920e-02
-2.110391482710838318e-02 -1.911924220621585846e-02 1.535997632890939713e-02 1.904566027224063873e-02
-9.210967458784580231e-03 -9.752027690410614014e-03 1.085110753774642944e-02 1.339010614901781082e-02
-2.843674644827842712e-02 4.839057568460702896e-03 1.584941754117608070e-03 -1.277674164157360792e-04
2.392889186739921570e-02 -1.536508742719888687e-02 -1.096048206090927124e-02 -7.568112108856439590e-03
1.131633948534727097e-02 -2.067588642239570618e-02 -7.383034098893404007e-03 -2.099157497286796570e-02
9.345828555524349213e-03 -2.078647352755069733e-02 -2.345087705180048943e-03 -2.187737263739109039e-02
-1.529169455170631409e-02 -1.804932020604610443e-02 -2.231487631797790527e-02 8.173779584467411041e-03
-1.303173601627349854e-02 -1.769445836544036865e-03 2.119166217744350433e-02 -1.241595111787319183e-02
-1.521588582545518875e-02 -1.188961905427277088e-03 -2.612428274005651474e-03 -2.154479268938302994e-03
1.747930771671235561e-03 6.226869765669107437e-03 -7.634736597537994385e-03 -7.954481057822704315e-03
-2.528778649866580963e-02 2.500022202730178833e-02 5.720294546335935593e-03 2.359792590141296387e-02
8.652539923787117004e-03 -2.665142901241779327e-02 -1.098878774791955948e-02 1.710564270615577698e-02
-9.082016535103321075e-03 -1.791702210903167725e-02 1.062674447894096375e-02 -1.389872934669256210e-02
1.469628885388374329e-02 -4.162415862083435059e-03 -1.584234880283474922e-03 2.254301868379116058e-02
-1.986237475648522377e-03 3.132024034857749939e-02 1.090082805603742599e-02 -1.602778024971485138e-02
-6.760766264051198959e-03 -2.989896200597286224e-02 -9.058286435902118683e-03 -5.345433205366134644e-02
4.576708748936653137e-02 6.735069211572408676e-03 -4.427142906934022903e-03 -7.150374352931976318e-02
-3.696149960160255432e-02 -2.331853471696376801e-02 3.673115000128746033e-02 1.918422058224678040e-02
1.630916260182857513e-03 1.512995734810829163e-02 1.744966953992843628e-02 -7.373280823230743408e-02
-2.888122200965881348e-02 2.478251466527581215e-03 -4.315686877816915512e-03 -8.651061914861202240e-03
-1.328675076365470886e-02 -9.930385276675224304e-03 -1.150943897664546967e-02 2.473952062427997589e-02
1.298367697745561600e-02 -1.896232366561889648e-02 4.033403936773538589e-03 4.689818713814020157e-03
-1.622563228011131287e-02 -3.694730252027511597e-02 1.246759667992591858e-02 6.684996653348207474e-03
2.074490301311016083e-02 -4.478095099329948425e-02 1.093997620046138763e-02 3.350451821461319923e-03
2.812495455145835876e-02 1.896010152995586395e-02 1.350366044789552689e-03 -1.412575133144855499e-02
-1.650925911962985992e-02 1.757976412773132324e-02 -1.508145779371261597e-02 4.198803752660751343e-02
6.176020484417676926e-03 -2.730366401374340057e-02 -2.061430737376213074e-02 -2.911349572241306305e-02
3.125875070691108704e-02 2.236154675483703613e-02 -1.509367022663354874e-02 -3.984872251749038696e-02
3.460276871919631958e-03 -1.102504786103963852e-02 -2.082757279276847839e-02 -2.953286166302859783e-04
-3.611393272876739502e-02 -5.479256436228752136e-02 -1.634420827031135559e-03 1.212058495730161667e-02
-5.524609237909317017e-02 -5.053141340613365173e-02 5.177760962396860123e-03 -1.964433491230010986e-02
-2.650073915719985962e-02 -1.182831265032291412e-02 -2.937456592917442322e-02 -5.300788581371307373e-02
-4.096308723092079163e-03 -2.345592901110649109e-02 3.600586205720901489e-04 -7.174847181886434555e-03
-1.720752939581871033e-02 -1.339928526431322098e-02 -4.257272928953170776e-02 -1.203523483127355576e-02
4.757636052090674639e-04 -6.284771487116813660e-03 2.465808391571044922e-02 1.827901042997837067e-02
3.083660034462809563e-03 5.645445082336664200e-03 2.032751403748989105e-02 1.403004769235849380e-02
-1.811406016349792480e-02 1.120213326066732407e-02 1.813786104321479797e-03 -7.110269274562597275e-03
-1.267164200544357300e-02 -7.554222829639911652e-03 -1.797549659386277199e-03 1.506441179662942886e-02
-1.060271635651588440e-02 -1.658429205417633057e-02 -1.160606183111667633e-02 1.001832727342844009e-02
2.248667366802692413e-02 3.410056605935096741e-02 -1.512826513499021530e-02 -6.083121523261070251e-03
-5.353856831789016724e-03 -2.471968345344066620e-02 -2.786578610539436340e-02 -3.196006640791893005e-02
-2.277924865484237671e-02 -2.944161929190158844e-02 -1.235216669738292694e-02 2.007273957133293152e-02
-1.722893863916397095e-02 1.789721101522445679e-02 -1.107288524508476257e-02 -1.912512071430683136e-02
3.431298956274986267e-02 2.107945643365383148e-02 2.250499092042446136e-02 -1.588149461895227432e-03
7.106740493327379227e-03 6.359836552292108536e-03 -2.008607611060142517e-02 -8.407307788729667664e-03
2.588631119579076767e-03 9.824921377003192902e-03 -6.528930272907018661e-03 -2.727226540446281433e-02
1.787628605961799622e-02 2.598672406747937202e-03 1.886844262480735779e-02 1.484147366136312485e-02
2.510186843574047089e-02 -7.471559941768646240e-02 -1.453435048460960388e-02 4.628346115350723267e-02
4.635788872838020325e-02 2.813250385224819183e-02 4.713230766355991364e-03 -3.921586275100708008e-02
-4.491413384675979614e-02 -9.788031689822673798e-03 1.139837224036455154e-02 1.819229684770107269e-02
2.919642813503742218e-02 1.040360191836953163e-03 2.420220710337162018e-02 -8.570164442062377930e-02
-1.081489399075508118e-02 -1.754486188292503357e-02 3.344950824975967407e-02 -2.092532068490982056e-02
-2.756178751587867737e-02 -1.460295822471380234e-02 -2.281708270311355591e-02 1.207489147782325745e-02
4.495367407798767090e-03 -2.506284043192863464e-02 -6.887575984001159668e-02 -2.913553640246391296e-02
-4.617381095886230469e-02 -2.251832000911235809e-02 -3.324298188090324402e-02 -3.310559317469596863e-02
1.787710376083850861e-02 -6.729793385602533817e-04 -5.294048041105270386e-02 -6.358047574758529663e-02
1.992688700556755066e-02 -3.318604314699769020e-03 -1.034729299135506153e-03 -2.486703358590602875e-02
2.733513247221708298e-03 1.157290069386363029e-03 -5.317373573780059814e-02 -2.652027178555727005e-03
-1.656521670520305634e-02 -3.502078354358673096e-02 -1.936926320195198059e-02 -2.052285149693489075e-02
2.785547636449337006e-02 1.377614680677652359e-02 4.271610174328088760e-03 3.240460157394409180e-02
1.331034675240516663e-02 4.069476854056119919e-03 -5.594215355813503265e-03 1.920426823198795319e-02
-2.859236672520637512e-02 -4.405359178781509399e-02 -6.368041038513183594e-02 -2.024815417826175690e-02
-4.671705514192581177e-02 -7.486079819500446320e-03 -5.044090747833251953e-02 -4.164620768278837204e-03
-3.715062886476516724e-02 -1.539177610538899899e-03 -1.143793761730194092e-02 -2.560275793075561523e-02
6.344333756715059280e-03 4.577849991619586945e-03 9.941773489117622375e-03 -1.577025279402732849e-02
-2.807923778891563416e-02 -4.508985206484794617e-02 -3.886510385200381279e-03 -2.338089980185031891e-02
-2.043208340182900429e-03 -1.900498196482658386e-02 1.699159294366836548e-02 5.065420642495155334e-02
3.791244002059102058e-03 1.250866428017616272e-02 -4.051763564348220825e-03 8.100091479718685150e-03
-5.903722718358039856e-02 -1.516686007380485535e-02 -1.350137218832969666e-02 1.771074533462524414e-02
-3.962998837232589722e-02 -4.463279992341995239e-02 -2.733225375413894653e-02 -2.194449491798877716e-02
-4.329484328627586365e-02 2.210789173841476440e-02 3.098449856042861938e-02 2.929376438260078430e-02
3.491293266415596008e-02 7.327998522669076920e-03 1.985404267907142639e-02 3.151971474289894104e-02
5.916598066687583923e-02 7.630071137100458145e-03 -1.398750208318233490e-02 -4.954096674919128418e-02
-6.946112215518951416e-02 -2.616208791732788086e-02 1.420388463884592056e-02 -7.867988198995590210e-03
5.260853096842765808e-02 -6.556874606758356094e-03 4.447827115654945374e-03 -1.148380246013402939e-02
2.955339848995208740e-02 2.066402323544025421e-02 -4.003212228417396545e-02 5.394664406776428223e-02
-5.268572270870208740e-02 9.544134140014648438e-03 -4.429608955979347229e-02 -8.516684174537658691e-03
5.828269757330417633e-03 -1.471673604100942612e-02 1.088148541748523712e-02 -3.645095601677894592e-02
1.549377804622054100e-03 2.863792888820171356e-02 1.647640950977802277e-02 3.504202887415885925e-02
-4.281568527221679688e-02 -4.869686812162399292e-02 -9.924099780619144440e-03 2.721220999956130981e-02
-6.956259906291961670e-02 -5.406048148870468140e-02 -2.613690122961997986e-02 4.766123369336128235e-02
2.200410328805446625e-02 3.133855387568473816e-02 1.351131591945886612e-02 -1.736255548894405365e-02
-4.459959641098976135e-02 -6.722566485404968262e-02 -5.415922962129116058e-03 -2.317183464765548706e-02
-2.205492369830608368e-02 2.113924175500869751e-02 6.522012501955032349e-02 4.467590898275375366e-02
-8.211004734039306641e-02 -9.573494084179401398e-03 -3.654149547219276428e-02 6.889832206070423126e-03
5.211368948221206665e-02 -5.333108827471733093e-02 -5.930939689278602600e-02 -5.064891884103417397e-04
3.328156471252441406e-02 -1.331983832642436028e-03 3.437316790223121643e-02 1.850925385951995850e-02
-2.986091375350952148e-02 -8.662513457238674164e-03 7.059200108051300049e-02 2.399182692170143127e-02
-3.370073810219764709e-02 -6.558427959680557251e-02 -3.161204978823661804e-02 1.257674302905797958e-02
2.768621593713760376e-02 2.099985815584659576e-02 6.686839275062084198e-03 -7.101580500602722168e-03
8.045539259910583496e-03 9.134061634540557861e-03 4.915739409625530243e-03 1.433675177395343781e-02
1.895712874829769135e-02 1.213548937812447548e-03 -8.747657993808388710e-04 2.919037267565727234e-02
1.663114503026008606e-02 9.612351655960083008e-03 -2.468583919107913971e-02 -1.271299645304679871e-02
-2.404410019516944885e-02 6.732276175171136856e-03 3.567250072956085205e-02 1.144728716462850571e-02
-2.391286566853523254e-02 3.941453527659177780e-03 3.907916322350502014e-02 3.240267559885978699e-02
-2.034616097807884216e-02 -4.070035181939601898e-03 -2.698628045618534088e-02 -8.356585167348384857e-03
7.172685582190752029e-03 -1.066609867848455906e-03 1.946086995303630829e-02 -1.324724964797496796e-02
1.537939626723527908e-02 -3.918949048966169357e-03 6.797162815928459167e-03 1.474441029131412506e-02
6.205379031598567963e-04 -8.343031513504683971e-04 -1.300004217773675919e-02 -1.256853621453046799e-02
-2.745979465544223785e-02 -3.743622824549674988e-02 -1.593726687133312225e-02 -4.287215415388345718e-03
7.672512438148260117e-03 -3.041795454919338226e-02 -3.431354463100433350e-02 -3.542949259281158447e-02
6.672164890915155411e-03 2.147504501044750214e-02 4.106288775801658630e-02 -1.037318818271160126e-02
-2.022517845034599304e-02 -1.363637018948793411e-02 -5.379097536206245422e-03 -1.164420414716005325e-02
2.991388738155364990e-02 -1.337520405650138855e-02 -3.213360533118247986e-02 2.808476425707340240e-02
-1.740891486406326294e-02 -6.813495885580778122e-03 -2.836227416992187500e-03 -4.866646975278854370e-02
-1.726648770272731781e-02 -1.000668108463287354e-02 -2.401294559240341187e-02 -6.887118518352508545e-02
2.651631599292159081e-03 -2.709413878619670868e-03 1.015372108668088913e-03 3.670746088027954102e-02
8.930670469999313354e-02 -1.412409730255603790e-02 -5.755326151847839355e-02 -5.563319101929664612e-02
-7.210473995655775070e-03 5.800127051770687103e-03 -3.855590149760246277e-02 3.227830305695533752e-02
3.750728070735931396e-02 -6.585249677300453186e-03 -1.689975615590810776e-03 1.078835921362042427e-03
7.975978404283523560e-02 -8.433788083493709564e-03 -4.230977222323417664e-02 -1.552848052233457565e-02
1.330187357962131500e-02 -3.720691800117492676e-02 -1.951152458786964417e-02 1.802643202245235443e-02
-6.613177061080932617e-02 7.937007583677768707e-03 5.494375154376029968e-02 -2.668100595474243164e-02
2.358146756887435913e-02 -4.404589161276817322e-02 -3.282232955098152161e-02 3.726729750633239746e-02
-7.266901433467864990e-03 -4.866535775363445282e-03 -1.799899153411388397e-02 -6.339925806969404221e-03
-4.722418636083602905e-02 -2.521436661481857300e-02 3.546439483761787415e-02 3.209012374281883240e-02
-9.342590346932411194e-03 2.934501878917217255e-02 -4.660603881347924471e-04 3.320512548089027405e-02
9.573372080922126770e-03 1.704723807051777840e-03 -2.819902636110782623e-02 1.856206334196031094e-03
-5.729331634938716888e-03 -3.820525482296943665e-02 -1.537595060653984547e-03 4.419140145182609558e-02
-6.474800407886505127e-03 -5.973082035779953003e-03 -2.454250585287809372e-03 2.322130277752876282e-02
-4.144466668367385864e-02 -3.835730627179145813e-02 -4.477846249938011169e-02 -4.274369031190872192e-02
2.426518127322196960e-02 -1.803082786500453949e-02 -4.806315898895263672e-02 -6.726742722094058990e-03
1.973999664187431335e-02 -7.162700872868299484e-03 -1.040479447692632675e-02 -1.259338110685348511e-03
-9.485811926424503326e-03 9.797560982406139374e-03 1.736919581890106201e-02 -1.024235971271991730e-02
-1.123093720525503159e-02 -2.203707583248615265e-02 -2.765045128762722015e-02 -3.054398670792579651e-02
2.315992489457130432e-02 2.918649092316627502e-02 2.759851701557636261e-02 3.451948985457420349e-02
-2.914344146847724915e-02 5.566168576478958130e-03 4.583835601806640625e-02 2.338813990354537964e-02
-1.442530471831560135e-02 1.725389622151851654e-02 -3.717511147260665894e-02 -3.381546586751937866e-02
1.254343520849943161e-02 1.928441971540451050e-02 -8.815572364255785942e-04 2.074992656707763672e-02
1.023087301291525364e-03 1.370125450193881989e-02 -2.791352570056915283e-02 2.830805629491806030e-02
-2.032134868204593658e-02 -2.269468083977699280e-02 -1.841042563319206238e-02 4.647139459848403931e-03
-5.042036622762680054e-02 -5.208028946071863174e-03 -2.497496083378791809e-02 -1.962214894592761993e-02
-4.993491619825363159e-02 -5.035027116537094116e-02 -3.089932957664132118e-03 -6.132966838777065277e-03
-4.073072224855422974e-02 -4.792458936572074890e-02 3.965888917446136475e-02 3.068045526742935181e-02
4.572281613945960999e-02 1.292367116548120975e-03 1.161816995590925217e-02 -3.585441270843148232e-03
-2.827844955027103424e-02 -1.383223664015531540e-02 1.413489412516355515e-02 5.569789931178092957e-02
1.226041931658983231e-02 -7.046472281217575073e-03 2.274691313505172729e-02 9.215121157467365265e-03
-6.958018988370895386e-02 -6.095661222934722900e-02 -5.803555995225906372e-02 2.829336561262607574e-02
2.979063242673873901e-02 3.976830095052719116e-02 -1.010731142014265060e-02 3.515699133276939392e-02
2.698251279070973396e-03 4.066080227494239807e-02 -2.280390076339244843e-02 3.155468776822090149e-02
1.811930723488330841e-02 -2.864301949739456177e-02 -1.148149487562477589e-03 1.799253933131694794e-02
3.700156137347221375e-02 3.082540631294250488e-02 7.985612377524375916e-03 -7.736285682767629623e-03
4.726661369204521179e-02 2.511034719645977020e-02 1.297030411660671234e-02 -3.368958458304405212e-02
-1.339892670512199402e-02 -1.351280510425567627e-01 -3.500431030988693237e-02 -1.045088395476341248e-01
-7.400413602590560913e-02 6.232009734958410263e-03 -7.530207931995391846e-02 -1.163907572627067566e-01
9.603686630725860596e-03 -3.210139647126197815e-02 1.822371967136859894e-02 8.477170020341873169e-02
1.096802055835723877e-01 -9.755261242389678955e-02 1.369158029556274414e-01 -1.498195230960845947e-01
1.483814418315887451e-02 -1.640096679329872131e-02 -8.772910386323928833e-02 -8.469676226377487183e-02
-1.898671686649322510e-02 5.200011283159255981e-02 -5.098070483654737473e-03 -1.664179936051368713e-02
7.905183732509613037e-02 -5.629768222570419312e-02 -1.894477382302284241e-02 -1.513016130775213242e-02
-1.116980761289596558e-01 2.011834830045700073e-02 4.935019835829734802e-02 -6.864722672617062926e-05
-1.373974978923797607e-01 -1.239726170897483826e-01 -6.399598717689514160e-02 -3.295190259814262390e-02
1.119055226445198059e-01 -1.229028403759002686e-01 1.308653205633163452e-01 -6.374401599168777466e-02
-7.421462237834930420e-02 -9.027260541915893555e-02 -3.492037579417228699e-02 6.198341771960258484e-02
-4.826594144105911255e-02 -2.019447740167379379e-03 1.919443719089031219e-02 -8.840444684028625488e-02
4.750026017427444458e-02 -1.378023345023393631e-02 -4.772137850522994995e-03 1.899657584726810455e-02
-2.742706984281539917e-02 -1.850612461566925049e-02 2.428095787763595581e-02 9.014407172799110413e-03
-1.145729720592498779e-01 -3.280002623796463013e-02 -5.319143086671829224e-02 -2.605053409934043884e-02
2.011533826589584351e-02 1.372222006320953369e-01 -9.254179894924163818e-02 -4.139908030629158020e-02
-3.488395363092422485e-02 -2.039926126599311829e-02 -1.135336831212043762e-01 -2.400475740432739258e-02
-6.924153864383697510e-02 -4.130233451724052429e-02 -1.478721946477890015e-02 -3.925196081399917603e-02
-1.588685996830463409e-02 1.473514921963214874e-02 9.423295850865542889e-04 -4.127021878957748413e-02
-2.150984667241573334e-02 -1.267221639864146709e-03 -5.859884247183799744e-02 3.315741941332817078e-02
-5.892777815461158752e-02 3.035127371549606323e-02 -5.766437202692031860e-02 3.863007761538028717e-03
3.223391994833946228e-02 -1.687097363173961639e-02 -4.572966694831848145e-02 -3.133103996515274048e-02
-2.430521324276924133e-02 2.304070256650447845e-02 -4.396768286824226379e-03 2.608791738748550415e-02
-2.079882286489009857e-02 8.504251390695571899e-02 8.206306397914886475e-02 -1.999358832836151123e-02
5.326106026768684387e-02 1.981646195054054260e-02 3.703383356332778931e-02 -1.393640879541635513e-03
3.446542844176292419e-02 -9.596915915608406067e-03 4.454211145639419556e-02 -2.067199163138866425e-02
-1.367254853248596191e-01 -4.918696940876543522e-04 1.133034657686948776e-02 8.774376660585403442e-02
1.038180291652679443e-01 1.332165021449327469e-02 9.424529969692230225e-02 2.608942240476608276e-02
4.483835946302860975e-04 -7.436270266771316528e-02 -6.798741221427917480e-02 -5.157746374607086182e-02
-4.961167648434638977e-02 -3.761359676718711853e-02 -3.186257928609848022e-02 -8.543873578310012817e-02
-2.661357820034027100e-02 -3.496137447655200958e-03 -3.754197806119918823e-02 1.154996920377016068e-03
-6.175049394369125366e-02 1.046641245484352112e-01 1.362652983516454697e-02 -6.046338379383087158e-02
-1.171407848596572876e-01 -9.177002124488353729e-03 -8.898259699344635010e-02 -9.229428134858608246e-03
-6.290517747402191162e-03 -5.973065271973609924e-02 6.242002127692103386e-04 -1.788323819637298584e-01
2.819770388305187225e-02 1.516571361571550369e-02 3.395735472440719604e-02 2.039272338151931763e-02
-6.072872318327426910e-03 7.718617469072341919e-02 -1.025204619509167969e-04 -7.864370709285140038e-04
2.792911976575851440e-02 -4.748611897230148315e-02 -4.124099388718605042e-02 -5.608594045042991638e-02
-6.448536366224288940e-02 2.266879193484783173e-02 2.184827812016010284e-02 -4.822115879505872726e-03
7.492876797914505005e-02 -6.249709520488977432e-03 -5.614045634865760803e-02 4.120383411645889282e-02
-4.820810630917549133e-02 -2.692357636988162994e-02 4.050495103001594543e-03 -1.256236620247364044e-02
9.068825095891952515e-02 7.169856876134872437e-02 -4.714719834737479687e-04 -6.134879775345325470e-03
-2.522117085754871368e-02 5.204337835311889648e-02 1.199076790362596512e-02 5.244119837880134583e-02
2.195607870817184448e-02 -1.890483126044273376e-02 -1.115481369197368622e-02 -2.493618987500667572e-02
-3.529468551278114319e-03 5.577568896114826202e-03 2.180490270256996155e-02 3.083048574626445770e-02
-1.001716591417789459e-02 -4.103795439004898071e-02 7.287462800741195679e-02 1.122787036001682281e-02
-6.130521371960639954e-02 -2.069316245615482330e-02 2.362509444355964661e-02 7.567510940134525299e-03
-1.438861619681119919e-02 5.299826711416244507e-02 6.794149428606033325e-02 3.008087724447250366e-02
3.910958021879196167e-02 -5.998167023062705994e-02 -2.362284623086452484e-02 -1.131214126944541931e-01
-3.679137676954269409e-02 -7.928993552923202515e-02 -6.192103028297424316e-02 -1.049268245697021484e-01
-7.506258785724639893e-02 1.459752582013607025e-02 -4.673837125301361084e-02 -4.902293533086776733e-02
1.663032546639442444e-02 6.179548427462577820e-02 -1.066327840089797974e-02 -1.511936541646718979e-02
3.032120689749717712e-02 -7.024260237812995911e-03 3.364001167938113213e-03 1.080785840749740601e-01
2.817994356155395508e-02 3.301631659269332886e-02 1.733165979385375977e-02 -4.174765571951866150e-02
-3.663058206439018250e-02 -9.765280038118362427e-02 -9.631805121898651123e-03 6.196697056293487549e-02
-7.763604074716567993e-02 -3.446647152304649353e-02 -9.552572667598724365e-02 -2.851942786946892738e-03
2.555072121322154999e-02 -2.601589821279048920e-02 1.360126864165067673e-02 -1.677390537224709988e-03
1.969392411410808563e-02 2.296636626124382019e-02 9.240516461431980133e-03 1.109228953719139099e-01
1.237884685397148132e-01 4.018344730138778687e-02 -3.978921473026275635e-02 2.302101254463195801e-02
3.378841327503323555e-03 -6.425086408853530884e-02 -3.389681922271847725e-03 -1.456109993159770966e-02
1.967119518667459488e-03 -2.520299144089221954e-02 4.380157217383384705e-02 -3.341151028871536255e-02
-7.884749025106430054e-02 -2.927667833864688873e-02 8.791840821504592896e-02 1.362300943583250046e-02
-5.194059386849403381e-02 -6.286602467298507690e-02 -7.304918766021728516e-02 -9.589780122041702271e-02
3.492642939090728760e-02 -9.882626123726367950e-03 3.071971796452999115e-02 1.519584376364946365e-02
-7.416792213916778564e-02 2.639725990593433380e-02 -1.138317678123712540e-02 -1.101823057979345322e-03
4.201520979404449463e-02 -4.789514839649200439e-02 -7.105309516191482544e-02 -8.102910965681076050e-02
-5.471967160701751709e-04 -4.342547804117202759e-02 -6.360989063978195190e-02 -9.291010349988937378e-02
7.332157343626022339e-03 -5.531472712755203247e-02 -4.794153198599815369e-02 1.573271863162517548e-02
-1.226917803287506104e-01 2.838194184005260468e-02 1.938492991030216217e-02 -1.785654388368129730e-02
-5.538516491651535034e-02 -1.234323251992464066e-02 -2.450381964445114136e-02 -1.120703592896461487e-01
-7.319007813930511475e-02 5.581639707088470459e-04 2.383807674050331116e-03 6.570025347173213959e-03
-1.027840562164783478e-02 5.420581251382827759e-02 -2.534578368067741394e-02 3.825201466679573059e-02
1.669271476566791534e-02 -8.181667886674404144e-03 4.685764200985431671e-03 8.856836939230561256e-04
3.832506015896797180e-02 2.185738086700439453e-02 -3.133718296885490417e-02 -3.684149309992790222e-02
-3.747918829321861267e-02 -4.807750880718231201e-02 9.911760687828063965e-03 1.358347479254007339e-02
9.277682751417160034e-02 -1.069229841232299805e-02 3.237924538552761078e-03 1.682714186608791351e-02
3.561657667160034180e-02 1.334905624389648438e-02 5.735233426094055176e-02 3.775025950744748116e-03
-2.256549708545207977e-02 -2.142343670129776001e-02 -2.533545158803462982e-02 -1.690256409347057343e-02
-3.506757691502571106e-02 -6.129875779151916504e-02 2.081365510821342468e-02 2.336713485419750214e-02
-2.516210079193115234e-02 -2.155321463942527771e-02 -8.634372800588607788e-02 -5.023423209786415100e-02
-4.667922854423522949e-02 5.342154204845428467e-02 -3.859421610832214355e-02 -4.287109244614839554e-03
-2.520262449979782104e-02 -6.141656264662742615e-02 -3.565410524606704712e-02 2.447978127747774124e-03
-2.134085446596145630e-02 -2.812450751662254333e-02 1.971659250557422638e-02 -6.528577208518981934e-02
2.349069900810718536e-02 2.314053289592266083e-02 5.375760141760110855e-03 -4.765389114618301392e-02
2.827520295977592468e-02 -4.130000621080398560e-02 5.070317909121513367e-02 4.297922179102897644e-02
3.458177670836448669e-02 3.263372927904129028e-02 2.025334630161523819e-03 1.457043737173080444e-02
4.028430953621864319e-02 7.225091685540974140e-04 -6.651122588664293289e-03 6.795102730393409729e-03
4.630099236965179443e-02 -5.030989181250333786e-03 4.009984899312257767e-03 1.278959400951862335e-02
9.798638522624969482e-03 4.737810045480728149e-02 2.763958834111690521e-02 -3.374101594090461731e-02
-5.876755458302795887e-04 -4.636127501726150513e-02 -2.913936413824558258e-02 6.056402251124382019e-02
3.166409581899642944e-02 1.104426104575395584e-03 -6.851811893284320831e-03 1.689453236758708954e-02
-5.269759893417358398e-02 2.843847125768661499e-02 -1.310746930539608002e-02 -7.506384700536727905e-02
-4.067524895071983337e-02 2.927052415907382965e-02 4.197627678513526917e-02 -2.878123894333839417e-03
-2.516314201056957245e-02 -3.833710029721260071e-02 3.957462310791015625e-02 3.032537549734115601e-02
-2.196620916947722435e-03 -7.051905244588851929e-02 -1.046744058839976788e-03 7.927859574556350708e-02
2.767664939165115356e-02 5.797097459435462952e-02 6.828757375478744507e-02 6.126544997096061707e-02
-9.482146799564361572e-02 3.762406110763549805e-02 4.584191367030143738e-02 2.060681022703647614e-02
1.297635305672883987e-02 -1.126235816627740860e-02 2.947514178231358528e-03 -1.397116016596555710e-02
-8.840572088956832886e-03 -2.093767561018466949e-02 3.364620357751846313e-02 1.130415406078100204e-02
-4.353947471827268600e-03 1.182640250772237778e-02 1.957396231591701508e-02 -8.738432079553604126e-03
-3.171329572796821594e-02 -2.685303986072540283e-02 -1.726322434842586517e-02 2.541883382946252823e-03
-1.789485849440097809e-02 -2.765129320323467255e-02 -1.566081121563911438e-02 9.460219880566000938e-04
-1.756877824664115906e-02 -5.089980550110340118e-03 2.428133413195610046e-02 1.465965528041124344e-02
-3.342556534335017204e-03 1.412482466548681259e-02 9.107635356485843658e-03 2.236777916550636292e-03
1.593817956745624542e-02 1.532468385994434357e-02 1.160259451717138290e-02 6.106672342866659164e-03
1.231977599672973156e-03 2.658918965607881546e-03 6.075961049646139145e-03 3.041063435375690460e-03
-2.592549286782741547e-02 -3.166989237070083618e-02 -2.880910597741603851e-02 -9.316202253103256226e-03
4.678098484873771667e-03 -1.173252891749143600e-02 -4.233942367136478424e-03 -1.218816731125116348e-02
2.874636091291904449e-02 1.917347684502601624e-02 -4.343965090811252594e-03 1.573522575199604034e-02
1.365046203136444092e-02 8.939563296735286713e-03 -1.469685602933168411e-02 1.235481724143028259e-02
6.969321053475141525e-03 1.392109319567680359e-02 -7.840938866138458252e-03 1.228380016982555389e-02
-2.436981908977031708e-02 -6.913895718753337860e-03 -1.769027300179004669e-02 1.381866447627544403e-02
-7.121873088181018829e-03 5.220035091042518616e-03 1.837931387126445770e-02 5.210264027118682861e-02
2.467812411487102509e-02 -1.026984024792909622e-02 5.640627350658178329e-03 1.999439485371112823e-02
2.581728622317314148e-02 2.365364320576190948e-02 2.084042504429817200e-02 1.475053722970187664e-03
-2.095288224518299103e-02 -1.214700005948543549e-02 2.123695425689220428e-02 1.865708082914352417e-02
7.211355026811361313e-03 6.733509711921215057e-03 -2.007101103663444519e-02 -1.463927701115608215e-02
-6.388090550899505615e-03 -9.161503054201602936e-03 2.261324599385261536e-02 3.986639901995658875e-03
6.998265627771615982e-03 -1.526845991611480713e-02 -8.652910590171813965e-03 -4.307066556066274643e-03
1.639434136450290680e-02 -2.922466211020946503e-02 -2.399151399731636047e-02 -4.630737937986850739e-03
1.827050745487213135e-02 -9.664692915976047516e-03 -1.042681559920310974e-02 5.887991283088922501e-03
2.670246409252285957e-03 3.538873046636581421e-02 -3.913535736501216888e-03 -2.254129573702812195e-02
-3.311294596642255783e-03 2.542824484407901764e-02 9.935804642736911774e-03 1.504973135888576508e-02
-4.429601831361651421e-04 2.149548940360546112e-02 -5.975854117423295975e-03 4.676736891269683838e-02
8.660762570798397064e-03 -1.929312747961375862e-05 1.340243685990571976e-02 -5.287635605782270432e-03
-8.507260121405124664e-03 -6.414948496967554092e-03 -3.414568491280078888e-03 1.744278706610202789e-02
8.538827300071716309e-03 -2.771182917058467865e-03 3.133447095751762390e-02 -8.446715772151947021e-03
7.861492340452969074e-04 1.341604627668857574e-02 1.039171591401100159e-02 2.311135083436965942e-02
1.186991855502128601e-02 2.182423369958996773e-03 1.284483168274164200e-02 -8.102870924631133676e-05
-9.168414771556854248e-02 -1.098264157772064209e-01 -1.549007371068000793e-02 4.010951519012451172e-02
-1.051870658993721008e-01 4.052551835775375366e-02 8.125797845423221588e-03 4.028008505702018738e-02
6.230834126472473145e-02 3.617296740412712097e-02 8.232251554727554321e-02 5.291015654802322388e-02
-6.907735764980316162e-02 -5.490528047084808350e-02 2.430652827024459839e-02 -3.824255988001823425e-02
-1.429992355406284332e-02 -1.323833689093589783e-02 3.341622278094291687e-02 2.556260488927364349e-02
-3.830600902438163757e-02 -2.833566628396511078e-02 -2.700106427073478699e-02 1.757498271763324738e-02
-3.762587532401084900e-02 -8.537156134843826294e-02 -4.556559398770332336e-02 -8.008484542369842529e-02
-2.523873001337051392e-02 1.855131611227989197e-02 8.627772331237792969e-03 -4.452363029122352600e-02
1.921678893268108368e-03 2.424779348075389862e-02 2.291044918820261955e-03 3.051920793950557709e-02
-6.595119088888168335e-02 -2.138192392885684967e-02 -3.094862215220928192e-02 1.853606291115283966e-02
-9.671102161519229412e-04 2.494374290108680725e-02 2.605346962809562683e-04 -4.080371931195259094e-02
2.823359519243240356e-02 -1.507856068201363087e-03 3.280078247189521790e-02 2.800103044137358665e-03
2.442644909024238586e-02 5.011895671486854553e-03 -1.905261538922786713e-02 -4.233282804489135742e-02
8.582101017236709595e-02 1.835506223142147064e-02 4.599828273057937622e-02 -1.972313597798347473e-02
3.000405430793762207e-02 5.648200865834951401e-03 6.840297486633062363e-03 2.325906790792942047e-02
4.150246456265449524e-02 1.690553501248359680e-02 -7.478880230337381363e-03 2.643246203660964966e-02
-4.699585959315299988e-02 -5.025674402713775635e-02 -4.999497905373573303e-02 -4.963626340031623840e-02
6.289404630661010742e-02 1.058702357113361359e-02 -4.558750241994857788e-02 2.160043688490986824e-03
-2.483757771551609039e-02 -2.369046583771705627e-02 -2.225971594452857971e-02 1.921138539910316467e-02
4.842407256364822388e-02 2.096592634916305542e-02 -2.486617863178253174e-02 1.013445798889733851e-04
8.193236775696277618e-03 -7.962215691804885864e-02 -2.486476860940456390e-02 -8.923987857997417450e-03
-1.022235304117202759e-01 -4.858126118779182434e-02 -4.050396755337715149e-02 -4.948740825057029724e-02
2.713145315647125244e-02 4.045099765062332153e-02 -9.458755701780319214e-02 -1.374594569206237793e-01
3.378422185778617859e-02 2.723337523639202118e-02 -1.740360446274280548e-02 -1.080336887389421463e-02
-8.853835053741931915e-03 5.212035402655601501e-02 -1.299289520829916000e-03 3.503357246518135071e-02
-4.181244410574436188e-03 4.345126822590827942e-02 -8.847775869071483612e-03 -3.996569290757179260e-02
-4.071474447846412659e-02 -6.526710093021392822e-02 4.487857222557067871e-02 -5.646590143442153931e-02
1.078939530998468399e-02 -6.759702228009700775e-03 -7.071962207555770874e-02 -2.121935971081256866e-02
5.044248700141906738e-02 -6.946120411157608032e-02 -1.602882333099842072e-02 -3.195467405021190643e-03
-1.309313625097274780e-02 5.342090502381324768e-02 -3.782349638640880585e-03 4.234380275011062622e-02
1.344381249509751797e-03 2.976586343720555305e-03 4.888956993818283081e-02 7.659149169921875000e-02
3.471052646636962891e-02 -2.766272425651550293e-02 -4.445296898484230042e-02 -1.288648396730422974e-01
1.728942804038524628e-02 2.246152795851230621e-02 1.812351122498512268e-02 -1.553910318762063980e-02
3.074209904298186302e-03 2.785658463835716248e-02 2.154983207583427429e-02 2.756759710609912872e-02
-6.855668965727090836e-03 4.873105790466070175e-03 -9.048490901477634907e-04 -1.814819313585758209e-02
-1.826776377856731415e-02 4.808616358786821365e-03 2.432157471776008606e-02 2.046713838353753090e-03
7.164806593209505081e-03 -2.324387431144714355e-02 -3.013177774846553802e-02 -1.422467269003391266e-02
2.151518128812313080e-02 1.345743425190448761e-02 -1.665053702890872955e-02 2.405503392219543457e-02
1.700820028781890869e-02 1.705958507955074310e-02 -1.960222050547599792e-02 6.215939647518098354e-04
3.141802549362182617e-02 2.468319423496723175e-02 -1.846685260534286499e-02 2.290933020412921906e-02
9.560081176459789276e-03 -2.670382848009467125e-03 1.350528933107852936e-02 -1.387234684079885483e-02
-4.528678022325038910e-03 -2.353847213089466095e-02 -1.884067989885807037e-02 -2.890623547136783600e-02
-1.900930143892765045e-02 -1.168011687695980072e-02 -2.354044839739799500e-02 1.655770465731620789e-02
1.309411483816802502e-03 2.173546142876148224e-02 9.920554002746939659e-04 -2.168292179703712463e-02
-1.761116087436676025e-02 9.919977746903896332e-03 -2.286719536641612649e-04 2.305896021425724030e-02
-3.368749283254146576e-03 -7.051503751426935196e-03 -1.071118563413619995e-02 2.045940980315208435e-02
4.178152885288000107e-03 5.981393624097108841e-03 -1.773338881321251392e-03 1.245317328721284866e-02
2.344691194593906403e-02 1.835292764008045197e-02 1.735577918589115143e-02 1.329625491052865982e-02
-5.684094037860631943e-03 1.367484126240015030e-02 -1.412695832550525665e-02 -3.630593186244368553e-03
2.231871336698532104e-02 -6.499508395791053772e-03 2.341458108276128769e-03 -1.408594194799661636e-02
2.087376313284039497e-03 -1.200840852106921375e-04 1.030046306550502777e-02 3.046810068190097809e-02
8.010130259208381176e-04 -2.216711267828941345e-02 -4.006063099950551987e-04 -1.385676860809326172e-02
8.679979480803012848e-03 4.716154653578996658e-03 -1.919196918606758118e-02 -1.777441799640655518e-02
1.119764894247055054e-02 -2.728206105530261993e-02 1.210972294211387634e-02 -8.544490672647953033e-03
3.025024430826306343e-03 1.732694543898105621e-02 2.813594182953238487e-03 6.979806814342737198e-03
-1.204374153167009354e-02 1.939225010573863983e-02 -2.610302343964576721e-02 1.996898464858531952e-02
-1.492972113192081451e-02 1.046154275536537170e-02 1.282311137765645981e-02 -1.705380529165267944e-02
2.790077822282910347e-03 -1.168484520167112350e-02 -7.143530994653701782e-03 4.089256748557090759e-02
-8.359204046428203583e-03 -9.469544515013694763e-03 -2.973813330754637718e-03 2.873110212385654449e-02
-1.812897063791751862e-02 3.422459587454795837e-03 1.467436831444501877e-02 1.866548880934715271e-02
9.844725020229816437e-03 -2.298854291439056396e-02 -1.487785670906305313e-02 8.735307492315769196e-03
1.374252699315547943e-02 -2.260573580861091614e-02 1.077128294855356216e-02 -3.508009947836399078e-03
1.094353944063186646e-02 3.534982725977897644e-02 1.705741509795188904e-02 -1.207352243363857269e-02
3.920428920537233353e-03 2.600229112431406975e-03 -1.447404548525810242e-02 1.517320144921541214e-02
2.827608771622180939e-02 -3.448877856135368347e-02 -7.806108333170413971e-03 -7.290200330317020416e-03
-1.172405201941728592e-02 1.808197470381855965e-03 3.236859291791915894e-02 3.820100100710988045e-03
-2.180386334657669067e-02 -3.243399038910865784e-02 -8.396853692829608917e-03 1.052886713296175003e-02
-1.656896807253360748e-02 -2.734581567347049713e-02 2.890976332128047943e-02 -7.011090870946645737e-03
1.081558037549257278e-02 6.136309821158647537e-03 1.453065685927867889e-02 1.732154935598373413e-02
-2.537347748875617981e-02 1.983231306076049805e-02 2.225997857749462128e-02 1.008885260671377182e-02
1.437910459935665131e-02 2.620979771018028259e-02 2.835117746144533157e-03 -3.786866366863250732e-02
-7.558727636933326721e-03 8.613567799329757690e-03 9.324675425887107849e-03 2.951689623296260834e-02
-3.613123670220375061e-02 -1.361614279448986053e-02 -2.624724619090557098e-02 -2.251071296632289886e-02
-4.112390335649251938e-03 -1.777958869934082031e-02 -4.909814521670341492e-02 -4.000376164913177490e-02
-2.132317610085010529e-02 1.955249346792697906e-03 1.541652809828519821e-02 -2.112618647515773773e-02
-5.816375371068716049e-03 1.808796636760234833e-02 2.532613091170787811e-02 -2.239668555557727814e-02
-2.643610583618283272e-03 2.061314648017287254e-03 3.485084325075149536e-02 4.275276511907577515e-02
-2.018150314688682556e-02 1.309171877801418304e-02 2.670181856956332922e-04 2.363746799528598785e-02
1.618793793022632599e-02 2.609648369252681732e-02 5.003840196877717972e-03 1.137643028050661087e-02
-3.012939170002937317e-02 1.881337491795420647e-03 2.401946112513542175e-02 1.866729743778705597e-02
2.772513404488563538e-02 4.688286688178777695e-03 9.002246893942356110e-03 2.017710171639919281e-02
2.603653352707624435e-03 -7.577978540211915970e-03 -2.423732914030551910e-02 -6.937794969417154789e-04
1.502256095409393311e-02 1.319285947829484940e-02 3.607134567573666573e-03 -4.584818612784147263e-03
-3.497154638171195984e-02 -1.760305650532245636e-02 -2.826371788978576660e-02 1.359010487794876099e-02
-2.416374161839485168e-02 7.632048334926366806e-03 2.473897859454154968e-02 1.981743238866329193e-02
-3.444758802652359009e-02 -4.738501459360122681e-02 -2.145390212535858154e-02 -4.080396518111228943e-02
-8.306751959025859833e-03 -1.135398540645837784e-02 -8.182125166058540344e-03 -2.689169952645897865e-03
-4.231199156492948532e-03 -2.722544409334659576e-02 -6.788860540837049484e-03 -2.896228060126304626e-02
1.463715569116175175e-03 6.880162749439477921e-03 1.370016764849424362e-02 -3.408348187804222107e-02
1.816481538116931915e-02 2.529182285070419312e-02 -3.769294358789920807e-03 1.700822077691555023e-02
-3.147843107581138611e-02 9.036988485604524612e-04 3.044983837753534317e-03 7.022670656442642212e-02
-4.218512214720249176e-03 1.307885162532329559e-02 -7.596084033139050007e-04 -5.667101126164197922e-03
-5.991990491747856140e-02 -2.809043414890766144e-02 -3.351110219955444336e-02 -2.150767855346202850e-02
2.496911585330963135e-02 6.679416983388364315e-04 -5.438856780529022217e-03 3.396744281053543091e-02
-8.647162467241287231e-03 2.026474103331565857e-03 -2.902241051197052002e-02 1.159431226551532745e-02
4.701098054647445679e-02 3.628204017877578735e-02 -9.214519523084163666e-03 -4.801849648356437683e-02
5.243311636149883270e-03 2.082896418869495392e-02 1.031798124313354492e-02 -2.602478256449103355e-03
1.486279442906379700e-02 4.152007400989532471e-02 1.703277416527271271e-02 -2.584205474704504013e-03
-2.741469815373420715e-02 2.196507900953292847e-02 -1.647725328803062439e-02 1.171424798667430878e-02
1.263908483088016510e-02 2.012581191956996918e-02 2.664337307214736938e-02 1.111593842506408691e-02
1.612208224833011627e-02 -2.583718858659267426e-02 7.269319612532854080e-03 4.679973237216472626e-03
-2.442850731313228607e-02 1.405469141900539398e-02 1.157278529717586935e-04 -5.254420451819896698e-03
-1.267209998331964016e-03 2.472277730703353882e-02 1.575531251728534698e-02 -1.750267110764980316e-03
-2.217207849025726318e-02 2.262213383801281452e-04 -9.311984293162822723e-03 -1.513906195759773254e-02
1.709738746285438538e-02 -4.038529004901647568e-04 -3.292459622025489807e-02 -1.280510611832141876e-02
-4.069526121020317078e-02 -3.706742078065872192e-02 -3.016239404678344727e-02 -2.789213880896568298e-02
-2.165110222995281219e-02 4.628635011613368988e-03 5.572802852839231491e-03 -1.289982907474040985e-02
1.320014428347349167e-02 -8.669134229421615601e-03 2.401940152049064636e-02 5.496987607330083847e-03
-5.584104452282190323e-03 -1.596609875559806824e-02 -9.089683182537555695e-03 -1.645770855247974396e-02
-2.240924723446369171e-02 1.261840853840112686e-02 -2.244293875992298126e-02 -1.908985711634159088e-02
2.605389431118965149e-02 3.719154512509703636e-03 -1.020179409533739090e-02 -1.913004368543624878e-02
1.183913182467222214e-02 2.184802480041980743e-02 2.194357337430119514e-03 2.022382803261280060e-02
7.385828532278537750e-03 1.660616882145404816e-02 2.185339806601405144e-03 1.513356692157685757e-03
7.220748346298933029e-03 -2.001808490604162216e-03 -1.450020167976617813e-02 4.955500364303588867e-02
9.031268768012523651e-03 -3.057000041007995605e-02 -3.363669384270906448e-04 -1.778145693242549896e-02
1.080037280917167664e-02 -2.983440458774566650e-02 1.391337998211383820e-02 -3.507235087454319000e-03
1.099761924706399441e-03 1.846662908792495728e-02 9.762289002537727356e-03 -9.473599493503570557e-03
-4.460738226771354675e-02 -3.503748401999473572e-02 -4.502471908926963806e-02 -4.755127429962158203e-02
-1.072562020272016525e-02 -8.220434188842773438e-03 3.993096295744180679e-03 -1.008499134331941605e-02
5.910155596211552620e-04 -6.868550088256597519e-03 -4.240149632096290588e-03 -2.985521033406257629e-02
-2.191782183945178986e-02 7.634250912815332413e-03 -3.130232449620962143e-03 4.878653213381767273e-03
2.804612973704934120e-03 1.310780760832130909e-03 -1.565830409526824951e-02 3.989310935139656067e-02
-8.027279400266706944e-04 -2.095721289515495300e-02 1.598725467920303345e-02 2.999883377924561501e-03
1.901292242109775543e-02 -4.255324311088770628e-04 2.510523796081542969e-02 -5.237741395831108093e-03
-3.144817799329757690e-02 -3.288726881146430969e-02 -2.476321533322334290e-02 -7.106963079422712326e-03
-1.513480488210916519e-02 5.673973821103572845e-03 -2.045675739645957947e-02 -5.003532860428094864e-03
1.292150234803557396e-03 1.780513301491737366e-02 1.698907651007175446e-02 5.643619224429130554e-03
8.989053778350353241e-03 2.270804718136787415e-02 -2.340104430913925171e-02 -2.279260754585266113e-02
4.108808469027280807e-03 2.517655305564403534e-02 -1.687637902796268463e-02 -6.678168475627899170e-02
7.052925229072570801e-02 -2.611620537936687469e-02 -2.290334925055503845e-02 -1.227803826332092285e-01
5.005689710378646851e-02 6.821559276431798935e-03 -3.204923868179321289e-02 8.258052170276641846e-02
3.931866958737373352e-02 2.728486992418766022e-02 -5.277989897876977921e-03 -5.861854925751686096e-02
-3.722078725695610046e-02 -2.522791177034378052e-02 7.874746620655059814e-02 -2.878550626337528229e-02
-4.793975502252578735e-03 -6.557601969689130783e-03 -2.766543067991733551e-02 2.043368481099605560e-02
3.141016140580177307e-02 -6.120828446000814438e-03 -7.824200205504894257e-03 -6.373949348926544189e-02
-8.388216793537139893e-02 -7.629321888089179993e-03 -7.652735710144042969e-02 -2.590314019471406937e-03
-5.039388313889503479e-02 -4.539275541901588440e-02 3.021635115146636963e-03 -7.988084852695465088e-02
-1.397331245243549347e-02 4.981258884072303772e-03 1.620442979037761688e-02 3.203920274972915649e-02
-1.083827763795852661e-02 2.306285873055458069e-02 -1.248249225318431854e-02 3.799752518534660339e-02
-3.650857508182525635e-02 -5.713255610316991806e-03 1.004533935338258743e-02 -5.688557401299476624e-03
-2.570393122732639313e-02 1.855730265378952026e-02 3.614848479628562927e-03 4.912161082029342651e-02
5.177958402782678604e-03 -3.139789775013923645e-02 -7.053243461996316910e-03 -3.214537864550948143e-03
-9.162735939025878906e-02 -3.285259706899523735e-03 -1.057340297847986221e-02 4.004707187414169312e-02
-8.333045244216918945e-02 1.508277468383312225e-02 2.317866869270801544e-02 -3.593222424387931824e-02
-8.767702430486679077e-02 -3.021113015711307526e-02 -1.436282880604267120e-02 -2.483607642352581024e-02
2.043450064957141876e-02 5.062416195869445801e-03 -1.641346327960491180e-02 -4.840256646275520325e-02
-1.144717037677764893e-01 -7.322979159653186798e-03 1.135173067450523376e-02 -7.834862172603607178e-02
2.107170224189758301e-02 -7.030942477285861969e-03 -4.062126949429512024e-02 -3.192777803633362055e-04
1.018862612545490265e-02 7.642368436791002750e-04 4.455262795090675354e-03 1.050686649978160858e-02
5.830430891364812851e-03 -2.470813691616058350e-02 -1.016343198716640472e-02 -5.975014937575906515e-05
4.677328252000734210e-05 4.408085346221923828e-02 6.524496525526046753e-02 -4.646571725606918335e-02
-3.146158903837203979e-02 6.088477093726396561e-03 1.053229905664920807e-02 -3.088194504380226135e-02
6.126095354557037354e-02 -2.133148722350597382e-02 2.993818558752536774e-02 2.106560021638870239e-02
-7.214507460594177246e-02 7.849245518445968628e-02 6.772597134113311768e-02 3.105639014393091202e-03
-4.557172209024429321e-02 -2.244734577834606171e-02 -1.148219686001539230e-02 -8.940772153437137604e-03
2.215925790369510651e-02 5.717024207115173340e-02 2.488402277231216431e-02 -3.813209384679794312e-02
-1.134002581238746643e-02 -2.414396498352289200e-03 -3.010032884776592255e-02 2.809583395719528198e-02
-1.260551512241363525e-01 -5.431320983916521072e-03 -7.878301665186882019e-03 -1.022427622228860855e-02
-1.446750480681657791e-02 4.731232300400733948e-03 -4.166725277900695801e-02 -1.705340482294559479e-02
5.019228532910346985e-02 -1.354383584111928940e-02 -3.582340199500322342e-03 -8.285067975521087646e-02
-5.408281087875366211e-02 -2.402842789888381958e-02 -2.211323380470275879e-02 -7.738564163446426392e-02
4.052792210131883621e-03 -8.909539878368377686e-02 -5.404746904969215393e-02 -8.493361622095108032e-02
-3.026672080159187317e-02 -2.983051910996437073e-02 1.009571701288223267e-01 -5.688356235623359680e-02
-2.399621007498353720e-04 -2.954420074820518494e-02 -1.905163377523422241e-02 -7.464215625077486038e-03
-4.187896102666854858e-02 9.173573553562164307e-02 5.403447523713111877e-02 -8.818820863962173462e-02
2.411553077399730682e-02 -3.448451682925224304e-02 1.530481036752462387e-02 1.106547340750694275e-01
9.182254225015640259e-02 2.106180042028427124e-02 9.935896843671798706e-02 -7.047899812459945679e-02
-1.031546145677566528e-01 1.755419559776782990e-02 -4.080222547054290771e-02 -3.263438865542411804e-02
5.589338392019271851e-02 -1.500015985220670700e-02 5.258231237530708313e-02 9.256729856133460999e-03
